~o
<STREAMINFO> 1 8
<VECSIZE> 8<NULLD><USER><DIAGC>
~h "a"
<BEGINHMM>
<NUMSTATES> 6
<STATE> 2
<MEAN> 8
 -7.203063e+00 -9.179277e+00 -8.551129e+00 -9.319479e+00 -8.078235e+00 -9.418488e+00 -8.759468e+00 -8.922702e+00
<VARIANCE> 8
 5.494598e+01 6.067736e+01 5.883543e+01 5.460379e+01 5.434217e+01 6.255377e+01 4.882888e+01 5.596624e+01
<GCONST> 4.693418e+01
<STATE> 3
<MEAN> 8
 -3.971844e+00 -6.995492e+00 -5.674397e+00 -6.408533e+00 -6.995443e+00 -6.099108e+00 -5.785563e+00 -6.528164e+00
<VARIANCE> 8
 3.659398e+01 2.016954e+01 2.329139e+01 4.586661e+01 2.125121e+01 2.695252e+01 3.169643e+01 1.994757e+01
<GCONST> 4.108070e+01
<STATE> 4
<MEAN> 8
 -7.890278e+00 -9.959062e+00 -8.921138e+00 -9.806945e+00 -7.889330e+00 -1.036829e+01 -8.567122e+00 -1.150358e+01
<VARIANCE> 8
 6.236605e+01 1.256436e+02 5.901498e+01 8.381772e+01 8.345132e+01 8.044309e+01 7.703715e+01 1.005117e+02
<GCONST> 4.994230e+01
<STATE> 5
<MEAN> 8
 -5.754374e+00 -7.962296e+00 -6.996774e+00 -8.411718e+00 -6.702006e+00 -8.328898e+00 -6.770100e+00 -7.770317e+00
<VARIANCE> 8
 3.164551e+01 3.370374e+01 4.392167e+01 3.527253e+01 4.349387e+01 4.280865e+01 3.760939e+01 4.122775e+01
<GCONST> 4.389646e+01
<TRANSP> 6
 0.000000e+00 1.000000e+00 0.000000e+00 0.000000e+00 0.000000e+00 0.000000e+00
 0.000000e+00 6.416060e-01 3.583941e-01 0.000000e+00 0.000000e+00 0.000000e+00
 0.000000e+00 0.000000e+00 6.819214e-01 3.180786e-01 0.000000e+00 0.000000e+00
 0.000000e+00 0.000000e+00 0.000000e+00 4.023630e-01 5.976370e-01 0.000000e+00
 0.000000e+00 0.000000e+00 0.000000e+00 0.000000e+00 7.244250e-01 2.755751e-01
 0.000000e+00 0.000000e+00 0.000000e+00 0.000000e+00 0.000000e+00 0.000000e+00
<ENDHMM>
