~o
<STREAMINFO> 1 8
<VECSIZE> 8<NULLD><USER><DIAGC>
~h "b"
<BEGINHMM>
<NUMSTATES> 6
<STATE> 2
<MEAN> 8
 -7.842948e+00 -9.600513e+00 -8.755244e+00 -9.858543e+00 -7.937896e+00 -9.766128e+00 -9.156149e+00 -9.395794e+00
<VARIANCE> 8
 6.990924e+01 7.676060e+01 6.253308e+01 8.250891e+01 6.369566e+01 9.921378e+01 6.139796e+01 8.338795e+01
<GCONST> 4.913179e+01
<STATE> 3
<MEAN> 8
 -5.272595e+00 -8.784036e+00 -5.516603e+00 -7.806961e+00 -8.669551e+00 -8.074846e+00 -5.636753e+00 -9.127442e+00
<VARIANCE> 8
 3.772308e+01 2.623511e+01 2.130965e+01 5.108983e+01 4.510089e+01 2.938490e+01 4.532487e+01 2.102304e+01
<GCONST> 4.264199e+01
<STATE> 4
<MEAN> 8
 -5.407341e+00 -5.976502e+00 -1.357591e+01 -8.740789e+00 -1.992794e+00 -1.030215e+01 -6.161427e+00 -5.773562e+00
<VARIANCE> 8
 1.954812e+01 1.104674e+02 4.236176e+01 4.543505e+01 5.603570e+01 1.671386e+01 1.563997e+01 9.135236e+01
<GCONST> 4.404993e+01
<STATE> 5
<MEAN> 8
 -6.508613e+00 -7.681059e+00 -6.552063e+00 -7.596615e+00 -7.382546e+00 -7.178709e+00 -7.961804e+00 -7.423385e+00
<VARIANCE> 8
 5.057193e+01 4.010303e+01 4.247812e+01 4.218132e+01 3.068357e+01 5.405494e+01 3.982972e+01 4.498079e+01
<GCONST> 4.471341e+01
<TRANSP> 6
 0.000000e+00 1.000000e+00 0.000000e+00 0.000000e+00 0.000000e+00 0.000000e+00
 0.000000e+00 6.323957e-01 3.676043e-01 0.000000e+00 0.000000e+00 0.000000e+00
 0.000000e+00 0.000000e+00 6.471136e-01 3.528864e-01 0.000000e+00 0.000000e+00
 0.000000e+00 0.000000e+00 0.000000e+00 0.000000e+00 1.000000e+00 0.000000e+00
 0.000000e+00 0.000000e+00 0.000000e+00 0.000000e+00 7.870787e-01 2.129214e-01
 0.000000e+00 0.000000e+00 0.000000e+00 0.000000e+00 0.000000e+00 0.000000e+00
<ENDHMM>
