~o
<STREAMINFO> 1 8
<VECSIZE> 8<NULLD><USER><DIAGC>
~h "e"
<BEGINHMM>
<NUMSTATES> 6
<STATE> 2
<MEAN> 8
 -5.434847e+00 -8.727325e+00 -6.781579e+00 -8.078195e+00 -7.345360e+00 -7.897619e+00 -6.419562e+00 -9.042159e+00
<VARIANCE> 8
 4.842909e+01 4.691424e+01 3.360208e+01 4.224855e+01 3.457329e+01 3.474105e+01 4.880814e+01 3.940263e+01
<GCONST> 4.434233e+01
<STATE> 3
<MEAN> 8
 -7.903768e+00 -9.189973e+00 -9.462701e+00 -9.875422e+00 -7.806541e+00 -1.127694e+01 -9.332857e+00 -9.464917e+00
<VARIANCE> 8
 6.181643e+01 1.044705e+02 6.623992e+01 8.736653e+01 8.931554e+01 9.152495e+01 7.677051e+01 1.139302e+02
<GCONST> 5.022468e+01
<STATE> 4
<MEAN> 8
 -5.731242e+00 -8.411077e+00 -5.371920e+00 -9.466456e+00 -5.780502e+00 -8.200897e+00 -5.454978e+00 -7.735958e+00
<VARIANCE> 8
 1.316567e+01 2.004113e+01 5.760226e+01 2.596930e+01 4.848802e+01 3.796909e+01 1.819234e+01 1.956484e+01
<GCONST> 4.098172e+01
<STATE> 5
<MEAN> 8
 -5.705560e+00 -7.375462e+00 -7.691265e+00 -6.927241e+00 -7.799124e+00 -7.052970e+00 -7.995114e+00 -7.394519e+00
<VARIANCE> 8
 5.516928e+01 4.810460e+01 3.445110e+01 5.377791e+01 3.218936e+01 4.937270e+01 4.117143e+01 5.022330e+01
<GCONST> 4.511646e+01
<TRANSP> 6
 0.000000e+00 1.000000e+00 0.000000e+00 0.000000e+00 0.000000e+00 0.000000e+00
 0.000000e+00 6.683728e-01 3.316272e-01 0.000000e+00 0.000000e+00 0.000000e+00
 0.000000e+00 0.000000e+00 4.704429e-01 5.295571e-01 0.000000e+00 0.000000e+00
 0.000000e+00 0.000000e+00 0.000000e+00 5.688641e-01 4.311359e-01 0.000000e+00
 0.000000e+00 0.000000e+00 0.000000e+00 0.000000e+00 7.539956e-01 2.460044e-01
 0.000000e+00 0.000000e+00 0.000000e+00 0.000000e+00 0.000000e+00 0.000000e+00
<ENDHMM>
