~o
<STREAMINFO> 1 8
<VECSIZE> 8<NULLD><USER><DIAGC>
~h "h"
<BEGINHMM>
<NUMSTATES> 6
<STATE> 2
<MEAN> 8
 -5.591052e+00 -7.376796e+00 -6.904642e+00 -7.595415e+00 -6.437647e+00 -7.670177e+00 -7.155878e+00 -7.417960e+00
<VARIANCE> 8
 4.051469e+01 3.734451e+01 3.730396e+01 3.677662e+01 3.188066e+01 4.423177e+01 3.727931e+01 3.781913e+01
<GCONST> 4.375153e+01
<STATE> 3
<MEAN> 8
 -3.983532e+00 -1.074245e+01 -4.696646e+00 -8.397707e+00 -1.176839e+01 -7.683031e+00 -4.415751e+00 -1.024498e+01
<VARIANCE> 8
 4.380788e+01 2.512562e+01 1.290003e+01 1.070386e+02 4.763226e+01 2.453098e+01 6.175899e+01 2.510226e+01
<GCONST> 4.334678e+01
<STATE> 4
<MEAN> 8
 -4.736057e+00 -7.583928e+00 -1.145224e+01 -7.626643e+00 -4.105285e+00 -9.370497e+00 -5.397574e+00 -7.753223e+00
<VARIANCE> 8
 1.319622e+01 1.104789e+02 4.560780e+01 2.502651e+01 6.211913e+01 2.514659e+01 1.443988e+01 9.852552e+01
<GCONST> 4.364188e+01
<STATE> 5
<MEAN> 8
 -6.974099e+00 -9.627880e+00 -7.314943e+00 -9.855392e+00 -7.765831e+00 -9.571776e+00 -8.432311e+00 -9.628373e+00
<VARIANCE> 8
 5.417072e+01 6.344005e+01 6.040992e+01 6.230782e+01 5.325188e+01 7.084100e+01 5.870668e+01 6.477132e+01
<GCONST> 4.755738e+01
<TRANSP> 6
 0.000000e+00 1.000000e+00 0.000000e+00 0.000000e+00 0.000000e+00 0.000000e+00
 0.000000e+00 8.154039e-01 1.845961e-01 0.000000e+00 0.000000e+00 0.000000e+00
 0.000000e+00 0.000000e+00 0.000000e+00 1.000000e+00 0.000000e+00 0.000000e+00
 0.000000e+00 0.000000e+00 0.000000e+00 0.000000e+00 1.000000e+00 0.000000e+00
 0.000000e+00 0.000000e+00 0.000000e+00 0.000000e+00 7.364804e-01 2.635196e-01
 0.000000e+00 0.000000e+00 0.000000e+00 0.000000e+00 0.000000e+00 0.000000e+00
<ENDHMM>
