~o
<STREAMINFO> 1 8
<VECSIZE> 8<NULLD><USER><DIAGC>
~h "i"
<BEGINHMM>
<NUMSTATES> 6
<STATE> 2
<MEAN> 8
 -7.294936e+00 -1.014092e+01 -8.470409e+00 -9.939292e+00 -8.849733e+00 -1.006175e+01 -8.194623e+00 -1.046013e+01
<VARIANCE> 8
 5.875616e+01 8.396765e+01 6.486668e+01 7.451144e+01 6.493385e+01 7.488139e+01 6.765754e+01 7.930067e+01
<GCONST> 4.876711e+01
<STATE> 3
<MEAN> 8
 -4.843638e+00 -6.255333e+00 -6.455501e+00 -7.265768e+00 -5.365115e+00 -6.932390e+00 -6.747698e+00 -5.457265e+00
<VARIANCE> 8
 3.192197e+01 2.183613e+01 3.743268e+01 2.822237e+01 2.762431e+01 3.833653e+01 2.063500e+01 2.321069e+01
<GCONST> 4.134924e+01
<STATE> 4
<MEAN> 8
 -6.910231e+00 -1.317783e+01 -6.342400e+00 -8.838072e+00 -1.062515e+01 -9.371799e+00 -7.559145e+00 -1.364186e+01
<VARIANCE> 8
 6.749966e+01 4.684419e+01 3.258986e+01 9.397282e+01 4.152498e+01 6.465580e+01 9.644602e+01 5.018947e+01
<GCONST> 4.716914e+01
<STATE> 5
<MEAN> 8
 -6.114321e+00 -7.175913e+00 -7.979226e+00 -7.893447e+00 -7.345929e+00 -8.003037e+00 -7.542907e+00 -7.431777e+00
<VARIANCE> 8
 4.172777e+01 4.639785e+01 4.279838e+01 4.486397e+01 4.441097e+01 4.712802e+01 3.707962e+01 4.369491e+01
<GCONST> 4.486823e+01
<TRANSP> 6
 0.000000e+00 1.000000e+00 0.000000e+00 0.000000e+00 0.000000e+00 0.000000e+00
 0.000000e+00 6.295751e-01 3.704249e-01 0.000000e+00 0.000000e+00 0.000000e+00
 0.000000e+00 0.000000e+00 7.048274e-01 2.951726e-01 0.000000e+00 0.000000e+00
 0.000000e+00 0.000000e+00 0.000000e+00 2.326797e-01 7.673203e-01 0.000000e+00
 0.000000e+00 0.000000e+00 0.000000e+00 0.000000e+00 7.440407e-01 2.559593e-01
 0.000000e+00 0.000000e+00 0.000000e+00 0.000000e+00 0.000000e+00 0.000000e+00
<ENDHMM>
