~o
<STREAMINFO> 1 8
<VECSIZE> 8<NULLD><USER><DIAGC>
~h "l"
<BEGINHMM>
<NUMSTATES> 6
<STATE> 2
<MEAN> 8
 -6.630721e+00 -9.324300e+00 -8.682716e+00 -8.909225e+00 -8.156990e+00 -9.499883e+00 -7.784702e+00 -9.250587e+00
<VARIANCE> 8
 5.815281e+01 6.788785e+01 5.889766e+01 6.101327e+01 6.135393e+01 6.699129e+01 5.872961e+01 7.341694e+01
<GCONST> 4.786116e+01
<STATE> 3
<MEAN> 8
 -7.884785e+00 -6.720170e+00 -5.588373e+00 -1.057165e+01 -4.541983e+00 -8.151699e+00 -1.210963e+01 -6.727857e+00
<VARIANCE> 8
 5.837063e+01 2.117947e+01 5.141275e+01 3.722956e+01 1.363246e+01 9.096021e+01 4.341543e+01 2.057010e+01
<GCONST> 4.329738e+01
<STATE> 4
<MEAN> 8
 -3.821036e+00 -1.108611e+01 -4.743214e+00 -7.753342e+00 -1.258516e+01 -7.322163e+00 -4.172752e+00 -1.128380e+01
<VARIANCE> 8
 3.587532e+01 3.029169e+01 1.366710e+01 1.209331e+02 4.262011e+01 2.552045e+01 6.591235e+01 3.492710e+01
<GCONST> 4.383757e+01
<STATE> 5
<MEAN> 8
 -5.684687e+00 -7.400779e+00 -7.202939e+00 -7.578518e+00 -6.353099e+00 -7.769556e+00 -6.727276e+00 -7.313087e+00
<VARIANCE> 8
 3.712558e+01 4.681709e+01 4.315777e+01 3.729700e+01 3.965001e+01 3.906372e+01 3.225810e+01 4.245407e+01
<GCONST> 4.411483e+01
<TRANSP> 6
 0.000000e+00 1.000000e+00 0.000000e+00 0.000000e+00 0.000000e+00 0.000000e+00
 0.000000e+00 7.433352e-01 2.566648e-01 0.000000e+00 0.000000e+00 0.000000e+00
 0.000000e+00 0.000000e+00 0.000000e+00 1.000000e+00 0.000000e+00 0.000000e+00
 0.000000e+00 0.000000e+00 0.000000e+00 1.103753e-03 9.988962e-01 0.000000e+00
 0.000000e+00 0.000000e+00 0.000000e+00 0.000000e+00 8.123574e-01 1.876425e-01
 0.000000e+00 0.000000e+00 0.000000e+00 0.000000e+00 0.000000e+00 0.000000e+00
<ENDHMM>
