~o
<STREAMINFO> 1 8
<VECSIZE> 8<NULLD><USER><DIAGC>
~h "o"
<BEGINHMM>
<NUMSTATES> 6
<STATE> 2
<MEAN> 8
 -7.028770e+00 -9.499336e+00 -8.575677e+00 -9.532916e+00 -8.307858e+00 -9.393368e+00 -8.696949e+00 -9.331756e+00
<VARIANCE> 8
 6.159987e+01 8.612081e+01 6.392067e+01 7.557443e+01 5.992138e+01 6.904745e+01 5.975801e+01 6.937799e+01
<GCONST> 4.841989e+01
<STATE> 3
<MEAN> 8
 -4.523983e+00 -7.412115e+00 -5.600978e+00 -7.152519e+00 -6.949199e+00 -7.028329e+00 -5.747284e+00 -7.320059e+00
<VARIANCE> 8
 3.186771e+01 2.601268e+01 2.494879e+01 3.823747e+01 3.133857e+01 2.497944e+01 3.342407e+01 2.192046e+01
<GCONST> 4.154344e+01
<STATE> 4
<MEAN> 8
 -4.629246e+00 -8.043273e+00 -1.144879e+01 -7.279261e+00 -4.741882e+00 -9.094821e+00 -4.699118e+00 -9.138097e+00
<VARIANCE> 8
 1.328908e+01 1.109943e+02 3.410638e+01 2.269441e+01 6.062960e+01 2.192045e+01 1.219692e+01 1.427788e+02
<GCONST> 4.330572e+01
<STATE> 5
<MEAN> 8
 -7.059571e+00 -8.534988e+00 -6.993104e+00 -9.013060e+00 -7.429070e+00 -8.863908e+00 -8.241021e+00 -8.435928e+00
<VARIANCE> 8
 4.865403e+01 3.481833e+01 4.656902e+01 4.897740e+01 4.505529e+01 6.747945e+01 5.085160e+01 4.372308e+01
<GCONST> 4.559669e+01
<TRANSP> 6
 0.000000e+00 1.000000e+00 0.000000e+00 0.000000e+00 0.000000e+00 0.000000e+00
 0.000000e+00 6.012716e-01 3.987284e-01 0.000000e+00 0.000000e+00 0.000000e+00
 0.000000e+00 0.000000e+00 7.323171e-01 2.676829e-01 0.000000e+00 0.000000e+00
 0.000000e+00 0.000000e+00 0.000000e+00 0.000000e+00 1.000000e+00 0.000000e+00
 0.000000e+00 0.000000e+00 0.000000e+00 0.000000e+00 7.462794e-01 2.537206e-01
 0.000000e+00 0.000000e+00 0.000000e+00 0.000000e+00 0.000000e+00 0.000000e+00
<ENDHMM>
