~o
<STREAMINFO> 1 8
<VECSIZE> 8<NULLD><USER><DIAGC>
~h "p"
<BEGINHMM>
<NUMSTATES> 6
<STATE> 2
<MEAN> 8
 -6.455997e+00 -9.148113e+00 -9.373724e+00 -9.227241e+00 -8.485894e+00 -9.764506e+00 -8.050333e+00 -9.264832e+00
<VARIANCE> 8
 4.294486e+01 7.239358e+01 7.132947e+01 5.612154e+01 7.162095e+01 6.451654e+01 6.111962e+01 8.407197e+01
<GCONST> 4.802269e+01
<STATE> 3
<MEAN> 8
 -6.014741e+00 -7.232191e+00 -5.943604e+00 -8.113163e+00 -5.760651e+00 -7.236728e+00 -8.294282e+00 -6.279557e+00
<VARIANCE> 8
 6.284789e+01 1.632708e+01 4.303087e+01 2.836368e+01 1.978221e+01 6.553416e+01 3.167937e+01 1.842084e+01
<GCONST> 4.228009e+01
<STATE> 4
<MEAN> 8
 -5.853216e+00 -1.295940e+01 -6.620950e+00 -9.618871e+00 -1.087009e+01 -9.850271e+00 -6.952704e+00 -1.273298e+01
<VARIANCE> 8
 6.465984e+01 5.406831e+01 2.871267e+01 1.178281e+02 5.069721e+01 5.174167e+01 1.043652e+02 4.488444e+01
<GCONST> 4.731309e+01
<STATE> 5
<MEAN> 8
 -6.017309e+00 -6.486745e+00 -8.147647e+00 -7.553010e+00 -6.979578e+00 -7.516412e+00 -7.659662e+00 -6.776523e+00
<VARIANCE> 8
 3.284890e+01 4.535971e+01 4.372364e+01 3.706139e+01 4.398721e+01 4.118098e+01 3.225129e+01 4.158221e+01
<GCONST> 4.410313e+01
<TRANSP> 6
 0.000000e+00 1.000000e+00 0.000000e+00 0.000000e+00 0.000000e+00 0.000000e+00
 0.000000e+00 6.312684e-01 3.687316e-01 0.000000e+00 0.000000e+00 0.000000e+00
 0.000000e+00 0.000000e+00 6.138996e-01 3.861004e-01 0.000000e+00 0.000000e+00
 0.000000e+00 0.000000e+00 0.000000e+00 4.266055e-01 5.733945e-01 0.000000e+00
 0.000000e+00 0.000000e+00 0.000000e+00 0.000000e+00 7.652582e-01 2.347418e-01
 0.000000e+00 0.000000e+00 0.000000e+00 0.000000e+00 0.000000e+00 0.000000e+00
<ENDHMM>
