~o
<STREAMINFO> 1 8
<VECSIZE> 8<NULLD><USER><DIAGC>
~h "r"
<BEGINHMM>
<NUMSTATES> 6
<STATE> 2
<MEAN> 8
 -6.723461e+00 -8.816469e+00 -8.258040e+00 -9.039007e+00 -7.846313e+00 -9.082687e+00 -8.799526e+00 -8.884833e+00
<VARIANCE> 8
 5.726028e+01 6.569977e+01 5.887851e+01 6.702274e+01 5.562291e+01 7.141772e+01 5.599327e+01 6.034649e+01
<GCONST> 4.762870e+01
<STATE> 3
<MEAN> 8
 -4.125779e+00 -1.058873e+01 -4.786254e+00 -8.046095e+00 -1.225575e+01 -7.594433e+00 -4.502573e+00 -1.011007e+01
<VARIANCE> 8
 4.185469e+01 2.790538e+01 1.492929e+01 9.369598e+01 3.746305e+01 2.320386e+01 5.115451e+01 2.370295e+01
<GCONST> 4.287754e+01
<STATE> 4
<MEAN> 8
 -4.939933e+00 -6.954023e+00 -1.210599e+01 -7.802987e+00 -3.938786e+00 -9.555169e+00 -5.484941e+00 -7.684244e+00
<VARIANCE> 8
 1.799362e+01 1.125788e+02 4.102640e+01 2.464584e+01 5.931409e+01 2.224673e+01 1.679894e+01 1.152998e+02
<GCONST> 4.398941e+01
<STATE> 5
<MEAN> 8
 -5.966802e+00 -7.630044e+00 -6.287465e+00 -7.798113e+00 -6.727734e+00 -7.517318e+00 -7.154994e+00 -7.524566e+00
<VARIANCE> 8
 4.352243e+01 3.289740e+01 3.828508e+01 4.030852e+01 3.206162e+01 4.796827e+01 3.882252e+01 3.711129e+01
<GCONST> 4.392243e+01
<TRANSP> 6
 0.000000e+00 1.000000e+00 0.000000e+00 0.000000e+00 0.000000e+00 0.000000e+00
 0.000000e+00 7.432067e-01 2.567933e-01 0.000000e+00 0.000000e+00 0.000000e+00
 0.000000e+00 0.000000e+00 0.000000e+00 1.000000e+00 0.000000e+00 0.000000e+00
 0.000000e+00 0.000000e+00 0.000000e+00 6.150061e-03 9.938499e-01 0.000000e+00
 0.000000e+00 0.000000e+00 0.000000e+00 0.000000e+00 8.122240e-01 1.877760e-01
 0.000000e+00 0.000000e+00 0.000000e+00 0.000000e+00 0.000000e+00 0.000000e+00
<ENDHMM>
