~o
<STREAMINFO> 1 8
<VECSIZE> 8<NULLD><USER><DIAGC>
~h "sil"
<BEGINHMM>
<NUMSTATES> 6
<STATE> 2
<MEAN> 8
 -6.502525e+00 -1.123845e+01 -7.846245e+00 -1.173472e+01 -8.232367e+00 -9.640821e+00 -8.487823e+00 -1.163043e+01
<VARIANCE> 8
 5.911757e+01 1.232322e+02 6.757835e+01 9.251249e+01 6.807748e+01 1.056899e+02 6.745802e+01 9.753823e+01
<GCONST> 5.001015e+01
<STATE> 3
<MEAN> 8
 -4.493290e+00 -7.572652e+00 -6.715339e+00 -7.354249e+00 -6.072414e+00 -7.656240e+00 -7.280467e+00 -6.799701e+00
<VARIANCE> 8
 5.433414e+01 2.282802e+01 3.441245e+01 4.683836e+01 2.799813e+01 4.214467e+01 3.340653e+01 2.114811e+01
<GCONST> 4.284483e+01
<STATE> 4
<MEAN> 8
 -5.457432e+00 -1.264529e+01 -4.509618e+00 -6.468498e+00 -1.206757e+01 -7.183098e+00 -2.292590e+00 -1.292056e+01
<VARIANCE> 8
 6.229808e+01 3.704212e+01 1.851519e+01 9.386454e+01 3.956537e+01 1.848949e+01 5.680497e+01 5.003334e+01
<GCONST> 4.445491e+01
<STATE> 5
<MEAN> 8
 -6.573793e+00 -7.038089e+00 -8.572665e+00 -8.893286e+00 -6.491279e+00 -9.347116e+00 -7.490472e+00 -8.730957e+00
<VARIANCE> 8
 3.579724e+01 6.256461e+01 5.083542e+01 3.604321e+01 4.526180e+01 5.618902e+01 4.734213e+01 6.140693e+01
<GCONST> 4.574651e+01
<TRANSP> 6
 0.000000e+00 1.000000e+00 0.000000e+00 0.000000e+00 0.000000e+00 0.000000e+00
 0.000000e+00 5.648267e-01 4.351733e-01 0.000000e+00 0.000000e+00 0.000000e+00
 0.000000e+00 0.000000e+00 7.381902e-01 2.618098e-01 0.000000e+00 0.000000e+00
 0.000000e+00 0.000000e+00 0.000000e+00 4.914004e-04 9.995086e-01 0.000000e+00
 0.000000e+00 0.000000e+00 0.000000e+00 0.000000e+00 7.231900e-01 2.768100e-01
 0.000000e+00 0.000000e+00 0.000000e+00 0.000000e+00 0.000000e+00 0.000000e+00
<ENDHMM>
