~o
<STREAMINFO> 1 8
<VECSIZE> 8<NULLD><USER><DIAGC>
~h "t"
<BEGINHMM>
<NUMSTATES> 6
<STATE> 2
<MEAN> 8
 -6.477192e+00 -9.438948e+00 -8.480400e+00 -9.022211e+00 -7.881487e+00 -9.694869e+00 -7.565208e+00 -9.204303e+00
<VARIANCE> 8
 5.447865e+01 6.626296e+01 5.432829e+01 6.240738e+01 5.954822e+01 6.291476e+01 5.586024e+01 6.928960e+01
<GCONST> 4.751290e+01
<STATE> 3
<MEAN> 8
 -7.798865e+00 -6.376684e+00 -6.103997e+00 -1.092837e+01 -4.811408e+00 -7.750050e+00 -1.178081e+01 -6.553281e+00
<VARIANCE> 8
 5.860984e+01 2.051787e+01 5.417567e+01 4.198613e+01 1.472791e+01 8.127371e+01 3.830222e+01 2.050351e+01
<GCONST> 4.327845e+01
<STATE> 4
<MEAN> 8
 -4.263665e+00 -1.218284e+01 -4.886255e+00 -7.690081e+00 -1.189219e+01 -6.990370e+00 -4.527299e+00 -1.218915e+01
<VARIANCE> 8
 3.191437e+01 4.208551e+01 1.695211e+01 8.764004e+01 4.007589e+01 2.052402e+01 6.731369e+01 3.398848e+01
<GCONST> 4.365716e+01
<STATE> 5
<MEAN> 8
 -5.474148e+00 -7.020004e+00 -7.114521e+00 -7.288654e+00 -6.475228e+00 -7.497047e+00 -6.929557e+00 -6.952553e+00
<VARIANCE> 8
 3.754879e+01 3.981819e+01 4.143436e+01 3.522077e+01 3.859192e+01 4.042565e+01 3.069690e+01 3.989495e+01
<GCONST> 4.376164e+01
<TRANSP> 6
 0.000000e+00 1.000000e+00 0.000000e+00 0.000000e+00 0.000000e+00 0.000000e+00
 0.000000e+00 7.353224e-01 2.646776e-01 0.000000e+00 0.000000e+00 0.000000e+00
 0.000000e+00 0.000000e+00 0.000000e+00 1.000000e+00 0.000000e+00 0.000000e+00
 0.000000e+00 0.000000e+00 0.000000e+00 0.000000e+00 1.000000e+00 0.000000e+00
 0.000000e+00 0.000000e+00 0.000000e+00 0.000000e+00 8.188235e-01 1.811765e-01
 0.000000e+00 0.000000e+00 0.000000e+00 0.000000e+00 0.000000e+00 0.000000e+00
<ENDHMM>
