~o
<STREAMINFO> 1 8
<VECSIZE> 8<NULLD><USER><DIAGC>
~h "v"
<BEGINHMM>
<NUMSTATES> 6
<STATE> 2
<MEAN> 8
 -6.875628e+00 -1.052135e+01 -7.446838e+00 -9.722906e+00 -8.755355e+00 -1.006989e+01 -7.828378e+00 -1.036292e+01
<VARIANCE> 8
 5.183071e+01 7.651346e+01 4.103858e+01 5.757579e+01 6.886193e+01 6.379005e+01 6.015166e+01 7.820007e+01
<GCONST> 4.759992e+01
<STATE> 3
<MEAN> 8
 -5.244345e+00 -6.631679e+00 -6.751749e+00 -6.987204e+00 -5.769717e+00 -7.229041e+00 -6.482298e+00 -6.425096e+00
<VARIANCE> 8
 2.686248e+01 2.900831e+01 4.164631e+01 2.758605e+01 2.837749e+01 4.213531e+01 2.461878e+01 3.312166e+01
<GCONST> 4.219803e+01
<STATE> 4
<MEAN> 8
 -7.482735e+00 -1.040700e+01 -9.451503e+00 -1.081902e+01 -1.039106e+01 -9.123878e+00 -1.066407e+01 -1.071394e+01
<VARIANCE> 8
 1.008264e+02 8.954939e+01 1.132138e+02 1.223712e+02 9.503291e+01 1.173250e+02 1.084021e+02 9.928798e+01
<GCONST> 5.195059e+01
<STATE> 5
<MEAN> 8
 -6.306723e+00 -8.263006e+00 -7.797905e+00 -7.778796e+00 -7.941014e+00 -8.209113e+00 -7.240156e+00 -8.221875e+00
<VARIANCE> 8
 5.546082e+01 5.562881e+01 4.392282e+01 5.314068e+01 4.900124e+01 4.103735e+01 5.148038e+01 4.311759e+01
<GCONST> 4.580423e+01
<TRANSP> 6
 0.000000e+00 1.000000e+00 0.000000e+00 0.000000e+00 0.000000e+00 0.000000e+00
 0.000000e+00 5.315436e-01 4.684564e-01 0.000000e+00 0.000000e+00 0.000000e+00
 0.000000e+00 0.000000e+00 7.748387e-01 2.251613e-01 0.000000e+00 0.000000e+00
 0.000000e+00 0.000000e+00 0.000000e+00 4.064626e-01 5.935374e-01 0.000000e+00
 0.000000e+00 0.000000e+00 0.000000e+00 0.000000e+00 6.621491e-01 3.378509e-01
 0.000000e+00 0.000000e+00 0.000000e+00 0.000000e+00 0.000000e+00 0.000000e+00
<ENDHMM>
