~o
<STREAMINFO> 1 8
<VECSIZE> 8<NULLD><USER><DIAGC>
~h "x"
<BEGINHMM>
<NUMSTATES> 6
<STATE> 2
<MEAN> 8
 -5.134396e+00 -9.043719e+00 -6.483939e+00 -7.525034e+00 -7.481795e+00 -8.162167e+00 -6.508187e+00 -8.277158e+00
<VARIANCE> 8
 5.809312e+01 2.823337e+01 2.862653e+01 6.508457e+01 4.141045e+01 3.589886e+01 5.401870e+01 2.850998e+01
<GCONST> 4.427941e+01
<STATE> 3
<MEAN> 8
 -5.373803e+00 -5.064807e+00 -7.593173e+00 -6.902612e+00 -5.839222e+00 -6.368432e+00 -6.535717e+00 -6.278028e+00
<VARIANCE> 8
 9.338439e+00 5.110569e+01 4.648112e+01 1.452734e+01 2.686335e+01 3.288340e+01 1.849883e+01 4.467109e+01
<GCONST> 4.088689e+01
<STATE> 4
<MEAN> 8
 -9.160091e+00 -9.172683e+00 -8.567284e+00 -1.127206e+01 -7.974648e+00 -9.392729e+00 -1.191619e+01 -9.437436e+00
<VARIANCE> 8
 7.077117e+01 8.420374e+01 6.692077e+01 5.569691e+01 4.789027e+01 8.041346e+01 4.666319e+01 8.285923e+01
<GCONST> 4.813533e+01
<STATE> 5
<MEAN> 8
 -4.568491e+00 -9.608061e+00 -6.533696e+00 -7.643661e+00 -7.501939e+00 -9.184459e+00 -5.416016e+00 -8.280739e+00
<VARIANCE> 8
 3.778135e+01 3.413103e+01 3.714865e+01 4.014484e+01 6.576118e+01 2.962380e+01 3.680060e+01 4.138604e+01
<GCONST> 4.407552e+01
<TRANSP> 6
 0.000000e+00 1.000000e+00 0.000000e+00 0.000000e+00 0.000000e+00 0.000000e+00
 0.000000e+00 7.197232e-01 2.802768e-01 0.000000e+00 0.000000e+00 0.000000e+00
 0.000000e+00 0.000000e+00 6.652893e-01 3.347107e-01 0.000000e+00 0.000000e+00
 0.000000e+00 0.000000e+00 0.000000e+00 5.000000e-01 5.000000e-01 0.000000e+00
 0.000000e+00 0.000000e+00 0.000000e+00 0.000000e+00 6.523605e-01 3.476395e-01
 0.000000e+00 0.000000e+00 0.000000e+00 0.000000e+00 0.000000e+00 0.000000e+00
<ENDHMM>
