~o
<STREAMINFO> 1 8
<VECSIZE> 8<NULLD><USER><DIAGC>
~h "y"
<BEGINHMM>
<NUMSTATES> 6
<STATE> 2
<MEAN> 8
 -5.098977e+00 -7.276295e+00 -5.810436e+00 -7.234446e+00 -6.687346e+00 -7.150147e+00 -6.346995e+00 -7.089463e+00
<VARIANCE> 8
 3.375337e+01 3.354748e+01 3.349204e+01 3.841576e+01 3.632434e+01 3.179882e+01 3.197988e+01 3.302878e+01
<GCONST> 4.290924e+01
<STATE> 3
<MEAN> 8
 -6.240325e+00 -9.977334e+00 -1.062001e+01 -9.357442e+00 -7.624767e+00 -1.099630e+01 -6.743492e+00 -9.938390e+00
<VARIANCE> 8
 4.194385e+01 8.399784e+01 5.973254e+01 5.485316e+01 7.315775e+01 5.511599e+01 5.419412e+01 9.639308e+01
<GCONST> 4.782775e+01
<STATE> 4
<MEAN> 8
 -1.076658e+01 -7.514039e+00 -2.945773e+00 -1.143558e+01 -4.354096e+00 -5.398861e+00 -1.163574e+01 -7.626121e+00
<VARIANCE> 8
 4.286304e+01 1.725035e+01 6.078155e+01 1.123389e+01 1.139294e+01 9.769268e+01 4.320489e+01 1.574718e+01
<GCONST> 4.137251e+01
<STATE> 5
<MEAN> 8
 -5.125354e+00 -9.022639e+00 -7.134221e+00 -8.336615e+00 -7.703215e+00 -8.937793e+00 -6.557200e+00 -9.061724e+00
<VARIANCE> 8
 4.901616e+01 3.956665e+01 3.704706e+01 5.599002e+01 5.151629e+01 3.636657e+01 5.471211e+01 3.829326e+01
<GCONST> 4.509343e+01
<TRANSP> 6
 0.000000e+00 1.000000e+00 0.000000e+00 0.000000e+00 0.000000e+00 0.000000e+00
 0.000000e+00 7.641582e-01 2.358418e-01 0.000000e+00 0.000000e+00 0.000000e+00
 0.000000e+00 0.000000e+00 5.092817e-01 4.907183e-01 0.000000e+00 0.000000e+00
 0.000000e+00 0.000000e+00 0.000000e+00 0.000000e+00 1.000000e+00 0.000000e+00
 0.000000e+00 0.000000e+00 0.000000e+00 0.000000e+00 7.490714e-01 2.509286e-01
 0.000000e+00 0.000000e+00 0.000000e+00 0.000000e+00 0.000000e+00 0.000000e+00
<ENDHMM>
