~o
<STREAMINFO> 1 8
<VECSIZE> 8<NULLD><USER><DIAGC>
~h "z"
<BEGINHMM>
<NUMSTATES> 6
<STATE> 2
<MEAN> 8
 -5.639151e+00 -8.058827e+00 -5.555827e+00 -7.845480e+00 -6.698039e+00 -8.939067e+00 -7.801385e+00 -7.412934e+00
<VARIANCE> 8
 5.213037e+01 1.800768e+01 2.206451e+01 6.766317e+01 2.676407e+01 5.366019e+01 2.448642e+01 2.561563e+01
<GCONST> 4.256713e+01
<STATE> 3
<MEAN> 8
 -4.927563e+00 -1.170543e+01 -6.273572e+00 -1.361723e+01 -7.956917e+00 -1.019823e+01 -6.659831e+00 -1.131470e+01
<VARIANCE> 8
 4.659060e+01 9.067616e+01 5.165813e+01 7.196545e+01 3.036113e+01 4.598609e+01 7.949134e+01 6.189259e+01
<GCONST> 4.701509e+01
<STATE> 4
<MEAN> 8
 -4.671429e+00 -7.683950e+00 -8.617162e+00 -5.688657e+00 -7.212578e+00 -6.487230e+00 -5.219285e+00 -8.087439e+00
<VARIANCE> 8
 2.199882e+01 9.042306e+01 2.997858e+01 2.289122e+01 3.007698e+01 2.317990e+01 1.571441e+01 7.817838e+01
<GCONST> 4.249036e+01
<STATE> 5
<MEAN> 8
 -5.866504e+00 -8.067119e+00 -5.292335e+00 -8.354331e+00 -5.114178e+00 -8.659038e+00 -6.011454e+00 -7.447687e+00
<VARIANCE> 8
 3.287992e+01 1.691832e+01 2.612757e+01 3.018555e+01 3.872701e+01 4.072712e+01 3.547641e+01 2.235042e+01
<GCONST> 4.173378e+01
<TRANSP> 6
 0.000000e+00 1.000000e+00 0.000000e+00 0.000000e+00 0.000000e+00 0.000000e+00
 0.000000e+00 6.200000e-01 3.800000e-01 0.000000e+00 0.000000e+00 0.000000e+00
 0.000000e+00 0.000000e+00 4.722222e-01 5.277778e-01 0.000000e+00 0.000000e+00
 0.000000e+00 0.000000e+00 0.000000e+00 4.864865e-01 5.135135e-01 0.000000e+00
 0.000000e+00 0.000000e+00 0.000000e+00 0.000000e+00 7.956989e-01 2.043011e-01
 0.000000e+00 0.000000e+00 0.000000e+00 0.000000e+00 0.000000e+00 0.000000e+00
<ENDHMM>
