~o
<STREAMINFO> 1 20
<VECSIZE> 20<NULLD><USER><DIAGC>
~h "a"
<BEGINHMM>
<NUMSTATES> 5
<STATE> 2
<NUMMIXES> 4
<MIXTURE> 1 2.500000e-01
<MEAN> 20
 -7.446436e+00 -2.097626e+00 -1.579084e+01 -1.164323e+01 -8.816300e+00 -1.228168e+01 -1.416039e+01 -1.354083e+01 -3.978965e+00 -1.239710e+01 -9.937627e+00 -1.151181e+01 8.189625e-01 -1.159337e+01 -5.198306e+00 -8.561111e+00 5.617143e+00 -1.006249e+01 -8.090219e-01 -8.395638e+00
<VARIANCE> 20
 9.846924e+00 1.326454e+00 8.796915e+01 1.640250e+01 2.560566e+01 6.680472e+00 6.664175e+01 3.903776e+01 1.535882e+01 7.157820e+00 5.504636e+01 4.895355e+01 1.313045e+01 7.521939e+00 2.984739e+01 3.001479e+01 2.054228e+01 7.950921e+00 3.095536e+01 2.682254e+01
<GCONST> 9.541454e+01
<MIXTURE> 2 2.500000e-01
<MEAN> 20
 -7.446436e+00 -2.097626e+00 -1.579084e+01 -1.164323e+01 -8.816300e+00 -1.228168e+01 -1.416039e+01 -1.354083e+01 -3.978965e+00 -1.239710e+01 -9.937627e+00 -1.151181e+01 8.189625e-01 -1.159337e+01 -5.198306e+00 -8.561111e+00 5.617143e+00 -1.006249e+01 -8.090219e-01 -8.395638e+00
<VARIANCE> 20
 9.846924e+00 1.326454e+00 8.796915e+01 1.640250e+01 2.560566e+01 6.680472e+00 6.664175e+01 3.903776e+01 1.535882e+01 7.157820e+00 5.504636e+01 4.895355e+01 1.313045e+01 7.521939e+00 2.984739e+01 3.001479e+01 2.054228e+01 7.950921e+00 3.095536e+01 2.682254e+01
<GCONST> 9.541454e+01
<MIXTURE> 3 2.500000e-01
<MEAN> 20
 -7.446436e+00 -2.097626e+00 -1.579084e+01 -1.164323e+01 -8.816300e+00 -1.228168e+01 -1.416039e+01 -1.354083e+01 -3.978965e+00 -1.239710e+01 -9.937627e+00 -1.151181e+01 8.189625e-01 -1.159337e+01 -5.198306e+00 -8.561111e+00 5.617143e+00 -1.006249e+01 -8.090219e-01 -8.395638e+00
<VARIANCE> 20
 9.846924e+00 1.326454e+00 8.796915e+01 1.640250e+01 2.560566e+01 6.680472e+00 6.664175e+01 3.903776e+01 1.535882e+01 7.157820e+00 5.504636e+01 4.895355e+01 1.313045e+01 7.521939e+00 2.984739e+01 3.001479e+01 2.054228e+01 7.950921e+00 3.095536e+01 2.682254e+01
<GCONST> 9.541454e+01
<MIXTURE> 4 2.500000e-01
<MEAN> 20
 -7.446436e+00 -2.097626e+00 -1.579084e+01 -1.164323e+01 -8.816300e+00 -1.228168e+01 -1.416039e+01 -1.354083e+01 -3.978965e+00 -1.239710e+01 -9.937627e+00 -1.151181e+01 8.189625e-01 -1.159337e+01 -5.198306e+00 -8.561111e+00 5.617143e+00 -1.006249e+01 -8.090219e-01 -8.395638e+00
<VARIANCE> 20
 9.846924e+00 1.326454e+00 8.796915e+01 1.640250e+01 2.560566e+01 6.680472e+00 6.664175e+01 3.903776e+01 1.535882e+01 7.157820e+00 5.504636e+01 4.895355e+01 1.313045e+01 7.521939e+00 2.984739e+01 3.001479e+01 2.054228e+01 7.950921e+00 3.095536e+01 2.682254e+01
<GCONST> 9.541454e+01
<STATE> 3
<NUMMIXES> 4
<MIXTURE> 1 2.500000e-01
<MEAN> 20
 -7.446436e+00 -2.097626e+00 -1.579084e+01 -1.164323e+01 -8.816300e+00 -1.228168e+01 -1.416039e+01 -1.354083e+01 -3.978965e+00 -1.239710e+01 -9.937627e+00 -1.151181e+01 8.189625e-01 -1.159337e+01 -5.198306e+00 -8.561111e+00 5.617143e+00 -1.006249e+01 -8.090219e-01 -8.395638e+00
<VARIANCE> 20
 9.846924e+00 1.326454e+00 8.796915e+01 1.640250e+01 2.560566e+01 6.680472e+00 6.664175e+01 3.903776e+01 1.535882e+01 7.157820e+00 5.504636e+01 4.895355e+01 1.313045e+01 7.521939e+00 2.984739e+01 3.001479e+01 2.054228e+01 7.950921e+00 3.095536e+01 2.682254e+01
<GCONST> 9.541454e+01
<MIXTURE> 2 2.500000e-01
<MEAN> 20
 -7.446436e+00 -2.097626e+00 -1.579084e+01 -1.164323e+01 -8.816300e+00 -1.228168e+01 -1.416039e+01 -1.354083e+01 -3.978965e+00 -1.239710e+01 -9.937627e+00 -1.151181e+01 8.189625e-01 -1.159337e+01 -5.198306e+00 -8.561111e+00 5.617143e+00 -1.006249e+01 -8.090219e-01 -8.395638e+00
<VARIANCE> 20
 9.846924e+00 1.326454e+00 8.796915e+01 1.640250e+01 2.560566e+01 6.680472e+00 6.664175e+01 3.903776e+01 1.535882e+01 7.157820e+00 5.504636e+01 4.895355e+01 1.313045e+01 7.521939e+00 2.984739e+01 3.001479e+01 2.054228e+01 7.950921e+00 3.095536e+01 2.682254e+01
<GCONST> 9.541454e+01
<MIXTURE> 3 2.500000e-01
<MEAN> 20
 -7.446436e+00 -2.097626e+00 -1.579084e+01 -1.164323e+01 -8.816300e+00 -1.228168e+01 -1.416039e+01 -1.354083e+01 -3.978965e+00 -1.239710e+01 -9.937627e+00 -1.151181e+01 8.189625e-01 -1.159337e+01 -5.198306e+00 -8.561111e+00 5.617143e+00 -1.006249e+01 -8.090219e-01 -8.395638e+00
<VARIANCE> 20
 9.846924e+00 1.326454e+00 8.796915e+01 1.640250e+01 2.560566e+01 6.680472e+00 6.664175e+01 3.903776e+01 1.535882e+01 7.157820e+00 5.504636e+01 4.895355e+01 1.313045e+01 7.521939e+00 2.984739e+01 3.001479e+01 2.054228e+01 7.950921e+00 3.095536e+01 2.682254e+01
<GCONST> 9.541454e+01
<MIXTURE> 4 2.500000e-01
<MEAN> 20
 -7.446436e+00 -2.097626e+00 -1.579084e+01 -1.164323e+01 -8.816300e+00 -1.228168e+01 -1.416039e+01 -1.354083e+01 -3.978965e+00 -1.239710e+01 -9.937627e+00 -1.151181e+01 8.189625e-01 -1.159337e+01 -5.198306e+00 -8.561111e+00 5.617143e+00 -1.006249e+01 -8.090219e-01 -8.395638e+00
<VARIANCE> 20
 9.846924e+00 1.326454e+00 8.796915e+01 1.640250e+01 2.560566e+01 6.680472e+00 6.664175e+01 3.903776e+01 1.535882e+01 7.157820e+00 5.504636e+01 4.895355e+01 1.313045e+01 7.521939e+00 2.984739e+01 3.001479e+01 2.054228e+01 7.950921e+00 3.095536e+01 2.682254e+01
<GCONST> 9.541454e+01
<STATE> 4
<NUMMIXES> 4
<MIXTURE> 1 2.500000e-01
<MEAN> 20
 -7.446436e+00 -2.097626e+00 -1.579084e+01 -1.164323e+01 -8.816300e+00 -1.228168e+01 -1.416039e+01 -1.354083e+01 -3.978965e+00 -1.239710e+01 -9.937627e+00 -1.151181e+01 8.189625e-01 -1.159337e+01 -5.198306e+00 -8.561111e+00 5.617143e+00 -1.006249e+01 -8.090219e-01 -8.395638e+00
<VARIANCE> 20
 9.846924e+00 1.326454e+00 8.796915e+01 1.640250e+01 2.560566e+01 6.680472e+00 6.664175e+01 3.903776e+01 1.535882e+01 7.157820e+00 5.504636e+01 4.895355e+01 1.313045e+01 7.521939e+00 2.984739e+01 3.001479e+01 2.054228e+01 7.950921e+00 3.095536e+01 2.682254e+01
<GCONST> 9.541454e+01
<MIXTURE> 2 2.500000e-01
<MEAN> 20
 -7.446436e+00 -2.097626e+00 -1.579084e+01 -1.164323e+01 -8.816300e+00 -1.228168e+01 -1.416039e+01 -1.354083e+01 -3.978965e+00 -1.239710e+01 -9.937627e+00 -1.151181e+01 8.189625e-01 -1.159337e+01 -5.198306e+00 -8.561111e+00 5.617143e+00 -1.006249e+01 -8.090219e-01 -8.395638e+00
<VARIANCE> 20
 9.846924e+00 1.326454e+00 8.796915e+01 1.640250e+01 2.560566e+01 6.680472e+00 6.664175e+01 3.903776e+01 1.535882e+01 7.157820e+00 5.504636e+01 4.895355e+01 1.313045e+01 7.521939e+00 2.984739e+01 3.001479e+01 2.054228e+01 7.950921e+00 3.095536e+01 2.682254e+01
<GCONST> 9.541454e+01
<MIXTURE> 3 2.500000e-01
<MEAN> 20
 -7.446436e+00 -2.097626e+00 -1.579084e+01 -1.164323e+01 -8.816300e+00 -1.228168e+01 -1.416039e+01 -1.354083e+01 -3.978965e+00 -1.239710e+01 -9.937627e+00 -1.151181e+01 8.189625e-01 -1.159337e+01 -5.198306e+00 -8.561111e+00 5.617143e+00 -1.006249e+01 -8.090219e-01 -8.395638e+00
<VARIANCE> 20
 9.846924e+00 1.326454e+00 8.796915e+01 1.640250e+01 2.560566e+01 6.680472e+00 6.664175e+01 3.903776e+01 1.535882e+01 7.157820e+00 5.504636e+01 4.895355e+01 1.313045e+01 7.521939e+00 2.984739e+01 3.001479e+01 2.054228e+01 7.950921e+00 3.095536e+01 2.682254e+01
<GCONST> 9.541454e+01
<MIXTURE> 4 2.500000e-01
<MEAN> 20
 -7.446436e+00 -2.097626e+00 -1.579084e+01 -1.164323e+01 -8.816300e+00 -1.228168e+01 -1.416039e+01 -1.354083e+01 -3.978965e+00 -1.239710e+01 -9.937627e+00 -1.151181e+01 8.189625e-01 -1.159337e+01 -5.198306e+00 -8.561111e+00 5.617143e+00 -1.006249e+01 -8.090219e-01 -8.395638e+00
<VARIANCE> 20
 9.846924e+00 1.326454e+00 8.796915e+01 1.640250e+01 2.560566e+01 6.680472e+00 6.664175e+01 3.903776e+01 1.535882e+01 7.157820e+00 5.504636e+01 4.895355e+01 1.313045e+01 7.521939e+00 2.984739e+01 3.001479e+01 2.054228e+01 7.950921e+00 3.095536e+01 2.682254e+01
<GCONST> 9.541454e+01
<TRANSP> 5
 0.000000e+00 1.000000e+00 0.000000e+00 0.000000e+00 0.000000e+00
 0.000000e+00 5.000000e-01 5.000000e-01 0.000000e+00 0.000000e+00
 0.000000e+00 0.000000e+00 5.000000e-01 5.000000e-01 0.000000e+00
 0.000000e+00 0.000000e+00 0.000000e+00 5.000000e-01 5.000000e-01
 0.000000e+00 0.000000e+00 0.000000e+00 0.000000e+00 0.000000e+00
<ENDHMM>
