~o
<STREAMINFO> 1 20
<VECSIZE> 20<NULLD><USER><DIAGC>
~h "c"
<BEGINHMM>
<NUMSTATES> 5
<STATE> 2
<NUMMIXES> 4
<MIXTURE> 1 2.500000e-01
<MEAN> 20
 -7.451227e+00 -1.793888e+00 -1.808152e+01 -9.751131e+00 -9.253655e+00 -1.218608e+01 -1.577081e+01 -1.492740e+01 -4.847398e+00 -1.234866e+01 -1.254798e+01 -1.358642e+01 -4.251848e-01 -1.164725e+01 -8.235520e+00 -1.114778e+01 3.998569e+00 -1.020568e+01 -3.265134e+00 -1.175812e+01
<VARIANCE> 20
 1.078986e+01 1.239936e+00 1.132078e+02 1.452962e+01 2.783015e+01 6.712899e+00 7.508254e+01 3.714876e+01 1.697375e+01 7.357546e+00 7.552833e+01 4.706356e+01 1.367661e+01 7.767969e+00 5.356545e+01 4.021224e+01 1.993633e+01 8.195230e+00 5.279269e+01 4.313398e+01
<GCONST> 9.809125e+01
<MIXTURE> 2 2.500000e-01
<MEAN> 20
 -7.451227e+00 -1.793888e+00 -1.808152e+01 -9.751131e+00 -9.253655e+00 -1.218608e+01 -1.577081e+01 -1.492740e+01 -4.847398e+00 -1.234866e+01 -1.254798e+01 -1.358642e+01 -4.251848e-01 -1.164725e+01 -8.235520e+00 -1.114778e+01 3.998569e+00 -1.020568e+01 -3.265134e+00 -1.175812e+01
<VARIANCE> 20
 1.078986e+01 1.239936e+00 1.132078e+02 1.452962e+01 2.783015e+01 6.712899e+00 7.508254e+01 3.714876e+01 1.697375e+01 7.357546e+00 7.552833e+01 4.706356e+01 1.367661e+01 7.767969e+00 5.356545e+01 4.021224e+01 1.993633e+01 8.195230e+00 5.279269e+01 4.313398e+01
<GCONST> 9.809125e+01
<MIXTURE> 3 2.500000e-01
<MEAN> 20
 -7.451227e+00 -1.793888e+00 -1.808152e+01 -9.751131e+00 -9.253655e+00 -1.218608e+01 -1.577081e+01 -1.492740e+01 -4.847398e+00 -1.234866e+01 -1.254798e+01 -1.358642e+01 -4.251848e-01 -1.164725e+01 -8.235520e+00 -1.114778e+01 3.998569e+00 -1.020568e+01 -3.265134e+00 -1.175812e+01
<VARIANCE> 20
 1.078986e+01 1.239936e+00 1.132078e+02 1.452962e+01 2.783015e+01 6.712899e+00 7.508254e+01 3.714876e+01 1.697375e+01 7.357546e+00 7.552833e+01 4.706356e+01 1.367661e+01 7.767969e+00 5.356545e+01 4.021224e+01 1.993633e+01 8.195230e+00 5.279269e+01 4.313398e+01
<GCONST> 9.809125e+01
<MIXTURE> 4 2.500000e-01
<MEAN> 20
 -7.451227e+00 -1.793888e+00 -1.808152e+01 -9.751131e+00 -9.253655e+00 -1.218608e+01 -1.577081e+01 -1.492740e+01 -4.847398e+00 -1.234866e+01 -1.254798e+01 -1.358642e+01 -4.251848e-01 -1.164725e+01 -8.235520e+00 -1.114778e+01 3.998569e+00 -1.020568e+01 -3.265134e+00 -1.175812e+01
<VARIANCE> 20
 1.078986e+01 1.239936e+00 1.132078e+02 1.452962e+01 2.783015e+01 6.712899e+00 7.508254e+01 3.714876e+01 1.697375e+01 7.357546e+00 7.552833e+01 4.706356e+01 1.367661e+01 7.767969e+00 5.356545e+01 4.021224e+01 1.993633e+01 8.195230e+00 5.279269e+01 4.313398e+01
<GCONST> 9.809125e+01
<STATE> 3
<NUMMIXES> 4
<MIXTURE> 1 2.500000e-01
<MEAN> 20
 -7.451227e+00 -1.793888e+00 -1.808152e+01 -9.751131e+00 -9.253655e+00 -1.218608e+01 -1.577081e+01 -1.492740e+01 -4.847398e+00 -1.234866e+01 -1.254798e+01 -1.358642e+01 -4.251848e-01 -1.164725e+01 -8.235520e+00 -1.114778e+01 3.998569e+00 -1.020568e+01 -3.265134e+00 -1.175812e+01
<VARIANCE> 20
 1.078986e+01 1.239936e+00 1.132078e+02 1.452962e+01 2.783015e+01 6.712899e+00 7.508254e+01 3.714876e+01 1.697375e+01 7.357546e+00 7.552833e+01 4.706356e+01 1.367661e+01 7.767969e+00 5.356545e+01 4.021224e+01 1.993633e+01 8.195230e+00 5.279269e+01 4.313398e+01
<GCONST> 9.809125e+01
<MIXTURE> 2 2.500000e-01
<MEAN> 20
 -7.451227e+00 -1.793888e+00 -1.808152e+01 -9.751131e+00 -9.253655e+00 -1.218608e+01 -1.577081e+01 -1.492740e+01 -4.847398e+00 -1.234866e+01 -1.254798e+01 -1.358642e+01 -4.251848e-01 -1.164725e+01 -8.235520e+00 -1.114778e+01 3.998569e+00 -1.020568e+01 -3.265134e+00 -1.175812e+01
<VARIANCE> 20
 1.078986e+01 1.239936e+00 1.132078e+02 1.452962e+01 2.783015e+01 6.712899e+00 7.508254e+01 3.714876e+01 1.697375e+01 7.357546e+00 7.552833e+01 4.706356e+01 1.367661e+01 7.767969e+00 5.356545e+01 4.021224e+01 1.993633e+01 8.195230e+00 5.279269e+01 4.313398e+01
<GCONST> 9.809125e+01
<MIXTURE> 3 2.500000e-01
<MEAN> 20
 -7.451227e+00 -1.793888e+00 -1.808152e+01 -9.751131e+00 -9.253655e+00 -1.218608e+01 -1.577081e+01 -1.492740e+01 -4.847398e+00 -1.234866e+01 -1.254798e+01 -1.358642e+01 -4.251848e-01 -1.164725e+01 -8.235520e+00 -1.114778e+01 3.998569e+00 -1.020568e+01 -3.265134e+00 -1.175812e+01
<VARIANCE> 20
 1.078986e+01 1.239936e+00 1.132078e+02 1.452962e+01 2.783015e+01 6.712899e+00 7.508254e+01 3.714876e+01 1.697375e+01 7.357546e+00 7.552833e+01 4.706356e+01 1.367661e+01 7.767969e+00 5.356545e+01 4.021224e+01 1.993633e+01 8.195230e+00 5.279269e+01 4.313398e+01
<GCONST> 9.809125e+01
<MIXTURE> 4 2.500000e-01
<MEAN> 20
 -7.451227e+00 -1.793888e+00 -1.808152e+01 -9.751131e+00 -9.253655e+00 -1.218608e+01 -1.577081e+01 -1.492740e+01 -4.847398e+00 -1.234866e+01 -1.254798e+01 -1.358642e+01 -4.251848e-01 -1.164725e+01 -8.235520e+00 -1.114778e+01 3.998569e+00 -1.020568e+01 -3.265134e+00 -1.175812e+01
<VARIANCE> 20
 1.078986e+01 1.239936e+00 1.132078e+02 1.452962e+01 2.783015e+01 6.712899e+00 7.508254e+01 3.714876e+01 1.697375e+01 7.357546e+00 7.552833e+01 4.706356e+01 1.367661e+01 7.767969e+00 5.356545e+01 4.021224e+01 1.993633e+01 8.195230e+00 5.279269e+01 4.313398e+01
<GCONST> 9.809125e+01
<STATE> 4
<NUMMIXES> 4
<MIXTURE> 1 2.500000e-01
<MEAN> 20
 -7.451227e+00 -1.793888e+00 -1.808152e+01 -9.751131e+00 -9.253655e+00 -1.218608e+01 -1.577081e+01 -1.492740e+01 -4.847398e+00 -1.234866e+01 -1.254798e+01 -1.358642e+01 -4.251848e-01 -1.164725e+01 -8.235520e+00 -1.114778e+01 3.998569e+00 -1.020568e+01 -3.265134e+00 -1.175812e+01
<VARIANCE> 20
 1.078986e+01 1.239936e+00 1.132078e+02 1.452962e+01 2.783015e+01 6.712899e+00 7.508254e+01 3.714876e+01 1.697375e+01 7.357546e+00 7.552833e+01 4.706356e+01 1.367661e+01 7.767969e+00 5.356545e+01 4.021224e+01 1.993633e+01 8.195230e+00 5.279269e+01 4.313398e+01
<GCONST> 9.809125e+01
<MIXTURE> 2 2.500000e-01
<MEAN> 20
 -7.451227e+00 -1.793888e+00 -1.808152e+01 -9.751131e+00 -9.253655e+00 -1.218608e+01 -1.577081e+01 -1.492740e+01 -4.847398e+00 -1.234866e+01 -1.254798e+01 -1.358642e+01 -4.251848e-01 -1.164725e+01 -8.235520e+00 -1.114778e+01 3.998569e+00 -1.020568e+01 -3.265134e+00 -1.175812e+01
<VARIANCE> 20
 1.078986e+01 1.239936e+00 1.132078e+02 1.452962e+01 2.783015e+01 6.712899e+00 7.508254e+01 3.714876e+01 1.697375e+01 7.357546e+00 7.552833e+01 4.706356e+01 1.367661e+01 7.767969e+00 5.356545e+01 4.021224e+01 1.993633e+01 8.195230e+00 5.279269e+01 4.313398e+01
<GCONST> 9.809125e+01
<MIXTURE> 3 2.500000e-01
<MEAN> 20
 -7.451227e+00 -1.793888e+00 -1.808152e+01 -9.751131e+00 -9.253655e+00 -1.218608e+01 -1.577081e+01 -1.492740e+01 -4.847398e+00 -1.234866e+01 -1.254798e+01 -1.358642e+01 -4.251848e-01 -1.164725e+01 -8.235520e+00 -1.114778e+01 3.998569e+00 -1.020568e+01 -3.265134e+00 -1.175812e+01
<VARIANCE> 20
 1.078986e+01 1.239936e+00 1.132078e+02 1.452962e+01 2.783015e+01 6.712899e+00 7.508254e+01 3.714876e+01 1.697375e+01 7.357546e+00 7.552833e+01 4.706356e+01 1.367661e+01 7.767969e+00 5.356545e+01 4.021224e+01 1.993633e+01 8.195230e+00 5.279269e+01 4.313398e+01
<GCONST> 9.809125e+01
<MIXTURE> 4 2.500000e-01
<MEAN> 20
 -7.451227e+00 -1.793888e+00 -1.808152e+01 -9.751131e+00 -9.253655e+00 -1.218608e+01 -1.577081e+01 -1.492740e+01 -4.847398e+00 -1.234866e+01 -1.254798e+01 -1.358642e+01 -4.251848e-01 -1.164725e+01 -8.235520e+00 -1.114778e+01 3.998569e+00 -1.020568e+01 -3.265134e+00 -1.175812e+01
<VARIANCE> 20
 1.078986e+01 1.239936e+00 1.132078e+02 1.452962e+01 2.783015e+01 6.712899e+00 7.508254e+01 3.714876e+01 1.697375e+01 7.357546e+00 7.552833e+01 4.706356e+01 1.367661e+01 7.767969e+00 5.356545e+01 4.021224e+01 1.993633e+01 8.195230e+00 5.279269e+01 4.313398e+01
<GCONST> 9.809125e+01
<TRANSP> 5
 0.000000e+00 1.000000e+00 0.000000e+00 0.000000e+00 0.000000e+00
 0.000000e+00 5.000000e-01 5.000000e-01 0.000000e+00 0.000000e+00
 0.000000e+00 0.000000e+00 5.000000e-01 5.000000e-01 0.000000e+00
 0.000000e+00 0.000000e+00 0.000000e+00 5.000000e-01 5.000000e-01
 0.000000e+00 0.000000e+00 0.000000e+00 0.000000e+00 0.000000e+00
<ENDHMM>
