~o
<STREAMINFO> 1 20
<VECSIZE> 20<NULLD><USER><DIAGC>
~h "d"
<BEGINHMM>
<NUMSTATES> 5
<STATE> 2
<NUMMIXES> 4
<MIXTURE> 1 2.500000e-01
<MEAN> 20
 -7.183867e+00 -1.898406e+00 -1.447791e+01 -1.012262e+01 -8.437401e+00 -1.219925e+01 -1.398545e+01 -1.686132e+01 -3.842085e+00 -1.224129e+01 -1.138978e+01 -1.246231e+01 5.951586e-01 -1.137793e+01 -7.297600e+00 -9.627291e+00 4.934753e+00 -9.764281e+00 -2.739829e+00 -9.742054e+00
<VARIANCE> 20
 7.921763e+00 1.360420e+00 6.857002e+01 1.320399e+01 2.308296e+01 6.238185e+00 5.846531e+01 5.097573e+01 1.424627e+01 6.369359e+00 5.672094e+01 4.014796e+01 1.112152e+01 6.341016e+00 4.438089e+01 2.505425e+01 1.650171e+01 6.480184e+00 4.464215e+01 2.841798e+01
<GCONST> 9.423930e+01
<MIXTURE> 2 2.500000e-01
<MEAN> 20
 -7.183867e+00 -1.898406e+00 -1.447791e+01 -1.012262e+01 -8.437401e+00 -1.219925e+01 -1.398545e+01 -1.686132e+01 -3.842085e+00 -1.224129e+01 -1.138978e+01 -1.246231e+01 5.951586e-01 -1.137793e+01 -7.297600e+00 -9.627291e+00 4.934753e+00 -9.764281e+00 -2.739829e+00 -9.742054e+00
<VARIANCE> 20
 7.921763e+00 1.360420e+00 6.857002e+01 1.320399e+01 2.308296e+01 6.238185e+00 5.846531e+01 5.097573e+01 1.424627e+01 6.369359e+00 5.672094e+01 4.014796e+01 1.112152e+01 6.341016e+00 4.438089e+01 2.505425e+01 1.650171e+01 6.480184e+00 4.464215e+01 2.841798e+01
<GCONST> 9.423930e+01
<MIXTURE> 3 2.500000e-01
<MEAN> 20
 -7.183867e+00 -1.898406e+00 -1.447791e+01 -1.012262e+01 -8.437401e+00 -1.219925e+01 -1.398545e+01 -1.686132e+01 -3.842085e+00 -1.224129e+01 -1.138978e+01 -1.246231e+01 5.951586e-01 -1.137793e+01 -7.297600e+00 -9.627291e+00 4.934753e+00 -9.764281e+00 -2.739829e+00 -9.742054e+00
<VARIANCE> 20
 7.921763e+00 1.360420e+00 6.857002e+01 1.320399e+01 2.308296e+01 6.238185e+00 5.846531e+01 5.097573e+01 1.424627e+01 6.369359e+00 5.672094e+01 4.014796e+01 1.112152e+01 6.341016e+00 4.438089e+01 2.505425e+01 1.650171e+01 6.480184e+00 4.464215e+01 2.841798e+01
<GCONST> 9.423930e+01
<MIXTURE> 4 2.500000e-01
<MEAN> 20
 -7.183867e+00 -1.898406e+00 -1.447791e+01 -1.012262e+01 -8.437401e+00 -1.219925e+01 -1.398545e+01 -1.686132e+01 -3.842085e+00 -1.224129e+01 -1.138978e+01 -1.246231e+01 5.951586e-01 -1.137793e+01 -7.297600e+00 -9.627291e+00 4.934753e+00 -9.764281e+00 -2.739829e+00 -9.742054e+00
<VARIANCE> 20
 7.921763e+00 1.360420e+00 6.857002e+01 1.320399e+01 2.308296e+01 6.238185e+00 5.846531e+01 5.097573e+01 1.424627e+01 6.369359e+00 5.672094e+01 4.014796e+01 1.112152e+01 6.341016e+00 4.438089e+01 2.505425e+01 1.650171e+01 6.480184e+00 4.464215e+01 2.841798e+01
<GCONST> 9.423930e+01
<STATE> 3
<NUMMIXES> 4
<MIXTURE> 1 2.500000e-01
<MEAN> 20
 -7.183867e+00 -1.898406e+00 -1.447791e+01 -1.012262e+01 -8.437401e+00 -1.219925e+01 -1.398545e+01 -1.686132e+01 -3.842085e+00 -1.224129e+01 -1.138978e+01 -1.246231e+01 5.951586e-01 -1.137793e+01 -7.297600e+00 -9.627291e+00 4.934753e+00 -9.764281e+00 -2.739829e+00 -9.742054e+00
<VARIANCE> 20
 7.921763e+00 1.360420e+00 6.857002e+01 1.320399e+01 2.308296e+01 6.238185e+00 5.846531e+01 5.097573e+01 1.424627e+01 6.369359e+00 5.672094e+01 4.014796e+01 1.112152e+01 6.341016e+00 4.438089e+01 2.505425e+01 1.650171e+01 6.480184e+00 4.464215e+01 2.841798e+01
<GCONST> 9.423930e+01
<MIXTURE> 2 2.500000e-01
<MEAN> 20
 -7.183867e+00 -1.898406e+00 -1.447791e+01 -1.012262e+01 -8.437401e+00 -1.219925e+01 -1.398545e+01 -1.686132e+01 -3.842085e+00 -1.224129e+01 -1.138978e+01 -1.246231e+01 5.951586e-01 -1.137793e+01 -7.297600e+00 -9.627291e+00 4.934753e+00 -9.764281e+00 -2.739829e+00 -9.742054e+00
<VARIANCE> 20
 7.921763e+00 1.360420e+00 6.857002e+01 1.320399e+01 2.308296e+01 6.238185e+00 5.846531e+01 5.097573e+01 1.424627e+01 6.369359e+00 5.672094e+01 4.014796e+01 1.112152e+01 6.341016e+00 4.438089e+01 2.505425e+01 1.650171e+01 6.480184e+00 4.464215e+01 2.841798e+01
<GCONST> 9.423930e+01
<MIXTURE> 3 2.500000e-01
<MEAN> 20
 -7.183867e+00 -1.898406e+00 -1.447791e+01 -1.012262e+01 -8.437401e+00 -1.219925e+01 -1.398545e+01 -1.686132e+01 -3.842085e+00 -1.224129e+01 -1.138978e+01 -1.246231e+01 5.951586e-01 -1.137793e+01 -7.297600e+00 -9.627291e+00 4.934753e+00 -9.764281e+00 -2.739829e+00 -9.742054e+00
<VARIANCE> 20
 7.921763e+00 1.360420e+00 6.857002e+01 1.320399e+01 2.308296e+01 6.238185e+00 5.846531e+01 5.097573e+01 1.424627e+01 6.369359e+00 5.672094e+01 4.014796e+01 1.112152e+01 6.341016e+00 4.438089e+01 2.505425e+01 1.650171e+01 6.480184e+00 4.464215e+01 2.841798e+01
<GCONST> 9.423930e+01
<MIXTURE> 4 2.500000e-01
<MEAN> 20
 -7.183867e+00 -1.898406e+00 -1.447791e+01 -1.012262e+01 -8.437401e+00 -1.219925e+01 -1.398545e+01 -1.686132e+01 -3.842085e+00 -1.224129e+01 -1.138978e+01 -1.246231e+01 5.951586e-01 -1.137793e+01 -7.297600e+00 -9.627291e+00 4.934753e+00 -9.764281e+00 -2.739829e+00 -9.742054e+00
<VARIANCE> 20
 7.921763e+00 1.360420e+00 6.857002e+01 1.320399e+01 2.308296e+01 6.238185e+00 5.846531e+01 5.097573e+01 1.424627e+01 6.369359e+00 5.672094e+01 4.014796e+01 1.112152e+01 6.341016e+00 4.438089e+01 2.505425e+01 1.650171e+01 6.480184e+00 4.464215e+01 2.841798e+01
<GCONST> 9.423930e+01
<STATE> 4
<NUMMIXES> 4
<MIXTURE> 1 2.500000e-01
<MEAN> 20
 -7.183867e+00 -1.898406e+00 -1.447791e+01 -1.012262e+01 -8.437401e+00 -1.219925e+01 -1.398545e+01 -1.686132e+01 -3.842085e+00 -1.224129e+01 -1.138978e+01 -1.246231e+01 5.951586e-01 -1.137793e+01 -7.297600e+00 -9.627291e+00 4.934753e+00 -9.764281e+00 -2.739829e+00 -9.742054e+00
<VARIANCE> 20
 7.921763e+00 1.360420e+00 6.857002e+01 1.320399e+01 2.308296e+01 6.238185e+00 5.846531e+01 5.097573e+01 1.424627e+01 6.369359e+00 5.672094e+01 4.014796e+01 1.112152e+01 6.341016e+00 4.438089e+01 2.505425e+01 1.650171e+01 6.480184e+00 4.464215e+01 2.841798e+01
<GCONST> 9.423930e+01
<MIXTURE> 2 2.500000e-01
<MEAN> 20
 -7.183867e+00 -1.898406e+00 -1.447791e+01 -1.012262e+01 -8.437401e+00 -1.219925e+01 -1.398545e+01 -1.686132e+01 -3.842085e+00 -1.224129e+01 -1.138978e+01 -1.246231e+01 5.951586e-01 -1.137793e+01 -7.297600e+00 -9.627291e+00 4.934753e+00 -9.764281e+00 -2.739829e+00 -9.742054e+00
<VARIANCE> 20
 7.921763e+00 1.360420e+00 6.857002e+01 1.320399e+01 2.308296e+01 6.238185e+00 5.846531e+01 5.097573e+01 1.424627e+01 6.369359e+00 5.672094e+01 4.014796e+01 1.112152e+01 6.341016e+00 4.438089e+01 2.505425e+01 1.650171e+01 6.480184e+00 4.464215e+01 2.841798e+01
<GCONST> 9.423930e+01
<MIXTURE> 3 2.500000e-01
<MEAN> 20
 -7.183867e+00 -1.898406e+00 -1.447791e+01 -1.012262e+01 -8.437401e+00 -1.219925e+01 -1.398545e+01 -1.686132e+01 -3.842085e+00 -1.224129e+01 -1.138978e+01 -1.246231e+01 5.951586e-01 -1.137793e+01 -7.297600e+00 -9.627291e+00 4.934753e+00 -9.764281e+00 -2.739829e+00 -9.742054e+00
<VARIANCE> 20
 7.921763e+00 1.360420e+00 6.857002e+01 1.320399e+01 2.308296e+01 6.238185e+00 5.846531e+01 5.097573e+01 1.424627e+01 6.369359e+00 5.672094e+01 4.014796e+01 1.112152e+01 6.341016e+00 4.438089e+01 2.505425e+01 1.650171e+01 6.480184e+00 4.464215e+01 2.841798e+01
<GCONST> 9.423930e+01
<MIXTURE> 4 2.500000e-01
<MEAN> 20
 -7.183867e+00 -1.898406e+00 -1.447791e+01 -1.012262e+01 -8.437401e+00 -1.219925e+01 -1.398545e+01 -1.686132e+01 -3.842085e+00 -1.224129e+01 -1.138978e+01 -1.246231e+01 5.951586e-01 -1.137793e+01 -7.297600e+00 -9.627291e+00 4.934753e+00 -9.764281e+00 -2.739829e+00 -9.742054e+00
<VARIANCE> 20
 7.921763e+00 1.360420e+00 6.857002e+01 1.320399e+01 2.308296e+01 6.238185e+00 5.846531e+01 5.097573e+01 1.424627e+01 6.369359e+00 5.672094e+01 4.014796e+01 1.112152e+01 6.341016e+00 4.438089e+01 2.505425e+01 1.650171e+01 6.480184e+00 4.464215e+01 2.841798e+01
<GCONST> 9.423930e+01
<TRANSP> 5
 0.000000e+00 1.000000e+00 0.000000e+00 0.000000e+00 0.000000e+00
 0.000000e+00 5.000000e-01 5.000000e-01 0.000000e+00 0.000000e+00
 0.000000e+00 0.000000e+00 5.000000e-01 5.000000e-01 0.000000e+00
 0.000000e+00 0.000000e+00 0.000000e+00 5.000000e-01 5.000000e-01
 0.000000e+00 0.000000e+00 0.000000e+00 0.000000e+00 0.000000e+00
<ENDHMM>
