~o
<STREAMINFO> 1 20
<VECSIZE> 20<NULLD><USER><DIAGC>
~h "h"
<BEGINHMM>
<NUMSTATES> 8
<STATE> 2
<MEAN> 20
 -6.346004e+00 -2.824091e+00 -1.689240e+01 -1.045137e+01 -7.708257e+00 -1.217717e+01 -1.930077e+01 -1.428017e+01 -4.209664e+00 -1.150105e+01 -1.676621e+01 -1.078121e+01 -1.118379e+00 -9.927688e+00 -9.406879e+00 -6.626234e+00 1.670585e+00 -7.798086e+00 -5.964595e+00 -6.343679e+00
<VARIANCE> 20
 1.029901e+01 2.771620e+00 7.946866e+01 1.302913e+01 2.938889e+01 6.603082e+00 1.205752e+02 2.717199e+01 2.761988e+01 8.800714e+00 1.670585e+02 3.777759e+01 3.779998e+01 1.301996e+01 6.139729e+01 2.389277e+01 6.377012e+01 1.770803e+01 7.694010e+01 3.027221e+01
<GCONST> 1.029299e+02
<STATE> 3
<NUMMIXES> 4
<MIXTURE> 1 2.500000e-01
<MEAN> 20
 -6.346004e+00 -2.824091e+00 -1.689240e+01 -1.045137e+01 -7.708257e+00 -1.217717e+01 -1.930077e+01 -1.428017e+01 -4.209664e+00 -1.150105e+01 -1.676621e+01 -1.078121e+01 -1.118379e+00 -9.927688e+00 -9.406879e+00 -6.626234e+00 1.670585e+00 -7.798086e+00 -5.964595e+00 -6.343679e+00
<VARIANCE> 20
 1.029901e+01 2.771620e+00 7.946866e+01 1.302913e+01 2.938889e+01 6.603082e+00 1.205752e+02 2.717199e+01 2.761988e+01 8.800714e+00 1.670585e+02 3.777759e+01 3.779998e+01 1.301996e+01 6.139729e+01 2.389277e+01 6.377012e+01 1.770803e+01 7.694010e+01 3.027221e+01
<GCONST> 1.029299e+02
<MIXTURE> 2 2.500000e-01
<MEAN> 20
 -6.346004e+00 -2.824091e+00 -1.689240e+01 -1.045137e+01 -7.708257e+00 -1.217717e+01 -1.930077e+01 -1.428017e+01 -4.209664e+00 -1.150105e+01 -1.676621e+01 -1.078121e+01 -1.118379e+00 -9.927688e+00 -9.406879e+00 -6.626234e+00 1.670585e+00 -7.798086e+00 -5.964595e+00 -6.343679e+00
<VARIANCE> 20
 1.029901e+01 2.771620e+00 7.946866e+01 1.302913e+01 2.938889e+01 6.603082e+00 1.205752e+02 2.717199e+01 2.761988e+01 8.800714e+00 1.670585e+02 3.777759e+01 3.779998e+01 1.301996e+01 6.139729e+01 2.389277e+01 6.377012e+01 1.770803e+01 7.694010e+01 3.027221e+01
<GCONST> 1.029299e+02
<MIXTURE> 3 2.500000e-01
<MEAN> 20
 -6.346004e+00 -2.824091e+00 -1.689240e+01 -1.045137e+01 -7.708257e+00 -1.217717e+01 -1.930077e+01 -1.428017e+01 -4.209664e+00 -1.150105e+01 -1.676621e+01 -1.078121e+01 -1.118379e+00 -9.927688e+00 -9.406879e+00 -6.626234e+00 1.670585e+00 -7.798086e+00 -5.964595e+00 -6.343679e+00
<VARIANCE> 20
 1.029901e+01 2.771620e+00 7.946866e+01 1.302913e+01 2.938889e+01 6.603082e+00 1.205752e+02 2.717199e+01 2.761988e+01 8.800714e+00 1.670585e+02 3.777759e+01 3.779998e+01 1.301996e+01 6.139729e+01 2.389277e+01 6.377012e+01 1.770803e+01 7.694010e+01 3.027221e+01
<GCONST> 1.029299e+02
<MIXTURE> 4 2.500000e-01
<MEAN> 20
 -6.346004e+00 -2.824091e+00 -1.689240e+01 -1.045137e+01 -7.708257e+00 -1.217717e+01 -1.930077e+01 -1.428017e+01 -4.209664e+00 -1.150105e+01 -1.676621e+01 -1.078121e+01 -1.118379e+00 -9.927688e+00 -9.406879e+00 -6.626234e+00 1.670585e+00 -7.798086e+00 -5.964595e+00 -6.343679e+00
<VARIANCE> 20
 1.029901e+01 2.771620e+00 7.946866e+01 1.302913e+01 2.938889e+01 6.603082e+00 1.205752e+02 2.717199e+01 2.761988e+01 8.800714e+00 1.670585e+02 3.777759e+01 3.779998e+01 1.301996e+01 6.139729e+01 2.389277e+01 6.377012e+01 1.770803e+01 7.694010e+01 3.027221e+01
<GCONST> 1.029299e+02
<STATE> 4
<NUMMIXES> 4
<MIXTURE> 1 2.500000e-01
<MEAN> 20
 -6.346004e+00 -2.824091e+00 -1.689240e+01 -1.045137e+01 -7.708257e+00 -1.217717e+01 -1.930077e+01 -1.428017e+01 -4.209664e+00 -1.150105e+01 -1.676621e+01 -1.078121e+01 -1.118379e+00 -9.927688e+00 -9.406879e+00 -6.626234e+00 1.670585e+00 -7.798086e+00 -5.964595e+00 -6.343679e+00
<VARIANCE> 20
 1.029901e+01 2.771620e+00 7.946866e+01 1.302913e+01 2.938889e+01 6.603082e+00 1.205752e+02 2.717199e+01 2.761988e+01 8.800714e+00 1.670585e+02 3.777759e+01 3.779998e+01 1.301996e+01 6.139729e+01 2.389277e+01 6.377012e+01 1.770803e+01 7.694010e+01 3.027221e+01
<GCONST> 1.029299e+02
<MIXTURE> 2 2.500000e-01
<MEAN> 20
 -6.346004e+00 -2.824091e+00 -1.689240e+01 -1.045137e+01 -7.708257e+00 -1.217717e+01 -1.930077e+01 -1.428017e+01 -4.209664e+00 -1.150105e+01 -1.676621e+01 -1.078121e+01 -1.118379e+00 -9.927688e+00 -9.406879e+00 -6.626234e+00 1.670585e+00 -7.798086e+00 -5.964595e+00 -6.343679e+00
<VARIANCE> 20
 1.029901e+01 2.771620e+00 7.946866e+01 1.302913e+01 2.938889e+01 6.603082e+00 1.205752e+02 2.717199e+01 2.761988e+01 8.800714e+00 1.670585e+02 3.777759e+01 3.779998e+01 1.301996e+01 6.139729e+01 2.389277e+01 6.377012e+01 1.770803e+01 7.694010e+01 3.027221e+01
<GCONST> 1.029299e+02
<MIXTURE> 3 2.500000e-01
<MEAN> 20
 -6.346004e+00 -2.824091e+00 -1.689240e+01 -1.045137e+01 -7.708257e+00 -1.217717e+01 -1.930077e+01 -1.428017e+01 -4.209664e+00 -1.150105e+01 -1.676621e+01 -1.078121e+01 -1.118379e+00 -9.927688e+00 -9.406879e+00 -6.626234e+00 1.670585e+00 -7.798086e+00 -5.964595e+00 -6.343679e+00
<VARIANCE> 20
 1.029901e+01 2.771620e+00 7.946866e+01 1.302913e+01 2.938889e+01 6.603082e+00 1.205752e+02 2.717199e+01 2.761988e+01 8.800714e+00 1.670585e+02 3.777759e+01 3.779998e+01 1.301996e+01 6.139729e+01 2.389277e+01 6.377012e+01 1.770803e+01 7.694010e+01 3.027221e+01
<GCONST> 1.029299e+02
<MIXTURE> 4 2.500000e-01
<MEAN> 20
 -6.346004e+00 -2.824091e+00 -1.689240e+01 -1.045137e+01 -7.708257e+00 -1.217717e+01 -1.930077e+01 -1.428017e+01 -4.209664e+00 -1.150105e+01 -1.676621e+01 -1.078121e+01 -1.118379e+00 -9.927688e+00 -9.406879e+00 -6.626234e+00 1.670585e+00 -7.798086e+00 -5.964595e+00 -6.343679e+00
<VARIANCE> 20
 1.029901e+01 2.771620e+00 7.946866e+01 1.302913e+01 2.938889e+01 6.603082e+00 1.205752e+02 2.717199e+01 2.761988e+01 8.800714e+00 1.670585e+02 3.777759e+01 3.779998e+01 1.301996e+01 6.139729e+01 2.389277e+01 6.377012e+01 1.770803e+01 7.694010e+01 3.027221e+01
<GCONST> 1.029299e+02
<STATE> 5
<NUMMIXES> 4
<MIXTURE> 1 2.500000e-01
<MEAN> 20
 -6.346004e+00 -2.824091e+00 -1.689240e+01 -1.045137e+01 -7.708257e+00 -1.217717e+01 -1.930077e+01 -1.428017e+01 -4.209664e+00 -1.150105e+01 -1.676621e+01 -1.078121e+01 -1.118379e+00 -9.927688e+00 -9.406879e+00 -6.626234e+00 1.670585e+00 -7.798086e+00 -5.964595e+00 -6.343679e+00
<VARIANCE> 20
 1.029901e+01 2.771620e+00 7.946866e+01 1.302913e+01 2.938889e+01 6.603082e+00 1.205752e+02 2.717199e+01 2.761988e+01 8.800714e+00 1.670585e+02 3.777759e+01 3.779998e+01 1.301996e+01 6.139729e+01 2.389277e+01 6.377012e+01 1.770803e+01 7.694010e+01 3.027221e+01
<GCONST> 1.029299e+02
<MIXTURE> 2 2.500000e-01
<MEAN> 20
 -6.346004e+00 -2.824091e+00 -1.689240e+01 -1.045137e+01 -7.708257e+00 -1.217717e+01 -1.930077e+01 -1.428017e+01 -4.209664e+00 -1.150105e+01 -1.676621e+01 -1.078121e+01 -1.118379e+00 -9.927688e+00 -9.406879e+00 -6.626234e+00 1.670585e+00 -7.798086e+00 -5.964595e+00 -6.343679e+00
<VARIANCE> 20
 1.029901e+01 2.771620e+00 7.946866e+01 1.302913e+01 2.938889e+01 6.603082e+00 1.205752e+02 2.717199e+01 2.761988e+01 8.800714e+00 1.670585e+02 3.777759e+01 3.779998e+01 1.301996e+01 6.139729e+01 2.389277e+01 6.377012e+01 1.770803e+01 7.694010e+01 3.027221e+01
<GCONST> 1.029299e+02
<MIXTURE> 3 2.500000e-01
<MEAN> 20
 -6.346004e+00 -2.824091e+00 -1.689240e+01 -1.045137e+01 -7.708257e+00 -1.217717e+01 -1.930077e+01 -1.428017e+01 -4.209664e+00 -1.150105e+01 -1.676621e+01 -1.078121e+01 -1.118379e+00 -9.927688e+00 -9.406879e+00 -6.626234e+00 1.670585e+00 -7.798086e+00 -5.964595e+00 -6.343679e+00
<VARIANCE> 20
 1.029901e+01 2.771620e+00 7.946866e+01 1.302913e+01 2.938889e+01 6.603082e+00 1.205752e+02 2.717199e+01 2.761988e+01 8.800714e+00 1.670585e+02 3.777759e+01 3.779998e+01 1.301996e+01 6.139729e+01 2.389277e+01 6.377012e+01 1.770803e+01 7.694010e+01 3.027221e+01
<GCONST> 1.029299e+02
<MIXTURE> 4 2.500000e-01
<MEAN> 20
 -6.346004e+00 -2.824091e+00 -1.689240e+01 -1.045137e+01 -7.708257e+00 -1.217717e+01 -1.930077e+01 -1.428017e+01 -4.209664e+00 -1.150105e+01 -1.676621e+01 -1.078121e+01 -1.118379e+00 -9.927688e+00 -9.406879e+00 -6.626234e+00 1.670585e+00 -7.798086e+00 -5.964595e+00 -6.343679e+00
<VARIANCE> 20
 1.029901e+01 2.771620e+00 7.946866e+01 1.302913e+01 2.938889e+01 6.603082e+00 1.205752e+02 2.717199e+01 2.761988e+01 8.800714e+00 1.670585e+02 3.777759e+01 3.779998e+01 1.301996e+01 6.139729e+01 2.389277e+01 6.377012e+01 1.770803e+01 7.694010e+01 3.027221e+01
<GCONST> 1.029299e+02
<STATE> 6
<NUMMIXES> 4
<MIXTURE> 1 2.500000e-01
<MEAN> 20
 -6.346004e+00 -2.824091e+00 -1.689240e+01 -1.045137e+01 -7.708257e+00 -1.217717e+01 -1.930077e+01 -1.428017e+01 -4.209664e+00 -1.150105e+01 -1.676621e+01 -1.078121e+01 -1.118379e+00 -9.927688e+00 -9.406879e+00 -6.626234e+00 1.670585e+00 -7.798086e+00 -5.964595e+00 -6.343679e+00
<VARIANCE> 20
 1.029901e+01 2.771620e+00 7.946866e+01 1.302913e+01 2.938889e+01 6.603082e+00 1.205752e+02 2.717199e+01 2.761988e+01 8.800714e+00 1.670585e+02 3.777759e+01 3.779998e+01 1.301996e+01 6.139729e+01 2.389277e+01 6.377012e+01 1.770803e+01 7.694010e+01 3.027221e+01
<GCONST> 1.029299e+02
<MIXTURE> 2 2.500000e-01
<MEAN> 20
 -6.346004e+00 -2.824091e+00 -1.689240e+01 -1.045137e+01 -7.708257e+00 -1.217717e+01 -1.930077e+01 -1.428017e+01 -4.209664e+00 -1.150105e+01 -1.676621e+01 -1.078121e+01 -1.118379e+00 -9.927688e+00 -9.406879e+00 -6.626234e+00 1.670585e+00 -7.798086e+00 -5.964595e+00 -6.343679e+00
<VARIANCE> 20
 1.029901e+01 2.771620e+00 7.946866e+01 1.302913e+01 2.938889e+01 6.603082e+00 1.205752e+02 2.717199e+01 2.761988e+01 8.800714e+00 1.670585e+02 3.777759e+01 3.779998e+01 1.301996e+01 6.139729e+01 2.389277e+01 6.377012e+01 1.770803e+01 7.694010e+01 3.027221e+01
<GCONST> 1.029299e+02
<MIXTURE> 3 2.500000e-01
<MEAN> 20
 -6.346004e+00 -2.824091e+00 -1.689240e+01 -1.045137e+01 -7.708257e+00 -1.217717e+01 -1.930077e+01 -1.428017e+01 -4.209664e+00 -1.150105e+01 -1.676621e+01 -1.078121e+01 -1.118379e+00 -9.927688e+00 -9.406879e+00 -6.626234e+00 1.670585e+00 -7.798086e+00 -5.964595e+00 -6.343679e+00
<VARIANCE> 20
 1.029901e+01 2.771620e+00 7.946866e+01 1.302913e+01 2.938889e+01 6.603082e+00 1.205752e+02 2.717199e+01 2.761988e+01 8.800714e+00 1.670585e+02 3.777759e+01 3.779998e+01 1.301996e+01 6.139729e+01 2.389277e+01 6.377012e+01 1.770803e+01 7.694010e+01 3.027221e+01
<GCONST> 1.029299e+02
<MIXTURE> 4 2.500000e-01
<MEAN> 20
 -6.346004e+00 -2.824091e+00 -1.689240e+01 -1.045137e+01 -7.708257e+00 -1.217717e+01 -1.930077e+01 -1.428017e+01 -4.209664e+00 -1.150105e+01 -1.676621e+01 -1.078121e+01 -1.118379e+00 -9.927688e+00 -9.406879e+00 -6.626234e+00 1.670585e+00 -7.798086e+00 -5.964595e+00 -6.343679e+00
<VARIANCE> 20
 1.029901e+01 2.771620e+00 7.946866e+01 1.302913e+01 2.938889e+01 6.603082e+00 1.205752e+02 2.717199e+01 2.761988e+01 8.800714e+00 1.670585e+02 3.777759e+01 3.779998e+01 1.301996e+01 6.139729e+01 2.389277e+01 6.377012e+01 1.770803e+01 7.694010e+01 3.027221e+01
<GCONST> 1.029299e+02
<STATE> 7
<MEAN> 20
 -6.346004e+00 -2.824091e+00 -1.689240e+01 -1.045137e+01 -7.708257e+00 -1.217717e+01 -1.930077e+01 -1.428017e+01 -4.209664e+00 -1.150105e+01 -1.676621e+01 -1.078121e+01 -1.118379e+00 -9.927688e+00 -9.406879e+00 -6.626234e+00 1.670585e+00 -7.798086e+00 -5.964595e+00 -6.343679e+00
<VARIANCE> 20
 1.029901e+01 2.771620e+00 7.946866e+01 1.302913e+01 2.938889e+01 6.603082e+00 1.205752e+02 2.717199e+01 2.761988e+01 8.800714e+00 1.670585e+02 3.777759e+01 3.779998e+01 1.301996e+01 6.139729e+01 2.389277e+01 6.377012e+01 1.770803e+01 7.694010e+01 3.027221e+01
<GCONST> 1.029299e+02
<TRANSP> 8
 0.000000e+00 1.000000e+00 0.000000e+00 0.000000e+00 0.000000e+00 0.000000e+00 0.000000e+00 0.000000e+00
 0.000000e+00 5.000000e-01 5.000000e-01 0.000000e+00 0.000000e+00 0.000000e+00 0.000000e+00 0.000000e+00
 0.000000e+00 0.000000e+00 5.000000e-01 5.000000e-01 0.000000e+00 0.000000e+00 0.000000e+00 0.000000e+00
 0.000000e+00 0.000000e+00 0.000000e+00 5.000000e-01 5.000000e-01 0.000000e+00 0.000000e+00 0.000000e+00
 0.000000e+00 0.000000e+00 0.000000e+00 0.000000e+00 5.000000e-01 5.000000e-01 0.000000e+00 0.000000e+00
 0.000000e+00 0.000000e+00 0.000000e+00 0.000000e+00 0.000000e+00 5.000000e-01 5.000000e-01 0.000000e+00
 0.000000e+00 0.000000e+00 0.000000e+00 0.000000e+00 0.000000e+00 0.000000e+00 5.000000e-01 5.000000e-01
 0.000000e+00 0.000000e+00 0.000000e+00 0.000000e+00 0.000000e+00 0.000000e+00 0.000000e+00 0.000000e+00
<ENDHMM>
