~o
<STREAMINFO> 1 20
<VECSIZE> 20<NULLD><USER><DIAGC>
~h "q"
<BEGINHMM>
<NUMSTATES> 8
<STATE> 2
<MEAN> 20
 -7.668378e+00 -1.256094e+00 -1.874036e+01 -5.720747e+00 -1.219913e+01 -1.025762e+01 -1.940659e+01 -9.384661e+00 -7.041414e+00 -1.049304e+01 -1.232184e+01 -7.891215e+00 -1.804826e+00 -9.649638e+00 -6.745342e+00 -4.569195e+00 3.310061e+00 -8.098298e+00 -2.289892e+00 -4.996918e+00
<VARIANCE> 20
 6.251222e+00 2.240456e+00 8.206311e+01 4.992123e+01 3.143940e+01 1.349721e+01 9.788422e+01 9.108443e+01 2.570518e+01 1.406747e+01 6.491738e+01 8.115136e+01 2.345185e+01 1.581540e+01 2.889752e+01 3.885771e+01 2.791859e+01 1.781219e+01 2.992111e+01 4.748095e+01
<GCONST> 1.037287e+02
<STATE> 3
<NUMMIXES> 4
<MIXTURE> 1 2.500000e-01
<MEAN> 20
 -7.668378e+00 -1.256094e+00 -1.874036e+01 -5.720747e+00 -1.219913e+01 -1.025762e+01 -1.940659e+01 -9.384661e+00 -7.041414e+00 -1.049304e+01 -1.232184e+01 -7.891215e+00 -1.804826e+00 -9.649638e+00 -6.745342e+00 -4.569195e+00 3.310061e+00 -8.098298e+00 -2.289892e+00 -4.996918e+00
<VARIANCE> 20
 6.251222e+00 2.240456e+00 8.206311e+01 4.992123e+01 3.143940e+01 1.349721e+01 9.788422e+01 9.108443e+01 2.570518e+01 1.406747e+01 6.491738e+01 8.115136e+01 2.345185e+01 1.581540e+01 2.889752e+01 3.885771e+01 2.791859e+01 1.781219e+01 2.992111e+01 4.748095e+01
<GCONST> 1.037287e+02
<MIXTURE> 2 2.500000e-01
<MEAN> 20
 -7.668378e+00 -1.256094e+00 -1.874036e+01 -5.720747e+00 -1.219913e+01 -1.025762e+01 -1.940659e+01 -9.384661e+00 -7.041414e+00 -1.049304e+01 -1.232184e+01 -7.891215e+00 -1.804826e+00 -9.649638e+00 -6.745342e+00 -4.569195e+00 3.310061e+00 -8.098298e+00 -2.289892e+00 -4.996918e+00
<VARIANCE> 20
 6.251222e+00 2.240456e+00 8.206311e+01 4.992123e+01 3.143940e+01 1.349721e+01 9.788422e+01 9.108443e+01 2.570518e+01 1.406747e+01 6.491738e+01 8.115136e+01 2.345185e+01 1.581540e+01 2.889752e+01 3.885771e+01 2.791859e+01 1.781219e+01 2.992111e+01 4.748095e+01
<GCONST> 1.037287e+02
<MIXTURE> 3 2.500000e-01
<MEAN> 20
 -7.668378e+00 -1.256094e+00 -1.874036e+01 -5.720747e+00 -1.219913e+01 -1.025762e+01 -1.940659e+01 -9.384661e+00 -7.041414e+00 -1.049304e+01 -1.232184e+01 -7.891215e+00 -1.804826e+00 -9.649638e+00 -6.745342e+00 -4.569195e+00 3.310061e+00 -8.098298e+00 -2.289892e+00 -4.996918e+00
<VARIANCE> 20
 6.251222e+00 2.240456e+00 8.206311e+01 4.992123e+01 3.143940e+01 1.349721e+01 9.788422e+01 9.108443e+01 2.570518e+01 1.406747e+01 6.491738e+01 8.115136e+01 2.345185e+01 1.581540e+01 2.889752e+01 3.885771e+01 2.791859e+01 1.781219e+01 2.992111e+01 4.748095e+01
<GCONST> 1.037287e+02
<MIXTURE> 4 2.500000e-01
<MEAN> 20
 -7.668378e+00 -1.256094e+00 -1.874036e+01 -5.720747e+00 -1.219913e+01 -1.025762e+01 -1.940659e+01 -9.384661e+00 -7.041414e+00 -1.049304e+01 -1.232184e+01 -7.891215e+00 -1.804826e+00 -9.649638e+00 -6.745342e+00 -4.569195e+00 3.310061e+00 -8.098298e+00 -2.289892e+00 -4.996918e+00
<VARIANCE> 20
 6.251222e+00 2.240456e+00 8.206311e+01 4.992123e+01 3.143940e+01 1.349721e+01 9.788422e+01 9.108443e+01 2.570518e+01 1.406747e+01 6.491738e+01 8.115136e+01 2.345185e+01 1.581540e+01 2.889752e+01 3.885771e+01 2.791859e+01 1.781219e+01 2.992111e+01 4.748095e+01
<GCONST> 1.037287e+02
<STATE> 4
<NUMMIXES> 4
<MIXTURE> 1 2.500000e-01
<MEAN> 20
 -7.668378e+00 -1.256094e+00 -1.874036e+01 -5.720747e+00 -1.219913e+01 -1.025762e+01 -1.940659e+01 -9.384661e+00 -7.041414e+00 -1.049304e+01 -1.232184e+01 -7.891215e+00 -1.804826e+00 -9.649638e+00 -6.745342e+00 -4.569195e+00 3.310061e+00 -8.098298e+00 -2.289892e+00 -4.996918e+00
<VARIANCE> 20
 6.251222e+00 2.240456e+00 8.206311e+01 4.992123e+01 3.143940e+01 1.349721e+01 9.788422e+01 9.108443e+01 2.570518e+01 1.406747e+01 6.491738e+01 8.115136e+01 2.345185e+01 1.581540e+01 2.889752e+01 3.885771e+01 2.791859e+01 1.781219e+01 2.992111e+01 4.748095e+01
<GCONST> 1.037287e+02
<MIXTURE> 2 2.500000e-01
<MEAN> 20
 -7.668378e+00 -1.256094e+00 -1.874036e+01 -5.720747e+00 -1.219913e+01 -1.025762e+01 -1.940659e+01 -9.384661e+00 -7.041414e+00 -1.049304e+01 -1.232184e+01 -7.891215e+00 -1.804826e+00 -9.649638e+00 -6.745342e+00 -4.569195e+00 3.310061e+00 -8.098298e+00 -2.289892e+00 -4.996918e+00
<VARIANCE> 20
 6.251222e+00 2.240456e+00 8.206311e+01 4.992123e+01 3.143940e+01 1.349721e+01 9.788422e+01 9.108443e+01 2.570518e+01 1.406747e+01 6.491738e+01 8.115136e+01 2.345185e+01 1.581540e+01 2.889752e+01 3.885771e+01 2.791859e+01 1.781219e+01 2.992111e+01 4.748095e+01
<GCONST> 1.037287e+02
<MIXTURE> 3 2.500000e-01
<MEAN> 20
 -7.668378e+00 -1.256094e+00 -1.874036e+01 -5.720747e+00 -1.219913e+01 -1.025762e+01 -1.940659e+01 -9.384661e+00 -7.041414e+00 -1.049304e+01 -1.232184e+01 -7.891215e+00 -1.804826e+00 -9.649638e+00 -6.745342e+00 -4.569195e+00 3.310061e+00 -8.098298e+00 -2.289892e+00 -4.996918e+00
<VARIANCE> 20
 6.251222e+00 2.240456e+00 8.206311e+01 4.992123e+01 3.143940e+01 1.349721e+01 9.788422e+01 9.108443e+01 2.570518e+01 1.406747e+01 6.491738e+01 8.115136e+01 2.345185e+01 1.581540e+01 2.889752e+01 3.885771e+01 2.791859e+01 1.781219e+01 2.992111e+01 4.748095e+01
<GCONST> 1.037287e+02
<MIXTURE> 4 2.500000e-01
<MEAN> 20
 -7.668378e+00 -1.256094e+00 -1.874036e+01 -5.720747e+00 -1.219913e+01 -1.025762e+01 -1.940659e+01 -9.384661e+00 -7.041414e+00 -1.049304e+01 -1.232184e+01 -7.891215e+00 -1.804826e+00 -9.649638e+00 -6.745342e+00 -4.569195e+00 3.310061e+00 -8.098298e+00 -2.289892e+00 -4.996918e+00
<VARIANCE> 20
 6.251222e+00 2.240456e+00 8.206311e+01 4.992123e+01 3.143940e+01 1.349721e+01 9.788422e+01 9.108443e+01 2.570518e+01 1.406747e+01 6.491738e+01 8.115136e+01 2.345185e+01 1.581540e+01 2.889752e+01 3.885771e+01 2.791859e+01 1.781219e+01 2.992111e+01 4.748095e+01
<GCONST> 1.037287e+02
<STATE> 5
<NUMMIXES> 4
<MIXTURE> 1 2.500000e-01
<MEAN> 20
 -7.668378e+00 -1.256094e+00 -1.874036e+01 -5.720747e+00 -1.219913e+01 -1.025762e+01 -1.940659e+01 -9.384661e+00 -7.041414e+00 -1.049304e+01 -1.232184e+01 -7.891215e+00 -1.804826e+00 -9.649638e+00 -6.745342e+00 -4.569195e+00 3.310061e+00 -8.098298e+00 -2.289892e+00 -4.996918e+00
<VARIANCE> 20
 6.251222e+00 2.240456e+00 8.206311e+01 4.992123e+01 3.143940e+01 1.349721e+01 9.788422e+01 9.108443e+01 2.570518e+01 1.406747e+01 6.491738e+01 8.115136e+01 2.345185e+01 1.581540e+01 2.889752e+01 3.885771e+01 2.791859e+01 1.781219e+01 2.992111e+01 4.748095e+01
<GCONST> 1.037287e+02
<MIXTURE> 2 2.500000e-01
<MEAN> 20
 -7.668378e+00 -1.256094e+00 -1.874036e+01 -5.720747e+00 -1.219913e+01 -1.025762e+01 -1.940659e+01 -9.384661e+00 -7.041414e+00 -1.049304e+01 -1.232184e+01 -7.891215e+00 -1.804826e+00 -9.649638e+00 -6.745342e+00 -4.569195e+00 3.310061e+00 -8.098298e+00 -2.289892e+00 -4.996918e+00
<VARIANCE> 20
 6.251222e+00 2.240456e+00 8.206311e+01 4.992123e+01 3.143940e+01 1.349721e+01 9.788422e+01 9.108443e+01 2.570518e+01 1.406747e+01 6.491738e+01 8.115136e+01 2.345185e+01 1.581540e+01 2.889752e+01 3.885771e+01 2.791859e+01 1.781219e+01 2.992111e+01 4.748095e+01
<GCONST> 1.037287e+02
<MIXTURE> 3 2.500000e-01
<MEAN> 20
 -7.668378e+00 -1.256094e+00 -1.874036e+01 -5.720747e+00 -1.219913e+01 -1.025762e+01 -1.940659e+01 -9.384661e+00 -7.041414e+00 -1.049304e+01 -1.232184e+01 -7.891215e+00 -1.804826e+00 -9.649638e+00 -6.745342e+00 -4.569195e+00 3.310061e+00 -8.098298e+00 -2.289892e+00 -4.996918e+00
<VARIANCE> 20
 6.251222e+00 2.240456e+00 8.206311e+01 4.992123e+01 3.143940e+01 1.349721e+01 9.788422e+01 9.108443e+01 2.570518e+01 1.406747e+01 6.491738e+01 8.115136e+01 2.345185e+01 1.581540e+01 2.889752e+01 3.885771e+01 2.791859e+01 1.781219e+01 2.992111e+01 4.748095e+01
<GCONST> 1.037287e+02
<MIXTURE> 4 2.500000e-01
<MEAN> 20
 -7.668378e+00 -1.256094e+00 -1.874036e+01 -5.720747e+00 -1.219913e+01 -1.025762e+01 -1.940659e+01 -9.384661e+00 -7.041414e+00 -1.049304e+01 -1.232184e+01 -7.891215e+00 -1.804826e+00 -9.649638e+00 -6.745342e+00 -4.569195e+00 3.310061e+00 -8.098298e+00 -2.289892e+00 -4.996918e+00
<VARIANCE> 20
 6.251222e+00 2.240456e+00 8.206311e+01 4.992123e+01 3.143940e+01 1.349721e+01 9.788422e+01 9.108443e+01 2.570518e+01 1.406747e+01 6.491738e+01 8.115136e+01 2.345185e+01 1.581540e+01 2.889752e+01 3.885771e+01 2.791859e+01 1.781219e+01 2.992111e+01 4.748095e+01
<GCONST> 1.037287e+02
<STATE> 6
<NUMMIXES> 4
<MIXTURE> 1 2.500000e-01
<MEAN> 20
 -7.668378e+00 -1.256094e+00 -1.874036e+01 -5.720747e+00 -1.219913e+01 -1.025762e+01 -1.940659e+01 -9.384661e+00 -7.041414e+00 -1.049304e+01 -1.232184e+01 -7.891215e+00 -1.804826e+00 -9.649638e+00 -6.745342e+00 -4.569195e+00 3.310061e+00 -8.098298e+00 -2.289892e+00 -4.996918e+00
<VARIANCE> 20
 6.251222e+00 2.240456e+00 8.206311e+01 4.992123e+01 3.143940e+01 1.349721e+01 9.788422e+01 9.108443e+01 2.570518e+01 1.406747e+01 6.491738e+01 8.115136e+01 2.345185e+01 1.581540e+01 2.889752e+01 3.885771e+01 2.791859e+01 1.781219e+01 2.992111e+01 4.748095e+01
<GCONST> 1.037287e+02
<MIXTURE> 2 2.500000e-01
<MEAN> 20
 -7.668378e+00 -1.256094e+00 -1.874036e+01 -5.720747e+00 -1.219913e+01 -1.025762e+01 -1.940659e+01 -9.384661e+00 -7.041414e+00 -1.049304e+01 -1.232184e+01 -7.891215e+00 -1.804826e+00 -9.649638e+00 -6.745342e+00 -4.569195e+00 3.310061e+00 -8.098298e+00 -2.289892e+00 -4.996918e+00
<VARIANCE> 20
 6.251222e+00 2.240456e+00 8.206311e+01 4.992123e+01 3.143940e+01 1.349721e+01 9.788422e+01 9.108443e+01 2.570518e+01 1.406747e+01 6.491738e+01 8.115136e+01 2.345185e+01 1.581540e+01 2.889752e+01 3.885771e+01 2.791859e+01 1.781219e+01 2.992111e+01 4.748095e+01
<GCONST> 1.037287e+02
<MIXTURE> 3 2.500000e-01
<MEAN> 20
 -7.668378e+00 -1.256094e+00 -1.874036e+01 -5.720747e+00 -1.219913e+01 -1.025762e+01 -1.940659e+01 -9.384661e+00 -7.041414e+00 -1.049304e+01 -1.232184e+01 -7.891215e+00 -1.804826e+00 -9.649638e+00 -6.745342e+00 -4.569195e+00 3.310061e+00 -8.098298e+00 -2.289892e+00 -4.996918e+00
<VARIANCE> 20
 6.251222e+00 2.240456e+00 8.206311e+01 4.992123e+01 3.143940e+01 1.349721e+01 9.788422e+01 9.108443e+01 2.570518e+01 1.406747e+01 6.491738e+01 8.115136e+01 2.345185e+01 1.581540e+01 2.889752e+01 3.885771e+01 2.791859e+01 1.781219e+01 2.992111e+01 4.748095e+01
<GCONST> 1.037287e+02
<MIXTURE> 4 2.500000e-01
<MEAN> 20
 -7.668378e+00 -1.256094e+00 -1.874036e+01 -5.720747e+00 -1.219913e+01 -1.025762e+01 -1.940659e+01 -9.384661e+00 -7.041414e+00 -1.049304e+01 -1.232184e+01 -7.891215e+00 -1.804826e+00 -9.649638e+00 -6.745342e+00 -4.569195e+00 3.310061e+00 -8.098298e+00 -2.289892e+00 -4.996918e+00
<VARIANCE> 20
 6.251222e+00 2.240456e+00 8.206311e+01 4.992123e+01 3.143940e+01 1.349721e+01 9.788422e+01 9.108443e+01 2.570518e+01 1.406747e+01 6.491738e+01 8.115136e+01 2.345185e+01 1.581540e+01 2.889752e+01 3.885771e+01 2.791859e+01 1.781219e+01 2.992111e+01 4.748095e+01
<GCONST> 1.037287e+02
<STATE> 7
<MEAN> 20
 -7.668378e+00 -1.256094e+00 -1.874036e+01 -5.720747e+00 -1.219913e+01 -1.025762e+01 -1.940659e+01 -9.384661e+00 -7.041414e+00 -1.049304e+01 -1.232184e+01 -7.891215e+00 -1.804826e+00 -9.649638e+00 -6.745342e+00 -4.569195e+00 3.310061e+00 -8.098298e+00 -2.289892e+00 -4.996918e+00
<VARIANCE> 20
 6.251222e+00 2.240456e+00 8.206311e+01 4.992123e+01 3.143940e+01 1.349721e+01 9.788422e+01 9.108443e+01 2.570518e+01 1.406747e+01 6.491738e+01 8.115136e+01 2.345185e+01 1.581540e+01 2.889752e+01 3.885771e+01 2.791859e+01 1.781219e+01 2.992111e+01 4.748095e+01
<GCONST> 1.037287e+02
<TRANSP> 8
 0.000000e+00 1.000000e+00 0.000000e+00 0.000000e+00 0.000000e+00 0.000000e+00 0.000000e+00 0.000000e+00
 0.000000e+00 5.000000e-01 5.000000e-01 0.000000e+00 0.000000e+00 0.000000e+00 0.000000e+00 0.000000e+00
 0.000000e+00 0.000000e+00 5.000000e-01 5.000000e-01 0.000000e+00 0.000000e+00 0.000000e+00 0.000000e+00
 0.000000e+00 0.000000e+00 0.000000e+00 5.000000e-01 5.000000e-01 0.000000e+00 0.000000e+00 0.000000e+00
 0.000000e+00 0.000000e+00 0.000000e+00 0.000000e+00 5.000000e-01 5.000000e-01 0.000000e+00 0.000000e+00
 0.000000e+00 0.000000e+00 0.000000e+00 0.000000e+00 0.000000e+00 5.000000e-01 5.000000e-01 0.000000e+00
 0.000000e+00 0.000000e+00 0.000000e+00 0.000000e+00 0.000000e+00 0.000000e+00 5.000000e-01 5.000000e-01
 0.000000e+00 0.000000e+00 0.000000e+00 0.000000e+00 0.000000e+00 0.000000e+00 0.000000e+00 0.000000e+00
<ENDHMM>
