~o
<STREAMINFO> 1 20
<VECSIZE> 20<NULLD><USER><DIAGC>
~h "r"
<BEGINHMM>
<NUMSTATES> 8
<STATE> 2
<MEAN> 20
 -7.340992e+00 -1.918966e+00 -1.374123e+01 -1.062558e+01 -9.009282e+00 -1.239722e+01 -1.410562e+01 -1.676660e+01 -4.147995e+00 -1.261501e+01 -1.062737e+01 -1.642419e+01 6.917620e-01 -1.173477e+01 -5.969137e+00 -9.662792e+00 5.464135e+00 -9.997303e+00 -1.226690e+00 -9.036001e+00
<VARIANCE> 20
 8.748488e+00 1.352044e+00 6.789505e+01 1.315979e+01 2.604811e+01 6.447478e+00 6.645274e+01 4.363344e+01 1.576251e+01 7.113913e+00 5.541489e+01 7.177737e+01 1.235859e+01 7.591861e+00 3.173469e+01 2.889556e+01 1.781603e+01 7.953312e+00 3.501736e+01 2.952229e+01
<GCONST> 9.538442e+01
<STATE> 3
<NUMMIXES> 4
<MIXTURE> 1 2.500000e-01
<MEAN> 20
 -7.340992e+00 -1.918966e+00 -1.374123e+01 -1.062558e+01 -9.009282e+00 -1.239722e+01 -1.410562e+01 -1.676660e+01 -4.147995e+00 -1.261501e+01 -1.062737e+01 -1.642419e+01 6.917620e-01 -1.173477e+01 -5.969137e+00 -9.662792e+00 5.464135e+00 -9.997303e+00 -1.226690e+00 -9.036001e+00
<VARIANCE> 20
 8.748488e+00 1.352044e+00 6.789505e+01 1.315979e+01 2.604811e+01 6.447478e+00 6.645274e+01 4.363344e+01 1.576251e+01 7.113913e+00 5.541489e+01 7.177737e+01 1.235859e+01 7.591861e+00 3.173469e+01 2.889556e+01 1.781603e+01 7.953312e+00 3.501736e+01 2.952229e+01
<GCONST> 9.538442e+01
<MIXTURE> 2 2.500000e-01
<MEAN> 20
 -7.340992e+00 -1.918966e+00 -1.374123e+01 -1.062558e+01 -9.009282e+00 -1.239722e+01 -1.410562e+01 -1.676660e+01 -4.147995e+00 -1.261501e+01 -1.062737e+01 -1.642419e+01 6.917620e-01 -1.173477e+01 -5.969137e+00 -9.662792e+00 5.464135e+00 -9.997303e+00 -1.226690e+00 -9.036001e+00
<VARIANCE> 20
 8.748488e+00 1.352044e+00 6.789505e+01 1.315979e+01 2.604811e+01 6.447478e+00 6.645274e+01 4.363344e+01 1.576251e+01 7.113913e+00 5.541489e+01 7.177737e+01 1.235859e+01 7.591861e+00 3.173469e+01 2.889556e+01 1.781603e+01 7.953312e+00 3.501736e+01 2.952229e+01
<GCONST> 9.538442e+01
<MIXTURE> 3 2.500000e-01
<MEAN> 20
 -7.340992e+00 -1.918966e+00 -1.374123e+01 -1.062558e+01 -9.009282e+00 -1.239722e+01 -1.410562e+01 -1.676660e+01 -4.147995e+00 -1.261501e+01 -1.062737e+01 -1.642419e+01 6.917620e-01 -1.173477e+01 -5.969137e+00 -9.662792e+00 5.464135e+00 -9.997303e+00 -1.226690e+00 -9.036001e+00
<VARIANCE> 20
 8.748488e+00 1.352044e+00 6.789505e+01 1.315979e+01 2.604811e+01 6.447478e+00 6.645274e+01 4.363344e+01 1.576251e+01 7.113913e+00 5.541489e+01 7.177737e+01 1.235859e+01 7.591861e+00 3.173469e+01 2.889556e+01 1.781603e+01 7.953312e+00 3.501736e+01 2.952229e+01
<GCONST> 9.538442e+01
<MIXTURE> 4 2.500000e-01
<MEAN> 20
 -7.340992e+00 -1.918966e+00 -1.374123e+01 -1.062558e+01 -9.009282e+00 -1.239722e+01 -1.410562e+01 -1.676660e+01 -4.147995e+00 -1.261501e+01 -1.062737e+01 -1.642419e+01 6.917620e-01 -1.173477e+01 -5.969137e+00 -9.662792e+00 5.464135e+00 -9.997303e+00 -1.226690e+00 -9.036001e+00
<VARIANCE> 20
 8.748488e+00 1.352044e+00 6.789505e+01 1.315979e+01 2.604811e+01 6.447478e+00 6.645274e+01 4.363344e+01 1.576251e+01 7.113913e+00 5.541489e+01 7.177737e+01 1.235859e+01 7.591861e+00 3.173469e+01 2.889556e+01 1.781603e+01 7.953312e+00 3.501736e+01 2.952229e+01
<GCONST> 9.538442e+01
<STATE> 4
<NUMMIXES> 4
<MIXTURE> 1 2.500000e-01
<MEAN> 20
 -7.340992e+00 -1.918966e+00 -1.374123e+01 -1.062558e+01 -9.009282e+00 -1.239722e+01 -1.410562e+01 -1.676660e+01 -4.147995e+00 -1.261501e+01 -1.062737e+01 -1.642419e+01 6.917620e-01 -1.173477e+01 -5.969137e+00 -9.662792e+00 5.464135e+00 -9.997303e+00 -1.226690e+00 -9.036001e+00
<VARIANCE> 20
 8.748488e+00 1.352044e+00 6.789505e+01 1.315979e+01 2.604811e+01 6.447478e+00 6.645274e+01 4.363344e+01 1.576251e+01 7.113913e+00 5.541489e+01 7.177737e+01 1.235859e+01 7.591861e+00 3.173469e+01 2.889556e+01 1.781603e+01 7.953312e+00 3.501736e+01 2.952229e+01
<GCONST> 9.538442e+01
<MIXTURE> 2 2.500000e-01
<MEAN> 20
 -7.340992e+00 -1.918966e+00 -1.374123e+01 -1.062558e+01 -9.009282e+00 -1.239722e+01 -1.410562e+01 -1.676660e+01 -4.147995e+00 -1.261501e+01 -1.062737e+01 -1.642419e+01 6.917620e-01 -1.173477e+01 -5.969137e+00 -9.662792e+00 5.464135e+00 -9.997303e+00 -1.226690e+00 -9.036001e+00
<VARIANCE> 20
 8.748488e+00 1.352044e+00 6.789505e+01 1.315979e+01 2.604811e+01 6.447478e+00 6.645274e+01 4.363344e+01 1.576251e+01 7.113913e+00 5.541489e+01 7.177737e+01 1.235859e+01 7.591861e+00 3.173469e+01 2.889556e+01 1.781603e+01 7.953312e+00 3.501736e+01 2.952229e+01
<GCONST> 9.538442e+01
<MIXTURE> 3 2.500000e-01
<MEAN> 20
 -7.340992e+00 -1.918966e+00 -1.374123e+01 -1.062558e+01 -9.009282e+00 -1.239722e+01 -1.410562e+01 -1.676660e+01 -4.147995e+00 -1.261501e+01 -1.062737e+01 -1.642419e+01 6.917620e-01 -1.173477e+01 -5.969137e+00 -9.662792e+00 5.464135e+00 -9.997303e+00 -1.226690e+00 -9.036001e+00
<VARIANCE> 20
 8.748488e+00 1.352044e+00 6.789505e+01 1.315979e+01 2.604811e+01 6.447478e+00 6.645274e+01 4.363344e+01 1.576251e+01 7.113913e+00 5.541489e+01 7.177737e+01 1.235859e+01 7.591861e+00 3.173469e+01 2.889556e+01 1.781603e+01 7.953312e+00 3.501736e+01 2.952229e+01
<GCONST> 9.538442e+01
<MIXTURE> 4 2.500000e-01
<MEAN> 20
 -7.340992e+00 -1.918966e+00 -1.374123e+01 -1.062558e+01 -9.009282e+00 -1.239722e+01 -1.410562e+01 -1.676660e+01 -4.147995e+00 -1.261501e+01 -1.062737e+01 -1.642419e+01 6.917620e-01 -1.173477e+01 -5.969137e+00 -9.662792e+00 5.464135e+00 -9.997303e+00 -1.226690e+00 -9.036001e+00
<VARIANCE> 20
 8.748488e+00 1.352044e+00 6.789505e+01 1.315979e+01 2.604811e+01 6.447478e+00 6.645274e+01 4.363344e+01 1.576251e+01 7.113913e+00 5.541489e+01 7.177737e+01 1.235859e+01 7.591861e+00 3.173469e+01 2.889556e+01 1.781603e+01 7.953312e+00 3.501736e+01 2.952229e+01
<GCONST> 9.538442e+01
<STATE> 5
<NUMMIXES> 4
<MIXTURE> 1 2.500000e-01
<MEAN> 20
 -7.340992e+00 -1.918966e+00 -1.374123e+01 -1.062558e+01 -9.009282e+00 -1.239722e+01 -1.410562e+01 -1.676660e+01 -4.147995e+00 -1.261501e+01 -1.062737e+01 -1.642419e+01 6.917620e-01 -1.173477e+01 -5.969137e+00 -9.662792e+00 5.464135e+00 -9.997303e+00 -1.226690e+00 -9.036001e+00
<VARIANCE> 20
 8.748488e+00 1.352044e+00 6.789505e+01 1.315979e+01 2.604811e+01 6.447478e+00 6.645274e+01 4.363344e+01 1.576251e+01 7.113913e+00 5.541489e+01 7.177737e+01 1.235859e+01 7.591861e+00 3.173469e+01 2.889556e+01 1.781603e+01 7.953312e+00 3.501736e+01 2.952229e+01
<GCONST> 9.538442e+01
<MIXTURE> 2 2.500000e-01
<MEAN> 20
 -7.340992e+00 -1.918966e+00 -1.374123e+01 -1.062558e+01 -9.009282e+00 -1.239722e+01 -1.410562e+01 -1.676660e+01 -4.147995e+00 -1.261501e+01 -1.062737e+01 -1.642419e+01 6.917620e-01 -1.173477e+01 -5.969137e+00 -9.662792e+00 5.464135e+00 -9.997303e+00 -1.226690e+00 -9.036001e+00
<VARIANCE> 20
 8.748488e+00 1.352044e+00 6.789505e+01 1.315979e+01 2.604811e+01 6.447478e+00 6.645274e+01 4.363344e+01 1.576251e+01 7.113913e+00 5.541489e+01 7.177737e+01 1.235859e+01 7.591861e+00 3.173469e+01 2.889556e+01 1.781603e+01 7.953312e+00 3.501736e+01 2.952229e+01
<GCONST> 9.538442e+01
<MIXTURE> 3 2.500000e-01
<MEAN> 20
 -7.340992e+00 -1.918966e+00 -1.374123e+01 -1.062558e+01 -9.009282e+00 -1.239722e+01 -1.410562e+01 -1.676660e+01 -4.147995e+00 -1.261501e+01 -1.062737e+01 -1.642419e+01 6.917620e-01 -1.173477e+01 -5.969137e+00 -9.662792e+00 5.464135e+00 -9.997303e+00 -1.226690e+00 -9.036001e+00
<VARIANCE> 20
 8.748488e+00 1.352044e+00 6.789505e+01 1.315979e+01 2.604811e+01 6.447478e+00 6.645274e+01 4.363344e+01 1.576251e+01 7.113913e+00 5.541489e+01 7.177737e+01 1.235859e+01 7.591861e+00 3.173469e+01 2.889556e+01 1.781603e+01 7.953312e+00 3.501736e+01 2.952229e+01
<GCONST> 9.538442e+01
<MIXTURE> 4 2.500000e-01
<MEAN> 20
 -7.340992e+00 -1.918966e+00 -1.374123e+01 -1.062558e+01 -9.009282e+00 -1.239722e+01 -1.410562e+01 -1.676660e+01 -4.147995e+00 -1.261501e+01 -1.062737e+01 -1.642419e+01 6.917620e-01 -1.173477e+01 -5.969137e+00 -9.662792e+00 5.464135e+00 -9.997303e+00 -1.226690e+00 -9.036001e+00
<VARIANCE> 20
 8.748488e+00 1.352044e+00 6.789505e+01 1.315979e+01 2.604811e+01 6.447478e+00 6.645274e+01 4.363344e+01 1.576251e+01 7.113913e+00 5.541489e+01 7.177737e+01 1.235859e+01 7.591861e+00 3.173469e+01 2.889556e+01 1.781603e+01 7.953312e+00 3.501736e+01 2.952229e+01
<GCONST> 9.538442e+01
<STATE> 6
<NUMMIXES> 4
<MIXTURE> 1 2.500000e-01
<MEAN> 20
 -7.340992e+00 -1.918966e+00 -1.374123e+01 -1.062558e+01 -9.009282e+00 -1.239722e+01 -1.410562e+01 -1.676660e+01 -4.147995e+00 -1.261501e+01 -1.062737e+01 -1.642419e+01 6.917620e-01 -1.173477e+01 -5.969137e+00 -9.662792e+00 5.464135e+00 -9.997303e+00 -1.226690e+00 -9.036001e+00
<VARIANCE> 20
 8.748488e+00 1.352044e+00 6.789505e+01 1.315979e+01 2.604811e+01 6.447478e+00 6.645274e+01 4.363344e+01 1.576251e+01 7.113913e+00 5.541489e+01 7.177737e+01 1.235859e+01 7.591861e+00 3.173469e+01 2.889556e+01 1.781603e+01 7.953312e+00 3.501736e+01 2.952229e+01
<GCONST> 9.538442e+01
<MIXTURE> 2 2.500000e-01
<MEAN> 20
 -7.340992e+00 -1.918966e+00 -1.374123e+01 -1.062558e+01 -9.009282e+00 -1.239722e+01 -1.410562e+01 -1.676660e+01 -4.147995e+00 -1.261501e+01 -1.062737e+01 -1.642419e+01 6.917620e-01 -1.173477e+01 -5.969137e+00 -9.662792e+00 5.464135e+00 -9.997303e+00 -1.226690e+00 -9.036001e+00
<VARIANCE> 20
 8.748488e+00 1.352044e+00 6.789505e+01 1.315979e+01 2.604811e+01 6.447478e+00 6.645274e+01 4.363344e+01 1.576251e+01 7.113913e+00 5.541489e+01 7.177737e+01 1.235859e+01 7.591861e+00 3.173469e+01 2.889556e+01 1.781603e+01 7.953312e+00 3.501736e+01 2.952229e+01
<GCONST> 9.538442e+01
<MIXTURE> 3 2.500000e-01
<MEAN> 20
 -7.340992e+00 -1.918966e+00 -1.374123e+01 -1.062558e+01 -9.009282e+00 -1.239722e+01 -1.410562e+01 -1.676660e+01 -4.147995e+00 -1.261501e+01 -1.062737e+01 -1.642419e+01 6.917620e-01 -1.173477e+01 -5.969137e+00 -9.662792e+00 5.464135e+00 -9.997303e+00 -1.226690e+00 -9.036001e+00
<VARIANCE> 20
 8.748488e+00 1.352044e+00 6.789505e+01 1.315979e+01 2.604811e+01 6.447478e+00 6.645274e+01 4.363344e+01 1.576251e+01 7.113913e+00 5.541489e+01 7.177737e+01 1.235859e+01 7.591861e+00 3.173469e+01 2.889556e+01 1.781603e+01 7.953312e+00 3.501736e+01 2.952229e+01
<GCONST> 9.538442e+01
<MIXTURE> 4 2.500000e-01
<MEAN> 20
 -7.340992e+00 -1.918966e+00 -1.374123e+01 -1.062558e+01 -9.009282e+00 -1.239722e+01 -1.410562e+01 -1.676660e+01 -4.147995e+00 -1.261501e+01 -1.062737e+01 -1.642419e+01 6.917620e-01 -1.173477e+01 -5.969137e+00 -9.662792e+00 5.464135e+00 -9.997303e+00 -1.226690e+00 -9.036001e+00
<VARIANCE> 20
 8.748488e+00 1.352044e+00 6.789505e+01 1.315979e+01 2.604811e+01 6.447478e+00 6.645274e+01 4.363344e+01 1.576251e+01 7.113913e+00 5.541489e+01 7.177737e+01 1.235859e+01 7.591861e+00 3.173469e+01 2.889556e+01 1.781603e+01 7.953312e+00 3.501736e+01 2.952229e+01
<GCONST> 9.538442e+01
<STATE> 7
<MEAN> 20
 -7.340992e+00 -1.918966e+00 -1.374123e+01 -1.062558e+01 -9.009282e+00 -1.239722e+01 -1.410562e+01 -1.676660e+01 -4.147995e+00 -1.261501e+01 -1.062737e+01 -1.642419e+01 6.917620e-01 -1.173477e+01 -5.969137e+00 -9.662792e+00 5.464135e+00 -9.997303e+00 -1.226690e+00 -9.036001e+00
<VARIANCE> 20
 8.748488e+00 1.352044e+00 6.789505e+01 1.315979e+01 2.604811e+01 6.447478e+00 6.645274e+01 4.363344e+01 1.576251e+01 7.113913e+00 5.541489e+01 7.177737e+01 1.235859e+01 7.591861e+00 3.173469e+01 2.889556e+01 1.781603e+01 7.953312e+00 3.501736e+01 2.952229e+01
<GCONST> 9.538442e+01
<TRANSP> 8
 0.000000e+00 1.000000e+00 0.000000e+00 0.000000e+00 0.000000e+00 0.000000e+00 0.000000e+00 0.000000e+00
 0.000000e+00 5.000000e-01 5.000000e-01 0.000000e+00 0.000000e+00 0.000000e+00 0.000000e+00 0.000000e+00
 0.000000e+00 0.000000e+00 5.000000e-01 5.000000e-01 0.000000e+00 0.000000e+00 0.000000e+00 0.000000e+00
 0.000000e+00 0.000000e+00 0.000000e+00 5.000000e-01 5.000000e-01 0.000000e+00 0.000000e+00 0.000000e+00
 0.000000e+00 0.000000e+00 0.000000e+00 0.000000e+00 5.000000e-01 5.000000e-01 0.000000e+00 0.000000e+00
 0.000000e+00 0.000000e+00 0.000000e+00 0.000000e+00 0.000000e+00 5.000000e-01 5.000000e-01 0.000000e+00
 0.000000e+00 0.000000e+00 0.000000e+00 0.000000e+00 0.000000e+00 0.000000e+00 5.000000e-01 5.000000e-01
 0.000000e+00 0.000000e+00 0.000000e+00 0.000000e+00 0.000000e+00 0.000000e+00 0.000000e+00 0.000000e+00
<ENDHMM>
