~o
<STREAMINFO> 1 20
<VECSIZE> 20<NULLD><USER><DIAGC>
~h "s"
<BEGINHMM>
<NUMSTATES> 8
<STATE> 2
<MEAN> 20
 -7.398738e+00 -2.061302e+00 -1.389039e+01 -1.118708e+01 -8.973889e+00 -1.233001e+01 -1.388443e+01 -1.280066e+01 -4.153428e+00 -1.242757e+01 -9.586960e+00 -1.109801e+01 6.220497e-01 -1.167455e+01 -5.019572e+00 -8.596122e+00 5.453054e+00 -1.023692e+01 -5.018038e-01 -9.054550e+00
<VARIANCE> 20
 8.323861e+00 1.259031e+00 7.399289e+01 1.458761e+01 2.587922e+01 7.320740e+00 6.184125e+01 3.101518e+01 1.611975e+01 7.881092e+00 4.968319e+01 3.653894e+01 1.206666e+01 8.248702e+00 2.909614e+01 2.069352e+01 1.576452e+01 8.714901e+00 2.866755e+01 2.776923e+01
<GCONST> 9.384633e+01
<STATE> 3
<NUMMIXES> 4
<MIXTURE> 1 2.500000e-01
<MEAN> 20
 -7.398738e+00 -2.061302e+00 -1.389039e+01 -1.118708e+01 -8.973889e+00 -1.233001e+01 -1.388443e+01 -1.280066e+01 -4.153428e+00 -1.242757e+01 -9.586960e+00 -1.109801e+01 6.220497e-01 -1.167455e+01 -5.019572e+00 -8.596122e+00 5.453054e+00 -1.023692e+01 -5.018038e-01 -9.054550e+00
<VARIANCE> 20
 8.323861e+00 1.259031e+00 7.399289e+01 1.458761e+01 2.587922e+01 7.320740e+00 6.184125e+01 3.101518e+01 1.611975e+01 7.881092e+00 4.968319e+01 3.653894e+01 1.206666e+01 8.248702e+00 2.909614e+01 2.069352e+01 1.576452e+01 8.714901e+00 2.866755e+01 2.776923e+01
<GCONST> 9.384633e+01
<MIXTURE> 2 2.500000e-01
<MEAN> 20
 -7.398738e+00 -2.061302e+00 -1.389039e+01 -1.118708e+01 -8.973889e+00 -1.233001e+01 -1.388443e+01 -1.280066e+01 -4.153428e+00 -1.242757e+01 -9.586960e+00 -1.109801e+01 6.220497e-01 -1.167455e+01 -5.019572e+00 -8.596122e+00 5.453054e+00 -1.023692e+01 -5.018038e-01 -9.054550e+00
<VARIANCE> 20
 8.323861e+00 1.259031e+00 7.399289e+01 1.458761e+01 2.587922e+01 7.320740e+00 6.184125e+01 3.101518e+01 1.611975e+01 7.881092e+00 4.968319e+01 3.653894e+01 1.206666e+01 8.248702e+00 2.909614e+01 2.069352e+01 1.576452e+01 8.714901e+00 2.866755e+01 2.776923e+01
<GCONST> 9.384633e+01
<MIXTURE> 3 2.500000e-01
<MEAN> 20
 -7.398738e+00 -2.061302e+00 -1.389039e+01 -1.118708e+01 -8.973889e+00 -1.233001e+01 -1.388443e+01 -1.280066e+01 -4.153428e+00 -1.242757e+01 -9.586960e+00 -1.109801e+01 6.220497e-01 -1.167455e+01 -5.019572e+00 -8.596122e+00 5.453054e+00 -1.023692e+01 -5.018038e-01 -9.054550e+00
<VARIANCE> 20
 8.323861e+00 1.259031e+00 7.399289e+01 1.458761e+01 2.587922e+01 7.320740e+00 6.184125e+01 3.101518e+01 1.611975e+01 7.881092e+00 4.968319e+01 3.653894e+01 1.206666e+01 8.248702e+00 2.909614e+01 2.069352e+01 1.576452e+01 8.714901e+00 2.866755e+01 2.776923e+01
<GCONST> 9.384633e+01
<MIXTURE> 4 2.500000e-01
<MEAN> 20
 -7.398738e+00 -2.061302e+00 -1.389039e+01 -1.118708e+01 -8.973889e+00 -1.233001e+01 -1.388443e+01 -1.280066e+01 -4.153428e+00 -1.242757e+01 -9.586960e+00 -1.109801e+01 6.220497e-01 -1.167455e+01 -5.019572e+00 -8.596122e+00 5.453054e+00 -1.023692e+01 -5.018038e-01 -9.054550e+00
<VARIANCE> 20
 8.323861e+00 1.259031e+00 7.399289e+01 1.458761e+01 2.587922e+01 7.320740e+00 6.184125e+01 3.101518e+01 1.611975e+01 7.881092e+00 4.968319e+01 3.653894e+01 1.206666e+01 8.248702e+00 2.909614e+01 2.069352e+01 1.576452e+01 8.714901e+00 2.866755e+01 2.776923e+01
<GCONST> 9.384633e+01
<STATE> 4
<NUMMIXES> 4
<MIXTURE> 1 2.500000e-01
<MEAN> 20
 -7.398738e+00 -2.061302e+00 -1.389039e+01 -1.118708e+01 -8.973889e+00 -1.233001e+01 -1.388443e+01 -1.280066e+01 -4.153428e+00 -1.242757e+01 -9.586960e+00 -1.109801e+01 6.220497e-01 -1.167455e+01 -5.019572e+00 -8.596122e+00 5.453054e+00 -1.023692e+01 -5.018038e-01 -9.054550e+00
<VARIANCE> 20
 8.323861e+00 1.259031e+00 7.399289e+01 1.458761e+01 2.587922e+01 7.320740e+00 6.184125e+01 3.101518e+01 1.611975e+01 7.881092e+00 4.968319e+01 3.653894e+01 1.206666e+01 8.248702e+00 2.909614e+01 2.069352e+01 1.576452e+01 8.714901e+00 2.866755e+01 2.776923e+01
<GCONST> 9.384633e+01
<MIXTURE> 2 2.500000e-01
<MEAN> 20
 -7.398738e+00 -2.061302e+00 -1.389039e+01 -1.118708e+01 -8.973889e+00 -1.233001e+01 -1.388443e+01 -1.280066e+01 -4.153428e+00 -1.242757e+01 -9.586960e+00 -1.109801e+01 6.220497e-01 -1.167455e+01 -5.019572e+00 -8.596122e+00 5.453054e+00 -1.023692e+01 -5.018038e-01 -9.054550e+00
<VARIANCE> 20
 8.323861e+00 1.259031e+00 7.399289e+01 1.458761e+01 2.587922e+01 7.320740e+00 6.184125e+01 3.101518e+01 1.611975e+01 7.881092e+00 4.968319e+01 3.653894e+01 1.206666e+01 8.248702e+00 2.909614e+01 2.069352e+01 1.576452e+01 8.714901e+00 2.866755e+01 2.776923e+01
<GCONST> 9.384633e+01
<MIXTURE> 3 2.500000e-01
<MEAN> 20
 -7.398738e+00 -2.061302e+00 -1.389039e+01 -1.118708e+01 -8.973889e+00 -1.233001e+01 -1.388443e+01 -1.280066e+01 -4.153428e+00 -1.242757e+01 -9.586960e+00 -1.109801e+01 6.220497e-01 -1.167455e+01 -5.019572e+00 -8.596122e+00 5.453054e+00 -1.023692e+01 -5.018038e-01 -9.054550e+00
<VARIANCE> 20
 8.323861e+00 1.259031e+00 7.399289e+01 1.458761e+01 2.587922e+01 7.320740e+00 6.184125e+01 3.101518e+01 1.611975e+01 7.881092e+00 4.968319e+01 3.653894e+01 1.206666e+01 8.248702e+00 2.909614e+01 2.069352e+01 1.576452e+01 8.714901e+00 2.866755e+01 2.776923e+01
<GCONST> 9.384633e+01
<MIXTURE> 4 2.500000e-01
<MEAN> 20
 -7.398738e+00 -2.061302e+00 -1.389039e+01 -1.118708e+01 -8.973889e+00 -1.233001e+01 -1.388443e+01 -1.280066e+01 -4.153428e+00 -1.242757e+01 -9.586960e+00 -1.109801e+01 6.220497e-01 -1.167455e+01 -5.019572e+00 -8.596122e+00 5.453054e+00 -1.023692e+01 -5.018038e-01 -9.054550e+00
<VARIANCE> 20
 8.323861e+00 1.259031e+00 7.399289e+01 1.458761e+01 2.587922e+01 7.320740e+00 6.184125e+01 3.101518e+01 1.611975e+01 7.881092e+00 4.968319e+01 3.653894e+01 1.206666e+01 8.248702e+00 2.909614e+01 2.069352e+01 1.576452e+01 8.714901e+00 2.866755e+01 2.776923e+01
<GCONST> 9.384633e+01
<STATE> 5
<NUMMIXES> 4
<MIXTURE> 1 2.500000e-01
<MEAN> 20
 -7.398738e+00 -2.061302e+00 -1.389039e+01 -1.118708e+01 -8.973889e+00 -1.233001e+01 -1.388443e+01 -1.280066e+01 -4.153428e+00 -1.242757e+01 -9.586960e+00 -1.109801e+01 6.220497e-01 -1.167455e+01 -5.019572e+00 -8.596122e+00 5.453054e+00 -1.023692e+01 -5.018038e-01 -9.054550e+00
<VARIANCE> 20
 8.323861e+00 1.259031e+00 7.399289e+01 1.458761e+01 2.587922e+01 7.320740e+00 6.184125e+01 3.101518e+01 1.611975e+01 7.881092e+00 4.968319e+01 3.653894e+01 1.206666e+01 8.248702e+00 2.909614e+01 2.069352e+01 1.576452e+01 8.714901e+00 2.866755e+01 2.776923e+01
<GCONST> 9.384633e+01
<MIXTURE> 2 2.500000e-01
<MEAN> 20
 -7.398738e+00 -2.061302e+00 -1.389039e+01 -1.118708e+01 -8.973889e+00 -1.233001e+01 -1.388443e+01 -1.280066e+01 -4.153428e+00 -1.242757e+01 -9.586960e+00 -1.109801e+01 6.220497e-01 -1.167455e+01 -5.019572e+00 -8.596122e+00 5.453054e+00 -1.023692e+01 -5.018038e-01 -9.054550e+00
<VARIANCE> 20
 8.323861e+00 1.259031e+00 7.399289e+01 1.458761e+01 2.587922e+01 7.320740e+00 6.184125e+01 3.101518e+01 1.611975e+01 7.881092e+00 4.968319e+01 3.653894e+01 1.206666e+01 8.248702e+00 2.909614e+01 2.069352e+01 1.576452e+01 8.714901e+00 2.866755e+01 2.776923e+01
<GCONST> 9.384633e+01
<MIXTURE> 3 2.500000e-01
<MEAN> 20
 -7.398738e+00 -2.061302e+00 -1.389039e+01 -1.118708e+01 -8.973889e+00 -1.233001e+01 -1.388443e+01 -1.280066e+01 -4.153428e+00 -1.242757e+01 -9.586960e+00 -1.109801e+01 6.220497e-01 -1.167455e+01 -5.019572e+00 -8.596122e+00 5.453054e+00 -1.023692e+01 -5.018038e-01 -9.054550e+00
<VARIANCE> 20
 8.323861e+00 1.259031e+00 7.399289e+01 1.458761e+01 2.587922e+01 7.320740e+00 6.184125e+01 3.101518e+01 1.611975e+01 7.881092e+00 4.968319e+01 3.653894e+01 1.206666e+01 8.248702e+00 2.909614e+01 2.069352e+01 1.576452e+01 8.714901e+00 2.866755e+01 2.776923e+01
<GCONST> 9.384633e+01
<MIXTURE> 4 2.500000e-01
<MEAN> 20
 -7.398738e+00 -2.061302e+00 -1.389039e+01 -1.118708e+01 -8.973889e+00 -1.233001e+01 -1.388443e+01 -1.280066e+01 -4.153428e+00 -1.242757e+01 -9.586960e+00 -1.109801e+01 6.220497e-01 -1.167455e+01 -5.019572e+00 -8.596122e+00 5.453054e+00 -1.023692e+01 -5.018038e-01 -9.054550e+00
<VARIANCE> 20
 8.323861e+00 1.259031e+00 7.399289e+01 1.458761e+01 2.587922e+01 7.320740e+00 6.184125e+01 3.101518e+01 1.611975e+01 7.881092e+00 4.968319e+01 3.653894e+01 1.206666e+01 8.248702e+00 2.909614e+01 2.069352e+01 1.576452e+01 8.714901e+00 2.866755e+01 2.776923e+01
<GCONST> 9.384633e+01
<STATE> 6
<NUMMIXES> 4
<MIXTURE> 1 2.500000e-01
<MEAN> 20
 -7.398738e+00 -2.061302e+00 -1.389039e+01 -1.118708e+01 -8.973889e+00 -1.233001e+01 -1.388443e+01 -1.280066e+01 -4.153428e+00 -1.242757e+01 -9.586960e+00 -1.109801e+01 6.220497e-01 -1.167455e+01 -5.019572e+00 -8.596122e+00 5.453054e+00 -1.023692e+01 -5.018038e-01 -9.054550e+00
<VARIANCE> 20
 8.323861e+00 1.259031e+00 7.399289e+01 1.458761e+01 2.587922e+01 7.320740e+00 6.184125e+01 3.101518e+01 1.611975e+01 7.881092e+00 4.968319e+01 3.653894e+01 1.206666e+01 8.248702e+00 2.909614e+01 2.069352e+01 1.576452e+01 8.714901e+00 2.866755e+01 2.776923e+01
<GCONST> 9.384633e+01
<MIXTURE> 2 2.500000e-01
<MEAN> 20
 -7.398738e+00 -2.061302e+00 -1.389039e+01 -1.118708e+01 -8.973889e+00 -1.233001e+01 -1.388443e+01 -1.280066e+01 -4.153428e+00 -1.242757e+01 -9.586960e+00 -1.109801e+01 6.220497e-01 -1.167455e+01 -5.019572e+00 -8.596122e+00 5.453054e+00 -1.023692e+01 -5.018038e-01 -9.054550e+00
<VARIANCE> 20
 8.323861e+00 1.259031e+00 7.399289e+01 1.458761e+01 2.587922e+01 7.320740e+00 6.184125e+01 3.101518e+01 1.611975e+01 7.881092e+00 4.968319e+01 3.653894e+01 1.206666e+01 8.248702e+00 2.909614e+01 2.069352e+01 1.576452e+01 8.714901e+00 2.866755e+01 2.776923e+01
<GCONST> 9.384633e+01
<MIXTURE> 3 2.500000e-01
<MEAN> 20
 -7.398738e+00 -2.061302e+00 -1.389039e+01 -1.118708e+01 -8.973889e+00 -1.233001e+01 -1.388443e+01 -1.280066e+01 -4.153428e+00 -1.242757e+01 -9.586960e+00 -1.109801e+01 6.220497e-01 -1.167455e+01 -5.019572e+00 -8.596122e+00 5.453054e+00 -1.023692e+01 -5.018038e-01 -9.054550e+00
<VARIANCE> 20
 8.323861e+00 1.259031e+00 7.399289e+01 1.458761e+01 2.587922e+01 7.320740e+00 6.184125e+01 3.101518e+01 1.611975e+01 7.881092e+00 4.968319e+01 3.653894e+01 1.206666e+01 8.248702e+00 2.909614e+01 2.069352e+01 1.576452e+01 8.714901e+00 2.866755e+01 2.776923e+01
<GCONST> 9.384633e+01
<MIXTURE> 4 2.500000e-01
<MEAN> 20
 -7.398738e+00 -2.061302e+00 -1.389039e+01 -1.118708e+01 -8.973889e+00 -1.233001e+01 -1.388443e+01 -1.280066e+01 -4.153428e+00 -1.242757e+01 -9.586960e+00 -1.109801e+01 6.220497e-01 -1.167455e+01 -5.019572e+00 -8.596122e+00 5.453054e+00 -1.023692e+01 -5.018038e-01 -9.054550e+00
<VARIANCE> 20
 8.323861e+00 1.259031e+00 7.399289e+01 1.458761e+01 2.587922e+01 7.320740e+00 6.184125e+01 3.101518e+01 1.611975e+01 7.881092e+00 4.968319e+01 3.653894e+01 1.206666e+01 8.248702e+00 2.909614e+01 2.069352e+01 1.576452e+01 8.714901e+00 2.866755e+01 2.776923e+01
<GCONST> 9.384633e+01
<STATE> 7
<MEAN> 20
 -7.398738e+00 -2.061302e+00 -1.389039e+01 -1.118708e+01 -8.973889e+00 -1.233001e+01 -1.388443e+01 -1.280066e+01 -4.153428e+00 -1.242757e+01 -9.586960e+00 -1.109801e+01 6.220497e-01 -1.167455e+01 -5.019572e+00 -8.596122e+00 5.453054e+00 -1.023692e+01 -5.018038e-01 -9.054550e+00
<VARIANCE> 20
 8.323861e+00 1.259031e+00 7.399289e+01 1.458761e+01 2.587922e+01 7.320740e+00 6.184125e+01 3.101518e+01 1.611975e+01 7.881092e+00 4.968319e+01 3.653894e+01 1.206666e+01 8.248702e+00 2.909614e+01 2.069352e+01 1.576452e+01 8.714901e+00 2.866755e+01 2.776923e+01
<GCONST> 9.384633e+01
<TRANSP> 8
 0.000000e+00 1.000000e+00 0.000000e+00 0.000000e+00 0.000000e+00 0.000000e+00 0.000000e+00 0.000000e+00
 0.000000e+00 5.000000e-01 5.000000e-01 0.000000e+00 0.000000e+00 0.000000e+00 0.000000e+00 0.000000e+00
 0.000000e+00 0.000000e+00 5.000000e-01 5.000000e-01 0.000000e+00 0.000000e+00 0.000000e+00 0.000000e+00
 0.000000e+00 0.000000e+00 0.000000e+00 5.000000e-01 5.000000e-01 0.000000e+00 0.000000e+00 0.000000e+00
 0.000000e+00 0.000000e+00 0.000000e+00 0.000000e+00 5.000000e-01 5.000000e-01 0.000000e+00 0.000000e+00
 0.000000e+00 0.000000e+00 0.000000e+00 0.000000e+00 0.000000e+00 5.000000e-01 5.000000e-01 0.000000e+00
 0.000000e+00 0.000000e+00 0.000000e+00 0.000000e+00 0.000000e+00 0.000000e+00 5.000000e-01 5.000000e-01
 0.000000e+00 0.000000e+00 0.000000e+00 0.000000e+00 0.000000e+00 0.000000e+00 0.000000e+00 0.000000e+00
<ENDHMM>
