~o
<STREAMINFO> 1 20
<VECSIZE> 20<NULLD><USER><DIAGC>
~h "sil0"
<BEGINHMM>
<NUMSTATES> 5
<STATE> 2
<MEAN> 20
 -7.281328e+00 -1.815620e+00 -1.871184e+01 -8.446494e+00 -9.705080e+00 -1.173981e+01 -1.884236e+01 -1.268327e+01 -4.664379e+00 -1.164448e+01 -1.331885e+01 -8.637028e+00 1.559793e-01 -1.034802e+01 -7.854456e+00 -6.300861e+00 4.630965e+00 -8.271658e+00 -2.736315e+00 -5.911740e+00
<VARIANCE> 20
 1.078356e+01 1.695618e+00 9.706858e+01 2.658862e+01 3.782587e+01 9.786582e+00 1.140540e+02 6.277039e+01 2.858022e+01 1.179650e+01 9.567369e+01 8.277673e+01 2.757694e+01 1.460921e+01 5.831056e+01 6.495941e+01 3.645073e+01 1.757931e+01 5.923018e+01 5.952795e+01
<GCONST> 1.059760e+02
<STATE> 3
<MEAN> 20
 -7.281328e+00 -1.815620e+00 -1.871184e+01 -8.446494e+00 -9.705080e+00 -1.173981e+01 -1.884236e+01 -1.268327e+01 -4.664379e+00 -1.164448e+01 -1.331885e+01 -8.637028e+00 1.559793e-01 -1.034802e+01 -7.854456e+00 -6.300861e+00 4.630965e+00 -8.271658e+00 -2.736315e+00 -5.911740e+00
<VARIANCE> 20
 1.078356e+01 1.695618e+00 9.706858e+01 2.658862e+01 3.782587e+01 9.786582e+00 1.140540e+02 6.277039e+01 2.858022e+01 1.179650e+01 9.567369e+01 8.277673e+01 2.757694e+01 1.460921e+01 5.831056e+01 6.495941e+01 3.645073e+01 1.757931e+01 5.923018e+01 5.952795e+01
<GCONST> 1.059760e+02
<STATE> 4
<MEAN> 20
 -7.281328e+00 -1.815620e+00 -1.871184e+01 -8.446494e+00 -9.705080e+00 -1.173981e+01 -1.884236e+01 -1.268327e+01 -4.664379e+00 -1.164448e+01 -1.331885e+01 -8.637028e+00 1.559793e-01 -1.034802e+01 -7.854456e+00 -6.300861e+00 4.630965e+00 -8.271658e+00 -2.736315e+00 -5.911740e+00
<VARIANCE> 20
 1.078356e+01 1.695618e+00 9.706858e+01 2.658862e+01 3.782587e+01 9.786582e+00 1.140540e+02 6.277039e+01 2.858022e+01 1.179650e+01 9.567369e+01 8.277673e+01 2.757694e+01 1.460921e+01 5.831056e+01 6.495941e+01 3.645073e+01 1.757931e+01 5.923018e+01 5.952795e+01
<GCONST> 1.059760e+02
<TRANSP> 5
 0.000000e+00 1.000000e+00 0.000000e+00 0.000000e+00 0.000000e+00
 0.000000e+00 3.333000e-01 3.333000e-01 3.334000e-01 0.000000e+00
 0.000000e+00 0.000000e+00 5.000000e-01 5.000000e-01 0.000000e+00
 0.000000e+00 3.334000e-01 0.000000e+00 3.333000e-01 3.333000e-01
 0.000000e+00 0.000000e+00 0.000000e+00 0.000000e+00 0.000000e+00
<ENDHMM>
