~o
<STREAMINFO> 1 20
<VECSIZE> 20<NULLD><USER><DIAGC>
~h "t"
<BEGINHMM>
<NUMSTATES> 5
<STATE> 2
<NUMMIXES> 4
<MIXTURE> 1 2.500000e-01
<MEAN> 20
 -7.289150e+00 -2.126428e+00 -1.446878e+01 -1.164223e+01 -8.679868e+00 -1.227781e+01 -1.575974e+01 -1.465156e+01 -3.894209e+00 -1.236407e+01 -1.085820e+01 -1.036071e+01 7.689942e-01 -1.152175e+01 -5.953963e+00 -7.360079e+00 5.385675e+00 -9.968211e+00 -1.626532e+00 -8.019457e+00
<VARIANCE> 20
 8.516994e+00 1.430248e+00 7.226170e+01 1.442206e+01 2.507169e+01 6.450827e+00 7.352123e+01 3.176352e+01 1.662649e+01 7.298162e+00 6.407567e+01 4.039154e+01 1.568186e+01 8.256666e+00 3.160593e+01 2.403829e+01 2.425926e+01 9.337770e+00 3.552071e+01 2.943623e+01
<GCONST> 9.557738e+01
<MIXTURE> 2 2.500000e-01
<MEAN> 20
 -7.289150e+00 -2.126428e+00 -1.446878e+01 -1.164223e+01 -8.679868e+00 -1.227781e+01 -1.575974e+01 -1.465156e+01 -3.894209e+00 -1.236407e+01 -1.085820e+01 -1.036071e+01 7.689942e-01 -1.152175e+01 -5.953963e+00 -7.360079e+00 5.385675e+00 -9.968211e+00 -1.626532e+00 -8.019457e+00
<VARIANCE> 20
 8.516994e+00 1.430248e+00 7.226170e+01 1.442206e+01 2.507169e+01 6.450827e+00 7.352123e+01 3.176352e+01 1.662649e+01 7.298162e+00 6.407567e+01 4.039154e+01 1.568186e+01 8.256666e+00 3.160593e+01 2.403829e+01 2.425926e+01 9.337770e+00 3.552071e+01 2.943623e+01
<GCONST> 9.557738e+01
<MIXTURE> 3 2.500000e-01
<MEAN> 20
 -7.289150e+00 -2.126428e+00 -1.446878e+01 -1.164223e+01 -8.679868e+00 -1.227781e+01 -1.575974e+01 -1.465156e+01 -3.894209e+00 -1.236407e+01 -1.085820e+01 -1.036071e+01 7.689942e-01 -1.152175e+01 -5.953963e+00 -7.360079e+00 5.385675e+00 -9.968211e+00 -1.626532e+00 -8.019457e+00
<VARIANCE> 20
 8.516994e+00 1.430248e+00 7.226170e+01 1.442206e+01 2.507169e+01 6.450827e+00 7.352123e+01 3.176352e+01 1.662649e+01 7.298162e+00 6.407567e+01 4.039154e+01 1.568186e+01 8.256666e+00 3.160593e+01 2.403829e+01 2.425926e+01 9.337770e+00 3.552071e+01 2.943623e+01
<GCONST> 9.557738e+01
<MIXTURE> 4 2.500000e-01
<MEAN> 20
 -7.289150e+00 -2.126428e+00 -1.446878e+01 -1.164223e+01 -8.679868e+00 -1.227781e+01 -1.575974e+01 -1.465156e+01 -3.894209e+00 -1.236407e+01 -1.085820e+01 -1.036071e+01 7.689942e-01 -1.152175e+01 -5.953963e+00 -7.360079e+00 5.385675e+00 -9.968211e+00 -1.626532e+00 -8.019457e+00
<VARIANCE> 20
 8.516994e+00 1.430248e+00 7.226170e+01 1.442206e+01 2.507169e+01 6.450827e+00 7.352123e+01 3.176352e+01 1.662649e+01 7.298162e+00 6.407567e+01 4.039154e+01 1.568186e+01 8.256666e+00 3.160593e+01 2.403829e+01 2.425926e+01 9.337770e+00 3.552071e+01 2.943623e+01
<GCONST> 9.557738e+01
<STATE> 3
<NUMMIXES> 4
<MIXTURE> 1 2.500000e-01
<MEAN> 20
 -7.289150e+00 -2.126428e+00 -1.446878e+01 -1.164223e+01 -8.679868e+00 -1.227781e+01 -1.575974e+01 -1.465156e+01 -3.894209e+00 -1.236407e+01 -1.085820e+01 -1.036071e+01 7.689942e-01 -1.152175e+01 -5.953963e+00 -7.360079e+00 5.385675e+00 -9.968211e+00 -1.626532e+00 -8.019457e+00
<VARIANCE> 20
 8.516994e+00 1.430248e+00 7.226170e+01 1.442206e+01 2.507169e+01 6.450827e+00 7.352123e+01 3.176352e+01 1.662649e+01 7.298162e+00 6.407567e+01 4.039154e+01 1.568186e+01 8.256666e+00 3.160593e+01 2.403829e+01 2.425926e+01 9.337770e+00 3.552071e+01 2.943623e+01
<GCONST> 9.557738e+01
<MIXTURE> 2 2.500000e-01
<MEAN> 20
 -7.289150e+00 -2.126428e+00 -1.446878e+01 -1.164223e+01 -8.679868e+00 -1.227781e+01 -1.575974e+01 -1.465156e+01 -3.894209e+00 -1.236407e+01 -1.085820e+01 -1.036071e+01 7.689942e-01 -1.152175e+01 -5.953963e+00 -7.360079e+00 5.385675e+00 -9.968211e+00 -1.626532e+00 -8.019457e+00
<VARIANCE> 20
 8.516994e+00 1.430248e+00 7.226170e+01 1.442206e+01 2.507169e+01 6.450827e+00 7.352123e+01 3.176352e+01 1.662649e+01 7.298162e+00 6.407567e+01 4.039154e+01 1.568186e+01 8.256666e+00 3.160593e+01 2.403829e+01 2.425926e+01 9.337770e+00 3.552071e+01 2.943623e+01
<GCONST> 9.557738e+01
<MIXTURE> 3 2.500000e-01
<MEAN> 20
 -7.289150e+00 -2.126428e+00 -1.446878e+01 -1.164223e+01 -8.679868e+00 -1.227781e+01 -1.575974e+01 -1.465156e+01 -3.894209e+00 -1.236407e+01 -1.085820e+01 -1.036071e+01 7.689942e-01 -1.152175e+01 -5.953963e+00 -7.360079e+00 5.385675e+00 -9.968211e+00 -1.626532e+00 -8.019457e+00
<VARIANCE> 20
 8.516994e+00 1.430248e+00 7.226170e+01 1.442206e+01 2.507169e+01 6.450827e+00 7.352123e+01 3.176352e+01 1.662649e+01 7.298162e+00 6.407567e+01 4.039154e+01 1.568186e+01 8.256666e+00 3.160593e+01 2.403829e+01 2.425926e+01 9.337770e+00 3.552071e+01 2.943623e+01
<GCONST> 9.557738e+01
<MIXTURE> 4 2.500000e-01
<MEAN> 20
 -7.289150e+00 -2.126428e+00 -1.446878e+01 -1.164223e+01 -8.679868e+00 -1.227781e+01 -1.575974e+01 -1.465156e+01 -3.894209e+00 -1.236407e+01 -1.085820e+01 -1.036071e+01 7.689942e-01 -1.152175e+01 -5.953963e+00 -7.360079e+00 5.385675e+00 -9.968211e+00 -1.626532e+00 -8.019457e+00
<VARIANCE> 20
 8.516994e+00 1.430248e+00 7.226170e+01 1.442206e+01 2.507169e+01 6.450827e+00 7.352123e+01 3.176352e+01 1.662649e+01 7.298162e+00 6.407567e+01 4.039154e+01 1.568186e+01 8.256666e+00 3.160593e+01 2.403829e+01 2.425926e+01 9.337770e+00 3.552071e+01 2.943623e+01
<GCONST> 9.557738e+01
<STATE> 4
<NUMMIXES> 4
<MIXTURE> 1 2.500000e-01
<MEAN> 20
 -7.289150e+00 -2.126428e+00 -1.446878e+01 -1.164223e+01 -8.679868e+00 -1.227781e+01 -1.575974e+01 -1.465156e+01 -3.894209e+00 -1.236407e+01 -1.085820e+01 -1.036071e+01 7.689942e-01 -1.152175e+01 -5.953963e+00 -7.360079e+00 5.385675e+00 -9.968211e+00 -1.626532e+00 -8.019457e+00
<VARIANCE> 20
 8.516994e+00 1.430248e+00 7.226170e+01 1.442206e+01 2.507169e+01 6.450827e+00 7.352123e+01 3.176352e+01 1.662649e+01 7.298162e+00 6.407567e+01 4.039154e+01 1.568186e+01 8.256666e+00 3.160593e+01 2.403829e+01 2.425926e+01 9.337770e+00 3.552071e+01 2.943623e+01
<GCONST> 9.557738e+01
<MIXTURE> 2 2.500000e-01
<MEAN> 20
 -7.289150e+00 -2.126428e+00 -1.446878e+01 -1.164223e+01 -8.679868e+00 -1.227781e+01 -1.575974e+01 -1.465156e+01 -3.894209e+00 -1.236407e+01 -1.085820e+01 -1.036071e+01 7.689942e-01 -1.152175e+01 -5.953963e+00 -7.360079e+00 5.385675e+00 -9.968211e+00 -1.626532e+00 -8.019457e+00
<VARIANCE> 20
 8.516994e+00 1.430248e+00 7.226170e+01 1.442206e+01 2.507169e+01 6.450827e+00 7.352123e+01 3.176352e+01 1.662649e+01 7.298162e+00 6.407567e+01 4.039154e+01 1.568186e+01 8.256666e+00 3.160593e+01 2.403829e+01 2.425926e+01 9.337770e+00 3.552071e+01 2.943623e+01
<GCONST> 9.557738e+01
<MIXTURE> 3 2.500000e-01
<MEAN> 20
 -7.289150e+00 -2.126428e+00 -1.446878e+01 -1.164223e+01 -8.679868e+00 -1.227781e+01 -1.575974e+01 -1.465156e+01 -3.894209e+00 -1.236407e+01 -1.085820e+01 -1.036071e+01 7.689942e-01 -1.152175e+01 -5.953963e+00 -7.360079e+00 5.385675e+00 -9.968211e+00 -1.626532e+00 -8.019457e+00
<VARIANCE> 20
 8.516994e+00 1.430248e+00 7.226170e+01 1.442206e+01 2.507169e+01 6.450827e+00 7.352123e+01 3.176352e+01 1.662649e+01 7.298162e+00 6.407567e+01 4.039154e+01 1.568186e+01 8.256666e+00 3.160593e+01 2.403829e+01 2.425926e+01 9.337770e+00 3.552071e+01 2.943623e+01
<GCONST> 9.557738e+01
<MIXTURE> 4 2.500000e-01
<MEAN> 20
 -7.289150e+00 -2.126428e+00 -1.446878e+01 -1.164223e+01 -8.679868e+00 -1.227781e+01 -1.575974e+01 -1.465156e+01 -3.894209e+00 -1.236407e+01 -1.085820e+01 -1.036071e+01 7.689942e-01 -1.152175e+01 -5.953963e+00 -7.360079e+00 5.385675e+00 -9.968211e+00 -1.626532e+00 -8.019457e+00
<VARIANCE> 20
 8.516994e+00 1.430248e+00 7.226170e+01 1.442206e+01 2.507169e+01 6.450827e+00 7.352123e+01 3.176352e+01 1.662649e+01 7.298162e+00 6.407567e+01 4.039154e+01 1.568186e+01 8.256666e+00 3.160593e+01 2.403829e+01 2.425926e+01 9.337770e+00 3.552071e+01 2.943623e+01
<GCONST> 9.557738e+01
<TRANSP> 5
 0.000000e+00 1.000000e+00 0.000000e+00 0.000000e+00 0.000000e+00
 0.000000e+00 5.000000e-01 5.000000e-01 0.000000e+00 0.000000e+00
 0.000000e+00 0.000000e+00 5.000000e-01 5.000000e-01 0.000000e+00
 0.000000e+00 0.000000e+00 0.000000e+00 5.000000e-01 5.000000e-01
 0.000000e+00 0.000000e+00 0.000000e+00 0.000000e+00 0.000000e+00
<ENDHMM>
