\data\
ngram 1=29
ngram 2=414

\1-grams:
-99.999	sil0	-1.1788
-0.8866	_	-1.7082
-1.1829	a	-1.6272
-1.8646	b	-1.1257
-1.5688	c	-1.3198
-1.5445	d	-1.4397
-0.9983	e	+0.8498
-1.8088	f	-1.6298
-1.7053	g	-1.4257
-1.4978	h	-1.4097
-1.1975	i	-1.3132
-2.8750	j	-1.1392
-2.0612	k	-1.4880
-1.4866	l	-1.3367
-1.6172	m	-1.6288
-1.2640	n	-1.3605
-1.1987	o	-0.7160
-1.7443	p	-1.2817
-2.7620	q	-1.9709
-1.2348	r	-0.7327
-1.2507	s	-1.4001
-1.1588	t	-1.3705
-1.5871	u	-1.2587
-1.9004	v	-2.0914
-1.8008	w	-1.3099
-2.5348	x	-1.0856
-1.6593	y	-1.4454
-3.1645	z	-1.2010
-1.4359	sil1

\2-grams:
-1.2402	sil0 a
-1.3216	sil0 b
-1.2955	sil0 c
-1.3688	sil0 d
-1.5230	sil0 e
-1.4695	sil0 f
-1.6008	sil0 g
-1.3688	sil0 h
-1.2872	sil0 i
-2.3541	sil0 j
-1.5680	sil0 l
-1.1716	sil0 m
-1.8770	sil0 n
-1.5680	sil0 o
-1.1978	sil0 p
-2.1323	sil0 q
-1.8770	sil0 r
-1.1470	sil0 s
-0.6988	sil0 t
-2.1323	sil0 u
-1.6182	sil0 v
-1.3216	sil0 w
-1.5090	sil0 y
-2.8312	sil0 z
-0.9298	_ a
-1.3174	_ b
-1.3512	_ c
-1.3379	_ d
-1.4215	_ e
-1.4279	_ f
-1.6247	_ g
-1.5017	_ h
-1.1579	_ i
-2.3392	_ j
-2.3136	_ k
-1.6298	_ l
-1.2677	_ m
-1.4829	_ n
-1.3174	_ o
-1.3938	_ p
-2.2666	_ q
-1.7471	_ r
-1.1087	_ s
-0.9706	_ t
-2.0188	_ u
-1.7608	_ v
-1.1493	_ w
-1.5812	_ y
-1.1096	a _
-1.6863	a b
-1.2713	a c
-1.5836	a d
-2.2826	a f
-1.8371	a g
-3.5613	a h
-1.4858	a i
-2.6071	a j
-1.5746	a k
-1.1065	a l
-1.5485	a m
-0.8330	a n
-1.7620	a p
-0.8529	a r
-1.0886	a s
-0.9072	a t
-1.9279	a u
-1.4508	a v
-1.8538	a w
-2.1634	a x
-1.3439	a y
-2.3852	a z
-2.1807	b _
-0.8266	b a
-1.8383	b d
-0.7065	b e
-1.1088	b i
-1.7036	b j
-0.8041	b l
-1.1088	b o
-0.8668	b r
-1.7657	b s
-1.8383	b t
-1.3115	b u
-1.2669	b y
-1.9254	b sil1
-1.8533	c _
-1.0517	c a
-1.2461	c c
-0.8351	c e
-0.8855	c h
-1.4512	c i
-1.0856	c k
-1.9451	c l
-0.7176	c o
-1.6570	c r
-1.8533	c s
-0.8855	c t
-1.2564	c u
-1.9451	c y
-3.1755	c sil1
-0.5304	d _
-1.2807	d a
-1.9693	d d
-0.8515	d e
-2.1584	d g
-0.9233	d i
-1.8018	d l
-2.3547	d n
-1.1786	d o
-1.0630	d r
-1.4439	d s
-1.7684	d u
-1.7684	d y
-0.9097	d sil1
-0.5582	e _
-1.2762	e a
-2.7046	e b
-1.5446	e c
-1.1697	e d
-1.4695	e e
-2.3146	e f
-2.2275	e g
-3.7460	e h
-3.0470	e i
-3.2689	e j
-2.4238	e k
-1.5181	e l
-1.8709	e m
-1.0938	e n
-2.7918	e o
-1.9901	e p
-2.5156	e q
-0.8370	e r
-1.1115	e s
-1.4056	e t
-2.7046	e u
-1.6354	e v
-2.0739	e w
-1.7504	e x
-2.9009	e y
-1.1982	e sil1
-0.7025	f _
-0.9765	f a
-0.9143	f e
-0.9578	f f
-0.9227	f i
-1.8941	f l
-0.7128	f o
-1.1094	f r
-1.3020	f u
-0.5781	g _
-1.2002	g a
-0.8431	g e
-0.8543	g h
-1.3314	g i
-1.9976	g n
-1.0347	g o
-1.3669	g r
-1.4262	g s
-1.9251	g u
-2.0848	g y
-0.8898	g sil1
-1.0506	h _
-0.8943	h a
-2.0704	h d
-0.3790	h e
-3.2465	h f
-0.8103	h i
-1.9677	h l
-2.2923	h m
-1.1162	h o
-1.5933	h r
-2.2923	h s
-1.5389	h t
-2.1326	h w
-1.9243	h y
-1.6554	h sil1
-2.0027	i _
-1.8936	i a
-2.2246	i b
-1.1369	i c
-1.5094	i d
-1.5015	i e
-1.6383	i f
-1.4499	i g
-2.8478	i k
-1.2479	i l
-1.4430	i m
-0.6553	i n
-0.9728	i o
-2.0283	i p
-2.5054	i q
-1.4640	i r
-0.7978	i s
-1.0270	i t
-2.3163	i u
-1.5340	i v
-2.1154	i x
-2.3163	i z
-2.5925	i sil1
-1.1703	j a
-0.4068	j e
-1.0241	j o
-0.4068	j u
-0.6537	k _
-0.5217	k e
-0.7966	k i
-1.6417	k l
-1.6417	k n
-1.1390	k s
-1.9841	k w
-0.7640	k sil1
-0.8580	l _
-0.9858	l a
-1.3826	l d
-0.7998	l e
-2.5587	l f
-2.5587	l g
-0.8028	l i
-2.1437	l k
-0.8978	l l
-1.1678	l o
-1.8597	l p
-1.6895	l s
-1.4316	l t
-2.1437	l u
-2.2163	l v
-2.4126	l w
-1.2365	l y
-1.4316	l sil1
-1.0818	m _
-0.7673	m a
-1.6086	m b
-0.6021	m e
-1.0897	m i
-1.5360	m m
-1.0372	m o
-1.1315	m p
-1.6357	m s
-1.2186	m u
-1.0664	m y
-1.7654	m sil1
-0.7601	n _
-1.4509	n a
-1.5213	n c
-1.0806	n d
-1.1519	n e
-1.8082	n f
-0.7892	n g
-1.4196	n i
-1.8082	n k
-2.3042	n l
-1.8675	n m
-1.7560	n n
-1.1771	n o
-1.1019	n s
-0.9579	n t
-2.1581	n u
-1.9121	n v
-1.8468	n y
-1.3564	n sil1
-1.1599	o _
-2.5042	o a
-1.8213	o b
-1.9121	o c
-1.6060	o d
-2.3151	o e
-1.2131	o f
-2.1142	o g
-2.0015	o i
-2.0015	o k
-1.5678	o l
-1.1857	o m
-0.7111	o n
-1.3724	o o
-1.6479	o p
-0.8837	o r
-1.7067	o s
-1.2737	o t
-0.7754	o u
-1.6943	o v
-1.6161	o w
-2.7005	o x
-2.8466	o y
-2.3695	o sil1
-1.4318	p _
-0.9393	p a
-0.7932	p e
-1.3098	p h
-1.0915	p i
-0.9318	p l
-1.1024	p o
-1.3872	p p
-0.7423	p r
-1.7696	p s
-1.4318	p t
-1.6021	p u
-1.3279	p sil1
-0.0045	q u
-0.8184	r _
-1.0426	r a
-2.3955	r b
-1.9184	r c
-1.6966	r d
-0.6713	r e
-2.1477	r f
-2.1477	r g
-1.0895	r i
-1.6230	r k
-1.8967	r l
-1.9910	r m
-2.1873	r n
-1.0112	r o
-3.5095	r p
-1.7691	r r
-1.2566	r s
-1.4413	r t
-1.8019	r u
-1.9654	r v
-2.6644	r w
-1.0797	r y
-1.4720	r sil1
-0.4378	s _
-1.5346	s a
-1.7860	s c
-1.0357	s e
-1.4562	s h
-1.1693	s i
-2.2148	s k
-2.6485	s l
-2.2148	s m
-2.3797	s n
-1.4108	s o
-1.5642	s p
-2.5394	s q
-1.7083	s s
-0.8611	s t
-1.5068	s u
-2.2148	s w
-1.8034	s y
-1.0418	s sil1
-0.8153	t _
-1.2530	t a
-2.5441	t b
-2.3550	t c
-0.9410	t e
-0.6203	t h
-0.8720	t i
-2.0941	t l
-2.2237	t m
-3.5855	t n
-1.1216	t o
-1.3090	t r
-1.5480	t s
-1.5987	t t
-1.8296	t u
-2.2632	t w
-1.7104	t y
-1.2333	t sil1
-1.2595	u _
-1.5444	u a
-1.2487	u b
-1.2938	u c
-1.7592	u d
-1.5039	u e
-1.1887	u g
-1.6658	u i
-0.9613	u l
-1.2595	u m
-0.9558	u n
-1.6131	u p
-0.7242	u r
-1.1041	u s
-1.1041	u t
-1.7592	u sil1
-0.9043	v a
-0.2216	v e
-0.8064	v i
-0.9462	v o
-1.4811	w _
-0.6360	w a
-1.6647	w d
-0.6717	w e
-1.9893	w h
-0.6717	w i
-1.7674	w l
-1.6213	w n
-0.8262	w o
-1.4811	w r
-1.8296	w s
-1.5818	w sil1
-0.5374	x _
-0.9791	x a
-0.6910	x c
-1.7324	x e
-1.3644	x i
-0.5760	x p
-1.5105	x t
-0.3298	y _
-2.3860	y b
-1.8545	y c
-2.3860	y d
-1.5167	y e
-2.6078	y i
-2.6078	y l
-1.7232	y m
-0.7213	y o
-2.3860	y p
-1.3446	y s
-2.0435	y t
-2.6078	y w
-0.7139	y sil1
-0.1484	z e
-0.6255	z i

\end\
