~o
<STREAMINFO> 1 8
<VECSIZE> 8<NULLD><USER><DIAGC>
~h "_"
<BEGINHMM>
<NUMSTATES> 6
<STATE> 2
<MEAN> 8
 -7.980895e+00 -1.192816e+01 -7.964089e+00 -1.213121e+01 -7.990134e+00 -1.171939e+01 -8.287055e+00 -1.187195e+01
<VARIANCE> 8
 5.892173e+01 6.332349e+01 6.756359e+01 6.004428e+01 6.304392e+01 5.796045e+01 6.021253e+01 5.125146e+01
<GCONST> 4.747385e+01
<STATE> 3
<MEAN> 8
 -4.681155e+00 -7.818429e+00 -4.716338e+00 -7.777323e+00 -5.028810e+00 -7.725132e+00 -4.797594e+00 -7.748552e+00
<VARIANCE> 8
 3.098510e+01 1.981888e+01 2.959702e+01 2.136039e+01 3.241209e+01 1.869475e+01 3.156853e+01 1.872301e+01
<GCONST> 4.036106e+01
<STATE> 4
<MEAN> 8
 -3.313225e+00 -1.076443e+01 -1.445910e+01 -8.537582e+00 -3.909660e+00 -1.034312e+01 -3.734263e+00 -1.178374e+01
<VARIANCE> 8
 4.081526e+00 1.275395e+02 4.112368e+01 1.030710e+01 5.814932e+01 1.953620e+01 7.120543e+00 1.451901e+02
<GCONST> 4.098364e+01
<STATE> 5
<MEAN> 8
 -7.609385e+00 -1.011059e+01 -6.354621e+00 -1.036150e+01 -6.591493e+00 -1.051098e+01 -7.291274e+00 -1.026541e+01
<VARIANCE> 8
 5.642131e+01 2.457160e+01 4.531366e+01 3.072492e+01 4.262318e+01 4.071381e+01 5.394010e+01 3.025130e+01
<GCONST> 4.403251e+01
<TRANSP> 6
 0.000000e+00 1.000000e+00 0.000000e+00 0.000000e+00 0.000000e+00 0.000000e+00
 0.000000e+00 8.089910e-01 1.910090e-01 0.000000e+00 0.000000e+00 0.000000e+00
 0.000000e+00 0.000000e+00 9.640985e-01 3.590152e-02 0.000000e+00 0.000000e+00
 0.000000e+00 0.000000e+00 0.000000e+00 0.000000e+00 1.000000e+00 0.000000e+00
 0.000000e+00 0.000000e+00 0.000000e+00 0.000000e+00 8.805985e-01 1.194016e-01
 0.000000e+00 0.000000e+00 0.000000e+00 0.000000e+00 0.000000e+00 0.000000e+00
<ENDHMM>
~h "a"
<BEGINHMM>
<NUMSTATES> 6
<STATE> 2
<MEAN> 8
 -7.312420e+00 -1.018310e+01 -7.529301e+00 -1.030808e+01 -7.694011e+00 -9.964999e+00 -7.734049e+00 -1.007830e+01
<VARIANCE> 8
 5.945962e+01 4.679086e+01 6.374239e+01 4.635585e+01 5.506448e+01 4.151963e+01 5.362231e+01 4.011909e+01
<GCONST> 4.603369e+01
<STATE> 3
<MEAN> 8
 -4.262911e+00 -5.953813e+00 -4.880120e+00 -5.939692e+00 -4.930828e+00 -5.917722e+00 -4.917520e+00 -5.881939e+00
<VARIANCE> 8
 2.383558e+01 1.980183e+01 2.200082e+01 2.078830e+01 2.146128e+01 2.022021e+01 2.156849e+01 1.954310e+01
<GCONST> 3.910223e+01
<STATE> 4
<MEAN> 8
 -8.592107e+00 -1.430807e+01 -8.820649e+00 -1.396048e+01 -8.833942e+00 -1.410619e+01 -8.865797e+00 -1.454584e+01
<VARIANCE> 8
 7.264212e+01 1.181396e+02 6.878518e+01 1.130891e+02 7.137537e+01 1.112891e+02 8.019923e+01 1.122562e+02
<GCONST> 5.080497e+01
<STATE> 5
<MEAN> 8
 -5.869505e+00 -1.006231e+01 -5.977933e+00 -1.020105e+01 -5.897579e+00 -1.021341e+01 -5.706489e+00 -1.009264e+01
<VARIANCE> 8
 3.682926e+01 2.667965e+01 4.247315e+01 2.759851e+01 4.648074e+01 2.923993e+01 4.115828e+01 2.847539e+01
<GCONST> 4.294088e+01
<TRANSP> 6
 0.000000e+00 1.000000e+00 0.000000e+00 0.000000e+00 0.000000e+00 0.000000e+00
 0.000000e+00 7.251275e-01 2.748725e-01 0.000000e+00 0.000000e+00 0.000000e+00
 0.000000e+00 0.000000e+00 9.746857e-01 2.531425e-02 0.000000e+00 0.000000e+00
 0.000000e+00 0.000000e+00 0.000000e+00 8.505684e-01 1.494316e-01 0.000000e+00
 0.000000e+00 0.000000e+00 0.000000e+00 0.000000e+00 8.932336e-01 1.067664e-01
 0.000000e+00 0.000000e+00 0.000000e+00 0.000000e+00 0.000000e+00 0.000000e+00
<ENDHMM>
~h "b"
<BEGINHMM>
<NUMSTATES> 6
<STATE> 2
<MEAN> 8
 -9.783174e+00 -1.102200e+01 -1.005807e+01 -1.111181e+01 -9.949641e+00 -1.103231e+01 -1.013599e+01 -1.105145e+01
<VARIANCE> 8
 9.533119e+01 6.500790e+01 9.471354e+01 6.519447e+01 9.529230e+01 6.685091e+01 9.466650e+01 6.487829e+01
<GCONST> 4.964540e+01
<STATE> 3
<MEAN> 8
 -5.587997e+00 -8.427218e+00 -5.461316e+00 -8.219984e+00 -8.286054e+00 -8.212148e+00 -5.878193e+00 -8.681655e+00
<VARIANCE> 8
 3.742639e+01 2.845407e+01 2.773351e+01 4.145481e+01 6.176736e+01 2.451101e+01 4.583088e+01 2.258067e+01
<GCONST> 4.298548e+01
<STATE> 4
<MEAN> 8
 -3.891602e+00 -8.386777e+00 -1.818711e+01 -9.475403e+00 -1.020018e+00 -1.126137e+01 -4.688705e+00 -6.119250e+00
<VARIANCE> 8
 5.590965e+00 9.894218e+01 4.933208e+01 1.531197e+01 4.655366e+01 1.219916e+01 6.925874e+00 1.004767e+02
<GCONST> 4.053307e+01
<STATE> 5
<MEAN> 8
 -8.723467e+00 -8.822764e+00 -6.852485e+00 -8.659844e+00 -7.692716e+00 -8.379978e+00 -8.755705e+00 -8.861132e+00
<VARIANCE> 8
 8.330779e+01 3.166523e+01 5.520380e+01 3.703288e+01 3.847504e+01 4.646397e+01 5.539497e+01 3.637679e+01
<GCONST> 4.530072e+01
<TRANSP> 6
 0.000000e+00 1.000000e+00 0.000000e+00 0.000000e+00 0.000000e+00 0.000000e+00
 0.000000e+00 9.270559e-01 7.294413e-02 0.000000e+00 0.000000e+00 0.000000e+00
 0.000000e+00 0.000000e+00 7.596194e-01 2.403806e-01 0.000000e+00 0.000000e+00
 0.000000e+00 0.000000e+00 0.000000e+00 0.000000e+00 1.000000e+00 0.000000e+00
 0.000000e+00 0.000000e+00 0.000000e+00 0.000000e+00 8.577340e-01 1.422659e-01
 0.000000e+00 0.000000e+00 0.000000e+00 0.000000e+00 0.000000e+00 0.000000e+00
<ENDHMM>
~h "c"
<BEGINHMM>
<NUMSTATES> 6
<STATE> 2
<MEAN> 8
 -7.393478e+00 -9.514471e+00 -9.369101e+00 -9.472168e+00 -9.296063e+00 -9.621135e+00 -9.064781e+00 -9.623281e+00
<VARIANCE> 8
 6.865810e+01 7.772281e+01 8.576856e+01 7.325148e+01 9.510526e+01 7.923981e+01 9.188635e+01 8.328130e+01
<GCONST> 4.990110e+01
<STATE> 3
<MEAN> 8
 -6.104136e+00 -6.148020e+00 -6.596307e+00 -6.241141e+00 -6.146617e+00 -6.403515e+00 -7.662902e+00 -5.782587e+00
<VARIANCE> 8
 3.838216e+01 2.511702e+01 2.785601e+01 3.094159e+01 2.198178e+01 4.604058e+01 2.563327e+01 2.612947e+01
<GCONST> 4.176000e+01
<STATE> 4
<MEAN> 8
 -5.730268e+00 -1.004061e+01 -3.528996e+00 -1.127133e+01 -1.430013e+01 -8.493879e+00 -4.623988e+00 -1.157539e+01
<VARIANCE> 8
 5.067267e+01 2.342013e+01 6.706271e+00 1.524793e+02 4.291102e+01 1.357170e+01 6.606902e+01 1.722630e+01
<GCONST> 4.211632e+01
<STATE> 5
<MEAN> 8
 -6.649405e+00 -8.492806e+00 -9.776268e+00 -8.398474e+00 -8.910567e+00 -8.359435e+00 -9.108660e+00 -8.354272e+00
<VARIANCE> 8
 4.600105e+01 5.035722e+01 5.651614e+01 3.672972e+01 4.937986e+01 3.690077e+01 4.503831e+01 4.344413e+01
<GCONST> 4.517570e+01
<TRANSP> 6
 0.000000e+00 1.000000e+00 0.000000e+00 0.000000e+00 0.000000e+00 0.000000e+00
 0.000000e+00 8.362758e-01 1.637242e-01 0.000000e+00 0.000000e+00 0.000000e+00
 0.000000e+00 0.000000e+00 8.369332e-01 1.630668e-01 0.000000e+00 0.000000e+00
 0.000000e+00 0.000000e+00 0.000000e+00 0.000000e+00 1.000000e+00 0.000000e+00
 0.000000e+00 0.000000e+00 0.000000e+00 0.000000e+00 8.790749e-01 1.209251e-01
 0.000000e+00 0.000000e+00 0.000000e+00 0.000000e+00 0.000000e+00 0.000000e+00
<ENDHMM>
~h "d"
<BEGINHMM>
<NUMSTATES> 6
<STATE> 2
<MEAN> 8
 -6.964380e+00 -1.118880e+01 -7.202181e+00 -1.134963e+01 -7.012624e+00 -1.126414e+01 -7.326466e+00 -1.129569e+01
<VARIANCE> 8
 4.986534e+01 7.098925e+01 5.683542e+01 6.635052e+01 5.928016e+01 6.352908e+01 5.709528e+01 5.895932e+01
<GCONST> 4.746532e+01
<STATE> 3
<MEAN> 8
 -5.176001e+00 -8.602822e+00 -5.133731e+00 -8.611394e+00 -5.367330e+00 -8.558475e+00 -5.194425e+00 -8.602497e+00
<VARIANCE> 8
 3.074260e+01 1.893246e+01 3.017671e+01 1.995852e+01 3.302666e+01 1.833084e+01 3.204456e+01 1.815413e+01
<GCONST> 4.024220e+01
<STATE> 4
<MEAN> 8
 -3.381628e+00 -9.902175e+00 -1.556667e+01 -9.216890e+00 -1.419883e+00 -1.079277e+01 -4.184823e+00 -8.821519e+00
<VARIANCE> 8
 4.317105e+00 1.011714e+02 4.680548e+01 1.102566e+01 5.348253e+01 1.394293e+01 5.948459e+00 1.311912e+02
<GCONST> 4.030276e+01
<STATE> 5
<MEAN> 8
 -7.224279e+00 -1.005668e+01 -5.776944e+00 -1.013962e+01 -6.302461e+00 -1.023901e+01 -6.970226e+00 -1.012476e+01
<VARIANCE> 8
 5.457649e+01 2.356450e+01 4.064244e+01 2.926062e+01 3.019428e+01 3.972697e+01 4.442598e+01 2.829380e+01
<GCONST> 4.316957e+01
<TRANSP> 6
 0.000000e+00 1.000000e+00 0.000000e+00 0.000000e+00 0.000000e+00 0.000000e+00
 0.000000e+00 7.206337e-01 2.793663e-01 0.000000e+00 0.000000e+00 0.000000e+00
 0.000000e+00 0.000000e+00 9.769855e-01 2.301452e-02 0.000000e+00 0.000000e+00
 0.000000e+00 0.000000e+00 0.000000e+00 0.000000e+00 1.000000e+00 0.000000e+00
 0.000000e+00 0.000000e+00 0.000000e+00 0.000000e+00 8.651008e-01 1.348992e-01
 0.000000e+00 0.000000e+00 0.000000e+00 0.000000e+00 0.000000e+00 0.000000e+00
<ENDHMM>
~h "e"
<BEGINHMM>
<NUMSTATES> 6
<STATE> 2
<MEAN> 8
 -5.577077e+00 -6.747513e+00 -7.722949e+00 -6.493164e+00 -7.881574e+00 -6.576851e+00 -7.654140e+00 -6.863201e+00
<VARIANCE> 8
 4.701000e+01 4.310892e+01 2.604235e+01 4.313982e+01 2.623629e+01 3.879194e+01 3.997104e+01 4.052578e+01
<GCONST> 4.365673e+01
<STATE> 3
<MEAN> 8
 -8.277923e+00 -1.227605e+01 -9.078356e+00 -1.197340e+01 -9.561294e+00 -1.252150e+01 -8.624423e+00 -1.261487e+01
<VARIANCE> 8
 7.341183e+01 1.141587e+02 8.186637e+01 1.020841e+02 1.034429e+02 1.015090e+02 9.798447e+01 1.157138e+02
<GCONST> 5.136267e+01
<STATE> 4
<MEAN> 8
 -5.877307e+00 -7.979863e+00 -5.915872e+00 -9.204656e+00 -4.591609e+00 -8.572811e+00 -5.823808e+00 -7.655314e+00
<VARIANCE> 8
 1.414927e+01 1.828549e+01 6.532828e+01 1.931036e+01 4.591283e+01 3.707854e+01 1.739625e+01 2.383977e+01
<GCONST> 4.086625e+01
<STATE> 5
<MEAN> 8
 -6.931712e+00 -1.108748e+01 -6.795158e+00 -1.040143e+01 -7.552995e+00 -1.050648e+01 -7.610112e+00 -1.081677e+01
<VARIANCE> 8
 7.493272e+01 3.697448e+01 4.593794e+01 5.613781e+01 3.482801e+01 4.343710e+01 5.106020e+01 3.860849e+01
<GCONST> 4.539315e+01
<TRANSP> 6
 0.000000e+00 1.000000e+00 0.000000e+00 0.000000e+00 0.000000e+00 0.000000e+00
 0.000000e+00 8.729222e-01 1.270778e-01 0.000000e+00 0.000000e+00 0.000000e+00
 0.000000e+00 0.000000e+00 7.771432e-01 2.228568e-01 0.000000e+00 0.000000e+00
 0.000000e+00 0.000000e+00 0.000000e+00 7.656040e-01 2.343960e-01 0.000000e+00
 0.000000e+00 0.000000e+00 0.000000e+00 0.000000e+00 7.869663e-01 2.130337e-01
 0.000000e+00 0.000000e+00 0.000000e+00 0.000000e+00 0.000000e+00 0.000000e+00
<ENDHMM>
~h "f"
<BEGINHMM>
<NUMSTATES> 6
<STATE> 2
<MEAN> 8
 -6.250298e+00 -9.829741e+00 -8.358912e+00 -9.754732e+00 -6.020206e+00 -1.085039e+01 -5.481913e+00 -9.238259e+00
<VARIANCE> 8
 3.266213e+01 3.590946e+01 6.206354e+01 2.743321e+01 6.428199e+01 2.714441e+01 2.866109e+01 5.161356e+01
<GCONST> 4.397392e+01
<STATE> 3
<MEAN> 8
 -1.664549e+01 -8.229780e+00 2.050000e+00 -1.051727e+01 -4.587202e+00 -1.542000e+00 -1.520773e+01 -8.167814e+00
<VARIANCE> 8
 6.227266e+01 8.651649e+00 4.599587e+01 1.522901e+01 4.342717e+00 1.561456e+02 3.303526e+01 8.947592e+00
<GCONST> 3.975229e+01
<STATE> 4
<MEAN> 8
 -5.968735e+00 -1.005291e+01 -6.306148e+00 -1.035651e+01 -9.080530e+00 -9.530998e+00 -7.999714e+00 -1.071192e+01
<VARIANCE> 8
 7.572865e+01 4.540823e+01 3.482519e+01 7.577923e+01 4.272474e+01 2.699097e+01 8.169299e+01 2.810319e+01
<GCONST> 4.551316e+01
<STATE> 5
<MEAN> 8
 -4.691092e+00 -7.955570e+00 -5.420591e+00 -7.610920e+00 -5.291000e+00 -7.907357e+00 -5.038829e+00 -7.732118e+00
<VARIANCE> 8
 3.763132e+01 3.198519e+01 3.690968e+01 2.987778e+01 4.312848e+01 2.669230e+01 3.975004e+01 2.875098e+01
<GCONST> 4.289156e+01
<TRANSP> 6
 0.000000e+00 1.000000e+00 0.000000e+00 0.000000e+00 0.000000e+00 0.000000e+00
 0.000000e+00 8.396639e-01 1.603361e-01 0.000000e+00 0.000000e+00 0.000000e+00
 0.000000e+00 0.000000e+00 0.000000e+00 1.000000e+00 0.000000e+00 0.000000e+00
 0.000000e+00 0.000000e+00 0.000000e+00 7.095053e-01 2.904947e-01 0.000000e+00
 0.000000e+00 0.000000e+00 0.000000e+00 0.000000e+00 8.805889e-01 1.194111e-01
 0.000000e+00 0.000000e+00 0.000000e+00 0.000000e+00 0.000000e+00 0.000000e+00
<ENDHMM>
~h "g"
<BEGINHMM>
<NUMSTATES> 6
<STATE> 2
<MEAN> 8
 -7.743289e+00 -1.285532e+01 -8.068498e+00 -1.271348e+01 -7.918400e+00 -1.280044e+01 -7.792145e+00 -1.293223e+01
<VARIANCE> 8
 5.142624e+01 5.833380e+01 5.023191e+01 5.573705e+01 5.013665e+01 5.692778e+01 5.138535e+01 6.030392e+01
<GCONST> 4.664193e+01
<STATE> 3
<MEAN> 8
 -1.043238e+01 -8.337413e+00 -5.170519e+00 -1.063664e+01 -3.058921e+00 -1.320763e+01 -1.429926e+01 -8.634775e+00
<VARIANCE> 8
 4.143611e+01 1.170067e+01 4.064648e+01 2.960928e+01 6.840030e+00 1.226479e+02 4.066564e+01 1.242122e+01
<GCONST> 4.093671e+01
<STATE> 4
<MEAN> 8
 -4.142168e+00 -1.218599e+01 -3.830435e+00 -1.282102e+01 -1.304898e+01 -9.390947e+00 -2.054959e+00 -1.215644e+01
<VARIANCE> 8
 3.629825e+01 2.246785e+01 8.063412e+00 1.088762e+02 4.626303e+01 1.570943e+01 4.877407e+01 1.873451e+01
<GCONST> 4.159059e+01
<STATE> 5
<MEAN> 8
 -5.262875e+00 -9.301979e+00 -5.413106e+00 -9.345096e+00 -5.198053e+00 -9.346637e+00 -5.371413e+00 -9.249689e+00
<VARIANCE> 8
 3.365324e+01 2.802457e+01 3.815937e+01 2.736451e+01 3.702675e+01 2.787622e+01 3.301972e+01 2.740974e+01
<GCONST> 4.225064e+01
<TRANSP> 6
 0.000000e+00 1.000000e+00 0.000000e+00 0.000000e+00 0.000000e+00 0.000000e+00
 0.000000e+00 9.553552e-01 4.464480e-02 0.000000e+00 0.000000e+00 0.000000e+00
 0.000000e+00 0.000000e+00 0.000000e+00 1.000000e+00 0.000000e+00 0.000000e+00
 0.000000e+00 0.000000e+00 0.000000e+00 2.618133e-02 9.738187e-01 0.000000e+00
 0.000000e+00 0.000000e+00 0.000000e+00 0.000000e+00 9.549337e-01 4.506623e-02
 0.000000e+00 0.000000e+00 0.000000e+00 0.000000e+00 0.000000e+00 0.000000e+00
<ENDHMM>
~h "h"
<BEGINHMM>
<NUMSTATES> 6
<STATE> 2
<MEAN> 8
 -5.486311e+00 -8.758996e+00 -5.817718e+00 -8.764975e+00 -5.668834e+00 -8.923122e+00 -6.084451e+00 -8.818136e+00
<VARIANCE> 8
 3.798306e+01 3.049990e+01 3.399347e+01 3.211125e+01 3.226738e+01 3.460979e+01 3.795599e+01 3.026200e+01
<GCONST> 4.281777e+01
<STATE> 3
<MEAN> 8
 -3.882720e+00 -1.182997e+01 -3.659272e+00 -1.127635e+01 -1.357349e+01 -8.694358e+00 -1.990920e+00 -1.129789e+01
<VARIANCE> 8
 3.240269e+01 1.758691e+01 7.639851e+00 1.128458e+02 3.653421e+01 1.465872e+01 4.717584e+01 1.394113e+01
<GCONST> 4.057982e+01
<STATE> 4
<MEAN> 8
 -4.438282e+00 -9.599919e+00 -1.179326e+01 -8.911645e+00 -1.161644e+00 -9.769793e+00 -5.409278e+00 -8.329480e+00
<VARIANCE> 8
 7.882475e+00 1.369409e+02 3.518997e+01 1.456425e+01 5.417500e+01 1.726650e+01 8.897756e+00 1.004913e+02
<GCONST> 4.156339e+01
<STATE> 5
<MEAN> 8
 -7.701417e+00 -1.255033e+01 -7.534649e+00 -1.265291e+01 -7.700548e+00 -1.261323e+01 -7.821456e+00 -1.261587e+01
<VARIANCE> 8
 4.794233e+01 5.139778e+01 5.094005e+01 5.235402e+01 4.675467e+01 5.464550e+01 4.735521e+01 5.223179e+01
<GCONST> 4.606044e+01
<TRANSP> 6
 0.000000e+00 1.000000e+00 0.000000e+00 0.000000e+00 0.000000e+00 0.000000e+00
 0.000000e+00 9.307253e-01 6.927467e-02 0.000000e+00 0.000000e+00 0.000000e+00
 0.000000e+00 0.000000e+00 0.000000e+00 1.000000e+00 0.000000e+00 0.000000e+00
 0.000000e+00 0.000000e+00 0.000000e+00 0.000000e+00 1.000000e+00 0.000000e+00
 0.000000e+00 0.000000e+00 0.000000e+00 0.000000e+00 9.494975e-01 5.050252e-02
 0.000000e+00 0.000000e+00 0.000000e+00 0.000000e+00 0.000000e+00 0.000000e+00
<ENDHMM>
~h "i"
<BEGINHMM>
<NUMSTATES> 6
<STATE> 2
<MEAN> 8
 -8.572835e+00 -1.388144e+01 -8.938454e+00 -1.369206e+01 -9.047762e+00 -1.373685e+01 -8.803250e+00 -1.387407e+01
<VARIANCE> 8
 6.511667e+01 8.236908e+01 6.486989e+01 8.135353e+01 6.714633e+01 8.052583e+01 6.724850e+01 8.177155e+01
<GCONST> 4.906937e+01
<STATE> 3
<MEAN> 8
 -5.612818e+00 -6.325695e+00 -6.247322e+00 -6.575325e+00 -5.905389e+00 -6.540619e+00 -6.924901e+00 -6.025108e+00
<VARIANCE> 8
 4.044900e+01 2.545282e+01 2.888388e+01 3.054470e+01 2.551649e+01 3.562622e+01 2.850227e+01 2.523637e+01
<GCONST> 4.181303e+01
<STATE> 4
<MEAN> 8
 -3.903230e+00 -1.197989e+01 -4.059910e+00 -9.518910e+00 -1.333275e+01 -7.962710e+00 -2.979786e+00 -1.278023e+01
<VARIANCE> 8
 3.650600e+01 2.909918e+01 1.079700e+01 1.087997e+02 4.234505e+01 1.273575e+01 6.018419e+01 3.210796e+01
<GCONST> 4.259676e+01
<STATE> 5
<MEAN> 8
 -6.777695e+00 -9.479539e+00 -8.079745e+00 -9.747767e+00 -6.605989e+00 -1.005668e+01 -7.132952e+00 -9.759994e+00
<VARIANCE> 8
 4.184862e+01 4.858333e+01 5.750740e+01 3.306883e+01 4.698630e+01 4.240596e+01 3.798837e+01 4.632377e+01
<GCONST> 4.494094e+01
<TRANSP> 6
 0.000000e+00 1.000000e+00 0.000000e+00 0.000000e+00 0.000000e+00 0.000000e+00
 0.000000e+00 9.225173e-01 7.748269e-02 0.000000e+00 0.000000e+00 0.000000e+00
 0.000000e+00 0.000000e+00 8.799692e-01 1.200308e-01 0.000000e+00 0.000000e+00
 0.000000e+00 0.000000e+00 0.000000e+00 9.780879e-03 9.902191e-01 0.000000e+00
 0.000000e+00 0.000000e+00 0.000000e+00 0.000000e+00 8.187637e-01 1.812363e-01
 0.000000e+00 0.000000e+00 0.000000e+00 0.000000e+00 0.000000e+00 0.000000e+00
<ENDHMM>
~h "j"
<BEGINHMM>
<NUMSTATES> 6
<STATE> 2
<MEAN> 8
 -7.037494e+00 -1.163064e+01 -7.371328e+00 -1.164562e+01 -7.250987e+00 -1.153240e+01 -7.115974e+00 -1.168523e+01
<VARIANCE> 8
 3.949536e+01 3.533712e+01 4.388852e+01 3.405717e+01 4.427778e+01 3.373756e+01 4.129965e+01 3.544109e+01
<GCONST> 4.385165e+01
<STATE> 3
<MEAN> 8
 -1.100580e+01 -7.980259e+00 -9.060515e+00 -3.016827e+00 -3.040967e+00 -1.861059e+01 -9.268125e+00 -6.048621e+00
<VARIANCE> 8
 1.303192e+02 2.034554e+01 5.099350e+00 1.853169e+01 7.577569e+00 4.186957e+01 1.852163e+01 2.271290e+01
<GCONST> 3.893608e+01
<STATE> 4
<MEAN> 8
 -8.031612e+00 -1.085110e+01 -4.084384e+00 -1.429566e+01 -7.024295e+00 -9.700881e+00 -9.072268e+00 -1.148109e+01
<VARIANCE> 8
 2.860400e+01 3.521842e+01 3.343266e+01 3.144423e+01 2.348700e+01 3.113947e+01 4.449750e+01 1.955547e+01
<GCONST> 4.193949e+01
<STATE> 5
<MEAN> 8
 -5.006214e+00 -1.069445e+01 -6.187791e+00 -9.500242e+00 -6.775873e+00 -1.002256e+01 -5.352547e+00 -1.008570e+01
<VARIANCE> 8
 2.750470e+01 2.707210e+01 1.914710e+01 2.311349e+01 2.815722e+01 2.058252e+01 2.865789e+01 2.634389e+01
<GCONST> 4.039736e+01
<TRANSP> 6
 0.000000e+00 1.000000e+00 0.000000e+00 0.000000e+00 0.000000e+00 0.000000e+00
 0.000000e+00 9.749369e-01 2.506312e-02 0.000000e+00 0.000000e+00 0.000000e+00
 0.000000e+00 0.000000e+00 8.470806e-03 9.915292e-01 0.000000e+00 0.000000e+00
 0.000000e+00 0.000000e+00 0.000000e+00 7.608696e-01 2.391304e-01 0.000000e+00
 0.000000e+00 0.000000e+00 0.000000e+00 0.000000e+00 8.938552e-01 1.061448e-01
 0.000000e+00 0.000000e+00 0.000000e+00 0.000000e+00 0.000000e+00 0.000000e+00
<ENDHMM>
~h "k"
<BEGINHMM>
<NUMSTATES> 6
<STATE> 2
<MEAN> 8
 -7.286663e+00 -1.154168e+01 -7.540466e+00 -1.136819e+01 -7.750969e+00 -1.143984e+01 -7.304069e+00 -1.177831e+01
<VARIANCE> 8
 5.893533e+01 3.764085e+01 5.395835e+01 3.713829e+01 5.793800e+01 3.930946e+01 6.222096e+01 3.904333e+01
<GCONST> 4.553661e+01
<STATE> 3
<MEAN> 8
 -4.952540e+00 -7.970098e+00 -4.927290e+00 -7.979288e+00 -4.856338e+00 -8.036275e+00 -4.992667e+00 -7.940159e+00
<VARIANCE> 8
 3.022161e+01 1.870256e+01 3.042402e+01 1.946336e+01 2.958071e+01 2.048831e+01 2.983378e+01 1.901294e+01
<GCONST> 4.017174e+01
<STATE> 4
<MEAN> 8
 -6.641137e+00 -1.020495e+01 -3.132395e+00 -1.296427e+01 -1.298904e+01 -8.829475e+00 -4.875337e+00 -1.168113e+01
<VARIANCE> 8
 6.617077e+01 2.193534e+01 4.574248e+00 1.129778e+02 5.068307e+01 1.058061e+01 8.283275e+01 1.223360e+01
<GCONST> 4.143661e+01
<STATE> 5
<MEAN> 8
 -5.653673e+00 -1.028503e+01 -8.204712e+00 -9.966178e+00 -6.537439e+00 -9.792229e+00 -6.800845e+00 -1.012850e+01
<VARIANCE> 8
 3.166439e+01 6.976937e+01 5.470116e+01 3.371883e+01 4.407282e+01 3.774858e+01 3.619717e+01 5.463618e+01
<GCONST> 4.492982e+01
<TRANSP> 6
 0.000000e+00 1.000000e+00 0.000000e+00 0.000000e+00 0.000000e+00 0.000000e+00
 0.000000e+00 8.797448e-01 1.202552e-01 0.000000e+00 0.000000e+00 0.000000e+00
 0.000000e+00 0.000000e+00 9.859266e-01 1.407336e-02 0.000000e+00 0.000000e+00
 0.000000e+00 0.000000e+00 0.000000e+00 1.024504e-01 8.975496e-01 0.000000e+00
 0.000000e+00 0.000000e+00 0.000000e+00 0.000000e+00 7.598678e-01 2.401322e-01
 0.000000e+00 0.000000e+00 0.000000e+00 0.000000e+00 0.000000e+00 0.000000e+00
<ENDHMM>
~h "l"
<BEGINHMM>
<NUMSTATES> 6
<STATE> 2
<MEAN> 8
 -7.235579e+00 -1.076933e+01 -8.190850e+00 -1.050924e+01 -7.934780e+00 -1.073177e+01 -7.701045e+00 -1.085571e+01
<VARIANCE> 8
 6.584541e+01 5.506942e+01 6.259650e+01 5.107308e+01 6.303186e+01 5.247992e+01 6.473642e+01 5.814270e+01
<GCONST> 4.730618e+01
<STATE> 3
<MEAN> 8
 -1.124611e+01 -8.064054e+00 -4.536929e+00 -1.103225e+01 -3.568551e+00 -1.021023e+01 -1.486957e+01 -8.510172e+00
<VARIANCE> 8
 5.801307e+01 1.246045e+01 4.969690e+01 2.722846e+01 6.772748e+00 1.190526e+02 4.985021e+01 1.205824e+01
<GCONST> 4.158769e+01
<STATE> 4
<MEAN> 8
 -3.358541e+00 -1.122843e+01 -3.898552e+00 -9.844452e+00 -1.355800e+01 -8.880033e+00 -1.125482e+00 -1.156664e+01
<VARIANCE> 8
 3.543177e+01 2.352916e+01 7.074013e+00 1.205169e+02 4.923851e+01 1.322697e+01 5.542455e+01 1.569682e+01
<GCONST> 4.142450e+01
<STATE> 5
<MEAN> 8
 -5.377923e+00 -8.610618e+00 -5.881633e+00 -8.832162e+00 -5.354463e+00 -8.825716e+00 -5.731548e+00 -8.527097e+00
<VARIANCE> 8
 3.580832e+01 3.590164e+01 4.493747e+01 3.293995e+01 4.299022e+01 3.415128e+01 3.473247e+01 3.527084e+01
<GCONST> 4.356444e+01
<TRANSP> 6
 0.000000e+00 1.000000e+00 0.000000e+00 0.000000e+00 0.000000e+00 0.000000e+00
 0.000000e+00 9.218354e-01 7.816466e-02 0.000000e+00 0.000000e+00 0.000000e+00
 0.000000e+00 0.000000e+00 0.000000e+00 1.000000e+00 0.000000e+00 0.000000e+00
 0.000000e+00 0.000000e+00 0.000000e+00 5.050581e-03 9.949495e-01 0.000000e+00
 0.000000e+00 0.000000e+00 0.000000e+00 0.000000e+00 9.201478e-01 7.985216e-02
 0.000000e+00 0.000000e+00 0.000000e+00 0.000000e+00 0.000000e+00 0.000000e+00
<ENDHMM>
~h "m"
<BEGINHMM>
<NUMSTATES> 6
<STATE> 2
<MEAN> 8
 -6.628862e+00 -8.142525e+00 -7.271961e+00 -8.681860e+00 -6.394680e+00 -8.950665e+00 -8.539989e+00 -8.667600e+00
<VARIANCE> 8
 5.695388e+01 3.484278e+01 3.504580e+01 3.876320e+01 3.376366e+01 5.919877e+01 6.175001e+01 4.293240e+01
<GCONST> 4.499324e+01
<STATE> 3
<MEAN> 8
 -3.999004e+00 -1.251278e+01 -3.408145e+00 -8.688457e+00 -1.556844e+01 -9.102212e+00 1.147361e-01 -1.179707e+01
<VARIANCE> 8
 2.734772e+01 1.072341e+01 7.824062e+00 8.998280e+01 4.271389e+01 1.334750e+01 2.695991e+01 8.443361e+00
<GCONST> 3.871449e+01
<STATE> 4
<MEAN> 8
 -5.531800e+00 -6.383561e+00 -7.106909e+00 -7.516886e+00 -4.166632e+00 -7.471734e+00 -6.193660e+00 -6.099550e+00
<VARIANCE> 8
 1.857427e+01 3.412913e+01 5.131873e+01 2.311340e+01 4.579831e+01 2.736992e+01 1.628126e+01 3.235498e+01
<GCONST> 4.163389e+01
<STATE> 5
<MEAN> 8
 -7.478670e+00 -1.175558e+01 -7.286674e+00 -1.158483e+01 -7.834912e+00 -1.123058e+01 -7.889631e+00 -1.165046e+01
<VARIANCE> 8
 5.995799e+01 5.084348e+01 6.212057e+01 5.675325e+01 4.991578e+01 5.221638e+01 5.142541e+01 4.687511e+01
<GCONST> 4.654656e+01
<TRANSP> 6
 0.000000e+00 1.000000e+00 0.000000e+00 0.000000e+00 0.000000e+00 0.000000e+00
 0.000000e+00 7.804803e-01 2.195197e-01 0.000000e+00 0.000000e+00 0.000000e+00
 0.000000e+00 0.000000e+00 0.000000e+00 1.000000e+00 0.000000e+00 0.000000e+00
 0.000000e+00 0.000000e+00 0.000000e+00 7.411492e-01 2.588508e-01 0.000000e+00
 0.000000e+00 0.000000e+00 0.000000e+00 0.000000e+00 8.331007e-01 1.668992e-01
 0.000000e+00 0.000000e+00 0.000000e+00 0.000000e+00 0.000000e+00 0.000000e+00
<ENDHMM>
~h "n"
<BEGINHMM>
<NUMSTATES> 6
<STATE> 2
<MEAN> 8
 -6.798038e+00 -1.131890e+01 -8.104239e+00 -1.089629e+01 -7.864994e+00 -1.121554e+01 -7.365554e+00 -1.127890e+01
<VARIANCE> 8
 5.565815e+01 5.632566e+01 5.394476e+01 5.325639e+01 5.161473e+01 5.294915e+01 4.994651e+01 5.943180e+01
<GCONST> 4.662540e+01
<STATE> 3
<MEAN> 8
 -1.329917e+01 -8.220307e+00 -3.766059e+00 -1.243363e+01 -3.132939e+00 -9.552413e+00 -1.516527e+01 -8.646363e+00
<VARIANCE> 8
 5.675327e+01 1.258507e+01 4.394295e+01 1.673191e+01 7.431165e+00 9.323143e+01 4.120959e+01 1.145691e+01
<GCONST> 4.057248e+01
<STATE> 4
<MEAN> 8
 -1.741898e+00 -1.143117e+01 -3.823742e+00 -8.951015e+00 -1.177175e+01 -8.686568e+00 2.709713e-01 -1.118830e+01
<VARIANCE> 8
 3.026794e+01 2.147371e+01 6.971726e+00 9.678987e+01 2.682784e+01 1.116710e+01 5.463283e+01 1.470537e+01
<GCONST> 4.008560e+01
<STATE> 5
<MEAN> 8
 -5.825560e+00 -8.375520e+00 -6.420342e+00 -8.614021e+00 -5.863494e+00 -8.655521e+00 -6.241333e+00 -8.499562e+00
<VARIANCE> 8
 3.525952e+01 3.342656e+01 3.958511e+01 2.957950e+01 4.264452e+01 3.217912e+01 3.591034e+01 3.360142e+01
<GCONST> 4.316044e+01
<TRANSP> 6
 0.000000e+00 1.000000e+00 0.000000e+00 0.000000e+00 0.000000e+00 0.000000e+00
 0.000000e+00 8.946012e-01 1.053988e-01 0.000000e+00 0.000000e+00 0.000000e+00
 0.000000e+00 0.000000e+00 0.000000e+00 1.000000e+00 0.000000e+00 0.000000e+00
 0.000000e+00 0.000000e+00 0.000000e+00 5.200905e-04 9.994799e-01 0.000000e+00
 0.000000e+00 0.000000e+00 0.000000e+00 0.000000e+00 9.081606e-01 9.183946e-02
 0.000000e+00 0.000000e+00 0.000000e+00 0.000000e+00 0.000000e+00 0.000000e+00
<ENDHMM>
~h "o"
<BEGINHMM>
<NUMSTATES> 6
<STATE> 2
<MEAN> 8
 -7.225282e+00 -1.054749e+01 -7.878096e+00 -1.051347e+01 -7.891626e+00 -1.012587e+01 -8.016642e+00 -1.053888e+01
<VARIANCE> 8
 5.776834e+01 7.409749e+01 6.565577e+01 6.135272e+01 5.639795e+01 5.136532e+01 5.587418e+01 5.257319e+01
<GCONST> 4.732261e+01
<STATE> 3
<MEAN> 8
 -4.763193e+00 -7.767942e+00 -4.778527e+00 -7.746301e+00 -4.894736e+00 -7.733341e+00 -4.793759e+00 -7.745764e+00
<VARIANCE> 8
 2.802703e+01 1.807414e+01 2.736256e+01 1.845172e+01 2.843867e+01 1.771482e+01 2.844956e+01 1.768764e+01
<GCONST> 3.959815e+01
<STATE> 4
<MEAN> 8
 -3.450112e+00 -9.389097e+00 -1.353335e+01 -8.347265e+00 -3.200893e+00 -1.001355e+01 -3.832426e+00 -1.090414e+01
<VARIANCE> 8
 5.484582e+00 1.045185e+02 3.858029e+01 9.823717e+00 6.595846e+01 1.957937e+01 7.260550e+00 1.614380e+02
<GCONST> 4.122194e+01
<STATE> 5
<MEAN> 8
 -7.501204e+00 -1.013511e+01 -6.442158e+00 -1.043191e+01 -6.652925e+00 -1.051639e+01 -7.335932e+00 -1.021042e+01
<VARIANCE> 8
 5.496731e+01 2.382155e+01 4.988261e+01 3.057545e+01 4.583270e+01 4.074995e+01 5.302203e+01 2.796522e+01
<GCONST> 4.404433e+01
<TRANSP> 6
 0.000000e+00 1.000000e+00 0.000000e+00 0.000000e+00 0.000000e+00 0.000000e+00
 0.000000e+00 6.861637e-01 3.138363e-01 0.000000e+00 0.000000e+00 0.000000e+00
 0.000000e+00 0.000000e+00 9.847853e-01 1.521467e-02 0.000000e+00 0.000000e+00
 0.000000e+00 0.000000e+00 0.000000e+00 0.000000e+00 1.000000e+00 0.000000e+00
 0.000000e+00 0.000000e+00 0.000000e+00 0.000000e+00 8.937715e-01 1.062285e-01
 0.000000e+00 0.000000e+00 0.000000e+00 0.000000e+00 0.000000e+00 0.000000e+00
<ENDHMM>
~h "p"
<BEGINHMM>
<NUMSTATES> 6
<STATE> 2
<MEAN> 8
 -7.489325e+00 -9.907625e+00 -1.058580e+01 -1.002720e+01 -1.032271e+01 -9.795168e+00 -1.014049e+01 -1.020266e+01
<VARIANCE> 8
 5.488844e+01 5.821457e+01 9.279198e+01 5.088501e+01 8.598317e+01 5.543024e+01 7.780944e+01 6.138149e+01
<GCONST> 4.817303e+01
<STATE> 3
<MEAN> 8
 -4.769998e+00 -5.910381e+00 -6.620831e+00 -5.955217e+00 -6.428866e+00 -6.086282e+00 -7.093029e+00 -5.288266e+00
<VARIANCE> 8
 3.784884e+01 2.444177e+01 3.044460e+01 3.071970e+01 2.137705e+01 4.026762e+01 1.994855e+01 2.458743e+01
<GCONST> 4.132698e+01
<STATE> 4
<MEAN> 8
 -7.527442e+00 -1.315225e+01 -6.812999e+00 -1.245434e+01 -8.465134e+00 -1.226801e+01 -7.472467e+00 -1.352469e+01
<VARIANCE> 8
 6.076909e+01 4.807554e+01 2.570345e+01 7.260985e+01 3.797058e+01 5.108882e+01 8.170256e+01 3.819046e+01
<GCONST> 4.583065e+01
<STATE> 5
<MEAN> 8
 -5.939497e+00 -8.134531e+00 -8.045484e+00 -8.784358e+00 -7.088247e+00 -8.832987e+00 -7.316405e+00 -8.152314e+00
<VARIANCE> 8
 2.808713e+01 4.870310e+01 4.879536e+01 3.697767e+01 6.032794e+01 3.648777e+01 3.826735e+01 4.146577e+01
<GCONST> 4.448826e+01
<TRANSP> 6
 0.000000e+00 1.000000e+00 0.000000e+00 0.000000e+00 0.000000e+00 0.000000e+00
 0.000000e+00 8.176059e-01 1.823942e-01 0.000000e+00 0.000000e+00 0.000000e+00
 0.000000e+00 0.000000e+00 8.478500e-01 1.521500e-01 0.000000e+00 0.000000e+00
 0.000000e+00 0.000000e+00 0.000000e+00 7.363381e-01 2.636618e-01 0.000000e+00
 0.000000e+00 0.000000e+00 0.000000e+00 0.000000e+00 7.420150e-01 2.579850e-01
 0.000000e+00 0.000000e+00 0.000000e+00 0.000000e+00 0.000000e+00 0.000000e+00
<ENDHMM>
~h "q"
<BEGINHMM>
<NUMSTATES> 6
<STATE> 2
<MEAN> 8
 -6.558364e+00 -7.116331e+00 -1.074185e+01 -7.320254e+00 -1.060673e+01 -7.260016e+00 -1.094644e+01 -7.253867e+00
<VARIANCE> 8
 4.584047e+01 4.273569e+01 3.096118e+01 4.240563e+01 3.119786e+01 4.617373e+01 3.267328e+01 4.438976e+01
<GCONST> 4.401556e+01
<STATE> 3
<MEAN> 8
 -5.133744e+00 -1.209432e+01 -4.764091e+00 -7.729738e+00 -1.091560e+01 -9.277812e+00 -1.229592e+00 -1.097059e+01
<VARIANCE> 8
 4.998788e+01 1.014361e+01 1.062800e+01 7.065456e+01 3.260689e+01 2.339383e+01 4.100563e+01 5.478627e+00
<GCONST> 3.960450e+01
<STATE> 4
<MEAN> 8
 -4.047282e+00 -4.745068e+00 -5.180273e+00 -4.836134e+00 -5.031761e+00 -4.842821e+00 -5.173942e+00 -4.735419e+00
<VARIANCE> 8
 2.020491e+01 1.796659e+01 1.953222e+01 1.792886e+01 2.030725e+01 1.765080e+01 1.942663e+01 1.752041e+01
<GCONST> 3.816770e+01
<STATE> 5
<MEAN> 8
 -6.420712e+00 -1.192373e+01 -6.394604e+00 -1.187226e+01 -6.460171e+00 -1.185624e+01 -6.443349e+00 -1.188758e+01
<VARIANCE> 8
 3.148538e+01 3.473067e+01 3.371496e+01 3.353493e+01 3.380280e+01 3.366918e+01 3.290789e+01 3.418547e+01
<GCONST> 4.279333e+01
<TRANSP> 6
 0.000000e+00 1.000000e+00 0.000000e+00 0.000000e+00 0.000000e+00 0.000000e+00
 0.000000e+00 9.432310e-01 5.676894e-02 0.000000e+00 0.000000e+00 0.000000e+00
 0.000000e+00 0.000000e+00 1.309594e-01 8.690406e-01 0.000000e+00 0.000000e+00
 0.000000e+00 0.000000e+00 0.000000e+00 9.795294e-01 2.047058e-02 0.000000e+00
 0.000000e+00 0.000000e+00 0.000000e+00 0.000000e+00 9.700140e-01 2.998602e-02
 0.000000e+00 0.000000e+00 0.000000e+00 0.000000e+00 0.000000e+00 0.000000e+00
<ENDHMM>
~h "r"
<BEGINHMM>
<NUMSTATES> 6
<STATE> 2
<MEAN> 8
 -7.285986e+00 -9.326455e+00 -8.619682e+00 -9.396372e+00 -8.404497e+00 -9.435860e+00 -8.966385e+00 -9.484508e+00
<VARIANCE> 8
 6.505195e+01 5.487391e+01 6.038906e+01 5.453574e+01 6.304721e+01 5.414977e+01 6.916580e+01 5.003571e+01
<GCONST> 4.726778e+01
<STATE> 3
<MEAN> 8
 -4.238307e+00 -1.206126e+01 -3.370039e+00 -9.198207e+00 -1.613671e+01 -9.093371e+00 -8.742604e-01 -1.176738e+01
<VARIANCE> 8
 2.713659e+01 1.633332e+01 6.691191e+00 6.959236e+01 4.497508e+01 1.279309e+01 3.828419e+01 1.233345e+01
<GCONST> 3.945292e+01
<STATE> 4
<MEAN> 8
 -4.169650e+00 -5.899662e+00 -1.466084e+01 -9.228121e+00 8.739129e-01 -1.000255e+01 -5.060153e+00 -5.164528e+00
<VARIANCE> 8
 6.750322e+00 9.399217e+01 4.578317e+01 1.224913e+01 5.407159e+01 1.654822e+01 6.734426e+00 1.160176e+02
<GCONST> 4.094275e+01
<STATE> 5
<MEAN> 8
 -6.322052e+00 -8.915031e+00 -5.739290e+00 -8.930670e+00 -6.016443e+00 -8.875110e+00 -6.354179e+00 -8.861183e+00
<VARIANCE> 8
 4.623607e+01 2.538440e+01 4.665938e+01 2.904040e+01 3.812464e+01 3.276202e+01 3.997505e+01 2.678038e+01
<GCONST> 4.308853e+01
<TRANSP> 6
 0.000000e+00 1.000000e+00 0.000000e+00 0.000000e+00 0.000000e+00 0.000000e+00
 0.000000e+00 9.095008e-01 9.049928e-02 0.000000e+00 0.000000e+00 0.000000e+00
 0.000000e+00 0.000000e+00 0.000000e+00 1.000000e+00 0.000000e+00 0.000000e+00
 0.000000e+00 0.000000e+00 0.000000e+00 1.104445e-02 9.889555e-01 0.000000e+00
 0.000000e+00 0.000000e+00 0.000000e+00 0.000000e+00 9.280457e-01 7.195437e-02
 0.000000e+00 0.000000e+00 0.000000e+00 0.000000e+00 0.000000e+00 0.000000e+00
<ENDHMM>
~h "s"
<BEGINHMM>
<NUMSTATES> 6
<STATE> 2
<MEAN> 8
 -7.170258e+00 -1.141580e+01 -8.138048e+00 -1.111754e+01 -7.891766e+00 -1.144017e+01 -7.577988e+00 -1.137423e+01
<VARIANCE> 8
 5.572697e+01 4.954822e+01 5.514435e+01 4.790236e+01 5.530320e+01 4.766692e+01 5.336044e+01 5.150362e+01
<GCONST> 4.630134e+01
<STATE> 3
<MEAN> 8
 -1.171995e+01 -7.837066e+00 -3.473156e+00 -1.237335e+01 -3.622944e+00 -8.242937e+00 -1.420821e+01 -8.111577e+00
<VARIANCE> 8
 5.449966e+01 1.296449e+01 5.265715e+01 2.051322e+01 8.299021e+00 9.763157e+01 3.981614e+01 1.180914e+01
<GCONST> 4.109878e+01
<STATE> 4
<MEAN> 8
 -2.673361e+00 -1.104505e+01 -3.942384e+00 -9.317833e+00 -1.196500e+01 -8.247246e+00 -1.276107e+00 -1.155688e+01
<VARIANCE> 8
 3.263580e+01 3.029006e+01 7.645259e+00 1.045006e+02 2.782747e+01 1.134139e+01 6.173984e+01 1.837164e+01
<GCONST> 4.107074e+01
<STATE> 5
<MEAN> 8
 -5.551953e+00 -7.716967e+00 -6.607015e+00 -7.811604e+00 -6.070612e+00 -7.955689e+00 -6.342502e+00 -7.733571e+00
<VARIANCE> 8
 3.264434e+01 3.829444e+01 3.561463e+01 3.417451e+01 3.761489e+01 3.647375e+01 3.214085e+01 3.843098e+01
<GCONST> 4.328121e+01
<TRANSP> 6
 0.000000e+00 1.000000e+00 0.000000e+00 0.000000e+00 0.000000e+00 0.000000e+00
 0.000000e+00 9.126756e-01 8.732446e-02 0.000000e+00 0.000000e+00 0.000000e+00
 0.000000e+00 0.000000e+00 0.000000e+00 1.000000e+00 0.000000e+00 0.000000e+00
 0.000000e+00 0.000000e+00 0.000000e+00 8.220253e-03 9.917797e-01 0.000000e+00
 0.000000e+00 0.000000e+00 0.000000e+00 0.000000e+00 9.220142e-01 7.798583e-02
 0.000000e+00 0.000000e+00 0.000000e+00 0.000000e+00 0.000000e+00 0.000000e+00
<ENDHMM>
~h "t"
<BEGINHMM>
<NUMSTATES> 6
<STATE> 2
<MEAN> 8
 -6.868900e+00 -1.112965e+01 -8.084332e+00 -1.080109e+01 -7.860439e+00 -1.108860e+01 -7.490750e+00 -1.116400e+01
<VARIANCE> 8
 5.421859e+01 5.283477e+01 5.196825e+01 5.043267e+01 5.349042e+01 5.012783e+01 5.394893e+01 5.530536e+01
<GCONST> 4.642947e+01
<STATE> 3
<MEAN> 8
 -1.078477e+01 -7.411798e+00 -5.296322e+00 -1.147970e+01 -3.310377e+00 -1.018950e+01 -1.435057e+01 -7.826678e+00
<VARIANCE> 8
 5.379651e+01 1.315418e+01 4.562902e+01 2.913049e+01 8.204726e+00 9.803529e+01 3.899328e+01 1.253070e+01
<GCONST> 4.133891e+01
<STATE> 4
<MEAN> 8
 -3.537316e+00 -1.214062e+01 -3.616072e+00 -9.633258e+00 -1.286654e+01 -8.154879e+00 -1.198328e+00 -1.224366e+01
<VARIANCE> 8
 2.915288e+01 2.368985e+01 8.438870e+00 9.012454e+01 3.787345e+01 1.261006e+01 5.118298e+01 1.446151e+01
<GCONST> 4.065030e+01
<STATE> 5
<MEAN> 8
 -5.156046e+00 -7.328241e+00 -6.394087e+00 -7.508305e+00 -5.945665e+00 -7.558332e+00 -6.267309e+00 -7.302168e+00
<VARIANCE> 8
 3.599438e+01 3.608093e+01 4.195227e+01 3.427082e+01 4.126863e+01 3.603537e+01 3.439738e+01 3.588222e+01
<GCONST> 4.356579e+01
<TRANSP> 6
 0.000000e+00 1.000000e+00 0.000000e+00 0.000000e+00 0.000000e+00 0.000000e+00
 0.000000e+00 9.005046e-01 9.949534e-02 0.000000e+00 0.000000e+00 0.000000e+00
 0.000000e+00 0.000000e+00 0.000000e+00 1.000000e+00 0.000000e+00 0.000000e+00
 0.000000e+00 0.000000e+00 0.000000e+00 0.000000e+00 1.000000e+00 0.000000e+00
 0.000000e+00 0.000000e+00 0.000000e+00 0.000000e+00 9.245916e-01 7.540839e-02
 0.000000e+00 0.000000e+00 0.000000e+00 0.000000e+00 0.000000e+00 0.000000e+00
<ENDHMM>
~h "u"
<BEGINHMM>
<NUMSTATES> 6
<STATE> 2
<MEAN> 8
 -6.499270e+00 -8.214031e+00 -7.912697e+00 -8.017492e+00 -8.108912e+00 -8.050697e+00 -7.855568e+00 -8.088778e+00
<VARIANCE> 8
 7.156897e+01 8.551083e+01 7.972733e+01 8.620147e+01 8.372646e+01 8.644972e+01 8.325046e+01 8.720540e+01
<GCONST> 5.003486e+01
<STATE> 3
<MEAN> 8
 -5.746170e+00 -7.796342e+00 -5.510993e+00 -7.959126e+00 -5.244671e+00 -7.863159e+00 -6.343829e+00 -7.736813e+00
<VARIANCE> 8
 3.737807e+01 2.013774e+01 2.764671e+01 2.266264e+01 2.328232e+01 2.749755e+01 3.831980e+01 1.997880e+01
<GCONST> 4.086935e+01
<STATE> 4
<MEAN> 8
 -3.253687e+00 -1.137687e+01 -3.836635e+00 -8.209849e+00 -1.664390e+01 -9.151607e+00 -1.246680e+00 -1.108832e+01
<VARIANCE> 8
 3.918465e+01 1.526988e+01 5.084631e+00 1.299356e+02 5.398321e+01 1.251973e+01 5.487400e+01 1.581436e+01
<GCONST> 4.087238e+01
<STATE> 5
<MEAN> 8
 -6.684128e+00 -9.738416e+00 -7.988689e+00 -1.001522e+01 -6.038622e+00 -9.980090e+00 -6.583385e+00 -9.950094e+00
<VARIANCE> 8
 4.026868e+01 5.261632e+01 7.016547e+01 2.842557e+01 5.086080e+01 3.308418e+01 2.996047e+01 4.595182e+01
<GCONST> 4.461538e+01
<TRANSP> 6
 0.000000e+00 1.000000e+00 0.000000e+00 0.000000e+00 0.000000e+00 0.000000e+00
 0.000000e+00 8.153600e-01 1.846400e-01 0.000000e+00 0.000000e+00 0.000000e+00
 0.000000e+00 0.000000e+00 8.961712e-01 1.038289e-01 0.000000e+00 0.000000e+00
 0.000000e+00 0.000000e+00 0.000000e+00 4.216499e-03 9.957834e-01 0.000000e+00
 0.000000e+00 0.000000e+00 0.000000e+00 0.000000e+00 8.207670e-01 1.792330e-01
 0.000000e+00 0.000000e+00 0.000000e+00 0.000000e+00 0.000000e+00 0.000000e+00
<ENDHMM>
~h "v"
<BEGINHMM>
<NUMSTATES> 6
<STATE> 2
<MEAN> 8
 -8.333558e+00 -1.063492e+01 -8.647127e+00 -1.075026e+01 -8.385663e+00 -1.012733e+01 -8.452035e+00 -1.029229e+01
<VARIANCE> 8
 6.548928e+01 6.042933e+01 8.783892e+01 4.768378e+01 7.082080e+01 5.265007e+01 5.595156e+01 5.820736e+01
<GCONST> 4.763879e+01
<STATE> 3
<MEAN> 8
 -5.252346e+00 -5.161772e+00 -7.458622e+00 -5.114548e+00 -7.444495e+00 -5.225566e+00 -7.469314e+00 -5.060538e+00
<VARIANCE> 8
 4.272409e+01 3.327080e+01 2.248495e+01 3.455231e+01 2.205795e+01 3.520824e+01 2.269743e+01 3.356778e+01
<GCONST> 4.190855e+01
<STATE> 4
<MEAN> 8
 -6.831792e+00 -8.871437e+00 -7.835718e+00 -8.823753e+00 -7.884182e+00 -8.787529e+00 -8.006242e+00 -8.949483e+00
<VARIANCE> 8
 1.241689e+02 2.090672e+02 1.426053e+02 2.087768e+02 1.444067e+02 2.094364e+02 1.482880e+02 2.096960e+02
<GCONST> 5.583053e+01
<STATE> 5
<MEAN> 8
 -6.645582e+00 -1.022469e+01 -6.725272e+00 -1.026337e+01 -6.730990e+00 -1.024277e+01 -6.590048e+00 -1.019876e+01
<VARIANCE> 8
 5.775363e+01 2.513524e+01 6.077995e+01 2.546796e+01 6.137442e+01 2.553393e+01 5.862737e+01 2.466132e+01
<GCONST> 4.396159e+01
<TRANSP> 6
 0.000000e+00 1.000000e+00 0.000000e+00 0.000000e+00 0.000000e+00 0.000000e+00
 0.000000e+00 6.739677e-01 3.260324e-01 0.000000e+00 0.000000e+00 0.000000e+00
 0.000000e+00 0.000000e+00 9.493222e-01 5.067782e-02 0.000000e+00 0.000000e+00
 0.000000e+00 0.000000e+00 0.000000e+00 9.597014e-01 4.029866e-02 0.000000e+00
 0.000000e+00 0.000000e+00 0.000000e+00 0.000000e+00 9.498066e-01 5.019341e-02
 0.000000e+00 0.000000e+00 0.000000e+00 0.000000e+00 0.000000e+00 0.000000e+00
<ENDHMM>
~h "w"
<BEGINHMM>
<NUMSTATES> 6
<STATE> 2
<MEAN> 8
 -5.471496e+00 -6.529204e+00 -7.294799e+00 -6.517190e+00 -6.715637e+00 -7.008927e+00 -7.237454e+00 -6.460960e+00
<VARIANCE> 8
 4.125279e+01 3.977578e+01 3.571069e+01 4.531791e+01 4.985013e+01 4.540610e+01 4.831611e+01 3.672528e+01
<GCONST> 4.470105e+01
<STATE> 3
<MEAN> 8
 -8.280091e+00 -1.386209e+01 -8.117692e+00 -1.353933e+01 -1.055121e+01 -1.328277e+01 -7.993113e+00 -1.412131e+01
<VARIANCE> 8
 5.435783e+01 5.862829e+01 5.513428e+01 6.695178e+01 7.352046e+01 5.721035e+01 7.254375e+01 4.983508e+01
<GCONST> 4.752077e+01
<STATE> 4
<MEAN> 8
 -4.092395e+00 -6.721025e+00 -1.698918e+01 -1.016486e+01 1.865304e+00 -1.157666e+01 -5.323734e+00 -3.419365e+00
<VARIANCE> 8
 6.272508e+00 7.263365e+01 5.317715e+01 1.257425e+01 2.844047e+01 9.869329e+00 5.889973e+00 5.935918e+01
<GCONST> 3.882400e+01
<STATE> 5
<MEAN> 8
 -6.383165e+00 -1.033496e+01 -5.900479e+00 -1.029966e+01 -6.174057e+00 -1.018882e+01 -6.320169e+00 -1.038222e+01
<VARIANCE> 8
 4.676714e+01 2.515268e+01 4.526880e+01 2.608992e+01 3.838816e+01 2.817275e+01 4.186245e+01 2.557905e+01
<GCONST> 4.280960e+01
<TRANSP> 6
 0.000000e+00 1.000000e+00 0.000000e+00 0.000000e+00 0.000000e+00 0.000000e+00
 0.000000e+00 8.140315e-01 1.859685e-01 0.000000e+00 0.000000e+00 0.000000e+00
 0.000000e+00 0.000000e+00 8.131914e-01 1.868086e-01 0.000000e+00 0.000000e+00
 0.000000e+00 0.000000e+00 0.000000e+00 0.000000e+00 1.000000e+00 0.000000e+00
 0.000000e+00 0.000000e+00 0.000000e+00 0.000000e+00 9.641363e-01 3.586368e-02
 0.000000e+00 0.000000e+00 0.000000e+00 0.000000e+00 0.000000e+00 0.000000e+00
<ENDHMM>
~h "x"
<BEGINHMM>
<NUMSTATES> 6
<STATE> 2
<MEAN> 8
 -6.430197e+00 -1.058149e+01 -6.472115e+00 -1.040128e+01 -6.587116e+00 -1.046318e+01 -6.435924e+00 -1.048458e+01
<VARIANCE> 8
 5.512176e+01 2.118190e+01 5.095850e+01 2.326222e+01 5.147586e+01 2.103172e+01 5.527028e+01 2.110080e+01
<GCONST> 4.289224e+01
<STATE> 3
<MEAN> 8
 -4.902343e+00 -5.398517e+00 -5.587788e+00 -6.769470e+00 -4.817419e+00 -6.064455e+00 -5.177724e+00 -6.760303e+00
<VARIANCE> 8
 1.078010e+01 2.360355e+01 2.889986e+01 1.467371e+01 1.972583e+01 2.367342e+01 1.418175e+01 3.019088e+01
<GCONST> 3.849779e+01
<STATE> 4
<MEAN> 8
 -8.160068e+00 -1.096591e+01 -7.179996e+00 -1.197314e+01 -7.080277e+00 -1.178205e+01 -9.921639e+00 -1.124890e+01
<VARIANCE> 8
 5.605254e+01 5.569343e+01 5.564519e+01 5.943161e+01 5.708567e+01 6.619469e+01 7.109591e+01 5.036699e+01
<GCONST> 4.727351e+01
<STATE> 5
<MEAN> 8
 -4.926068e+00 -9.204829e+00 -6.205504e+00 -8.195044e+00 -6.249217e+00 -9.246437e+00 -5.206126e+00 -8.065365e+00
<VARIANCE> 8
 3.237986e+01 2.559562e+01 3.580428e+01 3.417300e+01 6.448273e+01 2.192300e+01 3.013951e+01 2.981372e+01
<GCONST> 4.258722e+01
<TRANSP> 6
 0.000000e+00 1.000000e+00 0.000000e+00 0.000000e+00 0.000000e+00 0.000000e+00
 0.000000e+00 9.730201e-01 2.697990e-02 0.000000e+00 0.000000e+00 0.000000e+00
 0.000000e+00 0.000000e+00 7.801921e-01 2.198079e-01 0.000000e+00 0.000000e+00
 0.000000e+00 0.000000e+00 0.000000e+00 4.625752e-01 5.374248e-01 0.000000e+00
 0.000000e+00 0.000000e+00 0.000000e+00 0.000000e+00 7.037467e-01 2.962533e-01
 0.000000e+00 0.000000e+00 0.000000e+00 0.000000e+00 0.000000e+00 0.000000e+00
<ENDHMM>
~h "y"
<BEGINHMM>
<NUMSTATES> 6
<STATE> 2
<MEAN> 8
 -4.582068e+00 -7.793986e+00 -4.705171e+00 -7.696460e+00 -4.954667e+00 -7.707584e+00 -4.801138e+00 -7.673819e+00
<VARIANCE> 8
 3.640354e+01 2.793189e+01 3.581761e+01 3.034342e+01 3.745340e+01 2.723506e+01 3.620568e+01 2.749911e+01
<GCONST> 4.244944e+01
<STATE> 3
<MEAN> 8
 -6.088409e+00 -9.660080e+00 -8.881134e+00 -9.376936e+00 -4.962403e+00 -1.164783e+01 -4.907359e+00 -9.641377e+00
<VARIANCE> 8
 3.903283e+01 7.223577e+01 4.479370e+01 3.344484e+01 6.089409e+01 3.951186e+01 3.514333e+01 9.437493e+01
<GCONST> 4.585176e+01
<STATE> 4
<MEAN> 8
 -1.232055e+01 -8.421513e+00 2.014459e+00 -1.120111e+01 -4.118549e+00 -1.513976e+00 -1.402383e+01 -8.398798e+00
<VARIANCE> 8
 4.423845e+01 9.029059e+00 6.092123e+01 9.284097e+00 5.320892e+00 1.578164e+02 4.155950e+01 8.838842e+00
<GCONST> 3.967030e+01
<STATE> 5
<MEAN> 8
 -5.963586e+00 -1.008819e+01 -6.283148e+00 -9.955544e+00 -6.548283e+00 -1.004537e+01 -6.158676e+00 -1.001046e+01
<VARIANCE> 8
 5.627615e+01 2.773859e+01 5.171496e+01 3.449852e+01 5.680469e+01 2.521391e+01 5.700401e+01 2.663948e+01
<GCONST> 4.413530e+01
<TRANSP> 6
 0.000000e+00 1.000000e+00 0.000000e+00 0.000000e+00 0.000000e+00 0.000000e+00
 0.000000e+00 9.470299e-01 5.297011e-02 0.000000e+00 0.000000e+00 0.000000e+00
 0.000000e+00 0.000000e+00 6.976822e-01 3.023179e-01 0.000000e+00 0.000000e+00
 0.000000e+00 0.000000e+00 0.000000e+00 0.000000e+00 1.000000e+00 0.000000e+00
 0.000000e+00 0.000000e+00 0.000000e+00 0.000000e+00 9.576845e-01 4.231551e-02
 0.000000e+00 0.000000e+00 0.000000e+00 0.000000e+00 0.000000e+00 0.000000e+00
<ENDHMM>
~h "z"
<BEGINHMM>
<NUMSTATES> 6
<STATE> 2
<MEAN> 8
 -5.812805e+00 -9.419452e+00 -4.112873e+00 -9.866195e+00 -5.826302e+00 -9.149711e+00 -7.533423e+00 -7.992701e+00
<VARIANCE> 8
 5.365958e+01 1.457403e+01 2.784717e+01 7.424870e+01 2.321456e+01 5.301761e+01 1.753232e+01 1.689631e+01
<GCONST> 4.180561e+01
<STATE> 3
<MEAN> 8
 -6.230275e+00 -1.433483e+01 -6.758312e+00 -1.255143e+01 -8.068521e+00 -1.191326e+01 -5.811114e+00 -1.294680e+01
<VARIANCE> 8
 4.180486e+01 5.627181e+01 2.457519e+01 5.458371e+01 2.167912e+01 3.375415e+01 5.423480e+01 3.221756e+01
<GCONST> 4.372898e+01
<STATE> 4
<MEAN> 8
 -4.072437e+00 -8.217232e+00 -8.121118e+00 -8.310917e+00 -7.489086e+00 -6.608920e+00 -3.860799e+00 -1.349262e+01
<VARIANCE> 8
 1.287006e+01 9.823927e+01 2.207967e+01 1.243979e+01 2.579383e+01 2.171556e+01 1.447476e+01 7.650845e+01
<GCONST> 4.079885e+01
<STATE> 5
<MEAN> 8
 -5.256905e+00 -8.829809e+00 -5.189026e+00 -8.852454e+00 -5.179467e+00 -8.887070e+00 -5.276987e+00 -8.787241e+00
<VARIANCE> 8
 3.438277e+01 2.104157e+01 3.414714e+01 2.179064e+01 3.497474e+01 2.247129e+01 3.498549e+01 2.164805e+01
<GCONST> 4.119595e+01
<TRANSP> 6
 0.000000e+00 1.000000e+00 0.000000e+00 0.000000e+00 0.000000e+00 0.000000e+00
 0.000000e+00 7.524798e-01 2.475202e-01 0.000000e+00 0.000000e+00 0.000000e+00
 0.000000e+00 0.000000e+00 7.803996e-01 2.196004e-01 0.000000e+00 0.000000e+00
 0.000000e+00 0.000000e+00 0.000000e+00 4.599925e-01 5.400076e-01 0.000000e+00
 0.000000e+00 0.000000e+00 0.000000e+00 0.000000e+00 9.927818e-01 7.218199e-03
 0.000000e+00 0.000000e+00 0.000000e+00 0.000000e+00 0.000000e+00 0.000000e+00
<ENDHMM>
~h "sil"
<BEGINHMM>
<NUMSTATES> 6
<STATE> 2
<MEAN> 8
 -7.216486e+00 -1.222890e+01 -7.313089e+00 -1.245753e+01 -7.415636e+00 -1.198436e+01 -7.590775e+00 -1.229465e+01
<VARIANCE> 8
 8.390238e+01 1.633208e+02 9.018864e+01 1.609450e+02 8.771235e+01 1.647079e+02 8.743099e+01 1.591515e+02
<GCONST> 5.293030e+01
<STATE> 3
<MEAN> 8
 -4.012247e+00 -7.312718e+00 -6.081051e+00 -6.636232e+00 -6.378314e+00 -7.116509e+00 -5.934826e+00 -6.821285e+00
<VARIANCE> 8
 4.828967e+01 2.503268e+01 3.400713e+01 4.020741e+01 3.541397e+01 2.643492e+01 3.712012e+01 2.152825e+01
<GCONST> 4.254635e+01
<STATE> 4
<MEAN> 8
 -4.669815e+00 -1.061613e+01 -9.761000e+00 -8.574565e+00 -7.141392e+00 -9.600415e+00 -4.732736e+00 -1.382933e+01
<VARIANCE> 8
 1.476778e+01 1.937232e+02 3.626676e+01 3.288775e+01 5.972039e+01 2.850779e+01 1.307682e+01 1.400423e+02
<GCONST> 4.469853e+01
<STATE> 5
<MEAN> 8
 -7.040164e+00 -1.138962e+01 -6.755591e+00 -1.161551e+01 -6.674209e+00 -1.159664e+01 -6.841036e+00 -1.144109e+01
<VARIANCE> 8
 4.848554e+01 3.992250e+01 4.940977e+01 3.981938e+01 4.990503e+01 4.662926e+01 5.395698e+01 4.307189e+01
<GCONST> 4.535913e+01
<TRANSP> 6
 0.000000e+00 1.000000e+00 0.000000e+00 0.000000e+00 0.000000e+00 0.000000e+00
 0.000000e+00 9.475273e-01 5.247266e-02 0.000000e+00 0.000000e+00 0.000000e+00
 0.000000e+00 0.000000e+00 8.838168e-01 1.161832e-01 0.000000e+00 0.000000e+00
 0.000000e+00 0.000000e+00 0.000000e+00 1.900094e-05 9.999810e-01 0.000000e+00
 0.000000e+00 0.000000e+00 0.000000e+00 0.000000e+00 9.345551e-01 6.544484e-02
 0.000000e+00 0.000000e+00 0.000000e+00 0.000000e+00 0.000000e+00 0.000000e+00
<ENDHMM>
