~o
<STREAMINFO> 1 20
<VECSIZE> 20<NULLD><USER><DIAGC>
~h "f"
<BEGINHMM>
<NUMSTATES> 8
<STATE> 2
<MEAN> 20
 -7.416362e+00 -1.945015e+00 -1.687200e+01 -1.057578e+01 -8.891011e+00 -1.216607e+01 -1.578633e+01 -1.389637e+01 -4.245996e+00 -1.276770e+01 -1.168958e+01 -1.716383e+01 5.331569e-01 -1.227842e+01 -5.798365e+00 -1.584250e+01 5.404945e+00 -1.082006e+01 1.920547e+00 -1.518917e+01
<VARIANCE> 20
 7.013172e+00 1.059829e+00 6.791181e+01 1.236152e+01 1.898714e+01 5.974401e+00 4.990476e+01 2.923552e+01 1.088886e+01 6.289351e+00 4.294925e+01 6.604850e+01 8.170178e+00 6.089285e+00 3.854003e+01 7.024747e+01 1.270189e+01 5.562423e+00 6.542062e+01 4.503262e+01
<GCONST> 9.374675e+01
<STATE> 3
<MEAN> 20
 -7.416362e+00 -1.945015e+00 -1.687200e+01 -1.057578e+01 -8.891011e+00 -1.216607e+01 -1.578633e+01 -1.389637e+01 -4.245996e+00 -1.276770e+01 -1.168958e+01 -1.716383e+01 5.331569e-01 -1.227842e+01 -5.798365e+00 -1.584250e+01 5.404945e+00 -1.082006e+01 1.920547e+00 -1.518917e+01
<VARIANCE> 20
 7.013172e+00 1.059829e+00 6.791181e+01 1.236152e+01 1.898714e+01 5.974401e+00 4.990476e+01 2.923552e+01 1.088886e+01 6.289351e+00 4.294925e+01 6.604850e+01 8.170178e+00 6.089285e+00 3.854003e+01 7.024747e+01 1.270189e+01 5.562423e+00 6.542062e+01 4.503262e+01
<GCONST> 9.374675e+01
<STATE> 4
<MEAN> 20
 -7.416362e+00 -1.945015e+00 -1.687200e+01 -1.057578e+01 -8.891011e+00 -1.216607e+01 -1.578633e+01 -1.389637e+01 -4.245996e+00 -1.276770e+01 -1.168958e+01 -1.716383e+01 5.331569e-01 -1.227842e+01 -5.798365e+00 -1.584250e+01 5.404945e+00 -1.082006e+01 1.920547e+00 -1.518917e+01
<VARIANCE> 20
 7.013172e+00 1.059829e+00 6.791181e+01 1.236152e+01 1.898714e+01 5.974401e+00 4.990476e+01 2.923552e+01 1.088886e+01 6.289351e+00 4.294925e+01 6.604850e+01 8.170178e+00 6.089285e+00 3.854003e+01 7.024747e+01 1.270189e+01 5.562423e+00 6.542062e+01 4.503262e+01
<GCONST> 9.374675e+01
<STATE> 5
<MEAN> 20
 -7.416362e+00 -1.945015e+00 -1.687200e+01 -1.057578e+01 -8.891011e+00 -1.216607e+01 -1.578633e+01 -1.389637e+01 -4.245996e+00 -1.276770e+01 -1.168958e+01 -1.716383e+01 5.331569e-01 -1.227842e+01 -5.798365e+00 -1.584250e+01 5.404945e+00 -1.082006e+01 1.920547e+00 -1.518917e+01
<VARIANCE> 20
 7.013172e+00 1.059829e+00 6.791181e+01 1.236152e+01 1.898714e+01 5.974401e+00 4.990476e+01 2.923552e+01 1.088886e+01 6.289351e+00 4.294925e+01 6.604850e+01 8.170178e+00 6.089285e+00 3.854003e+01 7.024747e+01 1.270189e+01 5.562423e+00 6.542062e+01 4.503262e+01
<GCONST> 9.374675e+01
<STATE> 6
<MEAN> 20
 -7.416362e+00 -1.945015e+00 -1.687200e+01 -1.057578e+01 -8.891011e+00 -1.216607e+01 -1.578633e+01 -1.389637e+01 -4.245996e+00 -1.276770e+01 -1.168958e+01 -1.716383e+01 5.331569e-01 -1.227842e+01 -5.798365e+00 -1.584250e+01 5.404945e+00 -1.082006e+01 1.920547e+00 -1.518917e+01
<VARIANCE> 20
 7.013172e+00 1.059829e+00 6.791181e+01 1.236152e+01 1.898714e+01 5.974401e+00 4.990476e+01 2.923552e+01 1.088886e+01 6.289351e+00 4.294925e+01 6.604850e+01 8.170178e+00 6.089285e+00 3.854003e+01 7.024747e+01 1.270189e+01 5.562423e+00 6.542062e+01 4.503262e+01
<GCONST> 9.374675e+01
<STATE> 7
<MEAN> 20
 -7.416362e+00 -1.945015e+00 -1.687200e+01 -1.057578e+01 -8.891011e+00 -1.216607e+01 -1.578633e+01 -1.389637e+01 -4.245996e+00 -1.276770e+01 -1.168958e+01 -1.716383e+01 5.331569e-01 -1.227842e+01 -5.798365e+00 -1.584250e+01 5.404945e+00 -1.082006e+01 1.920547e+00 -1.518917e+01
<VARIANCE> 20
 7.013172e+00 1.059829e+00 6.791181e+01 1.236152e+01 1.898714e+01 5.974401e+00 4.990476e+01 2.923552e+01 1.088886e+01 6.289351e+00 4.294925e+01 6.604850e+01 8.170178e+00 6.089285e+00 3.854003e+01 7.024747e+01 1.270189e+01 5.562423e+00 6.542062e+01 4.503262e+01
<GCONST> 9.374675e+01
<TRANSP> 8
 0.000000e+00 1.000000e+00 0.000000e+00 0.000000e+00 0.000000e+00 0.000000e+00 0.000000e+00 0.000000e+00
 0.000000e+00 5.000000e-01 5.000000e-01 0.000000e+00 0.000000e+00 0.000000e+00 0.000000e+00 0.000000e+00
 0.000000e+00 0.000000e+00 5.000000e-01 5.000000e-01 0.000000e+00 0.000000e+00 0.000000e+00 0.000000e+00
 0.000000e+00 0.000000e+00 0.000000e+00 5.000000e-01 5.000000e-01 0.000000e+00 0.000000e+00 0.000000e+00
 0.000000e+00 0.000000e+00 0.000000e+00 0.000000e+00 5.000000e-01 5.000000e-01 0.000000e+00 0.000000e+00
 0.000000e+00 0.000000e+00 0.000000e+00 0.000000e+00 0.000000e+00 5.000000e-01 5.000000e-01 0.000000e+00
 0.000000e+00 0.000000e+00 0.000000e+00 0.000000e+00 0.000000e+00 0.000000e+00 5.000000e-01 5.000000e-01
 0.000000e+00 0.000000e+00 0.000000e+00 0.000000e+00 0.000000e+00 0.000000e+00 0.000000e+00 0.000000e+00
<ENDHMM>
