~o
<STREAMINFO> 1 20
<VECSIZE> 20<NULLD><USER><DIAGC>
~h "n"
<BEGINHMM>
<NUMSTATES> 8
<STATE> 2
<MEAN> 20
 -7.290848e+00 -2.102309e+00 -1.332955e+01 -1.174158e+01 -8.480531e+00 -1.219763e+01 -1.503058e+01 -1.401666e+01 -3.793435e+00 -1.236774e+01 -1.114493e+01 -1.248173e+01 9.050774e-01 -1.166385e+01 -6.520598e+00 -8.122914e+00 5.557313e+00 -1.023468e+01 -1.736713e+00 -9.205907e+00
<VARIANCE> 20
 8.485526e+00 1.346707e+00 6.915381e+01 1.303893e+01 2.588597e+01 6.422274e+00 6.441465e+01 3.057758e+01 1.591637e+01 7.054645e+00 5.144765e+01 3.743500e+01 1.259313e+01 7.656887e+00 2.957271e+01 2.155972e+01 1.816153e+01 8.267776e+00 3.135632e+01 3.347173e+01
<GCONST> 9.397534e+01
<STATE> 3
<MEAN> 20
 -7.290848e+00 -2.102309e+00 -1.332955e+01 -1.174158e+01 -8.480531e+00 -1.219763e+01 -1.503058e+01 -1.401666e+01 -3.793435e+00 -1.236774e+01 -1.114493e+01 -1.248173e+01 9.050774e-01 -1.166385e+01 -6.520598e+00 -8.122914e+00 5.557313e+00 -1.023468e+01 -1.736713e+00 -9.205907e+00
<VARIANCE> 20
 8.485526e+00 1.346707e+00 6.915381e+01 1.303893e+01 2.588597e+01 6.422274e+00 6.441465e+01 3.057758e+01 1.591637e+01 7.054645e+00 5.144765e+01 3.743500e+01 1.259313e+01 7.656887e+00 2.957271e+01 2.155972e+01 1.816153e+01 8.267776e+00 3.135632e+01 3.347173e+01
<GCONST> 9.397534e+01
<STATE> 4
<MEAN> 20
 -7.290848e+00 -2.102309e+00 -1.332955e+01 -1.174158e+01 -8.480531e+00 -1.219763e+01 -1.503058e+01 -1.401666e+01 -3.793435e+00 -1.236774e+01 -1.114493e+01 -1.248173e+01 9.050774e-01 -1.166385e+01 -6.520598e+00 -8.122914e+00 5.557313e+00 -1.023468e+01 -1.736713e+00 -9.205907e+00
<VARIANCE> 20
 8.485526e+00 1.346707e+00 6.915381e+01 1.303893e+01 2.588597e+01 6.422274e+00 6.441465e+01 3.057758e+01 1.591637e+01 7.054645e+00 5.144765e+01 3.743500e+01 1.259313e+01 7.656887e+00 2.957271e+01 2.155972e+01 1.816153e+01 8.267776e+00 3.135632e+01 3.347173e+01
<GCONST> 9.397534e+01
<STATE> 5
<MEAN> 20
 -7.290848e+00 -2.102309e+00 -1.332955e+01 -1.174158e+01 -8.480531e+00 -1.219763e+01 -1.503058e+01 -1.401666e+01 -3.793435e+00 -1.236774e+01 -1.114493e+01 -1.248173e+01 9.050774e-01 -1.166385e+01 -6.520598e+00 -8.122914e+00 5.557313e+00 -1.023468e+01 -1.736713e+00 -9.205907e+00
<VARIANCE> 20
 8.485526e+00 1.346707e+00 6.915381e+01 1.303893e+01 2.588597e+01 6.422274e+00 6.441465e+01 3.057758e+01 1.591637e+01 7.054645e+00 5.144765e+01 3.743500e+01 1.259313e+01 7.656887e+00 2.957271e+01 2.155972e+01 1.816153e+01 8.267776e+00 3.135632e+01 3.347173e+01
<GCONST> 9.397534e+01
<STATE> 6
<MEAN> 20
 -7.290848e+00 -2.102309e+00 -1.332955e+01 -1.174158e+01 -8.480531e+00 -1.219763e+01 -1.503058e+01 -1.401666e+01 -3.793435e+00 -1.236774e+01 -1.114493e+01 -1.248173e+01 9.050774e-01 -1.166385e+01 -6.520598e+00 -8.122914e+00 5.557313e+00 -1.023468e+01 -1.736713e+00 -9.205907e+00
<VARIANCE> 20
 8.485526e+00 1.346707e+00 6.915381e+01 1.303893e+01 2.588597e+01 6.422274e+00 6.441465e+01 3.057758e+01 1.591637e+01 7.054645e+00 5.144765e+01 3.743500e+01 1.259313e+01 7.656887e+00 2.957271e+01 2.155972e+01 1.816153e+01 8.267776e+00 3.135632e+01 3.347173e+01
<GCONST> 9.397534e+01
<STATE> 7
<MEAN> 20
 -7.290848e+00 -2.102309e+00 -1.332955e+01 -1.174158e+01 -8.480531e+00 -1.219763e+01 -1.503058e+01 -1.401666e+01 -3.793435e+00 -1.236774e+01 -1.114493e+01 -1.248173e+01 9.050774e-01 -1.166385e+01 -6.520598e+00 -8.122914e+00 5.557313e+00 -1.023468e+01 -1.736713e+00 -9.205907e+00
<VARIANCE> 20
 8.485526e+00 1.346707e+00 6.915381e+01 1.303893e+01 2.588597e+01 6.422274e+00 6.441465e+01 3.057758e+01 1.591637e+01 7.054645e+00 5.144765e+01 3.743500e+01 1.259313e+01 7.656887e+00 2.957271e+01 2.155972e+01 1.816153e+01 8.267776e+00 3.135632e+01 3.347173e+01
<GCONST> 9.397534e+01
<TRANSP> 8
 0.000000e+00 1.000000e+00 0.000000e+00 0.000000e+00 0.000000e+00 0.000000e+00 0.000000e+00 0.000000e+00
 0.000000e+00 5.000000e-01 5.000000e-01 0.000000e+00 0.000000e+00 0.000000e+00 0.000000e+00 0.000000e+00
 0.000000e+00 0.000000e+00 5.000000e-01 5.000000e-01 0.000000e+00 0.000000e+00 0.000000e+00 0.000000e+00
 0.000000e+00 0.000000e+00 0.000000e+00 5.000000e-01 5.000000e-01 0.000000e+00 0.000000e+00 0.000000e+00
 0.000000e+00 0.000000e+00 0.000000e+00 0.000000e+00 5.000000e-01 5.000000e-01 0.000000e+00 0.000000e+00
 0.000000e+00 0.000000e+00 0.000000e+00 0.000000e+00 0.000000e+00 5.000000e-01 5.000000e-01 0.000000e+00
 0.000000e+00 0.000000e+00 0.000000e+00 0.000000e+00 0.000000e+00 0.000000e+00 5.000000e-01 5.000000e-01
 0.000000e+00 0.000000e+00 0.000000e+00 0.000000e+00 0.000000e+00 0.000000e+00 0.000000e+00 0.000000e+00
<ENDHMM>
