~o
<STREAMINFO> 1 20
<VECSIZE> 20<NULLD><USER><DIAGC>
~h "p"
<BEGINHMM>
<NUMSTATES> 8
<STATE> 2
<MEAN> 20
 -7.398611e+00 -1.771338e+00 -1.781665e+01 -8.325895e+00 -1.051865e+01 -1.108988e+01 -1.857179e+01 -1.295162e+01 -5.809840e+00 -1.111167e+01 -1.472689e+01 -8.183762e+00 -1.201008e+00 -9.995595e+00 -8.325706e+00 -5.508851e+00 3.201134e+00 -8.136319e+00 -4.000390e+00 -5.413911e+00
<VARIANCE> 20
 9.041199e+00 1.701579e+00 9.453148e+01 2.718139e+01 3.663342e+01 1.142914e+01 1.254287e+02 5.790331e+01 2.928584e+01 1.316804e+01 1.068334e+02 9.033540e+01 2.665510e+01 1.593733e+01 5.322909e+01 4.227811e+01 3.194555e+01 1.890075e+01 5.357909e+01 4.578197e+01
<GCONST> 1.053785e+02
<STATE> 3
<MEAN> 20
 -7.398611e+00 -1.771338e+00 -1.781665e+01 -8.325895e+00 -1.051865e+01 -1.108988e+01 -1.857179e+01 -1.295162e+01 -5.809840e+00 -1.111167e+01 -1.472689e+01 -8.183762e+00 -1.201008e+00 -9.995595e+00 -8.325706e+00 -5.508851e+00 3.201134e+00 -8.136319e+00 -4.000390e+00 -5.413911e+00
<VARIANCE> 20
 9.041199e+00 1.701579e+00 9.453148e+01 2.718139e+01 3.663342e+01 1.142914e+01 1.254287e+02 5.790331e+01 2.928584e+01 1.316804e+01 1.068334e+02 9.033540e+01 2.665510e+01 1.593733e+01 5.322909e+01 4.227811e+01 3.194555e+01 1.890075e+01 5.357909e+01 4.578197e+01
<GCONST> 1.053785e+02
<STATE> 4
<MEAN> 20
 -7.398611e+00 -1.771338e+00 -1.781665e+01 -8.325895e+00 -1.051865e+01 -1.108988e+01 -1.857179e+01 -1.295162e+01 -5.809840e+00 -1.111167e+01 -1.472689e+01 -8.183762e+00 -1.201008e+00 -9.995595e+00 -8.325706e+00 -5.508851e+00 3.201134e+00 -8.136319e+00 -4.000390e+00 -5.413911e+00
<VARIANCE> 20
 9.041199e+00 1.701579e+00 9.453148e+01 2.718139e+01 3.663342e+01 1.142914e+01 1.254287e+02 5.790331e+01 2.928584e+01 1.316804e+01 1.068334e+02 9.033540e+01 2.665510e+01 1.593733e+01 5.322909e+01 4.227811e+01 3.194555e+01 1.890075e+01 5.357909e+01 4.578197e+01
<GCONST> 1.053785e+02
<STATE> 5
<MEAN> 20
 -7.398611e+00 -1.771338e+00 -1.781665e+01 -8.325895e+00 -1.051865e+01 -1.108988e+01 -1.857179e+01 -1.295162e+01 -5.809840e+00 -1.111167e+01 -1.472689e+01 -8.183762e+00 -1.201008e+00 -9.995595e+00 -8.325706e+00 -5.508851e+00 3.201134e+00 -8.136319e+00 -4.000390e+00 -5.413911e+00
<VARIANCE> 20
 9.041199e+00 1.701579e+00 9.453148e+01 2.718139e+01 3.663342e+01 1.142914e+01 1.254287e+02 5.790331e+01 2.928584e+01 1.316804e+01 1.068334e+02 9.033540e+01 2.665510e+01 1.593733e+01 5.322909e+01 4.227811e+01 3.194555e+01 1.890075e+01 5.357909e+01 4.578197e+01
<GCONST> 1.053785e+02
<STATE> 6
<MEAN> 20
 -7.398611e+00 -1.771338e+00 -1.781665e+01 -8.325895e+00 -1.051865e+01 -1.108988e+01 -1.857179e+01 -1.295162e+01 -5.809840e+00 -1.111167e+01 -1.472689e+01 -8.183762e+00 -1.201008e+00 -9.995595e+00 -8.325706e+00 -5.508851e+00 3.201134e+00 -8.136319e+00 -4.000390e+00 -5.413911e+00
<VARIANCE> 20
 9.041199e+00 1.701579e+00 9.453148e+01 2.718139e+01 3.663342e+01 1.142914e+01 1.254287e+02 5.790331e+01 2.928584e+01 1.316804e+01 1.068334e+02 9.033540e+01 2.665510e+01 1.593733e+01 5.322909e+01 4.227811e+01 3.194555e+01 1.890075e+01 5.357909e+01 4.578197e+01
<GCONST> 1.053785e+02
<STATE> 7
<MEAN> 20
 -7.398611e+00 -1.771338e+00 -1.781665e+01 -8.325895e+00 -1.051865e+01 -1.108988e+01 -1.857179e+01 -1.295162e+01 -5.809840e+00 -1.111167e+01 -1.472689e+01 -8.183762e+00 -1.201008e+00 -9.995595e+00 -8.325706e+00 -5.508851e+00 3.201134e+00 -8.136319e+00 -4.000390e+00 -5.413911e+00
<VARIANCE> 20
 9.041199e+00 1.701579e+00 9.453148e+01 2.718139e+01 3.663342e+01 1.142914e+01 1.254287e+02 5.790331e+01 2.928584e+01 1.316804e+01 1.068334e+02 9.033540e+01 2.665510e+01 1.593733e+01 5.322909e+01 4.227811e+01 3.194555e+01 1.890075e+01 5.357909e+01 4.578197e+01
<GCONST> 1.053785e+02
<TRANSP> 8
 0.000000e+00 1.000000e+00 0.000000e+00 0.000000e+00 0.000000e+00 0.000000e+00 0.000000e+00 0.000000e+00
 0.000000e+00 5.000000e-01 5.000000e-01 0.000000e+00 0.000000e+00 0.000000e+00 0.000000e+00 0.000000e+00
 0.000000e+00 0.000000e+00 5.000000e-01 5.000000e-01 0.000000e+00 0.000000e+00 0.000000e+00 0.000000e+00
 0.000000e+00 0.000000e+00 0.000000e+00 5.000000e-01 5.000000e-01 0.000000e+00 0.000000e+00 0.000000e+00
 0.000000e+00 0.000000e+00 0.000000e+00 0.000000e+00 5.000000e-01 5.000000e-01 0.000000e+00 0.000000e+00
 0.000000e+00 0.000000e+00 0.000000e+00 0.000000e+00 0.000000e+00 5.000000e-01 5.000000e-01 0.000000e+00
 0.000000e+00 0.000000e+00 0.000000e+00 0.000000e+00 0.000000e+00 0.000000e+00 5.000000e-01 5.000000e-01
 0.000000e+00 0.000000e+00 0.000000e+00 0.000000e+00 0.000000e+00 0.000000e+00 0.000000e+00 0.000000e+00
<ENDHMM>
