~o
<STREAMINFO> 1 20
<VECSIZE> 20<NULLD><USER><DIAGC>
~h "sil1"
<BEGINHMM>
<NUMSTATES> 5
<STATE> 2
<MEAN> 20
 -7.301114e+00 -2.150341e+00 -1.465528e+01 -1.056989e+01 -8.565333e+00 -1.248251e+01 -1.486956e+01 -1.363785e+01 -3.653115e+00 -1.230908e+01 -1.041841e+01 -9.892919e+00 9.599121e-01 -1.113847e+01 -5.651507e+00 -7.022606e+00 5.356329e+00 -9.269926e+00 -7.807444e-01 -7.557199e+00
<VARIANCE> 20
 1.219766e+01 2.122216e+00 1.035324e+02 2.691269e+01 3.580655e+01 1.156280e+01 1.015808e+02 6.663325e+01 2.504027e+01 1.391218e+01 7.670114e+01 6.212203e+01 2.643893e+01 1.643134e+01 5.477960e+01 3.794432e+01 4.293622e+01 1.845705e+01 7.398364e+01 4.565278e+01
<GCONST> 1.056255e+02
<STATE> 3
<MEAN> 20
 -7.301114e+00 -2.150341e+00 -1.465528e+01 -1.056989e+01 -8.565333e+00 -1.248251e+01 -1.486956e+01 -1.363785e+01 -3.653115e+00 -1.230908e+01 -1.041841e+01 -9.892919e+00 9.599121e-01 -1.113847e+01 -5.651507e+00 -7.022606e+00 5.356329e+00 -9.269926e+00 -7.807444e-01 -7.557199e+00
<VARIANCE> 20
 1.219766e+01 2.122216e+00 1.035324e+02 2.691269e+01 3.580655e+01 1.156280e+01 1.015808e+02 6.663325e+01 2.504027e+01 1.391218e+01 7.670114e+01 6.212203e+01 2.643893e+01 1.643134e+01 5.477960e+01 3.794432e+01 4.293622e+01 1.845705e+01 7.398364e+01 4.565278e+01
<GCONST> 1.056255e+02
<STATE> 4
<MEAN> 20
 -7.301114e+00 -2.150341e+00 -1.465528e+01 -1.056989e+01 -8.565333e+00 -1.248251e+01 -1.486956e+01 -1.363785e+01 -3.653115e+00 -1.230908e+01 -1.041841e+01 -9.892919e+00 9.599121e-01 -1.113847e+01 -5.651507e+00 -7.022606e+00 5.356329e+00 -9.269926e+00 -7.807444e-01 -7.557199e+00
<VARIANCE> 20
 1.219766e+01 2.122216e+00 1.035324e+02 2.691269e+01 3.580655e+01 1.156280e+01 1.015808e+02 6.663325e+01 2.504027e+01 1.391218e+01 7.670114e+01 6.212203e+01 2.643893e+01 1.643134e+01 5.477960e+01 3.794432e+01 4.293622e+01 1.845705e+01 7.398364e+01 4.565278e+01
<GCONST> 1.056255e+02
<TRANSP> 5
 0.000000e+00 1.000000e+00 0.000000e+00 0.000000e+00 0.000000e+00
 0.000000e+00 3.333000e-01 3.333000e-01 3.334000e-01 0.000000e+00
 0.000000e+00 0.000000e+00 5.000000e-01 5.000000e-01 0.000000e+00
 0.000000e+00 3.334000e-01 0.000000e+00 3.333000e-01 3.333000e-01
 0.000000e+00 0.000000e+00 0.000000e+00 0.000000e+00 0.000000e+00
<ENDHMM>
