~o
<STREAMINFO> 1 20
<VECSIZE> 20<NULLD><USER><DIAGC>
~h "w"
<BEGINHMM>
<NUMSTATES> 8
<STATE> 2
<MEAN> 20
 -6.921401e+00 -1.869388e+00 -1.217365e+01 -1.050516e+01 -8.776030e+00 -1.229768e+01 -1.585834e+01 -1.710333e+01 -3.940027e+00 -1.256819e+01 -9.840848e+00 -1.692498e+01 6.817745e-01 -1.164832e+01 -5.429834e+00 -1.308782e+01 5.087791e+00 -9.805423e+00 -2.836790e+00 -9.227474e+00
<VARIANCE> 20
 9.913740e+00 1.107522e+00 7.230029e+01 1.155620e+01 2.663210e+01 5.517868e+00 7.873862e+01 4.084107e+01 1.392099e+01 6.614778e+00 5.592841e+01 6.913404e+01 1.053870e+01 7.370872e+00 3.970947e+01 5.423738e+01 1.780002e+01 7.934346e+00 3.331129e+01 2.285604e+01
<GCONST> 9.534345e+01
<STATE> 3
<MEAN> 20
 -6.921401e+00 -1.869388e+00 -1.217365e+01 -1.050516e+01 -8.776030e+00 -1.229768e+01 -1.585834e+01 -1.710333e+01 -3.940027e+00 -1.256819e+01 -9.840848e+00 -1.692498e+01 6.817745e-01 -1.164832e+01 -5.429834e+00 -1.308782e+01 5.087791e+00 -9.805423e+00 -2.836790e+00 -9.227474e+00
<VARIANCE> 20
 9.913740e+00 1.107522e+00 7.230029e+01 1.155620e+01 2.663210e+01 5.517868e+00 7.873862e+01 4.084107e+01 1.392099e+01 6.614778e+00 5.592841e+01 6.913404e+01 1.053870e+01 7.370872e+00 3.970947e+01 5.423738e+01 1.780002e+01 7.934346e+00 3.331129e+01 2.285604e+01
<GCONST> 9.534345e+01
<STATE> 4
<MEAN> 20
 -6.921401e+00 -1.869388e+00 -1.217365e+01 -1.050516e+01 -8.776030e+00 -1.229768e+01 -1.585834e+01 -1.710333e+01 -3.940027e+00 -1.256819e+01 -9.840848e+00 -1.692498e+01 6.817745e-01 -1.164832e+01 -5.429834e+00 -1.308782e+01 5.087791e+00 -9.805423e+00 -2.836790e+00 -9.227474e+00
<VARIANCE> 20
 9.913740e+00 1.107522e+00 7.230029e+01 1.155620e+01 2.663210e+01 5.517868e+00 7.873862e+01 4.084107e+01 1.392099e+01 6.614778e+00 5.592841e+01 6.913404e+01 1.053870e+01 7.370872e+00 3.970947e+01 5.423738e+01 1.780002e+01 7.934346e+00 3.331129e+01 2.285604e+01
<GCONST> 9.534345e+01
<STATE> 5
<MEAN> 20
 -6.921401e+00 -1.869388e+00 -1.217365e+01 -1.050516e+01 -8.776030e+00 -1.229768e+01 -1.585834e+01 -1.710333e+01 -3.940027e+00 -1.256819e+01 -9.840848e+00 -1.692498e+01 6.817745e-01 -1.164832e+01 -5.429834e+00 -1.308782e+01 5.087791e+00 -9.805423e+00 -2.836790e+00 -9.227474e+00
<VARIANCE> 20
 9.913740e+00 1.107522e+00 7.230029e+01 1.155620e+01 2.663210e+01 5.517868e+00 7.873862e+01 4.084107e+01 1.392099e+01 6.614778e+00 5.592841e+01 6.913404e+01 1.053870e+01 7.370872e+00 3.970947e+01 5.423738e+01 1.780002e+01 7.934346e+00 3.331129e+01 2.285604e+01
<GCONST> 9.534345e+01
<STATE> 6
<MEAN> 20
 -6.921401e+00 -1.869388e+00 -1.217365e+01 -1.050516e+01 -8.776030e+00 -1.229768e+01 -1.585834e+01 -1.710333e+01 -3.940027e+00 -1.256819e+01 -9.840848e+00 -1.692498e+01 6.817745e-01 -1.164832e+01 -5.429834e+00 -1.308782e+01 5.087791e+00 -9.805423e+00 -2.836790e+00 -9.227474e+00
<VARIANCE> 20
 9.913740e+00 1.107522e+00 7.230029e+01 1.155620e+01 2.663210e+01 5.517868e+00 7.873862e+01 4.084107e+01 1.392099e+01 6.614778e+00 5.592841e+01 6.913404e+01 1.053870e+01 7.370872e+00 3.970947e+01 5.423738e+01 1.780002e+01 7.934346e+00 3.331129e+01 2.285604e+01
<GCONST> 9.534345e+01
<STATE> 7
<MEAN> 20
 -6.921401e+00 -1.869388e+00 -1.217365e+01 -1.050516e+01 -8.776030e+00 -1.229768e+01 -1.585834e+01 -1.710333e+01 -3.940027e+00 -1.256819e+01 -9.840848e+00 -1.692498e+01 6.817745e-01 -1.164832e+01 -5.429834e+00 -1.308782e+01 5.087791e+00 -9.805423e+00 -2.836790e+00 -9.227474e+00
<VARIANCE> 20
 9.913740e+00 1.107522e+00 7.230029e+01 1.155620e+01 2.663210e+01 5.517868e+00 7.873862e+01 4.084107e+01 1.392099e+01 6.614778e+00 5.592841e+01 6.913404e+01 1.053870e+01 7.370872e+00 3.970947e+01 5.423738e+01 1.780002e+01 7.934346e+00 3.331129e+01 2.285604e+01
<GCONST> 9.534345e+01
<TRANSP> 8
 0.000000e+00 1.000000e+00 0.000000e+00 0.000000e+00 0.000000e+00 0.000000e+00 0.000000e+00 0.000000e+00
 0.000000e+00 5.000000e-01 5.000000e-01 0.000000e+00 0.000000e+00 0.000000e+00 0.000000e+00 0.000000e+00
 0.000000e+00 0.000000e+00 5.000000e-01 5.000000e-01 0.000000e+00 0.000000e+00 0.000000e+00 0.000000e+00
 0.000000e+00 0.000000e+00 0.000000e+00 5.000000e-01 5.000000e-01 0.000000e+00 0.000000e+00 0.000000e+00
 0.000000e+00 0.000000e+00 0.000000e+00 0.000000e+00 5.000000e-01 5.000000e-01 0.000000e+00 0.000000e+00
 0.000000e+00 0.000000e+00 0.000000e+00 0.000000e+00 0.000000e+00 5.000000e-01 5.000000e-01 0.000000e+00
 0.000000e+00 0.000000e+00 0.000000e+00 0.000000e+00 0.000000e+00 0.000000e+00 5.000000e-01 5.000000e-01
 0.000000e+00 0.000000e+00 0.000000e+00 0.000000e+00 0.000000e+00 0.000000e+00 0.000000e+00 0.000000e+00
<ENDHMM>
