~o
<STREAMINFO> 1 20
<VECSIZE> 20<NULLD><USER><DIAGC>
~h "x"
<BEGINHMM>
<NUMSTATES> 8
<STATE> 2
<MEAN> 20
 -7.790775e+00 -2.202632e+00 -1.398943e+01 -1.031337e+01 -8.179078e+00 -1.285358e+01 -1.471840e+01 -1.468884e+01 -3.610064e+00 -1.272444e+01 -1.082936e+01 -1.042608e+01 4.305171e-01 -1.166694e+01 -6.601136e+00 -8.804974e+00 4.276038e+00 -9.953975e+00 -2.902470e+00 -8.933033e+00
<VARIANCE> 20
 8.397100e+00 1.527982e+00 6.750077e+01 1.147685e+01 2.451473e+01 6.198511e+00 5.542960e+01 2.302987e+01 1.466734e+01 6.311972e+00 4.285235e+01 3.081894e+01 8.632315e+00 6.981354e+00 2.765352e+01 2.832147e+01 1.142624e+01 8.512909e+00 3.254424e+01 3.306969e+01
<GCONST> 9.217215e+01
<STATE> 3
<MEAN> 20
 -7.790775e+00 -2.202632e+00 -1.398943e+01 -1.031337e+01 -8.179078e+00 -1.285358e+01 -1.471840e+01 -1.468884e+01 -3.610064e+00 -1.272444e+01 -1.082936e+01 -1.042608e+01 4.305171e-01 -1.166694e+01 -6.601136e+00 -8.804974e+00 4.276038e+00 -9.953975e+00 -2.902470e+00 -8.933033e+00
<VARIANCE> 20
 8.397100e+00 1.527982e+00 6.750077e+01 1.147685e+01 2.451473e+01 6.198511e+00 5.542960e+01 2.302987e+01 1.466734e+01 6.311972e+00 4.285235e+01 3.081894e+01 8.632315e+00 6.981354e+00 2.765352e+01 2.832147e+01 1.142624e+01 8.512909e+00 3.254424e+01 3.306969e+01
<GCONST> 9.217215e+01
<STATE> 4
<MEAN> 20
 -7.790775e+00 -2.202632e+00 -1.398943e+01 -1.031337e+01 -8.179078e+00 -1.285358e+01 -1.471840e+01 -1.468884e+01 -3.610064e+00 -1.272444e+01 -1.082936e+01 -1.042608e+01 4.305171e-01 -1.166694e+01 -6.601136e+00 -8.804974e+00 4.276038e+00 -9.953975e+00 -2.902470e+00 -8.933033e+00
<VARIANCE> 20
 8.397100e+00 1.527982e+00 6.750077e+01 1.147685e+01 2.451473e+01 6.198511e+00 5.542960e+01 2.302987e+01 1.466734e+01 6.311972e+00 4.285235e+01 3.081894e+01 8.632315e+00 6.981354e+00 2.765352e+01 2.832147e+01 1.142624e+01 8.512909e+00 3.254424e+01 3.306969e+01
<GCONST> 9.217215e+01
<STATE> 5
<MEAN> 20
 -7.790775e+00 -2.202632e+00 -1.398943e+01 -1.031337e+01 -8.179078e+00 -1.285358e+01 -1.471840e+01 -1.468884e+01 -3.610064e+00 -1.272444e+01 -1.082936e+01 -1.042608e+01 4.305171e-01 -1.166694e+01 -6.601136e+00 -8.804974e+00 4.276038e+00 -9.953975e+00 -2.902470e+00 -8.933033e+00
<VARIANCE> 20
 8.397100e+00 1.527982e+00 6.750077e+01 1.147685e+01 2.451473e+01 6.198511e+00 5.542960e+01 2.302987e+01 1.466734e+01 6.311972e+00 4.285235e+01 3.081894e+01 8.632315e+00 6.981354e+00 2.765352e+01 2.832147e+01 1.142624e+01 8.512909e+00 3.254424e+01 3.306969e+01
<GCONST> 9.217215e+01
<STATE> 6
<MEAN> 20
 -7.790775e+00 -2.202632e+00 -1.398943e+01 -1.031337e+01 -8.179078e+00 -1.285358e+01 -1.471840e+01 -1.468884e+01 -3.610064e+00 -1.272444e+01 -1.082936e+01 -1.042608e+01 4.305171e-01 -1.166694e+01 -6.601136e+00 -8.804974e+00 4.276038e+00 -9.953975e+00 -2.902470e+00 -8.933033e+00
<VARIANCE> 20
 8.397100e+00 1.527982e+00 6.750077e+01 1.147685e+01 2.451473e+01 6.198511e+00 5.542960e+01 2.302987e+01 1.466734e+01 6.311972e+00 4.285235e+01 3.081894e+01 8.632315e+00 6.981354e+00 2.765352e+01 2.832147e+01 1.142624e+01 8.512909e+00 3.254424e+01 3.306969e+01
<GCONST> 9.217215e+01
<STATE> 7
<MEAN> 20
 -7.790775e+00 -2.202632e+00 -1.398943e+01 -1.031337e+01 -8.179078e+00 -1.285358e+01 -1.471840e+01 -1.468884e+01 -3.610064e+00 -1.272444e+01 -1.082936e+01 -1.042608e+01 4.305171e-01 -1.166694e+01 -6.601136e+00 -8.804974e+00 4.276038e+00 -9.953975e+00 -2.902470e+00 -8.933033e+00
<VARIANCE> 20
 8.397100e+00 1.527982e+00 6.750077e+01 1.147685e+01 2.451473e+01 6.198511e+00 5.542960e+01 2.302987e+01 1.466734e+01 6.311972e+00 4.285235e+01 3.081894e+01 8.632315e+00 6.981354e+00 2.765352e+01 2.832147e+01 1.142624e+01 8.512909e+00 3.254424e+01 3.306969e+01
<GCONST> 9.217215e+01
<TRANSP> 8
 0.000000e+00 1.000000e+00 0.000000e+00 0.000000e+00 0.000000e+00 0.000000e+00 0.000000e+00 0.000000e+00
 0.000000e+00 5.000000e-01 5.000000e-01 0.000000e+00 0.000000e+00 0.000000e+00 0.000000e+00 0.000000e+00
 0.000000e+00 0.000000e+00 5.000000e-01 5.000000e-01 0.000000e+00 0.000000e+00 0.000000e+00 0.000000e+00
 0.000000e+00 0.000000e+00 0.000000e+00 5.000000e-01 5.000000e-01 0.000000e+00 0.000000e+00 0.000000e+00
 0.000000e+00 0.000000e+00 0.000000e+00 0.000000e+00 5.000000e-01 5.000000e-01 0.000000e+00 0.000000e+00
 0.000000e+00 0.000000e+00 0.000000e+00 0.000000e+00 0.000000e+00 5.000000e-01 5.000000e-01 0.000000e+00
 0.000000e+00 0.000000e+00 0.000000e+00 0.000000e+00 0.000000e+00 0.000000e+00 5.000000e-01 5.000000e-01
 0.000000e+00 0.000000e+00 0.000000e+00 0.000000e+00 0.000000e+00 0.000000e+00 0.000000e+00 0.000000e+00
<ENDHMM>
