~o
<STREAMINFO> 1 20
<VECSIZE> 20<NULLD><USER><DIAGC>
~h "a"
<BEGINHMM>
<NUMSTATES> 5
<STATE> 2
<NUMMIXES> 4
<MIXTURE> 1 3.781629e-01
<MEAN> 20
 -7.191609e+00 -1.730002e+00 -1.249270e+01 -9.852406e+00 -8.716144e+00 -1.116807e+01 -1.277532e+01 -1.410295e+01 -3.866629e+00 -1.138710e+01 -8.768513e+00 -1.272652e+01 1.064610e+00 -1.079482e+01 -4.388667e+00 -9.358245e+00 6.174377e+00 -9.514517e+00 2.282851e-01 -8.780564e+00
<VARIANCE> 20
 7.823021e-01 5.409349e-01 4.010914e+01 6.061284e+00 2.956042e+00 1.367706e+00 6.178293e+00 2.262876e+01 2.225041e+00 1.154490e+00 5.544709e+00 3.108439e+01 2.257055e+00 9.128651e-01 4.574501e+00 1.627591e+01 2.644174e+00 9.432675e-01 5.133818e+00 1.434492e+01
<GCONST> 6.406760e+01
<MIXTURE> 2 2.260267e-01
<MEAN> 20
 -7.428339e+00 -2.884881e+00 -1.394650e+01 -1.396772e+01 -5.273735e+00 -1.345016e+01 -1.100210e+01 -1.221509e+01 2.859840e-01 -1.317042e+01 -6.421303e+00 -8.493893e+00 5.452519e+00 -1.194293e+01 -2.190582e+00 -6.521988e+00 1.028264e+01 -9.993116e+00 2.776011e+00 -7.484252e+00
<VARIANCE> 20
 1.008210e+00 5.863490e-01 3.615678e+01 6.841825e+00 5.393348e+00 1.887654e+00 7.880061e+00 2.042020e+01 4.072156e+00 1.755046e+00 5.656815e+00 7.219763e+00 2.684557e+00 1.564076e+00 5.005755e+00 3.644073e+00 1.995354e+00 1.588733e+00 9.675139e+00 1.525097e+01
<GCONST> 6.530696e+01
<MIXTURE> 3 1.194571e-01
<MEAN> 20
 -4.633445e+00 -3.355247e+00 -2.019585e+01 -8.593311e+00 -8.544908e+00 -1.086061e+01 -2.556864e+01 -1.196907e+01 -7.021229e+00 -9.364490e+00 -2.334929e+01 -7.318012e+00 -6.058455e+00 -6.911068e+00 -1.366994e+01 -3.077469e+00 -5.567040e+00 -4.108591e+00 -1.213835e+01 -1.745348e+00
<VARIANCE> 20
 2.305243e+01 4.027670e+00 1.590306e+02 2.906667e+01 7.224805e+01 9.660105e+00 2.163225e+02 4.912581e+01 4.834743e+01 9.055990e+00 2.033403e+02 6.137831e+01 3.874866e+01 1.124923e+01 6.749015e+01 2.050017e+01 4.625090e+01 1.475866e+01 6.005361e+01 1.939914e+01
<GCONST> 1.079564e+02
<MIXTURE> 4 2.763532e-01
<MEAN> 20
 -9.289783e+00 -2.086853e+00 -2.206652e+01 -1.202010e+01 -1.185741e+01 -1.389775e+01 -2.113234e+01 -1.748402e+01 -6.736557e+00 -1.434404e+01 -1.755455e+01 -1.650045e+01 -1.590015e+00 -1.366759e+01 -1.213503e+01 -1.332623e+01 3.456530e+00 -1.205071e+01 -6.285642e+00 -1.278733e+01
<VARIANCE> 20
 2.393979e+00 1.638937e+00 5.192551e+01 1.365096e+01 1.996410e+01 3.728754e+00 2.557617e+01 3.908504e+01 1.416808e+01 3.284075e+00 2.951867e+01 5.452990e+01 9.271716e+00 3.147334e+00 3.392722e+01 4.841149e+01 1.000701e+01 3.760747e+00 4.768116e+01 4.195256e+01
<GCONST> 8.913588e+01
<STATE> 3
<NUMMIXES> 4
<MIXTURE> 1 5.674920e-02
<MEAN> 20
 8.093678e+00 -1.765135e+00 1.751082e+01 -1.202349e+01 1.070676e+01 -1.239260e+01 1.570586e+01 -1.449967e+01 5.243545e+00 -1.280875e+01 1.014028e+01 -1.242729e+01 -2.332594e-01 -1.215626e+01 5.032208e+00 -9.057030e+00 -5.708934e+00 -1.070542e+01 7.199108e-01 -8.089458e+00
<VARIANCE> 20
 3.841265e+00 1.228713e+00 7.613182e+01 1.732373e+01 1.795613e+01 6.089684e+00 3.219524e+01 4.454717e+01 1.473236e+01 6.427945e+00 2.051897e+01 5.072895e+01 1.286105e+01 6.654600e+00 1.591149e+01 3.348817e+01 1.328741e+01 7.167166e+00 1.647764e+01 2.760183e+01
<GCONST> 9.035925e+01
<MIXTURE> 2 3.426114e-01
<MEAN> 20
 -8.267941e+00 -2.351251e+00 -1.770696e+01 -1.382270e+01 -9.037424e+00 -1.213546e+01 -1.098562e+01 -8.867889e+00 -3.615556e+00 -1.214793e+01 -6.371413e+00 -7.757776e+00 1.898485e+00 -1.148125e+01 -2.118284e+00 -6.680705e+00 7.632483e+00 -1.019651e+01 2.060542e+00 -6.956055e+00
<VARIANCE> 20
 8.285263e-01 4.463545e-01 1.922461e+01 4.163361e+00 3.181294e+00 1.331842e+00 1.638048e+00 1.915369e+00 2.504898e+00 1.273374e+00 1.180623e+00 1.916994e+00 2.263232e+00 1.050498e+00 1.196165e+00 1.860908e+00 2.185329e+00 8.732455e-01 1.644693e+00 1.197366e+00
<GCONST> 4.769944e+01
<MIXTURE> 3 3.745406e-01
<MEAN> 20
 -8.551558e+00 -1.975600e+00 -1.652187e+01 -1.201093e+01 -1.108964e+01 -1.305665e+01 -1.663584e+01 -1.612772e+01 -5.655049e+00 -1.350234e+01 -1.124006e+01 -1.508322e+01 -7.623845e-02 -1.294247e+01 -5.813470e+00 -1.165569e+01 5.742779e+00 -1.154562e+01 -8.076177e-01 -1.120255e+01
<VARIANCE> 20
 9.905413e-01 7.742404e-01 5.619363e+01 7.638211e+00 5.299334e+00 1.402020e+00 1.397441e+01 3.715395e+01 3.345176e+00 1.186929e+00 9.745233e+00 5.974862e+01 2.546137e+00 9.042636e-01 7.156513e+00 4.086300e+01 2.638896e+00 9.821170e-01 8.650958e+00 2.856441e+01
<GCONST> 7.153207e+01
<MIXTURE> 4 2.260989e-01
<MEAN> 20
 -6.981046e+00 -1.625572e+00 -1.701573e+01 -8.699573e+00 -8.576313e+00 -1.078464e+01 -1.509896e+01 -1.229354e+01 -3.774491e+00 -1.088435e+01 -1.099351e+01 -9.616613e+00 7.896069e-01 -9.992438e+00 -6.181613e+00 -6.817438e+00 5.045412e+00 -8.385267e+00 -1.007925e+00 -6.988900e+00
<VARIANCE> 20
 4.109536e+00 1.777561e+00 5.883996e+01 2.081335e+01 2.133227e+01 8.737300e+00 5.156681e+01 4.315154e+01 1.670920e+01 8.156448e+00 5.522622e+01 4.945309e+01 1.529523e+01 7.796136e+00 3.868058e+01 3.295559e+01 1.895718e+01 8.199368e+00 5.650280e+01 3.386623e+01
<GCONST> 9.615378e+01
<STATE> 4
<NUMMIXES> 4
<MIXTURE> 1 3.537735e-01
<MEAN> 20
 -6.137778e+00 -1.159076e+00 -1.312201e+01 -8.507180e+00 -7.935704e+00 -9.034092e+00 -9.735550e+00 -1.006728e+01 -3.593639e+00 -9.247815e+00 -5.926436e+00 -8.348279e+00 7.606170e-01 -8.873199e+00 -2.239957e+00 -6.400592e+00 5.257261e+00 -8.004910e+00 1.348623e+00 -6.385795e+00
<VARIANCE> 20
 9.171458e-01 3.255001e-01 2.749678e+01 5.674930e+00 2.995961e+00 1.255873e+00 4.094413e+00 1.429311e+01 1.776430e+00 1.161502e+00 2.371523e+00 1.426726e+01 1.465387e+00 9.928023e-01 1.546032e+00 7.508793e+00 1.915736e+00 8.880256e-01 2.231327e+00 5.328981e+00
<GCONST> 5.607286e+01
<MIXTURE> 2 3.497059e-01
<MEAN> 20
 -7.956094e+00 -2.548104e+00 -1.397196e+01 -1.321101e+01 -7.768876e+00 -1.341024e+01 -1.315622e+01 -1.625561e+01 -2.191585e+00 -1.343984e+01 -8.196149e+00 -1.378610e+01 3.289218e+00 -1.244523e+01 -3.959461e+00 -9.158087e+00 8.682944e+00 -1.060927e+01 3.239487e-01 -8.095444e+00
<VARIANCE> 20
 7.871704e-01 6.112987e-01 4.224031e+01 6.694819e+00 3.667970e+00 1.450520e+00 1.015233e+01 3.891188e+01 3.140739e+00 1.296010e+00 1.154453e+01 5.571485e+01 2.920487e+00 1.031223e+00 7.587895e+00 2.325589e+01 2.898728e+00 1.038244e+00 7.923288e+00 1.028446e+01
<GCONST> 6.896939e+01
<MIXTURE> 3 5.895589e-02
<MEAN> 20
 -3.766029e+00 -2.091377e+00 -1.202867e+01 -7.079395e+00 -5.371139e+00 -9.851647e+00 -1.319699e+01 -9.770060e+00 -3.555778e+00 -9.365421e+00 -1.161386e+01 -6.600663e+00 -1.973621e+00 -7.822180e+00 -7.191140e+00 -4.240339e+00 -7.202036e-01 -5.686201e+00 -4.914854e+00 -3.322019e+00
<VARIANCE> 20
 5.454169e+01 3.440730e+00 4.310303e+02 4.794664e+01 1.915138e+02 2.270712e+01 5.095248e+02 1.001061e+02 1.228900e+02 2.809655e+01 3.579861e+02 1.333755e+02 8.214757e+01 3.346883e+01 1.780195e+02 9.639907e+01 7.438287e+01 3.669549e+01 1.416111e+02 7.652699e+01
<GCONST> 1.249385e+02
<MIXTURE> 4 2.375647e-01
<MEAN> 20
 -1.043097e+01 -2.328343e+00 -2.346358e+01 -1.603425e+01 -1.363729e+01 -1.588988e+01 -1.984713e+01 -1.547009e+01 -7.017059e+00 -1.640703e+01 -1.348225e+01 -1.243260e+01 -3.124371e-01 -1.571992e+01 -6.908897e+00 -9.050128e+00 6.421769e+00 -1.410363e+01 -1.274226e+00 -1.052078e+01
<VARIANCE> 20
 2.075182e+00 1.545994e+00 5.177800e+01 1.560806e+01 9.917678e+00 5.659994e+00 2.095277e+01 5.101723e+01 8.173278e+00 5.135549e+00 1.962925e+01 5.332664e+01 7.775017e+00 4.225929e+00 1.296594e+01 2.381649e+01 8.934680e+00 3.665254e+00 1.639872e+01 3.232440e+01
<GCONST> 8.529742e+01
<TRANSP> 5
 0.000000e+00 1.000000e+00 0.000000e+00 0.000000e+00 0.000000e+00
 0.000000e+00 7.404054e-01 2.595946e-01 0.000000e+00 0.000000e+00
 0.000000e+00 0.000000e+00 7.120287e-01 2.879712e-01 0.000000e+00
 0.000000e+00 0.000000e+00 0.000000e+00 7.168694e-01 2.831307e-01
 0.000000e+00 0.000000e+00 0.000000e+00 0.000000e+00 0.000000e+00
<ENDHMM>
