~o
<STREAMINFO> 1 20
<VECSIZE> 20<NULLD><USER><DIAGC>
~h "a"
<BEGINHMM>
<NUMSTATES> 8
<STATE> 2
<MEAN> 20
 -7.375252e+00 -2.079508e+00 -1.554281e+01 -1.128988e+01 -8.880635e+00 -1.229619e+01 -1.468383e+01 -1.391106e+01 -4.117083e+00 -1.239176e+01 -1.047788e+01 -1.185316e+01 5.675801e-01 -1.154276e+01 -5.651421e+00 -8.923475e+00 5.209057e+00 -9.960559e+00 -1.166978e+00 -8.683354e+00
<VARIANCE> 20
 1.040847e+01 1.505802e+00 9.357660e+01 1.742894e+01 2.770019e+01 6.902281e+00 7.495302e+01 4.013925e+01 1.708147e+01 7.468597e+00 6.184849e+01 5.102957e+01 1.490164e+01 8.223594e+00 3.340469e+01 3.342247e+01 2.335040e+01 9.185552e+00 3.744606e+01 3.045750e+01
<GCONST> 9.730858e+01
<STATE> 3
<NUMMIXES> 4
<MIXTURE> 1 2.584490e-01
<MEAN> 20
 -7.799381e+00 -2.809728e+00 -1.343232e+01 -1.376119e+01 -6.371427e+00 -1.397351e+01 -1.186933e+01 -1.578872e+01 -6.750174e-01 -1.385088e+01 -6.899289e+00 -1.362528e+01 4.713888e+00 -1.265463e+01 -2.835704e+00 -9.641819e+00 9.826634e+00 -1.061325e+01 1.936113e+00 -9.236932e+00
<VARIANCE> 20
 8.888090e-01 5.391495e-01 3.946185e+01 6.745090e+00 4.170103e+00 1.336120e+00 1.036077e+01 4.271492e+01 3.475278e+00 1.219083e+00 1.051087e+01 6.097835e+01 2.895481e+00 1.032639e+00 8.881559e+00 3.116993e+01 2.636206e+00 1.052992e+00 1.733674e+01 2.134869e+01
<GCONST> 7.097652e+01
<MIXTURE> 2 3.404501e-01
<MEAN> 20
 -7.041953e+00 -1.522010e+00 -1.319349e+01 -9.334712e+00 -8.942337e+00 -1.073731e+01 -1.235471e+01 -1.320474e+01 -4.158382e+00 -1.099712e+01 -8.351270e+00 -1.204534e+01 6.971389e-01 -1.047620e+01 -3.966677e+00 -9.105481e+00 5.734631e+00 -9.302085e+00 5.891777e-01 -8.883935e+00
<VARIANCE> 20
 9.549742e-01 4.936324e-01 3.861134e+01 6.816039e+00 3.234960e+00 1.350194e+00 7.208842e+00 2.165832e+01 2.231712e+00 1.177506e+00 5.493105e+00 2.929403e+01 2.106194e+00 9.968554e-01 4.587235e+00 1.549507e+01 2.485406e+00 1.095226e+00 5.693290e+00 1.597245e+01
<GCONST> 6.466742e+01
<MIXTURE> 3 1.209843e-01
<MEAN> 20
 -4.261103e+00 -2.860889e+00 -1.828456e+01 -7.508922e+00 -8.595051e+00 -1.014936e+01 -2.301023e+01 -1.027635e+01 -7.049930e+00 -8.963721e+00 -2.049888e+01 -5.944030e+00 -5.811789e+00 -6.826369e+00 -1.173412e+01 -2.651382e+00 -4.910150e+00 -4.289206e+00 -1.004495e+01 -1.591595e+00
<VARIANCE> 20
 2.967727e+01 4.612779e+00 2.222509e+02 3.862839e+01 9.018912e+01 1.342662e+01 2.827732e+02 6.103374e+01 5.425536e+01 1.304516e+01 2.431194e+02 6.799721e+01 4.002883e+01 1.558165e+01 7.896961e+01 2.821107e+01 5.023081e+01 1.947390e+01 6.844061e+01 2.641784e+01
<GCONST> 1.123951e+02
<MIXTURE> 4 2.801165e-01
<MEAN> 20
 -9.324511e+00 -1.965161e+00 -2.003236e+01 -1.262702e+01 -1.261039e+01 -1.394812e+01 -1.979689e+01 -1.709369e+01 -7.053638e+00 -1.453168e+01 -1.481941e+01 -1.658850e+01 -1.306438e+00 -1.399545e+01 -8.945850e+00 -1.345514e+01 4.612777e+00 -1.252946e+01 -2.857681e+00 -1.337232e+01
<VARIANCE> 20
 1.930419e+00 1.126464e+00 6.013655e+01 1.255354e+01 9.455005e+00 3.142843e+00 1.868983e+01 4.291714e+01 6.031103e+00 2.817981e+00 2.006212e+01 6.637244e+01 4.491935e+00 2.471598e+00 1.970823e+01 5.394067e+01 5.728984e+00 2.572170e+00 2.857700e+01 4.213839e+01
<GCONST> 8.342687e+01
<STATE> 4
<NUMMIXES> 4
<MIXTURE> 1 7.133763e-02
<MEAN> 20
 7.880736e+00 -1.934019e+00 1.807093e+01 -1.137886e+01 1.144872e+01 -1.180788e+01 1.662795e+01 -1.358707e+01 6.486764e+00 -1.199552e+01 1.122444e+01 -1.169641e+01 1.420683e+00 -1.117699e+01 6.278519e+00 -8.584230e+00 -3.724692e+00 -9.627362e+00 2.219266e+00 -7.213355e+00
<VARIANCE> 20
 5.403236e+00 1.523294e+00 7.764622e+01 1.994334e+01 2.380628e+01 1.103246e+01 4.584982e+01 5.401580e+01 2.794290e+01 1.527728e+01 3.345925e+01 6.439064e+01 3.606430e+01 1.851126e+01 3.193715e+01 4.639482e+01 4.805825e+01 2.047775e+01 3.543154e+01 3.340515e+01
<GCONST> 1.011004e+02
<MIXTURE> 2 2.826513e-01
<MEAN> 20
 -6.986318e+00 -1.417167e+00 -1.561338e+01 -9.993640e+00 -8.851822e+00 -9.962504e+00 -1.055330e+01 -9.552352e+00 -4.036280e+00 -1.010541e+01 -6.276395e+00 -7.528068e+00 8.239021e-01 -9.661677e+00 -2.308335e+00 -6.117645e+00 5.897053e+00 -8.712058e+00 1.582261e+00 -6.312696e+00
<VARIANCE> 20
 9.135230e-01 4.020553e-01 2.804499e+01 5.767016e+00 2.896207e+00 7.588820e-01 2.785608e+00 1.102713e+01 1.988376e+00 6.347845e-01 1.566971e+00 5.990140e+00 1.646063e+00 5.355793e-01 1.354770e+00 3.603484e+00 1.700117e+00 5.661590e-01 1.436341e+00 2.393171e+00
<GCONST> 5.018237e+01
<MIXTURE> 3 3.458533e-01
<MEAN> 20
 -8.678600e+00 -2.366865e+00 -1.798219e+01 -1.379142e+01 -9.836636e+00 -1.338653e+01 -1.400579e+01 -1.289073e+01 -4.036205e+00 -1.353207e+01 -8.467203e+00 -9.429523e+00 1.759469e+00 -1.277511e+01 -3.630650e+00 -7.397858e+00 7.671390e+00 -1.128576e+01 9.027404e-01 -7.674250e+00
<VARIANCE> 20
 1.141703e+00 7.995354e-01 5.068892e+01 7.205529e+00 7.871806e+00 1.358675e+00 8.158129e+00 2.744223e+01 6.381455e+00 1.170467e+00 3.518461e+00 1.732466e+01 5.236750e+00 9.702237e-01 2.819520e+00 6.139231e+00 4.250822e+00 1.073377e+00 3.392877e+00 4.660377e+00
<GCONST> 6.522418e+01
<MIXTURE> 4 3.001578e-01
<MEAN> 20
 -7.843511e+00 -2.169842e+00 -1.919682e+01 -1.033265e+01 -9.350032e+00 -1.255345e+01 -1.903044e+01 -1.604962e+01 -4.630551e+00 -1.259913e+01 -1.519483e+01 -1.356984e+01 -1.927169e-01 -1.152640e+01 -9.592344e+00 -9.745427e+00 3.899999e+00 -9.640209e+00 -4.762133e+00 -9.147627e+00
<VARIANCE> 20
 4.390833e+00 2.625714e+00 5.371601e+01 2.198872e+01 2.485277e+01 8.560992e+00 4.460830e+01 4.366378e+01 1.805888e+01 8.205067e+00 5.290896e+01 6.289822e+01 1.447138e+01 8.941927e+00 3.711877e+01 4.933059e+01 1.953297e+01 1.051637e+01 5.198854e+01 4.499712e+01
<GCONST> 9.777802e+01
<STATE> 5
<NUMMIXES> 4
<MIXTURE> 1 1.661961e-01
<MEAN> 20
 -5.158766e+00 -1.659408e+00 -1.097222e+01 -9.317405e+00 -5.233491e+00 -1.012793e+01 -8.400984e+00 -1.085048e+01 -1.344979e+00 -1.015244e+01 -5.144012e+00 -8.464440e+00 2.299413e+00 -9.386377e+00 -1.930188e+00 -6.117169e+00 5.755678e+00 -8.034761e+00 1.872953e+00 -6.455396e+00
<VARIANCE> 20
 1.571179e+01 1.186872e+00 1.076849e+02 1.380880e+01 3.655541e+01 5.838622e+00 6.855740e+01 2.854374e+01 1.680534e+01 5.340898e+00 3.463215e+01 2.722254e+01 1.160011e+01 4.608099e+00 1.310954e+01 1.524720e+01 2.022041e+01 4.401200e+00 1.963208e+01 1.700866e+01
<GCONST> 9.085217e+01
<MIXTURE> 2 3.099424e-01
<MEAN> 20
 -8.299488e+00 -2.572778e+00 -1.746872e+01 -1.437185e+01 -8.586079e+00 -1.249664e+01 -1.079181e+01 -8.947956e+00 -3.113979e+00 -1.245278e+01 -6.225463e+00 -7.888564e+00 2.443354e+00 -1.171072e+01 -1.993353e+00 -6.752171e+00 8.184240e+00 -1.032433e+01 2.215020e+00 -7.007279e+00
<VARIANCE> 20
 6.744504e-01 3.535062e-01 1.626091e+01 3.344444e+00 3.078542e+00 1.098089e+00 1.333903e+00 1.402460e+00 2.722029e+00 1.017889e+00 1.089137e+00 1.568979e+00 2.520519e+00 7.987746e-01 1.242271e+00 1.656677e+00 2.239580e+00 6.615394e-01 1.838491e+00 1.127070e+00
<GCONST> 4.526239e+01
<MIXTURE> 3 1.716622e-01
<MEAN> 20
 -9.852251e+00 -2.051948e+00 -2.503082e+01 -1.236792e+01 -1.360080e+01 -1.425480e+01 -2.411007e+01 -1.701211e+01 -8.285924e+00 -1.469362e+01 -2.019264e+01 -1.512094e+01 -2.954780e+00 -1.395441e+01 -1.383161e+01 -1.126769e+01 2.221685e+00 -1.227930e+01 -8.054739e+00 -1.155143e+01
<VARIANCE> 20
 4.615603e+00 1.968201e+00 5.403588e+01 2.190580e+01 2.212644e+01 7.315631e+00 3.073209e+01 4.681532e+01 1.581904e+01 7.853070e+00 4.369427e+01 6.566655e+01 1.329396e+01 9.125426e+00 4.098343e+01 5.396448e+01 2.046482e+01 1.107061e+01 5.233028e+01 5.880327e+01
<GCONST> 9.713738e+01
<MIXTURE> 4 3.521993e-01
<MEAN> 20
 -7.915529e+00 -2.183613e+00 -1.335474e+01 -1.137888e+01 -9.215696e+00 -1.274056e+01 -1.534088e+01 -1.677283e+01 -4.162371e+00 -1.303153e+01 -1.101412e+01 -1.606281e+01 1.014559e+00 -1.234670e+01 -6.165839e+00 -1.182376e+01 6.353004e+00 -1.082463e+01 -1.354497e+00 -1.073718e+01
<VARIANCE> 20
 5.778261e-01 5.618262e-01 4.441993e+01 4.938923e+00 3.202357e+00 1.006441e+00 1.047078e+01 2.841367e+01 2.327305e+00 8.755488e-01 9.297356e+00 4.674051e+01 2.289469e+00 6.692715e-01 8.401248e+00 2.921686e+01 2.704947e+00 8.077286e-01 9.678596e+00 2.175654e+01
<GCONST> 6.673652e+01
<STATE> 6
<NUMMIXES> 4
<MIXTURE> 1 2.483573e-01
<MEAN> 20
 -5.716859e+00 -1.038818e+00 -1.183372e+01 -7.758164e+00 -7.461695e+00 -8.504547e+00 -9.292110e+00 -1.004324e+01 -3.413571e+00 -8.752077e+00 -5.762509e+00 -8.678162e+00 6.423281e-01 -8.428614e+00 -2.272531e+00 -6.698793e+00 4.823246e+00 -7.623982e+00 1.112308e+00 -6.560851e+00
<VARIANCE> 20
 7.472575e-01 2.615346e-01 2.355013e+01 5.040466e+00 2.676088e+00 1.114535e+00 3.931714e+00 1.379640e+01 1.540131e+00 1.086539e+00 2.915384e+00 1.634848e+01 1.218295e+00 9.810235e-01 1.841187e+00 9.802051e+00 1.598062e+00 9.024442e-01 2.889663e+00 7.055926e+00
<GCONST> 5.581936e+01
<MIXTURE> 2 3.702052e-01
<MEAN> 20
 -7.429203e+00 -2.399673e+00 -1.322866e+01 -1.258687e+01 -6.996955e+00 -1.232701e+01 -1.197155e+01 -1.306230e+01 -1.731055e+00 -1.227579e+01 -7.471541e+00 -1.024639e+01 3.446566e+00 -1.136093e+01 -3.239194e+00 -7.102188e+00 8.594341e+00 -9.726856e+00 1.287431e+00 -6.789951e+00
<VARIANCE> 20
 7.593067e-01 4.814410e-01 3.922631e+01 5.454579e+00 5.668402e+00 1.183722e+00 6.664725e+00 2.376772e+01 5.289145e+00 9.477042e-01 7.245937e+00 2.236471e+01 4.504578e+00 7.379578e-01 5.302482e+00 6.553845e+00 3.419781e+00 8.472759e-01 5.162344e+00 4.899975e+00
<GCONST> 6.382954e+01
<MIXTURE> 3 9.438128e-02
<MEAN> 20
 -5.009228e+00 -2.545216e+00 -1.812026e+01 -8.642329e+00 -8.405065e+00 -1.116669e+01 -2.080463e+01 -1.252914e+01 -6.466996e+00 -1.050498e+01 -1.943753e+01 -8.631171e+00 -4.889202e+00 -8.772440e+00 -1.292615e+01 -4.974309e+00 -3.702173e+00 -6.470685e+00 -1.029323e+01 -4.292818e+00
<VARIANCE> 20
 3.928269e+01 3.595685e+00 2.558293e+02 3.265830e+01 1.094553e+02 1.154376e+01 3.152757e+02 6.768167e+01 6.400771e+01 1.422214e+01 2.523014e+02 9.520984e+01 4.524350e+01 1.999351e+01 1.117799e+02 5.854729e+01 5.532890e+01 2.595357e+01 1.001794e+02 5.851154e+01
<GCONST> 1.162887e+02
<MIXTURE> 4 2.870562e-01
<MEAN> 20
 -9.920730e+00 -2.347162e+00 -2.198077e+01 -1.542600e+01 -1.259985e+01 -1.537518e+01 -1.862024e+01 -1.568643e+01 -6.204171e+00 -1.582040e+01 -1.241207e+01 -1.289654e+01 2.474400e-01 -1.508254e+01 -6.231977e+00 -9.373064e+00 6.718703e+00 -1.342444e+01 -9.474273e-01 -9.894389e+00
<VARIANCE> 20
 2.247277e+00 1.400244e+00 5.692764e+01 1.556302e+01 9.545730e+00 5.617769e+00 1.794768e+01 4.931602e+01 7.456837e+00 5.171660e+00 1.510314e+01 5.560789e+01 6.907664e+00 4.279920e+00 1.014334e+01 2.740029e+01 7.772719e+00 3.721274e+00 1.294556e+01 2.253305e+01
<GCONST> 8.389823e+01
<STATE> 7
<MEAN> 20
 -7.469866e+00 -2.052687e+00 -1.620860e+01 -1.183828e+01 -8.737832e+00 -1.225270e+01 -1.370744e+01 -1.326612e+01 -3.800390e+00 -1.237249e+01 -9.462040e+00 -1.100891e+01 1.078003e+00 -1.156545e+01 -4.788503e+00 -7.966115e+00 5.925939e+00 -1.002923e+01 -4.202263e-01 -8.034678e+00
<VARIANCE> 20
 9.854406e+00 1.334401e+00 8.213113e+01 1.706915e+01 2.649514e+01 7.021387e+00 6.558510e+01 4.061013e+01 1.544293e+01 7.493374e+00 5.089479e+01 4.882866e+01 1.242916e+01 7.781946e+00 2.713555e+01 2.697787e+01 1.882511e+01 8.102118e+00 2.912087e+01 2.633647e+01
<GCONST> 9.509950e+01
<TRANSP> 8
 0.000000e+00 1.000000e+00 0.000000e+00 0.000000e+00 0.000000e+00 0.000000e+00 0.000000e+00 0.000000e+00
 0.000000e+00 3.759371e-02 9.624063e-01 0.000000e+00 0.000000e+00 0.000000e+00 0.000000e+00 0.000000e+00
 0.000000e+00 0.000000e+00 5.771657e-01 4.228343e-01 0.000000e+00 0.000000e+00 0.000000e+00 0.000000e+00
 0.000000e+00 0.000000e+00 0.000000e+00 4.844960e-01 5.155039e-01 0.000000e+00 0.000000e+00 0.000000e+00
 0.000000e+00 0.000000e+00 0.000000e+00 0.000000e+00 5.573534e-01 4.426466e-01 0.000000e+00 0.000000e+00
 0.000000e+00 0.000000e+00 0.000000e+00 0.000000e+00 0.000000e+00 5.438793e-01 4.561207e-01 0.000000e+00
 0.000000e+00 0.000000e+00 0.000000e+00 0.000000e+00 0.000000e+00 0.000000e+00 5.768986e-02 9.423102e-01
 0.000000e+00 0.000000e+00 0.000000e+00 0.000000e+00 0.000000e+00 0.000000e+00 0.000000e+00 0.000000e+00
<ENDHMM>
