~o
<STREAMINFO> 1 20
<VECSIZE> 20<NULLD><USER><DIAGC>
~h "c"
<BEGINHMM>
<NUMSTATES> 5
<STATE> 2
<NUMMIXES> 4
<MIXTURE> 1 3.068408e-01
<MEAN> 20
 -5.733711e+00 -9.082579e-01 -1.237258e+01 -7.130777e+00 -7.771860e+00 -8.841342e+00 -9.751342e+00 -1.074944e+01 -3.658319e+00 -9.094121e+00 -6.248602e+00 -9.613071e+00 4.878291e-01 -8.802081e+00 -2.581704e+00 -8.090877e+00 4.797198e+00 -8.007565e+00 1.262976e+00 -8.433322e+00
<VARIANCE> 20
 6.801127e-01 2.687629e-01 1.979399e+01 5.884577e+00 2.419090e+00 1.155831e+00 3.699715e+00 1.167753e+01 1.252841e+00 1.133113e+00 2.579976e+00 1.276200e+01 9.117109e-01 1.053430e+00 1.871053e+00 9.826939e+00 1.239880e+00 1.015798e+00 2.597700e+00 1.096071e+01
<GCONST> 5.490548e+01
<MIXTURE> 2 3.280046e-01
<MEAN> 20
 -7.907295e+00 -2.424942e+00 -1.482820e+01 -1.294361e+01 -7.876478e+00 -1.305672e+01 -1.220982e+01 -1.366636e+01 -2.392971e+00 -1.306667e+01 -7.710633e+00 -1.084213e+01 3.023610e+00 -1.217719e+01 -3.504147e+00 -7.262401e+00 8.391425e+00 -1.055444e+01 1.488607e+00 -8.972923e+00
<VARIANCE> 20
 9.383348e-01 4.623367e-01 4.082170e+01 6.501342e+00 4.207747e+00 1.331068e+00 6.268312e+00 3.888931e+01 3.540418e+00 1.268318e+00 3.854656e+00 4.013009e+01 3.070877e+00 1.012672e+00 3.530664e+00 6.728611e+00 2.589195e+00 1.065017e+00 5.722198e+00 2.380458e+01
<GCONST> 6.549712e+01
<MIXTURE> 3 8.325754e-02
<MEAN> 20
 -5.053421e+00 -2.667348e+00 -2.054313e+01 -7.114589e+00 -9.681255e+00 -1.071028e+01 -2.485951e+01 -1.240656e+01 -7.883559e+00 -9.599978e+00 -2.500636e+01 -8.900086e+00 -6.465271e+00 -7.508533e+00 -1.576163e+01 -4.649792e+00 -5.417686e+00 -4.936702e+00 -1.342782e+01 -3.828559e+00
<VARIANCE> 20
 3.297120e+01 4.026296e+00 2.469212e+02 1.710844e+01 9.026114e+01 8.987205e+00 3.074044e+02 4.427816e+01 5.690044e+01 1.320407e+01 3.185370e+02 6.278925e+01 4.464462e+01 2.071413e+01 1.404995e+02 4.968283e+01 5.225334e+01 2.855463e+01 1.101312e+02 6.384002e+01
<GCONST> 1.145836e+02
<MIXTURE> 4 2.818970e-01
<MEAN> 20
 -9.179564e+00 -2.274649e+00 -2.089014e+01 -1.215538e+01 -1.023631e+01 -1.452544e+01 -1.829116e+01 -1.753899e+01 -4.796737e+00 -1.475235e+01 -1.402207e+01 -1.627344e+01 5.710240e-01 -1.388389e+01 -8.822457e+00 -1.364067e+01 5.843927e+00 -1.210104e+01 -1.858117e+00 -1.391076e+01
<VARIANCE> 20
 1.975703e+00 1.197314e+00 5.853480e+01 1.323660e+01 1.040134e+01 4.767110e+00 1.392300e+01 3.565360e+01 7.534928e+00 4.468138e+00 1.663660e+01 5.092102e+01 7.530586e+00 3.832024e+00 2.210644e+01 5.036820e+01 1.171936e+01 3.566868e+00 4.908461e+01 4.638689e+01
<GCONST> 8.648170e+01
<STATE> 3
<NUMMIXES> 4
<MIXTURE> 1 1.282591e-01
<MEAN> 20
 -5.586915e+00 -1.404146e+00 -1.300909e+01 -8.149006e+00 -6.083184e+00 -1.042801e+01 -9.979899e+00 -1.154101e+01 -1.747297e+00 -1.048532e+01 -6.577521e+00 -8.582447e+00 2.315852e+00 -9.610765e+00 -2.873569e+00 -6.462305e+00 6.078924e+00 -8.074962e+00 1.472389e+00 -7.100916e+00
<VARIANCE> 20
 1.794884e+01 1.203531e+00 1.433769e+02 1.854014e+01 4.400001e+01 8.041684e+00 9.455769e+01 3.829428e+01 2.140885e+01 8.020256e+00 6.803632e+01 4.192966e+01 1.296959e+01 7.375618e+00 3.213345e+01 2.794205e+01 1.788805e+01 7.167179e+00 2.929258e+01 3.561190e+01
<GCONST> 9.804536e+01
<MIXTURE> 2 4.160311e-01
<MEAN> 20
 -7.674104e+00 -1.697637e+00 -1.666803e+01 -9.813603e+00 -9.920890e+00 -1.156030e+01 -1.558547e+01 -1.350729e+01 -5.389398e+00 -1.183358e+01 -1.191701e+01 -1.287521e+01 -6.128922e-01 -1.141991e+01 -7.693208e+00 -1.074418e+01 4.451741e+00 -1.036064e+01 -2.785318e+00 -1.269033e+01
<VARIANCE> 20
 5.656313e-01 5.586674e-01 3.186123e+01 5.679242e+00 2.827204e+00 1.077224e+00 6.865435e+00 2.024832e+01 1.920224e+00 8.441930e-01 9.536824e+00 2.555780e+01 1.852405e+00 6.602570e-01 9.389482e+00 1.661541e+01 2.560214e+00 8.214467e-01 1.067710e+01 2.203933e+01
<GCONST> 6.428676e+01
<MIXTURE> 3 1.779520e-01
<MEAN> 20
 -8.740845e+00 -2.087931e+00 -2.685879e+01 -8.181365e+00 -1.149568e+01 -1.287037e+01 -2.576568e+01 -1.752939e+01 -8.106629e+00 -1.280386e+01 -2.504295e+01 -1.634987e+01 -5.011584e+00 -1.178002e+01 -2.012940e+01 -1.304694e+01 -2.358262e+00 -9.928455e+00 -1.528620e+01 -1.245603e+01
<VARIANCE> 20
 5.898463e+00 2.841733e+00 2.607554e+01 1.484154e+01 2.531397e+01 3.223596e+00 2.438645e+01 1.709325e+01 1.798190e+01 3.215009e+00 3.021747e+01 2.294965e+01 1.199976e+01 5.498818e+00 1.561919e+01 3.601932e+01 1.600488e+01 9.326490e+00 2.248222e+01 4.650468e+01
<GCONST> 8.904857e+01
<MIXTURE> 4 2.777579e-01
<MEAN> 20
 -9.473270e+00 -1.363762e+00 -2.368757e+01 -1.033573e+01 -1.386917e+01 -1.365498e+01 -1.999491e+01 -1.807787e+01 -8.482045e+00 -1.432508e+01 -1.572254e+01 -1.726503e+01 -2.777181e+00 -1.397338e+01 -1.036847e+01 -1.469645e+01 3.285915e+00 -1.273745e+01 -3.915023e+00 -1.543086e+01
<VARIANCE> 20
 1.181325e+00 9.496009e-01 6.863434e+01 1.187713e+01 4.665569e+00 2.489552e+00 9.278459e+00 4.122788e+01 3.443382e+00 2.113894e+00 1.144057e+01 5.274449e+01 3.486128e+00 1.511467e+00 1.218734e+01 3.941322e+01 4.610152e+00 1.280110e+00 1.318173e+01 3.915651e+01
<GCONST> 7.622059e+01
<STATE> 4
<NUMMIXES> 4
<MIXTURE> 1 8.948176e-02
<MEAN> 20
 5.965064e+00 -1.932630e+00 1.507765e+01 -7.936276e+00 9.468755e+00 -1.096594e+01 1.081364e+01 -1.303111e+01 6.056099e+00 -1.064606e+01 7.547913e+00 -1.216272e+01 2.325228e+00 -9.404951e+00 5.791722e+00 -9.497540e+00 -1.594633e+00 -7.533178e+00 1.785083e+00 -8.738832e+00
<VARIANCE> 20
 2.552617e+01 3.090610e+00 3.069104e+02 3.257355e+01 7.887096e+01 1.977133e+01 3.399240e+02 8.584029e+01 6.256293e+01 2.581164e+01 3.405381e+02 1.022632e+02 6.149456e+01 3.250519e+01 1.564560e+02 9.894339e+01 7.132442e+01 3.759292e+01 1.278818e+02 9.333987e+01
<GCONST> 1.203431e+02
<MIXTURE> 2 3.875082e-01
<MEAN> 20
 -6.802105e+00 -1.612617e+00 -1.567068e+01 -9.070841e+00 -7.986162e+00 -1.093464e+01 -1.331118e+01 -1.350642e+01 -3.402651e+00 -1.105571e+01 -9.681210e+00 -1.206337e+01 1.194545e+00 -1.038309e+01 -5.659717e+00 -9.589933e+00 5.772103e+00 -9.030110e+00 -3.612011e-01 -1.030045e+01
<VARIANCE> 20
 1.034926e+00 7.003765e-01 3.207581e+01 9.656521e+00 4.907133e+00 2.704048e+00 1.086839e+01 2.349904e+01 3.704332e+00 2.298938e+00 1.406737e+01 2.884092e+01 3.605189e+00 1.767604e+00 1.402778e+01 2.076369e+01 4.596493e+00 1.689137e+00 2.215877e+01 2.250996e+01
<GCONST> 7.423528e+01
<MIXTURE> 3 3.215927e-01
<MEAN> 20
 -8.088284e+00 -1.965250e+00 -2.466688e+01 -7.885547e+00 -9.543090e+00 -1.248960e+01 -2.129528e+01 -1.711836e+01 -6.077795e+00 -1.252995e+01 -1.985361e+01 -1.702306e+01 -2.595424e+00 -1.179915e+01 -1.728132e+01 -1.626974e+01 6.603001e-01 -1.024934e+01 -1.258577e+01 -1.530038e+01
<VARIANCE> 20
 5.792543e-01 5.105216e-01 9.929127e+00 5.993875e+00 5.003942e+00 8.273739e-01 5.987038e+00 3.373843e+00 4.067175e+00 6.977960e-01 7.396460e+00 3.738057e+00 2.896538e+00 7.555692e-01 9.884254e+00 4.320851e+00 3.366140e+00 1.061277e+00 1.285672e+01 4.344500e+00
<GCONST> 5.824813e+01
<MIXTURE> 4 2.014173e-01
<MEAN> 20
 -1.092150e+01 -1.664335e+00 -2.934776e+01 -1.171805e+01 -1.550094e+01 -1.577950e+01 -2.278947e+01 -2.115083e+01 -9.391486e+00 -1.647934e+01 -1.834855e+01 -2.032049e+01 -3.033341e+00 -1.595910e+01 -1.228817e+01 -1.744855e+01 3.464022e+00 -1.437578e+01 -5.009218e+00 -1.861883e+01
<VARIANCE> 20
 2.482080e+00 1.345166e+00 8.188045e+01 1.835751e+01 1.407590e+01 4.853460e+00 2.437522e+01 5.118491e+01 1.083557e+01 4.495320e+00 2.717785e+01 7.151752e+01 9.834986e+00 4.149250e+00 3.256875e+01 7.249933e+01 1.277190e+01 4.235838e+00 4.284161e+01 7.128756e+01
<GCONST> 9.158070e+01
<TRANSP> 5
 0.000000e+00 1.000000e+00 0.000000e+00 0.000000e+00 0.000000e+00
 0.000000e+00 7.696334e-01 2.303666e-01 0.000000e+00 0.000000e+00
 0.000000e+00 0.000000e+00 7.030303e-01 2.969698e-01 0.000000e+00
 0.000000e+00 0.000000e+00 0.000000e+00 6.922153e-01 3.077847e-01
 0.000000e+00 0.000000e+00 0.000000e+00 0.000000e+00 0.000000e+00
<ENDHMM>
