~o
<STREAMINFO> 1 20
<VECSIZE> 20<NULLD><USER><DIAGC>
~h "d"
<BEGINHMM>
<NUMSTATES> 5
<STATE> 2
<NUMMIXES> 4
<MIXTURE> 1 2.728241e-01
<MEAN> 20
 -5.875905e+00 -9.151760e-01 -1.152062e+01 -7.226205e+00 -8.476757e+00 -9.536639e+00 -1.079051e+01 -1.392549e+01 -4.005094e+00 -9.765293e+00 -7.033855e+00 -1.090111e+01 4.553937e-01 -9.382600e+00 -2.956888e+00 -9.054914e+00 5.039731e+00 -8.450475e+00 1.491973e+00 -9.254057e+00
<VARIANCE> 20
 5.442447e-01 2.293157e-01 1.565996e+01 4.103230e+00 1.175629e+00 6.720840e-01 3.198923e+00 1.941199e+01 7.053081e-01 5.831985e-01 3.069705e+00 1.450159e+01 6.158853e-01 5.034187e-01 2.965319e+00 9.633376e+00 8.539338e-01 5.518605e-01 3.911836e+00 1.086392e+01
<GCONST> 5.081832e+01
<MIXTURE> 2 3.213896e-01
<MEAN> 20
 -7.593901e+00 -1.969848e+00 -1.124853e+01 -1.032719e+01 -8.850196e+00 -1.188676e+01 -1.249412e+01 -1.368188e+01 -4.014693e+00 -1.198806e+01 -8.355613e+00 -1.165631e+01 8.816510e-01 -1.138960e+01 -4.294603e+00 -9.732378e+00 6.083296e+00 -1.016213e+01 1.610865e-01 -1.046570e+01
<VARIANCE> 20
 5.657622e-01 4.947116e-01 2.899355e+01 5.009857e+00 2.638998e+00 7.956356e-01 2.853929e+00 2.567801e+01 2.192280e+00 6.012325e-01 2.055205e+00 1.733904e+01 2.389207e+00 4.927564e-01 2.468354e+00 9.498369e+00 2.649442e+00 6.917971e-01 3.610026e+00 1.437654e+01
<GCONST> 5.722137e+01
<MIXTURE> 3 1.148637e-01
<MEAN> 20
 -5.936681e+00 -2.709190e+00 -1.729516e+01 -9.641827e+00 -6.132413e+00 -1.220195e+01 -1.754357e+01 -1.547019e+01 -2.905070e+00 -1.141003e+01 -1.628507e+01 -9.772089e+00 -5.016909e-01 -9.545492e+00 -1.037070e+01 -5.988832e+00 1.223244e+00 -7.077745e+00 -7.487193e+00 -5.475519e+00
<VARIANCE> 20
 1.731050e+01 3.329207e+00 1.042317e+02 2.002430e+01 4.864959e+01 8.451844e+00 1.320290e+02 5.344580e+01 3.331242e+01 8.632773e+00 1.412616e+02 4.326902e+01 3.211149e+01 1.068781e+01 7.143550e+01 2.896282e+01 4.872548e+01 1.317809e+01 6.961739e+01 3.243023e+01
<GCONST> 1.053754e+02
<MIXTURE> 4 2.909227e-01
<MEAN> 20
 -8.504520e+00 -2.049375e+00 -1.615806e+01 -1.182197e+01 -1.072067e+01 -1.376040e+01 -1.697153e+01 -1.934011e+01 -5.311282e+00 -1.401428e+01 -1.301709e+01 -1.561256e+01 2.062958e-01 -1.326401e+01 -8.054737e+00 -1.187347e+01 5.861916e+00 -1.162998e+01 -2.748666e+00 -1.174821e+01
<VARIANCE> 20
 9.252619e-01 8.599157e-01 3.466933e+01 6.646657e+00 5.048799e+00 1.774668e+00 1.282576e+01 4.537700e+01 3.378204e+00 1.569504e+00 1.106536e+01 4.183151e+01 3.483764e+00 1.266903e+00 1.037506e+01 2.356904e+01 4.983713e+00 1.340644e+00 1.571265e+01 2.347544e+01
<GCONST> 7.312749e+01
<STATE> 3
<NUMMIXES> 4
<MIXTURE> 1 2.464363e-01
<MEAN> 20
 -5.352266e+00 -1.214119e+00 -9.189862e+00 -7.496320e+00 -6.613823e+00 -9.213512e+00 -9.094165e+00 -1.323168e+01 -2.358557e+00 -9.233067e+00 -5.872461e+00 -8.918437e+00 1.759438e+00 -8.568463e+00 -2.464885e+00 -6.849195e+00 5.833402e+00 -7.344600e+00 1.487101e+00 -6.785188e+00
<VARIANCE> 20
 8.025309e-01 4.322591e-01 1.483986e+01 8.140820e+00 3.578059e+00 2.707631e+00 6.394537e+00 2.407375e+01 2.835331e+00 2.330252e+00 5.034815e+00 1.549045e+01 3.498820e+00 1.808973e+00 4.340462e+00 1.081852e+01 4.760037e+00 1.571955e+00 5.999633e+00 9.493872e+00
<GCONST> 6.579458e+01
<MIXTURE> 2 4.167134e-01
<MEAN> 20
 -7.553214e+00 -2.499070e+00 -1.318524e+01 -1.236678e+01 -6.813123e+00 -1.357449e+01 -1.207237e+01 -1.779603e+01 -1.424624e+00 -1.342705e+01 -9.064971e+00 -1.313568e+01 3.728333e+00 -1.228346e+01 -5.232729e+00 -8.900423e+00 8.630718e+00 -1.032320e+01 -8.547027e-02 -9.252325e+00
<VARIANCE> 20
 7.153091e-01 6.276422e-01 3.610402e+01 5.793839e+00 4.844813e+00 1.393009e+00 1.006297e+01 4.935101e+01 3.805516e+00 1.246930e+00 1.038233e+01 3.589108e+01 3.432520e+00 1.041103e+00 9.782905e+00 1.315789e+01 3.763458e+00 1.229516e+00 1.507998e+01 1.923040e+01
<GCONST> 7.022789e+01
<MIXTURE> 3 4.546254e-02
<MEAN> 20
 -5.539824e+00 -2.805850e+00 -1.385828e+01 -1.147704e+01 -6.228891e+00 -1.436173e+01 -1.403163e+01 -1.752145e+01 -3.110182e+00 -1.396527e+01 -1.216547e+01 -1.352917e+01 -5.243506e-01 -1.228678e+01 -7.461551e+00 -8.737253e+00 1.548432e+00 -9.754903e+00 -4.623133e+00 -7.664859e+00
<VARIANCE> 20
 5.123448e+01 3.484022e+00 2.451808e+02 3.941779e+01 9.916173e+01 1.967839e+01 2.601460e+02 1.017256e+02 5.201152e+01 2.329981e+01 1.941519e+02 1.171168e+02 4.609328e+01 2.679405e+01 1.290962e+02 7.348316e+01 7.886251e+01 2.896355e+01 1.146516e+02 6.261312e+01
<GCONST> 1.188989e+02
<MIXTURE> 4 2.913878e-01
<MEAN> 20
 -9.351861e+00 -1.482171e+00 -2.166053e+01 -1.184722e+01 -1.394992e+01 -1.389232e+01 -2.139883e+01 -1.943323e+01 -8.244010e+00 -1.453149e+01 -1.725310e+01 -1.573950e+01 -2.268105e+00 -1.399578e+01 -1.142760e+01 -1.192810e+01 3.862296e+00 -1.245356e+01 -4.879869e+00 -1.285651e+01
<VARIANCE> 20
 1.660052e+00 1.209503e+00 2.933152e+01 1.394759e+01 7.683312e+00 4.573273e+00 2.119605e+01 6.098561e+01 5.084136e+00 4.169746e+00 2.109576e+01 6.301629e+01 4.858687e+00 3.569096e+00 2.087436e+01 3.868521e+01 7.604853e+00 3.418511e+00 2.835119e+01 4.898706e+01
<GCONST> 8.448001e+01
<STATE> 4
<NUMMIXES> 4
<MIXTURE> 1 6.157134e-02
<MEAN> 20
 7.420095e+00 -1.908105e+00 1.683589e+01 -8.969129e+00 1.192566e+01 -1.132389e+01 1.879952e+01 -1.453216e+01 7.557186e+00 -1.102047e+01 1.610837e+01 -1.102607e+01 2.971735e+00 -9.726071e+00 1.118902e+01 -7.366074e+00 -1.595648e+00 -7.691803e+00 6.510337e+00 -6.421164e+00
<VARIANCE> 20
 5.324307e+00 2.386889e+00 8.038377e+01 2.196465e+01 3.003828e+01 1.201588e+01 9.132547e+01 8.681532e+01 3.976636e+01 1.925444e+01 8.377142e+01 8.530362e+01 5.363210e+01 2.609932e+01 6.169361e+01 5.375081e+01 7.219159e+01 3.046789e+01 5.904395e+01 5.769147e+01
<GCONST> 1.083380e+02
<MIXTURE> 2 4.947394e-01
<MEAN> 20
 -6.758640e+00 -1.556362e+00 -1.392554e+01 -8.992290e+00 -8.218575e+00 -1.148520e+01 -1.355252e+01 -1.767336e+01 -3.441482e+00 -1.152786e+01 -1.113794e+01 -1.211025e+01 1.188358e+00 -1.067468e+01 -7.007993e+00 -9.705141e+00 5.708670e+00 -9.064297e+00 -2.211482e+00 -9.307708e+00
<VARIANCE> 20
 1.183467e+00 7.682421e-01 2.492274e+01 8.725718e+00 6.956377e+00 3.137681e+00 1.412373e+01 3.455136e+01 4.760979e+00 2.835908e+00 1.663512e+01 2.696556e+01 4.206127e+00 2.395628e+00 1.882268e+01 1.808660e+01 5.722780e+00 2.380585e+00 2.506323e+01 1.754385e+01
<GCONST> 7.686507e+01
<MIXTURE> 3 1.188664e-01
<MEAN> 20
 -9.363549e+00 -1.237413e+00 -2.576433e+01 -6.393899e+00 -1.600040e+01 -1.102548e+01 -2.770099e+01 -1.121143e+01 -1.115318e+01 -1.111718e+01 -2.334044e+01 -6.048651e+00 -6.216400e+00 -9.900636e+00 -1.677180e+01 -3.790863e+00 -1.451536e+00 -7.815588e+00 -1.109227e+01 -4.196508e+00
<VARIANCE> 20
 6.883397e+00 3.366029e+00 4.778999e+01 5.255921e+01 3.125851e+01 2.505199e+01 7.963980e+01 1.557511e+02 3.371021e+01 2.815483e+01 7.112635e+01 1.397885e+02 3.802338e+01 3.198247e+01 6.522916e+01 9.579199e+01 4.810897e+01 3.546642e+01 7.627341e+01 1.073500e+02
<GCONST> 1.121742e+02
<MIXTURE> 4 3.248229e-01
<MEAN> 20
 -8.759038e+00 -3.162921e+00 -2.115327e+01 -1.159206e+01 -5.890553e+00 -1.403551e+01 -1.559064e+01 -2.304877e+01 -2.422426e+00 -1.369592e+01 -2.010361e+01 -1.445079e+01 -3.329578e-02 -1.243082e+01 -1.833220e+01 -1.287424e+01 1.363461e+00 -1.035328e+01 -1.485411e+01 -1.260017e+01
<VARIANCE> 20
 1.911670e+00 6.211751e-01 1.085192e+01 2.183620e+00 6.025269e+00 1.145421e+00 2.091589e+01 1.521128e+01 4.992598e+00 1.035938e+00 1.042758e+01 4.705971e+00 3.788251e+00 1.018728e+00 1.284230e+01 3.861254e+00 7.412667e+00 1.393814e+00 1.818867e+01 4.525073e+00
<GCONST> 6.532539e+01
<TRANSP> 5
 0.000000e+00 1.000000e+00 0.000000e+00 0.000000e+00 0.000000e+00
 0.000000e+00 7.723051e-01 2.276949e-01 0.000000e+00 0.000000e+00
 0.000000e+00 0.000000e+00 7.126500e-01 2.873500e-01 0.000000e+00
 0.000000e+00 0.000000e+00 0.000000e+00 6.517827e-01 3.482173e-01
 0.000000e+00 0.000000e+00 0.000000e+00 0.000000e+00 0.000000e+00
<ENDHMM>
