~o
<STREAMINFO> 1 20
<VECSIZE> 20<NULLD><USER><DIAGC>
~h "e"
<BEGINHMM>
<NUMSTATES> 8
<STATE> 2
<MEAN> 20
 -7.227323e+00 -1.919598e+00 -1.345073e+01 -1.031392e+01 -8.859373e+00 -1.235401e+01 -1.536658e+01 -1.542799e+01 -4.167952e+00 -1.243225e+01 -1.124705e+01 -1.344299e+01 3.876512e-01 -1.151346e+01 -6.193420e+00 -9.876383e+00 4.927884e+00 -9.826731e+00 -1.613565e+00 -9.166921e+00
<VARIANCE> 20
 9.649650e+00 1.650633e+00 7.767295e+01 1.367507e+01 2.824469e+01 6.545403e+00 7.482423e+01 3.607447e+01 1.750301e+01 7.495102e+00 7.048549e+01 5.322157e+01 1.497453e+01 8.706062e+00 3.668618e+01 3.689054e+01 2.316501e+01 1.002712e+01 3.913940e+01 3.328950e+01
<GCONST> 9.742162e+01
<STATE> 3
<NUMMIXES> 4
<MIXTURE> 1 2.476383e-01
<MEAN> 20
 -5.470249e+00 -9.935616e-01 -8.909939e+00 -7.477945e+00 -7.113576e+00 -8.761057e+00 -9.172225e+00 -1.129341e+01 -3.106702e+00 -8.959311e+00 -5.665508e+00 -9.742772e+00 8.355026e-01 -8.583333e+00 -2.232164e+00 -7.723592e+00 4.936437e+00 -7.698498e+00 1.298192e+00 -7.388183e+00
<VARIANCE> 20
 4.468602e-01 2.724609e-01 1.551018e+01 4.333519e+00 2.267438e+00 1.001305e+00 3.173411e+00 8.648308e+00 1.314742e+00 8.932135e-01 2.052689e+00 1.116608e+01 1.229926e+00 7.954839e-01 1.873293e+00 8.875519e+00 1.778511e+00 8.079203e-01 3.001130e+00 7.214993e+00
<GCONST> 5.251130e+01
<MIXTURE> 2 1.851677e-01
<MEAN> 20
 -7.551188e+00 -3.669066e+00 -1.878823e+01 -1.187256e+01 -4.613523e+00 -1.390502e+01 -1.967588e+01 -1.857418e+01 -1.317894e+00 -1.295038e+01 -2.049470e+01 -1.370324e+01 7.483481e-01 -1.091171e+01 -1.397943e+01 -7.979081e+00 1.713831e+00 -8.218638e+00 -1.106526e+01 -6.842592e+00
<VARIANCE> 20
 3.324142e+00 1.032636e+00 1.503316e+01 5.031685e+00 8.852311e+00 1.594165e+00 2.365202e+01 1.721989e+01 7.654404e+00 1.896450e+00 3.310825e+01 1.566338e+01 9.254128e+00 3.247545e+00 1.760207e+01 1.544151e+01 1.657943e+01 5.002480e+00 1.791343e+01 1.689668e+01
<GCONST> 7.903861e+01
<MIXTURE> 3 4.135408e-01
<MEAN> 20
 -7.786463e+00 -1.872131e+00 -1.302188e+01 -1.061961e+01 -9.331471e+00 -1.250743e+01 -1.472804e+01 -1.585075e+01 -4.055799e+00 -1.275503e+01 -9.784157e+00 -1.418188e+01 1.230092e+00 -1.203089e+01 -5.085219e+00 -1.068034e+01 6.636218e+00 -1.050317e+01 1.440842e-02 -1.035683e+01
<VARIANCE> 20
 9.994935e-01 7.575801e-01 3.940263e+01 7.148358e+00 5.967665e+00 1.802453e+00 1.321096e+01 2.785074e+01 4.854681e+00 1.620975e+00 1.154785e+01 4.307346e+01 4.545608e+00 1.398153e+00 9.263151e+00 2.631227e+01 4.580014e+00 1.526954e+00 1.256653e+01 2.356590e+01
<GCONST> 7.365711e+01
<MIXTURE> 4 1.536532e-01
<MEAN> 20
 -7.077103e+00 -2.231348e+00 -1.984525e+01 -1.016241e+01 -1.157918e+01 -1.303773e+01 -2.339196e+01 -1.559766e+01 -7.852406e+00 -1.276064e+01 -1.990901e+01 -1.302788e+01 -4.338568e+00 -1.124373e+01 -1.242809e+01 -8.761932e+00 -9.964316e-01 -8.924471e+00 -8.071534e+00 -7.571550e+00
<VARIANCE> 20
 3.293036e+01 4.530365e+00 1.831943e+02 3.795280e+01 8.378085e+01 1.807939e+01 2.437678e+02 7.336459e+01 4.660057e+01 2.354890e+01 2.304219e+02 1.117619e+02 3.740607e+01 3.155707e+01 1.120930e+02 8.888391e+01 6.273546e+01 3.893529e+01 1.132858e+02 8.353777e+01
<GCONST> 1.181176e+02
<STATE> 4
<NUMMIXES> 4
<MIXTURE> 1 2.635614e-01
<MEAN> 20
 -6.431930e+00 -1.320873e+00 -1.092598e+01 -8.136837e+00 -8.101321e+00 -1.038332e+01 -1.201155e+01 -1.362816e+01 -3.440532e+00 -1.057028e+01 -7.812473e+00 -1.229016e+01 1.163776e+00 -9.937457e+00 -3.830577e+00 -9.301875e+00 5.835336e+00 -8.618235e+00 6.435177e-01 -8.470782e+00
<VARIANCE> 20
 7.718443e-01 4.536040e-01 2.400559e+01 5.588917e+00 4.357123e+00 1.290371e+00 9.680099e+00 1.619249e+01 3.554590e+00 1.014355e+00 8.342341e+00 2.463730e+01 3.543334e+00 8.182503e-01 8.060118e+00 1.638018e+01 3.931522e+00 1.068201e+00 9.589866e+00 1.360990e+01
<GCONST> 6.625056e+01
<MIXTURE> 2 2.964866e-01
<MEAN> 20
 -9.391104e+00 -1.220537e+00 -1.954200e+01 -1.059393e+01 -1.406925e+01 -1.341527e+01 -2.157108e+01 -1.733553e+01 -8.582704e+00 -1.411989e+01 -1.700059e+01 -1.668114e+01 -2.845788e+00 -1.368965e+01 -1.105074e+01 -1.331353e+01 3.174592e+00 -1.230696e+01 -4.743502e+00 -1.269263e+01
<VARIANCE> 20
 1.522363e+00 1.044387e+00 4.638804e+01 9.606667e+00 7.732625e+00 3.011202e+00 1.562996e+01 3.198471e+01 5.645039e+00 2.730129e+00 1.957711e+01 4.728472e+01 5.352373e+00 2.456081e+00 2.041623e+01 3.706672e+01 7.349650e+00 2.633834e+00 2.700964e+01 3.774886e+01
<GCONST> 8.134404e+01
<MIXTURE> 3 3.394678e-01
<MEAN> 20
 -8.007332e+00 -2.557690e+00 -1.012797e+01 -1.191701e+01 -7.909949e+00 -1.384079e+01 -1.347735e+01 -1.788158e+01 -2.498092e+00 -1.388619e+01 -8.479259e+00 -1.638717e+01 2.787130e+00 -1.287574e+01 -4.437868e+00 -1.100025e+01 8.100261e+00 -1.101087e+01 2.508139e-01 -9.834237e+00
<VARIANCE> 20
 5.488871e-01 4.595458e-01 2.765697e+01 4.939282e+00 3.660309e+00 8.933514e-01 1.140118e+01 2.953243e+01 3.002285e+00 7.539175e-01 1.014576e+01 5.093179e+01 2.750143e+00 6.092300e-01 6.734526e+00 2.123003e+01 2.583889e+00 7.524549e-01 7.559848e+00 1.271581e+01
<GCONST> 6.507502e+01
<MIXTURE> 4 1.004843e-01
<MEAN> 20
 1.997156e+00 -2.219272e+00 1.324019e+00 -9.245822e+00 4.079042e+00 -1.154011e+01 1.162600e+00 -1.356461e+01 2.487509e+00 -1.114217e+01 -2.871527e-01 -1.055167e+01 4.498618e-01 -9.689439e+00 -1.303036e-01 -7.353217e+00 -1.904607e+00 -7.591484e+00 -1.674372e+00 -6.348411e+00
<VARIANCE> 20
 5.116234e+01 3.220359e+00 3.471791e+02 2.580764e+01 1.160667e+02 1.337919e+01 4.354165e+02 5.799289e+01 6.035506e+01 1.661408e+01 3.356898e+02 7.023284e+01 4.117979e+01 2.083496e+01 1.309467e+02 5.159005e+01 5.233828e+01 2.456850e+01 8.938814e+01 5.159927e+01
<GCONST> 1.165939e+02
<STATE> 5
<NUMMIXES> 4
<MIXTURE> 1 2.481642e-01
<MEAN> 20
 -8.241448e+00 -2.213356e+00 -7.755143e+00 -9.331275e+00 -9.527367e+00 -1.266446e+01 -1.348470e+01 -1.266801e+01 -4.975995e+00 -1.271929e+01 -9.247151e+00 -1.249690e+01 -3.803947e-01 -1.217585e+01 -5.212988e+00 -1.218422e+01 4.795709e+00 -1.105047e+01 -1.149630e+00 -1.170263e+01
<VARIANCE> 20
 4.782669e-01 4.409773e-01 4.389581e+00 8.928073e-01 1.690113e+00 9.579700e-01 1.569985e+00 1.392666e+00 1.280329e+00 7.021891e-01 1.477036e+00 1.301761e+00 1.227016e+00 5.602151e-01 1.775671e+00 1.234923e+00 1.417101e+00 5.451825e-01 2.437133e+00 1.487987e+00
<GCONST> 3.981906e+01
<MIXTURE> 2 3.895502e-01
<MEAN> 20
 -7.045419e+00 -2.183593e+00 -9.947866e+00 -1.086622e+01 -6.939321e+00 -1.214543e+01 -1.184900e+01 -1.518920e+01 -1.800970e+00 -1.212867e+01 -7.388140e+00 -1.261580e+01 3.238908e+00 -1.121744e+01 -3.324670e+00 -8.749812e+00 8.311728e+00 -9.562727e+00 1.474429e+00 -8.238565e+00
<VARIANCE> 20
 5.290043e-01 5.088626e-01 2.791623e+01 5.241347e+00 3.322234e+00 1.125176e+00 6.976319e+00 2.315868e+01 2.956787e+00 9.425857e-01 6.746795e+00 3.329624e+01 2.874563e+00 6.904550e-01 5.108992e+00 1.369459e+01 2.789238e+00 7.048281e-01 5.317760e+00 1.090138e+01
<GCONST> 6.294335e+01
<MIXTURE> 3 2.148475e-01
<MEAN> 20
 -1.032319e+01 -1.652438e+00 -2.000123e+01 -1.337519e+01 -1.455340e+01 -1.565717e+01 -2.176086e+01 -2.008280e+01 -8.178397e+00 -1.636177e+01 -1.596208e+01 -1.917138e+01 -1.643001e+00 -1.574063e+01 -9.448795e+00 -1.455570e+01 5.135624e+00 -1.403408e+01 -2.150920e+00 -1.392266e+01
<VARIANCE> 20
 2.141348e+00 1.490942e+00 5.643129e+01 1.197680e+01 1.114876e+01 4.488913e+00 2.678630e+01 3.952696e+01 8.216971e+00 4.160682e+00 2.481463e+01 6.359752e+01 7.331753e+00 3.777266e+00 2.121174e+01 4.865796e+01 8.531105e+00 3.785989e+00 2.826493e+01 4.712196e+01
<GCONST> 8.713806e+01
<MIXTURE> 4 1.474383e-01
<MEAN> 20
 -4.930488e+00 -1.961567e+00 -1.298016e+01 -7.584477e+00 -5.402878e+00 -1.035115e+01 -1.392196e+01 -1.203484e+01 -2.277081e+00 -9.904868e+00 -1.165346e+01 -8.422150e+00 2.770715e-01 -8.500430e+00 -6.605116e+00 -5.472242e+00 2.355077e+00 -6.535063e+00 -3.772027e+00 -4.710309e+00
<VARIANCE> 20
 1.719779e+01 2.951252e+00 1.134104e+02 1.788589e+01 5.140496e+01 7.043367e+00 1.463366e+02 3.277546e+01 3.158309e+01 6.162824e+00 1.260694e+02 3.727619e+01 2.643757e+01 7.081842e+00 5.608325e+01 2.324933e+01 3.854151e+01 9.378878e+00 5.468617e+01 2.252502e+01
<GCONST> 1.018052e+02
<STATE> 6
<NUMMIXES> 4
<MIXTURE> 1 3.262316e-01
<MEAN> 20
 -6.527195e+00 -1.328024e+00 -9.675198e+00 -8.719165e+00 -8.210717e+00 -1.044127e+01 -1.126353e+01 -1.254797e+01 -3.649802e+00 -1.061746e+01 -7.151792e+00 -1.137288e+01 8.743097e-01 -1.013333e+01 -3.023637e+00 -9.646915e+00 5.658808e+00 -9.049604e+00 1.201627e+00 -9.135111e+00
<VARIANCE> 20
 5.755998e-01 4.828525e-01 1.651381e+01 3.940729e+00 2.832647e+00 1.000556e+00 3.824720e+00 1.072094e+01 2.217123e+00 8.082757e-01 2.921111e+00 1.242449e+01 2.284807e+00 6.412147e-01 2.764899e+00 8.621632e+00 2.708208e+00 7.004097e-01 3.117603e+00 7.997744e+00
<GCONST> 5.599276e+01
<MIXTURE> 2 2.429962e-01
<MEAN> 20
 -9.252597e+00 -2.219579e+00 -1.484856e+01 -1.275777e+01 -1.042191e+01 -1.517767e+01 -1.664823e+01 -1.884806e+01 -4.397445e+00 -1.546032e+01 -1.114491e+01 -1.752485e+01 1.463794e+00 -1.452402e+01 -5.541884e+00 -1.363782e+01 7.369254e+00 -1.261409e+01 5.688424e-01 -1.271805e+01
<VARIANCE> 20
 1.861415e+00 1.356701e+00 6.077174e+01 9.387981e+00 1.541180e+01 2.438027e+00 2.516573e+01 3.319099e+01 1.220965e+01 2.298599e+00 2.618002e+01 5.272832e+01 9.762947e+00 2.349975e+00 2.128987e+01 4.062489e+01 8.819771e+00 2.835986e+00 2.895947e+01 3.343214e+01
<GCONST> 8.493967e+01
<MIXTURE> 3 2.843748e-01
<MEAN> 20
 -8.160186e+00 -1.803016e+00 -1.156415e+01 -9.913221e+00 -1.046190e+01 -1.267245e+01 -1.554916e+01 -1.582416e+01 -5.437379e+00 -1.298332e+01 -1.120853e+01 -1.555346e+01 -3.028609e-01 -1.238760e+01 -6.383116e+00 -1.233214e+01 5.180018e+00 -1.101248e+01 -1.489347e+00 -1.156148e+01
<VARIANCE> 20
 5.771527e-01 6.189876e-01 2.478078e+01 3.878804e+00 3.129524e+00 8.117836e-01 7.861810e+00 2.112098e+01 2.336982e+00 6.499678e-01 6.511583e+00 3.097384e+01 2.407986e+00 5.749743e-01 6.386930e+00 1.760012e+01 3.000769e+00 8.347049e-01 7.927642e+00 1.502939e+01
<GCONST> 6.280929e+01
<MIXTURE> 4 1.463974e-01
<MEAN> 20
 -5.121003e+00 -2.830645e+00 -1.930530e+01 -7.907089e+00 -8.882693e+00 -1.103809e+01 -2.324784e+01 -1.209224e+01 -6.925861e+00 -9.932539e+00 -2.118445e+01 -8.466143e+00 -5.430956e+00 -7.848360e+00 -1.329210e+01 -4.569509e+00 -4.371601e+00 -5.299133e+00 -1.115853e+01 -3.494303e+00
<VARIANCE> 20
 2.610180e+01 5.286414e+00 1.630087e+02 3.433739e+01 8.168064e+01 1.353256e+01 2.413238e+02 6.217026e+01 5.584419e+01 1.414210e+01 2.306406e+02 6.611612e+01 4.604214e+01 1.849382e+01 9.169057e+01 3.906414e+01 5.636443e+01 2.411201e+01 8.239538e+01 4.151971e+01
<GCONST> 1.135255e+02
<STATE> 7
<MEAN> 20
 -7.422764e+00 -1.838269e+00 -1.243540e+01 -9.911079e+00 -9.043172e+00 -1.243413e+01 -1.473266e+01 -1.501192e+01 -4.326427e+00 -1.254984e+01 -1.059050e+01 -1.355486e+01 2.823412e-01 -1.172053e+01 -5.821202e+00 -1.060338e+01 4.978529e+00 -1.013648e+01 -1.176609e+00 -9.856988e+00
<VARIANCE> 20
 9.047970e+00 1.450845e+00 7.141299e+01 1.196219e+01 2.614137e+01 6.141616e+00 6.469322e+01 3.120988e+01 1.574786e+01 6.763549e+00 5.549231e+01 4.227414e+01 1.234102e+01 7.482229e+00 3.105839e+01 2.972241e+01 1.804659e+01 8.339464e+00 3.292762e+01 2.780384e+01
<GCONST> 9.438680e+01
<TRANSP> 8
 0.000000e+00 1.000000e+00 0.000000e+00 0.000000e+00 0.000000e+00 0.000000e+00 0.000000e+00 0.000000e+00
 0.000000e+00 4.049250e-02 9.595075e-01 0.000000e+00 0.000000e+00 0.000000e+00 0.000000e+00 0.000000e+00
 0.000000e+00 0.000000e+00 4.969253e-01 5.030747e-01 0.000000e+00 0.000000e+00 0.000000e+00 0.000000e+00
 0.000000e+00 0.000000e+00 0.000000e+00 5.387928e-01 4.612072e-01 0.000000e+00 0.000000e+00 0.000000e+00
 0.000000e+00 0.000000e+00 0.000000e+00 0.000000e+00 5.981338e-01 4.018662e-01 0.000000e+00 0.000000e+00
 0.000000e+00 0.000000e+00 0.000000e+00 0.000000e+00 0.000000e+00 5.373470e-01 4.626531e-01 0.000000e+00
 0.000000e+00 0.000000e+00 0.000000e+00 0.000000e+00 0.000000e+00 0.000000e+00 4.698457e-02 9.530154e-01
 0.000000e+00 0.000000e+00 0.000000e+00 0.000000e+00 0.000000e+00 0.000000e+00 0.000000e+00 0.000000e+00
<ENDHMM>
