~o
<STREAMINFO> 1 20
<VECSIZE> 20<NULLD><USER><DIAGC>
~h "f"
<BEGINHMM>
<NUMSTATES> 5
<STATE> 2
<NUMMIXES> 4
<MIXTURE> 1 2.617220e-01
<MEAN> 20
 -5.560522e+00 -1.105080e+00 -1.250807e+01 -7.172022e+00 -7.321675e+00 -9.168267e+00 -1.128708e+01 -1.136434e+01 -3.016227e+00 -9.915257e+00 -6.896192e+00 -1.503175e+01 1.353245e+00 -9.684209e+00 -6.937150e-01 -1.512250e+01 5.747744e+00 -8.544170e+00 7.468461e+00 -1.342359e+01
<VARIANCE> 20
 4.011680e-01 3.093849e-01 1.217442e+01 3.356357e+00 2.427855e+00 1.216284e+00 5.563714e+00 6.256772e+00 1.865746e+00 1.042360e+00 4.164788e+00 1.435374e+01 1.904597e+00 8.512916e-01 7.824810e+00 2.316715e+01 2.225075e+00 6.651860e-01 2.402862e+01 1.239061e+01
<GCONST> 5.954135e+01
<MIXTURE> 2 3.800572e-01
<MEAN> 20
 -8.016196e+00 -1.892362e+00 -1.604340e+01 -1.094382e+01 -1.003994e+01 -1.218863e+01 -1.498587e+01 -1.381730e+01 -5.086261e+00 -1.261824e+01 -1.099400e+01 -1.392044e+01 8.094561e-02 -1.219194e+01 -6.208295e+00 -1.209225e+01 5.545365e+00 -1.100348e+01 1.066081e-01 -1.378724e+01
<VARIANCE> 20
 8.229671e-01 5.654057e-01 3.685152e+01 5.661664e+00 4.713277e+00 1.419882e+00 8.452074e+00 2.970369e+01 3.116695e+00 1.304233e+00 1.018476e+01 4.257187e+01 2.664753e+00 1.046353e+00 1.055062e+01 2.644410e+01 3.057103e+00 1.086240e+00 2.155789e+01 2.746688e+01
<GCONST> 7.047477e+01
<MIXTURE> 3 2.012697e-01
<MEAN> 20
 -8.617054e+00 -2.324186e+00 -2.094203e+01 -1.274221e+01 -1.017104e+01 -1.463556e+01 -1.874838e+01 -1.628267e+01 -4.152213e+00 -1.587761e+01 -1.055094e+01 -2.892362e+01 2.020926e+00 -1.539014e+01 -1.080511e-01 -2.864686e+01 8.250234e+00 -1.335021e+01 1.285841e+01 -2.410870e+01
<VARIANCE> 20
 8.840250e-01 7.996640e-01 2.111188e+01 6.486698e+00 6.692369e+00 2.401520e+00 1.557191e+01 1.321899e+01 6.771859e+00 2.129624e+00 2.430418e+01 1.077048e+01 6.323231e+00 1.902638e+00 2.830984e+01 9.876277e+00 5.214190e+00 1.759663e+00 3.083291e+01 5.381525e+00
<GCONST> 7.311954e+01
<MIXTURE> 4 1.569511e-01
<MEAN> 20
 -7.619708e+00 -2.232764e+00 -2.004551e+01 -1.022548e+01 -8.936883e+00 -1.234648e+01 -1.983607e+01 -1.288584e+01 -5.131696e+00 -1.226585e+01 -1.708126e+01 -1.056911e+01 -1.699501e+00 -1.116480e+01 -1.265057e+01 -7.951098e+00 1.277396e+00 -9.320973e+00 -7.765247e+00 -8.827374e+00
<VARIANCE> 20
 1.938314e+01 3.907081e+00 1.455089e+02 4.793146e+01 5.566958e+01 1.629771e+01 1.420340e+02 7.087498e+01 3.935971e+01 1.605285e+01 1.264172e+02 8.518021e+01 3.808601e+01 1.730852e+01 1.035138e+02 6.735727e+01 5.831196e+01 1.975681e+01 1.257235e+02 6.866701e+01
<GCONST> 1.131486e+02
<STATE> 3
<NUMMIXES> 4
<MIXTURE> 1 1.505067e-01
<MEAN> 20
 -5.725858e+00 -1.114467e+00 -1.330039e+01 -6.856383e+00 -7.202304e+00 -9.346056e+00 -1.165561e+01 -1.170331e+01 -3.108838e+00 -9.582530e+00 -8.380949e+00 -1.008918e+01 8.600537e-01 -8.929007e+00 -4.365110e+00 -7.900237e+00 4.670074e+00 -7.576734e+00 6.397969e-01 -7.936441e+00
<VARIANCE> 20
 9.126328e+00 8.682554e-01 9.609054e+01 1.159508e+01 2.355873e+01 3.588623e+00 5.471232e+01 3.993711e+01 9.929152e+00 3.114974e+00 3.608898e+01 4.158119e+01 6.137269e+00 2.608837e+00 2.671390e+01 3.051637e+01 1.219065e+01 2.672638e+00 4.305018e+01 2.755261e+01
<GCONST> 8.875424e+01
<MIXTURE> 2 2.559198e-01
<MEAN> 20
 -6.791718e+00 -1.699991e+00 -1.763513e+01 -8.637652e+00 -8.471692e+00 -1.089419e+01 -1.664636e+01 -1.218790e+01 -4.037896e+00 -1.188537e+01 -1.223122e+01 -2.048016e+01 7.360526e-01 -1.161888e+01 -4.133227e+00 -2.146174e+01 5.710798e+00 -1.020784e+01 6.467579e+00 -1.845526e+01
<VARIANCE> 20
 3.399619e-01 2.981537e-01 1.122793e+01 1.937279e+00 1.301985e+00 5.112515e-01 9.842836e+00 6.047247e+00 9.758856e-01 3.436991e-01 1.550786e+01 3.458363e+00 1.085013e+00 3.144834e-01 1.670886e+01 2.258546e+00 1.489996e+00 5.132943e-01 2.555364e+01 1.194888e+00
<GCONST> 4.982338e+01
<MIXTURE> 3 2.996323e-01
<MEAN> 20
 -7.643396e+00 -2.755678e+00 -1.261692e+01 -1.299584e+01 -6.466981e+00 -1.337063e+01 -1.228803e+01 -1.488881e+01 -1.258650e+00 -1.327402e+01 -8.345284e+00 -1.323621e+01 3.871746e+00 -1.228431e+01 -4.353109e+00 -9.324431e+00 8.949137e+00 -1.049429e+01 1.342352e+00 -1.024102e+01
<VARIANCE> 20
 7.316507e-01 5.080249e-01 3.129903e+01 5.760499e+00 4.001784e+00 1.360148e+00 7.982366e+00 3.073965e+01 3.674366e+00 1.216586e+00 8.549757e+00 4.200476e+01 3.447252e+00 9.952148e-01 8.566912e+00 1.639248e+01 3.490115e+00 1.007787e+00 1.863639e+01 2.120748e+01
<GCONST> 6.895539e+01
<MIXTURE> 4 2.939411e-01
<MEAN> 20
 -9.819182e+00 -2.048388e+00 -2.379648e+01 -1.354857e+01 -1.355926e+01 -1.497403e+01 -2.200649e+01 -1.750294e+01 -7.681479e+00 -1.606340e+01 -1.711830e+01 -2.253841e+01 -1.413386e+00 -1.569845e+01 -9.558134e+00 -1.991655e+01 5.109914e+00 -1.407888e+01 4.734406e-01 -1.895641e+01
<VARIANCE> 20
 1.538844e+00 1.189963e+00 3.690902e+01 1.065472e+01 8.640495e+00 4.318534e+00 1.966098e+01 4.891053e+01 6.597217e+00 4.422535e+00 2.439042e+01 9.862779e+01 6.510908e+00 4.169434e+00 3.471733e+01 1.103909e+02 9.063758e+00 3.631140e+00 8.053532e+01 6.180744e+01
<GCONST> 8.854294e+01
<STATE> 4
<NUMMIXES> 4
<MIXTURE> 1 9.818101e-02
<MEAN> 20
 -1.507866e+00 -2.178813e+00 -1.657987e+00 -1.280942e+01 -7.267995e-01 -1.421458e+01 -2.049219e+00 -1.688527e+01 4.522192e-01 -1.478374e+01 -5.560765e-01 -1.849007e+01 1.441918e+00 -1.401625e+01 8.438507e-01 -1.509585e+01 2.408673e+00 -1.214749e+01 3.214732e+00 -1.368884e+01
<VARIANCE> 20
 7.454646e+01 1.988005e+00 4.388995e+02 1.996825e+01 1.341770e+02 6.734352e+00 3.663370e+02 4.428521e+01 4.152385e+01 7.368406e+00 1.909574e+02 1.069559e+02 1.553104e+01 7.581302e+00 7.135262e+01 1.141724e+02 5.758211e+01 7.462568e+00 7.182878e+01 7.963178e+01
<GCONST> 1.114717e+02
<MIXTURE> 2 2.948557e-01
<MEAN> 20
 -7.653913e+00 -2.108175e+00 -1.928552e+01 -1.038663e+01 -9.111784e+00 -1.232859e+01 -1.815584e+01 -1.333811e+01 -4.422117e+00 -1.341624e+01 -1.356098e+01 -2.349678e+01 6.760141e-01 -1.313924e+01 -5.094759e+00 -2.412467e+01 6.073421e+00 -1.161969e+01 5.640964e+00 -2.098878e+01
<VARIANCE> 20
 2.116960e-01 2.714302e-01 7.430156e+00 1.608964e+00 2.962126e+00 5.524088e-01 6.987843e+00 5.611884e+00 2.109378e+00 5.105787e-01 7.595726e+00 4.013499e+00 1.778068e+00 5.331973e-01 9.596070e+00 2.609900e+00 1.728602e+00 7.068011e-01 1.430863e+01 1.622636e+00
<GCONST> 5.054750e+01
<MIXTURE> 3 2.741717e-01
<MEAN> 20
 -6.744382e+00 -1.478190e+00 -1.320793e+01 -9.245701e+00 -8.704894e+00 -1.016000e+01 -1.222129e+01 -1.136452e+01 -4.321551e+00 -1.054678e+01 -8.394716e+00 -1.163680e+01 1.754680e-01 -1.027933e+01 -4.235293e+00 -1.100253e+01 4.901700e+00 -9.388001e+00 1.392409e+00 -1.271160e+01
<VARIANCE> 20
 8.806486e-01 4.122990e-01 1.801840e+01 4.543725e+00 2.004670e+00 1.959142e+00 5.152248e+00 1.414533e+01 1.414915e+00 1.717856e+00 4.869442e+00 2.538567e+01 1.738520e+00 1.399044e+00 6.804369e+00 2.195283e+01 2.740582e+00 1.213770e+00 2.026721e+01 1.959577e+01
<GCONST> 6.459320e+01
<MIXTURE> 4 3.327915e-01
<MEAN> 20
 -8.317552e+00 -2.192369e+00 -2.132788e+01 -1.054651e+01 -9.505489e+00 -1.242500e+01 -2.021215e+01 -1.481589e+01 -5.415842e+00 -1.286556e+01 -1.793303e+01 -1.646853e+01 -1.216903e+00 -1.235603e+01 -1.323761e+01 -1.514071e+01 2.929833e+00 -1.095695e+01 -6.732370e+00 -1.511135e+01
<VARIANCE> 20
 9.600278e-01 1.140235e+00 1.599376e+01 5.986313e+00 1.636656e+01 2.464159e+00 1.153994e+01 2.404567e+01 1.134728e+01 1.729685e+00 1.281671e+01 3.417601e+01 6.005651e+00 1.460543e+00 1.676286e+01 3.306617e+01 6.614124e+00 2.015816e+00 4.383906e+01 2.641289e+01
<GCONST> 7.792550e+01
<TRANSP> 5
 0.000000e+00 1.000000e+00 0.000000e+00 0.000000e+00 0.000000e+00
 0.000000e+00 7.113535e-01 2.886465e-01 0.000000e+00 0.000000e+00
 0.000000e+00 0.000000e+00 7.324886e-01 2.675114e-01 0.000000e+00
 0.000000e+00 0.000000e+00 0.000000e+00 7.184253e-01 2.815747e-01
 0.000000e+00 0.000000e+00 0.000000e+00 0.000000e+00 0.000000e+00
<ENDHMM>
