~o
<STREAMINFO> 1 20
<VECSIZE> 20<NULLD><USER><DIAGC>
~h "f"
<BEGINHMM>
<NUMSTATES> 8
<STATE> 2
<MEAN> 20
 -7.414153e+00 -1.899884e+00 -1.677826e+01 -1.052759e+01 -8.828390e+00 -1.216242e+01 -1.553044e+01 -1.380320e+01 -4.109571e+00 -1.265925e+01 -1.131082e+01 -1.599263e+01 6.823840e-01 -1.209055e+01 -5.618131e+00 -1.443340e+01 5.520495e+00 -1.059241e+01 1.870916e+00 -1.422357e+01
<VARIANCE> 20
 7.672380e+00 1.130138e+00 7.820892e+01 1.392823e+01 2.025259e+01 5.736193e+00 5.517295e+01 2.885511e+01 1.198766e+01 6.110149e+00 4.779033e+01 6.964740e+01 9.670994e+00 6.116370e+00 4.427317e+01 7.142122e+01 1.541125e+01 5.863478e+00 7.476548e+01 4.799479e+01
<GCONST> 9.527112e+01
<STATE> 3
<NUMMIXES> 4
<MIXTURE> 1 4.741305e-02
<MEAN> 20
 8.656981e+00 -1.778703e+00 2.295371e+01 -1.146340e+01 1.165820e+01 -1.324006e+01 1.831988e+01 -1.672657e+01 5.907866e+00 -1.381201e+01 1.287005e+01 -1.449816e+01 -5.339468e-02 -1.315627e+01 6.396902e+00 -1.096200e+01 -5.964485e+00 -1.154223e+01 1.530761e-02 -1.012274e+01
<VARIANCE> 20
 1.394250e+00 2.111481e+00 9.673834e+01 2.389378e+01 1.694393e+01 4.010278e+00 2.709059e+01 4.814959e+01 9.997648e+00 4.024769e+00 1.935697e+01 6.448093e+01 5.852037e+00 3.676061e+00 1.662945e+01 5.634074e+01 4.546535e+00 3.606475e+00 3.339772e+01 5.140869e+01
<GCONST> 8.795603e+01
<MIXTURE> 2 5.334803e-01
<MEAN> 20
 -7.132380e+00 -1.695377e+00 -1.416031e+01 -9.622183e+00 -8.698415e+00 -1.118896e+01 -1.334224e+01 -1.282437e+01 -3.965303e+00 -1.154860e+01 -9.131282e+00 -1.330325e+01 8.867390e-01 -1.107666e+01 -4.154972e+00 -1.210449e+01 5.949541e+00 -9.861182e+00 2.258793e+00 -1.286244e+01
<VARIANCE> 20
 1.017434e+00 5.406893e-01 3.054848e+01 6.241127e+00 3.768453e+00 1.958295e+00 9.271684e+00 1.844816e+01 2.795795e+00 1.685184e+00 8.913445e+00 3.233040e+01 2.725965e+00 1.435571e+00 9.791484e+00 2.921858e+01 3.245652e+00 1.444143e+00 2.218005e+01 2.187405e+01
<GCONST> 7.051465e+01
<MIXTURE> 3 2.058670e-01
<MEAN> 20
 -8.530063e+00 -2.303987e+00 -2.073416e+01 -1.272253e+01 -9.904487e+00 -1.435655e+01 -1.828642e+01 -1.620737e+01 -3.986667e+00 -1.557738e+01 -1.014220e+01 -2.847496e+01 2.043725e+00 -1.510295e+01 1.940306e-01 -2.823200e+01 8.108927e+00 -1.310947e+01 1.281785e+01 -2.373413e+01
<VARIANCE> 20
 8.458084e-01 7.243317e-01 2.422158e+01 5.086061e+00 7.202679e+00 1.977337e+00 1.490208e+01 1.226107e+01 7.432729e+00 1.745822e+00 2.572491e+01 1.166166e+01 6.926647e+00 1.675096e+00 3.189574e+01 1.002035e+01 5.583398e+00 1.754600e+00 3.381028e+01 5.042914e+00
<GCONST> 7.285146e+01
<MIXTURE> 4 2.132397e-01
<MEAN> 20
 -8.747824e+00 -2.748803e+00 -2.288897e+01 -1.169859e+01 -9.134220e+00 -1.335480e+01 -2.250396e+01 -1.568266e+01 -5.430060e+00 -1.321442e+01 -2.018652e+01 -1.393821e+01 -2.224020e+00 -1.211585e+01 -1.608887e+01 -1.100634e+01 4.542302e-01 -1.027971e+01 -1.153055e+01 -1.148680e+01
<VARIANCE> 20
 8.242343e+00 3.091760e+00 4.849404e+01 2.377040e+01 4.128389e+01 7.119808e+00 6.442912e+01 4.289153e+01 3.243243e+01 7.918453e+00 7.325610e+01 5.443235e+01 2.732010e+01 1.082398e+01 6.943236e+01 4.364829e+01 3.858512e+01 1.497516e+01 9.028166e+01 5.091673e+01
<GCONST> 1.029906e+02
<STATE> 4
<NUMMIXES> 4
<MIXTURE> 1 2.061244e-01
<MEAN> 20
 -6.005434e+00 -1.705642e+00 -1.219766e+01 -9.069406e+00 -6.136466e+00 -1.126843e+01 -1.007251e+01 -1.359504e+01 -1.693708e+00 -1.155004e+01 -6.680505e+00 -1.397115e+01 2.562513e+00 -1.079900e+01 -1.976747e+00 -1.165917e+01 6.640617e+00 -9.176796e+00 4.100553e+00 -1.089939e+01
<VARIANCE> 20
 1.178313e+01 1.372519e+00 9.012738e+01 1.878843e+01 2.623541e+01 5.487751e+00 6.534576e+01 3.774048e+01 1.129004e+01 4.501404e+00 4.111470e+01 4.949761e+01 6.865901e+00 3.778499e+00 3.456324e+01 4.369956e+01 1.454639e+01 3.422135e+00 6.041232e+01 2.988388e+01
<GCONST> 9.328413e+01
<MIXTURE> 2 3.438220e-01
<MEAN> 20
 -7.625541e+00 -2.135412e+00 -1.943591e+01 -1.038927e+01 -8.997345e+00 -1.237054e+01 -1.817188e+01 -1.358653e+01 -4.257172e+00 -1.341904e+01 -1.324388e+01 -2.342401e+01 8.574268e-01 -1.309282e+01 -4.844157e+00 -2.398957e+01 6.241131e+00 -1.152997e+01 5.656233e+00 -2.078846e+01
<VARIANCE> 20
 2.167594e-01 2.635225e-01 8.507802e+00 2.139016e+00 2.691639e+00 4.738612e-01 7.391943e+00 6.199903e+00 1.825876e+00 4.995339e-01 7.088153e+00 3.760527e+00 1.423288e+00 6.013467e-01 7.774211e+00 2.481958e+00 1.369438e+00 8.125212e-01 1.268918e+01 1.675799e+00
<GCONST> 5.002354e+01
<MIXTURE> 3 2.679337e-01
<MEAN> 20
 -7.841814e+00 -1.516094e+00 -1.985712e+01 -9.453134e+00 -1.077406e+01 -1.097776e+01 -1.843473e+01 -1.173517e+01 -6.471844e+00 -1.157528e+01 -1.481105e+01 -1.344840e+01 -1.805906e+00 -1.139967e+01 -1.021887e+01 -1.342580e+01 3.162313e+00 -1.047428e+01 -3.591811e+00 -1.526478e+01
<VARIANCE> 20
 7.440103e-01 5.306095e-01 2.409257e+01 5.011052e+00 5.241598e+00 1.269877e+00 1.725802e+01 1.270537e+01 3.192704e+00 1.053638e+00 2.098886e+01 3.283618e+01 2.604610e+00 1.069224e+00 2.214456e+01 2.942788e+01 4.421581e+00 1.712815e+00 3.718417e+01 2.339731e+01
<GCONST> 7.195304e+01
<MIXTURE> 4 1.821200e-01
<MEAN> 20
 -1.013355e+01 -2.595893e+00 -2.306097e+01 -1.593254e+01 -1.266396e+01 -1.658516e+01 -2.183485e+01 -1.903029e+01 -6.145907e+00 -1.755500e+01 -1.541833e+01 -2.308220e+01 5.776585e-01 -1.691070e+01 -6.732659e+00 -1.940723e+01 7.281979e+00 -1.490974e+01 2.811049e+00 -1.764340e+01
<VARIANCE> 20
 1.704795e+00 1.816975e+00 4.158870e+01 1.068028e+01 1.283021e+01 3.628759e+00 2.410061e+01 4.410062e+01 1.038963e+01 3.937456e+00 3.345715e+01 1.212801e+02 1.071823e+01 4.203701e+00 5.186680e+01 1.451277e+02 1.465566e+01 4.079617e+00 1.249399e+02 8.245348e+01
<GCONST> 9.287860e+01
<STATE> 5
<NUMMIXES> 4
<MIXTURE> 1 1.412912e-01
<MEAN> 20
 -5.852150e+00 -9.413648e-01 -1.470997e+01 -6.210257e+00 -7.806137e+00 -9.026487e+00 -1.289864e+01 -9.289526e+00 -3.999100e+00 -9.356937e+00 -9.855706e+00 -8.264961e+00 -3.398717e-01 -8.810053e+00 -6.105025e+00 -6.526938e+00 3.096934e+00 -7.581423e+00 -1.471139e+00 -7.379492e+00
<VARIANCE> 20
 1.618216e+01 1.323878e+00 1.263378e+02 1.877006e+01 4.303334e+01 7.327785e+00 1.021617e+02 5.480328e+01 2.204561e+01 7.126988e+00 7.139954e+01 6.930968e+01 1.526690e+01 7.287560e+00 5.215695e+01 5.524300e+01 2.354849e+01 8.634837e+00 6.192948e+01 5.312146e+01
<GCONST> 1.016324e+02
<MIXTURE> 2 2.967872e-01
<MEAN> 20
 -6.370693e+00 -1.437554e+00 -1.606130e+01 -7.984434e+00 -8.411654e+00 -1.024225e+01 -1.495551e+01 -1.164214e+01 -3.962181e+00 -1.132787e+01 -1.043837e+01 -1.960540e+01 7.628578e-01 -1.119090e+01 -2.559574e+00 -2.067900e+01 5.667167e+00 -9.919429e+00 8.137280e+00 -1.768249e+01
<VARIANCE> 20
 4.092759e-01 1.973286e-01 1.040023e+01 1.578887e+00 8.860339e-01 7.695035e-01 9.105270e+00 4.902409e+00 7.015064e-01 6.474026e-01 1.327586e+01 3.722829e+00 8.374312e-01 5.506056e-01 1.416731e+01 2.713718e+00 1.092904e+00 5.320306e-01 2.169361e+01 1.882800e+00
<GCONST> 4.960919e+01
<MIXTURE> 3 3.424723e-01
<MEAN> 20
 -8.101918e+00 -2.485202e+00 -1.469688e+01 -1.209895e+01 -8.665346e+00 -1.338781e+01 -1.478859e+01 -1.684673e+01 -3.576705e+00 -1.373312e+01 -1.120957e+01 -1.781408e+01 1.587410e+00 -1.301438e+01 -6.164101e+00 -1.337810e+01 6.819436e+00 -1.136890e+01 4.732908e-01 -1.358255e+01
<VARIANCE> 20
 7.172560e-01 6.570857e-01 3.130797e+01 5.095299e+00 6.276743e+00 1.222343e+00 1.012311e+01 3.587990e+01 4.589384e+00 1.000997e+00 1.621867e+01 5.366484e+01 3.667239e+00 7.588826e-01 1.596265e+01 3.832094e+01 3.857558e+00 8.432866e-01 3.574502e+01 3.266214e+01
<GCONST> 7.298575e+01
<MIXTURE> 4 2.194493e-01
<MEAN> 20
 -9.371867e+00 -1.734174e+00 -2.378364e+01 -1.170370e+01 -1.376188e+01 -1.352364e+01 -2.167636e+01 -1.542640e+01 -8.336509e+00 -1.454445e+01 -1.737927e+01 -1.903599e+01 -2.438905e+00 -1.431028e+01 -1.077128e+01 -1.722204e+01 3.766125e+00 -1.297002e+01 -1.155712e+00 -1.796420e+01
<VARIANCE> 20
 1.304578e+00 8.629233e-01 3.381682e+01 7.379431e+00 6.182714e+00 3.346030e+00 1.537955e+01 4.753892e+01 5.017363e+00 3.122542e+00 2.103854e+01 8.791409e+01 5.519755e+00 2.500420e+00 2.817937e+01 8.332474e+01 8.064660e+00 1.906300e+00 6.229675e+01 4.950785e+01
<GCONST> 8.344687e+01
<STATE> 6
<NUMMIXES> 4
<MIXTURE> 1 2.925750e-01
<MEAN> 20
 -5.421826e+00 -1.136606e+00 -1.145103e+01 -7.590692e+00 -7.088105e+00 -8.902894e+00 -1.031638e+01 -1.069588e+01 -3.224146e+00 -9.428418e+00 -6.768460e+00 -1.177474e+01 6.857982e-01 -9.189390e+00 -2.327432e+00 -1.124475e+01 4.639758e+00 -8.245290e+00 3.677743e+00 -1.154370e+01
<VARIANCE> 20
 5.560809e+00 5.063875e-01 4.129197e+01 6.693918e+00 1.426338e+01 2.030686e+00 3.300830e+01 1.594061e+01 6.583231e+00 1.837515e+00 2.120666e+01 2.691558e+01 4.030981e+00 1.683251e+00 1.671008e+01 3.038096e+01 6.564333e+00 1.741444e+00 3.526829e+01 2.348120e+01
<GCONST> 7.918647e+01
<MIXTURE> 2 1.837582e-01
<MEAN> 20
 -9.428351e+00 -2.039204e+00 -2.254327e+01 -1.300162e+01 -1.309626e+01 -1.487508e+01 -2.115779e+01 -1.653334e+01 -7.278390e+00 -1.617528e+01 -1.614035e+01 -2.682829e+01 -9.970294e-01 -1.589212e+01 -7.466929e+00 -2.545526e+01 5.695792e+00 -1.419251e+01 4.349449e+00 -2.244996e+01
<VARIANCE> 20
 1.118768e+00 6.638687e-01 2.197584e+01 8.726889e+00 5.561393e+00 3.190496e+00 1.598512e+01 3.284482e+01 5.440073e+00 2.808606e+00 1.964381e+01 4.991871e+01 5.691617e+00 2.322183e+00 2.484522e+01 6.881635e+01 6.144939e+00 1.855125e+00 5.340439e+01 3.791916e+01
<GCONST> 8.054310e+01
<MIXTURE> 3 2.328078e-01
<MEAN> 20
 -7.631726e+00 -2.751595e+00 -1.289151e+01 -1.330358e+01 -6.346757e+00 -1.323392e+01 -1.227686e+01 -1.388883e+01 -1.154634e+00 -1.308928e+01 -8.130143e+00 -1.116200e+01 3.949343e+00 -1.210900e+01 -4.160074e+00 -8.186279e+00 9.030069e+00 -1.037687e+01 1.164198e+00 -9.384114e+00
<VARIANCE> 20
 8.214431e-01 5.226907e-01 3.758285e+01 6.071088e+00 3.797853e+00 1.514766e+00 5.447114e+00 2.474672e+01 3.741040e+00 1.309448e+00 6.325809e+00 2.564462e+01 3.832087e+00 9.824585e-01 5.325305e+00 1.050591e+01 3.907505e+00 9.340516e-01 1.255088e+01 1.814053e+01
<GCONST> 6.674632e+01
<MIXTURE> 4 2.908590e-01
<MEAN> 20
 -7.564957e+00 -2.255144e+00 -1.951975e+01 -1.019412e+01 -8.337378e+00 -1.198736e+01 -1.865011e+01 -1.358334e+01 -4.291770e+00 -1.259720e+01 -1.558496e+01 -1.872790e+01 4.414423e-02 -1.216064e+01 -9.458337e+00 -1.915908e+01 4.507029e+00 -1.072830e+01 -1.074186e+00 -1.766495e+01
<VARIANCE> 20
 4.170376e-01 4.850899e-01 1.223278e+01 2.650121e+00 5.141656e+00 1.072575e+00 9.917790e+00 9.301329e+00 3.646851e+00 5.116234e-01 1.212700e+01 1.828745e+01 2.512675e+00 4.438713e-01 2.054368e+01 2.102566e+01 3.597568e+00 8.165427e-01 5.126311e+01 1.089088e+01
<GCONST> 6.447544e+01
<STATE> 7
<MEAN> 20
 -7.410945e+00 -1.939332e+00 -1.689023e+01 -1.070368e+01 -8.928834e+00 -1.225080e+01 -1.580745e+01 -1.407776e+01 -4.273810e+00 -1.288069e+01 -1.180673e+01 -1.780349e+01 5.172276e-01 -1.240640e+01 -5.865321e+00 -1.658222e+01 5.415832e+00 -1.094233e+01 1.944577e+00 -1.564963e+01
<VARIANCE> 20
 6.874692e+00 9.995587e-01 5.979332e+01 1.076457e+01 1.938580e+01 6.016407e+00 4.818365e+01 2.927272e+01 1.100108e+01 6.164077e+00 4.311008e+01 6.190033e+01 7.973289e+00 5.697199e+00 3.664108e+01 6.803793e+01 1.205026e+01 5.010979e+00 6.143370e+01 4.331939e+01
<GCONST> 9.289340e+01
<TRANSP> 8
 0.000000e+00 1.000000e+00 0.000000e+00 0.000000e+00 0.000000e+00 0.000000e+00 0.000000e+00 0.000000e+00
 0.000000e+00 2.449394e-02 9.755061e-01 0.000000e+00 0.000000e+00 0.000000e+00 0.000000e+00 0.000000e+00
 0.000000e+00 0.000000e+00 4.891200e-01 5.108800e-01 0.000000e+00 0.000000e+00 0.000000e+00 0.000000e+00
 0.000000e+00 0.000000e+00 0.000000e+00 5.121012e-01 4.878988e-01 0.000000e+00 0.000000e+00 0.000000e+00
 0.000000e+00 0.000000e+00 0.000000e+00 0.000000e+00 5.458887e-01 4.541113e-01 0.000000e+00 0.000000e+00
 0.000000e+00 0.000000e+00 0.000000e+00 0.000000e+00 0.000000e+00 5.977621e-01 4.022379e-01 0.000000e+00
 0.000000e+00 0.000000e+00 0.000000e+00 0.000000e+00 0.000000e+00 0.000000e+00 3.264140e-02 9.673586e-01
 0.000000e+00 0.000000e+00 0.000000e+00 0.000000e+00 0.000000e+00 0.000000e+00 0.000000e+00 0.000000e+00
<ENDHMM>
