~o
<STREAMINFO> 1 20
<VECSIZE> 20<NULLD><USER><DIAGC>
~h "g"
<BEGINHMM>
<NUMSTATES> 5
<STATE> 2
<NUMMIXES> 4
<MIXTURE> 1 3.361225e-01
<MEAN> 20
 -6.450747e+00 -1.356585e+00 -1.303111e+01 -9.049396e+00 -8.196653e+00 -9.828094e+00 -1.197582e+01 -1.163328e+01 -3.745863e+00 -1.007641e+01 -8.270387e+00 -1.004518e+01 7.854838e-01 -9.655743e+00 -4.579147e+00 -6.343707e+00 5.405090e+00 -8.676776e+00 -5.107711e-02 -8.802526e+00
<VARIANCE> 20
 7.548251e-01 3.176580e-01 2.263062e+01 3.709990e+00 4.500070e+00 1.597870e+00 7.982012e+00 1.971432e+01 3.383176e+00 1.456297e+00 6.360211e+00 2.632490e+01 2.907151e+00 1.221999e+00 4.490426e+00 8.307238e+00 2.892784e+00 1.182010e+00 6.489077e+00 2.225991e+01
<GCONST> 6.459550e+01
<MIXTURE> 2 1.585450e-01
<MEAN> 20
 -3.735094e+00 -3.175580e+00 -1.267140e+01 -9.733646e+00 -1.252935e+00 -9.888305e+00 -1.477248e+01 -1.084128e+01 4.975455e-01 -8.406239e+00 -9.957188e+00 -5.871731e+00 1.076807e+00 -6.260888e+00 -7.300527e+00 -3.327728e+00 8.682153e-01 -3.967139e+00 -6.411266e+00 -2.313060e+00
<VARIANCE> 20
 8.655971e+00 1.567671e+00 7.843590e+01 1.015807e+01 1.558770e+01 4.202051e+00 7.121476e+01 1.149817e+01 1.045739e+01 4.214491e+00 4.418902e+01 8.666592e+00 1.342757e+01 5.164832e+00 1.980416e+01 4.593457e+00 2.450650e+01 6.380838e+00 2.184695e+01 4.737207e+00
<GCONST> 8.511114e+01
<MIXTURE> 3 1.225266e-01
<MEAN> 20
 -3.983788e+00 -5.657506e+00 -2.855080e+01 -1.507076e+01 -1.214041e+01 -1.174389e+01 -4.137524e+01 -1.338367e+01 -1.243880e+01 -7.858121e+00 -2.543839e+01 -7.388221e+00 -1.306989e+01 -3.538073e+00 -2.029014e+01 -3.128607e+00 -1.388719e+01 5.940000e-01 -1.971679e+01 -2.785042e-02
<VARIANCE> 20
 6.793427e+00 1.603973e+00 3.002054e+01 3.511661e+01 1.941435e+01 6.984952e+00 6.196361e+01 2.074142e+01 2.296296e+01 9.555228e+00 7.838705e+01 1.255049e+01 2.747683e+01 1.118732e+01 1.566298e+01 6.790426e+00 3.201479e+01 1.154246e+01 1.876849e+01 6.446190e+00
<GCONST> 9.156021e+01
<MIXTURE> 4 3.828060e-01
<MEAN> 20
 -8.758460e+00 -1.751202e+00 -1.915312e+01 -1.177213e+01 -1.219499e+01 -1.263053e+01 -1.951664e+01 -1.350970e+01 -7.040725e+00 -1.319990e+01 -1.497053e+01 -1.195358e+01 -1.607596e+00 -1.288419e+01 -9.227815e+00 -8.837819e+00 3.945661e+00 -1.180259e+01 -4.044564e+00 -1.270717e+01
<VARIANCE> 20
 1.557740e+00 1.095962e+00 4.490268e+01 9.462131e+00 1.426804e+01 3.229068e+00 2.433965e+01 3.360651e+01 1.190505e+01 2.772739e+00 2.735143e+01 3.959905e+01 1.000285e+01 2.555060e+00 1.899805e+01 2.317038e+01 9.832514e+00 3.231498e+00 2.631892e+01 5.426562e+01
<GCONST> 8.441660e+01
<STATE> 3
<NUMMIXES> 4
<MIXTURE> 1 4.647324e-01
<MEAN> 20
 -7.359451e+00 -2.550167e+00 -1.238351e+01 -1.238477e+01 -6.638823e+00 -1.268077e+01 -1.363210e+01 -1.378628e+01 -1.570070e+00 -1.269429e+01 -9.868424e+00 -1.137817e+01 3.458489e+00 -1.183099e+01 -5.315518e+00 -6.643463e+00 8.332522e+00 -1.022086e+01 -5.938553e-01 -8.277864e+00
<VARIANCE> 20
 6.624181e-01 4.363882e-01 3.514006e+01 4.576176e+00 4.112859e+00 1.765343e+00 9.545059e+00 2.414576e+01 3.830176e+00 1.576075e+00 1.117429e+01 2.354213e+01 3.456703e+00 1.238094e+00 5.893361e+00 4.570666e+00 2.976836e+00 1.118203e+00 8.377793e+00 1.672802e+01
<GCONST> 6.628214e+01
<MIXTURE> 2 1.961378e-01
<MEAN> 20
 -1.060744e+01 -2.412460e+00 -2.283396e+01 -1.539553e+01 -1.416095e+01 -1.609452e+01 -2.429285e+01 -1.733688e+01 -7.816673e+00 -1.677858e+01 -1.836212e+01 -1.502528e+01 -1.368608e+00 -1.616970e+01 -1.065097e+01 -9.171741e+00 4.847666e+00 -1.451302e+01 -4.573016e+00 -1.224524e+01
<VARIANCE> 20
 2.718973e+00 2.079821e+00 5.925793e+01 2.028503e+01 2.529533e+01 6.363630e+00 3.538664e+01 4.978309e+01 1.768674e+01 6.230806e+00 4.224153e+01 6.782653e+01 1.303421e+01 6.399610e+00 2.747328e+01 2.562936e+01 1.590366e+01 7.526207e+00 4.932404e+01 6.919266e+01
<GCONST> 9.470078e+01
<MIXTURE> 3 2.382567e-01
<MEAN> 20
 -6.396049e+00 -4.126466e+00 -1.746084e+01 -1.341446e+01 -4.625334e-01 -1.371955e+01 -1.719046e+01 -1.538297e+01 3.211487e+00 -1.236121e+01 -1.112316e+01 -8.150870e+00 5.239130e+00 -9.889509e+00 -7.260833e+00 -5.282576e+00 6.090329e+00 -6.969265e+00 -5.652446e+00 -4.259468e+00
<VARIANCE> 20
 2.135200e+00 1.323744e+00 2.233646e+01 8.486830e+00 6.626894e+00 2.524444e+00 2.733332e+01 1.249640e+01 5.522556e+00 2.738647e+00 1.393050e+01 4.993026e+00 9.044931e+00 3.682938e+00 8.983922e+00 2.232532e+00 1.880485e+01 4.605824e+00 1.687355e+01 2.397695e+00
<GCONST> 7.331660e+01
<MIXTURE> 4 1.008730e-01
<MEAN> 20
 -4.705444e+00 -3.483283e+00 -2.117245e+01 -7.322837e+00 -9.850537e+00 -8.901325e+00 -2.741177e+01 -7.440739e+00 -8.591752e+00 -6.555778e+00 -2.027016e+01 -2.474738e+00 -7.677184e+00 -3.489378e+00 -1.538667e+01 -2.243158e-02 -7.116977e+00 -3.231077e-01 -1.339714e+01 1.644859e+00
<VARIANCE> 20
 2.750735e+01 3.769985e+00 2.729254e+02 4.921723e+01 1.299306e+02 1.017493e+01 3.693699e+02 4.546053e+01 1.077317e+02 1.204997e+01 2.345326e+02 3.775392e+01 9.007876e+01 1.573984e+01 1.355314e+02 2.472155e+01 7.980663e+01 1.959057e+01 1.098262e+02 2.326906e+01
<GCONST> 1.146519e+02
<STATE> 4
<NUMMIXES> 4
<MIXTURE> 1 1.724616e-01
<MEAN> 20
 -2.605356e+00 -2.648347e+00 -4.736543e+00 -1.059158e+01 5.416256e-01 -1.164220e+01 -3.747596e+00 -1.325219e+01 2.435782e+00 -1.093080e+01 -1.747396e+00 -9.202606e+00 3.729033e+00 -9.310437e+00 -8.596253e-01 -6.308179e+00 4.615718e+00 -7.188761e+00 3.185801e-01 -6.198276e+00
<VARIANCE> 20
 3.180900e+01 2.507604e+00 2.339129e+02 1.229215e+01 4.882345e+01 6.551814e+00 2.603506e+02 2.304621e+01 1.838724e+01 6.284534e+00 1.524781e+02 2.295921e+01 1.538673e+01 7.443027e+00 5.798241e+01 1.144797e+01 3.700942e+01 1.000650e+01 4.878811e+01 1.982250e+01
<GCONST> 1.005060e+02
<MIXTURE> 2 3.730822e-01
<MEAN> 20
 -8.250813e+00 -2.392664e+00 -1.446715e+01 -1.240991e+01 -9.125052e+00 -1.356566e+01 -1.676841e+01 -1.809207e+01 -3.812495e+00 -1.384169e+01 -1.256309e+01 -1.667822e+01 1.618467e+00 -1.307318e+01 -7.035995e+00 -8.902678e+00 7.026850e+00 -1.143250e+01 -2.433639e+00 -9.930999e+00
<VARIANCE> 20
 6.316988e-01 8.726901e-01 4.119910e+01 5.849332e+00 6.007165e+00 1.994849e+00 1.507729e+01 3.233591e+01 5.467916e+00 1.690579e+00 1.260386e+01 5.711772e+01 4.846540e+00 1.330846e+00 7.863272e+00 1.131363e+01 4.453892e+00 1.362635e+00 1.091625e+01 2.006639e+01
<GCONST> 7.266753e+01
<MIXTURE> 3 2.566881e-01
<MEAN> 20
 -2.377326e+00 -5.244975e+00 -1.957816e+01 -1.665387e+01 -3.085300e+00 -1.201100e+01 -2.714082e+01 -1.533554e+01 -3.311988e+00 -8.802571e+00 -1.279067e+01 -7.621642e+00 -4.840290e+00 -5.166469e+00 -1.224262e+01 -4.614400e+00 -7.084870e+00 -1.681665e+00 -1.226609e+01 -2.063838e+00
<VARIANCE> 20
 2.439521e+00 3.349271e-01 1.856024e+01 7.877096e+00 6.743237e+00 3.551165e+00 2.256388e+01 7.455515e+00 7.578327e+00 4.872447e+00 5.501138e+00 1.705974e+00 8.820292e+00 5.142475e+00 3.683387e+00 1.596510e+00 1.020171e+01 4.772767e+00 4.167295e+00 1.741125e+00
<GCONST> 6.714311e+01
<MIXTURE> 4 1.977682e-01
<MEAN> 20
 -8.006355e+00 -3.565878e+00 -2.730069e+01 -1.183930e+01 -1.130979e+01 -1.336782e+01 -3.135511e+01 -1.442439e+01 -8.008271e+00 -1.205407e+01 -2.287941e+01 -8.118500e+00 -5.526041e+00 -9.547874e+00 -1.687597e+01 -4.560659e+00 -3.786416e+00 -6.502313e+00 -1.468165e+01 -3.919530e+00
<VARIANCE> 20
 1.153224e+01 4.096806e+00 3.406440e+01 2.687167e+01 2.726107e+01 1.197910e+01 7.180905e+01 3.464531e+01 2.552787e+01 1.590053e+01 4.689909e+01 3.637215e+01 3.077730e+01 2.286185e+01 2.849525e+01 2.171265e+01 4.781385e+01 3.030545e+01 4.370544e+01 3.850696e+01
<GCONST> 1.021788e+02
<TRANSP> 5
 0.000000e+00 1.000000e+00 0.000000e+00 0.000000e+00 0.000000e+00
 0.000000e+00 7.536303e-01 2.463697e-01 0.000000e+00 0.000000e+00
 0.000000e+00 0.000000e+00 7.262590e-01 2.737410e-01 0.000000e+00
 0.000000e+00 0.000000e+00 0.000000e+00 6.828103e-01 3.171897e-01
 0.000000e+00 0.000000e+00 0.000000e+00 0.000000e+00 0.000000e+00
<ENDHMM>
