~o
<STREAMINFO> 1 20
<VECSIZE> 20<NULLD><USER><DIAGC>
~h "i"
<BEGINHMM>
<NUMSTATES> 5
<STATE> 2
<NUMMIXES> 4
<MIXTURE> 1 2.712796e-01
<MEAN> 20
 -6.827538e+00 -1.464765e+00 -1.351856e+01 -9.726351e+00 -8.764767e+00 -1.015586e+01 -1.193608e+01 -1.123481e+01 -4.085817e+00 -1.039083e+01 -7.542971e+00 -8.475227e+00 6.716281e-01 -1.004766e+01 -3.641935e+00 -7.262569e+00 5.623877e+00 -9.197824e+00 1.494077e+00 -1.064341e+01
<VARIANCE> 20
 6.512465e-01 3.993701e-01 2.249237e+01 4.848900e+00 2.542760e+00 7.460489e-01 3.498829e+00 1.619386e+01 2.102408e+00 5.713747e-01 3.201277e+00 1.061628e+01 2.069152e+00 4.547487e-01 3.351657e+00 8.039229e+00 2.318091e+00 5.886667e-01 6.847603e+00 2.602153e+01
<GCONST> 5.721598e+01
<MIXTURE> 2 3.724437e-01
<MEAN> 20
 -7.741968e+00 -2.220532e+00 -1.335770e+01 -1.153771e+01 -8.732863e+00 -1.284635e+01 -1.494239e+01 -1.779020e+01 -3.556628e+00 -1.309334e+01 -1.068609e+01 -1.640333e+01 1.659190e+00 -1.229934e+01 -6.085342e+00 -1.098503e+01 6.856213e+00 -1.065742e+01 -7.726562e-01 -1.085091e+01
<VARIANCE> 20
 5.631919e-01 6.425326e-01 3.648512e+01 5.982972e+00 5.080527e+00 1.112778e+00 1.309536e+01 3.123879e+01 4.119657e+00 8.664973e-01 1.240743e+01 5.335656e+01 3.639908e+00 6.678622e-01 8.631821e+00 3.426874e+01 3.638362e+00 8.928044e-01 1.488244e+01 2.859802e+01
<GCONST> 7.045049e+01
<MIXTURE> 3 2.320037e-01
<MEAN> 20
 -1.035659e+01 -1.804344e+00 -2.413974e+01 -1.410438e+01 -1.506887e+01 -1.528845e+01 -2.289318e+01 -1.815425e+01 -8.697076e+00 -1.612481e+01 -1.664868e+01 -1.554477e+01 -2.076524e+00 -1.574031e+01 -1.027654e+01 -1.170870e+01 4.599205e+00 -1.435239e+01 -2.829839e+00 -1.581820e+01
<VARIANCE> 20
 2.060757e+00 1.394987e+00 6.023777e+01 1.707370e+01 1.028353e+01 6.067241e+00 2.990608e+01 5.947735e+01 9.840994e+00 5.335276e+00 3.234189e+01 8.409084e+01 1.046655e+01 4.440324e+00 2.874661e+01 5.436842e+01 1.257189e+01 4.610144e+00 4.244923e+01 8.989241e+01
<GCONST> 9.173545e+01
<MIXTURE> 4 1.242729e-01
<MEAN> 20
 -4.935195e+00 -3.162024e+00 -2.098863e+01 -7.339139e+00 -1.001657e+01 -9.712990e+00 -2.663173e+01 -9.985908e+00 -8.497548e+00 -8.053576e+00 -2.391547e+01 -5.498283e+00 -7.355577e+00 -5.585557e+00 -1.462420e+01 -1.938537e+00 -6.523736e+00 -2.857553e+00 -1.288617e+01 -1.007532e+00
<VARIANCE> 20
 1.764891e+01 5.191279e+00 1.347763e+02 3.249684e+01 7.284175e+01 9.880038e+00 2.298447e+02 4.806762e+01 6.123104e+01 9.563840e+00 2.406475e+02 5.184731e+01 5.809370e+01 1.336657e+01 8.374495e+01 1.986704e+01 6.594608e+01 1.966870e+01 8.568625e+01 2.427141e+01
<GCONST> 1.102326e+02
<STATE> 3
<NUMMIXES> 4
<MIXTURE> 1 3.341120e-01
<MEAN> 20
 -7.303435e+00 -2.669244e+00 -1.324470e+01 -1.306209e+01 -5.946371e+00 -1.306505e+01 -1.212587e+01 -1.502843e+01 -4.733991e-01 -1.293370e+01 -7.534201e+00 -8.942785e+00 4.694248e+00 -1.185762e+01 -3.267831e+00 -6.186641e+00 9.593813e+00 -1.004930e+01 1.721274e+00 -7.583563e+00
<VARIANCE> 20
 6.882947e-01 3.531351e-01 4.105709e+01 4.558544e+00 4.025122e+00 1.313874e+00 7.959497e+00 3.134243e+01 3.251397e+00 1.311911e+00 6.730579e+00 1.228487e+01 2.503038e+00 1.165794e+00 5.236612e+00 2.859762e+00 2.180370e+00 1.215573e+00 9.018964e+00 1.566158e+01
<GCONST> 6.332811e+01
<MIXTURE> 2 2.400644e-01
<MEAN> 20
 -9.259824e+00 -1.404752e+00 -2.243621e+01 -1.211761e+01 -1.423089e+01 -1.235841e+01 -1.845452e+01 -9.977427e+00 -8.881621e+00 -1.311909e+01 -1.284188e+01 -8.011955e+00 -3.095141e+00 -1.322538e+01 -8.661813e+00 -8.162151e+00 2.970341e+00 -1.269559e+01 -2.087849e+00 -1.821881e+01
<VARIANCE> 20
 1.050225e+00 7.722077e-01 2.483090e+01 6.882067e+00 4.650303e+00 2.801187e+00 1.207717e+01 1.204292e+01 4.055757e+00 2.407373e+00 1.161484e+01 8.718651e+00 4.163496e+00 1.950222e+00 1.216606e+01 8.081154e+00 5.126393e+00 1.967639e+00 1.855459e+01 5.692871e+01
<GCONST> 7.208848e+01
<MIXTURE> 3 2.550677e-01
<MEAN> 20
 -6.640369e+00 -1.397710e+00 -1.459776e+01 -8.223581e+00 -8.414145e+00 -1.022286e+01 -1.373599e+01 -1.336782e+01 -3.877057e+00 -1.051004e+01 -9.956803e+00 -1.173677e+01 6.814771e-01 -9.950712e+00 -5.690818e+00 -9.095347e+00 5.201663e+00 -8.709472e+00 1.588986e-01 -1.040116e+01
<VARIANCE> 20
 7.840356e-01 5.657249e-01 2.815959e+01 5.690465e+00 5.815777e+00 1.691224e+00 1.336087e+01 2.632962e+01 4.519704e+00 1.403993e+00 1.546076e+01 3.814486e+01 4.102250e+00 1.214082e+00 1.332508e+01 2.863675e+01 4.509383e+00 1.622556e+00 2.771037e+01 3.065621e+01
<GCONST> 7.368246e+01
<MIXTURE> 4 1.707559e-01
<MEAN> 20
 -7.296022e+00 -3.089247e+00 -2.111947e+01 -1.105700e+01 -8.532718e+00 -1.328690e+01 -2.324764e+01 -1.633255e+01 -5.391164e+00 -1.261925e+01 -2.077438e+01 -1.317036e+01 -2.936227e+00 -1.084003e+01 -1.407632e+01 -7.660940e+00 -1.139933e+00 -8.387423e+00 -1.113213e+01 -7.209958e+00
<VARIANCE> 20
 1.693153e+01 3.603948e+00 1.017846e+02 2.054329e+01 5.334393e+01 9.049196e+00 1.159183e+02 4.071695e+01 3.591248e+01 1.019546e+01 1.175981e+02 5.766629e+01 2.794986e+01 1.387902e+01 5.946058e+01 3.659348e+01 3.757680e+01 1.854629e+01 6.177016e+01 4.823063e+01
<GCONST> 1.060701e+02
<STATE> 4
<NUMMIXES> 4
<MIXTURE> 1 2.395315e-01
<MEAN> 20
 -5.517227e+00 -1.070963e+00 -1.109286e+01 -7.510840e+00 -7.222255e+00 -8.417842e+00 -9.881913e+00 -1.073672e+01 -3.278239e+00 -8.686200e+00 -6.319376e+00 -8.511261e+00 6.895510e-01 -8.414526e+00 -3.046662e+00 -6.854451e+00 4.745306e+00 -7.679404e+00 1.735344e+00 -8.918550e+00
<VARIANCE> 20
 6.163750e-01 2.466383e-01 1.806495e+01 5.051038e+00 2.875175e+00 1.289026e+00 5.679154e+00 1.576489e+01 1.716115e+00 1.196458e+00 4.574945e+00 1.575330e+01 1.349846e+00 1.006593e+00 4.076651e+00 9.906915e+00 1.619527e+00 9.244694e-01 8.316908e+00 1.756648e+01
<GCONST> 5.958200e+01
<MIXTURE> 2 3.104901e-01
<MEAN> 20
 -7.971800e+00 -2.136726e+00 -1.727165e+01 -1.242443e+01 -9.485315e+00 -1.174984e+01 -1.346509e+01 -9.613528e+00 -4.595791e+00 -1.192871e+01 -9.058313e+00 -7.901888e+00 5.712570e-01 -1.165865e+01 -5.679298e+00 -7.581102e+00 5.998657e+00 -1.093020e+01 3.962639e-01 -1.716649e+01
<VARIANCE> 20
 4.449188e-01 3.264641e-01 1.301333e+01 2.258884e+00 2.395050e+00 5.402622e-01 3.613341e+00 4.086925e+00 1.915658e+00 4.459036e-01 4.207338e+00 2.362653e+00 1.734783e+00 4.198712e-01 5.265730e+00 2.323074e+00 1.729867e+00 5.692406e-01 7.367886e+00 2.432860e+01
<GCONST> 5.065881e+01
<MIXTURE> 3 3.698733e-01
<MEAN> 20
 -8.523133e+00 -2.343660e+00 -1.779378e+01 -1.262360e+01 -9.859327e+00 -1.369540e+01 -1.759798e+01 -1.736944e+01 -4.620827e+00 -1.401756e+01 -1.374312e+01 -1.563336e+01 6.439174e-01 -1.331015e+01 -8.646152e+00 -1.206228e+01 5.835935e+00 -1.173941e+01 -1.936738e+00 -1.386785e+01
<VARIANCE> 20
 1.236528e+00 1.320669e+00 4.527246e+01 1.044337e+01 1.254714e+01 2.820443e+00 2.267781e+01 3.647060e+01 1.033726e+01 2.414735e+00 2.942729e+01 5.558774e+01 8.669493e+00 2.287416e+00 2.687863e+01 4.122939e+01 9.576052e+00 2.783580e+00 5.566376e+01 4.569474e+01
<GCONST> 8.543018e+01
<MIXTURE> 4 8.010509e-02
<MEAN> 20
 6.076889e-01 -2.198382e+00 1.503419e-02 -8.807437e+00 1.595780e+00 -1.071988e+01 -1.332290e+00 -1.143566e+01 9.432455e-01 -1.025648e+01 -1.242807e+00 -7.759759e+00 2.121134e-02 -8.860299e+00 -9.670141e-01 -4.321782e+00 -1.061640e+00 -6.935673e+00 -1.547247e+00 -6.031024e+00
<VARIANCE> 20
 5.633368e+01 3.576982e+00 4.841569e+02 3.133488e+01 1.612682e+02 1.503490e+01 5.220065e+02 6.746300e+01 9.165113e+01 2.025595e+01 3.501302e+02 6.281321e+01 6.085959e+01 2.744710e+01 1.593611e+02 3.447485e+01 6.717385e+01 3.490799e+01 1.094749e+02 8.587540e+01
<GCONST> 1.204189e+02
<TRANSP> 5
 0.000000e+00 1.000000e+00 0.000000e+00 0.000000e+00 0.000000e+00
 0.000000e+00 7.371905e-01 2.628095e-01 0.000000e+00 0.000000e+00
 0.000000e+00 0.000000e+00 7.223693e-01 2.776307e-01 0.000000e+00
 0.000000e+00 0.000000e+00 0.000000e+00 7.162583e-01 2.837417e-01
 0.000000e+00 0.000000e+00 0.000000e+00 0.000000e+00 0.000000e+00
<ENDHMM>
