~o
<STREAMINFO> 1 20
<VECSIZE> 20<NULLD><USER><DIAGC>
~h "j"
<BEGINHMM>
<NUMSTATES> 8
<STATE> 2
<MEAN> 20
 -7.609431e+00 -1.670763e+00 -1.812850e+01 -9.611414e+00 -1.127650e+01 -1.166917e+01 -1.715936e+01 -1.204501e+01 -6.670808e+00 -1.195063e+01 -1.283675e+01 -1.069852e+01 -1.939781e+00 -1.129050e+01 -9.167882e+00 -8.386444e+00 2.795130e+00 -9.906887e+00 -4.310416e+00 -1.224757e+01
<VARIANCE> 20
 8.740837e+00 1.982048e+00 4.248580e+01 2.082633e+01 1.638254e+01 5.211739e+00 3.576218e+01 4.720804e+01 1.579123e+01 6.157505e+00 3.346944e+01 6.301560e+01 2.428298e+01 8.500810e+00 4.134010e+01 3.920548e+01 3.952756e+01 1.237666e+01 1.178687e+02 6.564705e+01
<GCONST> 9.837206e+01
<STATE> 3
<NUMMIXES> 4
<MIXTURE> 1 4.221287e-01
<MEAN> 20
 -5.825945e+00 -1.011217e+00 -1.465009e+01 -6.143228e+00 -7.419694e+00 -9.441119e+00 -1.120286e+01 -1.113671e+01 -2.916742e+00 -9.552435e+00 -8.107873e+00 -7.787406e+00 1.533718e+00 -8.931660e+00 -4.131074e+00 -6.463538e+00 5.925838e+00 -7.719589e+00 2.110564e+00 -7.891525e+00
<VARIANCE> 20
 4.032641e-01 2.615303e-01 1.736834e+01 3.927507e+00 3.064929e+00 8.152569e-01 1.023627e+01 2.068911e+01 1.998486e+00 9.043411e-01 7.313011e+00 1.960914e+01 1.589806e+00 8.095951e-01 6.558656e+00 1.382376e+01 1.613265e+00 8.686751e-01 7.752296e+00 1.672529e+01
<GCONST> 6.052158e+01
<MIXTURE> 2 1.283567e-01
<MEAN> 20
 -6.815302e+00 -2.721366e+00 -2.802314e+01 -4.559289e+00 -1.327075e+01 -9.339708e+00 -2.967062e+01 -4.484720e+00 -1.011362e+01 -7.580040e+00 -2.581106e+01 -1.790889e+00 -7.666203e+00 -4.713072e+00 -2.328372e+01 7.551628e-01 -5.826921e+00 -1.313611e+00 -2.537268e+01 2.964338e+00
<VARIANCE> 20
 1.143483e+01 4.988909e+00 8.926968e+00 1.424852e+01 2.253983e+01 2.718386e+00 2.200861e+01 1.503755e+01 9.879010e+00 8.109757e-01 2.405077e+01 1.464789e+01 5.010211e+00 3.386114e+00 1.941069e+01 6.688444e+00 1.511522e+01 7.244267e+00 4.896811e+01 8.081721e+00
<GCONST> 8.188387e+01
<MIXTURE> 3 6.417849e-02
<MEAN> 20
 6.991547e-01 -6.170390e+00 -1.941994e+01 -1.613609e+01 -6.139712e+00 -1.433896e+01 -2.094615e+01 -1.585003e+01 -9.860752e+00 -1.138006e+01 -2.345635e+01 -1.278406e+01 -1.355454e+01 -7.785078e+00 -2.315025e+01 -8.877644e+00 -1.661466e+01 -4.101576e+00 -3.736317e+01 -9.838332e+00
<VARIANCE> 20
 3.391678e+00 5.108377e-01 2.743714e+01 5.867046e+00 4.821278e+00 1.352138e+01 2.079997e+01 3.391884e+00 3.340577e+00 1.219196e+01 2.295379e+01 7.433454e+00 4.554338e+00 8.292744e+00 1.438239e+01 2.898458e+00 5.240916e+00 4.232192e+00 1.164868e+02 2.948061e+00
<GCONST> 7.596823e+01
<MIXTURE> 4 3.853361e-01
<MEAN> 20
 -8.411254e+00 -1.261834e+00 -1.905182e+01 -1.058573e+01 -1.303262e+01 -1.218733e+01 -1.607372e+01 -1.243230e+01 -7.564158e+00 -1.290397e+01 -1.098422e+01 -1.176011e+01 -1.754070e+00 -1.273705e+01 -6.577887e+00 -1.066783e+01 4.204536e+00 -1.179843e+01 -1.888101e-01 -1.779492e+01
<VARIANCE> 20
 1.071437e+00 1.413075e+00 5.911949e+01 9.659440e+00 2.400644e+01 1.938000e+00 2.002928e+01 4.538031e+01 2.225720e+01 1.396708e+00 1.349985e+01 6.161822e+01 1.986011e+01 1.644909e+00 1.707611e+01 3.865499e+01 1.736701e+01 3.807533e+00 4.984223e+01 5.316627e+01
<GCONST> 8.638509e+01
<STATE> 4
<NUMMIXES> 4
<MIXTURE> 1 4.304021e-01
<MEAN> 20
 -7.201825e+00 -2.008264e+00 -9.735386e+00 -9.340472e+00 -8.006427e+00 -1.185977e+01 -1.071095e+01 -1.732619e+01 -2.918879e+00 -1.208718e+01 -6.963182e+00 -1.714325e+01 2.170190e+00 -1.121978e+01 -2.784064e+00 -9.036530e+00 7.298138e+00 -9.528861e+00 2.029260e+00 -8.046996e+00
<VARIANCE> 20
 8.676898e-01 1.745109e+00 1.830197e+01 1.441746e+01 2.096709e+00 2.458203e+00 5.369442e+00 2.850514e+01 1.003561e+00 2.226542e+00 2.932363e+00 5.138372e+01 5.211160e-01 2.051986e+00 2.064346e+00 1.645299e+01 7.039910e-01 2.128065e+00 1.034964e+01 1.227788e+01
<GCONST> 6.407896e+01
<MIXTURE> 2 1.223388e-01
<MEAN> 20
 -5.820432e+00 -2.375520e-01 -2.213493e+01 -6.436177e-01 -6.896894e+00 -6.932124e+00 -2.081492e+01 -3.049217e+00 -4.682923e+00 -7.358553e+00 -2.011058e+01 -2.320633e+00 -3.557692e+00 -6.772080e+00 -1.827035e+01 -1.812825e+00 -3.288668e+00 -5.513947e+00 -1.600303e+01 -1.931029e+00
<VARIANCE> 20
 1.114478e+01 2.472187e+00 1.459983e+01 9.333450e+00 2.340095e+01 2.867667e+00 9.465376e+00 2.073279e+01 4.298804e+00 5.722711e+00 5.880969e+00 1.910532e+01 6.141001e+00 1.457479e+01 1.508081e+01 2.615979e+01 2.278325e+01 2.580650e+01 2.674686e+01 3.250682e+01
<GCONST> 8.601477e+01
<MIXTURE> 3 9.169128e-02
<MEAN> 20
 -2.836135e+00 -6.165710e+00 -2.413612e+01 -1.506380e+01 -8.292441e+00 -1.374605e+01 -2.271065e+01 -1.432250e+01 -9.768661e+00 -1.037711e+01 -2.385576e+01 -1.140375e+01 -1.164025e+01 -6.490974e+00 -2.428868e+01 -6.705880e+00 -1.358780e+01 -2.753002e+00 -3.660406e+01 -5.144951e+00
<VARIANCE> 20
 6.580603e+00 1.810211e+00 2.514630e+00 6.485292e+00 2.118027e+01 3.358200e+00 1.139191e+01 1.113115e+01 5.996991e+01 3.449267e+00 6.084839e+00 1.661666e+01 9.107857e+01 4.215700e+00 3.516897e+00 1.694637e+00 1.025018e+02 3.803251e+00 1.870151e+02 2.781200e+00
<GCONST> 8.103750e+01
<MIXTURE> 4 3.555679e-01
<MEAN> 20
 -8.600432e+00 -1.389574e+00 -2.099496e+01 -1.080282e+01 -1.290898e+01 -1.196265e+01 -1.764214e+01 -1.149186e+01 -7.836294e+00 -1.261613e+01 -1.309126e+01 -1.106270e+01 -2.319543e+00 -1.260843e+01 -8.990726e+00 -1.053067e+01 3.534027e+00 -1.192704e+01 -1.692528e+00 -1.957377e+01
<VARIANCE> 20
 5.656468e-01 5.146569e-01 4.128390e+01 5.382365e+00 5.673489e+00 1.514441e+00 7.858801e+00 4.059242e+01 4.939044e+00 1.418463e+00 7.133575e+00 5.199640e+01 4.650832e+00 1.191122e+00 1.077983e+01 3.277991e+01 4.687625e+00 1.408705e+00 2.883410e+01 3.154125e+01
<GCONST> 7.298580e+01
<STATE> 5
<NUMMIXES> 4
<MIXTURE> 1 5.222396e-01
<MEAN> 20
 -7.404490e+00 -1.956620e+00 -1.629390e+01 -1.027853e+01 -7.621148e+00 -1.181689e+01 -1.372170e+01 -1.108137e+01 -2.854556e+00 -1.181891e+01 -1.033968e+01 -9.076189e+00 1.751452e+00 -1.100651e+01 -6.819551e+00 -7.494124e+00 6.141625e+00 -9.527510e+00 -1.613598e+00 -1.147725e+01
<VARIANCE> 20
 9.600313e-01 7.411864e-01 1.852615e+01 7.877439e+00 6.537028e+00 2.761619e+00 8.498611e+00 2.207683e+01 4.828537e+00 2.064694e+00 1.179807e+01 2.293143e+01 2.795545e+00 1.405844e+00 1.672667e+01 1.291792e+01 2.206871e+00 1.635786e+00 3.234806e+01 3.165081e+01
<GCONST> 7.238744e+01
<MIXTURE> 2 6.480102e-02
<MEAN> 20
 -7.852643e+00 -1.337493e+00 -2.294559e+01 -7.768042e+00 -1.458796e+01 -9.294937e+00 -1.990440e+01 -5.655650e+00 -1.059700e+01 -9.341953e+00 -1.543111e+01 -5.018279e+00 -6.472668e+00 -9.072447e+00 -1.335297e+01 -5.026625e+00 -2.211308e+00 -8.492331e+00 -1.115947e+01 -1.275541e+01
<VARIANCE> 20
 4.018402e+00 2.207788e+00 3.235398e+01 8.705794e+00 1.200025e+01 1.820348e+00 2.021761e+01 6.637617e-01 6.214618e+00 6.604809e+00 6.520419e+00 2.886312e+00 2.863784e+00 1.816886e+01 1.148500e+01 5.468712e+00 1.032144e+01 3.255742e+01 6.485865e+01 7.305618e+01
<GCONST> 7.928404e+01
<MIXTURE> 3 9.077705e-02
<MEAN> 20
 -1.906269e+00 -5.226897e+00 -2.049802e+01 -1.556291e+01 -5.074866e+00 -1.344563e+01 -1.501945e+01 -1.180107e+01 -7.095612e+00 -1.017284e+01 -1.691037e+01 -8.811524e+00 -9.785100e+00 -6.690897e+00 -1.819019e+01 -6.195625e+00 -1.263053e+01 -3.494378e+00 -3.453697e+01 -8.730686e+00
<VARIANCE> 20
 1.645596e+01 4.682324e-01 6.706242e+01 2.364383e+00 2.114011e+01 6.201196e+00 3.556272e+01 6.825835e-01 1.342775e+01 7.307059e+00 1.846272e+01 7.365650e-01 1.851644e+01 6.527208e+00 1.011744e+01 1.146169e+00 2.668977e+01 4.674474e+00 5.898810e+01 3.798431e+00
<GCONST> 7.661073e+01
<MIXTURE> 4 3.221824e-01
<MEAN> 20
 -9.411793e+00 -1.618778e+00 -2.272209e+01 -1.265233e+01 -1.262200e+01 -1.463591e+01 -2.166388e+01 -1.940014e+01 -6.797647e+00 -1.505182e+01 -1.778749e+01 -1.806700e+01 -8.961301e-01 -1.418091e+01 -1.198952e+01 -1.383156e+01 5.106592e+00 -1.224382e+01 -1.431202e+00 -1.680578e+01
<VARIANCE> 20
 1.510489e+00 9.923126e-01 4.642404e+01 5.092910e+00 5.990327e+00 2.068403e+00 1.303155e+01 4.818425e+01 5.712060e+00 1.322340e+00 1.487364e+01 7.032746e+01 4.046188e+00 9.115895e-01 1.713236e+01 5.828637e+01 3.433420e+00 1.398041e+00 5.232856e+01 5.822516e+01
<GCONST> 7.836403e+01
<STATE> 6
<NUMMIXES> 4
<MIXTURE> 1 3.184888e-01
<MEAN> 20
 -6.621544e+00 -2.498798e+00 -1.273839e+01 -9.784755e+00 -3.924613e+00 -1.234000e+01 -1.139264e+01 -8.765143e+00 9.505892e-01 -1.170746e+01 -7.811949e+00 -6.949789e+00 5.086159e+00 -1.007914e+01 -4.551482e+00 -5.730424e+00 8.452681e+00 -7.842887e+00 2.451378e+00 -7.845778e+00
<VARIANCE> 20
 6.215209e-01 7.417088e-01 1.320723e+01 6.541459e+00 5.251887e+00 3.407210e+00 8.539608e+00 1.408942e+01 5.656718e+00 2.926595e+00 1.245630e+01 1.256352e+01 5.333361e+00 2.812269e+00 1.579373e+01 8.733169e+00 4.721429e+00 3.685709e+00 7.300451e+01 2.005026e+01
<GCONST> 7.375647e+01
<MIXTURE> 2 3.103098e-01
<MEAN> 20
 -8.801218e+00 -5.600794e-01 -2.057978e+01 -9.048146e+00 -1.578282e+01 -1.087647e+01 -1.722132e+01 -6.466256e+00 -1.063529e+01 -1.188730e+01 -1.292754e+01 -6.400227e+00 -4.985067e+00 -1.218021e+01 -9.300912e+00 -6.444304e+00 8.554116e-01 -1.178701e+01 -6.892391e+00 -1.596132e+01
<VARIANCE> 20
 3.681205e-01 6.702811e-01 2.070749e+01 3.569861e+00 6.102996e+00 6.262676e-01 1.819339e+00 3.369678e+00 4.499835e+00 4.892181e-01 2.133141e+00 6.476228e+00 3.402394e+00 5.484437e-01 3.468830e+00 5.383635e+00 2.603548e+00 1.198419e+00 1.047487e+01 4.982501e+01
<GCONST> 5.717645e+01
<MIXTURE> 3 1.523032e-01
<MEAN> 20
 -6.692348e+00 -3.300490e+00 -2.266668e+01 -1.256822e+01 -6.516816e+00 -1.282636e+01 -2.259702e+01 -9.830425e+00 -4.181221e+00 -1.175253e+01 -2.041529e+01 -7.965567e+00 -3.003832e+00 -9.705659e+00 -1.865014e+01 -6.096848e+00 -2.681026e+00 -7.128138e+00 -1.902113e+01 -7.752116e+00
<VARIANCE> 20
 1.173174e+01 3.076687e+00 2.067356e+01 1.734973e+01 2.160155e+01 1.120889e+01 8.174426e+01 8.176185e+00 2.101501e+01 9.516697e+00 4.350452e+01 7.964689e+00 2.808192e+01 9.355321e+00 4.947135e+01 4.787597e+00 4.314621e+01 1.000776e+01 9.540444e+01 1.434595e+01
<GCONST> 9.369463e+01
<MIXTURE> 4 2.188981e-01
<MEAN> 20
 -8.024605e+00 -1.041411e+00 -1.175806e+01 -9.383733e+00 -1.323961e+01 -1.259257e+01 -1.835669e+01 -2.251076e+01 -7.612099e+00 -1.350824e+01 -1.406611e+01 -2.505812e+01 -1.756901e+00 -1.297101e+01 -6.515860e+00 -1.422110e+01 4.249025e+00 -1.127532e+01 -9.471222e-01 -1.236830e+01
<VARIANCE> 20
 8.962073e-01 3.436264e-01 5.063361e+01 3.986403e+00 4.005680e+00 1.147704e+00 1.854897e+01 8.981580e+00 3.721797e+00 8.898385e-01 1.084331e+01 8.096969e+00 3.376145e+00 9.198242e-01 7.210339e+00 4.651602e+01 2.805913e+00 1.206003e+00 8.669510e+00 4.476182e+01
<GCONST> 6.732955e+01
<STATE> 7
<MEAN> 20
 -7.984319e+00 -1.939445e+00 -1.727440e+01 -1.030910e+01 -9.624141e+00 -1.266437e+01 -1.716690e+01 -1.319574e+01 -4.800089e+00 -1.259375e+01 -1.458363e+01 -1.135170e+01 -3.811166e-01 -1.143620e+01 -1.044109e+01 -7.852930e+00 3.663897e+00 -9.525844e+00 -6.581103e+00 -1.003173e+01
<VARIANCE> 20
 5.660592e+00 2.374818e+00 4.726509e+01 1.223673e+01 2.894534e+01 6.152687e+00 3.959588e+01 6.689622e+01 2.169193e+01 6.944212e+00 5.163872e+01 5.883829e+01 1.567243e+01 8.730393e+00 4.614259e+01 2.856087e+01 1.758792e+01 1.167879e+01 6.763248e+01 4.455016e+01
<GCONST> 9.725244e+01
<TRANSP> 8
 0.000000e+00 1.000000e+00 0.000000e+00 0.000000e+00 0.000000e+00 0.000000e+00 0.000000e+00 0.000000e+00
 0.000000e+00 7.815287e-02 9.218471e-01 0.000000e+00 0.000000e+00 0.000000e+00 0.000000e+00 0.000000e+00
 0.000000e+00 0.000000e+00 5.250781e-01 4.749220e-01 0.000000e+00 0.000000e+00 0.000000e+00 0.000000e+00
 0.000000e+00 0.000000e+00 0.000000e+00 4.345750e-01 5.654250e-01 0.000000e+00 0.000000e+00 0.000000e+00
 0.000000e+00 0.000000e+00 0.000000e+00 0.000000e+00 5.218220e-01 4.781780e-01 0.000000e+00 0.000000e+00
 0.000000e+00 0.000000e+00 0.000000e+00 0.000000e+00 0.000000e+00 5.894343e-01 4.105657e-01 0.000000e+00
 0.000000e+00 0.000000e+00 0.000000e+00 0.000000e+00 0.000000e+00 0.000000e+00 9.803393e-02 9.019660e-01
 0.000000e+00 0.000000e+00 0.000000e+00 0.000000e+00 0.000000e+00 0.000000e+00 0.000000e+00 0.000000e+00
<ENDHMM>
