~o
<STREAMINFO> 1 20
<VECSIZE> 20<NULLD><USER><DIAGC>
~h "k"
<BEGINHMM>
<NUMSTATES> 8
<STATE> 2
<MEAN> 20
 -7.492604e+00 -1.889203e+00 -1.611008e+01 -1.124069e+01 -8.996455e+00 -1.252054e+01 -1.445563e+01 -1.675956e+01 -4.175872e+00 -1.272350e+01 -1.200231e+01 -1.441040e+01 5.851923e-01 -1.195654e+01 -6.894397e+00 -9.419038e+00 5.246033e+00 -1.038668e+01 -2.286510e+00 -9.020099e+00
<VARIANCE> 20
 9.981588e+00 1.079690e+00 7.711446e+01 1.504075e+01 2.158447e+01 5.884545e+00 5.934055e+01 4.948725e+01 1.173522e+01 6.470882e+00 6.173936e+01 5.741624e+01 9.823388e+00 6.669360e+00 3.781888e+01 3.672161e+01 1.761859e+01 6.728817e+00 3.861637e+01 3.251328e+01
<GCONST> 9.485263e+01
<STATE> 3
<NUMMIXES> 4
<MIXTURE> 1 2.895158e-01
<MEAN> 20
 -5.997892e+00 -1.776812e+00 -1.107121e+01 -1.061898e+01 -6.597321e+00 -1.111537e+01 -9.572666e+00 -1.463683e+01 -2.161162e+00 -1.117275e+01 -6.814240e+00 -1.209682e+01 2.128489e+00 -1.041802e+01 -2.940341e+00 -7.242394e+00 6.344367e+00 -8.994169e+00 9.075148e-01 -6.782372e+00
<VARIANCE> 20
 1.140027e+01 7.811930e-01 6.723413e+01 9.885794e+00 1.883082e+01 3.253406e+00 4.100524e+01 2.802245e+01 7.746392e+00 2.701806e+00 3.258071e+01 2.425237e+01 6.716347e+00 1.857929e+00 1.490580e+01 1.128802e+01 1.490104e+01 1.368895e+00 1.228477e+01 8.986978e+00
<GCONST> 8.168787e+01
<MIXTURE> 2 4.222471e-01
<MEAN> 20
 -8.831853e+00 -2.186525e+00 -1.539286e+01 -1.332470e+01 -1.067260e+01 -1.387227e+01 -1.507142e+01 -1.797925e+01 -4.934520e+00 -1.418620e+01 -1.172442e+01 -1.600034e+01 8.626305e-01 -1.347199e+01 -6.014116e+00 -1.037840e+01 6.763052e+00 -1.187388e+01 -9.734071e-01 -1.021360e+01
<VARIANCE> 20
 7.706594e-01 7.148343e-01 3.268856e+01 8.928113e+00 5.944343e+00 1.300541e+00 1.061003e+01 5.062761e+01 4.793314e+00 1.239500e+00 1.444544e+01 5.662639e+01 4.528247e+00 1.042016e+00 5.207135e+00 2.980838e+01 4.900594e+00 1.048188e+00 7.170722e+00 2.516406e+01
<GCONST> 7.208601e+01
<MIXTURE> 3 1.159595e-01
<MEAN> 20
 -8.005723e+00 -1.998440e+00 -2.353837e+01 -8.138892e+00 -1.112323e+01 -1.164484e+01 -2.354210e+01 -1.268385e+01 -7.274841e+00 -1.154187e+01 -2.272597e+01 -1.091232e+01 -3.709146e+00 -1.044833e+01 -1.517460e+01 -7.536568e+00 -5.756439e-01 -8.582850e+00 -1.076581e+01 -7.362438e+00
<VARIANCE> 20
 6.009492e+00 2.627580e+00 3.666243e+01 2.044139e+01 1.365016e+01 1.128247e+01 3.661005e+01 8.118367e+01 9.132544e+00 1.138630e+01 6.085214e+01 5.405884e+01 8.508698e+00 1.406640e+01 2.955694e+01 5.032939e+01 1.547015e+01 1.799688e+01 3.917164e+01 5.661304e+01
<GCONST> 9.733617e+01
<MIXTURE> 4 1.722775e-01
<MEAN> 20
 -1.131979e+01 -1.516985e+00 -2.684597e+01 -1.276740e+01 -1.679985e+01 -1.585627e+01 -2.556802e+01 -2.552679e+01 -9.898745e+00 -1.697985e+01 -2.164642e+01 -2.531713e+01 -2.645282e+00 -1.659137e+01 -1.372997e+01 -1.485845e+01 4.677258e+00 -1.491473e+01 -6.350228e+00 -1.375280e+01
<VARIANCE> 20
 2.879605e+00 1.041100e+00 4.869807e+01 2.556405e+01 7.367180e+00 2.999037e+00 3.071592e+01 2.799114e+01 5.224275e+00 2.865106e+00 2.413552e+01 5.666980e+01 6.586834e+00 2.812534e+00 2.161828e+01 7.464405e+01 1.159301e+01 3.035955e+00 2.232619e+01 7.638257e+01
<GCONST> 8.606902e+01
<STATE> 4
<NUMMIXES> 4
<MIXTURE> 1 3.888005e-01
<MEAN> 20
 -5.970654e+00 -1.249145e+00 -1.013542e+01 -8.918825e+00 -7.776994e+00 -9.333988e+00 -9.540638e+00 -1.276018e+01 -3.475002e+00 -9.529411e+00 -6.286829e+00 -1.043427e+01 8.220330e-01 -9.155410e+00 -2.668168e+00 -6.736988e+00 5.246542e+00 -8.273384e+00 9.408211e-01 -6.784212e+00
<VARIANCE> 20
 5.330371e-01 3.026314e-01 1.580463e+01 4.608343e+00 2.210481e+00 1.417269e+00 3.152511e+00 2.076349e+01 1.601154e+00 1.244735e+00 2.422835e+00 1.169387e+01 1.590606e+00 1.021401e+00 1.928065e+00 1.004657e+01 2.058558e+00 8.459625e-01 2.834574e+00 7.864123e+00
<GCONST> 5.568626e+01
<MIXTURE> 2 3.293749e-01
<MEAN> 20
 -7.684873e+00 -2.259413e+00 -1.387417e+01 -1.233927e+01 -7.981480e+00 -1.300688e+01 -1.192553e+01 -1.643644e+01 -2.576812e+00 -1.312802e+01 -8.714042e+00 -1.405455e+01 2.820341e+00 -1.218430e+01 -4.428699e+00 -7.868832e+00 8.094653e+00 -1.039752e+01 3.786570e-01 -7.420351e+00
<VARIANCE> 20
 4.255413e-01 3.526140e-01 2.903279e+01 4.353411e+00 1.928980e+00 8.109632e-01 8.843682e+00 4.743619e+01 1.612433e+00 7.321038e-01 8.896779e+00 6.991246e+01 1.487763e+00 5.278307e-01 5.123913e+00 1.297867e+01 1.656229e+00 5.648863e-01 4.390405e+00 1.132661e+01
<GCONST> 6.058105e+01
<MIXTURE> 3 1.731883e-01
<MEAN> 20
 -7.610853e+00 -2.025981e+00 -1.668615e+01 -1.258673e+01 -1.008858e+01 -1.368493e+01 -1.686915e+01 -1.893591e+01 -5.143039e+00 -1.402269e+01 -1.481319e+01 -1.586140e+01 -2.368255e-01 -1.319899e+01 -8.384611e+00 -8.567311e+00 4.473224e+00 -1.145390e+01 -3.616543e+00 -8.532459e+00
<VARIANCE> 20
 2.001427e+01 1.426355e+00 1.208571e+02 2.064919e+01 4.206260e+01 6.642916e+00 1.060270e+02 6.334835e+01 1.811560e+01 7.376469e+00 9.009275e+01 6.229462e+01 1.037813e+01 8.300193e+00 3.178024e+01 3.658253e+01 2.061856e+01 9.293283e+00 2.141032e+01 3.928888e+01
<GCONST> 9.940893e+01
<MIXTURE> 4 1.086363e-01
<MEAN> 20
 -9.897564e+00 -2.466690e+00 -2.710857e+01 -9.534461e+00 -9.355813e+00 -1.383163e+01 -2.444452e+01 -1.693683e+01 -6.088246e+00 -1.400517e+01 -2.455206e+01 -1.557148e+01 -3.500699e+00 -1.324836e+01 -2.258746e+01 -1.334889e+01 -1.817385e+00 -1.155273e+01 -1.913748e+01 -1.285763e+01
<VARIANCE> 20
 1.085922e+00 7.450941e-01 8.870795e+00 6.966049e+00 1.196217e+01 8.141246e-01 9.799520e+00 1.408438e+01 9.262184e+00 6.664718e-01 1.243336e+01 1.332566e+01 4.970679e+00 7.419175e-01 8.593145e+00 1.530687e+01 4.373844e+00 1.283145e+00 1.377423e+01 1.297476e+01
<GCONST> 6.789836e+01
<STATE> 5
<NUMMIXES> 4
<MIXTURE> 1 1.950534e-01
<MEAN> 20
 -5.814733e+00 -1.547462e+00 -1.059445e+01 -1.006252e+01 -7.287269e+00 -1.081762e+01 -1.080223e+01 -1.479033e+01 -2.908212e+00 -1.097473e+01 -7.503643e+00 -1.193468e+01 1.413031e+00 -1.029271e+01 -3.221601e+00 -6.572827e+00 5.684073e+00 -8.931760e+00 8.051414e-01 -7.053219e+00
<VARIANCE> 20
 1.442703e+01 1.046249e+00 7.713105e+01 1.598034e+01 2.679051e+01 5.769950e+00 6.412109e+01 4.127298e+01 1.046069e+01 5.897017e+00 4.055389e+01 4.049450e+01 7.719214e+00 5.421363e+00 1.313341e+01 1.779376e+01 1.820301e+01 5.044975e+00 1.244049e+01 2.420705e+01
<GCONST> 9.045192e+01
<MIXTURE> 2 2.981637e-01
<MEAN> 20
 -7.718883e+00 -2.772323e+00 -1.363915e+01 -1.425922e+01 -6.555840e+00 -1.403649e+01 -1.264027e+01 -2.136104e+01 -1.055667e+00 -1.406222e+01 -1.505160e+01 -1.465900e+01 3.931403e+00 -1.285859e+01 -6.623430e+00 -5.085690e+00 8.170133e+00 -1.073587e+01 -2.039934e+00 -5.063090e+00
<VARIANCE> 20
 4.494927e-01 9.287763e-01 8.571656e+00 5.376532e+00 4.743067e+00 7.289676e-01 1.118590e+01 3.399794e+01 3.527369e+00 4.933775e-01 1.820117e+01 2.741116e+01 2.386371e+00 6.166072e-01 4.188330e+00 2.451311e+00 2.950992e+00 1.014145e+00 5.526779e+00 1.794464e+00
<GCONST> 5.976821e+01
<MIXTURE> 3 1.968168e-01
<MEAN> 20
 -9.514400e+00 -2.785838e+00 -2.067319e+01 -1.398838e+01 -1.046310e+01 -1.439469e+01 -2.028231e+01 -2.368654e+01 -5.415896e+00 -1.441162e+01 -2.654222e+01 -1.470303e+01 -1.057048e+00 -1.294426e+01 -1.152162e+01 -3.990294e+00 2.365232e+00 -1.052085e+01 -7.743081e+00 -3.833758e+00
<VARIANCE> 20
 1.601281e+00 1.188446e+00 9.657411e+00 3.920144e+00 9.352998e+00 1.867213e+00 2.061578e+01 1.883235e+01 6.040446e+00 2.148408e+00 2.574013e+01 2.699188e+01 5.012487e+00 3.558149e+00 1.068773e+01 1.811712e+00 1.073233e+01 5.440341e+00 1.646977e+01 1.750981e+00
<GCONST> 7.223676e+01
<MIXTURE> 4 3.099661e-01
<MEAN> 20
 -7.958021e+00 -1.877336e+00 -2.100909e+01 -9.917358e+00 -1.028037e+01 -1.276157e+01 -2.032790e+01 -1.699441e+01 -5.947492e+00 -1.303333e+01 -1.799600e+01 -1.695992e+01 -1.370444e+00 -1.240490e+01 -1.338622e+01 -1.371026e+01 3.216047e+00 -1.090517e+01 -7.869983e+00 -1.331034e+01
<VARIANCE> 20
 8.327748e-01 8.032519e-01 3.524168e+01 8.558316e+00 6.862750e+00 1.632540e+00 9.871239e+00 1.189522e+01 4.454205e+00 1.578068e+00 1.273213e+01 1.706667e+01 2.976553e+00 1.616084e+00 1.476764e+01 2.171760e+01 4.270597e+00 1.828875e+00 2.160556e+01 2.376927e+01
<GCONST> 7.221605e+01
<STATE> 6
<NUMMIXES> 4
<MIXTURE> 1 6.874385e-02
<MEAN> 20
 8.473717e+00 -2.762451e+00 1.587575e+01 -1.621737e+01 8.841026e+00 -1.394352e+01 1.402199e+01 -2.047479e+01 3.172596e+00 -1.399179e+01 1.143856e+01 -1.475372e+01 -2.376165e+00 -1.314370e+01 5.129683e+00 -6.895785e+00 -7.626449e+00 -1.156021e+01 -1.524035e+00 -1.007728e+01
<VARIANCE> 20
 2.239890e+00 3.796882e-01 1.040760e+01 4.589684e+00 2.015241e+01 2.464509e+00 6.434517e+01 6.381032e+01 9.170356e+00 4.040557e+00 1.650165e+01 4.832143e+01 2.068940e+00 5.424349e+00 1.042019e+01 4.154152e+00 2.399450e+00 6.337697e+00 3.222455e+01 4.956417e+01
<GCONST> 7.926462e+01
<MIXTURE> 2 4.010510e-01
<MEAN> 20
 -6.768112e+00 -2.009802e+00 -1.195971e+01 -1.072195e+01 -7.043184e+00 -1.138380e+01 -1.248890e+01 -1.556357e+01 -2.514880e+00 -1.147102e+01 -1.066807e+01 -1.307571e+01 1.979531e+00 -1.076018e+01 -6.112028e+00 -8.019832e+00 6.311682e+00 -9.343903e+00 -1.603269e+00 -8.194292e+00
<VARIANCE> 20
 5.579861e-01 7.461296e-01 2.148774e+01 3.305065e+00 5.720482e+00 1.630383e+00 9.229628e+00 2.415997e+01 4.510420e+00 1.351305e+00 1.154552e+01 1.998959e+01 3.835580e+00 8.830200e-01 1.046619e+01 1.618661e+01 3.970529e+00 6.786901e-01 1.723297e+01 2.166622e+01
<GCONST> 6.829929e+01
<MIXTURE> 3 1.055844e-01
<MEAN> 20
 -5.729524e+00 -9.884369e-01 -1.560492e+01 -4.777728e+00 -1.014333e+01 -7.774960e+00 -1.699844e+01 -8.449285e+00 -6.176582e+00 -7.735781e+00 -1.447003e+01 -6.242026e+00 -2.448411e+00 -6.808093e+00 -7.314147e+00 -2.819562e+00 7.751112e-01 -5.352986e+00 -4.456647e+00 -1.730293e+00
<VARIANCE> 20
 5.121089e+00 2.583225e+00 2.944764e+01 2.126935e+01 2.474077e+01 4.930245e+00 4.318209e+01 5.423391e+01 2.081514e+01 5.278964e+00 6.969185e+01 5.299703e+01 2.132314e+01 8.009234e+00 2.549773e+01 3.965247e+01 2.845262e+01 1.263922e+01 3.387022e+01 2.997833e+01
<GCONST> 9.612332e+01
<MIXTURE> 4 4.246207e-01
<MEAN> 20
 -9.389816e+00 -2.288905e+00 -1.911138e+01 -1.460442e+01 -1.153746e+01 -1.468110e+01 -1.938372e+01 -2.005436e+01 -5.672435e+00 -1.512106e+01 -1.745790e+01 -1.606355e+01 1.925105e-01 -1.431062e+01 -9.905094e+00 -8.441178e+00 5.799634e+00 -1.249201e+01 -3.830135e+00 -8.834208e+00
<VARIANCE> 20
 1.569348e+00 1.237784e+00 3.550212e+01 9.688954e+00 1.577665e+01 2.052110e+00 3.320209e+01 5.042217e+01 1.216559e+01 2.382918e+00 4.575988e+01 6.493181e+01 9.993183e+00 2.911058e+00 2.702427e+01 2.652197e+01 1.267533e+01 3.608927e+00 3.771811e+01 3.217023e+01
<GCONST> 8.639561e+01
<STATE> 7
<MEAN> 20
 -7.648587e+00 -2.053382e+00 -1.507905e+01 -1.207555e+01 -8.894829e+00 -1.282560e+01 -1.485495e+01 -1.834198e+01 -3.961540e+00 -1.300632e+01 -1.388164e+01 -1.393049e+01 8.032033e-01 -1.213203e+01 -7.272319e+00 -7.609387e+00 5.327058e+00 -1.043408e+01 -2.818030e+00 -7.704187e+00
<VARIANCE> 20
 9.522279e+00 1.512902e+00 6.723295e+01 1.552551e+01 2.152054e+01 6.865900e+00 6.059672e+01 5.313997e+01 1.189009e+01 7.180281e+00 7.573564e+01 4.255475e+01 9.690420e+00 6.912030e+00 3.096658e+01 2.923638e+01 1.638611e+01 6.502453e+00 3.121149e+01 3.121316e+01
<GCONST> 9.453665e+01
<TRANSP> 8
 0.000000e+00 1.000000e+00 0.000000e+00 0.000000e+00 0.000000e+00 0.000000e+00 0.000000e+00 0.000000e+00
 0.000000e+00 2.088826e-02 9.791118e-01 0.000000e+00 0.000000e+00 0.000000e+00 0.000000e+00 0.000000e+00
 0.000000e+00 0.000000e+00 4.795076e-01 5.204924e-01 0.000000e+00 0.000000e+00 0.000000e+00 0.000000e+00
 0.000000e+00 0.000000e+00 0.000000e+00 5.970871e-01 4.029129e-01 0.000000e+00 0.000000e+00 0.000000e+00
 0.000000e+00 0.000000e+00 0.000000e+00 0.000000e+00 5.782807e-01 4.217193e-01 0.000000e+00 0.000000e+00
 0.000000e+00 0.000000e+00 0.000000e+00 0.000000e+00 0.000000e+00 4.979687e-01 5.020313e-01 0.000000e+00
 0.000000e+00 0.000000e+00 0.000000e+00 0.000000e+00 0.000000e+00 0.000000e+00 1.701395e-02 9.829861e-01
 0.000000e+00 0.000000e+00 0.000000e+00 0.000000e+00 0.000000e+00 0.000000e+00 0.000000e+00 0.000000e+00
<ENDHMM>
