~o
<STREAMINFO> 1 20
<VECSIZE> 20<NULLD><USER><DIAGC>
~h "m"
<BEGINHMM>
<NUMSTATES> 8
<STATE> 2
<MEAN> 20
 -7.115109e+00 -2.058277e+00 -1.297975e+01 -1.112086e+01 -8.400164e+00 -1.210818e+01 -1.509583e+01 -1.412644e+01 -3.966209e+00 -1.231462e+01 -1.169478e+01 -1.306151e+01 4.433956e-01 -1.160622e+01 -7.397399e+00 -1.048547e+01 4.834933e+00 -1.010778e+01 -2.863345e+00 -9.319946e+00
<VARIANCE> 20
 1.083059e+01 1.425714e+00 8.211581e+01 1.377219e+01 2.824015e+01 6.017711e+00 7.451394e+01 2.874492e+01 1.683303e+01 6.050055e+00 6.700545e+01 3.859681e+01 1.291376e+01 6.242328e+00 5.012482e+01 2.804758e+01 1.966693e+01 6.734074e+00 5.202493e+01 2.670460e+01
<GCONST> 9.557236e+01
<STATE> 3
<NUMMIXES> 4
<MIXTURE> 1 2.451654e-01
<MEAN> 20
 -5.267680e+00 -1.186440e+00 -8.439962e+00 -7.435720e+00 -6.625308e+00 -8.342545e+00 -8.872768e+00 -9.962094e+00 -2.914346e+00 -8.594856e+00 -5.650965e+00 -9.221851e+00 7.973428e-01 -8.267695e+00 -2.512341e+00 -8.142091e+00 4.674055e+00 -7.409948e+00 8.042476e-01 -7.237838e+00
<VARIANCE> 20
 3.911542e-01 3.240975e-01 2.357003e+01 3.820019e+00 1.995789e+00 1.009094e+00 4.041612e+00 8.246063e+00 9.888639e-01 9.178569e-01 4.434997e+00 1.047620e+01 8.405201e-01 7.887164e-01 4.704413e+00 9.929980e+00 1.299623e+00 7.378129e-01 5.269437e+00 8.828376e+00
<GCONST> 5.437149e+01
<MIXTURE> 2 4.089599e-01
<MEAN> 20
 -7.753664e+00 -2.209807e+00 -1.247108e+01 -1.182924e+01 -8.577487e+00 -1.258822e+01 -1.453397e+01 -1.519428e+01 -3.378527e+00 -1.280694e+01 -1.050060e+01 -1.372609e+01 1.859321e+00 -1.206658e+01 -6.014117e+00 -1.045255e+01 7.139025e+00 -1.048440e+01 -1.164065e+00 -9.200157e+00
<VARIANCE> 20
 9.367390e-01 7.157961e-01 4.590838e+01 6.846599e+00 6.836406e+00 2.158597e+00 1.151420e+01 2.923530e+01 5.676111e+00 1.878102e+00 1.303117e+01 3.958893e+01 5.291286e+00 1.446214e+00 1.254090e+01 2.037944e+01 5.383053e+00 1.416910e+00 1.482559e+01 1.729680e+01
<GCONST> 7.438849e+01
<MIXTURE> 3 8.744185e-02
<MEAN> 20
 3.030067e+00 -2.130568e+00 2.964278e+00 -1.023903e+01 4.674994e+00 -1.176772e+01 3.844879e+00 -1.311933e+01 2.389706e+00 -1.170035e+01 1.427616e+00 -1.132763e+01 -3.255975e-01 -1.067774e+01 3.812995e-01 -8.962088e+00 -3.296692e+00 -8.990454e+00 -2.269353e+00 -8.199497e+00
<VARIANCE> 20
 5.354852e+01 3.407126e+00 3.737690e+02 3.371407e+01 1.068560e+02 1.252752e+01 4.285985e+02 5.332298e+01 5.591154e+01 1.291991e+01 3.396426e+02 6.282779e+01 3.475311e+01 1.536458e+01 1.931087e+02 5.213765e+01 4.076253e+01 1.901234e+01 1.349823e+02 5.506353e+01
<GCONST> 1.162566e+02
<MIXTURE> 4 2.584330e-01
<MEAN> 20
 -1.035434e+01 -2.394219e+00 -1.956935e+01 -1.540035e+01 -1.395534e+01 -1.578072e+01 -2.342672e+01 -1.745492e+01 -8.128751e+00 -1.648866e+01 -1.945452e+01 -1.752060e+01 -2.086968e+00 -1.598827e+01 -1.337886e+01 -1.458903e+01 3.943968e+00 -1.434175e+01 -6.590091e+00 -1.310455e+01
<VARIANCE> 20
 1.862969e+00 1.172215e+00 4.916037e+01 1.185068e+01 9.391906e+00 4.674396e+00 1.794773e+01 4.345643e+01 9.264912e+00 4.336864e+00 2.685569e+01 6.207288e+01 1.073963e+01 3.733845e+00 4.013066e+01 5.258617e+01 1.499324e+01 3.483236e+00 7.337668e+01 5.666384e+01
<GCONST> 8.909370e+01
<STATE> 4
<NUMMIXES> 4
<MIXTURE> 1 2.502836e-01
<MEAN> 20
 -5.968131e+00 -1.254327e+00 -8.946527e+00 -8.594786e+00 -8.276450e+00 -9.255793e+00 -1.060299e+01 -1.108645e+01 -4.071113e+00 -9.612367e+00 -6.893348e+00 -1.086492e+01 1.733204e-01 -9.322438e+00 -3.078259e+00 -9.972490e+00 4.715400e+00 -8.421595e+00 8.841067e-01 -8.224117e+00
<VARIANCE> 20
 4.715907e-01 3.004404e-01 2.506987e+01 3.281283e+00 1.837582e+00 4.489335e-01 3.173708e+00 7.832487e+00 1.113529e+00 4.099215e-01 2.986364e+00 9.100247e+00 8.984572e-01 3.945992e-01 3.358045e+00 8.085759e+00 1.074365e+00 4.599882e-01 3.498154e+00 5.995464e+00
<GCONST> 4.935506e+01
<MIXTURE> 2 3.301076e-01
<MEAN> 20
 -7.596908e+00 -2.205064e+00 -1.149975e+01 -1.169739e+01 -8.262223e+00 -1.184757e+01 -1.252370e+01 -1.157109e+01 -3.293992e+00 -1.194850e+01 -8.170226e+00 -1.049398e+01 1.758260e+00 -1.136719e+01 -4.087091e+00 -9.330816e+00 7.066482e+00 -1.013116e+01 9.751552e-01 -1.078351e+01
<VARIANCE> 20
 7.038943e-01 4.306377e-01 3.694374e+01 4.397908e+00 2.983838e+00 7.328316e-01 4.027723e+00 1.167473e+01 2.383225e+00 5.706954e-01 4.455702e+00 1.461753e+01 2.153476e+00 4.904166e-01 4.960662e+00 1.044855e+01 2.019938e+00 7.605228e-01 6.774804e+00 2.428551e+01
<GCONST> 5.930641e+01
<MIXTURE> 3 3.214431e-01
<MEAN> 20
 -8.520901e+00 -2.450172e+00 -1.444525e+01 -1.320552e+01 -9.448053e+00 -1.389130e+01 -1.898368e+01 -1.664247e+01 -4.426400e+00 -1.421505e+01 -1.567787e+01 -1.601194e+01 6.857435e-01 -1.351403e+01 -1.080946e+01 -1.300084e+01 5.731864e+00 -1.184929e+01 -5.810663e+00 -1.063900e+01
<VARIANCE> 20
 1.210856e+00 1.381599e+00 3.986483e+01 7.034868e+00 1.254830e+01 3.023111e+00 1.456673e+01 2.437975e+01 9.771542e+00 2.341194e+00 1.653276e+01 3.158621e+01 7.836947e+00 1.835472e+00 1.658241e+01 2.288652e+01 8.149119e+00 1.846714e+00 2.354837e+01 1.797306e+01
<GCONST> 7.916934e+01
<MIXTURE> 4 9.816564e-02
<MEAN> 20
 -4.387826e+00 -2.052074e+00 -1.407039e+01 -7.379377e+00 -6.355281e+00 -1.030686e+01 -1.658095e+01 -9.756482e+00 -4.584019e+00 -9.803570e+00 -1.564155e+01 -7.560388e+00 -3.240269e+00 -8.371938e+00 -1.088426e+01 -4.773685e+00 -2.275021e+00 -6.375032e+00 -9.107866e+00 -4.548020e+00
<VARIANCE> 20
 4.306983e+01 5.002113e+00 2.916475e+02 5.805523e+01 1.297350e+02 2.535784e+01 3.697289e+02 1.027473e+02 9.286636e+01 2.705899e+01 3.514724e+02 1.060018e+02 7.805389e+01 3.019349e+01 2.046226e+02 8.465840e+01 8.707016e+01 3.330240e+01 1.924995e+02 8.217262e+01
<GCONST> 1.240316e+02
<STATE> 5
<NUMMIXES> 4
<MIXTURE> 1 1.352407e-01
<MEAN> 20
 -1.941375e+00 -1.549471e+00 -3.471963e+00 -9.271893e+00 -1.545757e+00 -9.884809e+00 -2.769797e+00 -1.062057e+01 8.375841e-02 -1.006868e+01 -1.582380e+00 -9.483081e+00 1.486561e+00 -9.528177e+00 -2.045760e-01 -8.334797e+00 2.844157e+00 -8.380912e+00 1.311118e+00 -7.709509e+00
<VARIANCE> 20
 3.569653e+01 7.100430e-01 1.146384e+02 7.373241e+00 6.435432e+01 3.160560e+00 1.187899e+02 1.132962e+01 1.979535e+01 3.165887e+00 6.230740e+01 1.051291e+01 8.280342e+00 3.197110e+00 2.674885e+01 8.808997e+00 3.179348e+01 3.521806e+00 2.452682e+01 1.642621e+01
<GCONST> 8.932758e+01
<MIXTURE> 2 2.968980e-01
<MEAN> 20
 -7.103203e+00 -2.664552e+00 -7.648119e+00 -1.226895e+01 -5.763457e+00 -1.279609e+01 -1.267608e+01 -1.482807e+01 -7.130952e-01 -1.272683e+01 -9.116388e+00 -1.340033e+01 4.310142e+00 -1.172798e+01 -5.061448e+00 -1.016543e+01 9.260841e+00 -9.878519e+00 -1.763226e-01 -7.339738e+00
<VARIANCE> 20
 3.146076e-01 3.310101e-01 2.380949e+01 3.279206e+00 2.643282e+00 7.755870e-01 7.783585e+00 2.063445e+01 2.283772e+00 7.342072e-01 7.506541e+00 2.817035e+01 1.793897e+00 6.378275e-01 6.616083e+00 1.644979e+01 1.696117e+00 6.971191e-01 6.722089e+00 4.891633e+00
<GCONST> 5.900595e+01
<MIXTURE> 3 3.680547e-01
<MEAN> 20
 -7.716517e+00 -1.905021e+00 -1.197892e+01 -1.104452e+01 -9.909317e+00 -1.158513e+01 -1.666678e+01 -1.382784e+01 -5.261935e+00 -1.203864e+01 -1.300998e+01 -1.382309e+01 -3.648679e-01 -1.168415e+01 -8.471357e+00 -1.280504e+01 4.864473e+00 -1.055043e+01 -3.049827e+00 -1.147450e+01
<VARIANCE> 20
 6.662616e-01 4.906779e-01 3.334933e+01 3.556107e+00 2.986160e+00 1.106221e+00 8.557734e+00 1.221393e+01 1.920773e+00 9.351508e-01 1.104611e+01 1.675120e+01 1.680368e+00 8.203976e-01 1.250672e+01 1.515118e+01 2.232897e+00 9.487713e-01 1.587360e+01 1.784827e+01
<GCONST> 6.402846e+01
<MIXTURE> 4 1.998066e-01
<MEAN> 20
 -9.386296e+00 -2.238263e+00 -2.228028e+01 -1.196025e+01 -1.230093e+01 -1.390172e+01 -2.533187e+01 -1.470573e+01 -7.646264e+00 -1.404885e+01 -2.176997e+01 -1.288159e+01 -3.267057e+00 -1.299763e+01 -1.594557e+01 -9.468603e+00 7.425410e-01 -1.100822e+01 -1.121783e+01 -8.162174e+00
<VARIANCE> 20
 7.003441e+00 2.727774e+00 5.957526e+01 2.599803e+01 2.988553e+01 9.910420e+00 4.188618e+01 5.081335e+01 2.333402e+01 9.972506e+00 4.951746e+01 5.869346e+01 2.173318e+01 1.179297e+01 4.486994e+01 4.307584e+01 3.229392e+01 1.456642e+01 5.933700e+01 4.296205e+01
<GCONST> 1.009414e+02
<STATE> 6
<NUMMIXES> 4
<MIXTURE> 1 2.673445e-01
<MEAN> 20
 -6.407485e+00 -1.639737e+00 -9.100401e+00 -9.608978e+00 -7.510727e+00 -1.029485e+01 -1.164673e+01 -1.215396e+01 -3.050761e+00 -1.049424e+01 -8.043910e+00 -1.156937e+01 1.463104e+00 -9.979841e+00 -4.213394e+00 -1.012430e+01 6.175890e+00 -8.778749e+00 4.117887e-01 -8.587869e+00
<VARIANCE> 20
 5.899745e-01 4.592032e-01 2.763474e+01 3.748842e+00 2.457805e+00 1.035896e+00 5.746629e+00 1.081582e+01 1.978912e+00 8.595949e-01 6.698341e+00 1.387479e+01 2.146689e+00 6.662198e-01 7.653257e+00 9.547914e+00 2.967636e+00 6.562181e-01 8.846030e+00 1.110544e+01
<GCONST> 6.012262e+01
<MIXTURE> 2 3.810965e-01
<MEAN> 20
 -7.737525e+00 -2.645059e+00 -6.787586e+00 -1.248322e+01 -7.809629e+00 -1.257151e+01 -1.571499e+01 -1.451392e+01 -2.940372e+00 -1.279176e+01 -1.214796e+01 -1.443860e+01 2.171311e+00 -1.217094e+01 -7.744404e+00 -1.280458e+01 7.550129e+00 -1.066731e+01 -2.217455e+00 -8.831409e+00
<VARIANCE> 20
 4.150520e-01 3.076136e-01 1.791187e+01 2.345921e+00 2.222298e+00 8.106781e-01 3.308002e+00 1.499045e+01 1.476387e+00 6.363989e-01 4.692621e+00 1.759046e+01 1.196234e+00 4.700650e-01 5.472669e+00 1.297525e+01 1.289762e+00 4.422580e-01 5.476268e+00 7.574284e+00
<GCONST> 5.413173e+01
<MIXTURE> 3 2.616751e-01
<MEAN> 20
 -9.211506e+00 -1.404364e+00 -1.739556e+01 -1.229052e+01 -1.400849e+01 -1.297627e+01 -2.198179e+01 -1.423951e+01 -8.737703e+00 -1.381450e+01 -1.777991e+01 -1.385368e+01 -3.130802e+00 -1.361914e+01 -1.198911e+01 -1.127131e+01 2.662483e+00 -1.247686e+01 -6.248628e+00 -1.119209e+01
<VARIANCE> 20
 1.434932e+00 8.755755e-01 4.922443e+01 8.447485e+00 5.037978e+00 3.361043e+00 1.779357e+01 3.161715e+01 4.586981e+00 2.782585e+00 2.272847e+01 4.298868e+01 5.408015e+00 2.252511e+00 2.267402e+01 2.856003e+01 7.531287e+00 2.099682e+00 2.996599e+01 3.746272e+01
<GCONST> 8.036641e+01
<MIXTURE> 4 8.988371e-02
<MEAN> 20
 -5.208696e+00 -2.566112e+00 -1.173569e+01 -1.168871e+01 -3.965668e+00 -1.270483e+01 -9.588069e+00 -1.201050e+01 -4.621279e-01 -1.259431e+01 -6.708043e+00 -1.059010e+01 2.560941e+00 -1.139482e+01 -2.994293e+00 -8.910707e+00 5.074031e+00 -9.382258e+00 2.348262e+00 -1.002855e+01
<VARIANCE> 20
 4.222785e+01 3.409418e+00 2.330649e+02 4.716618e+01 9.521899e+01 1.679635e+01 2.572086e+02 6.650819e+01 5.905257e+01 1.655662e+01 2.045936e+02 9.698901e+01 5.346539e+01 1.662461e+01 1.456260e+02 7.561630e+01 7.848203e+01 1.658960e+01 1.920049e+02 7.845872e+01
<GCONST> 1.178259e+02
<STATE> 7
<MEAN> 20
 -7.290780e+00 -1.983866e+00 -1.139044e+01 -1.116194e+01 -8.678139e+00 -1.203883e+01 -1.486917e+01 -1.319662e+01 -4.116201e+00 -1.229957e+01 -1.145975e+01 -1.240732e+01 4.982820e-01 -1.167491e+01 -7.046214e+00 -1.060232e+01 5.193893e+00 -1.025449e+01 -2.074479e+00 -9.460746e+00
<VARIANCE> 20
 1.070466e+01 1.278288e+00 9.135179e+01 1.501723e+01 2.821831e+01 6.812405e+00 7.086707e+01 2.886301e+01 1.712008e+01 6.868865e+00 6.155658e+01 3.571426e+01 1.335140e+01 7.005030e+00 4.158338e+01 2.800857e+01 1.890605e+01 7.290133e+00 4.589191e+01 3.160105e+01
<GCONST> 9.574644e+01
<TRANSP> 8
 0.000000e+00 1.000000e+00 0.000000e+00 0.000000e+00 0.000000e+00 0.000000e+00 0.000000e+00 0.000000e+00
 0.000000e+00 6.251416e-02 9.374858e-01 0.000000e+00 0.000000e+00 0.000000e+00 0.000000e+00 0.000000e+00
 0.000000e+00 0.000000e+00 4.653066e-01 5.346934e-01 0.000000e+00 0.000000e+00 0.000000e+00 0.000000e+00
 0.000000e+00 0.000000e+00 0.000000e+00 5.510679e-01 4.489321e-01 0.000000e+00 0.000000e+00 0.000000e+00
 0.000000e+00 0.000000e+00 0.000000e+00 0.000000e+00 5.531828e-01 4.468172e-01 0.000000e+00 0.000000e+00
 0.000000e+00 0.000000e+00 0.000000e+00 0.000000e+00 0.000000e+00 5.915559e-01 4.084442e-01 0.000000e+00
 0.000000e+00 0.000000e+00 0.000000e+00 0.000000e+00 0.000000e+00 0.000000e+00 7.963179e-02 9.203682e-01
 0.000000e+00 0.000000e+00 0.000000e+00 0.000000e+00 0.000000e+00 0.000000e+00 0.000000e+00 0.000000e+00
<ENDHMM>
