~o
<STREAMINFO> 1 20
<VECSIZE> 20<NULLD><USER><DIAGC>
~h "m"
<BEGINHMM>
<NUMSTATES> 5
<STATE> 2
<NUMMIXES> 4
<MIXTURE> 1 1.300287e-01
<MEAN> 20
 -5.028309e+00 -2.504748e+00 -1.366661e+01 -9.504201e+00 -4.336338e+00 -1.124581e+01 -1.377940e+01 -1.213777e+01 -1.451576e+00 -1.063308e+01 -1.172233e+01 -9.607602e+00 7.235309e-01 -9.089848e+00 -8.064297e+00 -6.544612e+00 2.289131e+00 -6.978520e+00 -4.394422e+00 -5.979277e+00
<VARIANCE> 20
 1.868075e+01 2.924236e+00 1.168390e+02 1.798586e+01 4.235344e+01 6.911603e+00 1.475007e+02 2.864252e+01 2.837008e+01 5.235319e+00 1.354789e+02 2.774970e+01 3.084575e+01 5.371178e+00 9.077307e+01 1.587276e+01 5.220258e+01 7.172819e+00 1.245847e+02 2.106874e+01
<GCONST> 1.018504e+02
<MIXTURE> 2 2.975275e-01
<MEAN> 20
 -7.582975e+00 -2.806819e+00 -1.092417e+01 -1.308192e+01 -6.185090e+00 -1.362715e+01 -1.356625e+01 -1.595730e+01 -1.011106e+00 -1.355902e+01 -9.968543e+00 -1.422801e+01 4.017447e+00 -1.248473e+01 -5.991318e+00 -1.070765e+01 8.801734e+00 -1.052873e+01 -1.433823e+00 -8.761022e+00
<VARIANCE> 20
 8.281179e-01 5.465890e-01 3.539587e+01 5.602634e+00 4.290685e+00 1.352221e+00 1.448813e+01 2.726075e+01 3.281841e+00 1.260808e+00 1.764980e+01 3.733747e+01 2.616145e+00 1.233329e+00 1.827043e+01 2.313493e+01 3.259082e+00 1.469819e+00 2.446773e+01 1.313441e+01
<GCONST> 7.145979e+01
<MIXTURE> 3 2.809160e-01
<MEAN> 20
 -7.323061e+00 -1.592108e+00 -1.230001e+01 -1.021985e+01 -9.798722e+00 -1.092118e+01 -1.580089e+01 -1.329645e+01 -5.282808e+00 -1.134908e+01 -1.225212e+01 -1.324483e+01 -5.711854e-01 -1.101311e+01 -7.944928e+00 -1.199855e+01 4.431339e+00 -9.929365e+00 -3.025776e+00 -1.048637e+01
<VARIANCE> 20
 8.083746e-01 5.562661e-01 3.291842e+01 4.837841e+00 4.205531e+00 9.685553e-01 1.151321e+01 9.729505e+00 2.493099e+00 8.019125e-01 1.505044e+01 1.244853e+01 1.801558e+00 7.297883e-01 1.680097e+01 9.555972e+00 2.259560e+00 8.643810e-01 1.912347e+01 1.187820e+01
<GCONST> 6.452501e+01
<MIXTURE> 4 2.915278e-01
<MEAN> 20
 -9.513300e+00 -1.781439e+00 -1.720534e+01 -1.354337e+01 -1.406504e+01 -1.377721e+01 -2.337560e+01 -1.538570e+01 -8.888144e+00 -1.459869e+01 -1.969518e+01 -1.543110e+01 -3.364387e+00 -1.436686e+01 -1.401795e+01 -1.258267e+01 2.308582e+00 -1.310875e+01 -8.345518e+00 -1.079425e+01
<VARIANCE> 20
 1.509777e+00 1.152887e+00 3.639100e+01 1.055117e+01 5.442529e+00 4.083972e+00 1.317758e+01 2.805048e+01 4.743795e+00 3.427397e+00 1.790227e+01 3.811824e+01 4.953409e+00 2.742046e+00 2.056197e+01 2.938217e+01 6.536752e+00 2.276316e+00 2.961069e+01 3.169621e+01
<GCONST> 8.014737e+01
<STATE> 3
<NUMMIXES> 4
<MIXTURE> 1 7.502944e-02
<MEAN> 20
 7.949792e+00 -1.798836e+00 1.378416e+01 -1.160997e+01 1.106868e+01 -1.190051e+01 1.661590e+01 -1.240235e+01 6.148973e+00 -1.240393e+01 1.220295e+01 -1.111832e+01 9.387987e-01 -1.196424e+01 7.739748e+00 -9.960672e+00 -4.399153e+00 -1.077640e+01 1.949579e+00 -9.632991e+00
<VARIANCE> 20
 3.382110e+00 1.190909e+00 8.625924e+01 1.499866e+01 1.395858e+01 5.324916e+00 4.038498e+01 2.422824e+01 1.254972e+01 5.535939e+00 4.212431e+01 2.381100e+01 1.170601e+01 5.709047e+00 4.103002e+01 2.159836e+01 1.177988e+01 6.081112e+00 4.245991e+01 3.810492e+01
<GCONST> 9.031184e+01
<MIXTURE> 2 3.504842e-01
<MEAN> 20
 -6.690366e+00 -1.776461e+00 -1.071898e+01 -1.011873e+01 -7.571484e+00 -1.070868e+01 -1.149698e+01 -1.184752e+01 -2.853150e+00 -1.083556e+01 -7.462588e+00 -1.070376e+01 1.887941e+00 -1.025476e+01 -3.518973e+00 -9.185415e+00 6.803331e+00 -9.009689e+00 1.295243e+00 -8.929971e+00
<VARIANCE> 20
 7.042436e-01 4.721002e-01 2.884332e+01 5.273562e+00 2.923796e+00 1.161885e+00 4.903215e+00 1.209983e+01 2.458818e+00 8.671505e-01 5.319071e+00 1.511995e+01 2.484791e+00 6.385489e-01 6.097267e+00 1.085909e+01 2.929420e+00 7.162240e-01 7.801841e+00 1.578703e+01
<GCONST> 6.134045e+01
<MIXTURE> 3 4.045584e-01
<MEAN> 20
 -8.188132e+00 -2.388846e+00 -1.135291e+01 -1.242110e+01 -9.365680e+00 -1.269487e+01 -1.575937e+01 -1.468175e+01 -4.306807e+00 -1.302154e+01 -1.171959e+01 -1.427565e+01 9.821876e-01 -1.249913e+01 -6.971642e+00 -1.227252e+01 6.568048e+00 -1.116540e+01 -1.520348e+00 -1.127697e+01
<VARIANCE> 20
 4.967838e-01 4.446316e-01 4.086903e+01 3.772787e+00 2.479594e+00 6.738873e-01 7.087289e+00 2.151359e+01 1.855868e+00 5.469925e-01 8.893867e+00 3.010926e+01 1.940893e+00 3.666306e-01 8.718427e+00 2.156034e+01 2.417049e+00 4.396108e-01 9.318435e+00 2.175061e+01
<GCONST> 6.169960e+01
<MIXTURE> 4 1.699280e-01
<MEAN> 20
 -9.693074e+00 -2.226748e+00 -2.162814e+01 -1.234534e+01 -1.250425e+01 -1.426086e+01 -2.467357e+01 -1.501263e+01 -7.628712e+00 -1.456497e+01 -2.129169e+01 -1.336339e+01 -3.015378e+00 -1.365121e+01 -1.551808e+01 -1.043481e+01 1.240930e+00 -1.174674e+01 -1.049542e+01 -9.118941e+00
<VARIANCE> 20
 7.351635e+00 2.630806e+00 7.087399e+01 2.962249e+01 3.152110e+01 1.354609e+01 5.285694e+01 5.816764e+01 2.607978e+01 1.309582e+01 5.637294e+01 6.328093e+01 2.384162e+01 1.331649e+01 5.208405e+01 5.006015e+01 3.112329e+01 1.431276e+01 7.488596e+01 4.804973e+01
<GCONST> 1.033837e+02
<STATE> 4
<NUMMIXES> 4
<MIXTURE> 1 3.319455e-01
<MEAN> 20
 -5.591574e+00 -1.220470e+00 -8.242754e+00 -8.125113e+00 -7.365615e+00 -8.789871e+00 -9.699258e+00 -1.050340e+01 -3.423954e+00 -9.091489e+00 -6.318770e+00 -1.007832e+01 5.301445e-01 -8.778649e+00 -2.870142e+00 -9.071404e+00 4.712406e+00 -7.893259e+00 7.337412e-01 -7.691251e+00
<VARIANCE> 20
 4.793288e-01 2.979331e-01 2.344441e+01 3.163668e+00 2.648667e+00 9.533484e-01 4.501884e+00 7.785022e+00 1.536856e+00 9.288558e-01 4.348478e+00 9.477715e+00 1.080802e+00 8.787335e-01 4.262072e+00 8.790875e+00 1.217042e+00 8.564786e-01 4.526888e+00 7.164500e+00
<GCONST> 5.476791e+01
<MIXTURE> 2 3.373004e-01
<MEAN> 20
 -7.321635e+00 -2.549512e+00 -5.664861e+00 -1.173114e+01 -7.156560e+00 -1.206426e+01 -1.438367e+01 -1.345885e+01 -2.425410e+00 -1.220169e+01 -1.088562e+01 -1.321749e+01 2.524361e+00 -1.154968e+01 -6.660874e+00 -1.187887e+01 7.756492e+00 -1.006529e+01 -1.224578e+00 -8.024977e+00
<VARIANCE> 20
 3.194088e-01 2.927883e-01 1.596200e+01 1.833658e+00 2.707477e+00 5.717345e-01 3.922993e+00 1.205947e+01 2.307515e+00 4.215462e-01 4.882682e+00 1.360293e+01 2.164502e+00 3.344420e-01 5.155704e+00 9.762280e+00 2.129151e+00 4.123825e-01 4.122540e+00 5.714961e+00
<GCONST> 5.285144e+01
<MIXTURE> 3 2.608635e-01
<MEAN> 20
 -9.234487e+00 -2.090801e+00 -1.806985e+01 -1.339834e+01 -1.148977e+01 -1.441313e+01 -1.884535e+01 -1.624121e+01 -5.630778e+00 -1.492027e+01 -1.427978e+01 -1.539946e+01 3.424682e-01 -1.428058e+01 -8.544025e+00 -1.243287e+01 6.279820e+00 -1.265011e+01 -1.937813e+00 -1.308412e+01
<VARIANCE> 20
 1.856158e+00 1.494065e+00 6.322542e+01 1.134655e+01 1.279439e+01 4.959417e+00 1.979627e+01 4.574723e+01 9.892808e+00 4.437728e+00 2.617459e+01 6.813954e+01 8.816659e+00 3.856552e+00 3.131227e+01 4.959721e+01 1.018230e+01 3.672446e+00 5.800797e+01 5.082526e+01
<GCONST> 8.906522e+01
<MIXTURE> 4 6.989042e-02
<MEAN> 20
 -4.807458e+00 -1.737503e+00 -1.511818e+01 -5.320509e+00 -7.440843e+00 -9.462763e+00 -1.698852e+01 -7.968840e+00 -5.228950e+00 -8.999123e+00 -1.556660e+01 -5.428543e+00 -3.356204e+00 -7.525975e+00 -1.017573e+01 -2.861070e+00 -1.866510e+00 -5.453969e+00 -8.055885e+00 -2.866177e+00
<VARIANCE> 20
 4.387518e+01 6.112100e+00 3.314627e+02 6.909965e+01 1.485967e+02 2.682809e+01 4.283309e+02 1.170635e+02 1.162440e+02 2.666510e+01 4.118236e+02 1.361735e+02 1.066871e+02 2.819970e+01 2.578865e+02 9.474866e+01 1.191453e+02 3.031213e+01 2.482434e+02 9.038003e+01
<GCONST> 1.267984e+02
<TRANSP> 5
 0.000000e+00 1.000000e+00 0.000000e+00 0.000000e+00 0.000000e+00
 0.000000e+00 7.347618e-01 2.652382e-01 0.000000e+00 0.000000e+00
 0.000000e+00 0.000000e+00 6.971702e-01 3.028298e-01 0.000000e+00
 0.000000e+00 0.000000e+00 0.000000e+00 7.412630e-01 2.587370e-01
 0.000000e+00 0.000000e+00 0.000000e+00 0.000000e+00 0.000000e+00
<ENDHMM>
