~o
<STREAMINFO> 1 20
<VECSIZE> 20<NULLD><USER><DIAGC>
~h "o"
<BEGINHMM>
<NUMSTATES> 5
<STATE> 2
<NUMMIXES> 4
<MIXTURE> 1 3.932469e-01
<MEAN> 20
 -6.937582e+00 -2.133426e+00 -1.271577e+01 -1.123479e+01 -6.752485e+00 -1.188187e+01 -1.180207e+01 -1.397210e+01 -1.605873e+00 -1.184367e+01 -7.302625e+00 -1.035734e+01 3.364384e+00 -1.098131e+01 -3.397350e+00 -7.684251e+00 8.225899e+00 -9.428613e+00 1.998850e+00 -9.107742e+00
<VARIANCE> 20
 8.266578e-01 6.299404e-01 3.792864e+01 8.054346e+00 4.738550e+00 1.876252e+00 7.901583e+00 2.405346e+01 4.399077e+00 1.540872e+00 6.260506e+00 2.405923e+01 4.341464e+00 1.162393e+00 6.031495e+00 1.165437e+01 4.232017e+00 1.199918e+00 1.550786e+01 2.466130e+01
<GCONST> 6.963073e+01
<MIXTURE> 2 2.523901e-01
<MEAN> 20
 -8.513311e+00 -2.499301e+00 -1.536010e+01 -1.349226e+01 -9.397998e+00 -1.447558e+01 -1.624101e+01 -1.931899e+01 -3.730463e+00 -1.473077e+01 -1.108763e+01 -1.754810e+01 1.857073e+00 -1.382284e+01 -6.370841e+00 -1.244393e+01 7.342450e+00 -1.197552e+01 -1.446362e+00 -1.170283e+01
<VARIANCE> 20
 9.014619e-01 8.728350e-01 4.828149e+01 7.320522e+00 7.858698e+00 9.756026e-01 1.591866e+01 3.657407e+01 5.669596e+00 8.289064e-01 1.706863e+01 6.707684e+01 4.316322e+00 7.472898e-01 1.309648e+01 3.980360e+01 4.033107e+00 1.085315e+00 1.892736e+01 2.772532e+01
<GCONST> 7.454659e+01
<MIXTURE> 3 8.603416e-02
<MEAN> 20
 -6.153497e+00 -1.782075e+00 -1.758445e+01 -7.740870e+00 -8.854231e+00 -1.088470e+01 -1.823916e+01 -1.188745e+01 -5.339511e+00 -1.070163e+01 -1.465642e+01 -8.738076e+00 -2.139224e+00 -9.391425e+00 -9.739390e+00 -5.740893e+00 6.486693e-01 -7.353199e+00 -6.158982e+00 -5.129086e+00
<VARIANCE> 20
 2.882820e+01 4.121060e+00 1.944418e+02 4.897974e+01 7.594376e+01 2.109378e+01 2.189200e+02 8.051828e+01 4.062523e+01 2.136005e+01 1.772482e+02 1.018035e+02 2.837309e+01 2.318876e+01 9.806113e+01 7.259515e+01 4.260374e+01 2.525704e+01 9.166877e+01 7.039983e+01
<GCONST> 1.155322e+02
<MIXTURE> 4 2.683288e-01
<MEAN> 20
 -8.430813e+00 -1.559927e+00 -2.072200e+01 -1.018579e+01 -1.189111e+01 -1.216726e+01 -2.111558e+01 -1.518635e+01 -7.382696e+00 -1.269583e+01 -1.765861e+01 -1.473571e+01 -2.622489e+00 -1.235015e+01 -1.312325e+01 -1.232881e+01 2.252631e+00 -1.116483e+01 -8.110081e+00 -1.267287e+01
<VARIANCE> 20
 1.047296e+00 8.373601e-01 3.060458e+01 8.505657e+00 8.211019e+00 1.546766e+00 1.396650e+01 1.806902e+01 5.482699e+00 1.285910e+00 1.862461e+01 2.951450e+01 4.173290e+00 1.264242e+00 2.564425e+01 2.477588e+01 6.095285e+00 1.811771e+00 3.314042e+01 2.703986e+01
<GCONST> 7.584032e+01
<STATE> 3
<NUMMIXES> 4
<MIXTURE> 1 2.887895e-01
<MEAN> 20
 -5.449520e+00 -9.999403e-01 -9.786714e+00 -7.580860e+00 -7.260830e+00 -8.770981e+00 -9.741922e+00 -1.140093e+01 -3.227698e+00 -8.995680e+00 -6.097315e+00 -1.000544e+01 7.714466e-01 -8.663847e+00 -2.561052e+00 -8.359103e+00 4.919631e+00 -7.814290e+00 1.164442e+00 -8.274571e+00
<VARIANCE> 20
 4.759896e-01 2.564280e-01 1.197730e+01 4.315502e+00 2.388228e+00 1.154812e+00 4.312021e+00 9.475743e+00 1.274747e+00 1.110212e+00 2.981672e+00 1.368161e+01 1.080230e+00 1.021592e+00 3.059410e+00 1.130396e+01 1.623952e+00 1.009092e+00 6.700107e+00 9.653712e+00
<GCONST> 5.568525e+01
<MIXTURE> 2 3.786361e-01
<MEAN> 20
 -7.684381e+00 -2.225619e+00 -1.359160e+01 -1.162111e+01 -8.795979e+00 -1.262862e+01 -1.513176e+01 -1.625124e+01 -3.921360e+00 -1.285360e+01 -1.111061e+01 -1.588777e+01 1.088986e+00 -1.218437e+01 -6.755546e+00 -1.206982e+01 6.226478e+00 -1.070637e+01 -1.843689e+00 -1.176159e+01
<VARIANCE> 20
 5.645581e-01 5.185893e-01 2.656216e+01 4.739784e+00 4.488887e+00 7.300725e-01 8.348389e+00 2.305957e+01 3.073233e+00 6.182919e-01 9.007863e+00 3.862704e+01 2.509741e+00 5.032692e-01 9.373940e+00 2.651040e+01 2.625211e+00 7.120408e-01 1.477701e+01 2.277583e+01
<GCONST> 6.549914e+01
<MIXTURE> 3 1.179118e-01
<MEAN> 20
 -5.514437e+00 -3.007404e+00 -1.766609e+01 -9.975904e+00 -5.215306e+00 -1.198313e+01 -1.926315e+01 -1.463026e+01 -2.722879e+00 -1.099850e+01 -1.675294e+01 -1.029601e+01 -1.149291e+00 -8.995040e+00 -1.209275e+01 -6.244163e+00 -3.460805e-01 -6.436641e+00 -9.857262e+00 -4.980160e+00
<VARIANCE> 20
 1.607981e+01 2.973508e+00 1.014182e+02 1.907704e+01 3.724488e+01 5.194055e+00 1.209553e+02 2.752897e+01 2.580625e+01 4.749060e+00 1.215285e+02 3.665938e+01 2.669852e+01 6.348444e+00 6.544345e+01 2.081066e+01 4.252781e+01 8.833578e+00 6.294154e+01 2.103316e+01
<GCONST> 1.002451e+02
<MIXTURE> 4 2.146627e-01
<MEAN> 20
 -1.041464e+01 -2.325692e+00 -2.441496e+01 -1.493357e+01 -1.377641e+01 -1.595740e+01 -2.400164e+01 -2.022685e+01 -7.820032e+00 -1.657106e+01 -1.902588e+01 -1.832765e+01 -1.749728e+00 -1.590656e+01 -1.349926e+01 -1.417568e+01 4.233243e+00 -1.414386e+01 -7.249620e+00 -1.391356e+01
<VARIANCE> 20
 2.035876e+00 1.779884e+00 5.460476e+01 1.485842e+01 1.754712e+01 4.522735e+00 2.748135e+01 4.426445e+01 1.351262e+01 3.867207e+00 3.377596e+01 7.065068e+01 1.207964e+01 3.314397e+00 4.690284e+01 5.730453e+01 1.695084e+01 3.444114e+00 6.849329e+01 5.097292e+01
<GCONST> 9.176631e+01
<STATE> 4
<NUMMIXES> 4
<MIXTURE> 1 1.357998e-01
<MEAN> 20
 -1.906837e+00 -2.142289e+00 -2.811203e+00 -1.231795e+01 -1.327551e+00 -1.345566e+01 -2.528452e+00 -1.830141e+01 1.493410e-01 -1.372567e+01 -1.090732e+00 -1.705141e+01 1.488243e+00 -1.279047e+01 -6.056967e-02 -1.156803e+01 2.735658e+00 -1.091876e+01 1.438488e+00 -1.028608e+01
<VARIANCE> 20
 6.288593e+01 1.498339e+00 3.044350e+02 1.408231e+01 1.080344e+02 7.417594e+00 2.957795e+02 5.441885e+01 3.320720e+01 7.758434e+00 1.604746e+02 8.385110e+01 1.580695e+01 7.376457e+00 7.665439e+01 5.048501e+01 5.303793e+01 6.857003e+00 4.442909e+01 3.619091e+01
<GCONST> 1.073967e+02
<MIXTURE> 2 4.648977e-01
<MEAN> 20
 -6.720257e+00 -1.541484e+00 -1.314056e+01 -9.329889e+00 -8.587453e+00 -1.064444e+01 -1.391315e+01 -1.344962e+01 -4.194403e+00 -1.089239e+01 -1.033111e+01 -1.290185e+01 2.862957e-01 -1.041814e+01 -6.317739e+00 -1.043218e+01 4.901670e+00 -9.257508e+00 -1.985204e+00 -1.018962e+01
<VARIANCE> 20
 6.206548e-01 4.868913e-01 1.906185e+01 4.227211e+00 3.712543e+00 1.068227e+00 7.995966e+00 1.384764e+01 2.226215e+00 9.611667e-01 1.073960e+01 2.115569e+01 1.930161e+00 8.673692e-01 1.359286e+01 1.590073e+01 2.726854e+00 1.028400e+00 1.945172e+01 1.534570e+01
<GCONST> 6.484254e+01
<MIXTURE> 3 9.682272e-02
<MEAN> 20
 -7.869267e+00 -3.006029e+00 -2.750722e+01 -8.075846e+00 -1.397634e+01 -1.119222e+01 -3.306718e+01 -1.183802e+01 -1.123981e+01 -9.890800e+00 -2.964335e+01 -7.090855e+00 -8.766034e+00 -7.566001e+00 -2.095506e+01 -3.563572e+00 -6.692909e+00 -4.735049e+00 -1.733125e+01 -2.250638e+00
<VARIANCE> 20
 1.342246e+01 4.827411e+00 3.873126e+01 3.774697e+01 3.411021e+01 1.600399e+01 6.583503e+01 6.101888e+01 2.878011e+01 2.002708e+01 9.832328e+01 8.459061e+01 3.072435e+01 2.733939e+01 5.809711e+01 4.601695e+01 4.530392e+01 3.415876e+01 5.865759e+01 4.447901e+01
<GCONST> 1.080356e+02
<MIXTURE> 4 3.024799e-01
<MEAN> 20
 -8.303789e+00 -3.087063e+00 -1.963747e+01 -1.174627e+01 -5.798285e+00 -1.361810e+01 -1.914562e+01 -1.571676e+01 -2.278083e+00 -1.348920e+01 -1.807039e+01 -1.476910e+01 6.841068e-01 -1.260509e+01 -1.584324e+01 -1.352344e+01 2.914051e+00 -1.088850e+01 -1.248145e+01 -1.294910e+01
<VARIANCE> 20
 1.157965e+00 7.687092e-01 1.263717e+01 3.282503e+00 1.210485e+01 1.054483e+00 8.032988e+00 6.776314e+00 8.741819e+00 8.163978e-01 9.313577e+00 4.571168e+00 4.834733e+00 7.682099e-01 1.407948e+01 5.392693e+00 7.048277e+00 1.183311e+00 2.006688e+01 6.357443e+00
<GCONST> 6.523825e+01
<TRANSP> 5
 0.000000e+00 1.000000e+00 0.000000e+00 0.000000e+00 0.000000e+00
 0.000000e+00 7.151678e-01 2.848322e-01 0.000000e+00 0.000000e+00
 0.000000e+00 0.000000e+00 7.483876e-01 2.516124e-01 0.000000e+00
 0.000000e+00 0.000000e+00 0.000000e+00 6.999809e-01 3.000191e-01
 0.000000e+00 0.000000e+00 0.000000e+00 0.000000e+00 0.000000e+00
<ENDHMM>
