~o
<STREAMINFO> 1 20
<VECSIZE> 20<NULLD><USER><DIAGC>
~h "p"
<BEGINHMM>
<NUMSTATES> 8
<STATE> 2
<MEAN> 20
 -7.516212e+00 -1.952782e+00 -1.740279e+01 -9.299042e+00 -1.013324e+01 -1.155205e+01 -1.817957e+01 -1.386530e+01 -5.480719e+00 -1.153193e+01 -1.449537e+01 -9.341045e+00 -9.854395e-01 -1.040395e+01 -8.250908e+00 -6.477894e+00 3.300228e+00 -8.545244e+00 -4.146634e+00 -6.111612e+00
<VARIANCE> 20
 9.078416e+00 2.191331e+00 9.108685e+01 2.857293e+01 3.758196e+01 1.265912e+01 1.153308e+02 6.061298e+01 3.007386e+01 1.386895e+01 1.017453e+02 8.411751e+01 2.714316e+01 1.574325e+01 4.939106e+01 4.225907e+01 3.259859e+01 1.794762e+01 5.467105e+01 4.047034e+01
<GCONST> 1.054922e+02
<STATE> 3
<NUMMIXES> 4
<MIXTURE> 1 2.333916e-01
<MEAN> 20
 -5.597507e+00 -8.665236e-01 -1.164522e+01 -6.602658e+00 -7.626030e+00 -8.828954e+00 -9.569571e+00 -1.086700e+01 -3.232640e+00 -9.047447e+00 -6.438511e+00 -8.893633e+00 1.067122e+00 -8.555711e+00 -2.719018e+00 -6.305853e+00 5.338369e+00 -7.491478e+00 1.351836e+00 -6.092127e+00
<VARIANCE> 20
 5.036169e-01 2.990287e-01 1.717213e+01 6.020831e+00 2.713756e+00 7.973309e-01 4.479288e+00 1.272793e+01 2.310833e+00 7.387262e-01 4.221291e+00 2.097085e+01 2.759398e+00 6.234125e-01 4.621463e+00 1.044387e+01 3.413775e+00 7.591314e-01 6.784995e+00 9.865979e+00
<GCONST> 5.891130e+01
<MIXTURE> 2 4.223771e-01
<MEAN> 20
 -7.999585e+00 -2.072219e+00 -1.459087e+01 -1.130033e+01 -9.437997e+00 -1.310025e+01 -1.473690e+01 -1.725583e+01 -4.048465e+00 -1.331644e+01 -1.053764e+01 -1.419550e+01 1.327540e+00 -1.249160e+01 -5.618296e+00 -9.322606e+00 6.712640e+00 -1.082618e+01 -9.863861e-01 -9.304511e+00
<VARIANCE> 20
 6.499611e-01 7.294474e-01 4.253650e+01 5.259041e+00 5.021200e+00 1.426566e+00 1.187403e+01 4.019419e+01 4.135946e+00 1.214350e+00 1.198136e+01 5.929627e+01 3.797187e+00 9.603482e-01 9.241389e+00 2.023633e+01 3.768085e+00 1.071091e+00 1.247036e+01 2.010371e+01
<GCONST> 7.118287e+01
<MIXTURE> 3 1.679629e-01
<MEAN> 20
 -7.197217e+00 -1.554167e+00 -1.973011e+01 -6.376778e+00 -9.957322e+00 -1.052860e+01 -2.112786e+01 -1.217218e+01 -4.518044e+00 -1.064241e+01 -1.669930e+01 -1.360520e+00 4.280730e-01 -9.038452e+00 -7.663595e+00 -4.126302e-01 4.684647e+00 -6.577896e+00 -2.910554e+00 -5.470176e-01
<VARIANCE> 20
 1.447274e+00 5.722619e-01 1.267677e+01 4.345771e+00 5.615146e+00 2.371022e+00 1.693844e+01 1.750512e+01 6.227368e+00 1.821714e+00 1.468073e+01 1.237020e+01 6.356205e+00 1.766128e+00 7.118482e+00 3.991501e+00 6.211503e+00 2.166699e+00 6.046960e+00 3.192863e+00
<GCONST> 6.781462e+01
<MIXTURE> 4 1.762684e-01
<MEAN> 20
 -7.369982e+00 -2.206707e+00 -2.355305e+01 -6.548643e+00 -1.360755e+01 -1.042121e+01 -2.833870e+01 -1.126231e+01 -1.020478e+01 -9.868699e+00 -2.577013e+01 -5.693452e+00 -6.890012e+00 -8.037988e+00 -1.643168e+01 -3.388961e+00 -3.881138e+00 -5.534213e+00 -1.263094e+01 -2.565103e+00
<VARIANCE> 20
 2.242150e+01 4.535974e+00 1.607600e+02 4.739284e+01 7.699403e+01 1.998162e+01 2.269725e+02 7.440603e+01 5.432753e+01 2.135602e+01 2.115315e+02 1.069859e+02 4.256540e+01 2.516179e+01 1.066315e+02 6.575835e+01 4.692120e+01 2.951710e+01 9.146344e+01 6.128700e+01
<GCONST> 1.161710e+02
<STATE> 4
<NUMMIXES> 4
<MIXTURE> 1 3.496080e-01
<MEAN> 20
 -7.145462e+00 -1.643399e+00 -1.365064e+01 -9.897925e+00 -9.075268e+00 -1.090542e+01 -1.167202e+01 -1.117586e+01 -4.071768e+00 -1.110332e+01 -7.333329e+00 -8.909883e+00 9.682524e-01 -1.059299e+01 -3.086145e+00 -7.391434e+00 6.208372e+00 -9.477328e+00 1.104223e+00 -7.506603e+00
<VARIANCE> 20
 1.039530e+00 6.539484e-01 3.028411e+01 9.985643e+00 2.846809e+00 1.513881e+00 3.207577e+00 1.749136e+01 2.724696e+00 1.237747e+00 2.027390e+00 1.484993e+01 2.996328e+00 1.089684e+00 1.895468e+00 1.135457e+01 3.044342e+00 1.197908e+00 2.313063e+00 1.107775e+01
<GCONST> 6.098158e+01
<MIXTURE> 2 1.164141e-01
<MEAN> 20
 8.307329e-01 -1.376904e+00 2.088707e+00 -4.886602e+00 2.408801e+00 -7.718275e+00 2.283787e+00 -5.360416e+00 2.632211e+00 -7.542183e+00 2.272321e+00 -2.002085e+00 2.527419e+00 -6.388610e+00 2.464451e+00 -8.596303e-01 2.221421e+00 -4.692652e+00 2.790304e+00 -7.457365e-01
<VARIANCE> 20
 4.942418e+01 4.522026e+00 3.214692e+02 8.242730e+01 1.224530e+02 3.744345e+01 2.969927e+02 1.272059e+02 5.617497e+01 3.671992e+01 1.921686e+02 1.416855e+02 3.390858e+01 3.598651e+01 8.287566e+01 8.309315e+01 5.089294e+01 3.501543e+01 6.241843e+01 5.608255e+01
<GCONST> 1.207559e+02
<MIXTURE> 3 4.011857e-01
<MEAN> 20
 -8.526895e+00 -2.003834e+00 -2.040165e+01 -1.004385e+01 -1.045175e+01 -1.276201e+01 -2.078173e+01 -1.590223e+01 -5.691168e+00 -1.297987e+01 -1.818064e+01 -1.258579e+01 -1.120437e+00 -1.202216e+01 -1.256974e+01 -8.768886e+00 3.099523e+00 -1.016797e+01 -7.898025e+00 -8.209410e+00
<VARIANCE> 20
 1.476367e+00 1.419569e+00 3.170613e+01 9.833058e+00 1.591488e+01 3.350694e+00 2.532801e+01 2.793224e+01 1.066624e+01 2.913392e+00 2.568094e+01 5.235935e+01 7.047857e+00 3.222671e+00 2.496537e+01 3.074209e+01 9.208019e+00 4.374626e+00 2.984901e+01 3.136636e+01
<GCONST> 8.472198e+01
<MIXTURE> 4 1.327921e-01
<MEAN> 20
 -8.335312e+00 -1.726097e+00 -2.993509e+01 1.046315e+00 -2.024287e+01 -4.996602e+00 -3.864563e+01 -1.413731e+00 -1.638214e+01 -3.678335e+00 -3.074163e+01 8.784089e+00 -1.188620e+01 -1.188607e+00 -1.548670e+01 5.550993e+00 -7.448145e+00 1.703265e+00 -1.199690e+01 6.482728e+00
<VARIANCE> 20
 3.259381e+00 1.643525e+00 2.578908e+01 1.694499e+01 1.222907e+01 9.897221e+00 4.708039e+01 4.343908e+01 1.010287e+01 1.029130e+01 6.350148e+01 2.833573e+01 1.068173e+01 9.907052e+00 2.428691e+01 9.602551e+00 1.426504e+01 9.504341e+00 2.546278e+01 9.736669e+00
<GCONST> 8.961086e+01
<STATE> 5
<NUMMIXES> 4
<MIXTURE> 1 4.264853e-01
<MEAN> 20
 -7.131540e+00 -1.990579e+00 -1.408582e+01 -9.991664e+00 -7.823416e+00 -1.190792e+01 -1.407911e+01 -1.468580e+01 -2.717916e+00 -1.200487e+01 -1.098117e+01 -1.043596e+01 2.216518e+00 -1.106807e+01 -6.089009e+00 -7.120390e+00 6.936628e+00 -9.339585e+00 -1.172047e+00 -6.818542e+00
<VARIANCE> 20
 7.537980e-01 6.746818e-01 3.483824e+01 6.377650e+00 6.332030e+00 2.111638e+00 1.329832e+01 2.735192e+01 5.688968e+00 1.762487e+00 1.301733e+01 3.673691e+01 5.600894e+00 1.372958e+00 1.214369e+01 1.446719e+01 6.104333e+00 1.499053e+00 1.408511e+01 1.612675e+01
<GCONST> 7.329776e+01
<MIXTURE> 2 2.060979e-01
<MEAN> 20
 -4.694162e+00 -9.745300e-01 -1.284322e+01 -2.920631e+00 -6.772350e+00 -7.711995e+00 -1.213556e+01 -7.480950e+00 -2.322773e+00 -7.776782e+00 -9.746159e+00 5.894181e-01 1.589296e+00 -6.422619e+00 -3.991907e+00 1.718259e-01 4.765070e+00 -4.418986e+00 -3.435548e-01 1.127931e-01
<VARIANCE> 20
 1.059826e+01 7.889875e-01 7.771084e+01 1.167864e+01 3.214697e+01 3.333557e+00 1.059110e+02 2.256019e+01 1.657361e+01 3.674518e+00 6.567033e+01 2.049803e+01 1.012767e+01 4.210481e+00 2.169038e+01 8.319831e+00 1.236687e+01 4.988641e+00 1.622831e+01 6.203277e+00
<GCONST> 8.714172e+01
<MIXTURE> 3 2.742902e-01
<MEAN> 20
 -1.030529e+01 -1.802949e+00 -2.402144e+01 -1.268048e+01 -1.481351e+01 -1.469523e+01 -2.344022e+01 -1.799831e+01 -9.014707e+00 -1.533932e+01 -1.895574e+01 -1.539273e+01 -3.120358e+00 -1.477374e+01 -1.204447e+01 -1.067496e+01 2.755149e+00 -1.323333e+01 -6.237070e+00 -1.198964e+01
<VARIANCE> 20
 2.028304e+00 1.984251e+00 4.250407e+01 1.431471e+01 1.580491e+01 4.835365e+00 2.591185e+01 5.387367e+01 1.139139e+01 4.236317e+00 4.034089e+01 8.243725e+01 8.721450e+00 4.148509e+00 3.708109e+01 3.863182e+01 1.136835e+01 5.187934e+00 4.965812e+01 5.628726e+01
<GCONST> 9.099297e+01
<MIXTURE> 4 9.312665e-02
<MEAN> 20
 -8.805646e+00 -2.373395e+00 -3.196413e+01 -1.550805e+00 -2.069900e+01 -6.990368e+00 -4.066578e+01 -4.546930e+00 -1.712385e+01 -5.434932e+00 -3.384600e+01 5.109892e+00 -1.310791e+01 -2.687977e+00 -1.931269e+01 4.169485e+00 -9.225362e+00 4.406154e-01 -1.525478e+01 5.144104e+00
<VARIANCE> 20
 6.533863e+00 2.699874e+00 3.971010e+01 3.297962e+01 3.330880e+01 1.590409e+01 7.808270e+01 7.084446e+01 3.146737e+01 1.855542e+01 1.003463e+02 5.440383e+01 2.920893e+01 2.069976e+01 5.467437e+01 2.773007e+01 3.073853e+01 2.220040e+01 4.635014e+01 2.384888e+01
<GCONST> 1.039328e+02
<STATE> 6
<NUMMIXES> 4
<MIXTURE> 1 2.475986e-01
<MEAN> 20
 -5.904750e+00 -1.531214e+00 -1.348155e+01 -7.918010e+00 -6.660871e+00 -1.061876e+01 -1.060798e+01 -1.288849e+01 -1.737695e+00 -1.073694e+01 -7.628084e+00 -7.375639e+00 2.779923e+00 -9.686188e+00 -3.089799e+00 -4.494362e+00 6.864359e+00 -7.885779e+00 1.178982e+00 -4.534380e+00
<VARIANCE> 20
 1.027567e+01 1.262374e+00 8.466204e+01 1.733437e+01 2.592223e+01 6.271976e+00 6.502454e+01 3.914894e+01 1.288376e+01 5.754064e+00 4.139153e+01 4.378887e+01 8.353230e+00 5.635364e+00 1.979641e+01 1.749759e+01 1.156609e+01 5.924683e+00 1.810094e+01 1.899304e+01
<GCONST> 9.111986e+01
<MIXTURE> 2 3.608341e-01
<MEAN> 20
 -8.726373e+00 -1.539029e+00 -1.864723e+01 -1.073078e+01 -1.255198e+01 -1.298241e+01 -1.831495e+01 -1.676972e+01 -6.938991e+00 -1.356085e+01 -1.342305e+01 -1.450702e+01 -1.132931e+00 -1.300400e+01 -7.893415e+00 -9.616932e+00 4.793682e+00 -1.153668e+01 -2.784217e+00 -1.031323e+01
<VARIANCE> 20
 1.336044e+00 8.847859e-01 5.102580e+01 8.055371e+00 5.542999e+00 1.829482e+00 1.641172e+01 4.862234e+01 3.414578e+00 1.689699e+00 1.466014e+01 7.167610e+01 2.769066e+00 1.433619e+00 1.138471e+01 2.396762e+01 3.277831e+00 1.644268e+00 1.277349e+01 3.252819e+01
<GCONST> 7.535370e+01
<MIXTURE> 3 1.780754e-01
<MEAN> 20
 -8.623220e+00 -1.043576e+00 -2.685794e+01 -5.917994e-01 -1.783271e+01 -6.645563e+00 -3.403323e+01 -3.943041e+00 -1.305475e+01 -6.336092e+00 -2.508008e+01 5.797475e+00 -7.925015e+00 -4.476426e+00 -1.231437e+01 3.510880e+00 -3.131357e+00 -1.994555e+00 -8.061503e+00 3.602933e+00
<VARIANCE> 20
 2.581773e+00 1.283431e+00 2.709664e+01 1.614944e+01 1.470968e+01 1.009432e+01 4.804142e+01 3.635646e+01 1.519314e+01 1.194851e+01 4.627322e+01 2.454548e+01 1.557121e+01 1.232958e+01 2.162067e+01 1.021767e+01 1.731256e+01 1.198870e+01 2.010827e+01 8.777802e+00
<GCONST> 8.990325e+01
<MIXTURE> 4 2.134919e-01
<MEAN> 20
 -7.847452e+00 -3.084461e+00 -2.518495e+01 -9.751970e+00 -1.231848e+01 -1.239122e+01 -2.983628e+01 -1.520109e+01 -9.089581e+00 -1.143009e+01 -2.851580e+01 -8.115482e+00 -6.469200e+00 -9.151500e+00 -1.946202e+01 -3.494509e+00 -4.529919e+00 -6.235952e+00 -1.624196e+01 -2.343369e+00
<VARIANCE> 20
 1.278917e+01 2.862647e+00 3.995605e+01 1.838156e+01 2.791851e+01 6.805392e+00 5.848278e+01 2.995773e+01 1.884026e+01 9.352814e+00 7.257267e+01 3.719920e+01 1.820569e+01 1.348180e+01 4.390803e+01 1.600763e+01 2.946162e+01 1.737555e+01 5.069097e+01 1.758225e+01
<GCONST> 9.783412e+01
<STATE> 7
<MEAN> 20
 -7.353261e+00 -1.681363e+00 -1.848558e+01 -7.852094e+00 -1.076072e+01 -1.089575e+01 -1.892579e+01 -1.262522e+01 -5.984887e+00 -1.094246e+01 -1.480569e+01 -7.203574e+00 -1.322802e+00 -9.783883e+00 -8.364153e+00 -4.702334e+00 3.073943e+00 -7.873205e+00 -3.971348e+00 -4.882636e+00
<VARIANCE> 20
 9.383917e+00 1.745433e+00 1.001618e+02 2.778663e+01 3.946795e+01 1.158786e+01 1.398943e+02 5.812196e+01 3.159355e+01 1.352717e+01 1.203367e+02 8.934138e+01 2.846877e+01 1.651959e+01 6.153829e+01 3.961966e+01 3.342304e+01 1.960233e+01 5.852400e+01 4.831882e+01
<GCONST> 1.063387e+02
<TRANSP> 8
 0.000000e+00 1.000000e+00 0.000000e+00 0.000000e+00 0.000000e+00 0.000000e+00 0.000000e+00 0.000000e+00
 0.000000e+00 1.208235e-01 8.791765e-01 0.000000e+00 0.000000e+00 0.000000e+00 0.000000e+00 0.000000e+00
 0.000000e+00 0.000000e+00 6.004535e-01 3.995465e-01 0.000000e+00 0.000000e+00 0.000000e+00 0.000000e+00
 0.000000e+00 0.000000e+00 0.000000e+00 5.255378e-01 4.744622e-01 0.000000e+00 0.000000e+00 0.000000e+00
 0.000000e+00 0.000000e+00 0.000000e+00 0.000000e+00 5.238550e-01 4.761450e-01 0.000000e+00 0.000000e+00
 0.000000e+00 0.000000e+00 0.000000e+00 0.000000e+00 0.000000e+00 5.173825e-01 4.826175e-01 0.000000e+00
 0.000000e+00 0.000000e+00 0.000000e+00 0.000000e+00 0.000000e+00 0.000000e+00 2.709389e-02 9.729061e-01
 0.000000e+00 0.000000e+00 0.000000e+00 0.000000e+00 0.000000e+00 0.000000e+00 0.000000e+00 0.000000e+00
<ENDHMM>
