~o
<STREAMINFO> 1 20
<VECSIZE> 20<NULLD><USER><DIAGC>
~h "p"
<BEGINHMM>
<NUMSTATES> 5
<STATE> 2
<NUMMIXES> 4
<MIXTURE> 1 2.738708e-01
<MEAN> 20
 -5.847060e+00 -9.517107e-01 -1.171855e+01 -7.145626e+00 -8.100654e+00 -9.170104e+00 -1.009633e+01 -1.111000e+01 -3.588294e+00 -9.429420e+00 -6.588977e+00 -9.317245e+00 8.736805e-01 -8.977230e+00 -2.741180e+00 -6.763628e+00 5.366357e+00 -7.937088e+00 1.246261e+00 -6.458572e+00
<VARIANCE> 20
 5.959229e-01 3.722396e-01 1.824238e+01 6.284384e+00 2.870835e+00 9.799765e-01 4.352273e+00 1.288646e+01 2.092021e+00 9.391795e-01 3.419071e+00 1.952323e+01 2.280160e+00 8.567629e-01 3.409664e+00 1.093612e+01 2.887984e+00 9.512963e-01 4.871653e+00 9.326180e+00
<GCONST> 5.904633e+01
<MIXTURE> 2 4.022968e-01
<MEAN> 20
 -8.178828e+00 -2.018685e+00 -1.442816e+01 -1.125827e+01 -1.012273e+01 -1.310544e+01 -1.573206e+01 -1.798129e+01 -4.815719e+00 -1.342530e+01 -1.163319e+01 -1.588875e+01 5.486825e-01 -1.268771e+01 -6.673213e+00 -1.032140e+01 5.973833e+00 -1.107423e+01 -2.090320e+00 -9.766276e+00
<VARIANCE> 20
 8.668742e-01 9.314774e-01 4.104899e+01 6.410430e+00 6.225016e+00 1.697244e+00 1.439282e+01 3.843202e+01 4.751491e+00 1.412336e+00 1.324579e+01 6.033123e+01 4.075497e+00 1.083245e+00 1.097657e+01 1.977668e+01 4.172114e+00 1.174391e+00 1.348695e+01 1.770861e+01
<GCONST> 7.330699e+01
<MIXTURE> 3 1.767814e-01
<MEAN> 20
 -5.832477e+00 -1.270582e+00 -1.590706e+01 -4.252219e+00 -7.918164e+00 -8.938635e+00 -1.557115e+01 -9.632967e+00 -2.723855e+00 -8.985309e+00 -1.282326e+01 4.576353e-02 1.865833e+00 -7.443240e+00 -5.877493e+00 1.530344e-03 5.640001e+00 -5.161252e+00 -1.309223e+00 -4.685867e-02
<VARIANCE> 20
 1.770992e+00 5.182697e-01 1.662098e+01 7.415596e+00 8.622812e+00 3.715871e+00 3.831028e+01 1.925526e+01 8.014332e+00 3.461406e+00 2.264462e+01 1.089075e+01 6.872693e+00 3.182760e+00 8.416095e+00 2.511638e+00 6.062513e+00 2.950914e+00 7.471933e+00 1.963351e+00
<GCONST> 7.209377e+01
<MIXTURE> 4 1.470510e-01
<MEAN> 20
 -7.371477e+00 -2.187272e+00 -2.307891e+01 -7.517674e+00 -1.322770e+01 -1.056893e+01 -2.756598e+01 -1.140775e+01 -9.877416e+00 -1.008323e+01 -2.392872e+01 -5.947131e+00 -6.617493e+00 -8.405959e+00 -1.504357e+01 -3.684146e+00 -3.635074e+00 -6.093688e+00 -1.140761e+01 -3.061466e+00
<VARIANCE> 20
 2.376617e+01 4.693436e+00 1.447914e+02 5.290688e+01 7.413170e+01 2.123659e+01 1.970161e+02 7.149055e+01 5.028432e+01 2.335121e+01 1.796878e+02 8.949886e+01 4.031886e+01 2.738830e+01 9.035762e+01 5.106069e+01 4.948879e+01 3.165880e+01 8.240937e+01 5.024025e+01
<GCONST> 1.152130e+02
<STATE> 3
<NUMMIXES> 4
<MIXTURE> 1 3.839630e-01
<MEAN> 20
 -7.436639e+00 -2.037587e+00 -1.455231e+01 -1.104087e+01 -8.241943e+00 -1.209034e+01 -1.259192e+01 -1.375377e+01 -2.914556e+00 -1.216827e+01 -8.402329e+00 -9.708977e+00 2.324761e+00 -1.135306e+01 -3.740150e+00 -7.170079e+00 7.567311e+00 -9.829820e+00 1.007405e+00 -7.628416e+00
<VARIANCE> 20
 6.851411e-01 4.778870e-01 4.146115e+01 5.279323e+00 4.473083e+00 1.466954e+00 7.423632e+00 3.421437e+01 4.877298e+00 1.250599e+00 5.596057e+00 2.502678e+01 5.323093e+00 8.848146e-01 5.034322e+00 9.668933e+00 4.845551e+00 9.601451e-01 5.432872e+00 1.668484e+01
<GCONST> 6.667762e+01
<MIXTURE> 2 8.451739e-02
<MEAN> 20
 -1.762146e+00 -1.361600e+00 -3.638294e+00 -4.098770e+00 -9.259982e-01 -7.617084e+00 -2.995405e+00 -6.800042e+00 1.325916e+00 -7.221883e+00 -2.323630e+00 -1.346622e+00 3.076754e+00 -5.798849e+00 2.120575e-01 -5.722369e-01 4.370590e+00 -3.907745e+00 2.001142e+00 -5.989250e-01
<VARIANCE> 20
 3.463444e+01 2.728824e+00 3.175265e+02 2.926859e+01 1.126169e+02 1.043358e+01 3.021919e+02 4.565902e+01 5.695742e+01 1.203962e+01 2.191350e+02 4.668707e+01 3.300180e+01 1.419720e+01 8.786130e+01 2.536263e+01 3.705486e+01 1.640019e+01 6.411580e+01 2.527236e+01
<GCONST> 1.104670e+02
<MIXTURE> 3 3.854035e-01
<MEAN> 20
 -9.676702e+00 -1.606342e+00 -2.289697e+01 -1.141232e+01 -1.382053e+01 -1.387874e+01 -2.239932e+01 -1.679591e+01 -8.226412e+00 -1.445898e+01 -1.789718e+01 -1.434274e+01 -2.545224e+00 -1.384468e+01 -1.177565e+01 -1.039952e+01 3.086735e+00 -1.226767e+01 -6.264486e+00 -1.097149e+01
<VARIANCE> 20
 1.713400e+00 1.542741e+00 3.848179e+01 1.362331e+01 1.450385e+01 3.834329e+00 2.047526e+01 4.497221e+01 9.865345e+00 3.490658e+00 2.900502e+01 6.902811e+01 7.189317e+00 3.592834e+00 3.036763e+01 3.704742e+01 9.142646e+00 4.640442e+00 3.881984e+01 4.724119e+01
<GCONST> 8.751539e+01
<MIXTURE> 4 1.461162e-01
<MEAN> 20
 -8.761011e+00 -1.993607e+00 -3.142045e+01 3.687600e-01 -2.128439e+01 -5.709234e+00 -4.033155e+01 -2.086808e+00 -1.736626e+01 -4.306491e+00 -3.209828e+01 8.234184e+00 -1.281032e+01 -1.667640e+00 -1.691994e+01 5.404046e+00 -8.333348e+00 1.364942e+00 -1.319466e+01 6.270011e+00
<VARIANCE> 20
 3.003470e+00 1.576674e+00 2.111686e+01 1.438847e+01 1.272602e+01 8.171132e+00 4.695261e+01 4.140256e+01 1.314005e+01 9.711576e+00 6.042999e+01 2.310770e+01 1.562568e+01 1.034009e+01 2.699317e+01 1.069190e+01 2.039376e+01 1.054096e+01 2.700284e+01 9.978498e+00
<GCONST> 9.005339e+01
<STATE> 4
<NUMMIXES> 4
<MIXTURE> 1 1.331057e-01
<MEAN> 20
 -4.236882e+00 -2.955803e+00 -1.078972e+01 -1.337826e+01 -2.674399e+00 -1.440856e+01 -9.407854e+00 -1.673308e+01 -7.716162e-01 -1.428359e+01 -9.745888e+00 -1.268197e+01 4.712119e-01 -1.294213e+01 -7.674046e+00 -8.520892e+00 1.232775e+00 -1.077832e+01 -6.005478e+00 -8.174801e+00
<VARIANCE> 20
 6.748319e+01 3.633170e+00 3.649274e+02 2.023046e+01 1.213301e+02 1.163821e+01 3.776037e+02 6.509857e+01 6.061546e+01 1.161492e+01 3.077450e+02 5.049113e+01 3.593140e+01 1.227033e+01 1.768777e+02 2.582443e+01 4.575932e+01 1.350275e+01 1.191769e+02 3.520778e+01
<GCONST> 1.140206e+02
<MIXTURE> 2 4.852555e-01
<MEAN> 20
 -7.444074e+00 -1.686035e+00 -1.773342e+01 -8.665167e+00 -9.375455e+00 -1.145417e+01 -1.704600e+01 -1.399286e+01 -4.311783e+00 -1.170030e+01 -1.363172e+01 -9.034224e+00 5.621140e-01 -1.074727e+01 -8.022758e+00 -5.878850e+00 5.110967e+00 -8.958634e+00 -3.144094e+00 -5.989097e+00
<VARIANCE> 20
 1.274078e+00 8.210745e-01 2.912453e+01 8.170994e+00 8.342348e+00 2.712227e+00 2.631148e+01 3.015537e+01 6.011819e+00 2.338377e+00 2.441094e+01 5.028482e+01 5.101375e+00 2.247502e+00 1.945667e+01 2.206108e+01 6.628842e+00 2.846669e+00 2.387229e+01 2.494269e+01
<GCONST> 7.965442e+01
<MIXTURE> 3 1.187094e-01
<MEAN> 20
 -6.846836e+00 -3.166764e-01 -2.033623e+01 2.874216e+00 -1.388500e+01 -3.636549e+00 -2.497953e+01 7.253201e-01 -9.236188e+00 -3.426606e+00 -1.709467e+01 8.300442e+00 -4.364017e+00 -2.036857e+00 -7.549856e+00 5.903870e+00 7.338496e-02 -1.641973e-01 -3.527348e+00 5.379375e+00
<VARIANCE> 20
 3.836381e+00 1.994678e+00 6.927615e+01 2.366269e+01 3.850766e+01 1.567356e+01 1.553405e+02 6.372324e+01 3.882715e+01 1.508628e+01 1.160073e+02 3.640258e+01 3.497052e+01 1.339416e+01 4.738405e+01 2.272280e+01 3.159511e+01 1.256998e+01 4.863302e+01 1.516216e+01
<GCONST> 1.022371e+02
<MIXTURE> 4 2.629294e-01
<MEAN> 20
 -8.254991e+00 -2.573540e+00 -2.635930e+01 -7.305771e+00 -1.407755e+01 -1.119514e+01 -3.157217e+01 -1.326102e+01 -1.012474e+01 -1.044244e+01 -2.909453e+01 -3.777169e+00 -6.614208e+00 -8.106620e+00 -1.723302e+01 -9.256890e-01 -3.765598e+00 -5.077147e+00 -1.368480e+01 -6.075640e-02
<VARIANCE> 20
 6.066877e+00 2.585802e+00 2.194956e+01 1.363305e+01 1.799544e+01 4.351586e+00 3.856990e+01 2.550631e+01 1.379388e+01 4.117993e+00 5.639503e+01 4.231615e+01 1.488065e+01 5.822474e+00 4.751702e+01 8.173690e+00 2.419537e+01 7.940557e+00 5.560222e+01 5.835182e+00
<GCONST> 8.974493e+01
<TRANSP> 5
 0.000000e+00 1.000000e+00 0.000000e+00 0.000000e+00 0.000000e+00
 0.000000e+00 7.534137e-01 2.465863e-01 0.000000e+00 0.000000e+00
 0.000000e+00 0.000000e+00 7.360987e-01 2.639013e-01 0.000000e+00
 0.000000e+00 0.000000e+00 0.000000e+00 6.777653e-01 3.222347e-01
 0.000000e+00 0.000000e+00 0.000000e+00 0.000000e+00 0.000000e+00
<ENDHMM>
