~o
<STREAMINFO> 1 20
<VECSIZE> 20<NULLD><USER><DIAGC>
~h "q"
<BEGINHMM>
<NUMSTATES> 8
<STATE> 2
<MEAN> 20
 -7.022654e+00 -1.379075e+00 -1.705298e+01 -6.723228e+00 -1.050550e+01 -1.032126e+01 -1.687549e+01 -9.837043e+00 -6.202560e+00 -1.043140e+01 -1.142636e+01 -8.173346e+00 -1.774606e+00 -9.619106e+00 -6.816842e+00 -5.597882e+00 2.704290e+00 -8.153489e+00 -3.004246e+00 -5.464378e+00
<VARIANCE> 20
 2.097104e+01 2.329921e+00 1.314861e+02 5.540703e+01 6.167818e+01 2.412047e+01 1.327581e+02 1.083728e+02 3.252932e+01 2.378648e+01 5.858525e+01 9.480722e+01 2.133328e+01 2.339718e+01 2.393111e+01 5.139208e+01 3.033877e+01 2.273549e+01 2.714960e+01 4.862713e+01
<GCONST> 1.087423e+02
<STATE> 3
<NUMMIXES> 4
<MIXTURE> 1 5.040736e-01
<MEAN> 20
 -8.422209e+00 -1.982376e+00 -1.655515e+01 -1.119742e+01 -1.072138e+01 -1.322788e+01 -1.690885e+01 -1.673803e+01 -4.922966e+00 -1.362529e+01 -1.116957e+01 -1.442243e+01 8.296649e-01 -1.284767e+01 -6.155190e+00 -8.879459e+00 6.517854e+00 -1.119337e+01 -1.234684e+00 -8.558011e+00
<VARIANCE> 20
 2.210397e+00 7.457387e-01 3.967838e+01 1.222450e+01 9.686311e+00 4.638402e+00 2.074636e+01 4.609380e+01 7.507303e+00 4.971062e+00 1.313788e+01 7.458773e+01 7.197085e+00 4.711956e+00 1.015029e+01 2.862428e+01 7.990411e+00 4.586692e+00 9.729382e+00 2.190132e+01
<GCONST> 8.277533e+01
<MIXTURE> 2 3.209013e-01
<MEAN> 20
 -4.798071e+00 -3.905975e-01 -1.141366e+01 -3.842226e+00 -8.181931e+00 -6.823586e+00 -8.736300e+00 -6.756900e+00 -4.199088e+00 -7.225625e+00 -5.282331e+00 -5.793487e+00 -2.188091e-01 -7.043062e+00 -2.100276e+00 -3.332882e+00 3.712126e+00 -6.433231e+00 9.239687e-01 -3.578689e+00
<VARIANCE> 20
 2.787519e-01 3.666533e-01 1.214846e+01 1.364447e+01 2.225375e+00 3.336027e-01 1.795736e+00 2.024072e+01 8.021515e-01 5.092825e-01 5.004643e-01 1.730273e+01 6.122079e-01 4.578621e-01 1.275685e-01 2.457664e+00 6.565299e-01 4.298100e-01 3.704049e-01 2.093039e+00
<GCONST> 4.019447e+01
<MIXTURE> 3 8.744760e-02
<MEAN> 20
 -1.064094e+01 -2.397916e+00 -3.949364e+01 3.871520e+00 -2.593702e+01 -5.347724e+00 -4.291592e+01 9.295752e+00 -1.992333e+01 -3.282094e+00 -2.810852e+01 6.372838e+00 -1.329922e+01 -1.364197e-01 -1.982297e+01 7.800978e+00 -7.063333e+00 3.397221e+00 -1.448673e+01 9.158333e+00
<VARIANCE> 20
 3.099880e+00 1.221421e+00 1.088107e+01 1.294754e+01 2.006178e+01 8.992370e-01 1.392771e+01 1.713630e+01 1.195539e+01 5.857176e-01 7.291450e+01 1.592209e+01 4.823111e+00 7.952318e-01 3.083050e+01 1.249358e+01 2.447845e+00 7.306260e-01 1.776898e+01 9.179800e+00
<GCONST> 7.338163e+01
<MIXTURE> 4 8.757750e-02
<MEAN> 20
 -7.835822e+00 -6.936915e-01 -2.382935e+01 1.681120e+00 -1.598953e+01 -7.701762e+00 -2.681384e+01 1.472995e+00 -1.052381e+01 -7.444002e+00 -1.583988e+01 2.125422e+00 -4.911988e+00 -5.865072e+00 -8.353417e+00 2.068031e+00 1.716539e-01 -3.723730e+00 -3.333777e+00 2.256520e+00
<VARIANCE> 20
 4.430265e+00 2.417499e+00 5.294943e+01 1.043378e+01 3.437791e+01 4.733555e+00 1.321963e+02 6.662561e+00 4.205556e+01 5.112481e+00 1.213140e+02 6.381810e+00 4.953034e+01 6.139028e+00 3.395679e+01 5.972410e+00 5.974072e+01 7.787364e+00 4.842929e+01 5.289837e+00
<GCONST> 9.205641e+01
<STATE> 4
<NUMMIXES> 4
<MIXTURE> 1 3.013030e-01
<MEAN> 20
 -6.053286e+00 -1.177494e+00 -1.099931e+01 -7.892205e+00 -8.192921e+00 -9.860690e+00 -1.103766e+01 -1.198858e+01 -3.394044e+00 -1.014398e+01 -6.147181e+00 -9.406207e+00 1.317643e+00 -9.511971e+00 -2.116171e+00 -4.801271e+00 6.010512e+00 -8.219681e+00 1.353541e+00 -5.097648e+00
<VARIANCE> 20
 1.003574e+00 4.074323e-01 3.691583e+01 1.279249e+01 1.815696e+00 2.817504e+00 5.548011e+00 2.998562e+01 1.623358e+00 2.675442e+00 9.208741e-01 5.070354e+01 2.151116e+00 1.894194e+00 1.340626e+00 5.219834e+00 3.106734e+00 1.135658e+00 1.085660e+00 7.968863e+00
<GCONST> 6.084828e+01
<MIXTURE> 2 1.300859e-01
<MEAN> 20
 -7.817629e+00 1.514644e-01 -2.123097e+01 4.094773e+00 -1.383237e+01 -6.897984e+00 -2.034435e+01 2.561873e+00 -6.825056e+00 -7.118912e+00 -8.388618e+00 1.622892e+00 -1.828848e-01 -5.791317e+00 -3.048524e+00 2.043636e+00 5.560501e+00 -3.933182e+00 2.199035e+00 1.962385e+00
<VARIANCE> 20
 1.305182e+00 1.525234e+00 1.887974e+01 2.062896e+01 6.953963e+00 9.971665e+00 2.425784e+01 3.708548e+01 5.713314e+00 8.092135e+00 9.220278e+00 9.515244e+00 6.052363e+00 6.796466e+00 8.328221e+00 9.260219e+00 7.447112e+00 5.587914e+00 9.476935e+00 4.542005e+00
<GCONST> 7.831272e+01
<MIXTURE> 3 1.096097e-01
<MEAN> 20
 -1.055077e+01 -1.295331e+00 -3.214207e+01 1.286099e+00 -1.985339e+01 -8.593867e+00 -3.685142e+01 8.079508e-01 -1.434784e+01 -7.969247e+00 -2.227765e+01 1.844856e+00 -8.676812e+00 -5.855374e+00 -1.389679e+01 2.233966e+00 -3.611233e+00 -3.144694e+00 -9.672837e+00 2.923964e+00
<VARIANCE> 20
 4.579634e+00 2.353095e+00 3.836200e+01 2.558556e+01 1.374889e+01 1.489223e+01 2.540709e+01 4.744762e+01 1.343697e+01 1.580440e+01 4.163499e+01 3.601762e+01 1.405319e+01 1.636515e+01 1.587855e+01 2.155736e+01 1.727718e+01 1.744778e+01 9.760184e+00 2.180708e+01
<GCONST> 9.345453e+01
<MIXTURE> 4 4.590013e-01
<MEAN> 20
 -9.174928e+00 -1.672662e+00 -2.061505e+01 -9.888575e+00 -1.391751e+01 -1.342849e+01 -2.088082e+01 -1.697796e+01 -8.204686e+00 -1.402959e+01 -1.470515e+01 -1.648305e+01 -2.267075e+00 -1.355196e+01 -8.117686e+00 -1.103411e+01 3.831999e+00 -1.217594e+01 -2.656231e+00 -1.146399e+01
<VARIANCE> 20
 2.056570e+00 1.100286e+00 6.221615e+01 2.137062e+01 6.204255e+00 3.545990e+00 1.859753e+01 3.762231e+01 5.029362e+00 3.277096e+00 1.747585e+01 6.128770e+01 4.924571e+00 3.264116e+00 8.974305e+00 2.871637e+01 6.009308e+00 3.786448e+00 1.290773e+01 2.680293e+01
<GCONST> 8.148725e+01
<STATE> 5
<NUMMIXES> 4
<MIXTURE> 1 5.141902e-01
<MEAN> 20
 -7.402246e+00 -1.880000e+00 -1.395223e+01 -1.018660e+01 -8.289973e+00 -1.152392e+01 -1.290171e+01 -1.210399e+01 -3.421093e+00 -1.170393e+01 -8.276385e+00 -1.010894e+01 1.459386e+00 -1.113683e+01 -4.340736e+00 -8.624255e+00 6.455182e+00 -9.937490e+00 1.976461e-01 -1.074846e+01
<VARIANCE> 20
 1.287717e+00 4.255737e-01 2.411534e+01 1.178210e+01 1.742140e+00 2.896629e+00 9.950703e+00 1.878688e+01 2.256421e+00 2.537929e+00 5.720893e+00 2.712317e+01 3.151645e+00 2.013337e+00 4.248344e+00 2.149738e+01 3.725644e+00 2.013503e+00 2.414773e+00 3.747670e+01
<GCONST> 6.832726e+01
<MIXTURE> 2 2.567879e-01
<MEAN> 20
 -9.147078e+00 -1.183201e+00 -2.548821e+01 -5.025125e+00 -1.533005e+01 -1.180712e+01 -2.545694e+01 -1.090323e+01 -9.264416e+00 -1.270662e+01 -1.390486e+01 -6.404671e+00 -3.065223e+00 -1.217492e+01 -7.340824e+00 -4.366293e+00 2.999428e+00 -1.072978e+01 -2.575603e+00 -5.094071e+00
<VARIANCE> 20
 3.590819e+00 1.917260e+00 2.205017e+01 4.289970e+01 8.409652e+00 6.732805e+00 2.558687e+01 5.108795e+01 9.461420e+00 5.118705e+00 2.713706e+01 2.182148e+01 9.964954e+00 5.042558e+00 7.845990e+00 1.173485e+01 1.107757e+01 6.230468e+00 9.331871e+00 2.222202e+01
<GCONST> 8.502337e+01
<MIXTURE> 3 1.602177e-01
<MEAN> 20
 -9.017571e+00 8.721030e-01 -2.719254e+01 7.337001e+00 -2.139189e+01 -5.356945e+00 -3.231254e+01 6.294233e+00 -1.602660e+01 -5.923333e+00 -1.431597e+01 2.697505e+00 -9.681815e+00 -5.073578e+00 -8.969327e+00 2.217247e+00 -3.579017e+00 -3.545412e+00 -4.586996e+00 2.255401e+00
<VARIANCE> 20
 1.042289e+00 2.270638e-01 1.323606e+01 3.222590e+00 6.952004e+00 4.282936e+00 6.200394e+00 1.297190e+01 6.070787e+00 6.678092e+00 4.840751e+00 3.021332e+00 4.818579e+00 8.610037e+00 3.359722e+00 3.785431e+00 3.606298e+00 9.596825e+00 2.186412e+00 5.698647e+00
<GCONST> 6.557075e+01
<MIXTURE> 4 6.880424e-02
<MEAN> 20
 -8.342595e+00 -1.521943e+00 -2.890680e+01 -1.639058e+00 -1.563447e+01 -8.758432e+00 -3.242221e+01 -1.981452e+00 -1.103269e+01 -7.940215e+00 -2.850236e+01 6.422745e-01 -6.542229e+00 -5.734299e+00 -1.945419e+01 3.126796e+00 -2.661721e+00 -2.880938e+00 -1.357092e+01 3.504565e+00
<VARIANCE> 20
 3.751216e+00 3.104285e+00 3.307171e+01 1.560693e+01 2.211353e+00 1.165271e+01 2.616122e+01 3.466146e+01 9.459272e-01 8.623010e+00 4.567538e+01 2.920732e+01 4.975252e+00 6.554224e+00 1.291546e+01 1.020472e+01 1.266522e+01 5.701966e+00 1.663213e+01 6.559741e+00
<GCONST> 8.215050e+01
<STATE> 6
<NUMMIXES> 4
<MIXTURE> 1 5.047742e-01
<MEAN> 20
 -7.382231e+00 -1.192224e+00 -1.555660e+01 -8.024988e+00 -1.087500e+01 -1.114816e+01 -1.577620e+01 -1.292527e+01 -5.332826e+00 -1.173776e+01 -1.018190e+01 -1.054823e+01 2.956073e-01 -1.127560e+01 -4.482877e+00 -5.481164e+00 5.841327e+00 -9.976241e+00 4.215031e-01 -6.485546e+00
<VARIANCE> 20
 2.886802e+00 1.158498e+00 4.765898e+01 2.276385e+01 1.026814e+01 6.251663e+00 3.058548e+01 3.016120e+01 6.516802e+00 5.550416e+00 2.061813e+01 3.938179e+01 4.589783e+00 4.839652e+00 7.707444e+00 1.657101e+01 4.639405e+00 4.378992e+00 4.819938e+00 3.109168e+01
<GCONST> 8.220239e+01
<MIXTURE> 2 2.033620e-01
<MEAN> 20
 -7.017087e+00 -2.341543e-01 -2.137156e+01 2.745321e+00 -1.322604e+01 -6.942444e+00 -2.153242e+01 2.399817e+00 -7.417928e+00 -7.200743e+00 -9.623568e+00 1.334896e+00 -1.498424e+00 -6.078430e+00 -4.116869e+00 1.216991e+00 3.915808e+00 -4.348453e+00 3.554407e-01 1.458949e+00
<VARIANCE> 20
 1.505595e+00 7.861900e-01 1.884520e+01 7.380219e+00 1.057667e+01 7.003557e+00 4.421550e+01 1.344998e+01 1.437824e+01 8.389530e+00 1.213625e+01 5.177271e+00 1.397458e+01 1.010591e+01 1.069852e+01 5.740484e+00 1.168055e+01 1.154194e+01 9.207536e+00 6.682223e+00
<GCONST> 7.957891e+01
<MIXTURE> 3 7.613812e-02
<MEAN> 20
 -2.801049e+00 -6.604916e+00 -2.846491e+01 -1.227544e+01 -9.805923e+00 -1.392113e+01 -4.288863e+01 -1.904444e+01 -1.020396e+01 -9.732168e+00 -4.881396e+01 -1.628031e+01 -1.206676e+01 -5.154374e+00 -2.067442e+01 -5.540087e+00 -1.445819e+01 -8.604559e-01 -2.060175e+01 -2.361556e+00
<VARIANCE> 20
 2.773146e+00 4.005256e-01 2.054884e+00 1.400670e+00 2.336939e+01 3.387530e-01 1.032120e+00 5.500694e+00 1.252687e+01 2.361870e+00 7.203805e+00 5.774298e+00 5.108799e+00 3.665874e+00 3.556915e-01 1.510333e+00 9.036700e+00 2.417894e+00 5.974634e+00 1.231410e+00
<GCONST> 5.622905e+01
<MIXTURE> 4 2.157257e-01
<MEAN> 20
 -8.598044e+00 -2.200013e-01 -2.714361e+01 1.836184e+00 -1.888356e+01 -6.236773e+00 -3.123310e+01 2.441880e-01 -1.472655e+01 -6.311430e+00 -2.073503e+01 2.120274e+00 -9.995535e+00 -5.119674e+00 -1.520788e+01 2.491443e+00 -5.418059e+00 -3.334124e+00 -1.115033e+01 2.090579e+00
<VARIANCE> 20
 6.154764e+00 2.783334e+00 4.689393e+01 1.628293e+01 2.041103e+01 5.861452e+00 5.186958e+01 1.494956e+01 1.240901e+01 6.189971e+00 6.689192e+00 3.453819e+00 6.268633e+00 6.371781e+00 4.328990e+00 3.679848e+00 5.164377e+00 6.677072e+00 6.638845e+00 2.943868e+00
<GCONST> 7.812440e+01
<STATE> 7
<MEAN> 20
 -7.236562e+00 -1.049363e+00 -1.678493e+01 -5.634459e+00 -1.124582e+01 -1.016312e+01 -1.815397e+01 -1.113795e+01 -5.928681e+00 -1.052832e+01 -1.198117e+01 -9.355490e+00 -6.999815e-01 -9.660542e+00 -6.405927e+00 -3.029647e+00 4.243086e+00 -7.960083e+00 -1.855559e+00 -3.760889e+00
<VARIANCE> 20
 5.590085e+00 3.281447e+00 7.304026e+01 4.843674e+01 3.314762e+01 1.474232e+01 8.050117e+01 9.419313e+01 2.836998e+01 1.308542e+01 7.093786e+01 9.100858e+01 2.809276e+01 1.328256e+01 3.926049e+01 2.179305e+01 3.640684e+01 1.445422e+01 4.490265e+01 4.079527e+01
<GCONST> 1.041056e+02
<TRANSP> 8
 0.000000e+00 1.000000e+00 0.000000e+00 0.000000e+00 0.000000e+00 0.000000e+00 0.000000e+00 0.000000e+00
 0.000000e+00 4.192065e-02 9.580794e-01 0.000000e+00 0.000000e+00 0.000000e+00 0.000000e+00 0.000000e+00
 0.000000e+00 0.000000e+00 5.332088e-01 4.667911e-01 0.000000e+00 0.000000e+00 0.000000e+00 0.000000e+00
 0.000000e+00 0.000000e+00 0.000000e+00 5.220333e-01 4.779667e-01 0.000000e+00 0.000000e+00 0.000000e+00
 0.000000e+00 0.000000e+00 0.000000e+00 0.000000e+00 6.333495e-01 3.666505e-01 0.000000e+00 0.000000e+00
 0.000000e+00 0.000000e+00 0.000000e+00 0.000000e+00 0.000000e+00 3.908945e-01 6.091055e-01 0.000000e+00
 0.000000e+00 0.000000e+00 0.000000e+00 0.000000e+00 0.000000e+00 0.000000e+00 1.854101e-01 8.145899e-01
 0.000000e+00 0.000000e+00 0.000000e+00 0.000000e+00 0.000000e+00 0.000000e+00 0.000000e+00 0.000000e+00
<ENDHMM>
