~o
<STREAMINFO> 1 20
<VECSIZE> 20<NULLD><USER><DIAGC>
~h "q"
<BEGINHMM>
<NUMSTATES> 5
<STATE> 2
<NUMMIXES> 4
<MIXTURE> 1 5.109261e-01
<MEAN> 20
 -9.281148e+00 -1.797803e+00 -2.094673e+01 -1.023917e+01 -1.356049e+01 -1.356835e+01 -2.069412e+01 -1.630704e+01 -7.634690e+00 -1.414650e+01 -1.387777e+01 -1.373508e+01 -1.602239e+00 -1.357726e+01 -7.756035e+00 -9.050518e+00 4.478725e+00 -1.211121e+01 -2.601710e+00 -9.591128e+00
<VARIANCE> 20
 2.818475e+00 1.017416e+00 5.503785e+01 2.256854e+01 8.013062e+00 4.737976e+00 2.578263e+01 4.881627e+01 6.862603e+00 4.439860e+00 2.142549e+01 7.495673e+01 7.577372e+00 4.154924e+00 1.138463e+01 2.894774e+01 9.764236e+00 4.430204e+00 1.415785e+01 2.765312e+01
<GCONST> 8.549265e+01
<MIXTURE> 2 3.246909e-01
<MEAN> 20
 -4.450575e+00 -3.973927e-01 -1.022726e+01 -3.880242e+00 -7.355603e+00 -6.996965e+00 -8.816947e+00 -6.638252e+00 -3.478312e+00 -7.409379e+00 -5.287549e+00 -4.953986e+00 3.481255e-01 -7.104670e+00 -2.250750e+00 -2.493056e+00 4.105665e+00 -6.313866e+00 7.703795e-01 -2.752546e+00
<VARIANCE> 20
 8.257514e+00 8.135022e-01 3.822726e+01 2.719408e+01 2.166398e+01 6.777116e+00 2.111001e+01 3.783649e+01 6.129046e+00 6.326784e+00 2.857840e+00 3.562782e+01 3.153919e+00 5.251254e+00 1.720129e+00 1.458738e+01 1.070260e+01 4.158907e+00 7.522786e+00 1.189733e+01
<GCONST> 7.988171e+01
<MIXTURE> 3 1.186727e-01
<MEAN> 20
 -9.325214e+00 6.102349e-01 -2.742095e+01 5.306914e+00 -2.094077e+01 -7.238600e+00 -3.294569e+01 3.463457e+00 -1.561167e+01 -7.964792e+00 -1.435963e+01 1.382314e+00 -9.411259e+00 -7.192976e+00 -9.138774e+00 7.636746e-01 -3.499575e+00 -5.654088e+00 -4.885507e+00 5.998122e-01
<VARIANCE> 20
 2.191853e+00 7.202290e-01 2.117450e+01 1.310569e+01 1.043409e+01 3.123428e+00 1.778494e+01 1.163744e+01 7.513196e+00 2.991397e+00 5.056803e+00 2.465794e+00 4.259665e+00 2.642168e+00 2.852374e+00 1.761883e+00 2.462718e+00 2.237509e+00 2.056632e+00 1.696543e+00
<GCONST> 6.428381e+01
<MIXTURE> 4 4.571040e-02
<MEAN> 20
 -1.062227e+01 -2.538266e+00 -3.874446e+01 3.396972e+00 -2.642930e+01 -6.254247e+00 -4.478423e+01 7.176334e+00 -2.066787e+01 -4.192712e+00 -3.294690e+01 6.305604e+00 -1.438109e+01 -9.533352e-01 -2.081710e+01 7.493026e+00 -8.427048e+00 2.735910e+00 -1.587890e+01 8.875818e+00
<VARIANCE> 20
 4.827636e+00 1.820605e+00 2.374421e+01 2.318903e+01 2.567623e+01 5.009415e+00 8.994594e+00 5.959963e+01 1.195899e+01 2.500830e+00 8.427768e+01 2.034202e+01 2.918475e+00 1.421256e+00 2.212036e+01 1.900714e+01 4.504053e+00 8.632308e-01 1.250130e+01 1.329181e+01
<GCONST> 8.116296e+01
<STATE> 3
<NUMMIXES> 4
<MIXTURE> 1 4.575001e-01
<MEAN> 20
 -7.774410e+00 -1.877901e+00 -1.652809e+01 -1.042200e+01 -8.285662e+00 -1.240243e+01 -1.282341e+01 -1.353856e+01 -2.406533e+00 -1.255455e+01 -7.613227e+00 -1.133525e+01 3.231392e+00 -1.158877e+01 -2.806381e+00 -5.792299e+00 8.579893e+00 -9.840580e+00 2.016175e+00 -6.225371e+00
<VARIANCE> 20
 2.259118e+00 2.335523e+00 4.304603e+01 3.610239e+01 1.183080e+01 7.282491e+00 2.173455e+01 4.750280e+01 8.844976e+00 5.498725e+00 2.288766e+01 5.688720e+01 7.737316e+00 3.980971e+00 1.009463e+01 1.973084e+01 7.818542e+00 3.309577e+00 7.158252e+00 2.451002e+01
<GCONST> 8.536372e+01
<MIXTURE> 2 2.791967e-01
<MEAN> 20
 -7.905294e+00 -1.164935e-01 -2.366891e+01 6.057744e-01 -1.518485e+01 -8.391170e+00 -2.543876e+01 -4.605190e+00 -9.277979e+00 -9.168232e+00 -1.430602e+01 -2.872650e+00 -3.211879e+00 -8.358861e+00 -7.321730e+00 -4.293868e-01 2.415613e+00 -6.663234e+00 -2.694942e+00 -4.095645e-01
<VARIANCE> 20
 9.401171e-01 1.021674e+00 1.362146e+01 3.084137e+01 6.969083e+00 8.431833e+00 2.389925e+01 8.353949e+01 6.363294e+00 1.095012e+01 3.186450e+01 4.157653e+01 6.584299e+00 1.407458e+01 2.226057e+01 1.012458e+01 9.100900e+00 1.570871e+01 2.554591e+01 1.070117e+01
<GCONST> 8.638358e+01
<MIXTURE> 3 2.234684e-01
<MEAN> 20
 -1.014359e+01 -7.463151e-01 -3.312840e+01 1.995675e+00 -2.000441e+01 -7.574264e+00 -3.645324e+01 1.508086e+00 -1.449235e+01 -6.971263e+00 -2.260194e+01 2.499644e+00 -8.701061e+00 -4.912450e+00 -1.562866e+01 3.411507e+00 -3.474939e+00 -2.268198e+00 -1.072908e+01 3.831544e+00
<VARIANCE> 20
 1.742851e+00 3.319577e+00 1.461897e+01 1.478060e+01 1.094860e+01 7.707878e+00 1.182430e+01 2.521243e+01 1.231921e+01 9.600990e+00 1.572850e+01 1.130968e+01 1.154293e+01 1.265006e+01 9.792505e+00 9.946372e+00 1.084158e+01 1.574939e+01 6.015756e+00 1.038570e+01
<GCONST> 8.281321e+01
<MIXTURE> 4 3.983483e-02
<MEAN> 20
 -4.553953e+00 -6.099981e+00 -2.836405e+01 -1.145365e+01 -1.304693e+01 -1.433508e+01 -4.223730e+01 -1.730071e+01 -1.188974e+01 -1.102618e+01 -4.656489e+01 -1.452624e+01 -1.175014e+01 -6.733979e+00 -1.998726e+01 -4.655808e+00 -1.204432e+01 -2.152467e+00 -1.830584e+01 -1.605074e+00
<VARIANCE> 20
 1.331804e+00 4.643187e-02 2.937162e+00 3.688378e-01 4.259352e-02 1.017290e-01 1.877960e-01 4.539991e-01 6.595514e-01 2.246070e-01 9.683761e-01 4.999388e-01 2.273793e+00 2.967564e-01 4.894714e-01 1.331763e-01 4.236960e+00 2.720281e-01 1.480308e+00 3.975401e-02
<GCONST> 1.770109e+01
<STATE> 4
<NUMMIXES> 4
<MIXTURE> 1 6.910005e-01
<MEAN> 20
 -7.470244e+00 -1.635514e+00 -1.305090e+01 -9.314489e+00 -9.706407e+00 -1.154554e+01 -1.469901e+01 -1.430753e+01 -4.684483e+00 -1.191012e+01 -9.592841e+00 -1.253036e+01 4.360345e-01 -1.137592e+01 -5.012958e+00 -8.602861e+00 5.699890e+00 -1.009700e+01 -2.954968e-01 -1.004345e+01
<VARIANCE> 20
 1.061247e+00 5.517008e-01 3.068327e+01 1.023864e+01 4.808835e+00 2.326659e+00 1.504088e+01 2.266958e+01 3.512231e+00 1.913433e+00 1.039773e+01 4.401501e+01 2.632415e+00 1.708202e+00 5.398245e+00 2.158129e+01 2.340379e+00 2.076839e+00 3.517889e+00 3.604762e+01
<GCONST> 7.093517e+01
<MIXTURE> 2 1.628364e-01
<MEAN> 20
 -6.324099e+00 -5.908537e-01 -1.850937e+01 -7.569826e-01 -9.570749e+00 -8.240304e+00 -1.647080e+01 -9.291420e-01 -3.951717e+00 -8.398250e+00 -7.959613e+00 -1.165522e+00 1.302312e+00 -7.296588e+00 -3.081698e+00 -5.162337e-02 5.910003e+00 -5.615864e+00 1.037119e+00 1.374322e-01
<VARIANCE> 20
 6.260559e+00 1.534365e+00 4.300394e+01 1.934399e+01 2.167147e+01 1.135835e+01 4.654913e+01 3.004885e+01 1.122936e+01 8.036752e+00 1.196805e+01 1.177876e+01 5.128645e+00 6.157794e+00 6.911473e+00 5.179348e+00 5.884080e+00 5.810044e+00 8.143517e+00 5.614393e+00
<GCONST> 8.232880e+01
<MIXTURE> 3 1.236531e-01
<MEAN> 20
 -7.441656e+00 -3.658563e-01 -2.348070e+01 2.837928e+00 -1.784513e+01 -4.092355e+00 -2.646773e+01 3.891502e+00 -1.414712e+01 -3.987144e+00 -1.854258e+01 2.855412e+00 -9.721503e+00 -2.921268e+00 -1.374723e+01 3.128342e+00 -5.289526e+00 -1.360356e+00 -9.412716e+00 3.182909e+00
<VARIANCE> 20
 4.688181e+00 1.085141e+00 4.151826e+01 1.915172e+01 1.569528e+01 4.998325e+00 3.240237e+01 2.899973e+01 6.874666e+00 6.733252e+00 1.812856e+01 2.922827e+00 3.221449e+00 7.637434e+00 2.350809e+01 3.475832e+00 6.504829e+00 7.705536e+00 2.594489e+01 5.067095e+00
<GCONST> 8.047503e+01
<MIXTURE> 4 2.251007e-02
<MEAN> 20
 -1.595755e+00 -6.909286e+00 -2.785368e+01 -1.399904e+01 -6.603143e+00 -1.345618e+01 -4.070240e+01 -2.121714e+01 -8.347416e+00 -8.755322e+00 -4.545175e+01 -1.680651e+01 -1.184655e+01 -4.099984e+00 -2.147809e+01 -6.687366e+00 -1.590993e+01 -9.012686e-02 -2.233708e+01 -3.344929e+00
<VARIANCE> 20
 2.522234e+00 4.328363e-01 7.085483e+00 5.904612e+00 2.000750e+01 5.948728e-01 2.149888e+01 4.172248e+00 1.262900e+01 2.098758e+00 8.116522e+01 8.121142e+00 7.452766e+00 3.416199e+00 1.188365e+00 1.573499e+00 1.185296e+01 2.413424e+00 5.922813e+00 9.539657e-01
<GCONST> 6.626883e+01
<TRANSP> 5
 0.000000e+00 1.000000e+00 0.000000e+00 0.000000e+00 0.000000e+00
 0.000000e+00 7.806035e-01 2.193965e-01 0.000000e+00 0.000000e+00
 0.000000e+00 0.000000e+00 6.175870e-01 3.824130e-01 0.000000e+00
 0.000000e+00 0.000000e+00 0.000000e+00 7.298807e-01 2.701193e-01
 0.000000e+00 0.000000e+00 0.000000e+00 0.000000e+00 0.000000e+00
<ENDHMM>
