~o
<STREAMINFO> 1 20
<VECSIZE> 20<NULLD><USER><DIAGC>
~h "s"
<BEGINHMM>
<NUMSTATES> 8
<STATE> 2
<MEAN> 20
 -7.334891e+00 -2.133775e+00 -1.473701e+01 -1.106737e+01 -8.524091e+00 -1.233563e+01 -1.451369e+01 -1.346834e+01 -3.821619e+00 -1.236238e+01 -1.048286e+01 -1.145932e+01 7.610520e-01 -1.150150e+01 -5.845493e+00 -8.546158e+00 5.307266e+00 -9.948717e+00 -1.191426e+00 -9.039991e+00
<VARIANCE> 20
 8.048624e+00 1.535717e+00 7.472829e+01 1.518447e+01 2.733128e+01 7.258133e+00 6.463123e+01 3.358668e+01 1.745455e+01 7.660858e+00 5.458149e+01 3.942795e+01 1.301816e+01 8.264536e+00 3.254167e+01 2.262671e+01 1.710792e+01 9.229982e+00 3.434435e+01 3.122063e+01
<GCONST> 9.516854e+01
<STATE> 3
<NUMMIXES> 4
<MIXTURE> 1 3.092837e-01
<MEAN> 20
 -6.395890e+00 -1.244354e+00 -1.165470e+01 -8.729888e+00 -8.667094e+00 -9.887055e+00 -1.118352e+01 -1.066507e+01 -4.030304e+00 -1.009937e+01 -6.950016e+00 -9.284956e+00 6.367307e-01 -9.692268e+00 -2.889594e+00 -7.615697e+00 5.504949e+00 -8.741035e+00 1.502078e+00 -7.856956e+00
<VARIANCE> 20
 5.887483e-01 4.639163e-01 1.817622e+01 5.263029e+00 3.575635e+00 9.337094e-01 3.689247e+00 1.012117e+01 2.441924e+00 7.547055e-01 2.958013e+00 9.612472e+00 2.072517e+00 6.336908e-01 2.749290e+00 6.398108e+00 2.169373e+00 7.266575e-01 3.963125e+00 8.716805e+00
<GCONST> 5.594243e+01
<MIXTURE> 2 3.883082e-01
<MEAN> 20
 -7.846232e+00 -2.423836e+00 -1.233986e+01 -1.219308e+01 -8.336919e+00 -1.331727e+01 -1.364512e+01 -1.599062e+01 -3.089773e+00 -1.340903e+01 -9.521667e+00 -1.479160e+01 2.177138e+00 -1.254666e+01 -4.877140e+00 -1.003106e+01 7.490935e+00 -1.087198e+01 7.019509e-02 -9.970353e+00
<VARIANCE> 20
 5.849166e-01 5.280119e-01 2.812386e+01 5.745005e+00 4.388990e+00 1.277315e+00 1.109180e+01 3.386477e+01 3.886523e+00 1.138902e+00 1.133931e+01 4.657218e+01 3.582754e+00 9.120967e-01 7.990607e+00 1.986722e+01 3.381221e+00 9.581947e-01 1.020234e+01 1.921111e+01
<GCONST> 6.878196e+01
<MIXTURE> 3 8.720169e-02
<MEAN> 20
 2.122337e+00 -2.183607e+00 3.359228e+00 -8.587178e+00 4.787227e+00 -1.080088e+01 3.328826e+00 -1.069713e+01 3.471145e+00 -1.033499e+01 2.377535e+00 -8.090915e+00 1.740726e+00 -8.864536e+00 1.659036e+00 -5.652677e+00 -2.610376e-01 -6.792830e+00 1.640570e-01 -4.623051e+00
<VARIANCE> 20
 5.028219e+01 3.080465e+00 3.888742e+02 2.890115e+01 1.277107e+02 1.508950e+01 4.706382e+02 5.323755e+01 7.093906e+01 1.940857e+01 3.209336e+02 6.259114e+01 5.116166e+01 2.470893e+01 1.384836e+02 5.012052e+01 6.337533e+01 2.947822e+01 1.007928e+02 4.499197e+01
<GCONST> 1.178950e+02
<MIXTURE> 4 2.152064e-01
<MEAN> 20
 -9.838875e+00 -1.641232e+00 -2.349825e+01 -1.215638e+01 -1.465970e+01 -1.399450e+01 -2.283352e+01 -1.590889e+01 -9.155274e+00 -1.471982e+01 -1.803489e+01 -1.484492e+01 -3.365470e+00 -1.436875e+01 -1.216026e+01 -1.216881e+01 2.581647e+00 -1.310972e+01 -5.461218e+00 -1.413799e+01
<VARIANCE> 20
 2.592640e+00 1.345998e+00 4.537485e+01 1.498663e+01 1.068464e+01 5.465662e+00 2.288052e+01 3.824047e+01 8.432279e+00 5.032789e+00 2.845658e+01 5.804052e+01 7.946640e+00 4.461083e+00 2.893975e+01 4.244974e+01 1.030351e+01 4.607918e+00 3.854121e+01 5.633045e+01
<GCONST> 8.875340e+01
<STATE> 4
<NUMMIXES> 4
<MIXTURE> 1 2.812018e-01
<MEAN> 20
 -7.215013e+00 -2.764791e+00 -1.083355e+01 -1.301348e+01 -5.637568e+00 -1.333611e+01 -9.876325e+00 -1.100365e+01 -2.280269e-01 -1.306243e+01 -5.294520e+00 -8.928980e+00 4.821916e+00 -1.188680e+01 -1.170659e+00 -7.338840e+00 9.641047e+00 -1.001659e+01 3.339250e+00 -7.829514e+00
<VARIANCE> 20
 8.662041e-01 4.321281e-01 2.414634e+01 5.761523e+00 3.804613e+00 2.054466e+00 4.809173e+00 8.024907e+00 3.680034e+00 1.947531e+00 3.669585e+00 4.733485e+00 2.918228e+00 1.619872e+00 3.682569e+00 3.347941e+00 2.204036e+00 1.470637e+00 5.841865e+00 1.149550e+01
<GCONST> 6.069201e+01
<MIXTURE> 2 3.409325e-01
<MEAN> 20
 -7.076105e+00 -1.446348e+00 -1.313755e+01 -9.421072e+00 -9.521324e+00 -1.076636e+01 -1.316535e+01 -1.172585e+01 -4.795196e+00 -1.102046e+01 -8.943625e+00 -1.059374e+01 4.470763e-02 -1.060946e+01 -4.783786e+00 -8.652147e+00 5.152868e+00 -9.605627e+00 -1.131918e-01 -1.013899e+01
<VARIANCE> 20
 8.753243e-01 4.899555e-01 2.456987e+01 5.199358e+00 2.935101e+00 1.404641e+00 5.951075e+00 1.629187e+01 1.895813e+00 1.252299e+00 6.442259e+00 1.948931e+01 1.633181e+00 1.109773e+00 5.844048e+00 1.023070e+01 1.879968e+00 1.244927e+00 5.244754e+00 2.220896e+01
<GCONST> 6.274270e+01
<MIXTURE> 3 9.714856e-02
<MEAN> 20
 -6.442092e+00 -1.933199e+00 -1.877228e+01 -6.632171e+00 -9.930093e+00 -1.006983e+01 -2.082051e+01 -9.513169e+00 -6.714045e+00 -9.677767e+00 -1.660406e+01 -5.496354e+00 -3.730645e+00 -8.155401e+00 -1.048831e+01 -3.181476e+00 -1.158208e+00 -5.998308e+00 -7.008134e+00 -2.790980e+00
<VARIANCE> 20
 3.654647e+01 3.942451e+00 2.632321e+02 6.223321e+01 1.312163e+02 3.018775e+01 3.462554e+02 1.098925e+02 8.171194e+01 3.417505e+01 2.463562e+02 1.407755e+02 5.151748e+01 3.871995e+01 1.133286e+02 8.892970e+01 4.937802e+01 4.215459e+01 9.961621e+01 8.171064e+01
<GCONST> 1.221132e+02
<MIXTURE> 4 2.807172e-01
<MEAN> 20
 -9.141911e+00 -1.839949e+00 -1.871986e+01 -1.266256e+01 -1.265522e+01 -1.369501e+01 -1.831363e+01 -1.483155e+01 -7.046352e+00 -1.421545e+01 -1.314100e+01 -1.340099e+01 -1.212540e+00 -1.377371e+01 -7.574871e+00 -1.023707e+01 4.869963e+00 -1.251278e+01 -2.158735e+00 -1.174413e+01
<VARIANCE> 20
 1.185205e+00 8.658952e-01 4.163619e+01 7.975637e+00 6.840748e+00 2.437233e+00 1.237342e+01 2.876871e+01 5.404909e+00 2.061250e+00 1.142876e+01 3.856796e+01 5.013269e+00 1.594609e+00 9.971480e+00 1.859440e+01 5.840427e+00 1.622661e+00 1.356890e+01 3.127002e+01
<GCONST> 7.537722e+01
<STATE> 5
<NUMMIXES> 4
<MIXTURE> 1 2.350542e-01
<MEAN> 20
 -5.454680e+00 -1.075565e+00 -9.541003e+00 -7.717135e+00 -7.395929e+00 -8.542245e+00 -8.851800e+00 -8.901057e+00 -3.298680e+00 -8.719096e+00 -5.295256e+00 -7.473534e+00 7.639468e-01 -8.390014e+00 -1.920144e+00 -6.221138e+00 4.980416e+00 -7.607896e+00 1.786294e+00 -6.665070e+00
<VARIANCE> 20
 5.021816e-01 2.859898e-01 1.472705e+01 5.227979e+00 2.758963e+00 1.041853e+00 3.308192e+00 7.224411e+00 1.749099e+00 9.324036e-01 2.146788e+00 6.856798e+00 1.478701e+00 8.289132e-01 1.681813e+00 5.438154e+00 1.745976e+00 8.746555e-01 3.247210e+00 7.863486e+00
<GCONST> 5.264896e+01
<MIXTURE> 2 4.132938e-01
<MEAN> 20
 -7.429344e+00 -2.098720e+00 -1.202824e+01 -1.117296e+01 -8.233824e+00 -1.225423e+01 -1.268930e+01 -1.350471e+01 -3.119414e+00 -1.229636e+01 -8.216689e+00 -1.157888e+01 2.022591e+00 -1.153901e+01 -3.790128e+00 -8.413698e+00 7.310173e+00 -1.010010e+01 1.000161e+00 -8.986054e+00
<VARIANCE> 20
 5.314456e-01 4.910622e-01 2.790403e+01 4.615236e+00 3.860204e+00 1.247579e+00 5.880454e+00 2.036702e+01 3.527614e+00 1.029243e+00 5.362183e+00 2.432639e+01 3.456031e+00 8.069103e-01 4.350118e+00 8.871778e+00 3.358941e+00 8.869373e-01 4.839587e+00 1.583965e+01
<GCONST> 6.289983e+01
<MIXTURE> 3 1.175650e-01
<MEAN> 20
 -4.844057e+00 -3.250130e+00 -1.732386e+01 -1.018206e+01 -5.749788e+00 -1.172804e+01 -2.034303e+01 -1.296772e+01 -3.912257e+00 -1.045745e+01 -1.713486e+01 -8.547305e+00 -2.841895e+00 -8.243170e+00 -1.128491e+01 -4.905167e+00 -2.366512e+00 -5.605373e+00 -9.468429e+00 -3.712910e+00
<VARIANCE> 20
 2.457789e+01 3.855600e+00 1.883512e+02 2.734621e+01 7.503727e+01 8.970266e+00 2.491063e+02 4.098146e+01 5.151729e+01 1.005328e+01 2.150816e+02 4.767477e+01 4.264708e+01 1.402617e+01 8.314262e+01 2.599897e+01 5.147810e+01 1.891310e+01 7.292421e+01 2.672393e+01
<GCONST> 1.096124e+02
<MIXTURE> 4 2.340870e-01
<MEAN> 20
 -1.066562e+01 -2.656878e+00 -2.193572e+01 -1.621873e+01 -1.377661e+01 -1.688742e+01 -2.011328e+01 -1.721465e+01 -7.245681e+00 -1.734648e+01 -1.375458e+01 -1.505586e+01 -7.207026e-01 -1.660309e+01 -7.329388e+00 -1.168299e+01 5.791815e+00 -1.492019e+01 -1.610170e+00 -1.256909e+01
<VARIANCE> 20
 2.217858e+00 1.368307e+00 5.011014e+01 1.389179e+01 1.333268e+01 5.525566e+00 2.454763e+01 4.566899e+01 9.584080e+00 5.096951e+00 2.264974e+01 5.653778e+01 7.523214e+00 4.173768e+00 1.860580e+01 2.688331e+01 7.969985e+00 3.612578e+00 2.727103e+01 3.266916e+01
<GCONST> 8.659277e+01
<STATE> 6
<NUMMIXES> 4
<MIXTURE> 1 3.549061e-01
<MEAN> 20
 -7.424668e+00 -2.311497e+00 -1.041700e+01 -1.186975e+01 -8.896617e+00 -1.204741e+01 -1.073883e+01 -9.739833e+00 -3.730780e+00 -1.209230e+01 -5.893226e+00 -8.947118e+00 1.454467e+00 -1.144442e+01 -1.575440e+00 -7.902340e+00 6.897614e+00 -1.020954e+01 2.422737e+00 -7.701461e+00
<VARIANCE> 20
 5.532318e-01 3.666911e-01 1.266381e+01 2.991410e+00 2.032506e+00 1.440577e+00 1.144479e+00 1.262561e+00 1.658565e+00 1.420503e+00 7.775339e-01 9.623906e-01 1.547406e+00 1.100014e+00 8.475853e-01 9.135567e-01 1.544331e+00 8.086306e-01 1.068460e+00 9.610623e-01
<GCONST> 4.133104e+01
<MIXTURE> 2 2.408940e-01
<MEAN> 20
 -8.437273e+00 -2.321823e+00 -1.235222e+01 -1.212684e+01 -1.082020e+01 -1.303235e+01 -1.345367e+01 -1.154817e+01 -5.559463e+00 -1.318457e+01 -8.450888e+00 -1.071468e+01 -2.130747e-01 -1.264424e+01 -3.912798e+00 -9.846823e+00 5.557418e+00 -1.147708e+01 3.158417e-01 -9.682719e+00
<VARIANCE> 20
 7.744028e-01 5.766998e-01 1.580951e+01 6.570981e+00 3.003914e+00 2.277740e+00 1.482848e+00 2.511533e+00 1.821237e+00 2.181768e+00 1.159017e+00 2.153821e+00 1.493494e+00 1.698977e+00 1.355138e+00 2.705536e+00 1.798089e+00 1.266731e+00 1.941983e+00 2.639856e+00
<GCONST> 5.081509e+01
<MIXTURE> 3 1.241603e-01
<MEAN> 20
 -4.852792e+00 -1.534385e+00 -1.239298e+01 -7.124325e+00 -6.202095e+00 -9.432940e+00 -1.179443e+01 -8.916754e+00 -2.903185e+00 -9.271657e+00 -8.782901e+00 -6.537136e+00 8.279876e-02 -8.281939e+00 -4.854187e+00 -4.673768e+00 2.809672e+00 -6.772165e+00 -1.354902e+00 -4.831910e+00
<VARIANCE> 20
 1.800132e+01 2.128303e+00 1.425876e+02 1.754978e+01 6.065376e+01 6.318552e+00 1.557797e+02 3.044871e+01 3.724672e+01 6.223712e+00 1.183424e+02 3.542873e+01 2.885151e+01 7.499973e+00 5.542812e+01 2.123508e+01 3.750232e+01 1.055331e+01 5.849176e+01 2.409126e+01
<GCONST> 1.021079e+02
<MIXTURE> 4 2.800396e-01
<MEAN> 20
 -8.544703e+00 -2.413601e+00 -1.800047e+01 -1.249724e+01 -9.108324e+00 -1.390911e+01 -1.690761e+01 -1.602788e+01 -3.931237e+00 -1.404049e+01 -1.322497e+01 -1.367136e+01 1.032115e+00 -1.313933e+01 -8.423354e+00 -1.038920e+01 5.733157e+00 -1.139997e+01 -3.057197e+00 -1.108250e+01
<VARIANCE> 20
 2.499605e+00 1.393821e+00 4.899805e+01 1.188735e+01 2.091250e+01 4.881175e+00 2.725558e+01 3.208949e+01 1.559384e+01 4.611661e+00 2.891252e+01 3.658092e+01 1.097009e+01 4.399655e+00 3.326666e+01 2.328814e+01 1.175186e+01 4.799903e+00 5.071876e+01 2.964407e+01
<GCONST> 8.888912e+01
<STATE> 7
<MEAN> 20
 -7.327608e+00 -2.039001e+00 -1.350816e+01 -1.118478e+01 -9.014700e+00 -1.233546e+01 -1.348519e+01 -1.227933e+01 -4.172206e+00 -1.243553e+01 -9.120004e+00 -1.059248e+01 6.149658e-01 -1.169239e+01 -4.560245e+00 -8.334087e+00 5.473175e+00 -1.027254e+01 -2.140710e-01 -8.636805e+00
<VARIANCE> 20
 8.910233e+00 1.164619e+00 7.662093e+01 1.454791e+01 2.673188e+01 7.318803e+00 6.216655e+01 2.961564e+01 1.662723e+01 7.927618e+00 5.124752e+01 3.142945e+01 1.303214e+01 8.233559e+00 2.874148e+01 1.804899e+01 1.749738e+01 8.566663e+00 2.740891e+01 2.381567e+01
<GCONST> 9.359190e+01
<TRANSP> 8
 0.000000e+00 1.000000e+00 0.000000e+00 0.000000e+00 0.000000e+00 0.000000e+00 0.000000e+00 0.000000e+00
 0.000000e+00 1.158192e-01 8.841808e-01 0.000000e+00 0.000000e+00 0.000000e+00 0.000000e+00 0.000000e+00
 0.000000e+00 0.000000e+00 5.567970e-01 4.432029e-01 0.000000e+00 0.000000e+00 0.000000e+00 0.000000e+00
 0.000000e+00 0.000000e+00 0.000000e+00 5.248544e-01 4.751457e-01 0.000000e+00 0.000000e+00 0.000000e+00
 0.000000e+00 0.000000e+00 0.000000e+00 0.000000e+00 5.232844e-01 4.767156e-01 0.000000e+00 0.000000e+00
 0.000000e+00 0.000000e+00 0.000000e+00 0.000000e+00 0.000000e+00 5.631735e-01 4.368266e-01 0.000000e+00
 0.000000e+00 0.000000e+00 0.000000e+00 0.000000e+00 0.000000e+00 0.000000e+00 1.998501e-02 9.800150e-01
 0.000000e+00 0.000000e+00 0.000000e+00 0.000000e+00 0.000000e+00 0.000000e+00 0.000000e+00 0.000000e+00
<ENDHMM>
