~o
<STREAMINFO> 1 20
<VECSIZE> 20<NULLD><USER><DIAGC>
~h "s"
<BEGINHMM>
<NUMSTATES> 5
<STATE> 2
<NUMMIXES> 4
<MIXTURE> 1 4.769297e-02
<MEAN> 20
 8.097556e+00 -1.485984e+00 1.704218e+01 -9.970391e+00 1.242554e+01 -1.213570e+01 1.878182e+01 -1.306143e+01 7.196320e+00 -1.259030e+01 1.347982e+01 -1.205534e+01 1.860272e+00 -1.190819e+01 7.881354e+00 -9.390980e+00 -3.424957e+00 -1.035178e+01 3.006514e+00 -7.818634e+00
<VARIANCE> 20
 4.125465e+00 1.547372e+00 6.834045e+01 1.495884e+01 2.005044e+01 6.814122e+00 5.414985e+01 3.317078e+01 1.666802e+01 8.613675e+00 5.136033e+01 4.147157e+01 1.663027e+01 1.059572e+01 3.062218e+01 3.958017e+01 2.174079e+01 1.255731e+01 2.916693e+01 3.300811e+01
<GCONST> 9.533350e+01
<MIXTURE> 2 4.014927e-01
<MEAN> 20
 -6.806567e+00 -1.582536e+00 -1.251093e+01 -9.560280e+00 -8.318753e+00 -1.090209e+01 -1.256777e+01 -1.308922e+01 -3.501418e+00 -1.105183e+01 -8.496987e+00 -1.132341e+01 1.347340e+00 -1.042840e+01 -4.270916e+00 -8.014421e+00 6.299314e+00 -9.154572e+00 5.432012e-01 -8.778843e+00
<VARIANCE> 20
 5.408465e-01 5.419635e-01 2.760270e+01 5.595356e+00 4.128726e+00 1.156279e+00 6.365235e+00 2.265024e+01 3.525936e+00 9.122764e-01 7.117918e+00 2.795886e+01 3.425719e+00 6.664651e-01 6.174328e+00 1.094867e+01 3.547224e+00 7.669470e-01 7.705796e+00 1.860703e+01
<GCONST> 6.457160e+01
<MIXTURE> 3 1.968167e-01
<MEAN> 20
 -7.740259e+00 -2.482057e+00 -2.195939e+01 -1.010568e+01 -1.061131e+01 -1.220075e+01 -2.342464e+01 -1.306475e+01 -6.702251e+00 -1.178136e+01 -1.915073e+01 -9.177845e+00 -3.199355e+00 -1.030978e+01 -1.271501e+01 -6.391900e+00 -6.842408e-02 -8.217942e+00 -8.421919e+00 -6.719925e+00
<VARIANCE> 20
 9.379833e+00 3.592844e+00 5.094075e+01 2.957921e+01 3.726348e+01 1.322620e+01 6.684438e+01 4.823127e+01 2.623890e+01 1.538244e+01 7.214563e+01 6.014235e+01 2.304298e+01 2.020363e+01 4.113187e+01 4.099318e+01 3.551971e+01 2.595230e+01 5.348984e+01 5.977612e+01
<GCONST> 1.047171e+02
<MIXTURE> 4 3.539977e-01
<MEAN> 20
 -8.161973e+00 -2.392796e+00 -1.319060e+01 -1.237450e+01 -8.942304e+00 -1.367231e+01 -1.461384e+01 -1.692482e+01 -3.582376e+00 -1.382728e+01 -1.046517e+01 -1.579621e+01 1.813842e+00 -1.298621e+01 -5.493207e+00 -1.064788e+01 7.273833e+00 -1.129320e+01 -2.947409e-01 -1.054931e+01
<VARIANCE> 20
 7.146188e-01 6.257607e-01 3.206175e+01 6.148526e+00 5.343303e+00 1.194335e+00 1.209816e+01 3.327216e+01 4.561156e+00 9.748411e-01 1.243092e+01 4.656577e+01 4.119413e+00 7.790347e-01 9.222578e+00 2.146746e+01 3.898860e+00 9.161452e-01 1.422216e+01 2.142818e+01
<GCONST> 7.038779e+01
<STATE> 3
<NUMMIXES> 4
<MIXTURE> 1 2.775167e-01
<MEAN> 20
 -5.603765e+00 -1.038073e+00 -1.030811e+01 -7.658669e+00 -7.642982e+00 -8.742284e+00 -9.509592e+00 -9.475006e+00 -3.477020e+00 -8.946514e+00 -5.857213e+00 -8.224791e+00 6.717156e-01 -8.611059e+00 -2.331478e+00 -6.795335e+00 4.969632e+00 -7.796062e+00 1.708710e+00 -7.241013e+00
<VARIANCE> 20
 5.065269e-01 3.133187e-01 1.606088e+01 4.862197e+00 3.318968e+00 1.110530e+00 4.453987e+00 8.588093e+00 2.021586e+00 9.896853e-01 3.116200e+00 9.826287e+00 1.639076e+00 8.466181e-01 2.588493e+00 7.136965e+00 1.920355e+00 8.647140e-01 4.140406e+00 1.005260e+01
<GCONST> 5.581834e+01
<MIXTURE> 2 3.301875e-01
<MEAN> 20
 -8.100081e+00 -2.171823e+00 -1.263880e+01 -1.154538e+01 -1.023859e+01 -1.243354e+01 -1.335714e+01 -1.136611e+01 -5.182385e+00 -1.258382e+01 -8.617723e+00 -1.046087e+01 2.503372e-02 -1.209907e+01 -4.305490e+00 -9.600535e+00 5.664203e+00 -1.101571e+01 2.299162e-01 -1.047823e+01
<VARIANCE> 20
 5.501406e-01 5.274032e-01 2.138441e+01 4.718483e+00 3.121993e+00 1.118517e+00 2.516291e+00 3.651939e+00 2.136456e+00 9.319360e-01 2.696567e+00 3.741772e+00 1.918108e+00 6.978210e-01 3.188226e+00 4.157911e+00 2.174650e+00 6.193985e-01 3.058871e+00 1.210501e+01
<GCONST> 5.338858e+01
<MIXTURE> 3 1.567959e-01
<MEAN> 20
 -6.342559e+00 -2.666758e+00 -1.386096e+01 -1.104394e+01 -4.306443e+00 -1.256881e+01 -1.279320e+01 -1.439598e+01 -2.351937e-01 -1.212346e+01 -1.016468e+01 -1.108557e+01 3.096015e+00 -1.064530e+01 -6.472724e+00 -7.769972e+00 5.752800e+00 -8.478838e+00 -2.350572e+00 -7.614679e+00
<VARIANCE> 20
 1.223397e+01 1.986048e+00 9.426369e+01 1.613815e+01 3.393301e+01 6.677126e+00 9.381519e+01 4.260830e+01 2.040818e+01 6.823335e+00 7.561490e+01 4.421314e+01 1.664433e+01 7.699975e+00 5.737436e+01 2.703708e+01 2.725592e+01 8.922891e+00 7.584440e+01 2.970347e+01
<GCONST> 9.945653e+01
<MIXTURE> 4 2.355000e-01
<MEAN> 20
 -1.067694e+01 -2.579539e+00 -2.211470e+01 -1.630374e+01 -1.392326e+01 -1.683601e+01 -2.007587e+01 -1.640787e+01 -7.356352e+00 -1.732033e+01 -1.357803e+01 -1.407341e+01 -7.843591e-01 -1.661604e+01 -7.251255e+00 -1.101132e+01 5.792934e+00 -1.497932e+01 -1.486220e+00 -1.237312e+01
<VARIANCE> 20
 1.812630e+00 1.459164e+00 4.755159e+01 1.079443e+01 1.255062e+01 4.463938e+00 2.387617e+01 4.252616e+01 9.547692e+00 3.976277e+00 2.040202e+01 5.028570e+01 7.950527e+00 3.111109e+00 1.629631e+01 2.305434e+01 8.672070e+00 2.688286e+00 2.256739e+01 3.738172e+01
<GCONST> 8.451355e+01
<STATE> 4
<NUMMIXES> 4
<MIXTURE> 1 3.183836e-01
<MEAN> 20
 -7.212326e+00 -1.944293e+00 -1.093483e+01 -1.095763e+01 -9.347857e+00 -1.127730e+01 -1.089227e+01 -9.490089e+00 -4.336688e+00 -1.138210e+01 -6.177013e+00 -8.645594e+00 7.340680e-01 -1.087381e+01 -1.951125e+00 -7.730633e+00 6.130391e+00 -9.828259e+00 2.013837e+00 -7.669035e+00
<VARIANCE> 20
 6.356648e-01 5.280204e-01 1.365025e+01 4.077481e+00 1.835402e+00 1.415374e+00 1.349147e+00 1.800837e+00 1.301119e+00 1.294752e+00 8.909430e-01 1.441155e+00 1.224674e+00 1.023591e+00 8.815368e-01 1.549410e+00 1.479758e+00 8.029050e-01 1.134448e+00 1.476176e+00
<GCONST> 4.352472e+01
<MIXTURE> 2 3.028113e-01
<MEAN> 20
 -7.342275e+00 -2.693365e+00 -1.079360e+01 -1.285440e+01 -6.238907e+00 -1.339405e+01 -1.065141e+01 -1.163614e+01 -8.183108e-01 -1.319484e+01 -5.895203e+00 -9.405927e+00 4.308695e+00 -1.209508e+01 -1.579265e+00 -7.609830e+00 9.278776e+00 -1.028409e+01 2.846339e+00 -7.827648e+00
<VARIANCE> 20
 7.329012e-01 4.257272e-01 2.286858e+01 5.100121e+00 3.725661e+00 1.771734e+00 5.831870e+00 9.314616e+00 3.433781e+00 1.674475e+00 4.672131e+00 5.464276e+00 2.722900e+00 1.420407e+00 4.199396e+00 3.750259e+00 2.106476e+00 1.348185e+00 4.832951e+00 9.102960e+00
<GCONST> 6.016024e+01
<MIXTURE> 3 6.411360e-02
<MEAN> 20
 -4.466360e+00 -2.195163e+00 -1.407295e+01 -5.106133e+00 -7.492289e+00 -8.567576e+00 -1.717667e+01 -6.427519e+00 -5.239495e+00 -7.615677e+00 -1.421721e+01 -3.005973e+00 -3.193072e+00 -5.773777e+00 -7.934926e+00 -5.042381e-01 -1.490864e+00 -3.514316e+00 -5.624177e+00 4.310878e-02
<VARIANCE> 20
 4.090763e+01 4.812231e+00 4.178815e+02 5.757711e+01 1.864267e+02 2.607751e+01 5.236830e+02 9.135854e+01 1.338534e+02 2.942048e+01 4.416310e+02 1.015202e+02 9.951711e+01 3.406304e+01 1.804878e+02 5.579712e+01 9.116618e+01 3.862915e+01 1.431834e+02 5.096954e+01
<GCONST> 1.247903e+02
<MIXTURE> 4 3.146915e-01
<MEAN> 20
 -8.955654e+00 -1.685436e+00 -2.013128e+01 -1.146062e+01 -1.272117e+01 -1.309224e+01 -1.951581e+01 -1.505163e+01 -7.449259e+00 -1.364355e+01 -1.484194e+01 -1.395877e+01 -1.945066e+00 -1.321282e+01 -9.458803e+00 -1.101875e+01 3.724048e+00 -1.195459e+01 -3.796606e+00 -1.223101e+01
<VARIANCE> 20
 2.015705e+00 9.406518e-01 4.889574e+01 1.104228e+01 1.016941e+01 3.439410e+00 2.098610e+01 3.498348e+01 7.941011e+00 3.224462e+00 2.462619e+01 4.916358e+01 6.681570e+00 2.929417e+00 2.367985e+01 3.244232e+01 7.420638e+00 3.199094e+00 3.045808e+01 3.915699e+01
<GCONST> 8.405325e+01
<TRANSP> 5
 0.000000e+00 1.000000e+00 0.000000e+00 0.000000e+00 0.000000e+00
 0.000000e+00 6.989302e-01 3.010698e-01 0.000000e+00 0.000000e+00
 0.000000e+00 0.000000e+00 7.244809e-01 2.755191e-01 0.000000e+00
 0.000000e+00 0.000000e+00 0.000000e+00 7.467215e-01 2.532785e-01
 0.000000e+00 0.000000e+00 0.000000e+00 0.000000e+00 0.000000e+00
<ENDHMM>
