~o
<STREAMINFO> 1 20
<VECSIZE> 20<NULLD><USER><DIAGC>
~h "sil0"
<BEGINHMM>
<NUMSTATES> 5
<STATE> 2
<MEAN> 20
 -6.375750e+00 -1.968598e+00 -2.065902e+01 -4.957800e+00 -1.092525e+01 -9.935383e+00 -2.362135e+01 -7.358535e+00 -7.063727e+00 -9.160881e+00 -1.842221e+01 -2.915426e+00 -3.481326e+00 -7.133169e+00 -1.176991e+01 -8.486430e-01 -4.438094e-01 -4.504501e+00 -7.711161e+00 -1.517808e-01
<VARIANCE> 20
 2.847247e+01 3.502654e+00 2.190427e+02 3.962730e+01 9.415968e+01 1.573035e+01 2.848869e+02 8.562761e+01 6.205566e+01 1.810444e+01 2.257417e+02 9.092525e+01 5.189941e+01 2.163299e+01 1.235423e+02 6.600770e+01 6.506454e+01 2.483037e+01 1.013405e+02 5.729487e+01
<GCONST> 1.168691e+02
<STATE> 3
<MEAN> 20
 -6.808805e+00 -1.629781e+00 -1.689303e+01 -8.247394e+00 -7.542442e+00 -1.158391e+01 -1.542056e+01 -1.266091e+01 -2.096852e+00 -1.155761e+01 -9.750805e+00 -7.268600e+00 3.011439e+00 -1.034912e+01 -4.888644e+00 -5.231415e+00 7.676087e+00 -8.355700e+00 1.515437e-01 -4.928326e+00
<VARIANCE> 20
 1.302621e+00 5.554556e-01 2.536234e+01 8.422684e+00 5.540327e+00 3.754602e+00 2.106538e+01 2.234993e+01 4.723132e+00 3.399434e+00 1.130403e+01 2.104881e+01 4.659215e+00 2.788392e+00 8.035027e+00 1.645161e+01 5.162567e+00 2.810856e+00 7.754545e+00 1.281069e+01
<GCONST> 7.395774e+01
<STATE> 4
<MEAN> 20
 -8.389754e+00 -1.890831e+00 -1.912925e+01 -1.111492e+01 -1.097701e+01 -1.317227e+01 -1.883691e+01 -1.647784e+01 -5.500953e+00 -1.348991e+01 -1.322806e+01 -1.404262e+01 -8.793050e-02 -1.262462e+01 -8.010341e+00 -1.122022e+01 5.218123e+00 -1.085755e+01 -2.064626e+00 -1.096406e+01
<VARIANCE> 20
 5.586204e+00 1.485348e+00 7.535474e+01 1.951373e+01 2.251690e+01 7.150764e+00 5.713200e+01 5.201992e+01 1.714006e+01 7.838884e+00 5.583331e+01 8.371979e+01 1.549730e+01 8.804687e+00 4.218631e+01 6.574533e+01 1.933626e+01 1.028558e+01 5.402368e+01 5.727522e+01
<GCONST> 9.876951e+01
<TRANSP> 5
 0.000000e+00 1.000000e+00 0.000000e+00 0.000000e+00 0.000000e+00
 0.000000e+00 6.167135e-01 2.002582e-01 1.830283e-01 0.000000e+00
 0.000000e+00 0.000000e+00 8.563814e-01 1.436186e-01 0.000000e+00
 0.000000e+00 1.243791e-02 0.000000e+00 7.284456e-01 2.591164e-01
 0.000000e+00 0.000000e+00 0.000000e+00 0.000000e+00 0.000000e+00
<ENDHMM>
