~o
<STREAMINFO> 1 20
<VECSIZE> 20<NULLD><USER><DIAGC>
~h "t"
<BEGINHMM>
<NUMSTATES> 5
<STATE> 2
<NUMMIXES> 4
<MIXTURE> 1 4.805075e-02
<MEAN> 20
 7.765316e+00 -1.749456e+00 1.682308e+01 -1.119168e+01 1.041222e+01 -1.191115e+01 1.715397e+01 -1.389638e+01 5.223197e+00 -1.216648e+01 1.163684e+01 -1.031882e+01 -2.497206e-02 -1.139811e+01 5.893248e+00 -7.472151e+00 -5.205439e+00 -9.881970e+00 1.261821e+00 -7.794519e+00
<VARIANCE> 20
 3.516216e+00 1.798399e+00 6.321832e+01 1.757683e+01 2.653097e+01 6.216607e+00 5.666666e+01 3.359435e+01 2.121917e+01 6.841730e+00 5.029950e+01 3.582677e+01 1.703712e+01 7.986473e+00 2.567337e+01 2.670291e+01 1.743114e+01 9.541239e+00 2.669366e+01 2.823067e+01
<GCONST> 9.392881e+01
<MIXTURE> 2 5.661442e-01
<MEAN> 20
 -7.456639e+00 -1.987306e+00 -1.277443e+01 -1.087378e+01 -8.653547e+00 -1.195294e+01 -1.361459e+01 -1.467897e+01 -3.643045e+00 -1.212867e+01 -9.049069e+00 -1.244424e+01 1.415754e+00 -1.146692e+01 -4.732126e+00 -9.056396e+00 6.614400e+00 -1.010190e+01 2.708225e-01 -1.001791e+01
<VARIANCE> 20
 6.672788e-01 5.838434e-01 2.935533e+01 5.941222e+00 3.896967e+00 1.486548e+00 7.616343e+00 2.434531e+01 3.210680e+00 1.283620e+00 5.468209e+00 3.819390e+01 3.213995e+00 9.987971e-01 4.858564e+00 1.840131e+01 3.400403e+00 1.020097e+00 7.304461e+00 2.449708e+01
<GCONST> 6.680364e+01
<MIXTURE> 3 2.347596e-01
<MEAN> 20
 -1.064158e+01 -2.058905e+00 -2.335658e+01 -1.575227e+01 -1.511506e+01 -1.585280e+01 -2.469050e+01 -1.818266e+01 -8.628096e+00 -1.663614e+01 -1.621447e+01 -1.229320e+01 -2.047952e+00 -1.610343e+01 -9.519422e+00 -9.519233e+00 4.603467e+00 -1.455404e+01 -3.791656e+00 -1.162364e+01
<VARIANCE> 20
 2.162337e+00 1.354301e+00 4.650240e+01 1.714106e+01 1.088723e+01 4.929392e+00 2.726885e+01 4.305544e+01 9.527330e+00 4.470629e+00 2.267680e+01 6.583951e+01 9.526303e+00 3.693685e+00 2.104917e+01 4.318302e+01 1.224326e+01 3.410409e+00 2.733876e+01 5.188377e+01
<GCONST> 8.798640e+01
<MIXTURE> 4 1.510455e-01
<MEAN> 20
 -6.568823e+00 -2.212545e+00 -1.808954e+01 -8.217106e+00 -7.791532e+00 -1.069992e+01 -2.000001e+01 -1.133070e+01 -3.906214e+00 -1.014562e+01 -1.589622e+01 -6.769763e+00 -6.469256e-01 -8.544898e+00 -9.559670e+00 -3.596665e+00 1.985345e+00 -6.396262e+00 -6.210018e+00 -3.431442e+00
<VARIANCE> 20
 5.029675e+00 3.393611e+00 4.241500e+01 2.028496e+01 3.206688e+01 7.488553e+00 6.306572e+01 3.681232e+01 2.561227e+01 5.898830e+00 7.887347e+01 4.601648e+01 2.420776e+01 6.793361e+00 3.988934e+01 2.425578e+01 3.333630e+01 9.493234e+00 5.101236e+01 2.511924e+01
<GCONST> 9.768836e+01
<STATE> 3
<NUMMIXES> 4
<MIXTURE> 1 3.516767e-01
<MEAN> 20
 -5.967126e+00 -1.250060e+00 -1.051741e+01 -8.973119e+00 -7.768356e+00 -9.266464e+00 -1.085298e+01 -1.181957e+01 -3.345099e+00 -9.484074e+00 -6.386831e+00 -8.170907e+00 1.034132e+00 -9.077622e+00 -2.699969e+00 -5.916975e+00 5.549568e+00 -8.150120e+00 1.068020e+00 -6.443588e+00
<VARIANCE> 20
 6.457988e-01 3.004969e-01 1.672980e+01 4.196867e+00 3.356346e+00 1.366649e+00 5.273815e+00 1.260275e+01 2.136614e+00 1.281255e+00 2.413321e+00 1.535920e+01 1.824170e+00 1.039322e+00 1.937419e+00 8.288926e+00 2.081086e+00 8.698317e-01 2.606764e+00 8.596035e+00
<GCONST> 5.682798e+01
<MIXTURE> 2 2.831449e-01
<MEAN> 20
 -8.029730e+00 -2.581261e+00 -1.347306e+01 -1.417366e+01 -8.207690e+00 -1.366449e+01 -1.662165e+01 -1.552348e+01 -2.445670e+00 -1.385401e+01 -9.654581e+00 -7.902148e+00 3.089584e+00 -1.300763e+01 -4.721455e+00 -5.735069e+00 8.477895e+00 -1.135820e+01 -1.642372e-01 -6.393598e+00
<VARIANCE> 20
 4.731144e-01 5.066722e-01 1.481857e+01 3.434491e+00 5.430515e+00 1.315523e+00 1.088186e+01 1.651584e+01 4.621436e+00 1.177781e+00 5.221731e+00 6.393527e+00 3.697914e+00 8.891246e-01 3.869363e+00 2.332805e+00 2.963333e+00 8.361820e-01 4.545467e+00 1.756659e+00
<GCONST> 5.799448e+01
<MIXTURE> 3 3.021891e-01
<MEAN> 20
 -8.409268e+00 -1.797499e+00 -1.862501e+01 -1.118228e+01 -1.104470e+01 -1.246882e+01 -1.917419e+01 -1.604852e+01 -6.216370e+00 -1.289565e+01 -1.491982e+01 -1.375059e+01 -1.267538e+00 -1.243496e+01 -9.998588e+00 -1.045569e+01 3.746132e+00 -1.118506e+01 -5.159481e+00 -1.167141e+01
<VARIANCE> 20
 9.822987e-01 1.197963e+00 3.105651e+01 6.046286e+00 1.405358e+01 1.914823e+00 1.845979e+01 2.611119e+01 9.589861e+00 1.377958e+00 2.121743e+01 4.046904e+01 6.157214e+00 1.131613e+00 2.275287e+01 2.591992e+01 6.619910e+00 1.534082e+00 2.960486e+01 3.138835e+01
<GCONST> 7.843604e+01
<MIXTURE> 4 6.298929e-02
<MEAN> 20
 -6.130097e+00 -2.312409e+00 -1.741571e+01 -7.640603e+00 -9.303549e+00 -1.098204e+01 -1.960052e+01 -9.856582e+00 -6.500168e+00 -1.028599e+01 -1.515857e+01 -4.991625e+00 -3.935608e+00 -8.425179e+00 -1.034509e+01 -2.409977e+00 -1.710042e+00 -5.986300e+00 -7.799572e+00 -2.230604e+00
<VARIANCE> 20
 4.906133e+01 4.737295e+00 3.943814e+02 6.355077e+01 1.641526e+02 2.691081e+01 5.109432e+02 1.120359e+02 1.089917e+02 3.402602e+01 3.849967e+02 9.983572e+01 7.762277e+01 4.191518e+01 1.730288e+02 6.721789e+01 7.672657e+01 4.788447e+01 1.389422e+02 7.027629e+01
<GCONST> 1.253032e+02
<STATE> 4
<NUMMIXES> 4
<MIXTURE> 1 4.504595e-01
<MEAN> 20
 -7.122026e+00 -2.461281e+00 -1.135465e+01 -1.289223e+01 -6.490604e+00 -1.237483e+01 -1.245869e+01 -1.414672e+01 -1.094302e+00 -1.231386e+01 -7.106134e+00 -8.024777e+00 4.076132e+00 -1.137777e+01 -2.772013e+00 -5.643252e+00 9.161146e+00 -9.737843e+00 1.688918e+00 -5.999291e+00
<VARIANCE> 20
 4.790095e-01 3.558249e-01 2.230379e+01 3.207893e+00 4.655289e+00 1.134802e+00 6.339166e+00 1.941627e+01 4.359544e+00 9.851218e-01 3.725417e+00 7.902558e+00 3.612317e+00 7.639570e-01 3.469923e+00 2.089773e+00 2.620277e+00 7.368340e-01 3.102778e+00 1.361069e+00
<GCONST> 5.567037e+01
<MIXTURE> 2 2.743919e-01
<MEAN> 20
 -9.156973e+00 -2.432688e+00 -1.772127e+01 -1.448441e+01 -1.059227e+01 -1.493830e+01 -1.832742e+01 -1.857476e+01 -4.508892e+00 -1.528070e+01 -1.199819e+01 -1.404387e+01 1.429844e+00 -1.442525e+01 -6.578903e+00 -1.015444e+01 7.259253e+00 -1.263289e+01 -1.169275e+00 -1.075589e+01
<VARIANCE> 20
 1.673995e+00 1.553048e+00 4.784019e+01 1.278772e+01 1.440209e+01 3.303015e+00 3.092028e+01 3.797485e+01 1.115929e+01 3.019864e+00 2.189929e+01 6.602793e+01 8.989821e+00 2.728040e+00 1.900222e+01 3.779890e+01 8.808553e+00 2.956672e+00 2.985537e+01 3.624565e+01
<GCONST> 8.587686e+01
<MIXTURE> 3 1.602086e-01
<MEAN> 20
 -5.777614e+00 -1.642678e+00 -1.136858e+01 -9.010036e+00 -5.999538e+00 -1.006401e+01 -1.120923e+01 -1.178248e+01 -2.069498e+00 -1.004603e+01 -7.667853e+00 -8.694911e+00 1.551764e+00 -9.217690e+00 -3.856577e+00 -6.397030e+00 4.982800e+00 -7.818830e+00 2.518468e-01 -7.086333e+00
<VARIANCE> 20
 9.389111e+00 1.233218e+00 6.955804e+01 7.726940e+00 3.002701e+01 3.407084e+00 6.624854e+01 1.894610e+01 1.555303e+01 2.769987e+00 4.707925e+01 2.697776e+01 8.720934e+00 2.715105e+00 2.132121e+01 1.843164e+01 1.188036e+01 3.624786e+00 2.837206e+01 2.423570e+01
<GCONST> 8.760074e+01
<MIXTURE> 4 1.149400e-01
<MEAN> 20
 -5.042363e+00 -4.396984e+00 -2.406782e+01 -1.001443e+01 -9.372543e+00 -1.215872e+01 -3.157610e+01 -1.498914e+01 -8.474440e+00 -9.903399e+00 -3.233327e+01 -1.132602e+01 -8.304291e+00 -6.777601e+00 -1.872011e+01 -4.207716e+00 -8.659058e+00 -3.385917e+00 -1.746522e+01 -2.142561e+00
<VARIANCE> 20
 1.290831e+01 2.550116e+00 2.674619e+01 1.517430e+01 2.646476e+01 6.090570e+00 6.458383e+01 2.585937e+01 2.866825e+01 8.446705e+00 1.123245e+02 3.286732e+01 3.512294e+01 1.184158e+01 3.133829e+01 1.246512e+01 4.441963e+01 1.431490e+01 3.429131e+01 1.269735e+01
<GCONST> 9.699368e+01
<TRANSP> 5
 0.000000e+00 1.000000e+00 0.000000e+00 0.000000e+00 0.000000e+00
 0.000000e+00 7.138454e-01 2.861546e-01 0.000000e+00 0.000000e+00
 0.000000e+00 0.000000e+00 7.510825e-01 2.489175e-01 0.000000e+00
 0.000000e+00 0.000000e+00 0.000000e+00 7.057189e-01 2.942812e-01
 0.000000e+00 0.000000e+00 0.000000e+00 0.000000e+00 0.000000e+00
<ENDHMM>
