~o
<STREAMINFO> 1 20
<VECSIZE> 20<NULLD><USER><DIAGC>
~h "v"
<BEGINHMM>
<NUMSTATES> 5
<STATE> 2
<NUMMIXES> 4
<MIXTURE> 1 3.002432e-01
<MEAN> 20
 -5.845903e+00 -1.101102e+00 -1.034121e+01 -8.124815e+00 -7.911868e+00 -9.368287e+00 -1.083941e+01 -1.240192e+01 -3.430531e+00 -9.587868e+00 -5.621574e+00 -1.203281e+01 9.478699e-01 -9.055657e+00 -2.556045e+00 -6.941423e+00 5.310047e+00 -7.922600e+00 1.483284e+00 -7.185779e+00
<VARIANCE> 20
 7.139658e-01 3.118687e-01 2.114094e+01 4.588716e+00 2.344754e+00 1.016661e+00 8.058005e+00 2.013728e+01 1.404620e+00 9.252788e-01 5.403876e+00 2.727098e+01 1.294057e+00 7.771948e-01 2.724564e+00 7.568128e+00 1.725347e+00 8.750080e-01 5.996834e+00 1.140529e+01
<GCONST> 5.871244e+01
<MIXTURE> 2 3.040128e-01
<MEAN> 20
 -6.659071e+00 -1.880368e+00 -8.714747e+00 -9.872295e+00 -7.210808e+00 -1.183095e+01 -1.240419e+01 -1.701676e+01 -1.734490e+00 -1.182649e+01 -5.168560e+00 -1.683307e+01 3.427771e+00 -1.072374e+01 -3.392219e+00 -7.033961e+00 8.213583e+00 -8.820914e+00 1.066618e+00 -6.503097e+00
<VARIANCE> 20
 2.942168e-01 3.559001e-01 1.234933e+01 4.134856e+00 2.967412e+00 5.496490e-01 9.010348e+00 2.614385e+01 2.529292e+00 5.096051e-01 7.954632e+00 3.891457e+01 2.612439e+00 4.177262e-01 3.127407e+00 5.725160e+00 2.269849e+00 6.008018e-01 3.119778e+00 6.708288e+00
<GCONST> 5.669796e+01
<MIXTURE> 3 3.154941e-01
<MEAN> 20
 -8.658142e+00 -2.066354e+00 -1.559800e+01 -1.233125e+01 -1.049145e+01 -1.379074e+01 -1.694962e+01 -1.634068e+01 -4.883216e+00 -1.411198e+01 -1.169943e+01 -1.507893e+01 6.994815e-01 -1.336563e+01 -7.213765e+00 -1.025959e+01 6.228395e+00 -1.172573e+01 -2.140390e+00 -1.101895e+01
<VARIANCE> 20
 8.628017e-01 7.792091e-01 4.467812e+01 5.437488e+00 9.788037e+00 1.443493e+00 2.220650e+01 3.712499e+01 6.383207e+00 1.352714e+00 1.804721e+01 4.929768e+01 4.812967e+00 1.179708e+00 1.518554e+01 1.897033e+01 5.321108e+00 1.331256e+00 2.218375e+01 2.833361e+01
<GCONST> 7.596386e+01
<MIXTURE> 4 8.024991e-02
<MEAN> 20
 -5.920105e+00 -2.259786e+00 -1.632923e+01 -9.965153e+00 -8.020395e+00 -1.257702e+01 -1.921078e+01 -1.401458e+01 -4.971474e+00 -1.250220e+01 -1.724426e+01 -1.336697e+01 -2.270339e+00 -1.119490e+01 -1.070213e+01 -6.963467e+00 4.425988e-02 -9.042185e+00 -6.161794e+00 -6.338217e+00
<VARIANCE> 20
 3.508664e+01 3.279326e+00 1.777780e+02 2.766610e+01 9.837907e+01 1.069726e+01 2.729160e+02 7.457034e+01 5.229373e+01 1.382359e+01 2.064878e+02 1.058900e+02 4.423068e+01 1.771236e+01 9.659616e+01 4.431356e+01 7.211148e+01 2.091059e+01 1.354344e+02 3.851850e+01
<GCONST> 1.143630e+02
<STATE> 3
<NUMMIXES> 4
<MIXTURE> 1 1.351406e-01
<MEAN> 20
 -5.276928e+00 -1.360408e+00 -9.886395e+00 -7.682437e+00 -5.843931e+00 -1.059205e+01 -9.084744e+00 -1.482744e+01 -1.210124e+00 -1.070945e+01 -4.367535e+00 -1.246214e+01 3.019896e+00 -9.663958e+00 -1.813322e+00 -5.615660e+00 6.813331e+00 -7.840390e+00 2.222411e+00 -5.468334e+00
<VARIANCE> 20
 1.476405e+01 8.342964e-01 1.027697e+02 1.369114e+01 3.775797e+01 5.658246e+00 9.235903e+01 3.484966e+01 1.416014e+01 5.650600e+00 3.769689e+01 6.063519e+01 8.286075e+00 5.611960e+00 1.703183e+01 1.469375e+01 1.698366e+01 5.552610e+00 1.892157e+01 1.880914e+01
<GCONST> 9.185863e+01
<MIXTURE> 2 2.946216e-01
<MEAN> 20
 -8.161699e+00 -2.091209e+00 -9.976847e+00 -1.133529e+01 -1.007593e+01 -1.367980e+01 -1.742551e+01 -2.348031e+01 -4.002820e+00 -1.404636e+01 -7.491171e+00 -2.557254e+01 1.895585e+00 -1.291554e+01 -5.398818e+00 -9.974821e+00 7.553346e+00 -1.074766e+01 -4.248241e-01 -8.454853e+00
<VARIANCE> 20
 5.713102e-01 4.990231e-01 1.296028e+01 2.676880e+00 3.195058e+00 1.443245e+00 1.929751e+01 8.529392e+00 2.089798e+00 1.263314e+00 1.019914e+01 1.439425e+01 1.795843e+00 9.963191e-01 3.553760e+00 7.946031e+00 1.840451e+00 8.853357e-01 3.927679e+00 5.841627e+00
<GCONST> 5.918484e+01
<MIXTURE> 3 3.253611e-01
<MEAN> 20
 -7.817800e+00 -2.223315e+00 -1.045889e+01 -1.068585e+01 -9.084858e+00 -1.209188e+01 -1.291050e+01 -1.168489e+01 -4.360634e+00 -1.218070e+01 -8.577290e+00 -1.097665e+01 4.399527e-01 -1.169300e+01 -4.748638e+00 -9.969261e+00 5.601578e+00 -1.064652e+01 -2.755347e-01 -1.324602e+01
<VARIANCE> 20
 4.921869e-01 3.390809e-01 2.745078e+01 3.995848e+00 2.543424e+00 7.514012e-01 2.494472e+00 4.389357e+00 1.815597e+00 5.474555e-01 2.863103e+00 6.577839e+00 1.620996e+00 4.267840e-01 4.133251e+00 6.443955e+00 1.742518e+00 5.683619e-01 5.901997e+00 2.222670e+01
<GCONST> 5.341597e+01
<MIXTURE> 4 2.448767e-01
<MEAN> 20
 -1.061655e+01 -1.593891e+00 -1.992573e+01 -1.447202e+01 -1.543149e+01 -1.630519e+01 -2.213185e+01 -2.037119e+01 -8.267589e+00 -1.711058e+01 -1.452211e+01 -1.996467e+01 -1.024342e+00 -1.639029e+01 -8.393063e+00 -1.239519e+01 6.233456e+00 -1.449499e+01 -1.055020e+00 -1.333744e+01
<VARIANCE> 20
 2.615587e+00 1.776518e+00 4.917310e+01 1.016346e+01 1.412298e+01 5.418588e+00 2.953401e+01 7.135247e+01 1.059099e+01 4.760909e+00 2.824037e+01 1.042735e+02 9.304616e+00 4.037127e+00 1.430310e+01 3.999236e+01 9.590850e+00 3.840477e+00 2.265978e+01 5.721562e+01
<GCONST> 8.915588e+01
<STATE> 4
<NUMMIXES> 4
<MIXTURE> 1 7.572773e-02
<MEAN> 20
 7.487426e+00 -1.501295e+00 1.413134e+01 -8.632936e+00 1.191127e+01 -1.177716e+01 1.781733e+01 -1.439714e+01 6.572951e+00 -1.217403e+01 1.080110e+01 -1.447515e+01 1.336049e+00 -1.127854e+01 7.070102e+00 -7.973687e+00 -3.545814e+00 -9.434501e+00 3.357502e+00 -6.493502e+00
<VARIANCE> 20
 6.903690e+00 1.432939e+00 7.178983e+01 2.242209e+01 4.033189e+01 1.439265e+01 7.226141e+01 5.860584e+01 3.091595e+01 1.818420e+01 5.175730e+01 6.949190e+01 2.786090e+01 2.022587e+01 3.760370e+01 3.781507e+01 2.853554e+01 2.044260e+01 3.596123e+01 3.860158e+01
<GCONST> 1.028662e+02
<MIXTURE> 2 2.829610e-01
<MEAN> 20
 -7.392688e+00 -2.545630e+00 -7.810527e+00 -1.110720e+01 -7.245990e+00 -1.361554e+01 -1.391224e+01 -2.129275e+01 -1.586888e+00 -1.355074e+01 -4.657209e+00 -2.220111e+01 3.773538e+00 -1.224436e+01 -4.088357e+00 -9.795265e+00 8.875706e+00 -1.006169e+01 8.372578e-01 -8.831368e+00
<VARIANCE> 20
 2.248257e-01 2.039378e-01 5.428066e+00 1.714644e+00 1.669359e+00 5.888059e-01 7.848778e+00 1.981946e+01 1.291225e+00 4.670583e-01 1.115196e+01 3.186107e+01 1.485906e+00 3.472581e-01 3.348408e+00 8.557249e+00 1.456614e+00 4.559013e-01 2.718846e+00 6.859198e+00
<GCONST> 5.151307e+01
<MIXTURE> 3 3.331314e-01
<MEAN> 20
 -7.413705e+00 -2.390156e+00 -1.363883e+01 -1.157089e+01 -7.064205e+00 -1.286432e+01 -1.241930e+01 -1.429795e+01 -1.880743e+00 -1.277834e+01 -8.054103e+00 -1.296043e+01 3.107457e+00 -1.179309e+01 -4.177008e+00 -9.359442e+00 7.918140e+00 -1.005691e+01 1.431095e+00 -1.045582e+01
<VARIANCE> 20
 1.341800e+00 1.173986e+00 3.461460e+01 1.252487e+01 5.793446e+00 4.234464e+00 8.770050e+00 2.543596e+01 4.715549e+00 3.497803e+00 1.265978e+01 2.909471e+01 4.830592e+00 2.760945e+00 1.349810e+01 1.826274e+01 6.246602e+00 2.358672e+00 2.559296e+01 2.425371e+01
<GCONST> 7.782240e+01
<MIXTURE> 4 3.081799e-01
<MEAN> 20
 -9.186269e+00 -1.135002e+00 -1.939455e+01 -1.117469e+01 -1.521222e+01 -1.316554e+01 -2.403304e+01 -1.835725e+01 -8.949929e+00 -1.410990e+01 -1.571406e+01 -1.940581e+01 -2.530777e+00 -1.361641e+01 -1.082624e+01 -9.136041e+00 3.701289e+00 -1.202897e+01 -5.082994e+00 -1.027673e+01
<VARIANCE> 20
 2.054693e+00 8.406671e-01 3.593188e+01 9.625698e+00 7.222711e+00 3.799552e+00 2.370869e+01 4.709711e+01 5.027667e+00 3.571248e+00 2.280007e+01 8.775488e+01 6.037225e+00 3.360843e+00 1.474160e+01 4.418162e+01 8.784307e+00 3.868705e+00 2.155349e+01 6.028708e+01
<GCONST> 8.415418e+01
<TRANSP> 5
 0.000000e+00 1.000000e+00 0.000000e+00 0.000000e+00 0.000000e+00
 0.000000e+00 7.289879e-01 2.710122e-01 0.000000e+00 0.000000e+00
 0.000000e+00 0.000000e+00 7.221534e-01 2.778466e-01 0.000000e+00
 0.000000e+00 0.000000e+00 0.000000e+00 7.183543e-01 2.816457e-01
 0.000000e+00 0.000000e+00 0.000000e+00 0.000000e+00 0.000000e+00
<ENDHMM>
