~o
<STREAMINFO> 1 20
<VECSIZE> 20<NULLD><USER><DIAGC>
~h "v"
<BEGINHMM>
<NUMSTATES> 8
<STATE> 2
<MEAN> 20
 -7.265973e+00 -1.888481e+00 -1.253106e+01 -1.097085e+01 -9.016330e+00 -1.268211e+01 -1.471565e+01 -1.638762e+01 -3.931544e+00 -1.294165e+01 -8.938766e+00 -1.605631e+01 1.048676e+00 -1.207823e+01 -5.310346e+00 -8.783934e+00 5.927102e+00 -1.036044e+01 -5.417022e-01 -9.076835e+00
<VARIANCE> 20
 1.094870e+01 1.080257e+00 8.005226e+01 1.089360e+01 3.261813e+01 5.443535e+00 8.330721e+01 4.844631e+01 1.651587e+01 6.230141e+00 5.490213e+01 7.065810e+01 1.191496e+01 6.425459e+00 2.609246e+01 2.218279e+01 1.813078e+01 6.431417e+00 2.498436e+01 2.886032e+01
<GCONST> 9.441678e+01
<STATE> 3
<NUMMIXES> 4
<MIXTURE> 1 5.630750e-02
<MEAN> 20
 -1.183513e+00 -2.228680e+00 -7.278547e+00 -7.645941e+00 -2.396358e+00 -1.020401e+01 -1.032149e+01 -1.243695e+01 -2.565457e+00 -9.789624e+00 -1.203290e+01 -1.114810e+01 -2.926725e+00 -8.458932e+00 -6.247148e+00 -4.280273e+00 -3.310007e+00 -6.540005e+00 -5.518456e+00 -3.506528e+00
<VARIANCE> 20
 3.867550e+01 3.507979e+00 2.735943e+02 1.735240e+01 1.164146e+02 7.753474e+00 4.786604e+02 4.677786e+01 5.845082e+01 8.742897e+00 3.755817e+02 6.278322e+01 4.006166e+01 1.174330e+01 1.230897e+02 1.626800e+01 5.595422e+01 1.637310e+01 8.765617e+01 2.200406e+01
<GCONST> 1.114001e+02
<MIXTURE> 2 3.741113e-01
<MEAN> 20
 -7.214940e+00 -2.383447e+00 -1.189935e+01 -1.178139e+01 -6.670427e+00 -1.249780e+01 -1.112092e+01 -1.205005e+01 -1.517352e+00 -1.235579e+01 -6.799936e+00 -9.985670e+00 3.482274e+00 -1.141154e+01 -2.718340e+00 -7.637764e+00 8.442239e+00 -9.818021e+00 2.406137e+00 -9.255523e+00
<VARIANCE> 20
 8.108987e-01 6.543583e-01 3.650179e+01 7.975427e+00 4.254827e+00 2.850240e+00 2.921129e+00 1.539335e+01 4.512322e+00 2.358392e+00 3.189466e+00 1.030603e+01 4.916180e+00 1.695508e+00 3.091506e+00 7.183083e+00 4.750492e+00 1.372358e+00 6.579186e+00 2.078195e+01
<GCONST> 6.596997e+01
<MIXTURE> 3 2.292941e-01
<MEAN> 20
 -6.733151e+00 -1.615482e+00 -8.040854e+00 -9.236868e+00 -8.305326e+00 -1.183243e+01 -1.472756e+01 -2.110339e+01 -2.515464e+00 -1.199904e+01 -4.531740e+00 -2.214974e+01 2.898011e+00 -1.080487e+01 -3.893965e+00 -6.750804e+00 7.775187e+00 -8.699003e+00 4.758941e-01 -5.761126e+00
<VARIANCE> 20
 3.705939e-01 3.218821e-01 4.555391e+00 2.760186e+00 2.030172e+00 7.551090e-01 9.498865e+00 3.536589e+00 2.141409e+00 6.544497e-01 8.783815e+00 8.958205e+00 2.424229e+00 5.324376e-01 2.763056e+00 3.739948e+00 2.213484e+00 5.214337e-01 2.278177e+00 2.958392e+00
<GCONST> 5.044952e+01
<MIXTURE> 4 3.402871e-01
<MEAN> 20
 -8.985114e+00 -1.913359e+00 -1.721656e+01 -1.262403e+01 -1.155801e+01 -1.441297e+01 -1.942872e+01 -1.951743e+01 -5.499121e+00 -1.489363e+01 -1.285836e+01 -1.830866e+01 4.416223e-01 -1.403666e+01 -8.879457e+00 -1.045090e+01 6.137393e+00 -1.212568e+01 -3.451435e+00 -1.065064e+01
<VARIANCE> 20
 1.480882e+00 1.132878e+00 4.409235e+01 7.029809e+00 1.604274e+01 3.651507e+00 3.577695e+01 5.441977e+01 9.394622e+00 3.695109e+00 2.877196e+01 8.358258e+01 6.340211e+00 3.155619e+00 2.064626e+01 2.390486e+01 8.781992e+00 2.891449e+00 3.343679e+01 2.942276e+01
<GCONST> 8.531181e+01
<STATE> 4
<NUMMIXES> 4
<MIXTURE> 1 2.241400e-01
<MEAN> 20
 -5.693666e+00 -1.590952e+00 -1.062526e+01 -8.716514e+00 -6.122557e+00 -1.132845e+01 -1.044633e+01 -1.458189e+01 -1.548394e+00 -1.139006e+01 -5.724629e+00 -1.314123e+01 2.687217e+00 -1.036473e+01 -2.812648e+00 -6.746429e+00 6.551155e+00 -8.556615e+00 1.923685e+00 -6.916097e+00
<VARIANCE> 20
 1.573564e+01 1.102796e+00 9.274374e+01 1.533106e+01 3.753450e+01 4.820709e+00 9.747836e+01 4.245538e+01 1.332078e+01 4.576023e+00 4.579762e+01 5.561351e+01 8.464801e+00 4.297654e+00 2.501732e+01 1.816503e+01 1.901702e+01 4.306121e+00 4.055629e+01 2.191404e+01
<GCONST> 9.325836e+01
<MIXTURE> 2 2.766945e-01
<MEAN> 20
 -8.231709e+00 -2.211532e+00 -9.989302e+00 -1.154894e+01 -1.002695e+01 -1.390770e+01 -1.725791e+01 -2.392752e+01 -3.956549e+00 -1.425137e+01 -7.140618e+00 -2.607275e+01 1.922809e+00 -1.309990e+01 -5.481547e+00 -1.043826e+01 7.566761e+00 -1.091432e+01 -4.129904e-01 -8.917299e+00
<VARIANCE> 20
 5.919448e-01 4.065264e-01 1.164389e+01 2.603161e+00 3.566293e+00 1.123117e+00 2.204219e+01 8.194527e+00 2.371731e+00 1.029141e+00 1.083300e+01 1.406480e+01 1.974473e+00 8.835158e-01 4.183516e+00 7.015864e+00 1.855486e+00 8.473916e-01 4.579282e+00 5.560911e+00
<GCONST> 5.887291e+01
<MIXTURE> 3 2.994108e-01
<MEAN> 20
 -8.059045e+00 -2.269365e+00 -1.051436e+01 -1.077868e+01 -9.455853e+00 -1.217053e+01 -1.290501e+01 -1.111322e+01 -4.735744e+00 -1.229731e+01 -8.570745e+00 -1.043369e+01 8.689076e-02 -1.188080e+01 -4.788217e+00 -9.763002e+00 5.304521e+00 -1.093607e+01 -4.974993e-01 -1.395048e+01
<VARIANCE> 20
 4.924848e-01 2.652378e-01 2.999169e+01 3.981327e+00 2.350111e+00 8.018106e-01 1.495290e+00 3.537372e+00 1.495315e+00 5.897637e-01 1.540919e+00 5.390825e+00 1.153300e+00 4.074366e-01 2.796590e+00 6.211287e+00 1.168486e+00 4.433912e-01 4.111470e+00 2.463394e+01
<GCONST> 4.985516e+01
<MIXTURE> 4 1.997547e-01
<MEAN> 20
 -1.093855e+01 -1.402000e+00 -1.964398e+01 -1.463815e+01 -1.665417e+01 -1.636767e+01 -2.305700e+01 -1.989123e+01 -9.574013e+00 -1.728060e+01 -1.624146e+01 -1.995988e+01 -2.302737e+00 -1.673264e+01 -9.256926e+00 -1.288477e+01 5.133111e+00 -1.500248e+01 -1.888268e+00 -1.401959e+01
<VARIANCE> 20
 2.612218e+00 1.860819e+00 3.916012e+01 1.011404e+01 1.009885e+01 7.082787e+00 2.756844e+01 6.777351e+01 7.303186e+00 6.101585e+00 2.444553e+01 8.636785e+01 7.516895e+00 4.834444e+00 1.454287e+01 3.376651e+01 1.011887e+01 4.104674e+00 2.475886e+01 5.683340e+01
<GCONST> 8.834052e+01
<STATE> 5
<NUMMIXES> 4
<MIXTURE> 1 1.166710e-01
<MEAN> 20
 -3.392599e+00 -1.362132e+00 -5.746224e+00 -7.540371e+00 -3.012993e+00 -9.886323e+00 -4.641813e+00 -1.242001e+01 1.799753e-01 -9.921200e+00 -2.128533e+00 -1.120819e+01 2.923590e+00 -8.924670e+00 -8.475331e-01 -5.384617e+00 5.261603e+00 -7.237388e+00 2.262969e+00 -5.253824e+00
<VARIANCE> 20
 2.734210e+01 7.125483e-01 1.049050e+02 1.575861e+01 5.695348e+01 7.450812e+00 1.125074e+02 3.959361e+01 1.790704e+01 7.644124e+00 3.865133e+01 6.259037e+01 1.190636e+01 7.490335e+00 1.657396e+01 1.499836e+01 3.013219e+01 7.238597e+00 1.991871e+01 2.123989e+01
<GCONST> 9.573908e+01
<MIXTURE> 2 2.343268e-01
<MEAN> 20
 -7.327447e+00 -2.430044e+00 -7.795996e+00 -1.124320e+01 -7.845134e+00 -1.362652e+01 -1.543285e+01 -2.427867e+01 -1.711342e+00 -1.364560e+01 -2.921489e+00 -2.618686e+01 4.016898e+00 -1.221406e+01 -4.591715e+00 -8.067950e+00 9.245148e+00 -9.824827e+00 2.856338e-01 -7.376090e+00
<VARIANCE> 20
 2.198020e-01 2.332507e-01 3.440029e+00 1.168887e+00 1.623728e+00 5.754085e-01 5.432589e+00 2.112583e+00 1.439918e+00 5.072948e-01 8.067705e+00 3.359633e+00 1.328150e+00 4.260911e-01 2.586827e+00 2.520289e+00 1.062441e+00 4.923408e-01 2.714191e+00 3.242527e+00
<GCONST> 4.336872e+01
<MIXTURE> 3 4.129791e-01
<MEAN> 20
 -7.674645e+00 -2.154278e+00 -1.358717e+01 -1.122786e+01 -8.576678e+00 -1.272956e+01 -1.483406e+01 -1.555295e+01 -3.434493e+00 -1.285064e+01 -9.941871e+00 -1.489765e+01 1.689099e+00 -1.205833e+01 -5.842151e+00 -1.016862e+01 6.815450e+00 -1.046480e+01 -8.568969e-01 -1.040753e+01
<VARIANCE> 20
 9.682568e-01 9.472221e-01 3.574238e+01 8.004587e+00 5.465217e+00 2.450597e+00 8.966678e+00 1.997543e+01 3.251831e+00 2.096600e+00 1.064390e+01 3.019185e+01 2.484710e+00 1.694987e+00 1.033500e+01 1.264404e+01 2.889319e+00 1.550532e+00 1.522304e+01 1.828290e+01
<GCONST> 7.124121e+01
<MIXTURE> 4 2.360231e-01
<MEAN> 20
 -9.454167e+00 -1.020346e+00 -1.909297e+01 -1.088624e+01 -1.619027e+01 -1.338413e+01 -2.621980e+01 -2.027865e+01 -9.529605e+00 -1.447216e+01 -1.648136e+01 -2.252164e+01 -2.848418e+00 -1.389152e+01 -1.186168e+01 -8.900352e+00 3.368335e+00 -1.207168e+01 -6.303595e+00 -8.418324e+00
<VARIANCE> 20
 2.714181e+00 1.055494e+00 3.523396e+01 1.149403e+01 9.214966e+00 5.035988e+00 3.140025e+01 4.585152e+01 6.569795e+00 4.847666e+00 3.082321e+01 7.880254e+01 8.025862e+00 4.898143e+00 2.323682e+01 5.362752e+01 1.157786e+01 5.534923e+00 2.950289e+01 5.681448e+01
<GCONST> 8.856352e+01
<STATE> 6
<NUMMIXES> 4
<MIXTURE> 1 7.466930e-02
<MEAN> 20
 4.658381e+00 -1.930323e+00 9.212616e+00 -9.877646e+00 8.868143e+00 -1.260036e+01 1.237168e+01 -1.503293e+01 5.438717e+00 -1.276688e+01 7.229164e+00 -1.447609e+01 1.918703e+00 -1.165338e+01 4.806971e+00 -8.095984e+00 -1.499008e+00 -9.618700e+00 2.846466e+00 -6.896532e+00
<VARIANCE> 20
 4.240512e+01 2.503404e+00 1.927147e+02 3.330478e+01 7.712731e+01 1.734989e+01 2.148729e+02 6.166754e+01 3.472750e+01 1.911233e+01 1.332557e+02 6.802110e+01 3.278968e+01 1.983895e+01 6.112014e+01 3.672336e+01 5.882390e+01 1.944692e+01 5.305685e+01 3.686609e+01
<GCONST> 1.113051e+02
<MIXTURE> 2 2.749318e-01
<MEAN> 20
 -7.727969e+00 -2.594854e+00 -9.129681e+00 -1.122585e+01 -7.424938e+00 -1.354742e+01 -1.316298e+01 -1.781087e+01 -2.203334e+00 -1.351910e+01 -7.292576e+00 -1.809778e+01 2.882098e+00 -1.245706e+01 -4.107645e+00 -1.131863e+01 7.990702e+00 -1.057919e+01 8.869126e-01 -1.066135e+01
<VARIANCE> 20
 4.915554e-01 3.260849e-01 1.736831e+01 3.276582e+00 2.518431e+00 1.082797e+00 9.702650e+00 2.324328e+01 2.025215e+00 8.985258e-01 9.018586e+00 3.551908e+01 2.069158e+00 7.042138e-01 5.139201e+00 1.119834e+01 2.131525e+00 7.642887e-01 5.851686e+00 1.250738e+01
<GCONST> 6.096806e+01
<MIXTURE> 3 3.680481e-01
<MEAN> 20
 -5.901584e+00 -1.225230e+00 -9.832150e+00 -8.246910e+00 -7.724032e+00 -9.802362e+00 -1.070965e+01 -1.301104e+01 -3.090817e+00 -9.972059e+00 -5.594652e+00 -1.262272e+01 1.408257e+00 -9.345455e+00 -2.556475e+00 -7.130471e+00 5.837457e+00 -8.077938e+00 1.489583e+00 -7.116092e+00
<VARIANCE> 20
 6.255419e-01 3.493856e-01 1.827995e+01 4.265491e+00 2.619804e+00 1.504080e+00 6.758085e+00 1.973318e+01 2.121451e+00 1.253228e+00 5.137936e+00 2.565920e+01 2.655424e+00 9.302617e-01 2.688137e+00 7.795726e+00 3.382746e+00 8.492257e-01 5.987271e+00 1.074228e+01
<GCONST> 6.088271e+01
<MIXTURE> 4 2.823507e-01
<MEAN> 20
 -9.336506e+00 -1.409134e+00 -1.928492e+01 -1.190068e+01 -1.399431e+01 -1.359967e+01 -2.060466e+01 -1.605481e+01 -7.903941e+00 -1.432895e+01 -1.385049e+01 -1.573522e+01 -1.638088e+00 -1.386311e+01 -8.649572e+00 -1.079875e+01 4.721657e+00 -1.246159e+01 -2.312700e+00 -1.335047e+01
<VARIANCE> 20
 1.620130e+00 6.979679e-01 4.567640e+01 8.092080e+00 6.385441e+00 3.680607e+00 1.824783e+01 4.068465e+01 4.545235e+00 3.434242e+00 1.555789e+01 7.309298e+01 4.455521e+00 2.865530e+00 1.201173e+01 4.206013e+01 5.676064e+00 2.709392e+00 1.968267e+01 5.600077e+01
<GCONST> 8.085407e+01
<STATE> 7
<MEAN> 20
 -7.405832e+00 -1.859411e+00 -1.219253e+01 -1.096398e+01 -9.111793e+00 -1.287821e+01 -1.472920e+01 -1.724269e+01 -3.857049e+00 -1.314299e+01 -8.469668e+00 -1.709433e+01 1.304685e+00 -1.226976e+01 -5.185169e+00 -9.347635e+00 6.312154e+00 -1.052885e+01 -1.565996e-01 -9.608260e+00
<VARIANCE> 20
 1.155371e+01 1.028967e+00 7.623623e+01 1.060404e+01 3.284239e+01 5.779782e+00 7.264740e+01 4.125140e+01 1.617641e+01 6.225516e+00 4.831738e+01 6.376427e+01 9.133066e+00 6.041065e+00 2.524514e+01 2.165146e+01 1.176134e+01 5.676612e+00 2.326087e+01 3.014886e+01
<GCONST> 9.289304e+01
<TRANSP> 8
 0.000000e+00 1.000000e+00 0.000000e+00 0.000000e+00 0.000000e+00 0.000000e+00 0.000000e+00 0.000000e+00
 0.000000e+00 1.296635e-02 9.870337e-01 0.000000e+00 0.000000e+00 0.000000e+00 0.000000e+00 0.000000e+00
 0.000000e+00 0.000000e+00 5.338477e-01 4.661522e-01 0.000000e+00 0.000000e+00 0.000000e+00 0.000000e+00
 0.000000e+00 0.000000e+00 0.000000e+00 5.312766e-01 4.687234e-01 0.000000e+00 0.000000e+00 0.000000e+00
 0.000000e+00 0.000000e+00 0.000000e+00 0.000000e+00 4.878354e-01 5.121646e-01 0.000000e+00 0.000000e+00
 0.000000e+00 0.000000e+00 0.000000e+00 0.000000e+00 0.000000e+00 6.105650e-01 3.894350e-01 0.000000e+00
 0.000000e+00 0.000000e+00 0.000000e+00 0.000000e+00 0.000000e+00 0.000000e+00 2.667442e-02 9.733256e-01
 0.000000e+00 0.000000e+00 0.000000e+00 0.000000e+00 0.000000e+00 0.000000e+00 0.000000e+00 0.000000e+00
<ENDHMM>
