~o
<STREAMINFO> 1 20
<VECSIZE> 20<NULLD><USER><DIAGC>
~h "w"
<BEGINHMM>
<NUMSTATES> 8
<STATE> 2
<MEAN> 20
 -6.899553e+00 -1.849505e+00 -1.293650e+01 -1.020805e+01 -8.782612e+00 -1.215515e+01 -1.582008e+01 -1.647686e+01 -4.071902e+00 -1.238748e+01 -1.031203e+01 -1.568137e+01 4.622907e-01 -1.145762e+01 -5.951359e+00 -1.186570e+01 4.803308e+00 -9.636230e+00 -2.876712e+00 -8.665790e+00
<VARIANCE> 20
 1.050568e+01 1.440819e+00 7.907912e+01 1.400445e+01 3.028251e+01 6.153319e+00 9.664696e+01 4.555175e+01 1.711428e+01 7.275583e+00 6.633671e+01 7.402716e+01 1.399081e+01 8.272366e+00 4.311934e+01 5.483141e+01 2.262361e+01 9.047566e+00 3.889971e+01 2.422424e+01
<GCONST> 9.811497e+01
<STATE> 3
<NUMMIXES> 4
<MIXTURE> 1 3.736904e-01
<MEAN> 20
 -5.760134e+00 -1.195751e+00 -9.244919e+00 -8.144931e+00 -8.027357e+00 -9.492063e+00 -1.122730e+01 -1.332089e+01 -3.620038e+00 -9.835459e+00 -5.766341e+00 -1.316418e+01 6.602063e-01 -9.315253e+00 -2.139643e+00 -1.062022e+01 4.924066e+00 -8.125792e+00 2.399316e-01 -8.183803e+00
<VARIANCE> 20
 7.101035e-01 2.582620e-01 2.129606e+01 3.449569e+00 2.216769e+00 1.052480e+00 6.510087e+00 1.579951e+01 1.431348e+00 1.046727e+00 4.867987e+00 2.761492e+01 1.393226e+00 9.370257e-01 4.193474e+00 1.979723e+01 2.022088e+00 1.104769e+00 5.779188e+00 1.048419e+01
<GCONST> 5.973759e+01
<MIXTURE> 2 2.189244e-01
<MEAN> 20
 -7.683775e+00 -2.038976e+00 -9.018106e+00 -1.128316e+01 -9.415818e+00 -1.411850e+01 -1.690948e+01 -2.447377e+01 -3.374429e+00 -1.462178e+01 -7.177018e+00 -2.743305e+01 2.198640e+00 -1.340296e+01 -2.659809e+00 -2.095692e+01 7.299411e+00 -1.089583e+01 -3.348098e+00 -1.144084e+01
<VARIANCE> 20
 5.800068e-01 4.819250e-01 1.216391e+01 3.219110e+00 4.378142e+00 1.275417e+00 2.710765e+01 5.285101e+00 4.111211e+00 1.158973e+00 2.086575e+01 5.874696e+00 4.003983e+00 1.050683e+00 2.244357e+01 2.954912e+01 3.732193e+00 1.054269e+00 1.391411e+01 6.337306e+00
<GCONST> 6.598805e+01
<MIXTURE> 3 3.044014e-01
<MEAN> 20
 -7.852652e+00 -2.506231e+00 -1.609152e+01 -1.181818e+01 -7.410900e+00 -1.317591e+01 -1.563842e+01 -1.551251e+01 -2.456571e+00 -1.314672e+01 -1.277392e+01 -1.223625e+01 2.214782e+00 -1.213944e+01 -8.692264e+00 -9.376645e+00 6.551910e+00 -1.030446e+01 -3.822538e+00 -9.565015e+00
<VARIANCE> 20
 9.627832e-01 9.081021e-01 3.139108e+01 6.283031e+00 1.174316e+01 1.504178e+00 1.292759e+01 2.987819e+01 8.870986e+00 1.135138e+00 2.260916e+01 2.543053e+01 6.790410e+00 1.062578e+00 2.446534e+01 1.917098e+01 8.240087e+00 1.705592e+00 3.621649e+01 2.184223e+01
<GCONST> 7.684261e+01
<MIXTURE> 4 1.029837e-01
<MEAN> 20
 -5.753282e+00 -1.831528e+00 -1.615561e+01 -1.021043e+01 -8.947003e+00 -1.251287e+01 -1.953825e+01 -1.734467e+01 -5.718583e+00 -1.269107e+01 -1.468351e+01 -1.623300e+01 -2.758494e+00 -1.146873e+01 -1.131295e+01 -1.103223e+01 -2.754316e-01 -9.286326e+00 -8.642422e+00 -6.473093e+00
<VARIANCE> 20
 4.521573e+01 2.853896e+00 2.321557e+02 2.457329e+01 1.211206e+02 1.052762e+01 3.684849e+02 7.595686e+01 5.015788e+01 1.639775e+01 2.090738e+02 1.222675e+02 2.204008e+01 2.262703e+01 9.881912e+01 9.237282e+01 3.759472e+01 2.688081e+01 7.018648e+01 3.939490e+01
<GCONST> 1.146925e+02
<STATE> 4
<NUMMIXES> 4
<MIXTURE> 1 1.346596e-01
<MEAN> 20
 -3.922592e+00 -1.055307e+00 -7.110784e+00 -6.880244e+00 -4.712004e+00 -9.152250e+00 -7.432498e+00 -1.278681e+01 -1.224825e+00 -9.374014e+00 -2.735647e+00 -1.226080e+01 1.974609e+00 -8.624823e+00 -7.451842e-02 -9.571674e+00 4.873011e+00 -7.143415e+00 1.614226e+00 -6.452509e+00
<VARIANCE> 20
 1.885145e+01 8.042407e-01 8.102618e+01 1.487200e+01 4.311539e+01 4.693552e+00 9.819789e+01 2.330359e+01 1.419115e+01 4.849509e+00 3.934693e+01 3.453340e+01 5.693340e+00 4.790637e+00 1.438398e+01 2.874829e+01 1.677471e+01 4.993649e+00 1.414149e+01 1.815055e+01
<GCONST> 9.036855e+01
<MIXTURE> 2 3.845720e-01
<MEAN> 20
 -7.380006e+00 -2.090308e+00 -9.962387e+00 -1.065543e+01 -8.254845e+00 -1.226939e+01 -1.359050e+01 -1.606490e+01 -3.312496e+00 -1.244351e+01 -8.964605e+00 -1.571825e+01 1.641397e+00 -1.166592e+01 -4.671272e+00 -1.169654e+01 6.703576e+00 -1.008133e+01 -7.945583e-01 -9.525797e+00
<VARIANCE> 20
 6.652257e-01 3.622793e-01 2.103295e+01 3.942137e+00 2.781993e+00 1.223981e+00 6.207413e+00 2.399094e+01 2.623903e+00 9.912149e-01 5.553108e+00 3.588800e+01 2.900279e+00 7.059053e-01 6.902715e+00 2.184492e+01 3.095713e+00 8.216265e-01 6.730842e+00 8.946287e+00
<GCONST> 6.299559e+01
<MIXTURE> 3 3.627172e-01
<MEAN> 20
 -8.712815e+00 -1.673987e+00 -1.635355e+01 -1.170169e+01 -1.246936e+01 -1.342319e+01 -2.121957e+01 -1.858566e+01 -6.823476e+00 -1.411369e+01 -1.469491e+01 -1.874940e+01 -1.078163e+00 -1.353669e+01 -8.733811e+00 -1.409145e+01 4.655884e+00 -1.189133e+01 -4.871054e+00 -1.109934e+01
<VARIANCE> 20
 1.142496e+00 1.085518e+00 5.585802e+01 8.076316e+00 8.025808e+00 2.837240e+00 2.654650e+01 3.381208e+01 6.292829e+00 2.431589e+00 2.203869e+01 6.198468e+01 5.447002e+00 2.050910e+00 2.432418e+01 5.020316e+01 6.100467e+00 2.273745e+00 2.220538e+01 2.423203e+01
<GCONST> 8.139612e+01
<MIXTURE> 4 1.180510e-01
<MEAN> 20
 -5.684590e+00 -3.138805e+00 -2.270296e+01 -7.327675e+00 -9.148666e+00 -1.061640e+01 -2.763243e+01 -1.091131e+01 -6.711937e+00 -8.957786e+00 -2.428757e+01 -7.016204e+00 -5.065649e+00 -6.267759e+00 -1.588376e+01 -1.775088e+00 -4.188297e+00 -3.167966e+00 -1.349384e+01 -3.853275e-01
<VARIANCE> 20
 1.023915e+01 3.241997e+00 2.794482e+01 2.273668e+01 2.673920e+01 6.128933e+00 4.782169e+01 3.836837e+01 2.126462e+01 6.563244e+00 8.658818e+01 4.070416e+01 2.852160e+01 7.897645e+00 3.950993e+01 1.016288e+01 4.696896e+01 8.653279e+00 4.078259e+01 9.136669e+00
<GCONST> 9.577454e+01
<STATE> 5
<NUMMIXES> 4
<MIXTURE> 1 6.709249e-02
<MEAN> 20
 7.328631e+00 -1.563722e+00 1.207129e+01 -1.082855e+01 1.050317e+01 -1.153363e+01 1.572321e+01 -1.518147e+01 5.330308e+00 -1.204511e+01 1.002282e+01 -1.526361e+01 6.792479e-02 -1.149873e+01 4.764063e+00 -1.240487e+01 -5.314065e+00 -1.005561e+01 6.556041e-01 -8.672345e+00
<VARIANCE> 20
 1.434121e+00 3.928192e-01 2.348405e+01 9.816277e+00 1.054786e+01 4.718324e+00 3.185636e+01 3.492816e+01 8.640664e+00 6.159233e+00 1.447337e+01 5.645426e+01 7.326049e+00 6.407983e+00 8.142531e+00 6.714787e+01 7.384902e+00 5.922918e+00 2.173790e+01 3.059477e+01
<GCONST> 8.365726e+01
<MIXTURE> 2 3.663473e-01
<MEAN> 20
 -6.766833e+00 -1.641182e+00 -8.592598e+00 -9.498905e+00 -9.170115e+00 -1.219110e+01 -1.730361e+01 -2.091438e+01 -3.709745e+00 -1.273911e+01 -8.413768e+00 -2.348963e+01 1.391809e+00 -1.171154e+01 -3.374330e+00 -1.964281e+01 6.161793e+00 -9.529099e+00 -2.475823e+00 -1.044000e+01
<VARIANCE> 20
 4.085775e-01 2.690201e-01 1.272214e+01 2.478221e+00 2.231090e+00 8.536730e-01 8.722082e+00 3.764742e+00 2.048773e+00 7.010518e-01 1.021896e+01 4.674244e+00 2.017364e+00 5.647715e-01 1.158774e+01 4.448307e+00 2.072464e+00 5.882695e-01 9.721173e+00 6.261134e+00
<GCONST> 5.474434e+01
<MIXTURE> 3 3.373511e-01
<MEAN> 20
 -7.413364e+00 -2.265227e+00 -1.307051e+01 -1.232870e+01 -7.402125e+00 -1.211895e+01 -1.086086e+01 -1.140399e+01 -2.216821e+00 -1.203765e+01 -6.588424e+00 -9.665809e+00 2.935699e+00 -1.120373e+01 -2.565650e+00 -7.541472e+00 8.144820e+00 -9.693829e+00 1.847631e+00 -7.646011e+00
<VARIANCE> 20
 1.546036e+00 7.928889e-01 3.949533e+01 1.198837e+01 5.357946e+00 3.290890e+00 3.235628e+00 1.563422e+01 4.687552e+00 2.799466e+00 3.210124e+00 1.088043e+01 4.427508e+00 2.303165e+00 2.881084e+00 6.987529e+00 4.412703e+00 2.053506e+00 3.976304e+00 8.870695e+00
<GCONST> 6.713389e+01
<MIXTURE> 4 2.292092e-01
<MEAN> 20
 -8.311632e+00 -1.963309e+00 -1.738292e+01 -1.111703e+01 -1.050227e+01 -1.306550e+01 -2.123817e+01 -1.831156e+01 -5.399153e+00 -1.334455e+01 -1.545626e+01 -1.740981e+01 -6.699073e-01 -1.232182e+01 -1.072985e+01 -1.237391e+01 3.575564e+00 -1.030050e+01 -7.532796e+00 -9.042837e+00
<VARIANCE> 20
 4.753988e+00 1.985043e+00 5.475961e+01 1.413184e+01 2.414547e+01 7.308922e+00 4.583323e+01 4.336691e+01 1.647023e+01 9.246705e+00 5.496453e+01 7.206348e+01 1.471643e+01 1.137395e+01 5.507615e+01 5.803307e+01 2.465101e+01 1.319546e+01 5.175340e+01 3.198388e+01
<GCONST> 9.811794e+01
<STATE> 6
<NUMMIXES> 4
<MIXTURE> 1 3.698333e-01
<MEAN> 20
 -6.855471e+00 -1.490349e+00 -1.186247e+01 -9.204595e+00 -8.739372e+00 -1.135638e+01 -1.418754e+01 -1.554320e+01 -3.698919e+00 -1.161659e+01 -8.523851e+00 -1.498656e+01 1.230984e+00 -1.082941e+01 -4.195863e+00 -1.182036e+01 6.073963e+00 -9.202356e+00 -9.684016e-01 -8.654782e+00
<VARIANCE> 20
 1.265332e+00 6.662368e-01 3.172406e+01 9.477136e+00 3.679565e+00 2.531185e+00 1.347552e+01 2.270329e+01 3.026728e+00 2.266346e+00 1.239067e+01 3.908382e+01 3.239667e+00 1.992500e+00 1.284036e+01 2.746550e+01 4.144379e+00 2.126785e+00 1.182281e+01 1.246754e+01
<GCONST> 7.325580e+01
<MIXTURE> 2 3.221936e-01
<MEAN> 20
 -7.110120e+00 -2.201101e+00 -7.365986e+00 -1.119172e+01 -8.874666e+00 -1.365936e+01 -1.769444e+01 -2.366276e+01 -2.965245e+00 -1.420026e+01 -7.194946e+00 -2.652899e+01 2.328123e+00 -1.300832e+01 -1.557130e+00 -2.273256e+01 7.097852e+00 -1.055552e+01 -2.496697e+00 -1.226823e+01
<VARIANCE> 20
 2.824246e-01 1.892628e-01 7.354355e+00 1.479607e+00 1.869237e+00 3.745604e-01 7.693455e+00 1.260910e+00 1.725316e+00 3.497081e-01 8.957937e+00 1.837255e+00 1.590477e+00 3.414752e-01 1.254555e+01 2.520710e+00 1.534283e+00 3.765619e-01 9.128256e+00 3.798575e+00
<GCONST> 4.626780e+01
<MIXTURE> 3 7.124043e-02
<MEAN> 20
 -2.671640e-01 -2.771709e+00 -5.960973e+00 -1.031904e+01 1.486261e+00 -1.040538e+01 -8.166392e+00 -1.170468e+01 1.041709e+00 -9.331521e+00 -5.503203e+00 -9.710814e+00 -1.017327e-01 -7.466564e+00 -4.879121e+00 -6.267745e+00 -1.738276e+00 -5.136046e+00 -4.976470e+00 -3.948336e+00
<VARIANCE> 20
 4.975346e+01 3.663822e+00 3.474189e+02 4.122026e+01 1.162921e+02 1.965176e+01 5.141146e+02 5.093385e+01 6.505193e+01 2.972087e+01 3.052582e+02 6.506525e+01 4.630540e+01 4.051706e+01 1.697158e+02 6.455516e+01 5.739075e+01 4.831594e+01 1.049331e+02 5.908258e+01
<GCONST> 1.204019e+02
<MIXTURE> 4 2.367326e-01
<MEAN> 20
 -1.010612e+01 -1.535522e+00 -2.104493e+01 -1.347522e+01 -1.598735e+01 -1.502523e+01 -2.610408e+01 -2.080844e+01 -9.590886e+00 -1.597390e+01 -1.722589e+01 -2.035371e+01 -3.156605e+00 -1.545567e+01 -1.251005e+01 -1.503711e+01 3.048652e+00 -1.374533e+01 -7.627223e+00 -1.215424e+01
<VARIANCE> 20
 2.440843e+00 8.985289e-01 5.662733e+01 1.235335e+01 8.699575e+00 5.504398e+00 3.221354e+01 5.762186e+01 7.180801e+00 5.064339e+00 2.454086e+01 1.132535e+02 8.129184e+00 4.160135e+00 3.850894e+01 7.661962e+01 1.170027e+01 4.138923e+00 4.964189e+01 4.683918e+01
<GCONST> 9.015437e+01
<STATE> 7
<MEAN> 20
 -6.969745e+00 -1.823538e+00 -1.206218e+01 -1.066246e+01 -8.953235e+00 -1.243486e+01 -1.589904e+01 -1.739511e+01 -3.989032e+00 -1.274275e+01 -9.367976e+00 -1.750495e+01 7.451962e-01 -1.182925e+01 -4.874287e+00 -1.373251e+01 5.241256e+00 -9.963054e+00 -2.508566e+00 -9.409418e+00
<VARIANCE> 20
 1.064627e+01 1.042669e+00 7.402417e+01 1.192329e+01 2.638055e+01 6.045425e+00 7.413851e+01 3.977748e+01 1.336147e+01 6.861517e+00 4.921077e+01 6.853835e+01 9.779825e+00 7.317300e+00 3.573609e+01 5.501610e+01 1.671096e+01 7.705844e+00 2.924042e+01 2.399326e+01
<GCONST> 9.491611e+01
<TRANSP> 8
 0.000000e+00 1.000000e+00 0.000000e+00 0.000000e+00 0.000000e+00 0.000000e+00 0.000000e+00 0.000000e+00
 0.000000e+00 0.000000e+00 1.000000e+00 0.000000e+00 0.000000e+00 0.000000e+00 0.000000e+00 0.000000e+00
 0.000000e+00 0.000000e+00 5.707449e-01 4.292552e-01 0.000000e+00 0.000000e+00 0.000000e+00 0.000000e+00
 0.000000e+00 0.000000e+00 0.000000e+00 5.584733e-01 4.415267e-01 0.000000e+00 0.000000e+00 0.000000e+00
 0.000000e+00 0.000000e+00 0.000000e+00 0.000000e+00 5.170999e-01 4.829002e-01 0.000000e+00 0.000000e+00
 0.000000e+00 0.000000e+00 0.000000e+00 0.000000e+00 0.000000e+00 5.356081e-01 4.643919e-01 0.000000e+00
 0.000000e+00 0.000000e+00 0.000000e+00 0.000000e+00 0.000000e+00 0.000000e+00 4.066522e-02 9.593348e-01
 0.000000e+00 0.000000e+00 0.000000e+00 0.000000e+00 0.000000e+00 0.000000e+00 0.000000e+00 0.000000e+00
<ENDHMM>
