~o
<STREAMINFO> 1 20
<VECSIZE> 20<NULLD><USER><DIAGC>
~h "x"
<BEGINHMM>
<NUMSTATES> 5
<STATE> 2
<NUMMIXES> 4
<MIXTURE> 1 3.639022e-01
<MEAN> 20
 -6.553673e+00 -1.484135e+00 -1.029846e+01 -9.260891e+00 -8.368121e+00 -9.949276e+00 -1.025499e+01 -9.790956e+00 -3.973366e+00 -1.007266e+01 -6.513122e+00 -8.119887e+00 4.155262e-01 -9.735486e+00 -2.831973e+00 -7.331595e+00 5.093555e+00 -8.938097e+00 7.018723e-01 -9.270381e+00
<VARIANCE> 20
 1.127985e+00 4.281835e-01 2.832445e+01 6.559419e+00 2.570007e+00 1.377022e+00 3.903102e+00 4.488506e+00 1.799093e+00 1.282434e+00 2.698255e+00 5.031923e+00 1.448371e+00 1.175948e+00 2.211782e+00 5.173308e+00 1.779664e+00 1.102120e+00 3.598426e+00 1.625458e+01
<GCONST> 5.653833e+01
<MIXTURE> 2 1.254469e-01
<MEAN> 20
 -7.380363e+00 -3.343730e+00 -1.642160e+01 -1.035232e+01 -5.458399e+00 -1.315712e+01 -1.773684e+01 -1.515720e+01 -1.434931e+00 -1.189338e+01 -1.650524e+01 -6.529723e+00 8.347782e-01 -9.352492e+00 -1.268383e+01 -4.594186e+00 1.891828e+00 -6.351202e+00 -1.078575e+01 -3.666456e+00
<VARIANCE> 20
 1.451296e+01 2.790752e+00 6.987666e+01 3.453640e+01 3.542393e+01 9.077918e+00 9.047472e+01 5.119538e+01 1.984460e+01 8.417339e+00 8.592670e+01 4.016427e+01 1.197025e+01 9.468923e+00 5.384291e+01 3.434565e+01 1.663387e+01 1.089725e+01 5.821137e+01 2.831808e+01
<GCONST> 1.005868e+02
<MIXTURE> 3 3.780089e-01
<MEAN> 20
 -7.951755e+00 -1.977328e+00 -8.824524e+00 -9.547790e+00 -9.437659e+00 -1.195664e+01 -1.370777e+01 -1.286269e+01 -5.213204e+00 -1.215296e+01 -9.960524e+00 -1.252805e+01 -8.788181e-01 -1.175426e+01 -6.161942e+00 -1.164506e+01 3.985930e+00 -1.079613e+01 -2.167786e+00 -1.195901e+01
<VARIANCE> 20
 2.904883e-01 2.967816e-01 7.461146e+00 3.258353e+00 1.104946e+00 8.108553e-01 1.955720e+00 5.454110e+00 8.740484e-01 6.084176e-01 2.483107e+00 7.279869e+00 9.352361e-01 6.463764e-01 2.205012e+00 3.633491e+00 1.142070e+00 8.530756e-01 2.818652e+00 5.994479e+00
<GCONST> 4.639651e+01
<MIXTURE> 4 1.326420e-01
<MEAN> 20
 -9.062684e+00 -1.671227e+00 -1.851472e+01 -1.259559e+01 -1.257034e+01 -1.400962e+01 -1.837182e+01 -1.475373e+01 -6.794637e+00 -1.475900e+01 -1.295329e+01 -1.516974e+01 -7.946642e-01 -1.443001e+01 -6.901021e+00 -1.485243e+01 5.584207e+00 -1.316002e+01 1.221362e+00 -1.792962e+01
<VARIANCE> 20
 1.743145e+00 1.059481e+00 2.918981e+01 4.112452e+00 9.639495e+00 2.449628e+00 9.830647e+00 1.840111e+01 5.626006e+00 2.640822e+00 1.020051e+01 5.290416e+01 3.378409e+00 2.568876e+00 1.107256e+01 7.088138e+01 4.045944e+00 2.476889e+00 3.963207e+01 5.063334e+01
<GCONST> 7.824330e+01
<STATE> 3
<NUMMIXES> 4
<MIXTURE> 1 4.469140e-01
<MEAN> 20
 -6.725959e+00 -2.259566e+00 -9.872293e+00 -9.750474e+00 -4.927023e+00 -1.258238e+01 -1.012359e+01 -1.514886e+01 -3.024419e-01 -1.220123e+01 -7.003826e+00 -9.838713e+00 3.646104e+00 -1.101532e+01 -3.490921e+00 -8.291853e+00 7.320472e+00 -9.197486e+00 -1.348338e-01 -7.961304e+00
<VARIANCE> 20
 3.472877e+00 5.955595e-01 2.247841e+01 5.355000e+00 9.947930e+00 2.783845e+00 1.623724e+01 1.030541e+01 7.452892e+00 2.270323e+00 1.057038e+01 1.194720e+01 5.492699e+00 1.754547e+00 7.996885e+00 1.123811e+01 5.315428e+00 1.709642e+00 8.722367e+00 1.194005e+01
<GCONST> 7.199979e+01
<MIXTURE> 2 3.237470e-01
<MEAN> 20
 -9.027198e+00 -3.122631e+00 -1.860492e+01 -1.116220e+01 -6.221879e+00 -1.465773e+01 -1.765770e+01 -1.840274e+01 -2.120907e+00 -1.399563e+01 -1.373221e+01 -8.962984e+00 5.160882e-01 -1.218738e+01 -1.015515e+01 -6.588535e+00 2.060781e+00 -9.697619e+00 -7.815542e+00 -5.660450e+00
<VARIANCE> 20
 1.117694e+00 5.615626e-01 6.718936e+00 2.977068e+00 2.516458e+00 8.926202e-01 5.153910e+00 5.858379e+00 2.047358e+00 8.030681e-01 6.475904e+00 4.681358e+00 3.668477e+00 1.338731e+00 7.147894e+00 2.296978e+00 1.026318e+01 2.354980e+00 1.347315e+01 2.988901e+00
<GCONST> 5.868405e+01
<MIXTURE> 3 1.089617e-01
<MEAN> 20
 -1.028452e+01 -1.814733e+00 -2.259603e+01 -1.565116e+01 -1.442795e+01 -1.623869e+01 -1.885543e+01 -1.536831e+01 -7.645702e+00 -1.691822e+01 -1.101876e+01 -1.065173e+01 -1.168569e+00 -1.633414e+01 -4.666844e+00 -9.759751e+00 5.593645e+00 -1.481259e+01 3.871359e-01 -9.750429e+00
<VARIANCE> 20
 1.151114e+00 5.502715e-01 7.690732e+00 1.333974e+00 3.609910e+00 2.797892e+00 1.004821e+01 2.865077e+01 2.876247e+00 2.609953e+00 2.617958e+00 1.453728e+00 2.752214e+00 1.927494e+00 2.335512e+00 1.479548e+00 3.587940e+00 1.297238e+00 4.417867e+00 1.460226e+00
<GCONST> 5.626723e+01
<MIXTURE> 4 1.203773e-01
<MEAN> 20
 -1.044301e+01 -1.253445e+00 -2.210532e+01 -1.096890e+01 -1.592304e+01 -1.453359e+01 -2.386525e+01 -1.906902e+01 -9.595556e+00 -1.551416e+01 -1.686916e+01 -2.119557e+01 -3.099931e+00 -1.509213e+01 -9.726800e+00 -1.687008e+01 3.686685e+00 -1.359902e+01 -2.027431e+00 -1.522681e+01
<VARIANCE> 20
 1.433307e+00 2.422885e+00 5.627510e+01 1.079012e+01 8.012834e+00 4.102146e+00 2.754117e+01 2.791622e+01 4.237991e+00 4.126176e+00 2.448575e+01 4.818245e+01 4.966708e+00 4.193573e+00 1.424884e+01 7.640730e+01 7.075338e+00 4.676775e+00 1.299351e+01 7.816891e+01
<GCONST> 8.493495e+01
<STATE> 4
<NUMMIXES> 4
<MIXTURE> 1 7.865205e-02
<MEAN> 20
 7.549574e+00 -1.674178e+00 1.752059e+01 -5.850031e+00 1.074740e+01 -1.015378e+01 1.893978e+01 -1.291443e+01 6.616766e+00 -9.434253e+00 1.611982e+01 -5.489842e+00 2.565506e+00 -7.798579e+00 1.093340e+01 -4.832715e+00 -1.413308e+00 -5.608575e+00 6.438085e+00 -3.316497e+00
<VARIANCE> 20
 1.190273e+00 1.293177e+00 2.428199e+01 1.925756e+01 4.235728e+00 1.117068e+01 1.148245e+01 7.089574e+01 6.550468e+00 1.809571e+01 1.897229e+01 1.035282e+02 8.010331e+00 2.710395e+01 1.321758e+01 9.168322e+01 9.356816e+00 3.455265e+01 9.992955e+00 9.004423e+01
<GCONST> 9.131446e+01
<MIXTURE> 2 3.053097e-01
<MEAN> 20
 -8.278452e+00 -3.296149e+00 -2.378792e+01 -9.255692e+00 -7.729299e+00 -1.340769e+01 -2.360794e+01 -1.532909e+01 -3.634457e+00 -1.215526e+01 -2.015887e+01 -5.732110e+00 -1.150219e+00 -9.397612e+00 -1.346442e+01 -3.584885e+00 9.607378e-02 -6.104451e+00 -1.117880e+01 -2.293669e+00
<VARIANCE> 20
 5.370821e+00 1.712776e+00 2.031098e+01 1.274498e+01 1.702575e+01 4.285038e+00 1.969504e+01 1.543940e+01 1.110101e+01 4.278861e+00 2.035264e+01 2.416290e+01 9.267319e+00 5.863529e+00 2.100463e+01 8.780610e+00 1.576426e+01 7.606845e+00 3.187936e+01 9.123549e+00
<GCONST> 8.427098e+01
<MIXTURE> 3 4.229077e-01
<MEAN> 20
 -7.396477e+00 -1.619920e+00 -1.374725e+01 -8.350640e+00 -8.412992e+00 -1.195279e+01 -1.372615e+01 -1.425838e+01 -3.455267e+00 -1.204365e+01 -9.868461e+00 -9.355051e+00 1.078797e+00 -1.113418e+01 -5.845049e+00 -7.564385e+00 5.279257e+00 -9.507298e+00 -1.742638e+00 -8.264958e+00
<VARIANCE> 20
 1.418537e+00 1.357969e+00 3.056229e+01 1.239510e+01 1.524846e+01 3.057941e+00 1.797755e+01 2.128024e+01 1.320051e+01 2.453850e+00 1.209421e+01 3.323314e+01 9.859767e+00 2.473455e+00 8.897282e+00 2.633465e+01 7.467857e+00 3.642302e+00 1.021154e+01 2.947985e+01
<GCONST> 8.027468e+01
<MIXTURE> 4 1.931305e-01
<MEAN> 20
 -1.192692e+01 -3.078339e+00 -2.049498e+01 -1.521463e+01 -1.285210e+01 -1.709793e+01 -2.351590e+01 -1.995748e+01 -6.925321e+00 -1.724645e+01 -1.826313e+01 -1.572813e+01 -1.535863e+00 -1.627636e+01 -1.246473e+01 -1.221064e+01 3.617749e+00 -1.437735e+01 -8.474650e+00 -1.162760e+01
<VARIANCE> 20
 1.694239e+00 4.844362e+00 3.294402e+01 8.054774e+00 3.210740e+01 5.690564e+00 1.093082e+01 2.330168e+01 2.929004e+01 2.710724e+00 1.382389e+01 1.710800e+01 2.120915e+01 6.923392e-01 2.008090e+01 1.129109e+01 2.059806e+01 3.822164e-01 3.172564e+01 1.449100e+01
<GCONST> 8.133670e+01
<TRANSP> 5
 0.000000e+00 1.000000e+00 0.000000e+00 0.000000e+00 0.000000e+00
 0.000000e+00 7.761168e-01 2.238831e-01 0.000000e+00 0.000000e+00
 0.000000e+00 0.000000e+00 7.675695e-01 2.324304e-01 0.000000e+00
 0.000000e+00 0.000000e+00 0.000000e+00 5.752767e-01 4.247233e-01
 0.000000e+00 0.000000e+00 0.000000e+00 0.000000e+00 0.000000e+00
<ENDHMM>
