~o
<STREAMINFO> 1 20
<VECSIZE> 20<NULLD><USER><DIAGC>
~h "x"
<BEGINHMM>
<NUMSTATES> 8
<STATE> 2
<MEAN> 20
 -7.798136e+00 -1.862623e+00 -1.323669e+01 -1.007025e+01 -9.144094e+00 -1.235902e+01 -1.459355e+01 -1.350250e+01 -4.332202e+00 -1.243194e+01 -1.088691e+01 -1.082999e+01 1.633876e-01 -1.157635e+01 -6.564775e+00 -9.038406e+00 4.644112e+00 -1.004803e+01 -2.018592e+00 -9.791733e+00
<VARIANCE> 20
 8.038973e+00 1.150734e+00 5.651824e+01 1.369966e+01 2.206366e+01 6.668642e+00 4.570394e+01 2.924111e+01 1.236212e+01 7.172521e+00 3.570850e+01 4.102132e+01 6.632358e+00 8.005013e+00 2.471981e+01 3.691468e+01 8.809240e+00 9.337693e+00 2.851380e+01 4.239281e+01
<GCONST> 9.189314e+01
<STATE> 3
<NUMMIXES> 4
<MIXTURE> 1 3.312855e-01
<MEAN> 20
 -6.513492e+00 -1.547589e+00 -1.095907e+01 -9.798755e+00 -8.443795e+00 -9.923475e+00 -9.960358e+00 -9.111156e+00 -4.005351e+00 -1.001944e+01 -6.208267e+00 -7.461042e+00 4.602523e-01 -9.690503e+00 -2.683066e+00 -6.739224e+00 5.185187e+00 -8.905787e+00 7.280953e-01 -9.227839e+00
<VARIANCE> 20
 1.340042e+00 4.978794e-01 3.153860e+01 7.825877e+00 2.379421e+00 1.632184e+00 3.339580e+00 2.736522e+00 1.465706e+00 1.555749e+00 1.854302e+00 2.377091e+00 9.964919e-01 1.481690e+00 1.624347e+00 3.022881e+00 1.422512e+00 1.385540e+00 3.513173e+00 1.934181e+01
<GCONST> 5.461677e+01
<MIXTURE> 2 1.637475e-01
<MEAN> 20
 -7.476781e+00 -2.988199e+00 -1.438712e+01 -1.083910e+01 -5.130730e+00 -1.363291e+01 -1.427964e+01 -1.673213e+01 -1.206028e+00 -1.277517e+01 -1.200011e+01 -9.055624e+00 1.502687e+00 -1.085400e+01 -8.704040e+00 -7.069704e+00 3.456359e+00 -8.381972e+00 -6.600083e+00 -6.343931e+00
<VARIANCE> 20
 1.483209e+01 2.561569e+00 8.338441e+01 1.934217e+01 3.185121e+01 3.684841e+00 8.348821e+01 1.614584e+01 1.673692e+01 2.774371e+00 7.416576e+01 1.600083e+01 9.524423e+00 3.814342e+00 5.347991e+01 1.589211e+01 1.614472e+01 6.318910e+00 5.616739e+01 1.707250e+01
<GCONST> 9.249806e+01
<MIXTURE> 3 4.114084e-01
<MEAN> 20
 -7.954973e+00 -1.997289e+00 -8.901392e+00 -9.725430e+00 -9.401090e+00 -1.208366e+01 -1.380586e+01 -1.273813e+01 -5.155649e+00 -1.225231e+01 -9.848753e+00 -1.215384e+01 -8.195174e-01 -1.185975e+01 -6.154370e+00 -1.170807e+01 4.066364e+00 -1.091884e+01 -2.139629e+00 -1.223216e+01
<VARIANCE> 20
 2.754886e-01 3.498714e-01 7.778696e+00 3.512377e+00 1.005092e+00 7.230932e-01 2.188022e+00 4.636834e+00 8.108595e-01 5.541957e-01 2.204669e+00 4.622151e+00 9.835782e-01 5.269350e-01 2.180288e+00 3.453999e+00 1.384882e+00 5.940067e-01 2.566409e+00 5.671890e+00
<GCONST> 4.508979e+01
<MIXTURE> 4 9.355866e-02
<MEAN> 20
 -1.080311e+01 -2.104467e+00 -1.869481e+01 -1.430740e+01 -1.445157e+01 -1.552131e+01 -2.115516e+01 -1.742955e+01 -7.694102e+00 -1.645498e+01 -1.526098e+01 -1.940927e+01 -6.702964e-01 -1.607006e+01 -7.019849e+00 -1.676198e+01 6.700449e+00 -1.450853e+01 1.899734e+00 -1.565664e+01
<VARIANCE> 20
 2.621416e+00 1.565601e+00 2.487483e+01 7.920367e+00 6.666624e+00 1.268521e+00 1.195306e+01 1.755717e+01 6.190505e+00 4.704687e-01 1.685617e+01 4.054131e+01 6.528828e+00 3.058212e-01 1.631878e+01 6.921770e+01 7.347185e+00 5.049927e-01 5.510913e+01 5.752677e+01
<GCONST> 7.562399e+01
<STATE> 4
<NUMMIXES> 4
<MIXTURE> 1 2.675514e-01
<MEAN> 20
 -6.209194e+00 -1.895616e+00 -9.287818e+00 -8.962208e+00 -6.317612e+00 -1.141747e+01 -1.039310e+01 -1.290303e+01 -2.161836e+00 -1.129829e+01 -6.941101e+00 -9.285436e+00 1.709415e+00 -1.049386e+01 -3.435479e+00 -7.999143e+00 5.631366e+00 -9.128434e+00 -1.415233e-01 -8.390751e+00
<VARIANCE> 20
 1.060526e+01 6.466892e-01 5.005897e+01 7.496961e+00 2.116764e+01 2.852993e+00 5.177396e+01 1.395468e+01 1.087199e+01 2.587102e+00 3.348767e+01 2.279429e+01 6.134888e+00 2.781360e+00 1.617847e+01 1.744837e+01 7.656035e+00 3.730868e+00 9.447877e+00 2.209676e+01
<GCONST> 8.244188e+01
<MIXTURE> 2 4.444772e-01
<MEAN> 20
 -8.655060e+00 -2.960762e+00 -1.790141e+01 -1.095443e+01 -6.143005e+00 -1.434444e+01 -1.723145e+01 -1.812544e+01 -1.997218e+00 -1.372429e+01 -1.346216e+01 -8.711755e+00 7.791172e-01 -1.198795e+01 -9.772665e+00 -6.543763e+00 2.556306e+00 -9.571751e+00 -7.405964e+00 -5.687712e+00
<VARIANCE> 20
 1.022443e+00 5.775887e-01 4.951121e+00 3.209119e+00 3.198825e+00 6.430635e-01 5.543782e+00 5.563761e+00 2.541468e+00 6.696031e-01 9.338901e+00 3.634803e+00 3.504603e+00 1.643205e+00 9.369696e+00 2.419741e+00 9.234379e+00 3.246758e+00 1.652277e+01 3.772504e+00
<GCONST> 5.960803e+01
<MIXTURE> 3 1.696100e-01
<MEAN> 20
 -1.040818e+01 -1.801836e+00 -2.291250e+01 -1.569195e+01 -1.472842e+01 -1.627622e+01 -1.905551e+01 -1.524748e+01 -7.945225e+00 -1.694743e+01 -1.118257e+01 -1.067280e+01 -1.400588e+00 -1.643937e+01 -4.848150e+00 -9.870884e+00 5.461652e+00 -1.502495e+01 4.442879e-01 -1.071060e+01
<VARIANCE> 20
 1.109848e+00 6.352020e-01 7.066482e+00 1.444205e+00 3.042279e+00 2.941987e+00 9.050553e+00 2.682057e+01 2.625108e+00 2.818789e+00 2.458234e+00 2.630834e+00 2.573006e+00 2.028520e+00 2.016368e+00 2.329859e+00 3.516224e+00 1.328227e+00 4.342333e+00 1.232291e+01
<GCONST> 5.900333e+01
<MIXTURE> 4 1.183612e-01
<MEAN> 20
 -1.028562e+01 -1.224824e+00 -1.875367e+01 -1.145307e+01 -1.450463e+01 -1.384743e+01 -2.153788e+01 -1.645301e+01 -8.909290e+00 -1.464031e+01 -1.669660e+01 -1.880148e+01 -2.988863e+00 -1.424841e+01 -9.723676e+00 -1.674396e+01 3.538394e+00 -1.288277e+01 -2.784132e+00 -1.492690e+01
<VARIANCE> 20
 3.622214e+00 2.635958e+00 1.928375e+01 8.486167e+00 2.178049e+01 3.556456e+00 1.490193e+01 3.933587e+00 1.628218e+01 2.981508e+00 1.451878e+01 1.168806e+01 1.473800e+01 2.270624e+00 1.401953e+01 3.187242e+01 1.502037e+01 1.465998e+00 2.389431e+01 2.811234e+01
<GCONST> 8.076337e+01
<STATE> 5
<NUMMIXES> 4
<MIXTURE> 1 3.196838e-01
<MEAN> 20
 -6.345544e+00 -2.304784e+00 -1.056518e+01 -9.808628e+00 -3.218693e+00 -1.290249e+01 -9.298999e+00 -1.627508e+01 1.474203e+00 -1.235787e+01 -6.867066e+00 -7.866376e+00 4.978054e+00 -1.082186e+01 -3.504929e+00 -6.023086e+00 7.664670e+00 -8.626876e+00 -7.910193e-01 -5.510022e+00
<VARIANCE> 20
 6.914327e+00 6.520675e-01 3.354456e+01 7.287605e+00 1.025697e+01 3.127125e+00 2.964215e+01 9.353343e+00 4.443671e+00 2.663049e+00 2.129956e+01 5.181453e+00 3.917514e+00 1.958601e+00 1.343531e+01 2.752282e+00 9.024684e+00 1.481436e+00 1.385162e+01 3.172977e+00
<GCONST> 7.205436e+01
<MIXTURE> 2 2.190209e-01
<MEAN> 20
 -8.205282e+00 -3.027584e+00 -2.224293e+01 -8.718024e+00 -7.326482e+00 -1.291693e+01 -2.242694e+01 -1.512489e+01 -3.224212e+00 -1.170691e+01 -1.946909e+01 -5.901743e+00 -7.553580e-01 -9.056014e+00 -1.363961e+01 -3.460520e+00 4.976244e-01 -5.905351e+00 -1.164790e+01 -2.275691e+00
<VARIANCE> 20
 3.586558e+00 1.842680e+00 1.246133e+01 1.584288e+01 1.319596e+01 3.583248e+00 1.397423e+01 1.652472e+01 8.274357e+00 3.435027e+00 1.825980e+01 2.359416e+01 6.001817e+00 5.013006e+00 2.217332e+01 1.021643e+01 1.168826e+01 7.205085e+00 3.654329e+01 9.505810e+00
<GCONST> 8.175320e+01
<MIXTURE> 3 3.216248e-01
<MEAN> 20
 -7.190306e+00 -1.942075e+00 -8.309982e+00 -9.022330e+00 -7.786184e+00 -1.157863e+01 -1.169022e+01 -1.316669e+01 -3.501615e+00 -1.161501e+01 -7.827543e+00 -1.215957e+01 7.714891e-01 -1.103466e+01 -3.895397e+00 -1.146167e+01 5.528310e+00 -9.858851e+00 1.394551e-01 -1.141954e+01
<VARIANCE> 20
 4.927200e-01 5.026621e-01 6.830810e+00 1.299839e+00 2.294294e+00 2.053372e+00 1.706704e+00 4.718270e+00 2.053560e+00 1.621194e+00 1.234006e+00 5.799163e+00 2.149781e+00 1.311633e+00 1.761063e+00 6.218439e+00 2.410677e+00 1.101910e+00 2.687835e+00 6.553638e+00
<GCONST> 5.162799e+01
<MIXTURE> 4 1.396706e-01
<MEAN> 20
 -9.809549e+00 -1.949417e+00 -1.924045e+01 -1.329500e+01 -1.341390e+01 -1.516761e+01 -2.142049e+01 -1.810792e+01 -7.020240e+00 -1.589468e+01 -1.278879e+01 -1.701653e+01 -8.214359e-01 -1.531384e+01 -7.136931e+00 -1.180598e+01 5.228023e+00 -1.371351e+01 -1.317134e+00 -1.259945e+01
<VARIANCE> 20
 1.413400e+00 3.020826e+00 2.648050e+01 8.712238e+00 1.957840e+01 4.779694e+00 4.693573e+01 4.618489e+01 1.050717e+01 3.829338e+00 1.697292e+01 8.063548e+01 4.981140e+00 3.141051e+00 7.720787e+00 5.477114e+01 4.573970e+00 3.356415e+00 1.140235e+01 7.496984e+01
<GCONST> 8.506621e+01
<STATE> 6
<NUMMIXES> 4
<MIXTURE> 1 6.875601e-02
<MEAN> 20
 7.687190e+00 -1.991189e+00 1.853402e+01 -6.484541e+00 1.133133e+01 -1.032645e+01 1.973113e+01 -1.188090e+01 7.087622e+00 -9.383034e+00 1.708498e+01 -5.290816e+00 2.982897e+00 -7.574786e+00 1.224415e+01 -3.956637e+00 -9.815140e-01 -5.258333e+00 7.641220e+00 -2.432590e+00
<VARIANCE> 20
 1.329064e+00 1.699363e+00 2.965351e+01 1.643616e+01 5.207148e+00 1.232996e+01 1.353444e+01 8.476944e+01 9.732713e+00 1.997069e+01 2.392595e+01 9.266074e+01 1.253189e+01 2.927102e+01 1.344719e+01 9.788130e+01 1.454902e+01 3.716610e+01 1.072334e+01 9.181758e+01
<GCONST> 9.421478e+01
<MIXTURE> 2 2.283457e-01
<MEAN> 20
 -1.077062e+01 -4.519933e+00 -2.402435e+01 -1.337857e+01 -6.646500e+00 -1.726210e+01 -2.208198e+01 -2.151869e+01 -2.677175e+00 -1.607305e+01 -1.760431e+01 -1.029436e+01 -9.171982e-01 -1.354800e+01 -1.480880e+01 -8.012074e+00 -7.655084e-01 -1.036340e+01 -1.369647e+01 -6.706663e+00
<VARIANCE> 20
 4.087615e+00 9.387624e-01 2.569217e+00 6.266924e+00 1.469266e+00 5.197106e+00 3.686388e+00 1.086039e+01 1.855420e+00 6.254244e+00 5.821868e+00 4.566781e+00 4.058209e+00 7.817159e+00 5.089745e+00 5.381844e+00 6.958629e+00 8.764851e+00 7.134356e+00 7.978878e+00
<GCONST> 6.725540e+01
<MIXTURE> 3 5.959435e-01
<MEAN> 20
 -7.696551e+00 -1.914535e+00 -1.435922e+01 -9.443491e+00 -8.458431e+00 -1.253338e+01 -1.445337e+01 -1.460032e+01 -3.470307e+00 -1.251596e+01 -1.048774e+01 -9.116163e+00 9.966958e-01 -1.148965e+01 -6.102128e+00 -7.085775e+00 5.102507e+00 -9.780987e+00 -2.261973e+00 -8.037129e+00
<VARIANCE> 20
 2.373153e+00 1.530390e+00 3.742262e+01 1.387818e+01 1.873520e+01 4.925840e+00 2.360939e+01 2.326163e+01 1.420555e+01 4.554031e+00 1.816289e+01 2.659880e+01 9.557082e+00 4.581539e+00 1.060544e+01 1.507546e+01 8.694323e+00 5.611918e+00 1.450437e+01 2.683397e+01
<GCONST> 8.418855e+01
<MIXTURE> 4 1.069548e-01
<MEAN> 20
 -1.033938e+01 -1.464661e+00 -2.841298e+01 -1.072103e+01 -1.631344e+01 -1.477493e+01 -2.557975e+01 -2.024383e+01 -1.093015e+01 -1.584499e+01 -2.152920e+01 -2.290104e+01 -4.958358e+00 -1.572139e+01 -1.411730e+01 -2.388232e+01 1.838532e+00 -1.456216e+01 -4.082524e+00 -2.155786e+01
<VARIANCE> 20
 1.327007e+00 1.188277e+00 4.092191e+01 2.206695e+00 9.592267e+00 3.710177e-01 8.592222e+00 1.295792e+01 8.959504e+00 3.464885e-01 8.949086e+00 1.405379e+01 8.915591e+00 2.248065e-01 8.965609e+00 2.300392e+01 8.293427e+00 1.355728e-01 1.923952e+01 1.872969e+01
<GCONST> 6.569404e+01
<STATE> 7
<MEAN> 20
 -7.722310e+00 -2.334656e+00 -1.529601e+01 -9.863709e+00 -8.052754e+00 -1.292467e+01 -1.568244e+01 -1.488916e+01 -3.523770e+00 -1.263251e+01 -1.206692e+01 -9.571901e+00 3.079593e-01 -1.131598e+01 -7.385644e+00 -7.731735e+00 3.695479e+00 -9.339460e+00 -4.016006e+00 -7.509374e+00
<VARIANCE> 20
 9.956486e+00 1.902816e+00 8.755904e+01 1.439176e+01 3.024612e+01 6.449676e+00 8.116573e+01 2.054679e+01 1.979759e+01 6.826200e+00 6.629742e+01 3.954944e+01 1.373221e+01 8.484202e+00 3.234094e+01 2.670608e+01 1.650744e+01 1.123465e+01 3.358866e+01 3.455341e+01
<GCONST> 9.610737e+01
<TRANSP> 8
 0.000000e+00 1.000000e+00 0.000000e+00 0.000000e+00 0.000000e+00 0.000000e+00 0.000000e+00 0.000000e+00
 0.000000e+00 1.562701e-01 8.437300e-01 0.000000e+00 0.000000e+00 0.000000e+00 0.000000e+00 0.000000e+00
 0.000000e+00 0.000000e+00 6.552958e-01 3.447042e-01 0.000000e+00 0.000000e+00 0.000000e+00 0.000000e+00
 0.000000e+00 0.000000e+00 0.000000e+00 4.917983e-01 5.082017e-01 0.000000e+00 0.000000e+00 0.000000e+00
 0.000000e+00 0.000000e+00 0.000000e+00 0.000000e+00 5.858895e-01 4.141105e-01 0.000000e+00 0.000000e+00
 0.000000e+00 0.000000e+00 0.000000e+00 0.000000e+00 0.000000e+00 3.811916e-01 6.188085e-01 0.000000e+00
 0.000000e+00 0.000000e+00 0.000000e+00 0.000000e+00 0.000000e+00 0.000000e+00 3.721616e-02 9.627839e-01
 0.000000e+00 0.000000e+00 0.000000e+00 0.000000e+00 0.000000e+00 0.000000e+00 0.000000e+00 0.000000e+00
<ENDHMM>
