~o
<STREAMINFO> 1 20
<VECSIZE> 20<NULLD><USER><DIAGC>
~h "y"
<BEGINHMM>
<NUMSTATES> 5
<STATE> 2
<NUMMIXES> 4
<MIXTURE> 1 2.488084e-01
<MEAN> 20
 -5.526359e+00 -1.112012e+00 -1.119517e+01 -7.429488e+00 -6.620345e+00 -8.454628e+00 -8.332525e+00 -9.836122e+00 -2.574224e+00 -8.633831e+00 -5.107613e+00 -8.434793e+00 1.400253e+00 -8.241092e+00 -1.676308e+00 -6.921947e+00 5.414350e+00 -7.359502e+00 3.180134e+00 -8.066998e+00
<VARIANCE> 20
 5.871097e-01 2.284171e-01 2.540354e+01 4.608445e+00 2.749454e+00 1.148289e+00 4.455256e+00 1.114411e+01 1.999807e+00 1.127882e+00 3.421368e+00 1.550020e+01 1.866955e+00 1.116656e+00 2.629262e+00 9.763512e+00 2.077800e+00 1.189658e+00 1.438753e+01 1.305795e+01
<GCONST> 5.947089e+01
<MIXTURE> 2 4.597244e-01
<MEAN> 20
 -7.919579e+00 -2.389064e+00 -1.344334e+01 -1.233563e+01 -8.067009e+00 -1.325759e+01 -1.269680e+01 -1.878921e+01 -2.568250e+00 -1.339103e+01 -9.269825e+00 -1.574382e+01 2.892596e+00 -1.243350e+01 -4.962588e+00 -9.293145e+00 8.274981e+00 -1.059865e+01 2.506455e-01 -8.795748e+00
<VARIANCE> 20
 6.574177e-01 4.503565e-01 4.364457e+01 5.335291e+00 3.721971e+00 1.129075e+00 1.213898e+01 3.548038e+01 3.485793e+00 1.091592e+00 7.277690e+00 6.251221e+01 3.452589e+00 9.027057e-01 6.003136e+00 1.611203e+01 3.336005e+00 9.115586e-01 1.010541e+01 1.682864e+01
<GCONST> 6.790532e+01
<MIXTURE> 3 1.235154e-01
<MEAN> 20
 -6.989764e+00 -2.800167e+00 -1.779662e+01 -1.207514e+01 -8.075596e+00 -1.312130e+01 -1.910304e+01 -1.699464e+01 -4.350056e+00 -1.281144e+01 -1.625143e+01 -1.367483e+01 -1.071884e+00 -1.139465e+01 -1.085146e+01 -8.783931e+00 1.738914e+00 -9.235246e+00 -7.025812e+00 -8.359670e+00
<VARIANCE> 20
 2.059836e+01 4.185580e+00 1.397115e+02 3.114964e+01 6.559875e+01 1.430272e+01 1.227630e+02 6.105601e+01 4.100515e+01 1.540952e+01 1.218295e+02 8.150811e+01 3.127322e+01 1.818778e+01 6.909332e+01 5.134157e+01 4.458651e+01 2.116760e+01 1.006791e+02 5.334931e+01
<GCONST> 1.109670e+02
<MIXTURE> 4 1.679517e-01
<MEAN> 20
 -1.022780e+01 -2.735392e+00 -2.702814e+01 -1.545618e+01 -1.102646e+01 -1.581711e+01 -1.446431e+01 -1.047603e+01 -4.126335e+00 -1.598719e+01 -8.918408e+00 -8.536387e+00 2.697095e+00 -1.520970e+01 -3.800058e+00 -8.757749e+00 9.128936e+00 -1.365841e+01 1.031973e+01 -2.090900e+01
<VARIANCE> 20
 2.270395e+00 7.036641e-01 4.411280e+01 9.597860e+00 1.302974e+01 4.538657e+00 1.064947e+01 7.363302e+00 1.000374e+01 4.831259e+00 6.812410e+00 5.525353e+00 7.698451e+00 4.459143e+00 6.409008e+00 5.069003e+00 7.346760e+00 4.519425e+00 5.590462e+01 6.718031e+01
<GCONST> 7.797289e+01
<STATE> 3
<NUMMIXES> 4
<MIXTURE> 1 3.803555e-01
<MEAN> 20
 -8.083341e+00 -2.774637e+00 -1.948291e+01 -1.461698e+01 -6.622174e+00 -1.290804e+01 -9.894944e+00 -9.054452e+00 -9.377686e-01 -1.268260e+01 -5.822108e+00 -7.580834e+00 4.580637e+00 -1.184645e+01 -2.254976e+00 -7.485861e+00 9.949697e+00 -1.042558e+01 7.885735e+00 -1.657600e+01
<VARIANCE> 20
 3.985197e-01 2.453038e-01 1.114287e+01 2.457100e+00 1.984957e+00 6.262018e-01 2.129242e+00 3.163550e+00 1.721110e+00 6.008995e-01 2.079417e+00 2.603394e+00 1.608122e+00 5.741211e-01 2.377403e+00 2.935935e+00 1.563399e+00 7.411472e-01 1.734970e+01 2.884925e+01
<GCONST> 4.981574e+01
<MIXTURE> 2 8.004349e-02
<MEAN> 20
 2.410402e+00 -1.708422e+00 6.665473e+00 -7.885242e+00 4.972755e+00 -9.507701e+00 4.387018e+00 -8.059592e+00 3.461575e+00 -9.503218e+00 2.326484e+00 -5.905147e+00 1.533444e+00 -8.598113e+00 9.526892e-01 -5.341040e+00 -5.423757e-01 -7.128610e+00 -1.878346e+00 -8.927955e+00
<VARIANCE> 20
 4.514169e+01 2.460192e+00 3.828163e+02 2.109591e+01 1.010479e+02 1.118648e+01 2.420057e+02 2.890538e+01 5.558305e+01 1.503626e+01 1.892435e+02 5.570029e+01 4.775211e+01 2.003419e+01 9.340700e+01 4.801562e+01 7.284425e+01 2.446803e+01 1.373598e+02 9.471627e+01
<GCONST> 1.145700e+02
<MIXTURE> 3 2.662142e-01
<MEAN> 20
 -6.579414e+00 -1.446649e+00 -1.312067e+01 -8.970484e+00 -8.051914e+00 -1.042455e+01 -1.085551e+01 -1.344110e+01 -3.208438e+00 -1.064390e+01 -6.989034e+00 -1.186836e+01 1.630333e+00 -1.006760e+01 -2.788393e+00 -8.498352e+00 6.514320e+00 -8.841165e+00 2.386030e+00 -8.878057e+00
<VARIANCE> 20
 6.112815e-01 5.497844e-01 3.563861e+01 7.159775e+00 3.288599e+00 7.916744e-01 6.721455e+00 2.523660e+01 2.418386e+00 6.735786e-01 5.325000e+00 3.562252e+01 2.383613e+00 5.219485e-01 4.781240e+00 1.797199e+01 2.736761e+00 5.694845e-01 1.220446e+01 1.789943e+01
<GCONST> 6.353509e+01
<MIXTURE> 4 2.733869e-01
<MEAN> 20
 -8.951381e+00 -2.214371e+00 -1.897936e+01 -1.281904e+01 -1.057521e+01 -1.433308e+01 -1.774390e+01 -1.977288e+01 -4.891412e+00 -1.470021e+01 -1.327086e+01 -1.825095e+01 7.257387e-01 -1.387936e+01 -8.400469e+00 -1.405654e+01 6.174594e+00 -1.206426e+01 -1.840282e+00 -1.394557e+01
<VARIANCE> 20
 1.862159e+00 9.331142e-01 5.736591e+01 8.280937e+00 1.136951e+01 3.924407e+00 2.137355e+01 4.817121e+01 8.274308e+00 3.671579e+00 2.663515e+01 7.574154e+01 7.484795e+00 3.176001e+00 3.251277e+01 5.366825e+01 9.916259e+00 3.199253e+00 7.439558e+01 4.725913e+01
<GCONST> 8.748693e+01
<STATE> 4
<NUMMIXES> 4
<MIXTURE> 1 2.710035e-01
<MEAN> 20
 -7.055278e+00 -2.200468e+00 -1.784353e+01 -1.093391e+01 -5.437388e+00 -1.147240e+01 -8.345361e+00 -8.675216e+00 -6.981292e-03 -1.124002e+01 -4.680316e+00 -6.861711e+00 5.027856e+00 -1.027444e+01 -6.623985e-01 -6.946276e+00 9.654722e+00 -8.741567e+00 1.113198e+01 -1.377438e+01
<VARIANCE> 20
 1.789877e+00 6.665996e-01 3.860593e+01 1.390841e+01 4.381411e+00 4.847000e+00 5.243487e+00 1.401306e+01 3.571537e+00 4.315480e+00 4.548737e+00 1.056611e+01 3.874022e+00 3.265763e+00 6.188045e+00 8.254432e+00 4.518464e+00 2.662682e+00 3.252153e+01 2.347243e+01
<GCONST> 7.277682e+01
<MIXTURE> 2 2.722745e-01
<MEAN> 20
 -9.983167e+00 -1.608981e+00 -2.540194e+01 -1.263286e+01 -1.460596e+01 -1.388609e+01 -1.976429e+01 -1.256522e+01 -8.473228e+00 -1.462732e+01 -1.385007e+01 -1.008962e+01 -2.095967e+00 -1.431430e+01 -8.579436e+00 -8.718505e+00 4.296814e+00 -1.313717e+01 -2.835665e-01 -1.550593e+01
<VARIANCE> 20
 2.637940e+00 1.041330e+00 5.763869e+01 1.560719e+01 6.489312e+00 5.907022e+00 1.800771e+01 4.420931e+01 5.169879e+00 5.181376e+00 1.668614e+01 4.319514e+01 5.494987e+00 3.848879e+00 1.547915e+01 1.902030e+01 7.060256e+00 2.978614e+00 4.748819e+01 7.326732e+01
<GCONST> 8.470137e+01
<MIXTURE> 3 3.240004e-01
<MEAN> 20
 -7.928020e+00 -1.811561e+00 -1.852401e+01 -1.090528e+01 -9.234797e+00 -1.196594e+01 -1.263546e+01 -1.303336e+01 -3.903382e+00 -1.220823e+01 -8.052221e+00 -1.122871e+01 1.442009e+00 -1.169771e+01 -3.820770e+00 -9.890396e+00 6.855802e+00 -1.052922e+01 2.974003e+00 -1.440154e+01
<VARIANCE> 20
 7.881899e-01 5.117411e-01 5.225090e+01 5.774581e+00 3.289892e+00 1.007551e+00 6.765186e+00 3.031886e+01 2.197557e+00 8.658081e-01 5.484539e+00 3.496948e+01 1.869429e+00 7.270612e-01 5.341846e+00 2.152070e+01 2.114969e+00 8.773486e-01 1.694840e+01 3.168726e+01
<GCONST> 6.593646e+01
<MIXTURE> 4 1.327216e-01
<MEAN> 20
 -5.473350e+00 -2.412354e+00 -2.002237e+01 -6.348924e+00 -1.060405e+01 -9.742081e+00 -2.436005e+01 -9.034305e+00 -8.566959e+00 -8.900017e+00 -2.307082e+01 -5.712848e+00 -6.689570e+00 -7.101235e+00 -1.511992e+01 -2.629868e+00 -5.021379e+00 -4.814080e+00 -1.235849e+01 -2.143585e+00
<VARIANCE> 20
 2.266796e+01 4.714362e+00 1.517700e+02 2.664510e+01 6.962287e+01 1.176399e+01 1.809887e+02 5.830448e+01 4.528140e+01 1.253098e+01 1.555348e+02 7.729002e+01 3.925391e+01 1.671012e+01 6.813766e+01 3.523060e+01 5.372229e+01 2.185408e+01 6.462867e+01 3.871191e+01
<GCONST> 1.106044e+02
<TRANSP> 5
 0.000000e+00 1.000000e+00 0.000000e+00 0.000000e+00 0.000000e+00
 0.000000e+00 7.249734e-01 2.750266e-01 0.000000e+00 0.000000e+00
 0.000000e+00 0.000000e+00 7.287177e-01 2.712823e-01 0.000000e+00
 0.000000e+00 0.000000e+00 0.000000e+00 7.115881e-01 2.884119e-01
 0.000000e+00 0.000000e+00 0.000000e+00 0.000000e+00 0.000000e+00
<ENDHMM>
