~o
<STREAMINFO> 1 20
<VECSIZE> 20<NULLD><USER><DIAGC>
~h "y"
<BEGINHMM>
<NUMSTATES> 8
<STATE> 2
<MEAN> 20
 -7.444312e+00 -2.093199e+00 -1.648126e+01 -1.144084e+01 -8.458837e+00 -1.230247e+01 -1.352999e+01 -1.417594e+01 -3.510086e+00 -1.238676e+01 -9.557369e+00 -1.206593e+01 1.308568e+00 -1.154577e+01 -5.247764e+00 -8.725141e+00 5.973918e+00 -9.976396e+00 8.281826e-01 -1.077313e+01
<VARIANCE> 20
 8.744281e+00 1.446280e+00 9.174532e+01 1.622350e+01 2.503043e+01 7.507574e+00 5.658898e+01 4.685862e+01 1.596989e+01 8.050226e+00 4.819040e+01 5.879098e+01 1.411748e+01 8.549395e+00 3.321693e+01 2.907586e+01 2.163584e+01 9.175449e+00 6.583961e+01 5.236485e+01
<GCONST> 9.762750e+01
<STATE> 3
<NUMMIXES> 4
<MIXTURE> 1 2.685462e-01
<MEAN> 20
 -6.957400e+00 -1.947214e+00 -1.593086e+01 -1.088360e+01 -6.796285e+00 -1.098138e+01 -9.500986e+00 -9.095013e+00 -1.721706e+00 -1.095178e+01 -5.601430e+00 -7.555743e+00 3.219762e+00 -1.027830e+01 -1.698087e+00 -7.071144e+00 8.028434e+00 -9.039591e+00 6.372973e+00 -1.146718e+01
<VARIANCE> 20
 1.316744e+00 6.754777e-01 4.047892e+01 9.566486e+00 4.001380e+00 3.368613e+00 3.333183e+00 7.724206e+00 3.889347e+00 2.937609e+00 2.550508e+00 6.336835e+00 4.498293e+00 2.338619e+00 3.994955e+00 5.814203e+00 5.078589e+00 2.009635e+00 3.361040e+01 3.366566e+01
<GCONST> 6.852025e+01
<MIXTURE> 2 4.029228e-01
<MEAN> 20
 -7.435593e+00 -2.119757e+00 -1.111436e+01 -1.093483e+01 -8.125072e+00 -1.231346e+01 -1.236506e+01 -1.739397e+01 -2.962824e+00 -1.248678e+01 -9.065545e+00 -1.569249e+01 2.254078e+00 -1.166363e+01 -4.768844e+00 -9.523914e+00 7.502414e+00 -1.000892e+01 1.748461e-01 -8.372966e+00
<VARIANCE> 20
 5.157847e-01 4.591706e-01 3.530414e+01 4.276219e+00 2.935669e+00 9.408248e-01 9.855741e+00 2.670945e+01 2.366023e+00 8.552794e-01 7.206283e+00 4.598369e+01 2.462673e+00 6.727333e-01 6.180837e+00 1.330471e+01 2.783885e+00 6.849313e-01 7.556572e+00 1.213959e+01
<GCONST> 6.351006e+01
<MIXTURE> 3 9.261879e-02
<MEAN> 20
 1.970707e+00 -1.893944e+00 4.114692e+00 -7.827098e+00 3.121486e+00 -9.846916e+00 3.415983e-01 -9.797382e+00 1.550705e+00 -9.690043e+00 -1.023274e+00 -7.214423e+00 -3.451838e-01 -8.594567e+00 -1.453580e+00 -5.352469e+00 -2.337996e+00 -6.933949e+00 -4.819619e+00 -7.703102e+00
<VARIANCE> 20
 5.017310e+01 3.478103e+00 4.589176e+02 2.671509e+01 1.382908e+02 1.181966e+01 3.806324e+02 4.322969e+01 7.960048e+01 1.486035e+01 3.074354e+02 7.049773e+01 5.490253e+01 2.039372e+01 1.310093e+02 5.184468e+01 6.440990e+01 2.610948e+01 1.177806e+02 9.622894e+01
<GCONST> 1.181081e+02
<MIXTURE> 4 2.359123e-01
<MEAN> 20
 -1.027174e+01 -2.300779e+00 -2.497379e+01 -1.459287e+01 -1.287357e+01 -1.578345e+01 -1.863228e+01 -1.747886e+01 -6.255768e+00 -1.629023e+01 -1.286420e+01 -1.559204e+01 3.725539e-01 -1.553070e+01 -7.247933e+00 -1.258671e+01 6.740122e+00 -1.375679e+01 2.116250e+00 -1.738157e+01
<VARIANCE> 20
 2.774860e+00 1.159648e+00 7.193271e+01 1.307848e+01 1.485756e+01 5.745351e+00 2.382644e+01 6.624426e+01 1.108143e+01 5.308965e+00 2.595149e+01 9.711971e+01 9.468491e+00 4.591397e+00 3.155280e+01 6.262926e+01 1.136052e+01 4.554864e+00 1.032033e+02 9.093056e+01
<GCONST> 9.294502e+01
<STATE> 4
<NUMMIXES> 4
<MIXTURE> 1 2.784187e-01
<MEAN> 20
 -8.245448e+00 -2.862258e+00 -1.957081e+01 -1.432099e+01 -6.483479e+00 -1.392641e+01 -1.155562e+01 -1.211022e+01 -4.295360e-01 -1.372836e+01 -7.336116e+00 -8.108451e+00 5.238467e+00 -1.259501e+01 -2.964212e+00 -7.205639e+00 1.049320e+01 -1.072757e+01 6.719033e+00 -1.312002e+01
<VARIANCE> 20
 1.146414e+00 5.355261e-01 4.709918e+01 6.033678e+00 4.285599e+00 2.281519e+00 1.135827e+01 3.032696e+01 3.144999e+00 2.316311e+00 8.633251e+00 7.845325e+00 2.543860e+00 2.087321e+00 8.371256e+00 6.751136e+00 2.562963e+00 2.139416e+00 5.521617e+01 4.840419e+01
<GCONST> 7.153932e+01
<MIXTURE> 2 2.848335e-01
<MEAN> 20
 -5.893943e+00 -1.051597e+00 -1.089680e+01 -7.850844e+00 -7.850944e+00 -9.218602e+00 -9.618536e+00 -1.245294e+01 -3.496263e+00 -9.515328e+00 -6.288708e+00 -1.146152e+01 8.448434e-01 -9.127606e+00 -2.241657e+00 -8.445103e+00 5.298397e+00 -8.173941e+00 1.994605e+00 -8.403431e+00
<VARIANCE> 20
 4.486120e-01 2.503214e-01 2.139750e+01 4.063056e+00 2.418233e+00 1.193525e+00 3.253701e+00 1.517445e+01 1.283984e+00 1.162707e+00 3.042950e+00 2.576043e+01 1.064039e+00 1.010861e+00 2.332695e+00 1.572087e+01 1.514773e+00 9.004564e-01 6.336869e+00 1.321534e+01
<GCONST> 5.717094e+01
<MIXTURE> 3 8.519822e-02
<MEAN> 20
 -5.688590e+00 -2.733156e+00 -1.833699e+01 -9.986890e+00 -8.196923e+00 -1.230866e+01 -1.930425e+01 -1.231239e+01 -5.606368e+00 -1.179689e+01 -1.740244e+01 -9.479487e+00 -3.331688e+00 -1.023383e+01 -1.149077e+01 -6.893473e+00 -1.423620e+00 -8.049061e+00 -7.739830e+00 -9.217559e+00
<VARIANCE> 20
 4.178790e+01 5.710824e+00 2.927445e+02 5.612099e+01 1.119330e+02 3.121968e+01 2.757601e+02 9.245276e+01 6.823021e+01 3.372233e+01 2.555436e+02 1.279680e+02 5.580353e+01 3.722626e+01 1.283500e+02 7.808759e+01 7.957912e+01 4.028008e+01 1.867251e+02 1.178270e+02
<GCONST> 1.233036e+02
<MIXTURE> 4 3.515497e-01
<MEAN> 20
 -8.365513e+00 -1.817776e+00 -1.754940e+01 -1.125287e+01 -1.066278e+01 -1.289637e+01 -1.667997e+01 -1.751723e+01 -5.398687e+00 -1.335087e+01 -1.255729e+01 -1.626421e+01 -5.130880e-02 -1.277327e+01 -7.814500e+00 -1.215803e+01 5.325519e+00 -1.131004e+01 -2.321942e+00 -1.248062e+01
<VARIANCE> 20
 1.080869e+00 8.065995e-01 5.119951e+01 6.497939e+00 7.336103e+00 2.148687e+00 1.676473e+01 3.989710e+01 5.029027e+00 1.860103e+00 1.932238e+01 5.777850e+01 4.237927e+00 1.502265e+00 1.999731e+01 3.353428e+01 5.771839e+00 1.721205e+00 3.813048e+01 3.480920e+01
<GCONST> 7.879070e+01
<STATE> 5
<NUMMIXES> 4
<MIXTURE> 1 3.283504e-01
<MEAN> 20
 -7.888921e+00 -2.852395e+00 -1.860431e+01 -1.494568e+01 -5.980247e+00 -1.277079e+01 -9.303004e+00 -8.898234e+00 -3.437019e-01 -1.247039e+01 -5.328453e+00 -7.465803e+00 5.107062e+00 -1.160284e+01 -1.815702e+00 -7.443613e+00 1.040270e+01 -1.016214e+01 8.876424e+00 -1.674327e+01
<VARIANCE> 20
 3.567298e-01 1.784241e-01 6.920065e+00 1.561779e+00 1.927427e+00 5.684981e-01 1.309332e+00 1.881226e+00 1.801697e+00 5.040599e-01 1.341205e+00 1.556173e+00 1.640374e+00 5.089535e-01 1.711033e+00 1.847941e+00 1.429376e+00 7.309130e-01 1.576491e+01 2.491566e+01
<GCONST> 4.500351e+01
<MIXTURE> 2 1.817737e-01
<MEAN> 20
 -5.444561e+00 -1.470611e+00 -1.200544e+01 -8.098867e+00 -5.778141e+00 -9.822071e+00 -8.879377e+00 -1.100106e+01 -1.541148e+00 -9.937501e+00 -5.825541e+00 -8.776749e+00 2.477618e+00 -9.220254e+00 -2.099508e+00 -7.000072e+00 6.294137e+00 -7.894491e+00 3.739845e+00 -9.018949e+00
<VARIANCE> 20
 1.107480e+01 8.672288e-01 1.114026e+02 1.156704e+01 2.999818e+01 3.534076e+00 4.776410e+01 2.508483e+01 1.527174e+01 3.823951e+00 2.866867e+01 3.799033e+01 1.033512e+01 4.225287e+00 1.690942e+01 2.252785e+01 1.524852e+01 4.864924e+00 4.926987e+01 3.090193e+01
<GCONST> 9.034755e+01
<MIXTURE> 3 1.789284e-01
<MEAN> 20
 -9.630278e+00 -1.970076e+00 -2.440901e+01 -1.187864e+01 -1.393114e+01 -1.356300e+01 -2.295351e+01 -1.409060e+01 -8.541476e+00 -1.397001e+01 -1.830496e+01 -1.104289e+01 -3.102648e+00 -1.323864e+01 -1.265445e+01 -8.365115e+00 2.194947e+00 -1.162342e+01 -5.673019e+00 -1.110103e+01
<VARIANCE> 20
 4.617311e+00 2.216858e+00 4.362564e+01 2.472382e+01 1.881699e+01 1.086303e+01 4.253876e+01 5.560110e+01 1.517245e+01 1.091175e+01 4.852085e+01 6.176427e+01 1.547522e+01 1.202321e+01 3.985211e+01 3.285757e+01 2.318853e+01 1.420829e+01 9.111098e+01 7.990108e+01
<GCONST> 9.936403e+01
<MIXTURE> 4 3.109474e-01
<MEAN> 20
 -8.425699e+00 -2.447827e+00 -1.652834e+01 -1.308034e+01 -8.735810e+00 -1.369945e+01 -1.279719e+01 -1.910834e+01 -3.043103e+00 -1.385242e+01 -8.708106e+00 -1.586864e+01 2.641146e+00 -1.298541e+01 -4.476371e+00 -1.070878e+01 8.324894e+00 -1.127276e+01 2.092746e+00 -1.207102e+01
<VARIANCE> 20
 5.431172e-01 5.010240e-01 5.034514e+01 5.318033e+00 2.678485e+00 9.620687e-01 8.706532e+00 3.898226e+01 2.205986e+00 9.289106e-01 5.204417e+00 6.655565e+01 2.296019e+00 7.231457e-01 4.803635e+00 2.102722e+01 2.523541e+00 7.204928e-01 2.110709e+01 3.364659e+01
<GCONST> 6.667035e+01
<STATE> 6
<NUMMIXES> 4
<MIXTURE> 1 2.344260e-01
<MEAN> 20
 -5.809491e+00 -1.373323e+00 -1.419281e+01 -7.379217e+00 -5.780004e+00 -8.887391e+00 -7.502814e+00 -9.025655e+00 -1.392057e+00 -8.909457e+00 -4.211294e+00 -7.528621e+00 2.819188e+00 -8.351091e+00 -6.738014e-01 -6.866714e+00 6.882143e+00 -7.300092e+00 7.143496e+00 -1.004023e+01
<VARIANCE> 20
 1.058395e+00 3.477655e-01 3.326890e+01 6.090976e+00 3.392358e+00 1.692840e+00 4.831505e+00 1.650929e+01 2.648034e+00 1.556599e+00 3.009691e+00 1.944037e+01 2.883390e+00 1.313572e+00 3.658037e+00 1.082258e+01 3.467948e+00 1.204518e+00 2.630039e+01 1.590208e+01
<GCONST> 6.515799e+01
<MIXTURE> 2 2.689492e-01
<MEAN> 20
 -9.907627e+00 -1.981022e+00 -2.391619e+01 -1.333142e+01 -1.324382e+01 -1.453537e+01 -1.754098e+01 -1.306411e+01 -7.012310e+00 -1.509206e+01 -1.195875e+01 -1.096676e+01 -6.513128e-01 -1.459387e+01 -6.951770e+00 -9.461471e+00 5.606822e+00 -1.324028e+01 2.231501e+00 -1.685910e+01
<VARIANCE> 20
 2.150581e+00 9.494698e-01 6.868625e+01 1.279368e+01 7.535430e+00 3.938652e+00 1.345043e+01 4.719840e+01 5.478562e+00 3.550144e+00 9.686999e+00 5.065154e+01 4.988172e+00 2.832434e+00 1.089535e+01 2.134565e+01 5.973877e+00 2.670710e+00 5.104497e+01 6.876488e+01
<GCONST> 8.228786e+01
<MIXTURE> 3 3.874640e-01
<MEAN> 20
 -8.227757e+00 -2.320093e+00 -2.080734e+01 -1.277392e+01 -7.936840e+00 -1.260804e+01 -1.108076e+01 -1.036786e+01 -2.268404e+00 -1.259249e+01 -6.845181e+00 -8.051581e+00 3.256192e+00 -1.186933e+01 -3.105003e+00 -7.642548e+00 8.639277e+00 -1.056148e+01 6.326055e+00 -1.619779e+01
<VARIANCE> 20
 6.603747e-01 4.252295e-01 3.282461e+01 5.096299e+00 3.659974e+00 1.068797e+00 4.421706e+00 2.407572e+01 3.384914e+00 8.780476e-01 4.105687e+00 1.454599e+01 3.285984e+00 6.670039e-01 4.330215e+00 7.668265e+00 3.131318e+00 8.930301e-01 2.607618e+01 2.972212e+01
<GCONST> 6.378648e+01
<MIXTURE> 4 1.091608e-01
<MEAN> 20
 -4.281137e+00 -2.877958e+00 -1.756254e+01 -7.138161e+00 -8.288021e+00 -1.004799e+01 -2.244267e+01 -9.371708e+00 -7.238223e+00 -8.906558e+00 -2.233243e+01 -6.504146e+00 -6.490995e+00 -6.905191e+00 -1.415171e+01 -2.837987e+00 -5.972104e+00 -4.501342e+00 -1.283828e+01 -2.451660e+00
<VARIANCE> 20
 2.732225e+01 4.611035e+00 2.193409e+02 2.524444e+01 8.719405e+01 1.199501e+01 2.308597e+02 6.167139e+01 5.446233e+01 1.267006e+01 1.820420e+02 7.630316e+01 4.182730e+01 1.694031e+01 6.849741e+01 3.571429e+01 5.041563e+01 2.213140e+01 5.675280e+01 4.425731e+01
<GCONST> 1.120165e+02
<STATE> 7
<MEAN> 20
 -7.516896e+00 -2.035663e+00 -1.831734e+01 -1.129436e+01 -8.283833e+00 -1.222652e+01 -1.276530e+01 -1.207109e+01 -3.138339e+00 -1.231710e+01 -8.793298e+00 -1.028130e+01 1.889362e+00 -1.154443e+01 -4.453400e+00 -8.642892e+00 6.766123e+00 -1.007396e+01 3.520889e+00 -1.350659e+01
<VARIANCE> 20
 8.935339e+00 1.178540e+00 9.441807e+01 1.621941e+01 2.532726e+01 6.829539e+00 5.477328e+01 4.054849e+01 1.706092e+01 7.207615e+00 4.548659e+01 4.778722e+01 1.571653e+01 7.449473e+00 2.794046e+01 2.643294e+01 2.201399e+01 7.894947e+00 6.876382e+01 5.396666e+01
<GCONST> 9.654520e+01
<TRANSP> 8
 0.000000e+00 1.000000e+00 0.000000e+00 0.000000e+00 0.000000e+00 0.000000e+00 0.000000e+00 0.000000e+00
 0.000000e+00 4.836619e-02 9.516338e-01 0.000000e+00 0.000000e+00 0.000000e+00 0.000000e+00 0.000000e+00
 0.000000e+00 0.000000e+00 5.225939e-01 4.774061e-01 0.000000e+00 0.000000e+00 0.000000e+00 0.000000e+00
 0.000000e+00 0.000000e+00 0.000000e+00 5.130377e-01 4.869623e-01 0.000000e+00 0.000000e+00 0.000000e+00
 0.000000e+00 0.000000e+00 0.000000e+00 0.000000e+00 5.446504e-01 4.553496e-01 0.000000e+00 0.000000e+00
 0.000000e+00 0.000000e+00 0.000000e+00 0.000000e+00 0.000000e+00 5.711793e-01 4.288207e-01 0.000000e+00
 0.000000e+00 0.000000e+00 0.000000e+00 0.000000e+00 0.000000e+00 0.000000e+00 5.869661e-02 9.413034e-01
 0.000000e+00 0.000000e+00 0.000000e+00 0.000000e+00 0.000000e+00 0.000000e+00 0.000000e+00 0.000000e+00
<ENDHMM>
