~o
<STREAMINFO> 1 8
<VECSIZE> 8<NULLD><USER><DIAGC>
~h "c"
<BEGINHMM>
<NUMSTATES> 6
<STATE> 2
<MEAN> 8
 -6.036176e+00 -7.976614e+00 -7.666431e+00 -7.943594e+00 -7.608579e+00 -7.950931e+00 -7.662702e+00 -7.903584e+00
<VARIANCE> 8
 4.753299e+01 5.180128e+01 4.881796e+01 5.176647e+01 4.790035e+01 5.227120e+01 4.828148e+01 5.188262e+01
<GCONST> 4.599829e+01
<STATE> 3
<MEAN> 8
 -6.036176e+00 -7.976614e+00 -7.666431e+00 -7.943594e+00 -7.608579e+00 -7.950931e+00 -7.662702e+00 -7.903584e+00
<VARIANCE> 8
 4.753299e+01 5.180128e+01 4.881796e+01 5.176647e+01 4.790035e+01 5.227120e+01 4.828148e+01 5.188262e+01
<GCONST> 4.599829e+01
<STATE> 4
<MEAN> 8
 -6.036176e+00 -7.976614e+00 -7.666431e+00 -7.943594e+00 -7.608579e+00 -7.950931e+00 -7.662702e+00 -7.903584e+00
<VARIANCE> 8
 4.753299e+01 5.180128e+01 4.881796e+01 5.176647e+01 4.790035e+01 5.227120e+01 4.828148e+01 5.188262e+01
<GCONST> 4.599829e+01
<STATE> 5
<MEAN> 8
 -6.036176e+00 -7.976614e+00 -7.666431e+00 -7.943594e+00 -7.608579e+00 -7.950931e+00 -7.662702e+00 -7.903584e+00
<VARIANCE> 8
 4.753299e+01 5.180128e+01 4.881796e+01 5.176647e+01 4.790035e+01 5.227120e+01 4.828148e+01 5.188262e+01
<GCONST> 4.599829e+01
<TRANSP> 6
 0.000000e+00 1.000000e+00 0.000000e+00 0.000000e+00 0.000000e+00 0.000000e+00
 0.000000e+00 5.000000e-01 5.000000e-01 0.000000e+00 0.000000e+00 0.000000e+00
 0.000000e+00 0.000000e+00 5.000000e-01 5.000000e-01 0.000000e+00 0.000000e+00
 0.000000e+00 0.000000e+00 0.000000e+00 5.000000e-01 5.000000e-01 0.000000e+00
 0.000000e+00 0.000000e+00 0.000000e+00 0.000000e+00 5.000000e-01 5.000000e-01
 0.000000e+00 0.000000e+00 0.000000e+00 0.000000e+00 0.000000e+00 0.000000e+00
<ENDHMM>
