~o
<STREAMINFO> 1 8
<VECSIZE> 8<NULLD><USER><DIAGC>
~h "f"
<BEGINHMM>
<NUMSTATES> 6
<STATE> 2
<MEAN> 8
 -5.995215e+00 -8.239288e+00 -6.892465e+00 -8.184784e+00 -6.950628e+00 -8.121314e+00 -7.035672e+00 -8.023839e+00
<VARIANCE> 8
 4.778383e+01 4.749919e+01 4.621432e+01 5.006936e+01 4.530122e+01 4.920830e+01 4.535373e+01 4.759402e+01
<GCONST> 4.556371e+01
<STATE> 3
<MEAN> 8
 -5.995215e+00 -8.239288e+00 -6.892465e+00 -8.184784e+00 -6.950628e+00 -8.121314e+00 -7.035672e+00 -8.023839e+00
<VARIANCE> 8
 4.778383e+01 4.749919e+01 4.621432e+01 5.006936e+01 4.530122e+01 4.920830e+01 4.535373e+01 4.759402e+01
<GCONST> 4.556371e+01
<STATE> 4
<MEAN> 8
 -5.995215e+00 -8.239288e+00 -6.892465e+00 -8.184784e+00 -6.950628e+00 -8.121314e+00 -7.035672e+00 -8.023839e+00
<VARIANCE> 8
 4.778383e+01 4.749919e+01 4.621432e+01 5.006936e+01 4.530122e+01 4.920830e+01 4.535373e+01 4.759402e+01
<GCONST> 4.556371e+01
<STATE> 5
<MEAN> 8
 -5.995215e+00 -8.239288e+00 -6.892465e+00 -8.184784e+00 -6.950628e+00 -8.121314e+00 -7.035672e+00 -8.023839e+00
<VARIANCE> 8
 4.778383e+01 4.749919e+01 4.621432e+01 5.006936e+01 4.530122e+01 4.920830e+01 4.535373e+01 4.759402e+01
<GCONST> 4.556371e+01
<TRANSP> 6
 0.000000e+00 1.000000e+00 0.000000e+00 0.000000e+00 0.000000e+00 0.000000e+00
 0.000000e+00 5.000000e-01 5.000000e-01 0.000000e+00 0.000000e+00 0.000000e+00
 0.000000e+00 0.000000e+00 5.000000e-01 5.000000e-01 0.000000e+00 0.000000e+00
 0.000000e+00 0.000000e+00 0.000000e+00 5.000000e-01 5.000000e-01 0.000000e+00
 0.000000e+00 0.000000e+00 0.000000e+00 0.000000e+00 5.000000e-01 5.000000e-01
 0.000000e+00 0.000000e+00 0.000000e+00 0.000000e+00 0.000000e+00 0.000000e+00
<ENDHMM>
