~o
<STREAMINFO> 1 8
<VECSIZE> 8<NULLD><USER><DIAGC>
~h "h"
<BEGINHMM>
<NUMSTATES> 6
<STATE> 2
<MEAN> 8
 -5.839514e+00 -8.457332e+00 -7.252203e+00 -8.434641e+00 -7.154619e+00 -8.466575e+00 -7.186676e+00 -8.448150e+00
<VARIANCE> 8
 4.387531e+01 5.317193e+01 4.590349e+01 5.171840e+01 4.631815e+01 5.062599e+01 4.617382e+01 5.253658e+01
<GCONST> 4.578418e+01
<STATE> 3
<MEAN> 8
 -5.839514e+00 -8.457332e+00 -7.252203e+00 -8.434641e+00 -7.154619e+00 -8.466575e+00 -7.186676e+00 -8.448150e+00
<VARIANCE> 8
 4.387531e+01 5.317193e+01 4.590349e+01 5.171840e+01 4.631815e+01 5.062599e+01 4.617382e+01 5.253658e+01
<GCONST> 4.578418e+01
<STATE> 4
<MEAN> 8
 -5.839514e+00 -8.457332e+00 -7.252203e+00 -8.434641e+00 -7.154619e+00 -8.466575e+00 -7.186676e+00 -8.448150e+00
<VARIANCE> 8
 4.387531e+01 5.317193e+01 4.590349e+01 5.171840e+01 4.631815e+01 5.062599e+01 4.617382e+01 5.253658e+01
<GCONST> 4.578418e+01
<STATE> 5
<MEAN> 8
 -5.839514e+00 -8.457332e+00 -7.252203e+00 -8.434641e+00 -7.154619e+00 -8.466575e+00 -7.186676e+00 -8.448150e+00
<VARIANCE> 8
 4.387531e+01 5.317193e+01 4.590349e+01 5.171840e+01 4.631815e+01 5.062599e+01 4.617382e+01 5.253658e+01
<GCONST> 4.578418e+01
<TRANSP> 6
 0.000000e+00 1.000000e+00 0.000000e+00 0.000000e+00 0.000000e+00 0.000000e+00
 0.000000e+00 5.000000e-01 5.000000e-01 0.000000e+00 0.000000e+00 0.000000e+00
 0.000000e+00 0.000000e+00 5.000000e-01 5.000000e-01 0.000000e+00 0.000000e+00
 0.000000e+00 0.000000e+00 0.000000e+00 5.000000e-01 5.000000e-01 0.000000e+00
 0.000000e+00 0.000000e+00 0.000000e+00 0.000000e+00 5.000000e-01 5.000000e-01
 0.000000e+00 0.000000e+00 0.000000e+00 0.000000e+00 0.000000e+00 0.000000e+00
<ENDHMM>
