~o
<STREAMINFO> 1 8
<VECSIZE> 8<NULLD><USER><DIAGC>
~h "j"
<BEGINHMM>
<NUMSTATES> 6
<STATE> 2
<MEAN> 8
 -6.512318e+00 -9.645226e+00 -6.914453e+00 -9.775162e+00 -7.179066e+00 -9.464113e+00 -7.407106e+00 -9.230019e+00
<VARIANCE> 8
 4.523808e+01 5.097940e+01 4.856208e+01 4.736618e+01 4.035222e+01 4.638199e+01 3.921497e+01 4.765508e+01
<GCONST> 4.525473e+01
<STATE> 3
<MEAN> 8
 -6.512318e+00 -9.645226e+00 -6.914453e+00 -9.775162e+00 -7.179066e+00 -9.464113e+00 -7.407106e+00 -9.230019e+00
<VARIANCE> 8
 4.523808e+01 5.097940e+01 4.856208e+01 4.736618e+01 4.035222e+01 4.638199e+01 3.921497e+01 4.765508e+01
<GCONST> 4.525473e+01
<STATE> 4
<MEAN> 8
 -6.512318e+00 -9.645226e+00 -6.914453e+00 -9.775162e+00 -7.179066e+00 -9.464113e+00 -7.407106e+00 -9.230019e+00
<VARIANCE> 8
 4.523808e+01 5.097940e+01 4.856208e+01 4.736618e+01 4.035222e+01 4.638199e+01 3.921497e+01 4.765508e+01
<GCONST> 4.525473e+01
<STATE> 5
<MEAN> 8
 -6.512318e+00 -9.645226e+00 -6.914453e+00 -9.775162e+00 -7.179066e+00 -9.464113e+00 -7.407106e+00 -9.230019e+00
<VARIANCE> 8
 4.523808e+01 5.097940e+01 4.856208e+01 4.736618e+01 4.035222e+01 4.638199e+01 3.921497e+01 4.765508e+01
<GCONST> 4.525473e+01
<TRANSP> 6
 0.000000e+00 1.000000e+00 0.000000e+00 0.000000e+00 0.000000e+00 0.000000e+00
 0.000000e+00 5.000000e-01 5.000000e-01 0.000000e+00 0.000000e+00 0.000000e+00
 0.000000e+00 0.000000e+00 5.000000e-01 5.000000e-01 0.000000e+00 0.000000e+00
 0.000000e+00 0.000000e+00 0.000000e+00 5.000000e-01 5.000000e-01 0.000000e+00
 0.000000e+00 0.000000e+00 0.000000e+00 0.000000e+00 5.000000e-01 5.000000e-01
 0.000000e+00 0.000000e+00 0.000000e+00 0.000000e+00 0.000000e+00 0.000000e+00
<ENDHMM>
