~o
<STREAMINFO> 1 8
<VECSIZE> 8<NULLD><USER><DIAGC>
~h "o"
<BEGINHMM>
<NUMSTATES> 6
<STATE> 2
<MEAN> 8
 -5.988534e+00 -8.332205e+00 -7.281368e+00 -8.353211e+00 -7.225608e+00 -8.390182e+00 -7.193695e+00 -8.326876e+00
<VARIANCE> 8
 4.431639e+01 5.080090e+01 4.502497e+01 5.005434e+01 4.605368e+01 5.053161e+01 4.572039e+01 5.167775e+01
<GCONST> 4.566259e+01
<STATE> 3
<MEAN> 8
 -5.988534e+00 -8.332205e+00 -7.281368e+00 -8.353211e+00 -7.225608e+00 -8.390182e+00 -7.193695e+00 -8.326876e+00
<VARIANCE> 8
 4.431639e+01 5.080090e+01 4.502497e+01 5.005434e+01 4.605368e+01 5.053161e+01 4.572039e+01 5.167775e+01
<GCONST> 4.566259e+01
<STATE> 4
<MEAN> 8
 -5.988534e+00 -8.332205e+00 -7.281368e+00 -8.353211e+00 -7.225608e+00 -8.390182e+00 -7.193695e+00 -8.326876e+00
<VARIANCE> 8
 4.431639e+01 5.080090e+01 4.502497e+01 5.005434e+01 4.605368e+01 5.053161e+01 4.572039e+01 5.167775e+01
<GCONST> 4.566259e+01
<STATE> 5
<MEAN> 8
 -5.988534e+00 -8.332205e+00 -7.281368e+00 -8.353211e+00 -7.225608e+00 -8.390182e+00 -7.193695e+00 -8.326876e+00
<VARIANCE> 8
 4.431639e+01 5.080090e+01 4.502497e+01 5.005434e+01 4.605368e+01 5.053161e+01 4.572039e+01 5.167775e+01
<GCONST> 4.566259e+01
<TRANSP> 6
 0.000000e+00 1.000000e+00 0.000000e+00 0.000000e+00 0.000000e+00 0.000000e+00
 0.000000e+00 5.000000e-01 5.000000e-01 0.000000e+00 0.000000e+00 0.000000e+00
 0.000000e+00 0.000000e+00 5.000000e-01 5.000000e-01 0.000000e+00 0.000000e+00
 0.000000e+00 0.000000e+00 0.000000e+00 5.000000e-01 5.000000e-01 0.000000e+00
 0.000000e+00 0.000000e+00 0.000000e+00 0.000000e+00 5.000000e-01 5.000000e-01
 0.000000e+00 0.000000e+00 0.000000e+00 0.000000e+00 0.000000e+00 0.000000e+00
<ENDHMM>
