~o
<STREAMINFO> 1 8
<VECSIZE> 8<NULLD><USER><DIAGC>
~h "sil"
<BEGINHMM>
<NUMSTATES> 6
<STATE> 2
<MEAN> 8
 -5.713872e+00 -8.650664e+00 -7.377152e+00 -8.727864e+00 -7.234974e+00 -8.606355e+00 -7.144652e+00 -9.055084e+00
<VARIANCE> 8
 5.077901e+01 6.324322e+01 4.701260e+01 6.046282e+01 4.652896e+01 5.919983e+01 5.019980e+01 5.841291e+01
<GCONST> 4.663447e+01
<STATE> 3
<MEAN> 8
 -5.713872e+00 -8.650664e+00 -7.377152e+00 -8.727864e+00 -7.234974e+00 -8.606355e+00 -7.144652e+00 -9.055084e+00
<VARIANCE> 8
 5.077901e+01 6.324322e+01 4.701260e+01 6.046282e+01 4.652896e+01 5.919983e+01 5.019980e+01 5.841291e+01
<GCONST> 4.663447e+01
<STATE> 4
<MEAN> 8
 -5.713872e+00 -8.650664e+00 -7.377152e+00 -8.727864e+00 -7.234974e+00 -8.606355e+00 -7.144652e+00 -9.055084e+00
<VARIANCE> 8
 5.077901e+01 6.324322e+01 4.701260e+01 6.046282e+01 4.652896e+01 5.919983e+01 5.019980e+01 5.841291e+01
<GCONST> 4.663447e+01
<STATE> 5
<MEAN> 8
 -5.713872e+00 -8.650664e+00 -7.377152e+00 -8.727864e+00 -7.234974e+00 -8.606355e+00 -7.144652e+00 -9.055084e+00
<VARIANCE> 8
 5.077901e+01 6.324322e+01 4.701260e+01 6.046282e+01 4.652896e+01 5.919983e+01 5.019980e+01 5.841291e+01
<GCONST> 4.663447e+01
<TRANSP> 6
 0.000000e+00 1.000000e+00 0.000000e+00 0.000000e+00 0.000000e+00 0.000000e+00
 0.000000e+00 5.000000e-01 5.000000e-01 0.000000e+00 0.000000e+00 0.000000e+00
 0.000000e+00 0.000000e+00 5.000000e-01 5.000000e-01 0.000000e+00 0.000000e+00
 0.000000e+00 0.000000e+00 0.000000e+00 5.000000e-01 5.000000e-01 0.000000e+00
 0.000000e+00 0.000000e+00 0.000000e+00 0.000000e+00 5.000000e-01 5.000000e-01
 0.000000e+00 0.000000e+00 0.000000e+00 0.000000e+00 0.000000e+00 0.000000e+00
<ENDHMM>
