~o
<STREAMINFO> 1 8
<VECSIZE> 8<NULLD><USER><DIAGC>
~h "y"
<BEGINHMM>
<NUMSTATES> 6
<STATE> 2
<MEAN> 8
 -5.818003e+00 -8.404012e+00 -6.894691e+00 -8.381524e+00 -7.009234e+00 -8.323057e+00 -6.962684e+00 -8.350402e+00
<VARIANCE> 8
 4.401519e+01 4.449053e+01 4.627852e+01 4.669107e+01 4.705430e+01 4.618804e+01 4.718732e+01 4.610181e+01
<GCONST> 4.533006e+01
<STATE> 3
<MEAN> 8
 -5.818003e+00 -8.404012e+00 -6.894691e+00 -8.381524e+00 -7.009234e+00 -8.323057e+00 -6.962684e+00 -8.350402e+00
<VARIANCE> 8
 4.401519e+01 4.449053e+01 4.627852e+01 4.669107e+01 4.705430e+01 4.618804e+01 4.718732e+01 4.610181e+01
<GCONST> 4.533006e+01
<STATE> 4
<MEAN> 8
 -5.818003e+00 -8.404012e+00 -6.894691e+00 -8.381524e+00 -7.009234e+00 -8.323057e+00 -6.962684e+00 -8.350402e+00
<VARIANCE> 8
 4.401519e+01 4.449053e+01 4.627852e+01 4.669107e+01 4.705430e+01 4.618804e+01 4.718732e+01 4.610181e+01
<GCONST> 4.533006e+01
<STATE> 5
<MEAN> 8
 -5.818003e+00 -8.404012e+00 -6.894691e+00 -8.381524e+00 -7.009234e+00 -8.323057e+00 -6.962684e+00 -8.350402e+00
<VARIANCE> 8
 4.401519e+01 4.449053e+01 4.627852e+01 4.669107e+01 4.705430e+01 4.618804e+01 4.718732e+01 4.610181e+01
<GCONST> 4.533006e+01
<TRANSP> 6
 0.000000e+00 1.000000e+00 0.000000e+00 0.000000e+00 0.000000e+00 0.000000e+00
 0.000000e+00 5.000000e-01 5.000000e-01 0.000000e+00 0.000000e+00 0.000000e+00
 0.000000e+00 0.000000e+00 5.000000e-01 5.000000e-01 0.000000e+00 0.000000e+00
 0.000000e+00 0.000000e+00 0.000000e+00 5.000000e-01 5.000000e-01 0.000000e+00
 0.000000e+00 0.000000e+00 0.000000e+00 0.000000e+00 5.000000e-01 5.000000e-01
 0.000000e+00 0.000000e+00 0.000000e+00 0.000000e+00 0.000000e+00 0.000000e+00
<ENDHMM>
