~o
<STREAMINFO> 1 8
<VECSIZE> 8<NULLD><USER><DIAGC>
~h "z"
<BEGINHMM>
<NUMSTATES> 6
<STATE> 2
<MEAN> 8
 -5.452674e+00 -8.605952e+00 -6.086398e+00 -8.657071e+00 -6.314048e+00 -8.608369e+00 -6.398160e+00 -8.193734e+00
<VARIANCE> 8
 3.798956e+01 4.399556e+01 3.154140e+01 5.037663e+01 3.432394e+01 4.280999e+01 3.765273e+01 4.126579e+01
<GCONST> 4.413630e+01
<STATE> 3
<MEAN> 8
 -5.452674e+00 -8.605952e+00 -6.086398e+00 -8.657071e+00 -6.314048e+00 -8.608369e+00 -6.398160e+00 -8.193734e+00
<VARIANCE> 8
 3.798956e+01 4.399556e+01 3.154140e+01 5.037663e+01 3.432394e+01 4.280999e+01 3.765273e+01 4.126579e+01
<GCONST> 4.413630e+01
<STATE> 4
<MEAN> 8
 -5.452674e+00 -8.605952e+00 -6.086398e+00 -8.657071e+00 -6.314048e+00 -8.608369e+00 -6.398160e+00 -8.193734e+00
<VARIANCE> 8
 3.798956e+01 4.399556e+01 3.154140e+01 5.037663e+01 3.432394e+01 4.280999e+01 3.765273e+01 4.126579e+01
<GCONST> 4.413630e+01
<STATE> 5
<MEAN> 8
 -5.452674e+00 -8.605952e+00 -6.086398e+00 -8.657071e+00 -6.314048e+00 -8.608369e+00 -6.398160e+00 -8.193734e+00
<VARIANCE> 8
 3.798956e+01 4.399556e+01 3.154140e+01 5.037663e+01 3.432394e+01 4.280999e+01 3.765273e+01 4.126579e+01
<GCONST> 4.413630e+01
<TRANSP> 6
 0.000000e+00 1.000000e+00 0.000000e+00 0.000000e+00 0.000000e+00 0.000000e+00
 0.000000e+00 5.000000e-01 5.000000e-01 0.000000e+00 0.000000e+00 0.000000e+00
 0.000000e+00 0.000000e+00 5.000000e-01 5.000000e-01 0.000000e+00 0.000000e+00
 0.000000e+00 0.000000e+00 0.000000e+00 5.000000e-01 5.000000e-01 0.000000e+00
 0.000000e+00 0.000000e+00 0.000000e+00 0.000000e+00 5.000000e-01 5.000000e-01
 0.000000e+00 0.000000e+00 0.000000e+00 0.000000e+00 0.000000e+00 0.000000e+00
<ENDHMM>
