~o
<STREAMINFO> 1 8
<VECSIZE> 8<NULLD><USER><DIAGC>
~h "_"
<BEGINHMM>
<NUMSTATES> 6
<STATE> 2
<MEAN> 8
 -8.060387e+00 -1.235948e+01 -7.928759e+00 -1.256096e+01 -8.110904e+00 -1.216162e+01 -8.124547e+00 -1.236563e+01
<VARIANCE> 8
 5.622542e+01 5.107161e+01 6.431085e+01 4.887923e+01 6.109148e+01 4.622929e+01 5.717358e+01 4.155853e+01
<GCONST> 4.643788e+01
<STATE> 3
<MEAN> 8
 -4.689970e+00 -7.784564e+00 -4.699057e+00 -7.753340e+00 -4.859883e+00 -7.729431e+00 -4.775136e+00 -7.714994e+00
<VARIANCE> 8
 3.245190e+01 1.888359e+01 3.225166e+01 1.948435e+01 3.307253e+01 1.862535e+01 3.219850e+01 1.872942e+01
<GCONST> 4.038949e+01
<STATE> 4
<MEAN> 8
 -2.979151e+00 -1.105033e+01 -1.418984e+01 -8.414960e+00 -4.729052e+00 -1.073818e+01 -3.105231e+00 -1.204546e+01
<VARIANCE> 8
 2.374691e+00 1.087243e+02 3.510231e+01 7.887854e+00 4.887048e+01 1.908717e+01 3.900401e+00 1.135969e+02
<GCONST> 3.881221e+01
<STATE> 5
<MEAN> 8
 -7.424454e+00 -1.049095e+01 -6.317489e+00 -1.060223e+01 -6.589693e+00 -1.063941e+01 -6.992433e+00 -1.054045e+01
<VARIANCE> 8
 5.507949e+01 2.083407e+01 4.328400e+01 2.495364e+01 4.305053e+01 2.950597e+01 5.403408e+01 2.309057e+01
<GCONST> 4.300919e+01
<TRANSP> 6
 0.000000e+00 1.000000e+00 0.000000e+00 0.000000e+00 0.000000e+00 0.000000e+00
 0.000000e+00 8.453327e-01 1.546673e-01 0.000000e+00 0.000000e+00 0.000000e+00
 0.000000e+00 0.000000e+00 9.742938e-01 2.570624e-02 0.000000e+00 0.000000e+00
 0.000000e+00 0.000000e+00 0.000000e+00 0.000000e+00 1.000000e+00 0.000000e+00
 0.000000e+00 0.000000e+00 0.000000e+00 0.000000e+00 8.972459e-01 1.027542e-01
 0.000000e+00 0.000000e+00 0.000000e+00 0.000000e+00 0.000000e+00 0.000000e+00
<ENDHMM>
~h "a"
<BEGINHMM>
<NUMSTATES> 6
<STATE> 2
<MEAN> 8
 -6.771343e+00 -1.050554e+01 -6.202692e+00 -1.083947e+01 -7.374279e+00 -9.794448e+00 -6.547681e+00 -1.062327e+01
<VARIANCE> 8
 5.469463e+01 4.442230e+01 5.764116e+01 4.832851e+01 4.382803e+01 3.582760e+01 5.189108e+01 3.038848e+01
<GCONST> 4.515298e+01
<STATE> 3
<MEAN> 8
 -3.988532e+00 -6.152686e+00 -4.129317e+00 -6.150252e+00 -4.118658e+00 -6.146017e+00 -4.143972e+00 -6.082050e+00
<VARIANCE> 8
 2.015544e+01 1.596364e+01 2.004576e+01 1.617444e+01 1.996174e+01 1.611657e+01 1.960110e+01 1.600144e+01
<GCONST> 3.778019e+01
<STATE> 4
<MEAN> 8
 -8.778418e+00 -1.544063e+01 -8.908344e+00 -1.528773e+01 -8.867913e+00 -1.540021e+01 -9.023446e+00 -1.561649e+01
<VARIANCE> 8
 6.440276e+01 1.213517e+02 6.313618e+01 1.195823e+02 6.284015e+01 1.203432e+02 6.540052e+01 1.172956e+02
<GCONST> 5.047234e+01
<STATE> 5
<MEAN> 8
 -5.820151e+00 -1.026245e+01 -5.769136e+00 -1.024029e+01 -5.868995e+00 -1.017225e+01 -5.673858e+00 -1.012602e+01
<VARIANCE> 8
 3.596501e+01 2.597860e+01 3.711074e+01 2.806485e+01 3.753839e+01 2.766306e+01 3.620669e+01 2.646280e+01
<GCONST> 4.230171e+01
<TRANSP> 6
 0.000000e+00 1.000000e+00 0.000000e+00 0.000000e+00 0.000000e+00 0.000000e+00
 0.000000e+00 6.120663e-01 3.879338e-01 0.000000e+00 0.000000e+00 0.000000e+00
 0.000000e+00 0.000000e+00 9.737212e-01 2.627883e-02 0.000000e+00 0.000000e+00
 0.000000e+00 0.000000e+00 0.000000e+00 9.000631e-01 9.993685e-02 0.000000e+00
 0.000000e+00 0.000000e+00 0.000000e+00 0.000000e+00 9.245499e-01 7.545012e-02
 0.000000e+00 0.000000e+00 0.000000e+00 0.000000e+00 0.000000e+00 0.000000e+00
<ENDHMM>
~h "b"
<BEGINHMM>
<NUMSTATES> 6
<STATE> 2
<MEAN> 8
 -1.020229e+01 -1.060241e+01 -1.096959e+01 -1.075961e+01 -1.077927e+01 -1.071738e+01 -1.110024e+01 -1.076189e+01
<VARIANCE> 8
 1.012664e+02 5.362388e+01 9.729057e+01 5.167507e+01 9.771652e+01 5.337632e+01 1.021179e+02 5.287084e+01
<GCONST> 4.897886e+01
<STATE> 3
<MEAN> 8
 -6.352726e+00 -9.716193e+00 -5.817912e+00 -9.083627e+00 -1.236940e+01 -9.075862e+00 -5.600265e+00 -1.029816e+01
<VARIANCE> 8
 2.609706e+01 2.970507e+01 2.210402e+01 3.186955e+01 9.737697e+01 1.755740e+01 6.901901e+01 1.838454e+01
<GCONST> 4.250352e+01
<STATE> 4
<MEAN> 8
 -3.669003e+00 -6.522528e+00 -1.910326e+01 -9.538508e+00 2.261271e+00 -1.136011e+01 -4.985776e+00 -1.439429e+00
<VARIANCE> 8
 2.901765e+00 4.345571e+01 4.866880e+01 1.058058e+01 2.763721e+01 7.061067e+00 3.665909e+00 5.734693e+01
<GCONST> 3.640609e+01
<STATE> 5
<MEAN> 8
 -8.807912e+00 -8.778512e+00 -7.758806e+00 -8.581593e+00 -8.229229e+00 -8.493816e+00 -8.650636e+00 -8.743857e+00
<VARIANCE> 8
 8.801702e+01 2.209064e+01 8.399198e+01 2.560711e+01 7.396893e+01 2.898340e+01 7.895010e+01 2.204213e+01
<GCONST> 4.508143e+01
<TRANSP> 6
 0.000000e+00 1.000000e+00 0.000000e+00 0.000000e+00 0.000000e+00 0.000000e+00
 0.000000e+00 9.428027e-01 5.719728e-02 0.000000e+00 0.000000e+00 0.000000e+00
 0.000000e+00 0.000000e+00 5.593606e-01 4.406395e-01 0.000000e+00 0.000000e+00
 0.000000e+00 0.000000e+00 0.000000e+00 0.000000e+00 1.000000e+00 0.000000e+00
 0.000000e+00 0.000000e+00 0.000000e+00 0.000000e+00 9.405488e-01 5.945119e-02
 0.000000e+00 0.000000e+00 0.000000e+00 0.000000e+00 0.000000e+00 0.000000e+00
<ENDHMM>
~h "c"
<BEGINHMM>
<NUMSTATES> 6
<STATE> 2
<MEAN> 8
 -8.086830e+00 -9.738526e+00 -1.049702e+01 -9.633620e+00 -1.039275e+01 -9.740170e+00 -1.031998e+01 -9.674314e+00
<VARIANCE> 8
 8.262368e+01 7.610991e+01 9.311575e+01 7.477118e+01 1.000601e+02 7.691729e+01 9.779021e+01 7.991882e+01
<GCONST> 5.021011e+01
<STATE> 3
<MEAN> 8
 -5.470532e+00 -5.209650e+00 -7.418633e+00 -5.136807e+00 -7.213619e+00 -5.387732e+00 -7.689922e+00 -5.119670e+00
<VARIANCE> 8
 3.666500e+01 3.457521e+01 1.947112e+01 3.602948e+01 1.909679e+01 4.097061e+01 1.987210e+01 3.443118e+01
<GCONST> 4.159190e+01
<STATE> 4
<MEAN> 8
 -6.468029e+00 -1.091282e+01 -2.783839e+00 -1.153314e+01 -1.387388e+01 -8.668933e+00 -3.591614e+00 -1.197789e+01
<VARIANCE> 8
 4.567544e+01 2.142546e+01 4.496843e+00 1.005653e+02 4.493201e+01 1.021801e+01 5.728040e+01 1.189667e+01
<GCONST> 4.035686e+01
<STATE> 5
<MEAN> 8
 -6.591672e+00 -7.277952e+00 -1.126912e+01 -7.411248e+00 -1.055951e+01 -7.329367e+00 -1.084191e+01 -7.311503e+00
<VARIANCE> 8
 4.290473e+01 5.195128e+01 4.805273e+01 4.644284e+01 4.856231e+01 4.784705e+01 4.567161e+01 5.043221e+01
<GCONST> 4.561579e+01
<TRANSP> 6
 0.000000e+00 1.000000e+00 0.000000e+00 0.000000e+00 0.000000e+00 0.000000e+00
 0.000000e+00 8.720271e-01 1.279729e-01 0.000000e+00 0.000000e+00 0.000000e+00
 0.000000e+00 0.000000e+00 9.335535e-01 6.644654e-02 0.000000e+00 0.000000e+00
 0.000000e+00 0.000000e+00 0.000000e+00 0.000000e+00 1.000000e+00 0.000000e+00
 0.000000e+00 0.000000e+00 0.000000e+00 0.000000e+00 9.144075e-01 8.559249e-02
 0.000000e+00 0.000000e+00 0.000000e+00 0.000000e+00 0.000000e+00 0.000000e+00
<ENDHMM>
~h "d"
<BEGINHMM>
<NUMSTATES> 6
<STATE> 2
<MEAN> 8
 -6.269458e+00 -9.852034e+00 -7.311260e+00 -1.043132e+01 -7.194635e+00 -9.833740e+00 -6.942264e+00 -1.068571e+01
<VARIANCE> 8
 3.662648e+01 6.648203e+01 5.355715e+01 5.650502e+01 5.319170e+01 5.244864e+01 4.731646e+01 5.200822e+01
<GCONST> 4.625779e+01
<STATE> 3
<MEAN> 8
 -5.603073e+00 -8.733978e+00 -5.502353e+00 -8.759624e+00 -5.768914e+00 -8.721132e+00 -5.603839e+00 -8.767168e+00
<VARIANCE> 8
 3.005964e+01 1.803090e+01 3.014459e+01 1.846718e+01 3.220295e+01 1.783277e+01 3.112721e+01 1.759451e+01
<GCONST> 3.997905e+01
<STATE> 4
<MEAN> 8
 -3.086457e+00 -1.005118e+01 -1.456925e+01 -9.185552e+00 -8.648832e-01 -1.144460e+01 -4.011576e+00 -7.358898e+00
<VARIANCE> 8
 2.634602e+00 7.517289e+01 4.421735e+01 1.060335e+01 4.972231e+01 9.645982e+00 4.185447e+00 1.081544e+02
<GCONST> 3.843000e+01
<STATE> 5
<MEAN> 8
 -7.182864e+00 -1.052264e+01 -5.780299e+00 -1.045012e+01 -6.377042e+00 -1.063147e+01 -6.839765e+00 -1.048142e+01
<VARIANCE> 8
 5.297689e+01 2.018819e+01 3.686719e+01 2.651602e+01 3.202186e+01 3.202868e+01 4.560568e+01 2.241954e+01
<GCONST> 4.242606e+01
<TRANSP> 6
 0.000000e+00 1.000000e+00 0.000000e+00 0.000000e+00 0.000000e+00 0.000000e+00
 0.000000e+00 6.804264e-01 3.195735e-01 0.000000e+00 0.000000e+00 0.000000e+00
 0.000000e+00 0.000000e+00 9.629413e-01 3.705866e-02 0.000000e+00 0.000000e+00
 0.000000e+00 0.000000e+00 0.000000e+00 0.000000e+00 1.000000e+00 0.000000e+00
 0.000000e+00 0.000000e+00 0.000000e+00 0.000000e+00 8.699027e-01 1.300974e-01
 0.000000e+00 0.000000e+00 0.000000e+00 0.000000e+00 0.000000e+00 0.000000e+00
<ENDHMM>
~h "e"
<BEGINHMM>
<NUMSTATES> 6
<STATE> 2
<MEAN> 8
 -5.685129e+00 -5.774613e+00 -8.822721e+00 -5.804578e+00 -8.761341e+00 -5.862443e+00 -8.832132e+00 -5.892833e+00
<VARIANCE> 8
 4.052523e+01 4.527616e+01 2.547298e+01 4.613805e+01 2.604987e+01 4.633464e+01 2.713556e+01 4.578994e+01
<GCONST> 4.350779e+01
<STATE> 3
<MEAN> 8
 -8.946629e+00 -1.351578e+01 -9.604999e+00 -1.335065e+01 -1.016875e+01 -1.343578e+01 -9.583153e+00 -1.359634e+01
<VARIANCE> 8
 7.750824e+01 1.106171e+02 8.766510e+01 1.065211e+02 9.634798e+01 1.076158e+02 9.561131e+01 1.110578e+02
<GCONST> 5.141822e+01
<STATE> 4
<MEAN> 8
 -6.167491e+00 -8.494184e+00 -6.821758e+00 -1.009090e+01 -4.759408e+00 -9.071192e+00 -5.861024e+00 -7.947618e+00
<VARIANCE> 8
 1.124080e+01 2.011037e+01 9.081976e+01 1.830006e+01 5.723955e+01 3.664618e+01 1.257571e+01 2.560034e+01
<GCONST> 4.096251e+01
<STATE> 5
<MEAN> 8
 -6.550421e+00 -1.070000e+01 -5.540659e+00 -9.020600e+00 -7.098937e+00 -9.420740e+00 -7.416588e+00 -9.871556e+00
<VARIANCE> 8
 9.857812e+01 2.797948e+01 3.923052e+01 5.786955e+01 2.092093e+01 3.565271e+01 5.313882e+01 2.951211e+01
<GCONST> 4.432526e+01
<TRANSP> 6
 0.000000e+00 1.000000e+00 0.000000e+00 0.000000e+00 0.000000e+00 0.000000e+00
 0.000000e+00 9.393059e-01 6.069407e-02 0.000000e+00 0.000000e+00 0.000000e+00
 0.000000e+00 0.000000e+00 8.475147e-01 1.524853e-01 0.000000e+00 0.000000e+00
 0.000000e+00 0.000000e+00 0.000000e+00 6.681070e-01 3.318930e-01 0.000000e+00
 0.000000e+00 0.000000e+00 0.000000e+00 0.000000e+00 6.594419e-01 3.405581e-01
 0.000000e+00 0.000000e+00 0.000000e+00 0.000000e+00 0.000000e+00 0.000000e+00
<ENDHMM>
~h "f"
<BEGINHMM>
<NUMSTATES> 6
<STATE> 2
<MEAN> 8
 -7.112135e+00 -9.097112e+00 -1.061719e+01 -9.488722e+00 -4.975219e+00 -1.197460e+01 -5.236584e+00 -7.608703e+00
<VARIANCE> 8
 3.576410e+01 3.140734e+01 7.749747e+01 2.574981e+01 7.792008e+01 2.458103e+01 1.760815e+01 6.171815e+01
<GCONST> 4.387428e+01
<STATE> 3
<MEAN> 8
 -1.730911e+01 -8.572033e+00 4.561041e+00 -1.129570e+01 -5.140691e+00 3.131462e+00 -1.659353e+01 -8.303346e+00
<VARIANCE> 8
 5.791637e+01 7.797081e+00 2.165672e+01 7.636576e+00 3.344810e+00 7.286602e+01 3.568945e+01 7.405518e+00
<GCONST> 3.699714e+01
<STATE> 4
<MEAN> 8
 -6.163462e+00 -1.020244e+01 -5.722817e+00 -1.007265e+01 -8.684248e+00 -9.438188e+00 -9.252472e+00 -1.024325e+01
<VARIANCE> 8
 8.104917e+01 3.808149e+01 2.377287e+01 7.817233e+01 3.697094e+01 1.840484e+01 8.111758e+01 2.324747e+01
<GCONST> 4.433010e+01
<STATE> 5
<MEAN> 8
 -4.430431e+00 -8.685946e+00 -6.269763e+00 -7.644125e+00 -7.005005e+00 -8.554629e+00 -4.553605e+00 -8.530740e+00
<VARIANCE> 8
 3.722461e+01 4.203554e+01 4.076614e+01 3.178987e+01 6.538609e+01 2.838816e+01 4.668054e+01 3.487751e+01
<GCONST> 4.414695e+01
<TRANSP> 6
 0.000000e+00 1.000000e+00 0.000000e+00 0.000000e+00 0.000000e+00 0.000000e+00
 0.000000e+00 7.354311e-01 2.645689e-01 0.000000e+00 0.000000e+00 0.000000e+00
 0.000000e+00 0.000000e+00 0.000000e+00 1.000000e+00 0.000000e+00 0.000000e+00
 0.000000e+00 0.000000e+00 0.000000e+00 7.207630e-01 2.792370e-01 0.000000e+00
 0.000000e+00 0.000000e+00 0.000000e+00 0.000000e+00 7.782644e-01 2.217355e-01
 0.000000e+00 0.000000e+00 0.000000e+00 0.000000e+00 0.000000e+00 0.000000e+00
<ENDHMM>
~h "g"
<BEGINHMM>
<NUMSTATES> 6
<STATE> 2
<MEAN> 8
 -7.471321e+00 -1.331164e+01 -7.562138e+00 -1.327729e+01 -7.423320e+00 -1.331868e+01 -7.394307e+00 -1.338903e+01
<VARIANCE> 8
 3.869595e+01 5.936130e+01 3.696052e+01 5.800026e+01 3.710912e+01 5.948987e+01 3.777298e+01 6.082079e+01
<GCONST> 4.555189e+01
<STATE> 3
<MEAN> 8
 -1.035478e+01 -9.155282e+00 -5.293924e+00 -9.429605e+00 -2.510607e+00 -1.412575e+01 -1.472554e+01 -9.180371e+00
<VARIANCE> 8
 4.210779e+01 1.116738e+01 2.946784e+01 3.033159e+01 3.726617e+00 1.116700e+02 3.274384e+01 8.494511e+00
<GCONST> 3.931092e+01
<STATE> 4
<MEAN> 8
 -3.947260e+00 -1.204871e+01 -3.589657e+00 -1.388853e+01 -1.291547e+01 -1.035465e+01 -1.296617e+00 -1.165921e+01
<VARIANCE> 8
 3.593539e+01 1.657956e+01 5.727467e+00 1.119113e+02 3.750443e+01 1.168076e+01 4.291760e+01 1.268510e+01
<GCONST> 3.993800e+01
<STATE> 5
<MEAN> 8
 -5.117590e+00 -9.670734e+00 -5.180662e+00 -9.686180e+00 -5.077621e+00 -9.623665e+00 -5.180087e+00 -9.612478e+00
<VARIANCE> 8
 3.293127e+01 2.421786e+01 3.565662e+01 2.322080e+01 3.607654e+01 2.274295e+01 3.306503e+01 2.318138e+01
<GCONST> 4.145524e+01
<TRANSP> 6
 0.000000e+00 1.000000e+00 0.000000e+00 0.000000e+00 0.000000e+00 0.000000e+00
 0.000000e+00 9.617242e-01 3.827580e-02 0.000000e+00 0.000000e+00 0.000000e+00
 0.000000e+00 0.000000e+00 0.000000e+00 1.000000e+00 0.000000e+00 0.000000e+00
 0.000000e+00 0.000000e+00 0.000000e+00 5.488693e-03 9.945113e-01 0.000000e+00
 0.000000e+00 0.000000e+00 0.000000e+00 0.000000e+00 9.573501e-01 4.264989e-02
 0.000000e+00 0.000000e+00 0.000000e+00 0.000000e+00 0.000000e+00 0.000000e+00
<ENDHMM>
~h "h"
<BEGINHMM>
<NUMSTATES> 6
<STATE> 2
<MEAN> 8
 -5.123531e+00 -9.453172e+00 -5.172960e+00 -9.445196e+00 -4.956289e+00 -9.740611e+00 -5.414411e+00 -9.540977e+00
<VARIANCE> 8
 2.872359e+01 2.780599e+01 2.816556e+01 2.912393e+01 2.698287e+01 3.224504e+01 3.146082e+01 2.803643e+01
<GCONST> 4.164646e+01
<STATE> 3
<MEAN> 8
 -5.287322e+00 -1.201089e+01 -3.364162e+00 -1.382697e+01 -1.438850e+01 -9.574956e+00 -2.382147e+00 -1.205973e+01
<VARIANCE> 8
 2.566142e+01 1.733473e+01 6.505778e+00 1.034533e+02 3.260549e+01 1.538891e+01 2.984380e+01 1.024172e+01
<GCONST> 3.925310e+01
<STATE> 4
<MEAN> 8
 -4.252588e+00 -1.101278e+01 -1.174239e+01 -9.843959e+00 3.195085e-01 -1.044417e+01 -6.077197e+00 -6.875122e+00
<VARIANCE> 8
 5.967726e+00 1.283912e+02 3.390622e+01 1.517289e+01 3.705531e+01 1.183873e+01 7.915915e+00 8.335683e+01
<GCONST> 4.016336e+01
<STATE> 5
<MEAN> 8
 -7.530650e+00 -1.347411e+01 -7.291389e+00 -1.349695e+01 -7.540843e+00 -1.346583e+01 -7.525251e+00 -1.358281e+01
<VARIANCE> 8
 3.198682e+01 6.033687e+01 3.432196e+01 6.020452e+01 2.990895e+01 6.132989e+01 3.055660e+01 6.036900e+01
<GCONST> 4.493630e+01
<TRANSP> 6
 0.000000e+00 1.000000e+00 0.000000e+00 0.000000e+00 0.000000e+00 0.000000e+00
 0.000000e+00 9.340364e-01 6.596361e-02 0.000000e+00 0.000000e+00 0.000000e+00
 0.000000e+00 0.000000e+00 0.000000e+00 1.000000e+00 0.000000e+00 0.000000e+00
 0.000000e+00 0.000000e+00 0.000000e+00 0.000000e+00 1.000000e+00 0.000000e+00
 0.000000e+00 0.000000e+00 0.000000e+00 0.000000e+00 9.542006e-01 4.579945e-02
 0.000000e+00 0.000000e+00 0.000000e+00 0.000000e+00 0.000000e+00 0.000000e+00
<ENDHMM>
~h "i"
<BEGINHMM>
<NUMSTATES> 6
<STATE> 2
<MEAN> 8
 -8.900384e+00 -1.462248e+01 -9.008389e+00 -1.462408e+01 -9.160409e+00 -1.453587e+01 -9.026648e+00 -1.463143e+01
<VARIANCE> 8
 6.609187e+01 7.955323e+01 6.606126e+01 8.007768e+01 6.863030e+01 8.025140e+01 6.850819e+01 7.816678e+01
<GCONST> 4.904377e+01
<STATE> 3
<MEAN> 8
 -5.541779e+00 -5.737241e+00 -7.217000e+00 -5.704188e+00 -6.731013e+00 -5.999230e+00 -7.812902e+00 -5.370881e+00
<VARIANCE> 8
 3.652533e+01 3.303634e+01 2.570691e+01 3.583377e+01 2.675366e+01 4.078941e+01 2.351224e+01 3.256562e+01
<GCONST> 4.226015e+01
<STATE> 4
<MEAN> 8
 -4.524793e+00 -1.121372e+01 -3.273094e+00 -1.075694e+01 -1.502214e+01 -8.499846e+00 -3.669225e+00 -1.146925e+01
<VARIANCE> 8
 4.065064e+01 2.664590e+01 6.580301e+00 1.116618e+02 4.804336e+01 9.796794e+00 3.924142e+01 2.630078e+01
<GCONST> 4.138371e+01
<STATE> 5
<MEAN> 8
 -6.239216e+00 -9.847301e+00 -8.207620e+00 -9.829062e+00 -5.288587e+00 -9.773425e+00 -5.752392e+00 -1.023354e+01
<VARIANCE> 8
 3.589563e+01 5.362693e+01 7.681313e+01 2.175801e+01 3.298080e+01 3.538037e+01 2.753644e+01 4.819664e+01
<GCONST> 4.393993e+01
<TRANSP> 6
 0.000000e+00 1.000000e+00 0.000000e+00 0.000000e+00 0.000000e+00 0.000000e+00
 0.000000e+00 9.333212e-01 6.667873e-02 0.000000e+00 0.000000e+00 0.000000e+00
 0.000000e+00 0.000000e+00 8.719945e-01 1.280055e-01 0.000000e+00 0.000000e+00
 0.000000e+00 0.000000e+00 0.000000e+00 1.958570e-03 9.980415e-01 0.000000e+00
 0.000000e+00 0.000000e+00 0.000000e+00 0.000000e+00 7.182221e-01 2.817779e-01
 0.000000e+00 0.000000e+00 0.000000e+00 0.000000e+00 0.000000e+00 0.000000e+00
<ENDHMM>
~h "j"
<BEGINHMM>
<NUMSTATES> 6
<STATE> 2
<MEAN> 8
 -6.904150e+00 -1.173819e+01 -7.096198e+00 -1.175823e+01 -6.867797e+00 -1.167620e+01 -6.812774e+00 -1.173677e+01
<VARIANCE> 8
 3.892122e+01 3.512293e+01 4.084605e+01 3.416887e+01 4.315569e+01 3.480167e+01 4.055755e+01 3.734710e+01
<GCONST> 4.380199e+01
<STATE> 3
<MEAN> 8
 -1.246857e+01 -7.112761e+00 -8.651620e+00 -1.954507e+00 -2.994801e+00 -1.932428e+01 -1.050308e+01 -6.469965e+00
<VARIANCE> 8
 9.043668e+01 7.712014e+00 3.768629e+00 1.007909e+01 2.859937e+00 4.590802e+01 1.389870e+01 1.337463e+01
<GCONST> 3.499022e+01
<STATE> 4
<MEAN> 8
 -7.725014e+00 -9.568172e+00 -2.649082e+00 -1.447542e+01 -7.127316e+00 -8.225249e+00 -9.389697e+00 -1.072633e+01
<VARIANCE> 8
 2.576845e+01 3.020270e+01 2.719913e+01 3.350326e+01 2.467571e+01 2.429428e+01 4.783134e+01 1.420558e+01
<GCONST> 4.109230e+01
<STATE> 5
<MEAN> 8
 -5.478602e+00 -1.051443e+01 -5.855601e+00 -1.011090e+01 -5.897273e+00 -1.023927e+01 -5.505711e+00 -1.023094e+01
<VARIANCE> 8
 2.610308e+01 2.477402e+01 2.553181e+01 2.268605e+01 2.720518e+01 2.320226e+01 2.555831e+01 2.547645e+01
<GCONST> 4.046291e+01
<TRANSP> 6
 0.000000e+00 1.000000e+00 0.000000e+00 0.000000e+00 0.000000e+00 0.000000e+00
 0.000000e+00 9.709402e-01 2.905987e-02 0.000000e+00 0.000000e+00 0.000000e+00
 0.000000e+00 0.000000e+00 3.537956e-03 9.964620e-01 0.000000e+00 0.000000e+00
 0.000000e+00 0.000000e+00 0.000000e+00 6.652215e-01 3.347785e-01 0.000000e+00
 0.000000e+00 0.000000e+00 0.000000e+00 0.000000e+00 9.477694e-01 5.223060e-02
 0.000000e+00 0.000000e+00 0.000000e+00 0.000000e+00 0.000000e+00 0.000000e+00
<ENDHMM>
~h "k"
<BEGINHMM>
<NUMSTATES> 6
<STATE> 2
<MEAN> 8
 -7.700512e+00 -1.220307e+01 -7.631624e+00 -1.227067e+01 -7.686949e+00 -1.226115e+01 -7.627299e+00 -1.222614e+01
<VARIANCE> 8
 5.725829e+01 3.302393e+01 5.529472e+01 3.367877e+01 5.674801e+01 3.388096e+01 5.819773e+01 3.274677e+01
<GCONST> 4.489149e+01
<STATE> 3
<MEAN> 8
 -4.968190e+00 -8.091750e+00 -4.901124e+00 -8.046809e+00 -4.771379e+00 -8.161350e+00 -5.079818e+00 -8.030861e+00
<VARIANCE> 8
 2.936870e+01 1.877609e+01 2.977471e+01 1.942880e+01 2.980962e+01 2.059948e+01 3.083482e+01 1.915693e+01
<GCONST> 4.017735e+01
<STATE> 4
<MEAN> 8
 -7.608260e+00 -8.899091e+00 -2.745523e+00 -1.514231e+01 -1.558650e+01 -9.287077e+00 -5.436871e+00 -1.255251e+01
<VARIANCE> 8
 2.423474e+01 2.990425e+01 3.170898e+00 8.201628e+01 4.546421e+01 9.289135e+00 4.725364e+01 7.334477e+00
<GCONST> 3.874362e+01
<STATE> 5
<MEAN> 8
 -4.793436e+00 -1.099871e+01 -8.007380e+00 -1.027291e+01 -4.800095e+00 -9.687700e+00 -5.376553e+00 -9.977100e+00
<VARIANCE> 8
 2.684758e+01 5.927331e+01 8.595815e+01 1.927544e+01 3.449699e+01 2.480690e+01 1.812542e+01 4.376097e+01
<GCONST> 4.291610e+01
<TRANSP> 6
 0.000000e+00 1.000000e+00 0.000000e+00 0.000000e+00 0.000000e+00 0.000000e+00
 0.000000e+00 9.595820e-01 4.041804e-02 0.000000e+00 0.000000e+00 0.000000e+00
 0.000000e+00 0.000000e+00 9.641066e-01 3.589344e-02 0.000000e+00 0.000000e+00
 0.000000e+00 0.000000e+00 0.000000e+00 1.709843e-02 9.829015e-01 0.000000e+00
 0.000000e+00 0.000000e+00 0.000000e+00 0.000000e+00 6.582978e-01 3.417021e-01
 0.000000e+00 0.000000e+00 0.000000e+00 0.000000e+00 0.000000e+00 0.000000e+00
<ENDHMM>
~h "l"
<BEGINHMM>
<NUMSTATES> 6
<STATE> 2
<MEAN> 8
 -6.847069e+00 -1.088812e+01 -7.498474e+00 -1.059665e+01 -7.310826e+00 -1.063472e+01 -6.908202e+00 -1.123202e+01
<VARIANCE> 8
 6.792457e+01 5.413628e+01 6.036121e+01 4.815838e+01 5.842020e+01 4.590069e+01 6.577477e+01 5.545353e+01
<GCONST> 4.698368e+01
<STATE> 3
<MEAN> 8
 -1.167218e+01 -8.873066e+00 -6.043642e+00 -1.040152e+01 -3.373262e+00 -1.253335e+01 -1.616627e+01 -9.468193e+00
<VARIANCE> 8
 4.047893e+01 1.005957e+01 3.446402e+01 2.489755e+01 3.652800e+00 1.236199e+02 4.937361e+01 9.662453e+00
<GCONST> 3.974738e+01
<STATE> 4
<MEAN> 8
 -3.681192e+00 -1.174671e+01 -3.768142e+00 -9.587226e+00 -1.275236e+01 -9.661713e+00 2.825013e-01 -1.169329e+01
<VARIANCE> 8
 2.790731e+01 1.588431e+01 4.018335e+00 6.441413e+01 5.909811e+01 1.081273e+01 3.750380e+01 9.197399e+00
<GCONST> 3.865672e+01
<STATE> 5
<MEAN> 8
 -5.122829e+00 -8.710624e+00 -5.180867e+00 -9.054210e+00 -4.841557e+00 -8.984118e+00 -5.311960e+00 -8.575251e+00
<VARIANCE> 8
 3.497948e+01 3.334727e+01 4.354733e+01 3.436840e+01 4.402943e+01 3.647902e+01 3.416179e+01 3.480016e+01
<GCONST> 4.353807e+01
<TRANSP> 6
 0.000000e+00 1.000000e+00 0.000000e+00 0.000000e+00 0.000000e+00 0.000000e+00
 0.000000e+00 9.136527e-01 8.634735e-02 0.000000e+00 0.000000e+00 0.000000e+00
 0.000000e+00 0.000000e+00 0.000000e+00 1.000000e+00 0.000000e+00 0.000000e+00
 0.000000e+00 0.000000e+00 0.000000e+00 8.109646e-05 9.999189e-01 0.000000e+00
 0.000000e+00 0.000000e+00 0.000000e+00 0.000000e+00 9.329360e-01 6.706405e-02
 0.000000e+00 0.000000e+00 0.000000e+00 0.000000e+00 0.000000e+00 0.000000e+00
<ENDHMM>
~h "m"
<BEGINHMM>
<NUMSTATES> 6
<STATE> 2
<MEAN> 8
 -7.000210e+00 -7.155235e+00 -7.358723e+00 -8.733756e+00 -5.325481e+00 -9.196978e+00 -8.752574e+00 -9.353411e+00
<VARIANCE> 8
 5.332788e+01 3.260737e+01 2.479056e+01 3.560630e+01 2.613390e+01 5.843734e+01 8.083724e+01 4.166232e+01
<GCONST> 4.440022e+01
<STATE> 3
<MEAN> 8
 -3.943801e+00 -1.272830e+01 -3.014380e+00 -9.153180e+00 -1.451588e+01 -9.541963e+00 4.503700e-01 -1.189458e+01
<VARIANCE> 8
 1.931830e+01 7.200172e+00 5.057688e+00 5.574868e+01 4.317518e+01 1.047631e+01 1.713434e+01 6.714414e+00
<GCONST> 3.613966e+01
<STATE> 4
<MEAN> 8
 -5.124725e+00 -6.525477e+00 -8.546909e+00 -8.371587e+00 -1.127202e+00 -9.102070e+00 -6.124896e+00 -5.149097e+00
<VARIANCE> 8
 9.882775e+00 2.805931e+01 5.837382e+01 1.649195e+01 6.452667e+01 2.362103e+01 1.177213e+01 3.597583e+01
<GCONST> 4.057567e+01
<STATE> 5
<MEAN> 8
 -7.908408e+00 -1.120672e+01 -6.337879e+00 -1.125310e+01 -7.567955e+00 -1.080769e+01 -7.918346e+00 -1.111588e+01
<VARIANCE> 8
 5.117199e+01 3.672737e+01 6.219484e+01 5.021500e+01 4.740827e+01 4.976507e+01 4.239408e+01 3.126068e+01
<GCONST> 4.524379e+01
<TRANSP> 6
 0.000000e+00 1.000000e+00 0.000000e+00 0.000000e+00 0.000000e+00 0.000000e+00
 0.000000e+00 6.111481e-01 3.888519e-01 0.000000e+00 0.000000e+00 0.000000e+00
 0.000000e+00 0.000000e+00 0.000000e+00 1.000000e+00 0.000000e+00 0.000000e+00
 0.000000e+00 0.000000e+00 0.000000e+00 4.533283e-01 5.466717e-01 0.000000e+00
 0.000000e+00 0.000000e+00 0.000000e+00 0.000000e+00 7.423633e-01 2.576367e-01
 0.000000e+00 0.000000e+00 0.000000e+00 0.000000e+00 0.000000e+00 0.000000e+00
<ENDHMM>
~h "n"
<BEGINHMM>
<NUMSTATES> 6
<STATE> 2
<MEAN> 8
 -5.967450e+00 -1.174816e+01 -7.186890e+00 -1.095050e+01 -7.308146e+00 -1.138514e+01 -6.304881e+00 -1.184936e+01
<VARIANCE> 8
 5.097738e+01 5.204425e+01 4.043015e+01 4.988955e+01 3.437303e+01 4.529557e+01 3.719238e+01 5.567303e+01
<GCONST> 4.518196e+01
<STATE> 3
<MEAN> 8
 -1.497367e+01 -8.962375e+00 -4.710214e+00 -1.289650e+01 -2.550980e+00 -1.162292e+01 -1.570257e+01 -9.618960e+00
<VARIANCE> 8
 3.172747e+01 9.094182e+00 2.411847e+01 7.618184e+00 3.445742e+00 6.505890e+01 3.946579e+01 8.495014e+00
<GCONST> 3.680869e+01
<STATE> 4
<MEAN> 8
 -2.536538e-01 -1.227594e+01 -3.611499e+00 -7.600362e+00 -1.049826e+01 -9.090089e+00 3.664378e+00 -1.103171e+01
<VARIANCE> 8
 1.656240e+01 8.209683e+00 3.428257e+00 4.804875e+01 2.647820e+01 8.447465e+00 2.805627e+01 8.068141e+00
<GCONST> 3.555206e+01
<STATE> 5
<MEAN> 8
 -5.603622e+00 -8.603531e+00 -5.694441e+00 -9.185491e+00 -5.131716e+00 -9.072983e+00 -5.708183e+00 -8.903709e+00
<VARIANCE> 8
 2.974771e+01 2.757501e+01 3.786952e+01 2.548304e+01 4.452336e+01 2.916616e+01 3.395160e+01 2.895228e+01
<GCONST> 4.234445e+01
<TRANSP> 6
 0.000000e+00 1.000000e+00 0.000000e+00 0.000000e+00 0.000000e+00 0.000000e+00
 0.000000e+00 8.497301e-01 1.502698e-01 0.000000e+00 0.000000e+00 0.000000e+00
 0.000000e+00 0.000000e+00 0.000000e+00 1.000000e+00 0.000000e+00 0.000000e+00
 0.000000e+00 0.000000e+00 0.000000e+00 1.335449e-05 9.999866e-01 0.000000e+00
 0.000000e+00 0.000000e+00 0.000000e+00 0.000000e+00 9.072608e-01 9.273927e-02
 0.000000e+00 0.000000e+00 0.000000e+00 0.000000e+00 0.000000e+00 0.000000e+00
<ENDHMM>
~h "o"
<BEGINHMM>
<NUMSTATES> 6
<STATE> 2
<MEAN> 8
 -6.986757e+00 -1.013852e+01 -6.939015e+00 -1.070810e+01 -7.339817e+00 -9.244474e+00 -7.375836e+00 -1.055242e+01
<VARIANCE> 8
 4.806485e+01 6.638472e+01 7.686213e+01 5.459198e+01 4.608316e+01 4.272884e+01 4.123513e+01 3.690486e+01
<GCONST> 4.602589e+01
<STATE> 3
<MEAN> 8
 -4.748821e+00 -7.520337e+00 -4.755224e+00 -7.492405e+00 -4.918864e+00 -7.487304e+00 -4.832521e+00 -7.472488e+00
<VARIANCE> 8
 2.585373e+01 1.611672e+01 2.524669e+01 1.652626e+01 2.591874e+01 1.587395e+01 2.534419e+01 1.597010e+01
<GCONST> 3.879189e+01
<STATE> 4
<MEAN> 8
 -2.977809e+00 -1.086476e+01 -1.411071e+01 -8.508766e+00 -4.402861e+00 -1.096801e+01 -3.168382e+00 -1.124899e+01
<VARIANCE> 8
 2.769234e+00 9.162154e+01 3.457626e+01 7.835570e+00 4.836096e+01 1.720615e+01 5.004954e+00 1.145801e+02
<GCONST> 3.891676e+01
<STATE> 5
<MEAN> 8
 -7.138196e+00 -1.078149e+01 -6.638013e+00 -1.081537e+01 -6.797597e+00 -1.081168e+01 -6.951533e+00 -1.078363e+01
<VARIANCE> 8
 5.636188e+01 1.909484e+01 5.142120e+01 2.088026e+01 5.101503e+01 2.274125e+01 5.574339e+01 1.982746e+01
<GCONST> 4.272721e+01
<TRANSP> 6
 0.000000e+00 1.000000e+00 0.000000e+00 0.000000e+00 0.000000e+00 0.000000e+00
 0.000000e+00 5.345870e-01 4.654130e-01 0.000000e+00 0.000000e+00 0.000000e+00
 0.000000e+00 0.000000e+00 9.736407e-01 2.635936e-02 0.000000e+00 0.000000e+00
 0.000000e+00 0.000000e+00 0.000000e+00 0.000000e+00 1.000000e+00 0.000000e+00
 0.000000e+00 0.000000e+00 0.000000e+00 0.000000e+00 9.538451e-01 4.615493e-02
 0.000000e+00 0.000000e+00 0.000000e+00 0.000000e+00 0.000000e+00 0.000000e+00
<ENDHMM>
~h "p"
<BEGINHMM>
<NUMSTATES> 6
<STATE> 2
<MEAN> 8
 -7.472256e+00 -8.799397e+00 -1.174231e+01 -8.879415e+00 -1.179156e+01 -8.459477e+00 -1.177647e+01 -8.829535e+00
<VARIANCE> 8
 6.046673e+01 6.145814e+01 7.707602e+01 6.175359e+01 6.717765e+01 5.788110e+01 6.950747e+01 5.812701e+01
<GCONST> 4.796120e+01
<STATE> 3
<MEAN> 8
 -4.588428e+00 -4.999037e+00 -7.252772e+00 -4.892653e+00 -7.260710e+00 -5.001956e+00 -7.362789e+00 -4.685032e+00
<VARIANCE> 8
 3.481380e+01 2.854149e+01 2.178025e+01 2.989262e+01 2.106866e+01 2.989494e+01 2.014918e+01 2.774337e+01
<GCONST> 4.085464e+01
<STATE> 4
<MEAN> 8
 -7.271803e+00 -1.333865e+01 -6.939040e+00 -1.224415e+01 -7.419490e+00 -1.238414e+01 -6.737978e+00 -1.376366e+01
<VARIANCE> 8
 4.784385e+01 4.845331e+01 2.495796e+01 4.846842e+01 2.782321e+01 4.474442e+01 6.607965e+01 3.883567e+01
<GCONST> 4.452670e+01
<STATE> 5
<MEAN> 8
 -5.160423e+00 -7.895964e+00 -6.819181e+00 -8.912245e+00 -5.408911e+00 -9.673265e+00 -5.119931e+00 -8.378890e+00
<VARIANCE> 8
 1.962851e+01 4.140152e+01 3.680196e+01 3.023123e+01 7.511138e+01 3.959394e+01 3.665203e+01 4.965436e+01
<GCONST> 4.392195e+01
<TRANSP> 6
 0.000000e+00 1.000000e+00 0.000000e+00 0.000000e+00 0.000000e+00 0.000000e+00
 0.000000e+00 8.917877e-01 1.082123e-01 0.000000e+00 0.000000e+00 0.000000e+00
 0.000000e+00 0.000000e+00 9.311822e-01 6.881778e-02 0.000000e+00 0.000000e+00
 0.000000e+00 0.000000e+00 0.000000e+00 7.833927e-01 2.166073e-01 0.000000e+00
 0.000000e+00 0.000000e+00 0.000000e+00 0.000000e+00 5.689185e-01 4.310815e-01
 0.000000e+00 0.000000e+00 0.000000e+00 0.000000e+00 0.000000e+00 0.000000e+00
<ENDHMM>
~h "q"
<BEGINHMM>
<NUMSTATES> 6
<STATE> 2
<MEAN> 8
 -6.973425e+00 -7.275430e+00 -1.127202e+01 -7.347148e+00 -1.108731e+01 -7.455153e+00 -1.127785e+01 -7.359466e+00
<VARIANCE> 8
 4.539296e+01 5.260150e+01 3.298641e+01 5.269022e+01 3.422223e+01 5.535375e+01 3.476599e+01 5.278954e+01
<GCONST> 4.500322e+01
<STATE> 3
<MEAN> 8
 -4.483361e+00 -1.259771e+01 -3.773378e+00 -8.313383e+00 -9.068831e+00 -7.659995e+00 -4.498855e-01 -1.137800e+01
<VARIANCE> 8
 2.760960e+01 7.447880e+00 9.222043e+00 3.322490e+01 2.292984e+01 1.667498e+01 3.256686e+01 8.827844e+00
<GCONST> 3.736156e+01
<STATE> 4
<MEAN> 8
 -3.417817e+00 -4.799079e+00 -3.815800e+00 -4.869859e+00 -3.653573e+00 -4.894563e+00 -3.810231e+00 -4.779392e+00
<VARIANCE> 8
 1.356886e+01 1.078950e+01 1.453415e+01 1.090206e+01 1.505210e+01 1.128531e+01 1.411405e+01 1.093024e+01
<GCONST> 3.492854e+01
<STATE> 5
<MEAN> 8
 -6.599028e+00 -1.225331e+01 -6.457375e+00 -1.223255e+01 -6.513496e+00 -1.230783e+01 -6.655119e+00 -1.220693e+01
<VARIANCE> 8
 2.925717e+01 4.012089e+01 2.892949e+01 4.019884e+01 2.925343e+01 4.141898e+01 3.122214e+01 3.998214e+01
<GCONST> 4.305904e+01
<TRANSP> 6
 0.000000e+00 1.000000e+00 0.000000e+00 0.000000e+00 0.000000e+00 0.000000e+00
 0.000000e+00 9.604194e-01 3.958065e-02 0.000000e+00 0.000000e+00 0.000000e+00
 0.000000e+00 0.000000e+00 2.055305e-02 9.794469e-01 0.000000e+00 0.000000e+00
 0.000000e+00 0.000000e+00 0.000000e+00 9.750698e-01 2.493026e-02 0.000000e+00
 0.000000e+00 0.000000e+00 0.000000e+00 0.000000e+00 9.436891e-01 5.631093e-02
 0.000000e+00 0.000000e+00 0.000000e+00 0.000000e+00 0.000000e+00 0.000000e+00
<ENDHMM>
~h "r"
<BEGINHMM>
<NUMSTATES> 6
<STATE> 2
<MEAN> 8
 -7.617771e+00 -8.446212e+00 -9.194938e+00 -8.931022e+00 -8.622493e+00 -8.908893e+00 -9.591947e+00 -9.306476e+00
<VARIANCE> 8
 7.163421e+01 4.550018e+01 6.397881e+01 4.100756e+01 6.736497e+01 4.420767e+01 8.672332e+01 4.039959e+01
<GCONST> 4.682518e+01
<STATE> 3
<MEAN> 8
 -4.513125e+00 -1.303508e+01 -3.019881e+00 -9.405881e+00 -1.774949e+01 -9.799002e+00 4.264204e-01 -1.244990e+01
<VARIANCE> 8
 1.440591e+01 7.565146e+00 3.802124e+00 3.983538e+01 5.262856e+01 9.747530e+00 1.263989e+01 6.294091e+00
<GCONST> 3.503127e+01
<STATE> 4
<MEAN> 8
 -4.082450e+00 -4.701946e+00 -1.253124e+01 -9.535284e+00 5.191010e+00 -1.075047e+01 -5.571575e+00 -2.726428e-02
<VARIANCE> 8
 3.041409e+00 3.090055e+01 4.043864e+01 9.770742e+00 1.913173e+01 7.046601e+00 3.833926e+00 4.074192e+01
<GCONST> 3.518033e+01
<STATE> 5
<MEAN> 8
 -6.523601e+00 -9.067335e+00 -5.994408e+00 -8.872953e+00 -6.268002e+00 -8.969553e+00 -6.437782e+00 -8.988244e+00
<VARIANCE> 8
 5.408183e+01 2.038357e+01 5.750928e+01 2.405794e+01 4.738194e+01 2.618113e+01 4.749081e+01 2.023468e+01
<GCONST> 4.293187e+01
<TRANSP> 6
 0.000000e+00 1.000000e+00 0.000000e+00 0.000000e+00 0.000000e+00 0.000000e+00
 0.000000e+00 8.818648e-01 1.181352e-01 0.000000e+00 0.000000e+00 0.000000e+00
 0.000000e+00 0.000000e+00 0.000000e+00 1.000000e+00 0.000000e+00 0.000000e+00
 0.000000e+00 0.000000e+00 0.000000e+00 6.747353e-05 9.999325e-01 0.000000e+00
 0.000000e+00 0.000000e+00 0.000000e+00 0.000000e+00 9.396514e-01 6.034866e-02
 0.000000e+00 0.000000e+00 0.000000e+00 0.000000e+00 0.000000e+00 0.000000e+00
<ENDHMM>
~h "s"
<BEGINHMM>
<NUMSTATES> 6
<STATE> 2
<MEAN> 8
 -7.133039e+00 -1.207107e+01 -7.639227e+00 -1.174172e+01 -7.560107e+00 -1.203507e+01 -7.269610e+00 -1.195325e+01
<VARIANCE> 8
 4.955819e+01 4.225182e+01 4.604601e+01 4.314520e+01 4.353963e+01 4.090643e+01 4.337714e+01 4.354559e+01
<GCONST> 4.497272e+01
<STATE> 3
<MEAN> 8
 -1.354538e+01 -8.746618e+00 -3.280812e+00 -1.269034e+01 -3.071593e+00 -8.408936e+00 -1.451587e+01 -8.761309e+00
<VARIANCE> 8
 3.625808e+01 9.973463e+00 3.132555e+01 9.662721e+00 4.316856e+00 6.998174e+01 3.997615e+01 9.046142e+00
<GCONST> 3.790770e+01
<STATE> 4
<MEAN> 8
 -8.240379e-01 -1.088896e+01 -3.741644e+00 -7.745550e+00 -1.035574e+01 -8.146565e+00 1.760762e+00 -1.090730e+01
<VARIANCE> 8
 2.405853e+01 2.088514e+01 3.170595e+00 7.577518e+01 2.146804e+01 9.189714e+00 6.021210e+01 9.794212e+00
<GCONST> 3.806855e+01
<STATE> 5
<MEAN> 8
 -5.577469e+00 -8.106501e+00 -5.857379e+00 -8.627147e+00 -5.164790e+00 -8.668365e+00 -5.613840e+00 -8.551529e+00
<VARIANCE> 8
 2.552298e+01 3.397243e+01 3.171744e+01 2.863266e+01 3.653505e+01 3.297249e+01 2.821364e+01 3.458339e+01
<GCONST> 4.225668e+01
<TRANSP> 6
 0.000000e+00 1.000000e+00 0.000000e+00 0.000000e+00 0.000000e+00 0.000000e+00
 0.000000e+00 9.284488e-01 7.155119e-02 0.000000e+00 0.000000e+00 0.000000e+00
 0.000000e+00 0.000000e+00 0.000000e+00 1.000000e+00 0.000000e+00 0.000000e+00
 0.000000e+00 0.000000e+00 0.000000e+00 5.924284e-04 9.994076e-01 0.000000e+00
 0.000000e+00 0.000000e+00 0.000000e+00 0.000000e+00 8.880777e-01 1.119223e-01
 0.000000e+00 0.000000e+00 0.000000e+00 0.000000e+00 0.000000e+00 0.000000e+00
<ENDHMM>
~h "t"
<BEGINHMM>
<NUMSTATES> 6
<STATE> 2
<MEAN> 8
 -6.286539e+00 -1.107052e+01 -7.462727e+00 -1.054009e+01 -7.555061e+00 -1.071445e+01 -6.549546e+00 -1.145423e+01
<VARIANCE> 8
 5.278805e+01 5.115728e+01 4.535321e+01 4.752982e+01 4.123458e+01 4.480916e+01 4.634534e+01 5.188614e+01
<GCONST> 4.558691e+01
<STATE> 3
<MEAN> 8
 -1.291541e+01 -8.163601e+00 -6.367359e+00 -1.208996e+01 -2.542011e+00 -1.244212e+01 -1.568002e+01 -8.905416e+00
<VARIANCE> 8
 3.654809e+01 1.091968e+01 2.821374e+01 1.681614e+01 4.460185e+00 8.057262e+01 3.827655e+01 1.057446e+01
<GCONST> 3.874199e+01
<STATE> 4
<MEAN> 8
 -2.289983e+00 -1.246606e+01 -3.317167e+00 -8.705954e+00 -1.124412e+01 -8.705919e+00 1.585029e+00 -1.160286e+01
<VARIANCE> 8
 2.164298e+01 1.083273e+01 4.703391e+00 5.736433e+01 3.703066e+01 1.130273e+01 3.419900e+01 7.539868e+00
<GCONST> 3.734717e+01
<STATE> 5
<MEAN> 8
 -4.671055e+00 -6.811563e+00 -5.167168e+00 -7.574392e+00 -3.971126e+00 -7.653638e+00 -5.072066e+00 -7.086624e+00
<VARIANCE> 8
 3.167973e+01 3.206943e+01 4.273745e+01 3.032252e+01 4.813402e+01 3.469350e+01 3.395104e+01 3.548985e+01
<GCONST> 4.330827e+01
<TRANSP> 6
 0.000000e+00 1.000000e+00 0.000000e+00 0.000000e+00 0.000000e+00 0.000000e+00
 0.000000e+00 8.558647e-01 1.441353e-01 0.000000e+00 0.000000e+00 0.000000e+00
 0.000000e+00 0.000000e+00 0.000000e+00 1.000000e+00 0.000000e+00 0.000000e+00
 0.000000e+00 0.000000e+00 0.000000e+00 0.000000e+00 1.000000e+00 0.000000e+00
 0.000000e+00 0.000000e+00 0.000000e+00 0.000000e+00 8.276646e-01 1.723354e-01
 0.000000e+00 0.000000e+00 0.000000e+00 0.000000e+00 0.000000e+00 0.000000e+00
<ENDHMM>
~h "u"
<BEGINHMM>
<NUMSTATES> 6
<STATE> 2
<MEAN> 8
 -4.726405e+00 -4.906950e+00 -5.491958e+00 -4.821518e+00 -5.580232e+00 -4.966484e+00 -5.597379e+00 -4.789163e+00
<VARIANCE> 8
 7.226089e+01 1.000455e+02 7.568337e+01 1.039037e+02 8.443780e+01 1.028969e+02 8.099467e+01 1.013063e+02
<GCONST> 5.064122e+01
<STATE> 3
<MEAN> 8
 -6.153566e+00 -8.285798e+00 -5.783102e+00 -8.465791e+00 -5.121929e+00 -8.603875e+00 -7.010222e+00 -8.444705e+00
<VARIANCE> 8
 3.768862e+01 2.059306e+01 2.557579e+01 2.208349e+01 2.549909e+01 2.585075e+01 5.453966e+01 1.790887e+01
<GCONST> 4.106901e+01
<STATE> 4
<MEAN> 8
 -4.296768e+00 -1.218803e+01 -3.468687e+00 -8.881702e+00 -1.885771e+01 -9.745004e+00 -1.037638e+00 -1.148110e+01
<VARIANCE> 8
 3.272339e+01 9.958380e+00 2.895658e+00 8.336449e+01 5.256707e+01 1.026659e+01 3.623329e+01 1.411381e+01
<GCONST> 3.850407e+01
<STATE> 5
<MEAN> 8
 -6.168797e+00 -8.721457e+00 -8.384741e+00 -9.768695e+00 -5.017474e+00 -9.025503e+00 -6.021450e+00 -8.818901e+00
<VARIANCE> 8
 2.529132e+01 4.397519e+01 1.085098e+02 1.957029e+01 5.539588e+01 2.804144e+01 1.209688e+01 3.925825e+01
<GCONST> 4.288925e+01
<TRANSP> 6
 0.000000e+00 1.000000e+00 0.000000e+00 0.000000e+00 0.000000e+00 0.000000e+00
 0.000000e+00 8.677140e-01 1.322859e-01 0.000000e+00 0.000000e+00 0.000000e+00
 0.000000e+00 0.000000e+00 8.300201e-01 1.699799e-01 0.000000e+00 0.000000e+00
 0.000000e+00 0.000000e+00 0.000000e+00 4.943632e-05 9.999506e-01 0.000000e+00
 0.000000e+00 0.000000e+00 0.000000e+00 0.000000e+00 7.439219e-01 2.560780e-01
 0.000000e+00 0.000000e+00 0.000000e+00 0.000000e+00 0.000000e+00 0.000000e+00
<ENDHMM>
~h "v"
<BEGINHMM>
<NUMSTATES> 6
<STATE> 2
<MEAN> 8
 -9.319302e+00 -1.045618e+01 -6.907449e+00 -1.100278e+01 -6.932789e+00 -8.886972e+00 -7.654238e+00 -9.743552e+00
<VARIANCE> 8
 8.118044e+01 4.409449e+01 1.096858e+02 4.077797e+01 5.020161e+01 5.368730e+01 4.796997e+01 3.625202e+01
<GCONST> 4.665208e+01
<STATE> 3
<MEAN> 8
 -5.081117e+00 -5.302452e+00 -7.809658e+00 -5.164047e+00 -7.848804e+00 -5.352516e+00 -7.847896e+00 -5.151555e+00
<VARIANCE> 8
 4.625721e+01 3.152495e+01 2.124384e+01 3.202170e+01 2.123935e+01 3.195161e+01 2.129713e+01 3.164834e+01
<GCONST> 4.154383e+01
<STATE> 4
<MEAN> 8
 -2.841255e+00 -2.431486e+00 -3.128320e+00 -2.280188e+00 -3.100625e+00 -2.334170e+00 -3.264743e+00 -2.498100e+00
<VARIANCE> 8
 1.199311e+02 2.179462e+02 1.248090e+02 2.165322e+02 1.247420e+02 2.168301e+02 1.309943e+02 2.183769e+02
<GCONST> 5.554544e+01
<STATE> 5
<MEAN> 8
 -7.172981e+00 -1.005158e+01 -7.050073e+00 -9.996572e+00 -7.212613e+00 -1.002371e+01 -7.051918e+00 -1.002247e+01
<VARIANCE> 8
 6.996864e+01 2.265173e+01 6.577293e+01 2.349865e+01 6.894526e+01 2.338721e+01 7.435275e+01 2.259420e+01
<GCONST> 4.422647e+01
<TRANSP> 6
 0.000000e+00 1.000000e+00 0.000000e+00 0.000000e+00 0.000000e+00 0.000000e+00
 0.000000e+00 5.709976e-01 4.290024e-01 0.000000e+00 0.000000e+00 0.000000e+00
 0.000000e+00 0.000000e+00 9.395673e-01 6.043271e-02 0.000000e+00 0.000000e+00
 0.000000e+00 0.000000e+00 0.000000e+00 9.272439e-01 7.275614e-02 0.000000e+00
 0.000000e+00 0.000000e+00 0.000000e+00 0.000000e+00 9.520959e-01 4.790409e-02
 0.000000e+00 0.000000e+00 0.000000e+00 0.000000e+00 0.000000e+00 0.000000e+00
<ENDHMM>
~h "w"
<BEGINHMM>
<NUMSTATES> 6
<STATE> 2
<MEAN> 8
 -4.022556e+00 -4.202065e+00 -4.410921e+00 -4.302731e+00 -4.125536e+00 -4.375288e+00 -4.134715e+00 -4.376421e+00
<VARIANCE> 8
 4.691641e+01 6.861745e+01 4.791907e+01 6.889533e+01 5.060144e+01 6.999197e+01 4.869450e+01 6.991676e+01
<GCONST> 4.718726e+01
<STATE> 3
<MEAN> 8
 -9.044686e+00 -1.387271e+01 -8.902713e+00 -1.386160e+01 -9.834502e+00 -1.396578e+01 -8.994852e+00 -1.400324e+01
<VARIANCE> 8
 6.281712e+01 5.055462e+01 6.347432e+01 5.472311e+01 7.401603e+01 5.273792e+01 7.307228e+01 4.921444e+01
<GCONST> 4.737648e+01
<STATE> 4
<MEAN> 8
 -3.957928e+00 -6.815605e+00 -1.750020e+01 -1.048640e+01 2.650512e+00 -1.152295e+01 -5.222460e+00 -2.999197e+00
<VARIANCE> 8
 3.246460e+00 5.361163e+01 5.447906e+01 1.109785e+01 2.079190e+01 6.594379e+00 3.918064e+00 4.846364e+01
<GCONST> 3.643410e+01
<STATE> 5
<MEAN> 8
 -6.957837e+00 -1.038048e+01 -6.321967e+00 -1.024276e+01 -6.717738e+00 -1.016058e+01 -6.824515e+00 -1.038504e+01
<VARIANCE> 8
 5.398663e+01 2.193420e+01 5.236803e+01 2.291380e+01 4.523189e+01 2.419556e+01 4.873071e+01 2.152320e+01
<GCONST> 4.282325e+01
<TRANSP> 6
 0.000000e+00 1.000000e+00 0.000000e+00 0.000000e+00 0.000000e+00 0.000000e+00
 0.000000e+00 9.170118e-01 8.298821e-02 0.000000e+00 0.000000e+00 0.000000e+00
 0.000000e+00 0.000000e+00 9.170894e-01 8.291055e-02 0.000000e+00 0.000000e+00
 0.000000e+00 0.000000e+00 0.000000e+00 0.000000e+00 1.000000e+00 0.000000e+00
 0.000000e+00 0.000000e+00 0.000000e+00 0.000000e+00 9.518584e-01 4.814163e-02
 0.000000e+00 0.000000e+00 0.000000e+00 0.000000e+00 0.000000e+00 0.000000e+00
<ENDHMM>
~h "x"
<BEGINHMM>
<NUMSTATES> 6
<STATE> 2
<MEAN> 8
 -6.196370e+00 -1.057341e+01 -6.162954e+00 -1.036038e+01 -6.327921e+00 -1.044821e+01 -6.080106e+00 -1.048812e+01
<VARIANCE> 8
 4.458442e+01 1.797023e+01 3.986455e+01 1.959296e+01 3.941572e+01 1.790912e+01 4.535481e+01 1.844712e+01
<GCONST> 4.133868e+01
<STATE> 3
<MEAN> 8
 -4.137533e+00 -5.998915e+00 -4.349128e+00 -6.363813e+00 -4.203905e+00 -6.050922e+00 -4.070594e+00 -6.385984e+00
<VARIANCE> 8
 1.433004e+01 1.570753e+01 1.655912e+01 1.420704e+01 1.508569e+01 1.544823e+01 1.433476e+01 1.621343e+01
<GCONST> 3.647995e+01
<STATE> 4
<MEAN> 8
 -9.813543e+00 -9.924412e+00 -6.818595e+00 -1.191031e+01 -4.307729e+00 -1.252016e+01 -1.410512e+01 -1.092071e+01
<VARIANCE> 8
 2.510484e+01 2.372352e+01 2.513060e+01 3.096201e+01 1.681260e+01 6.722387e+01 5.062378e+01 1.367874e+01
<GCONST> 4.131982e+01
<STATE> 5
<MEAN> 8
 -4.969499e+00 -9.646646e+00 -5.764812e+00 -8.961893e+00 -6.365807e+00 -9.969242e+00 -4.538993e+00 -8.263342e+00
<VARIANCE> 8
 1.984978e+01 1.929221e+01 3.892507e+01 3.438966e+01 8.923219e+01 1.583950e+01 2.461797e+01 2.445148e+01
<GCONST> 4.150422e+01
<TRANSP> 6
 0.000000e+00 1.000000e+00 0.000000e+00 0.000000e+00 0.000000e+00 0.000000e+00
 0.000000e+00 9.528036e-01 4.719643e-02 0.000000e+00 0.000000e+00 0.000000e+00
 0.000000e+00 0.000000e+00 9.304864e-01 6.951356e-02 0.000000e+00 0.000000e+00
 0.000000e+00 0.000000e+00 0.000000e+00 1.425689e-01 8.574311e-01 0.000000e+00
 0.000000e+00 0.000000e+00 0.000000e+00 0.000000e+00 6.864375e-01 3.135626e-01
 0.000000e+00 0.000000e+00 0.000000e+00 0.000000e+00 0.000000e+00 0.000000e+00
<ENDHMM>
~h "y"
<BEGINHMM>
<NUMSTATES> 6
<STATE> 2
<MEAN> 8
 -4.051022e+00 -7.699964e+00 -4.177524e+00 -7.390462e+00 -4.504451e+00 -7.397436e+00 -4.145982e+00 -7.516225e+00
<VARIANCE> 8
 4.020749e+01 3.416935e+01 3.854205e+01 3.708930e+01 3.996284e+01 3.273511e+01 4.070846e+01 3.194391e+01
<GCONST> 4.354029e+01
<STATE> 3
<MEAN> 8
 -6.700497e+00 -7.089621e+00 -7.888788e+00 -8.198010e+00 -2.612210e+00 -1.146271e+01 -4.464201e+00 -7.671564e+00
<VARIANCE> 8
 3.769905e+01 5.936631e+01 3.060980e+01 1.743093e+01 5.122784e+01 3.668092e+01 2.657159e+01 9.490060e+01
<GCONST> 4.406715e+01
<STATE> 4
<MEAN> 8
 -9.666383e+00 -7.867564e+00 5.277705e+00 -1.053501e+01 -4.566015e+00 3.538179e+00 -1.527743e+01 -7.635354e+00
<VARIANCE> 8
 2.539878e+01 6.659091e+00 4.719996e+01 8.336416e+00 3.798966e+00 1.123562e+02 4.118073e+01 7.360474e+00
<GCONST> 3.757922e+01
<STATE> 5
<MEAN> 8
 -6.112596e+00 -9.739355e+00 -6.339886e+00 -1.001078e+01 -7.000805e+00 -9.647367e+00 -6.504761e+00 -9.717098e+00
<VARIANCE> 8
 6.058642e+01 2.437123e+01 5.638593e+01 3.662368e+01 5.954021e+01 2.182291e+01 5.910332e+01 2.181469e+01
<GCONST> 4.396489e+01
<TRANSP> 6
 0.000000e+00 1.000000e+00 0.000000e+00 0.000000e+00 0.000000e+00 0.000000e+00
 0.000000e+00 9.597070e-01 4.029307e-02 0.000000e+00 0.000000e+00 0.000000e+00
 0.000000e+00 0.000000e+00 7.522166e-01 2.477834e-01 0.000000e+00 0.000000e+00
 0.000000e+00 0.000000e+00 0.000000e+00 0.000000e+00 1.000000e+00 0.000000e+00
 0.000000e+00 0.000000e+00 0.000000e+00 0.000000e+00 9.269531e-01 7.304691e-02
 0.000000e+00 0.000000e+00 0.000000e+00 0.000000e+00 0.000000e+00 0.000000e+00
<ENDHMM>
~h "z"
<BEGINHMM>
<NUMSTATES> 6
<STATE> 2
<MEAN> 8
 -5.352693e+00 -9.915671e+00 -3.596589e+00 -1.025206e+01 -6.509830e+00 -8.614891e+00 -8.318381e+00 -7.744391e+00
<VARIANCE> 8
 6.999629e+01 1.326877e+01 3.466808e+01 9.118828e+01 2.422255e+01 6.698497e+01 2.542898e+01 1.804091e+01
<GCONST> 4.311590e+01
<STATE> 3
<MEAN> 8
 -6.092875e+00 -1.283540e+01 -6.712567e+00 -1.054302e+01 -7.621781e+00 -1.059643e+01 -4.961110e+00 -1.187127e+01
<VARIANCE> 8
 4.089072e+01 5.427939e+01 1.747530e+01 3.955328e+01 2.094477e+01 2.467489e+01 4.687090e+01 2.805772e+01
<GCONST> 4.237584e+01
<STATE> 4
<MEAN> 8
 -4.418484e+00 -4.564016e+00 -9.634791e+00 -8.115406e+00 -7.398968e+00 -5.308679e+00 -3.202133e+00 -1.383687e+01
<VARIANCE> 8
 7.892375e+00 8.739725e+01 2.542335e+01 6.926195e+00 1.573050e+01 2.138978e+01 1.038957e+01 5.262106e+01
<GCONST> 3.853279e+01
<STATE> 5
<MEAN> 8
 -5.643723e+00 -8.858815e+00 -5.534002e+00 -8.874121e+00 -5.506776e+00 -8.918193e+00 -5.662089e+00 -8.768515e+00
<VARIANCE> 8
 3.497895e+01 2.325234e+01 3.451505e+01 2.413968e+01 3.647388e+01 2.458695e+01 3.645406e+01 2.406053e+01
<GCONST> 4.170486e+01
<TRANSP> 6
 0.000000e+00 1.000000e+00 0.000000e+00 0.000000e+00 0.000000e+00 0.000000e+00
 0.000000e+00 6.961439e-01 3.038562e-01 0.000000e+00 0.000000e+00 0.000000e+00
 0.000000e+00 0.000000e+00 7.931439e-01 2.068561e-01 0.000000e+00 0.000000e+00
 0.000000e+00 0.000000e+00 0.000000e+00 1.739439e-01 8.260561e-01 0.000000e+00
 0.000000e+00 0.000000e+00 0.000000e+00 0.000000e+00 9.838167e-01 1.618333e-02
 0.000000e+00 0.000000e+00 0.000000e+00 0.000000e+00 0.000000e+00 0.000000e+00
<ENDHMM>
~h "sil"
<BEGINHMM>
<NUMSTATES> 6
<STATE> 2
<MEAN> 8
 -5.475177e+00 -8.643949e+00 -5.772437e+00 -8.888487e+00 -5.913719e+00 -8.274686e+00 -6.066934e+00 -8.737061e+00
<VARIANCE> 8
 9.719592e+01 1.969370e+02 1.050210e+02 1.951020e+02 1.030334e+02 1.937061e+02 1.040257e+02 1.905426e+02
<GCONST> 5.428622e+01
<STATE> 3
<MEAN> 8
 -4.457762e+00 -6.760774e+00 -6.543401e+00 -6.250280e+00 -6.667087e+00 -6.542674e+00 -6.448618e+00 -6.424498e+00
<VARIANCE> 8
 4.556116e+01 2.956578e+01 3.448685e+01 3.738181e+01 3.467075e+01 2.955201e+01 3.811577e+01 2.609286e+01
<GCONST> 4.290479e+01
<STATE> 4
<MEAN> 8
 -4.358407e+00 -1.014394e+01 -9.505876e+00 -8.317990e+00 -7.186078e+00 -9.930488e+00 -4.884683e+00 -1.293244e+01
<VARIANCE> 8
 1.301424e+01 1.695837e+02 3.574695e+01 3.630098e+01 6.989375e+01 3.310104e+01 1.413982e+01 1.576182e+02
<GCONST> 4.502643e+01
<STATE> 5
<MEAN> 8
 -6.917686e+00 -1.204793e+01 -6.591951e+00 -1.221646e+01 -6.619709e+00 -1.215538e+01 -6.728243e+00 -1.202372e+01
<VARIANCE> 8
 4.471375e+01 4.695760e+01 4.556649e+01 4.875930e+01 4.582912e+01 5.336544e+01 4.807362e+01 4.887457e+01
<GCONST> 4.562268e+01
<TRANSP> 6
 0.000000e+00 1.000000e+00 0.000000e+00 0.000000e+00 0.000000e+00 0.000000e+00
 0.000000e+00 9.043342e-01 9.566578e-02 0.000000e+00 0.000000e+00 0.000000e+00
 0.000000e+00 0.000000e+00 8.971319e-01 1.028681e-01 0.000000e+00 0.000000e+00
 0.000000e+00 0.000000e+00 0.000000e+00 2.621094e-05 9.999738e-01 0.000000e+00
 0.000000e+00 0.000000e+00 0.000000e+00 0.000000e+00 9.390080e-01 6.099196e-02
 0.000000e+00 0.000000e+00 0.000000e+00 0.000000e+00 0.000000e+00 0.000000e+00
<ENDHMM>
