~o
<STREAMINFO> 1 8
<VECSIZE> 8<NULLD><USER><DIAGC>
~h "b"
<BEGINHMM>
<NUMSTATES> 6
<STATE> 2
<MEAN> 8
 -7.674698e+00 -9.820481e+00 -8.575867e+00 -9.646071e+00 -8.116821e+00 -9.864369e+00 -8.901833e+00 -9.586970e+00
<VARIANCE> 8
 6.654011e+01 7.233295e+01 6.160820e+01 7.882491e+01 6.651134e+01 9.380116e+01 6.326510e+01 7.799951e+01
<GCONST> 4.891271e+01
<STATE> 3
<MEAN> 8
 -5.185759e+00 -7.279093e+00 -5.960008e+00 -7.216239e+00 -7.674587e+00 -7.100371e+00 -6.131986e+00 -7.580804e+00
<VARIANCE> 8
 3.656490e+01 3.037326e+01 2.594282e+01 5.081660e+01 3.916891e+01 3.198646e+01 3.550388e+01 2.518099e+01
<GCONST> 4.282871e+01
<STATE> 4
<MEAN> 8
 -4.978670e+00 -7.366217e+00 -1.301484e+01 -8.577648e+00 -3.126359e+00 -9.976874e+00 -5.877383e+00 -6.773592e+00
<VARIANCE> 8
 1.346897e+01 1.198430e+02 4.927131e+01 3.576044e+01 5.295932e+01 1.923088e+01 1.477011e+01 1.051047e+02
<GCONST> 4.383737e+01
<STATE> 5
<MEAN> 8
 -7.152330e+00 -8.401737e+00 -6.660796e+00 -8.347980e+00 -7.631845e+00 -7.965199e+00 -8.318393e+00 -8.158067e+00
<VARIANCE> 8
 5.813589e+01 4.074817e+01 4.517322e+01 4.578117e+01 3.585976e+01 6.136629e+01 4.803200e+01 4.902628e+01
<GCONST> 4.556829e+01
<TRANSP> 6
 0.000000e+00 1.000000e+00 0.000000e+00 0.000000e+00 0.000000e+00 0.000000e+00
 0.000000e+00 6.288981e-01 3.711019e-01 0.000000e+00 0.000000e+00 0.000000e+00
 0.000000e+00 0.000000e+00 7.360390e-01 2.639609e-01 0.000000e+00 0.000000e+00
 0.000000e+00 0.000000e+00 0.000000e+00 0.000000e+00 1.000000e+00 0.000000e+00
 0.000000e+00 0.000000e+00 0.000000e+00 0.000000e+00 7.345751e-01 2.654249e-01
 0.000000e+00 0.000000e+00 0.000000e+00 0.000000e+00 0.000000e+00 0.000000e+00
<ENDHMM>
