~o
<STREAMINFO> 1 8
<VECSIZE> 8<NULLD><USER><DIAGC>
~h "c"
<BEGINHMM>
<NUMSTATES> 6
<STATE> 2
<MEAN> 8
 -6.730405e+00 -9.342009e+00 -8.897284e+00 -9.121504e+00 -8.416878e+00 -9.402646e+00 -8.241158e+00 -9.308981e+00
<VARIANCE> 8
 5.663649e+01 7.893510e+01 6.754363e+01 6.504070e+01 6.947323e+01 7.251663e+01 6.562854e+01 8.426527e+01
<GCONST> 4.863882e+01
<STATE> 3
<MEAN> 8
 -5.438662e+00 -6.486513e+00 -6.535557e+00 -6.687712e+00 -5.988283e+00 -6.652181e+00 -7.454142e+00 -6.065369e+00
<VARIANCE> 8
 4.097423e+01 2.406604e+01 3.355253e+01 2.950187e+01 2.333759e+01 5.078859e+01 3.117781e+01 2.733182e+01
<GCONST> 4.231982e+01
<STATE> 4
<MEAN> 8
 -5.737374e+00 -9.641395e+00 -4.320608e+00 -8.290044e+00 -1.212339e+01 -7.260266e+00 -5.734040e+00 -1.088685e+01
<VARIANCE> 8
 4.780036e+01 2.556674e+01 1.195597e+01 1.296114e+02 4.416183e+01 2.215651e+01 8.264857e+01 2.498308e+01
<GCONST> 4.367590e+01
<STATE> 5
<MEAN> 8
 -6.204733e+00 -8.028367e+00 -8.767872e+00 -8.243028e+00 -7.439108e+00 -8.368446e+00 -7.958690e+00 -7.922744e+00
<VARIANCE> 8
 4.667059e+01 6.223872e+01 5.358966e+01 4.115327e+01 4.917812e+01 4.380793e+01 4.238474e+01 5.288189e+01
<GCONST> 4.576588e+01
<TRANSP> 6
 0.000000e+00 1.000000e+00 0.000000e+00 0.000000e+00 0.000000e+00 0.000000e+00
 0.000000e+00 6.318673e-01 3.681327e-01 0.000000e+00 0.000000e+00 0.000000e+00
 0.000000e+00 0.000000e+00 7.325974e-01 2.674026e-01 0.000000e+00 0.000000e+00
 0.000000e+00 0.000000e+00 0.000000e+00 0.000000e+00 1.000000e+00 0.000000e+00
 0.000000e+00 0.000000e+00 0.000000e+00 0.000000e+00 7.396947e-01 2.603054e-01
 0.000000e+00 0.000000e+00 0.000000e+00 0.000000e+00 0.000000e+00 0.000000e+00
<ENDHMM>
