~o
<STREAMINFO> 1 8
<VECSIZE> 8<NULLD><USER><DIAGC>
~h "e"
<BEGINHMM>
<NUMSTATES> 6
<STATE> 2
<MEAN> 8
 -5.351890e+00 -7.272552e+00 -7.136014e+00 -6.927591e+00 -7.353273e+00 -6.848850e+00 -7.199749e+00 -7.286740e+00
<VARIANCE> 8
 4.544205e+01 4.230786e+01 3.215803e+01 4.385719e+01 3.133544e+01 3.782699e+01 3.892941e+01 3.810043e+01
<GCONST> 4.389577e+01
<STATE> 3
<MEAN> 8
 -7.274680e+00 -9.904283e+00 -8.636880e+00 -9.500302e+00 -8.935336e+00 -1.052848e+01 -7.889418e+00 -1.043828e+01
<VARIANCE> 8
 6.023375e+01 1.000310e+02 6.228861e+01 8.092113e+01 8.277395e+01 7.692931e+01 8.067305e+01 9.847724e+01
<GCONST> 4.967121e+01
<STATE> 4
<MEAN> 8
 -5.526989e+00 -7.080372e+00 -6.233853e+00 -8.391307e+00 -5.182638e+00 -7.553762e+00 -6.286090e+00 -6.667625e+00
<VARIANCE> 8
 1.706997e+01 2.269265e+01 5.047434e+01 2.341761e+01 3.660422e+01 4.279718e+01 2.173092e+01 2.661724e+01
<GCONST> 4.145426e+01
<STATE> 5
<MEAN> 8
 -6.450012e+00 -9.526112e+00 -7.436150e+00 -9.049016e+00 -7.894125e+00 -9.088399e+00 -7.871522e+00 -9.502037e+00
<VARIANCE> 8
 6.395357e+01 5.188071e+01 4.670948e+01 6.506368e+01 4.350100e+01 5.573208e+01 5.294020e+01 5.466089e+01
<GCONST> 4.659309e+01
<TRANSP> 6
 0.000000e+00 1.000000e+00 0.000000e+00 0.000000e+00 0.000000e+00 0.000000e+00
 0.000000e+00 7.415040e-01 2.584961e-01 0.000000e+00 0.000000e+00 0.000000e+00
 0.000000e+00 0.000000e+00 5.032107e-01 4.967893e-01 0.000000e+00 0.000000e+00
 0.000000e+00 0.000000e+00 0.000000e+00 6.187640e-01 3.812360e-01 0.000000e+00
 0.000000e+00 0.000000e+00 0.000000e+00 0.000000e+00 6.407689e-01 3.592311e-01
 0.000000e+00 0.000000e+00 0.000000e+00 0.000000e+00 0.000000e+00 0.000000e+00
<ENDHMM>
