~o
<STREAMINFO> 1 8
<VECSIZE> 8<NULLD><USER><DIAGC>
~h "f"
<BEGINHMM>
<NUMSTATES> 6
<STATE> 2
<MEAN> 8
 -5.882323e+00 -8.581107e+00 -8.064906e+00 -8.386145e+00 -6.768880e+00 -9.421364e+00 -6.280734e+00 -7.839611e+00
<VARIANCE> 8
 3.326897e+01 4.782298e+01 5.055555e+01 3.809541e+01 5.525810e+01 3.722733e+01 3.255948e+01 6.325997e+01
<GCONST> 4.489769e+01
<STATE> 3
<MEAN> 8
 -1.028284e+01 -7.121940e+00 -2.902904e+00 -9.698559e+00 -4.580516e+00 -5.872978e+00 -1.117520e+01 -7.324572e+00
<VARIANCE> 8
 7.078735e+01 1.745040e+01 5.610699e+01 3.202112e+01 1.043134e+01 1.325883e+02 4.100212e+01 1.528234e+01
<GCONST> 4.298810e+01
<STATE> 4
<MEAN> 8
 -5.871812e+00 -1.006880e+01 -7.526876e+00 -9.570188e+00 -9.528975e+00 -8.828240e+00 -7.616087e+00 -1.050473e+01
<VARIANCE> 8
 6.741683e+01 6.762304e+01 4.957273e+01 9.088121e+01 4.701736e+01 5.377127e+01 7.408961e+01 5.263587e+01
<GCONST> 4.764478e+01
<STATE> 5
<MEAN> 8
 -5.132939e+00 -7.088403e+00 -6.482027e+00 -6.792626e+00 -6.073827e+00 -7.139951e+00 -6.308057e+00 -6.806987e+00
<VARIANCE> 8
 3.697797e+01 3.818591e+01 3.272584e+01 3.537428e+01 3.805716e+01 3.238210e+01 3.390686e+01 3.373719e+01
<GCONST> 4.316887e+01
<TRANSP> 6
 0.000000e+00 1.000000e+00 0.000000e+00 0.000000e+00 0.000000e+00 0.000000e+00
 0.000000e+00 7.111961e-01 2.888040e-01 0.000000e+00 0.000000e+00 0.000000e+00
 0.000000e+00 0.000000e+00 0.000000e+00 1.000000e+00 0.000000e+00 0.000000e+00
 0.000000e+00 0.000000e+00 0.000000e+00 6.116212e-01 3.883789e-01 0.000000e+00
 0.000000e+00 0.000000e+00 0.000000e+00 0.000000e+00 7.590693e-01 2.409307e-01
 0.000000e+00 0.000000e+00 0.000000e+00 0.000000e+00 0.000000e+00 0.000000e+00
<ENDHMM>
