~o
<STREAMINFO> 1 8
<VECSIZE> 8<NULLD><USER><DIAGC>
~h "g"
<BEGINHMM>
<NUMSTATES> 6
<STATE> 2
<MEAN> 8
 -6.736600e+00 -9.862823e+00 -8.717386e+00 -9.473704e+00 -8.134433e+00 -9.859106e+00 -7.883376e+00 -9.752530e+00
<VARIANCE> 8
 5.552170e+01 7.410352e+01 5.721549e+01 5.973767e+01 5.940974e+01 6.272303e+01 5.615221e+01 8.160465e+01
<GCONST> 4.781518e+01
<STATE> 3
<MEAN> 8
 -8.270390e+00 -7.323675e+00 -5.954370e+00 -9.980986e+00 -4.884884e+00 -9.241471e+00 -1.156126e+01 -7.304327e+00
<VARIANCE> 8
 5.196001e+01 2.268184e+01 5.279074e+01 3.955107e+01 1.403590e+01 1.045299e+02 4.656671e+01 2.187517e+01
<GCONST> 4.363631e+01
<STATE> 4
<MEAN> 8
 -4.828906e+00 -1.137346e+01 -5.083610e+00 -9.021851e+00 -1.197806e+01 -7.777466e+00 -5.115579e+00 -1.166425e+01
<VARIANCE> 8
 4.348378e+01 4.070629e+01 1.706521e+01 9.504942e+01 5.676484e+01 2.662877e+01 6.663136e+01 4.425076e+01
<GCONST> 4.488318e+01
<STATE> 5
<MEAN> 8
 -5.448763e+00 -7.529189e+00 -6.994928e+00 -7.768687e+00 -6.244361e+00 -7.951742e+00 -6.706825e+00 -7.412572e+00
<VARIANCE> 8
 3.465377e+01 3.984211e+01 4.315007e+01 3.598447e+01 3.643383e+01 4.202966e+01 3.114297e+01 3.656704e+01
<GCONST> 4.365273e+01
<TRANSP> 6
 0.000000e+00 1.000000e+00 0.000000e+00 0.000000e+00 0.000000e+00 0.000000e+00
 0.000000e+00 7.431518e-01 2.568482e-01 0.000000e+00 0.000000e+00 0.000000e+00
 0.000000e+00 0.000000e+00 0.000000e+00 1.000000e+00 0.000000e+00 0.000000e+00
 0.000000e+00 0.000000e+00 0.000000e+00 3.365597e-02 9.663441e-01 0.000000e+00
 0.000000e+00 0.000000e+00 0.000000e+00 0.000000e+00 8.122395e-01 1.877604e-01
 0.000000e+00 0.000000e+00 0.000000e+00 0.000000e+00 0.000000e+00 0.000000e+00
<ENDHMM>
