~o
<STREAMINFO> 1 8
<VECSIZE> 8<NULLD><USER><DIAGC>
~h "h"
<BEGINHMM>
<NUMSTATES> 6
<STATE> 2
<MEAN> 8
 -5.599843e+00 -7.385237e+00 -6.910232e+00 -7.605705e+00 -6.448330e+00 -7.662790e+00 -7.157527e+00 -7.431498e+00
<VARIANCE> 8
 4.114737e+01 3.775873e+01 3.765737e+01 3.688965e+01 3.183777e+01 4.413603e+01 3.727041e+01 3.802951e+01
<GCONST> 4.379234e+01
<STATE> 3
<MEAN> 8
 -3.987225e+00 -1.074064e+01 -4.815306e+00 -8.393033e+00 -1.160944e+01 -7.692562e+00 -4.317839e+00 -1.039306e+01
<VARIANCE> 8
 4.056893e+01 2.605980e+01 1.410188e+01 1.051050e+02 4.614642e+01 2.490842e+01 6.369423e+01 2.515271e+01
<GCONST> 4.339376e+01
<STATE> 4
<MEAN> 8
 -4.874733e+00 -7.354605e+00 -1.118156e+01 -7.559784e+00 -4.097425e+00 -9.382762e+00 -5.477345e+00 -7.589137e+00
<VARIANCE> 8
 1.539584e+01 1.075058e+02 4.591294e+01 2.329841e+01 6.422952e+01 2.529485e+01 1.465032e+01 9.752645e+01
<GCONST> 4.374744e+01
<STATE> 5
<MEAN> 8
 -6.894501e+00 -9.625636e+00 -7.337280e+00 -9.809289e+00 -7.764514e+00 -9.533898e+00 -8.406251e+00 -9.564612e+00
<VARIANCE> 8
 5.349502e+01 6.272543e+01 5.974495e+01 6.262059e+01 5.305770e+01 7.029453e+01 5.764762e+01 6.409416e+01
<GCONST> 4.748733e+01
<TRANSP> 6
 0.000000e+00 1.000000e+00 0.000000e+00 0.000000e+00 0.000000e+00 0.000000e+00
 0.000000e+00 8.124065e-01 1.875935e-01 0.000000e+00 0.000000e+00 0.000000e+00
 0.000000e+00 0.000000e+00 0.000000e+00 1.000000e+00 0.000000e+00 0.000000e+00
 0.000000e+00 0.000000e+00 0.000000e+00 0.000000e+00 1.000000e+00 0.000000e+00
 0.000000e+00 0.000000e+00 0.000000e+00 0.000000e+00 7.423574e-01 2.576427e-01
 0.000000e+00 0.000000e+00 0.000000e+00 0.000000e+00 0.000000e+00 0.000000e+00
<ENDHMM>
