~o
<STREAMINFO> 1 8
<VECSIZE> 8<NULLD><USER><DIAGC>
~h "i"
<BEGINHMM>
<NUMSTATES> 6
<STATE> 2
<MEAN> 8
 -6.977017e+00 -1.019261e+01 -8.659219e+00 -9.835972e+00 -8.663920e+00 -1.013412e+01 -8.231291e+00 -1.022737e+01
<VARIANCE> 8
 5.810083e+01 8.456637e+01 6.326720e+01 7.516084e+01 6.495003e+01 7.635521e+01 6.551392e+01 8.290258e+01
<GCONST> 4.877868e+01
<STATE> 3
<MEAN> 8
 -5.554045e+00 -6.427101e+00 -6.534620e+00 -7.160649e+00 -5.958547e+00 -6.912166e+00 -7.231420e+00 -6.006807e+00
<VARIANCE> 8
 4.215558e+01 2.561419e+01 3.301332e+01 3.278914e+01 2.618656e+01 4.354207e+01 3.084078e+01 2.645658e+01
<GCONST> 4.241785e+01
<STATE> 4
<MEAN> 8
 -4.639848e+00 -1.144278e+01 -5.035283e+00 -7.857987e+00 -1.154187e+01 -6.840630e+00 -5.469129e+00 -1.242131e+01
<VARIANCE> 8
 3.682819e+01 3.471770e+01 1.746075e+01 1.070674e+02 3.606897e+01 2.042285e+01 7.688976e+01 4.365533e+01
<GCONST> 4.411073e+01
<STATE> 5
<MEAN> 8
 -6.533402e+00 -8.180723e+00 -8.331354e+00 -8.629092e+00 -7.242840e+00 -9.090673e+00 -7.731095e+00 -8.304951e+00
<VARIANCE> 8
 4.458624e+01 5.814594e+01 5.230933e+01 4.311283e+01 5.231882e+01 5.505260e+01 4.035487e+01 5.345686e+01
<GCONST> 4.592662e+01
<TRANSP> 6
 0.000000e+00 1.000000e+00 0.000000e+00 0.000000e+00 0.000000e+00 0.000000e+00
 0.000000e+00 6.243988e-01 3.756012e-01 0.000000e+00 0.000000e+00 0.000000e+00
 0.000000e+00 0.000000e+00 7.598979e-01 2.401021e-01 0.000000e+00 0.000000e+00
 0.000000e+00 0.000000e+00 0.000000e+00 1.232862e-02 9.876714e-01 0.000000e+00
 0.000000e+00 0.000000e+00 0.000000e+00 0.000000e+00 7.107974e-01 2.892026e-01
 0.000000e+00 0.000000e+00 0.000000e+00 0.000000e+00 0.000000e+00 0.000000e+00
<ENDHMM>
