~o
<STREAMINFO> 1 8
<VECSIZE> 8<NULLD><USER><DIAGC>
~h "j"
<BEGINHMM>
<NUMSTATES> 6
<STATE> 2
<MEAN> 8
 -6.899220e+00 -9.383808e+00 -8.275160e+00 -9.768412e+00 -7.836643e+00 -9.163362e+00 -7.464144e+00 -9.501657e+00
<VARIANCE> 8
 3.782133e+01 6.061710e+01 6.565383e+01 4.892679e+01 5.528478e+01 3.952047e+01 3.766677e+01 5.788148e+01
<GCONST> 4.589168e+01
<STATE> 3
<MEAN> 8
 -8.245925e+00 -7.644233e+00 -1.001071e+01 -4.648970e+00 -2.988825e+00 -1.702294e+01 -7.565982e+00 -5.695451e+00
<VARIANCE> 8
 1.056267e+02 3.964104e+01 9.903627e+00 2.153001e+01 1.122022e+01 4.369207e+01 2.643084e+01 4.424196e+01
<GCONST> 4.166423e+01
<STATE> 4
<MEAN> 8
 -8.521886e+00 -1.043020e+01 -3.823903e+00 -1.442189e+01 -7.179975e+00 -8.207861e+00 -9.323573e+00 -1.061906e+01
<VARIANCE> 8
 3.094190e+01 4.519756e+01 4.954853e+01 4.181844e+01 2.824475e+01 5.059209e+01 4.110860e+01 3.402174e+01
<GCONST> 4.409038e+01
<STATE> 5
<MEAN> 8
 -3.638019e+00 -1.010685e+01 -6.196710e+00 -7.714319e+00 -7.547745e+00 -8.398597e+00 -5.682408e+00 -8.856135e+00
<VARIANCE> 8
 3.549244e+01 4.181675e+01 1.865154e+01 2.723042e+01 2.927182e+01 3.280993e+01 3.852443e+01 3.736941e+01
<GCONST> 4.237540e+01
<TRANSP> 6
 0.000000e+00 1.000000e+00 0.000000e+00 0.000000e+00 0.000000e+00 0.000000e+00
 0.000000e+00 7.895506e-01 2.104494e-01 0.000000e+00 0.000000e+00 0.000000e+00
 0.000000e+00 0.000000e+00 4.446889e-03 9.955531e-01 0.000000e+00 0.000000e+00
 0.000000e+00 0.000000e+00 0.000000e+00 5.862219e-01 4.137780e-01 0.000000e+00
 0.000000e+00 0.000000e+00 0.000000e+00 0.000000e+00 6.593022e-01 3.406978e-01
 0.000000e+00 0.000000e+00 0.000000e+00 0.000000e+00 0.000000e+00 0.000000e+00
<ENDHMM>
