~o
<STREAMINFO> 1 8
<VECSIZE> 8<NULLD><USER><DIAGC>
~h "k"
<BEGINHMM>
<NUMSTATES> 6
<STATE> 2
<MEAN> 8
 -6.408459e+00 -9.909562e+00 -7.828287e+00 -9.406547e+00 -8.348814e+00 -9.450226e+00 -7.782994e+00 -9.943305e+00
<VARIANCE> 8
 5.671907e+01 5.529264e+01 5.330965e+01 5.099654e+01 5.607987e+01 5.986927e+01 6.053772e+01 6.195997e+01
<GCONST> 4.701034e+01
<STATE> 3
<MEAN> 8
 -5.293130e+00 -7.520426e+00 -5.984133e+00 -7.735150e+00 -5.263012e+00 -7.990015e+00 -6.595815e+00 -7.080609e+00
<VARIANCE> 8
 3.501871e+01 2.308969e+01 3.701673e+01 2.868759e+01 2.725157e+01 4.283339e+01 2.921932e+01 2.408417e+01
<GCONST> 4.198493e+01
<STATE> 4
<MEAN> 8
 -6.735424e+00 -9.805960e+00 -3.784873e+00 -9.440335e+00 -1.172233e+01 -8.165725e+00 -5.361666e+00 -1.075569e+01
<VARIANCE> 8
 6.446002e+01 2.407176e+01 8.521602e+00 1.144154e+02 4.650103e+01 1.875937e+01 7.565041e+01 1.763856e+01
<GCONST> 4.289992e+01
<STATE> 5
<MEAN> 8
 -5.972492e+00 -8.466888e+00 -9.042852e+00 -8.656051e+00 -7.260600e+00 -8.869568e+00 -8.000685e+00 -8.513754e+00
<VARIANCE> 8
 3.805594e+01 7.741076e+01 5.161147e+01 4.792434e+01 4.775193e+01 5.502735e+01 4.247120e+01 7.095808e+01
<GCONST> 4.638933e+01
<TRANSP> 6
 0.000000e+00 1.000000e+00 0.000000e+00 0.000000e+00 0.000000e+00 0.000000e+00
 0.000000e+00 6.389014e-01 3.610987e-01 0.000000e+00 0.000000e+00 0.000000e+00
 0.000000e+00 0.000000e+00 7.472048e-01 2.527952e-01 0.000000e+00 0.000000e+00
 0.000000e+00 0.000000e+00 0.000000e+00 7.770177e-02 9.222983e-01 0.000000e+00
 0.000000e+00 0.000000e+00 0.000000e+00 0.000000e+00 7.134186e-01 2.865814e-01
 0.000000e+00 0.000000e+00 0.000000e+00 0.000000e+00 0.000000e+00 0.000000e+00
<ENDHMM>
