~o
<STREAMINFO> 1 8
<VECSIZE> 8<NULLD><USER><DIAGC>
~h "n"
<BEGINHMM>
<NUMSTATES> 6
<STATE> 2
<MEAN> 8
 -6.470882e+00 -9.535908e+00 -8.579427e+00 -8.911959e+00 -8.172438e+00 -9.550297e+00 -7.608096e+00 -9.266739e+00
<VARIANCE> 8
 5.204922e+01 6.818422e+01 5.825317e+01 6.462301e+01 6.078745e+01 6.419933e+01 5.294106e+01 7.242911e+01
<GCONST> 4.763195e+01
<STATE> 3
<MEAN> 8
 -8.419319e+00 -6.835938e+00 -5.640800e+00 -1.124342e+01 -4.997714e+00 -7.337849e+00 -1.183053e+01 -6.906772e+00
<VARIANCE> 8
 6.995270e+01 2.328548e+01 6.205846e+01 3.037080e+01 1.619466e+01 8.600373e+01 3.763362e+01 2.304024e+01
<GCONST> 4.364444e+01
<STATE> 4
<MEAN> 8
 -3.524954e+00 -1.094184e+01 -5.174528e+00 -7.127641e+00 -1.126358e+01 -7.317338e+00 -3.952522e+00 -1.120485e+01
<VARIANCE> 8
 3.324870e+01 3.449116e+01 1.646120e+01 1.068106e+02 3.005779e+01 2.430674e+01 6.616076e+01 2.973019e+01
<GCONST> 4.339792e+01
<STATE> 5
<MEAN> 8
 -5.891659e+00 -7.138008e+00 -7.199518e+00 -7.399087e+00 -6.409142e+00 -7.708993e+00 -6.942920e+00 -7.179492e+00
<VARIANCE> 8
 3.779045e+01 4.304589e+01 3.736521e+01 3.425400e+01 3.875254e+01 3.960629e+01 3.373050e+01 4.207136e+01
<GCONST> 4.384584e+01
<TRANSP> 6
 0.000000e+00 1.000000e+00 0.000000e+00 0.000000e+00 0.000000e+00 0.000000e+00
 0.000000e+00 7.411322e-01 2.588678e-01 0.000000e+00 0.000000e+00 0.000000e+00
 0.000000e+00 0.000000e+00 0.000000e+00 1.000000e+00 0.000000e+00 0.000000e+00
 0.000000e+00 0.000000e+00 0.000000e+00 6.985617e-04 9.993014e-01 0.000000e+00
 0.000000e+00 0.000000e+00 0.000000e+00 0.000000e+00 8.141677e-01 1.858324e-01
 0.000000e+00 0.000000e+00 0.000000e+00 0.000000e+00 0.000000e+00 0.000000e+00
<ENDHMM>
