~o
<STREAMINFO> 1 8
<VECSIZE> 8<NULLD><USER><DIAGC>
~h "o"
<BEGINHMM>
<NUMSTATES> 6
<STATE> 2
<MEAN> 8
 -6.777950e+00 -9.381996e+00 -8.472447e+00 -9.374207e+00 -8.262691e+00 -9.248267e+00 -8.498846e+00 -9.267086e+00
<VARIANCE> 8
 5.906426e+01 8.080341e+01 6.116713e+01 7.223115e+01 5.791698e+01 6.592641e+01 5.880825e+01 6.617363e+01
<GCONST> 4.808126e+01
<STATE> 3
<MEAN> 8
 -4.759281e+00 -7.444385e+00 -5.688000e+00 -7.245581e+00 -6.975748e+00 -7.139288e+00 -5.850474e+00 -7.391629e+00
<VARIANCE> 8
 3.312500e+01 2.748651e+01 2.517506e+01 3.909003e+01 3.296492e+01 2.572017e+01 3.501655e+01 2.308761e+01
<GCONST> 4.184656e+01
<STATE> 4
<MEAN> 8
 -4.568026e+00 -8.047771e+00 -1.139114e+01 -7.458133e+00 -4.813789e+00 -9.151587e+00 -5.030324e+00 -9.052060e+00
<VARIANCE> 8
 1.310685e+01 1.083869e+02 3.877362e+01 2.180450e+01 6.225049e+01 2.327933e+01 1.465666e+01 1.408631e+02
<GCONST> 4.361313e+01
<STATE> 5
<MEAN> 8
 -7.044470e+00 -8.544484e+00 -6.922292e+00 -8.974624e+00 -7.372352e+00 -8.829527e+00 -8.189100e+00 -8.395057e+00
<VARIANCE> 8
 4.968649e+01 3.537438e+01 4.679393e+01 5.000496e+01 4.388327e+01 6.937870e+01 5.008535e+01 4.441199e+01
<GCONST> 4.566096e+01
<TRANSP> 6
 0.000000e+00 1.000000e+00 0.000000e+00 0.000000e+00 0.000000e+00 0.000000e+00
 0.000000e+00 6.308416e-01 3.691584e-01 0.000000e+00 0.000000e+00 0.000000e+00
 0.000000e+00 0.000000e+00 7.346695e-01 2.653305e-01 0.000000e+00 0.000000e+00
 0.000000e+00 0.000000e+00 0.000000e+00 0.000000e+00 1.000000e+00 0.000000e+00
 0.000000e+00 0.000000e+00 0.000000e+00 0.000000e+00 7.302641e-01 2.697358e-01
 0.000000e+00 0.000000e+00 0.000000e+00 0.000000e+00 0.000000e+00 0.000000e+00
<ENDHMM>
