~o
<STREAMINFO> 1 8
<VECSIZE> 8<NULLD><USER><DIAGC>
~h "q"
<BEGINHMM>
<NUMSTATES> 6
<STATE> 2
<MEAN> 8
 -5.653449e+00 -8.035504e+00 -8.284689e+00 -8.612830e+00 -8.089660e+00 -7.970080e+00 -9.623073e+00 -8.027535e+00
<VARIANCE> 8
 4.316788e+01 4.862798e+01 4.131269e+01 3.972229e+01 3.627158e+01 5.208352e+01 3.887648e+01 5.153803e+01
<GCONST> 4.490199e+01
<STATE> 3
<MEAN> 8
 -5.560743e+00 -1.115596e+01 -5.526547e+00 -6.798460e+00 -1.105938e+01 -8.643410e+00 -3.912790e+00 -1.003674e+01
<VARIANCE> 8
 4.399100e+01 1.569231e+01 1.849607e+01 8.782542e+01 2.631760e+01 3.409439e+01 5.066998e+01 7.353518e+00
<GCONST> 4.135297e+01
<STATE> 4
<MEAN> 8
 -5.013879e+00 -5.185655e+00 -7.318151e+00 -6.247060e+00 -5.734447e+00 -5.962609e+00 -7.023563e+00 -5.015469e+00
<VARIANCE> 8
 2.988745e+01 2.938005e+01 2.498999e+01 2.363454e+01 3.189560e+01 2.328810e+01 2.000236e+01 2.912739e+01
<GCONST> 4.083989e+01
<STATE> 5
<MEAN> 8
 -6.113878e+00 -1.037595e+01 -6.746354e+00 -9.803687e+00 -6.798713e+00 -1.011067e+01 -6.015728e+00 -1.065264e+01
<VARIANCE> 8
 3.007658e+01 4.815052e+01 4.153746e+01 3.721457e+01 4.269761e+01 4.155532e+01 4.290382e+01 4.376130e+01
<GCONST> 4.434327e+01
<TRANSP> 6
 0.000000e+00 1.000000e+00 0.000000e+00 0.000000e+00 0.000000e+00 0.000000e+00
 0.000000e+00 7.153408e-01 2.846592e-01 0.000000e+00 0.000000e+00 0.000000e+00
 0.000000e+00 0.000000e+00 1.774563e-01 8.225437e-01 0.000000e+00 0.000000e+00
 0.000000e+00 0.000000e+00 0.000000e+00 7.327126e-01 2.672874e-01 0.000000e+00
 0.000000e+00 0.000000e+00 0.000000e+00 0.000000e+00 6.455986e-01 3.544014e-01
 0.000000e+00 0.000000e+00 0.000000e+00 0.000000e+00 0.000000e+00 0.000000e+00
<ENDHMM>
