~o
<STREAMINFO> 1 8
<VECSIZE> 8<NULLD><USER><DIAGC>
~h "r"
<BEGINHMM>
<NUMSTATES> 6
<STATE> 2
<MEAN> 8
 -6.628011e+00 -8.741207e+00 -8.192407e+00 -8.934900e+00 -7.805576e+00 -8.990629e+00 -8.706742e+00 -8.797868e+00
<VARIANCE> 8
 5.694908e+01 6.428431e+01 5.699660e+01 6.585804e+01 5.444341e+01 6.971597e+01 5.489894e+01 5.894625e+01
<GCONST> 4.746270e+01
<STATE> 3
<MEAN> 8
 -4.226885e+00 -1.067039e+01 -4.845809e+00 -8.025184e+00 -1.218763e+01 -7.588234e+00 -4.370829e+00 -1.027344e+01
<VARIANCE> 8
 4.073492e+01 2.797908e+01 1.560772e+01 9.355610e+01 3.785764e+01 2.350112e+01 5.185805e+01 2.293710e+01
<GCONST> 4.290003e+01
<STATE> 4
<MEAN> 8
 -5.076836e+00 -6.848833e+00 -1.196461e+01 -7.768981e+00 -3.972149e+00 -9.546476e+00 -5.558394e+00 -7.577536e+00
<VARIANCE> 8
 1.942771e+01 1.114073e+02 4.358585e+01 2.481395e+01 5.949918e+01 2.302672e+01 1.678499e+01 1.158971e+02
<GCONST> 4.416485e+01
<STATE> 5
<MEAN> 8
 -5.975836e+00 -7.661429e+00 -6.281623e+00 -7.854393e+00 -6.741620e+00 -7.541129e+00 -7.195618e+00 -7.542179e+00
<VARIANCE> 8
 4.358055e+01 3.301241e+01 3.886168e+01 4.063005e+01 3.230398e+01 4.862360e+01 3.916234e+01 3.730326e+01
<GCONST> 4.398512e+01
<TRANSP> 6
 0.000000e+00 1.000000e+00 0.000000e+00 0.000000e+00 0.000000e+00 0.000000e+00
 0.000000e+00 7.527310e-01 2.472690e-01 0.000000e+00 0.000000e+00 0.000000e+00
 0.000000e+00 0.000000e+00 0.000000e+00 1.000000e+00 0.000000e+00 0.000000e+00
 0.000000e+00 0.000000e+00 0.000000e+00 2.033505e-02 9.796649e-01 0.000000e+00
 0.000000e+00 0.000000e+00 0.000000e+00 0.000000e+00 8.062365e-01 1.937635e-01
 0.000000e+00 0.000000e+00 0.000000e+00 0.000000e+00 0.000000e+00 0.000000e+00
<ENDHMM>
