~o
<STREAMINFO> 1 8
<VECSIZE> 8<NULLD><USER><DIAGC>
~h "s"
<BEGINHMM>
<NUMSTATES> 6
<STATE> 2
<MEAN> 8
 -6.462854e+00 -9.472425e+00 -8.547710e+00 -8.974181e+00 -8.135332e+00 -9.585080e+00 -7.626468e+00 -9.394160e+00
<VARIANCE> 8
 5.165850e+01 6.653281e+01 5.763391e+01 6.333239e+01 6.178926e+01 6.260461e+01 5.513019e+01 6.701993e+01
<GCONST> 4.752313e+01
<STATE> 3
<MEAN> 8
 -7.891127e+00 -6.665176e+00 -5.871634e+00 -1.122740e+01 -5.085383e+00 -7.472801e+00 -1.153236e+01 -6.767424e+00
<VARIANCE> 8
 6.104892e+01 2.078122e+01 7.437667e+01 3.422705e+01 1.548760e+01 8.721938e+01 3.849438e+01 2.054328e+01
<GCONST> 4.357241e+01
<STATE> 4
<MEAN> 8
 -3.897926e+00 -1.115419e+01 -5.186870e+00 -7.575368e+00 -1.120642e+01 -7.121807e+00 -4.883289e+00 -1.130091e+01
<VARIANCE> 8
 3.515009e+01 4.459051e+01 1.693892e+01 1.030305e+02 3.444229e+01 2.121659e+01 6.921571e+01 3.644859e+01
<GCONST> 4.395200e+01
<STATE> 5
<MEAN> 8
 -5.651777e+00 -7.139290e+00 -7.202143e+00 -7.320872e+00 -6.505123e+00 -7.634277e+00 -6.881347e+00 -7.143205e+00
<VARIANCE> 8
 3.736166e+01 4.353294e+01 3.769238e+01 3.533579e+01 3.791425e+01 3.966175e+01 3.252128e+01 4.308187e+01
<GCONST> 4.385225e+01
<TRANSP> 6
 0.000000e+00 1.000000e+00 0.000000e+00 0.000000e+00 0.000000e+00 0.000000e+00
 0.000000e+00 7.453576e-01 2.546424e-01 0.000000e+00 0.000000e+00 0.000000e+00
 0.000000e+00 0.000000e+00 0.000000e+00 1.000000e+00 0.000000e+00 0.000000e+00
 0.000000e+00 0.000000e+00 0.000000e+00 1.219748e-02 9.878025e-01 0.000000e+00
 0.000000e+00 0.000000e+00 0.000000e+00 0.000000e+00 8.139784e-01 1.860216e-01
 0.000000e+00 0.000000e+00 0.000000e+00 0.000000e+00 0.000000e+00 0.000000e+00
<ENDHMM>
