~o
<STREAMINFO> 1 8
<VECSIZE> 8<NULLD><USER><DIAGC>
~h "z"
<BEGINHMM>
<NUMSTATES> 6
<STATE> 2
<MEAN> 8
 -5.458490e+00 -7.994263e+00 -5.522418e+00 -8.171534e+00 -6.701898e+00 -8.549417e+00 -7.623453e+00 -7.155137e+00
<VARIANCE> 8
 5.018488e+01 1.929381e+01 2.290817e+01 7.001025e+01 2.808430e+01 5.130659e+01 2.615355e+01 2.552152e+01
<GCONST> 4.273519e+01
<STATE> 3
<MEAN> 8
 -5.158680e+00 -1.145489e+01 -6.225521e+00 -1.199667e+01 -7.409163e+00 -1.020675e+01 -6.499959e+00 -1.098829e+01
<VARIANCE> 8
 4.812370e+01 8.293149e+01 4.736523e+01 7.516689e+01 2.922443e+01 4.664716e+01 7.146922e+01 5.796967e+01
<GCONST> 4.671921e+01
<STATE> 4
<MEAN> 8
 -4.962719e+00 -7.620220e+00 -8.058489e+00 -6.565412e+00 -7.317256e+00 -6.653484e+00 -5.214637e+00 -8.545169e+00
<VARIANCE> 8
 1.852938e+01 8.821204e+01 3.467476e+01 2.318542e+01 2.921531e+01 2.209639e+01 1.632659e+01 7.638915e+01
<GCONST> 4.239039e+01
<STATE> 5
<MEAN> 8
 -5.798907e+00 -8.096032e+00 -5.497112e+00 -8.330476e+00 -5.138569e+00 -8.765782e+00 -6.134294e+00 -7.379280e+00
<VARIANCE> 8
 3.427254e+01 1.692517e+01 2.583013e+01 3.182272e+01 4.018682e+01 4.214584e+01 3.677201e+01 2.270269e+01
<GCONST> 4.193978e+01
<TRANSP> 6
 0.000000e+00 1.000000e+00 0.000000e+00 0.000000e+00 0.000000e+00 0.000000e+00
 0.000000e+00 6.340005e-01 3.659995e-01 0.000000e+00 0.000000e+00 0.000000e+00
 0.000000e+00 0.000000e+00 5.217884e-01 4.782116e-01 0.000000e+00 0.000000e+00
 0.000000e+00 0.000000e+00 0.000000e+00 4.984532e-01 5.015467e-01 0.000000e+00
 0.000000e+00 0.000000e+00 0.000000e+00 0.000000e+00 7.802787e-01 2.197213e-01
 0.000000e+00 0.000000e+00 0.000000e+00 0.000000e+00 0.000000e+00 0.000000e+00
<ENDHMM>
