~o
<STREAMINFO> 1 8
<VECSIZE> 8<NULLD><USER><DIAGC>
~h "_"
<BEGINHMM>
<NUMSTATES> 6
<STATE> 2
<MEAN> 8
 -7.971667e+00 -1.227706e+01 -7.924601e+00 -1.248572e+01 -8.089094e+00 -1.203056e+01 -8.123111e+00 -1.226944e+01
<VARIANCE> 8
 5.627125e+01 5.724492e+01 6.562841e+01 5.370343e+01 6.210376e+01 4.960112e+01 5.738970e+01 4.437082e+01
<GCONST> 4.682329e+01
<STATE> 3
<MEAN> 8
 -4.683796e+00 -7.825272e+00 -4.689544e+00 -7.796230e+00 -4.872969e+00 -7.766644e+00 -4.754491e+00 -7.767825e+00
<VARIANCE> 8
 3.202108e+01 1.897102e+01 3.169106e+01 1.955369e+01 3.289694e+01 1.854277e+01 3.207705e+01 1.866428e+01
<GCONST> 4.034974e+01
<STATE> 4
<MEAN> 8
 -3.045745e+00 -1.085888e+01 -1.451190e+01 -8.475677e+00 -4.241121e+00 -1.061452e+01 -3.340317e+00 -1.177666e+01
<VARIANCE> 8
 2.773142e+00 1.139811e+02 3.798191e+01 8.285687e+00 5.294765e+01 1.936905e+01 4.712596e+00 1.292672e+02
<GCONST> 3.955577e+01
<STATE> 5
<MEAN> 8
 -7.513015e+00 -1.044587e+01 -6.361817e+00 -1.059371e+01 -6.585755e+00 -1.068972e+01 -7.105372e+00 -1.053386e+01
<VARIANCE> 8
 5.633369e+01 2.179609e+01 4.469350e+01 2.636502e+01 4.330189e+01 3.230720e+01 5.419777e+01 2.495148e+01
<GCONST> 4.334097e+01
<TRANSP> 6
 0.000000e+00 1.000000e+00 0.000000e+00 0.000000e+00 0.000000e+00 0.000000e+00
 0.000000e+00 8.099600e-01 1.900400e-01 0.000000e+00 0.000000e+00 0.000000e+00
 0.000000e+00 0.000000e+00 9.728898e-01 2.711008e-02 0.000000e+00 0.000000e+00
 0.000000e+00 0.000000e+00 0.000000e+00 0.000000e+00 1.000000e+00 0.000000e+00
 0.000000e+00 0.000000e+00 0.000000e+00 0.000000e+00 8.981290e-01 1.018709e-01
 0.000000e+00 0.000000e+00 0.000000e+00 0.000000e+00 0.000000e+00 0.000000e+00
<ENDHMM>
~h "a"
<BEGINHMM>
<NUMSTATES> 6
<STATE> 2
<MEAN> 8
 -7.111567e+00 -1.042747e+01 -6.723652e+00 -1.067509e+01 -7.486197e+00 -9.837779e+00 -7.109672e+00 -1.038182e+01
<VARIANCE> 8
 5.970086e+01 4.462862e+01 6.391722e+01 4.738317e+01 4.974925e+01 3.787957e+01 5.408139e+01 3.389267e+01
<GCONST> 4.566169e+01
<STATE> 3
<MEAN> 8
 -4.033131e+00 -6.056678e+00 -4.292064e+00 -6.045060e+00 -4.296463e+00 -6.042348e+00 -4.302316e+00 -5.987329e+00
<VARIANCE> 8
 2.090387e+01 1.694568e+01 2.033042e+01 1.722079e+01 2.011438e+01 1.704988e+01 1.996345e+01 1.689177e+01
<GCONST> 3.808951e+01
<STATE> 4
<MEAN> 8
 -8.838162e+00 -1.538617e+01 -8.950397e+00 -1.517368e+01 -8.912565e+00 -1.528506e+01 -9.071760e+00 -1.554524e+01
<VARIANCE> 8
 6.669244e+01 1.201932e+02 6.470985e+01 1.184577e+02 6.500574e+01 1.186624e+02 6.889702e+01 1.163169e+02
<GCONST> 5.057637e+01
<STATE> 5
<MEAN> 8
 -5.888172e+00 -1.031568e+01 -5.863031e+00 -1.033777e+01 -5.926496e+00 -1.030315e+01 -5.700520e+00 -1.024473e+01
<VARIANCE> 8
 3.705008e+01 2.532704e+01 3.919960e+01 2.699733e+01 4.116343e+01 2.726460e+01 3.866074e+01 2.605164e+01
<GCONST> 4.244961e+01
<TRANSP> 6
 0.000000e+00 1.000000e+00 0.000000e+00 0.000000e+00 0.000000e+00 0.000000e+00
 0.000000e+00 6.613315e-01 3.386686e-01 0.000000e+00 0.000000e+00 0.000000e+00
 0.000000e+00 0.000000e+00 9.751043e-01 2.489568e-02 0.000000e+00 0.000000e+00
 0.000000e+00 0.000000e+00 0.000000e+00 8.983885e-01 1.016115e-01 0.000000e+00
 0.000000e+00 0.000000e+00 0.000000e+00 0.000000e+00 9.229258e-01 7.707427e-02
 0.000000e+00 0.000000e+00 0.000000e+00 0.000000e+00 0.000000e+00 0.000000e+00
<ENDHMM>
~h "b"
<BEGINHMM>
<NUMSTATES> 6
<STATE> 2
<MEAN> 8
 -1.008297e+01 -1.070676e+01 -1.100304e+01 -1.079580e+01 -1.091051e+01 -1.072975e+01 -1.112000e+01 -1.076306e+01
<VARIANCE> 8
 1.001163e+02 5.537890e+01 1.000474e+02 5.435254e+01 1.006653e+02 5.557318e+01 1.027336e+02 5.520800e+01
<GCONST> 4.919743e+01
<STATE> 3
<MEAN> 8
 -6.073626e+00 -9.052710e+00 -5.651903e+00 -8.704343e+00 -1.039762e+01 -8.743037e+00 -5.886612e+00 -9.494731e+00
<VARIANCE> 8
 3.417927e+01 2.987955e+01 2.697139e+01 3.711825e+01 9.059527e+01 1.981852e+01 5.959288e+01 2.105675e+01
<GCONST> 4.316848e+01
<STATE> 4
<MEAN> 8
 -3.691340e+00 -7.527516e+00 -1.933166e+01 -9.554820e+00 5.120580e-01 -1.149941e+01 -4.799850e+00 -3.721874e+00
<VARIANCE> 8
 3.455712e+00 6.203622e+01 4.846025e+01 1.185543e+01 3.695331e+01 8.935265e+00 4.410288e+00 8.145037e+01
<GCONST> 3.810789e+01
<STATE> 5
<MEAN> 8
 -9.072061e+00 -8.745101e+00 -7.067355e+00 -8.469437e+00 -7.921877e+00 -8.201308e+00 -8.948031e+00 -8.703682e+00
<VARIANCE> 8
 8.960162e+01 2.405762e+01 7.390998e+01 3.019457e+01 5.405783e+01 3.793714e+01 6.770300e+01 2.492100e+01
<GCONST> 4.514618e+01
<TRANSP> 6
 0.000000e+00 1.000000e+00 0.000000e+00 0.000000e+00 0.000000e+00 0.000000e+00
 0.000000e+00 9.543162e-01 4.568382e-02 0.000000e+00 0.000000e+00 0.000000e+00
 0.000000e+00 0.000000e+00 6.624403e-01 3.375598e-01 0.000000e+00 0.000000e+00
 0.000000e+00 0.000000e+00 0.000000e+00 0.000000e+00 1.000000e+00 0.000000e+00
 0.000000e+00 0.000000e+00 0.000000e+00 0.000000e+00 8.747492e-01 1.252509e-01
 0.000000e+00 0.000000e+00 0.000000e+00 0.000000e+00 0.000000e+00 0.000000e+00
<ENDHMM>
~h "c"
<BEGINHMM>
<NUMSTATES> 6
<STATE> 2
<MEAN> 8
 -7.799590e+00 -9.306159e+00 -1.029054e+01 -9.270886e+00 -1.017363e+01 -9.413510e+00 -1.007647e+01 -9.281574e+00
<VARIANCE> 8
 7.712814e+01 7.686510e+01 9.064828e+01 7.547161e+01 9.996420e+01 8.005222e+01 9.652628e+01 8.178973e+01
<GCONST> 5.018274e+01
<STATE> 3
<MEAN> 8
 -5.620517e+00 -5.406314e+00 -7.257907e+00 -5.349423e+00 -6.947242e+00 -5.632720e+00 -7.889428e+00 -5.197266e+00
<VARIANCE> 8
 3.652234e+01 3.155991e+01 2.251254e+01 3.470399e+01 2.094072e+01 4.362218e+01 2.151781e+01 3.162346e+01
<GCONST> 4.175380e+01
<STATE> 4
<MEAN> 8
 -6.115069e+00 -1.025692e+01 -3.083437e+00 -1.184129e+01 -1.451655e+01 -8.692129e+00 -4.229023e+00 -1.180193e+01
<VARIANCE> 8
 4.557255e+01 2.341520e+01 5.038887e+00 1.336006e+02 4.299168e+01 1.110249e+01 5.754288e+01 1.405493e+01
<GCONST> 4.105143e+01
<STATE> 5
<MEAN> 8
 -6.574788e+00 -7.678553e+00 -1.104188e+01 -7.704811e+00 -1.034274e+01 -7.573957e+00 -1.061127e+01 -7.589773e+00
<VARIANCE> 8
 4.265373e+01 4.956021e+01 5.256974e+01 4.117848e+01 4.868054e+01 4.151702e+01 4.597520e+01 4.497943e+01
<GCONST> 4.528507e+01
<TRANSP> 6
 0.000000e+00 1.000000e+00 0.000000e+00 0.000000e+00 0.000000e+00 0.000000e+00
 0.000000e+00 8.622758e-01 1.377242e-01 0.000000e+00 0.000000e+00 0.000000e+00
 0.000000e+00 0.000000e+00 8.919557e-01 1.080444e-01 0.000000e+00 0.000000e+00
 0.000000e+00 0.000000e+00 0.000000e+00 0.000000e+00 1.000000e+00 0.000000e+00
 0.000000e+00 0.000000e+00 0.000000e+00 0.000000e+00 9.062046e-01 9.379531e-02
 0.000000e+00 0.000000e+00 0.000000e+00 0.000000e+00 0.000000e+00 0.000000e+00
<ENDHMM>
~h "d"
<BEGINHMM>
<NUMSTATES> 6
<STATE> 2
<MEAN> 8
 -6.470926e+00 -1.074909e+01 -6.961206e+00 -1.115855e+01 -6.940805e+00 -1.070440e+01 -6.826017e+00 -1.127373e+01
<VARIANCE> 8
 4.180024e+01 6.888976e+01 5.291282e+01 6.059813e+01 5.441292e+01 5.469158e+01 4.959831e+01 5.224873e+01
<GCONST> 4.659962e+01
<STATE> 3
<MEAN> 8
 -5.453839e+00 -8.733035e+00 -5.390058e+00 -8.747587e+00 -5.611126e+00 -8.714267e+00 -5.457366e+00 -8.751649e+00
<VARIANCE> 8
 3.081705e+01 1.820581e+01 3.086107e+01 1.867662e+01 3.295720e+01 1.795753e+01 3.185587e+01 1.781071e+01
<GCONST> 4.011383e+01
<STATE> 4
<MEAN> 8
 -3.144509e+00 -1.008541e+01 -1.500069e+01 -9.246229e+00 -1.219087e+00 -1.126042e+01 -4.024747e+00 -8.097052e+00
<VARIANCE> 8
 2.927962e+00 8.365620e+01 4.555022e+01 1.034519e+01 5.181335e+01 1.137440e+01 4.529658e+00 1.205666e+02
<GCONST> 3.904124e+01
<STATE> 5
<MEAN> 8
 -7.147668e+00 -1.043444e+01 -5.725448e+00 -1.042335e+01 -6.244793e+00 -1.055828e+01 -6.812778e+00 -1.041627e+01
<VARIANCE> 8
 5.332248e+01 2.094822e+01 3.815373e+01 2.663538e+01 3.153052e+01 3.392818e+01 4.522442e+01 2.365022e+01
<GCONST> 4.259550e+01
<TRANSP> 6
 0.000000e+00 1.000000e+00 0.000000e+00 0.000000e+00 0.000000e+00 0.000000e+00
 0.000000e+00 6.802739e-01 3.197261e-01 0.000000e+00 0.000000e+00 0.000000e+00
 0.000000e+00 0.000000e+00 9.706436e-01 2.935640e-02 0.000000e+00 0.000000e+00
 0.000000e+00 0.000000e+00 0.000000e+00 0.000000e+00 1.000000e+00 0.000000e+00
 0.000000e+00 0.000000e+00 0.000000e+00 0.000000e+00 8.727738e-01 1.272261e-01
 0.000000e+00 0.000000e+00 0.000000e+00 0.000000e+00 0.000000e+00 0.000000e+00
<ENDHMM>
~h "e"
<BEGINHMM>
<NUMSTATES> 6
<STATE> 2
<MEAN> 8
 -5.647888e+00 -5.882453e+00 -8.602741e+00 -5.827063e+00 -8.613111e+00 -5.893905e+00 -8.577757e+00 -5.993181e+00
<VARIANCE> 8
 4.242589e+01 4.526339e+01 2.492572e+01 4.562790e+01 2.543742e+01 4.502795e+01 3.030385e+01 4.525379e+01
<GCONST> 4.356675e+01
<STATE> 3
<MEAN> 8
 -8.592872e+00 -1.295895e+01 -9.297966e+00 -1.280409e+01 -9.830801e+00 -1.306317e+01 -9.129324e+00 -1.313755e+01
<VARIANCE> 8
 7.339112e+01 1.129546e+02 8.187539e+01 1.047311e+02 9.680058e+01 1.061460e+02 9.161634e+01 1.143712e+02
<GCONST> 5.127693e+01
<STATE> 4
<MEAN> 8
 -6.170909e+00 -8.315150e+00 -6.458150e+00 -9.757330e+00 -4.680383e+00 -8.944691e+00 -5.881479e+00 -7.812317e+00
<VARIANCE> 8
 1.230825e+01 1.874828e+01 8.073438e+01 1.877224e+01 5.497561e+01 3.784574e+01 1.455785e+01 2.508140e+01
<GCONST> 4.100859e+01
<STATE> 5
<MEAN> 8
 -6.804691e+00 -1.103917e+01 -6.136341e+00 -9.941159e+00 -7.292007e+00 -1.012896e+01 -7.535515e+00 -1.048172e+01
<VARIANCE> 8
 8.438065e+01 3.198583e+01 4.317321e+01 5.717865e+01 2.739924e+01 3.913896e+01 5.039824e+01 3.320790e+01
<GCONST> 4.481543e+01
<TRANSP> 6
 0.000000e+00 1.000000e+00 0.000000e+00 0.000000e+00 0.000000e+00 0.000000e+00
 0.000000e+00 9.372626e-01 6.273745e-02 0.000000e+00 0.000000e+00 0.000000e+00
 0.000000e+00 0.000000e+00 8.051363e-01 1.948637e-01 0.000000e+00 0.000000e+00
 0.000000e+00 0.000000e+00 0.000000e+00 6.988783e-01 3.011217e-01 0.000000e+00
 0.000000e+00 0.000000e+00 0.000000e+00 0.000000e+00 7.231504e-01 2.768496e-01
 0.000000e+00 0.000000e+00 0.000000e+00 0.000000e+00 0.000000e+00 0.000000e+00
<ENDHMM>
~h "f"
<BEGINHMM>
<NUMSTATES> 6
<STATE> 2
<MEAN> 8
 -6.644191e+00 -9.458479e+00 -9.626712e+00 -9.570415e+00 -5.633404e+00 -1.139941e+01 -5.238153e+00 -8.483037e+00
<VARIANCE> 8
 3.281835e+01 3.291689e+01 7.194863e+01 2.460351e+01 7.467472e+01 2.477413e+01 2.259196e+01 5.592414e+01
<GCONST> 4.383136e+01
<STATE> 3
<MEAN> 8
 -1.713578e+01 -8.457068e+00 3.569726e+00 -1.098294e+01 -4.897436e+00 1.297370e+00 -1.602823e+01 -8.247834e+00
<VARIANCE> 8
 5.837124e+01 7.843981e+00 3.263058e+01 1.046763e+01 3.609274e+00 1.071511e+02 3.374596e+01 7.787873e+00
<GCONST> 3.819230e+01
<STATE> 4
<MEAN> 8
 -5.995490e+00 -9.958376e+00 -5.857636e+00 -1.006784e+01 -8.863976e+00 -9.424356e+00 -8.626008e+00 -1.033054e+01
<VARIANCE> 8
 7.775085e+01 4.011888e+01 2.618875e+01 7.670096e+01 3.865208e+01 2.026480e+01 8.171545e+01 2.339998e+01
<GCONST> 4.457308e+01
<STATE> 5
<MEAN> 8
 -4.545675e+00 -8.355971e+00 -5.656364e+00 -7.757635e+00 -5.862311e+00 -8.245674e+00 -4.818606e+00 -8.099673e+00
<VARIANCE> 8
 3.813078e+01 3.393545e+01 3.925921e+01 2.939660e+01 5.238006e+01 2.634055e+01 4.312894e+01 2.983881e+01
<GCONST> 4.330920e+01
<TRANSP> 6
 0.000000e+00 1.000000e+00 0.000000e+00 0.000000e+00 0.000000e+00 0.000000e+00
 0.000000e+00 7.751638e-01 2.248361e-01 0.000000e+00 0.000000e+00 0.000000e+00
 0.000000e+00 0.000000e+00 0.000000e+00 1.000000e+00 0.000000e+00 0.000000e+00
 0.000000e+00 0.000000e+00 0.000000e+00 7.120589e-01 2.879412e-01 0.000000e+00
 0.000000e+00 0.000000e+00 0.000000e+00 0.000000e+00 8.323978e-01 1.676022e-01
 0.000000e+00 0.000000e+00 0.000000e+00 0.000000e+00 0.000000e+00 0.000000e+00
<ENDHMM>
~h "g"
<BEGINHMM>
<NUMSTATES> 6
<STATE> 2
<MEAN> 8
 -7.656661e+00 -1.331489e+01 -7.757743e+00 -1.326960e+01 -7.634173e+00 -1.332008e+01 -7.568678e+00 -1.340677e+01
<VARIANCE> 8
 4.260698e+01 5.742113e+01 4.090596e+01 5.593491e+01 4.062242e+01 5.731312e+01 4.163483e+01 5.864908e+01
<GCONST> 4.579427e+01
<STATE> 3
<MEAN> 8
 -1.032167e+01 -8.802483e+00 -5.153729e+00 -9.897508e+00 -2.598587e+00 -1.371410e+01 -1.492425e+01 -8.973189e+00
<VARIANCE> 8
 3.974472e+01 1.096789e+01 3.208812e+01 2.901765e+01 4.595344e+00 1.215205e+02 3.446290e+01 9.327318e+00
<GCONST> 3.971482e+01
<STATE> 4
<MEAN> 8
 -3.892945e+00 -1.209777e+01 -3.647780e+00 -1.387129e+01 -1.286256e+01 -1.010021e+01 -1.460474e+00 -1.179812e+01
<VARIANCE> 8
 3.515205e+01 1.899459e+01 6.027619e+00 1.135937e+02 3.924060e+01 1.245494e+01 4.446383e+01 1.407731e+01
<GCONST> 4.036691e+01
<STATE> 5
<MEAN> 8
 -5.136069e+00 -9.663132e+00 -5.198821e+00 -9.677197e+00 -5.087298e+00 -9.634427e+00 -5.195057e+00 -9.613209e+00
<VARIANCE> 8
 3.365432e+01 2.523573e+01 3.649402e+01 2.453033e+01 3.666984e+01 2.422910e+01 3.356650e+01 2.427179e+01
<GCONST> 4.173683e+01
<TRANSP> 6
 0.000000e+00 1.000000e+00 0.000000e+00 0.000000e+00 0.000000e+00 0.000000e+00
 0.000000e+00 9.618712e-01 3.812880e-02 0.000000e+00 0.000000e+00 0.000000e+00
 0.000000e+00 0.000000e+00 0.000000e+00 1.000000e+00 0.000000e+00 0.000000e+00
 0.000000e+00 0.000000e+00 0.000000e+00 1.260610e-02 9.873939e-01 0.000000e+00
 0.000000e+00 0.000000e+00 0.000000e+00 0.000000e+00 9.605469e-01 3.945318e-02
 0.000000e+00 0.000000e+00 0.000000e+00 0.000000e+00 0.000000e+00 0.000000e+00
<ENDHMM>
~h "h"
<BEGINHMM>
<NUMSTATES> 6
<STATE> 2
<MEAN> 8
 -5.239100e+00 -9.257531e+00 -5.307337e+00 -9.242702e+00 -5.078035e+00 -9.523759e+00 -5.594455e+00 -9.330669e+00
<VARIANCE> 8
 3.220872e+01 2.869482e+01 3.055396e+01 2.991587e+01 2.921089e+01 3.282330e+01 3.476667e+01 2.851556e+01
<GCONST> 4.211464e+01
<STATE> 3
<MEAN> 8
 -4.577897e+00 -1.206164e+01 -3.446676e+00 -1.252969e+01 -1.419733e+01 -9.205329e+00 -2.100628e+00 -1.175256e+01
<VARIANCE> 8
 2.878872e+01 1.664615e+01 6.856400e+00 1.095077e+02 3.462683e+01 1.481679e+01 3.709099e+01 1.098252e+01
<GCONST> 3.974643e+01
<STATE> 4
<MEAN> 8
 -4.293173e+00 -1.025455e+01 -1.193023e+01 -9.503551e+00 -3.926914e-01 -1.005808e+01 -5.812949e+00 -7.426872e+00
<VARIANCE> 8
 6.099969e+00 1.338614e+02 3.399793e+01 1.419866e+01 4.405575e+01 1.417510e+01 7.724047e+00 9.022455e+01
<GCONST> 4.057113e+01
<STATE> 5
<MEAN> 8
 -7.622637e+00 -1.326992e+01 -7.388904e+00 -1.330994e+01 -7.578401e+00 -1.328962e+01 -7.621932e+00 -1.335662e+01
<VARIANCE> 8
 3.764897e+01 5.384570e+01 3.994786e+01 5.403815e+01 3.566651e+01 5.530218e+01 3.623195e+01 5.396021e+01
<GCONST> 4.515992e+01
<TRANSP> 6
 0.000000e+00 1.000000e+00 0.000000e+00 0.000000e+00 0.000000e+00 0.000000e+00
 0.000000e+00 9.208879e-01 7.911211e-02 0.000000e+00 0.000000e+00 0.000000e+00
 0.000000e+00 0.000000e+00 0.000000e+00 1.000000e+00 0.000000e+00 0.000000e+00
 0.000000e+00 0.000000e+00 0.000000e+00 0.000000e+00 1.000000e+00 0.000000e+00
 0.000000e+00 0.000000e+00 0.000000e+00 0.000000e+00 9.542075e-01 4.579251e-02
 0.000000e+00 0.000000e+00 0.000000e+00 0.000000e+00 0.000000e+00 0.000000e+00
<ENDHMM>
~h "i"
<BEGINHMM>
<NUMSTATES> 6
<STATE> 2
<MEAN> 8
 -8.855707e+00 -1.467554e+01 -8.977607e+00 -1.462273e+01 -9.103011e+00 -1.458138e+01 -8.959206e+00 -1.467013e+01
<VARIANCE> 8
 6.420552e+01 7.995744e+01 6.409149e+01 8.031824e+01 6.594588e+01 8.013064e+01 6.576367e+01 7.903254e+01
<GCONST> 4.892133e+01
<STATE> 3
<MEAN> 8
 -5.486704e+00 -5.847693e+00 -6.856822e+00 -5.915170e+00 -6.442008e+00 -6.047391e+00 -7.490117e+00 -5.489679e+00
<VARIANCE> 8
 3.739174e+01 2.996955e+01 2.613102e+01 3.364175e+01 2.535581e+01 3.785650e+01 2.474941e+01 2.924805e+01
<GCONST> 4.195496e+01
<STATE> 4
<MEAN> 8
 -4.014513e+00 -1.167401e+01 -3.615799e+00 -1.007535e+01 -1.430002e+01 -8.351720e+00 -3.151649e+00 -1.213894e+01
<VARIANCE> 8
 3.813989e+01 2.838029e+01 8.205791e+00 1.102269e+02 4.626855e+01 1.060453e+01 4.650385e+01 2.881844e+01
<GCONST> 4.189365e+01
<STATE> 5
<MEAN> 8
 -6.556231e+00 -9.673855e+00 -7.998801e+00 -9.834410e+00 -5.840200e+00 -1.001126e+01 -6.347678e+00 -1.007296e+01
<VARIANCE> 8
 3.856880e+01 5.016967e+01 6.548392e+01 2.675022e+01 3.846740e+01 3.862395e+01 3.274012e+01 4.761851e+01
<GCONST> 4.439473e+01
<TRANSP> 6
 0.000000e+00 1.000000e+00 0.000000e+00 0.000000e+00 0.000000e+00 0.000000e+00
 0.000000e+00 9.382235e-01 6.177647e-02 0.000000e+00 0.000000e+00 0.000000e+00
 0.000000e+00 0.000000e+00 8.735086e-01 1.264915e-01 0.000000e+00 0.000000e+00
 0.000000e+00 0.000000e+00 0.000000e+00 4.663288e-03 9.953367e-01 0.000000e+00
 0.000000e+00 0.000000e+00 0.000000e+00 0.000000e+00 7.654952e-01 2.345048e-01
 0.000000e+00 0.000000e+00 0.000000e+00 0.000000e+00 0.000000e+00 0.000000e+00
<ENDHMM>
~h "j"
<BEGINHMM>
<NUMSTATES> 6
<STATE> 2
<MEAN> 8
 -7.189707e+00 -1.182656e+01 -7.301147e+00 -1.185859e+01 -7.184470e+00 -1.183579e+01 -7.106739e+00 -1.186624e+01
<VARIANCE> 8
 4.283755e+01 3.361894e+01 4.398523e+01 3.346585e+01 4.591655e+01 3.404519e+01 4.421860e+01 3.457464e+01
<GCONST> 4.395668e+01
<STATE> 3
<MEAN> 8
 -1.099184e+01 -7.378423e+00 -8.963615e+00 -2.554423e+00 -2.740438e+00 -1.919330e+01 -1.010693e+01 -5.930821e+00
<VARIANCE> 8
 1.010938e+02 1.352188e+01 3.789490e+00 1.439409e+01 4.232438e+00 4.109735e+01 1.400483e+01 1.431407e+01
<GCONST> 3.638179e+01
<STATE> 4
<MEAN> 8
 -7.945275e+00 -1.025971e+01 -3.165436e+00 -1.454350e+01 -7.219479e+00 -8.729634e+00 -9.130115e+00 -1.127533e+01
<VARIANCE> 8
 2.713012e+01 3.388338e+01 3.145446e+01 3.500849e+01 2.356483e+01 2.530153e+01 4.155568e+01 1.423531e+01
<GCONST> 4.130410e+01
<STATE> 5
<MEAN> 8
 -5.397654e+00 -1.055759e+01 -5.965669e+00 -9.969081e+00 -6.171092e+00 -1.021841e+01 -5.511119e+00 -1.014863e+01
<VARIANCE> 8
 2.518122e+01 2.465822e+01 2.150623e+01 2.241872e+01 2.552576e+01 2.204565e+01 2.443486e+01 2.506030e+01
<GCONST> 4.006256e+01
<TRANSP> 6
 0.000000e+00 1.000000e+00 0.000000e+00 0.000000e+00 0.000000e+00 0.000000e+00
 0.000000e+00 9.787012e-01 2.129877e-02 0.000000e+00 0.000000e+00 0.000000e+00
 0.000000e+00 0.000000e+00 7.076540e-03 9.929235e-01 0.000000e+00 0.000000e+00
 0.000000e+00 0.000000e+00 0.000000e+00 6.933863e-01 3.066137e-01 0.000000e+00
 0.000000e+00 0.000000e+00 0.000000e+00 0.000000e+00 9.278117e-01 7.218830e-02
 0.000000e+00 0.000000e+00 0.000000e+00 0.000000e+00 0.000000e+00 0.000000e+00
<ENDHMM>
~h "k"
<BEGINHMM>
<NUMSTATES> 6
<STATE> 2
<MEAN> 8
 -7.686805e+00 -1.197756e+01 -7.659267e+00 -1.203291e+01 -7.726470e+00 -1.205728e+01 -7.618496e+00 -1.203170e+01
<VARIANCE> 8
 5.795657e+01 3.286001e+01 5.527328e+01 3.357488e+01 5.683713e+01 3.354097e+01 5.872226e+01 3.224235e+01
<GCONST> 4.488009e+01
<STATE> 3
<MEAN> 8
 -4.958758e+00 -8.058183e+00 -4.923947e+00 -8.031023e+00 -4.830324e+00 -8.102225e+00 -5.031785e+00 -8.004922e+00
<VARIANCE> 8
 2.971176e+01 1.859774e+01 3.014940e+01 1.921847e+01 2.974321e+01 1.990973e+01 3.009963e+01 1.892519e+01
<GCONST> 4.010845e+01
<STATE> 4
<MEAN> 8
 -7.171715e+00 -9.369104e+00 -2.928560e+00 -1.425299e+01 -1.421833e+01 -9.089973e+00 -5.218747e+00 -1.216960e+01
<VARIANCE> 8
 4.124041e+01 2.658774e+01 3.514617e+00 9.003975e+01 4.937391e+01 9.808593e+00 6.589894e+01 9.320017e+00
<GCONST> 4.006303e+01
<STATE> 5
<MEAN> 8
 -5.145712e+00 -1.087405e+01 -7.811141e+00 -1.021364e+01 -5.423100e+00 -9.877447e+00 -5.715261e+00 -1.024634e+01
<VARIANCE> 8
 2.833769e+01 6.404633e+01 6.998267e+01 2.384818e+01 3.820870e+01 2.792567e+01 2.552029e+01 4.544502e+01
<GCONST> 4.365536e+01
<TRANSP> 6
 0.000000e+00 1.000000e+00 0.000000e+00 0.000000e+00 0.000000e+00 0.000000e+00
 0.000000e+00 9.449860e-01 5.501404e-02 0.000000e+00 0.000000e+00 0.000000e+00
 0.000000e+00 0.000000e+00 9.738110e-01 2.618901e-02 0.000000e+00 0.000000e+00
 0.000000e+00 0.000000e+00 0.000000e+00 5.301474e-02 9.469852e-01 0.000000e+00
 0.000000e+00 0.000000e+00 0.000000e+00 0.000000e+00 6.951964e-01 3.048036e-01
 0.000000e+00 0.000000e+00 0.000000e+00 0.000000e+00 0.000000e+00 0.000000e+00
<ENDHMM>
~h "l"
<BEGINHMM>
<NUMSTATES> 6
<STATE> 2
<MEAN> 8
 -7.010628e+00 -1.084509e+01 -7.796052e+00 -1.055403e+01 -7.518583e+00 -1.070813e+01 -7.205930e+00 -1.107784e+01
<VARIANCE> 8
 6.801443e+01 5.359251e+01 6.185355e+01 4.794399e+01 6.136394e+01 4.759773e+01 6.631600e+01 5.603358e+01
<GCONST> 4.709894e+01
<STATE> 3
<MEAN> 8
 -1.175969e+01 -8.635839e+00 -5.085165e+00 -1.061007e+01 -3.426483e+00 -1.138397e+01 -1.576122e+01 -9.098329e+00
<VARIANCE> 8
 4.960065e+01 1.081057e+01 4.215530e+01 2.493430e+01 4.405744e+00 1.293721e+02 4.842577e+01 1.024633e+01
<GCONST> 4.049770e+01
<STATE> 4
<MEAN> 8
 -3.382645e+00 -1.133646e+01 -3.800905e+00 -9.866064e+00 -1.313094e+01 -9.334372e+00 -1.508458e-01 -1.150361e+01
<VARIANCE> 8
 3.204351e+01 1.957067e+01 4.651619e+00 9.186415e+01 5.478910e+01 1.130369e+01 4.395440e+01 1.139119e+01
<GCONST> 3.984628e+01
<STATE> 5
<MEAN> 8
 -5.146679e+00 -8.762973e+00 -5.312229e+00 -9.083309e+00 -4.923754e+00 -8.995623e+00 -5.376700e+00 -8.648911e+00
<VARIANCE> 8
 3.492311e+01 3.402545e+01 4.470835e+01 3.389390e+01 4.399316e+01 3.568827e+01 3.434329e+01 3.490692e+01
<GCONST> 4.355462e+01
<TRANSP> 6
 0.000000e+00 1.000000e+00 0.000000e+00 0.000000e+00 0.000000e+00 0.000000e+00
 0.000000e+00 9.078898e-01 9.211015e-02 0.000000e+00 0.000000e+00 0.000000e+00
 0.000000e+00 0.000000e+00 0.000000e+00 1.000000e+00 0.000000e+00 0.000000e+00
 0.000000e+00 0.000000e+00 0.000000e+00 9.111515e-04 9.990888e-01 0.000000e+00
 0.000000e+00 0.000000e+00 0.000000e+00 0.000000e+00 9.222494e-01 7.775064e-02
 0.000000e+00 0.000000e+00 0.000000e+00 0.000000e+00 0.000000e+00 0.000000e+00
<ENDHMM>
~h "m"
<BEGINHMM>
<NUMSTATES> 6
<STATE> 2
<MEAN> 8
 -6.780347e+00 -7.536764e+00 -7.398314e+00 -8.442133e+00 -6.010052e+00 -8.952563e+00 -8.846135e+00 -8.745508e+00
<VARIANCE> 8
 5.501462e+01 3.373274e+01 2.882944e+01 3.834622e+01 3.124030e+01 6.008009e+01 7.136053e+01 4.278716e+01
<GCONST> 4.479850e+01
<STATE> 3
<MEAN> 8
 -3.925330e+00 -1.264902e+01 -3.093277e+00 -8.963305e+00 -1.517044e+01 -9.424669e+00 4.009633e-01 -1.186995e+01
<VARIANCE> 8
 2.327773e+01 7.674920e+00 5.865765e+00 7.025256e+01 4.431748e+01 1.099527e+01 2.062810e+01 6.789294e+00
<GCONST> 3.704055e+01
<STATE> 4
<MEAN> 8
 -5.447825e+00 -6.566727e+00 -7.879988e+00 -8.268001e+00 -2.560886e+00 -8.506455e+00 -6.251763e+00 -5.891691e+00
<VARIANCE> 8
 1.332489e+01 3.268785e+01 6.075414e+01 1.938692e+01 5.948495e+01 2.631499e+01 1.369962e+01 3.451975e+01
<GCONST> 4.136585e+01
<STATE> 5
<MEAN> 8
 -7.754689e+00 -1.176176e+01 -6.908646e+00 -1.180387e+01 -7.734857e+00 -1.128633e+01 -7.922748e+00 -1.163640e+01
<VARIANCE> 8
 5.576814e+01 4.286354e+01 6.326870e+01 5.242596e+01 4.913406e+01 4.790057e+01 4.717104e+01 3.729528e+01
<GCONST> 4.582536e+01
<TRANSP> 6
 0.000000e+00 1.000000e+00 0.000000e+00 0.000000e+00 0.000000e+00 0.000000e+00
 0.000000e+00 6.953910e-01 3.046091e-01 0.000000e+00 0.000000e+00 0.000000e+00
 0.000000e+00 0.000000e+00 0.000000e+00 1.000000e+00 0.000000e+00 0.000000e+00
 0.000000e+00 0.000000e+00 0.000000e+00 5.642358e-01 4.357642e-01 0.000000e+00
 0.000000e+00 0.000000e+00 0.000000e+00 0.000000e+00 7.882406e-01 2.117593e-01
 0.000000e+00 0.000000e+00 0.000000e+00 0.000000e+00 0.000000e+00 0.000000e+00
<ENDHMM>
~h "n"
<BEGINHMM>
<NUMSTATES> 6
<STATE> 2
<MEAN> 8
 -6.365917e+00 -1.165966e+01 -7.562531e+00 -1.102829e+01 -7.456603e+00 -1.142689e+01 -6.643093e+00 -1.172165e+01
<VARIANCE> 8
 5.333795e+01 5.356976e+01 4.544310e+01 5.072660e+01 3.993231e+01 4.829990e+01 4.146156e+01 5.752655e+01
<GCONST> 4.574519e+01
<STATE> 3
<MEAN> 8
 -1.457295e+01 -8.733219e+00 -4.233081e+00 -1.280188e+01 -2.750031e+00 -1.078159e+01 -1.592320e+01 -9.336066e+00
<VARIANCE> 8
 3.978798e+01 1.036145e+01 3.217643e+01 1.024848e+01 4.535731e+00 8.221086e+01 4.043271e+01 9.215040e+00
<GCONST> 3.836478e+01
<STATE> 4
<MEAN> 8
 -8.542662e-01 -1.188012e+01 -3.697218e+00 -8.416570e+00 -1.111708e+01 -9.031620e+00 2.217108e+00 -1.103693e+01
<VARIANCE> 8
 2.224591e+01 1.415658e+01 4.285684e+00 6.917339e+01 2.709741e+01 9.093208e+00 4.121573e+01 1.032143e+01
<GCONST> 3.770726e+01
<STATE> 5
<MEAN> 8
 -5.730150e+00 -8.618906e+00 -5.953060e+00 -9.073211e+00 -5.316204e+00 -9.023158e+00 -5.869555e+00 -8.868884e+00
<VARIANCE> 8
 3.172504e+01 2.959792e+01 3.949939e+01 2.670348e+01 4.578736e+01 3.007901e+01 3.529377e+01 3.067127e+01
<GCONST> 4.272377e+01
<TRANSP> 6
 0.000000e+00 1.000000e+00 0.000000e+00 0.000000e+00 0.000000e+00 0.000000e+00
 0.000000e+00 8.564585e-01 1.435415e-01 0.000000e+00 0.000000e+00 0.000000e+00
 0.000000e+00 0.000000e+00 0.000000e+00 1.000000e+00 0.000000e+00 0.000000e+00
 0.000000e+00 0.000000e+00 0.000000e+00 1.422195e-04 9.998578e-01 0.000000e+00
 0.000000e+00 0.000000e+00 0.000000e+00 0.000000e+00 8.913869e-01 1.086131e-01
 0.000000e+00 0.000000e+00 0.000000e+00 0.000000e+00 0.000000e+00 0.000000e+00
<ENDHMM>
~h "o"
<BEGINHMM>
<NUMSTATES> 6
<STATE> 2
<MEAN> 8
 -6.842087e+00 -1.023619e+01 -7.534117e+00 -1.031637e+01 -7.737926e+00 -9.504596e+00 -7.551472e+00 -1.048417e+01
<VARIANCE> 8
 5.097076e+01 7.283582e+01 6.929380e+01 5.693918e+01 5.108056e+01 4.365455e+01 4.731979e+01 4.465924e+01
<GCONST> 4.656852e+01
<STATE> 3
<MEAN> 8
 -4.776203e+00 -7.654405e+00 -4.776362e+00 -7.628852e+00 -4.914276e+00 -7.621293e+00 -4.816592e+00 -7.619547e+00
<VARIANCE> 8
 2.658950e+01 1.671933e+01 2.616525e+01 1.693552e+01 2.688947e+01 1.644525e+01 2.652123e+01 1.650925e+01
<GCONST> 3.906758e+01
<STATE> 4
<MEAN> 8
 -3.145958e+00 -9.778084e+00 -1.394960e+01 -8.401774e+00 -3.696902e+00 -1.054884e+01 -3.410796e+00 -1.072060e+01
<VARIANCE> 8
 3.458088e+00 9.264408e+01 3.650657e+01 7.982322e+00 5.648555e+01 1.902789e+01 5.433518e+00 1.388944e+02
<GCONST> 3.975341e+01
<STATE> 5
<MEAN> 8
 -7.278383e+00 -1.062191e+01 -6.559853e+00 -1.072723e+01 -6.720271e+00 -1.076354e+01 -7.064120e+00 -1.063754e+01
<VARIANCE> 8
 5.683187e+01 2.046410e+01 5.088419e+01 2.351196e+01 4.950015e+01 2.754597e+01 5.549197e+01 2.194202e+01
<GCONST> 4.317133e+01
<TRANSP> 6
 0.000000e+00 1.000000e+00 0.000000e+00 0.000000e+00 0.000000e+00 0.000000e+00
 0.000000e+00 5.909836e-01 4.090163e-01 0.000000e+00 0.000000e+00 0.000000e+00
 0.000000e+00 0.000000e+00 9.780561e-01 2.194392e-02 0.000000e+00 0.000000e+00
 0.000000e+00 0.000000e+00 0.000000e+00 0.000000e+00 1.000000e+00 0.000000e+00
 0.000000e+00 0.000000e+00 0.000000e+00 0.000000e+00 9.357755e-01 6.422449e-02
 0.000000e+00 0.000000e+00 0.000000e+00 0.000000e+00 0.000000e+00 0.000000e+00
<ENDHMM>
~h "p"
<BEGINHMM>
<NUMSTATES> 6
<STATE> 2
<MEAN> 8
 -7.657256e+00 -9.198541e+00 -1.172141e+01 -9.334950e+00 -1.162080e+01 -8.914658e+00 -1.161235e+01 -9.300197e+00
<VARIANCE> 8
 5.739679e+01 5.976947e+01 8.568723e+01 5.828257e+01 7.555819e+01 5.694248e+01 7.445868e+01 5.756863e+01
<GCONST> 4.808967e+01
<STATE> 3
<MEAN> 8
 -4.632653e+00 -5.174244e+00 -7.228027e+00 -5.086224e+00 -7.219845e+00 -5.203353e+00 -7.442725e+00 -4.747907e+00
<VARIANCE> 8
 3.467442e+01 2.730909e+01 2.327457e+01 3.004995e+01 2.075742e+01 3.187801e+01 1.968548e+01 2.656705e+01
<GCONST> 4.086083e+01
<STATE> 4
<MEAN> 8
 -7.441505e+00 -1.337903e+01 -6.962990e+00 -1.244183e+01 -7.791426e+00 -1.251338e+01 -7.026333e+00 -1.374725e+01
<VARIANCE> 8
 5.158458e+01 4.743844e+01 2.422809e+01 5.649731e+01 2.988146e+01 4.531841e+01 6.930895e+01 3.788781e+01
<GCONST> 4.481153e+01
<STATE> 5
<MEAN> 8
 -5.519722e+00 -7.996567e+00 -7.387806e+00 -8.927667e+00 -6.377798e+00 -9.043068e+00 -6.341135e+00 -8.297833e+00
<VARIANCE> 8
 2.379311e+01 4.637857e+01 4.299248e+01 3.326063e+01 6.691515e+01 3.761915e+01 3.729734e+01 4.546613e+01
<GCONST> 4.424148e+01
<TRANSP> 6
 0.000000e+00 1.000000e+00 0.000000e+00 0.000000e+00 0.000000e+00 0.000000e+00
 0.000000e+00 8.603432e-01 1.396568e-01 0.000000e+00 0.000000e+00 0.000000e+00
 0.000000e+00 0.000000e+00 9.111874e-01 8.881263e-02 0.000000e+00 0.000000e+00
 0.000000e+00 0.000000e+00 0.000000e+00 7.632285e-01 2.367715e-01 0.000000e+00
 0.000000e+00 0.000000e+00 0.000000e+00 0.000000e+00 6.379675e-01 3.620324e-01
 0.000000e+00 0.000000e+00 0.000000e+00 0.000000e+00 0.000000e+00 0.000000e+00
<ENDHMM>
~h "q"
<BEGINHMM>
<NUMSTATES> 6
<STATE> 2
<MEAN> 8
 -6.354166e+00 -6.750438e+00 -1.110042e+01 -6.795082e+00 -1.097121e+01 -6.881239e+00 -1.112167e+01 -6.812987e+00
<VARIANCE> 8
 4.283081e+01 4.749963e+01 3.074924e+01 4.732932e+01 3.122956e+01 4.961656e+01 3.164001e+01 4.785192e+01
<GCONST> 4.427221e+01
<STATE> 3
<MEAN> 8
 -4.888002e+00 -1.218706e+01 -4.036889e+00 -8.095250e+00 -9.676027e+00 -8.506142e+00 -4.508184e-01 -1.125511e+01
<VARIANCE> 8
 4.060545e+01 7.009361e+00 9.939424e+00 4.695835e+01 2.885511e+01 1.851235e+01 3.543797e+01 6.577233e+00
<GCONST> 3.823206e+01
<STATE> 4
<MEAN> 8
 -3.576920e+00 -4.731777e+00 -4.302433e+00 -4.841430e+00 -4.147290e+00 -4.839300e+00 -4.283079e+00 -4.728609e+00
<VARIANCE> 8
 1.533021e+01 1.375564e+01 1.646207e+01 1.395299e+01 1.701002e+01 1.395909e+01 1.594853e+01 1.357755e+01
<GCONST> 3.633876e+01
<STATE> 5
<MEAN> 8
 -6.625813e+00 -1.221380e+01 -6.506202e+00 -1.216702e+01 -6.541467e+00 -1.225710e+01 -6.649550e+00 -1.215871e+01
<VARIANCE> 8
 2.923544e+01 3.542049e+01 2.956108e+01 3.564837e+01 2.959580e+01 3.679300e+01 3.022954e+01 3.557074e+01
<GCONST> 4.257913e+01
<TRANSP> 6
 0.000000e+00 1.000000e+00 0.000000e+00 0.000000e+00 0.000000e+00 0.000000e+00
 0.000000e+00 9.714273e-01 2.857274e-02 0.000000e+00 0.000000e+00 0.000000e+00
 0.000000e+00 0.000000e+00 6.145024e-02 9.385498e-01 0.000000e+00 0.000000e+00
 0.000000e+00 0.000000e+00 0.000000e+00 9.763570e-01 2.364300e-02 0.000000e+00
 0.000000e+00 0.000000e+00 0.000000e+00 0.000000e+00 9.534336e-01 4.656639e-02
 0.000000e+00 0.000000e+00 0.000000e+00 0.000000e+00 0.000000e+00 0.000000e+00
<ENDHMM>
~h "r"
<BEGINHMM>
<NUMSTATES> 6
<STATE> 2
<MEAN> 8
 -7.558264e+00 -8.725791e+00 -9.152650e+00 -8.937904e+00 -8.729787e+00 -9.033921e+00 -9.511883e+00 -9.296898e+00
<VARIANCE> 8
 7.142991e+01 4.916382e+01 6.169564e+01 4.578180e+01 6.662312e+01 4.701511e+01 8.062595e+01 4.310423e+01
<GCONST> 4.701595e+01
<STATE> 3
<MEAN> 8
 -4.631300e+00 -1.285462e+01 -3.088621e+00 -9.464289e+00 -1.735124e+01 -9.578181e+00 1.424303e-01 -1.231882e+01
<VARIANCE> 8
 1.910383e+01 9.651599e+00 4.245595e+00 4.974392e+01 4.997514e+01 1.026600e+01 2.101589e+01 7.431944e+00
<GCONST> 3.656423e+01
<STATE> 4
<MEAN> 8
 -4.099147e+00 -4.856129e+00 -1.391492e+01 -9.492017e+00 3.620076e+00 -1.026009e+01 -5.401799e+00 -2.031850e+00
<VARIANCE> 8
 3.781693e+00 5.341001e+01 4.795230e+01 1.015486e+01 3.513110e+01 1.138779e+01 4.540236e+00 8.096392e+01
<GCONST> 3.809795e+01
<STATE> 5
<MEAN> 8
 -6.449380e+00 -9.076563e+00 -5.810160e+00 -8.968605e+00 -6.113386e+00 -8.994940e+00 -6.368132e+00 -9.008983e+00
<VARIANCE> 8
 5.006853e+01 2.202255e+01 5.332122e+01 2.587436e+01 4.253930e+01 2.844224e+01 4.276591e+01 2.207732e+01
<GCONST> 4.288666e+01
<TRANSP> 6
 0.000000e+00 1.000000e+00 0.000000e+00 0.000000e+00 0.000000e+00 0.000000e+00
 0.000000e+00 8.853964e-01 1.146036e-01 0.000000e+00 0.000000e+00 0.000000e+00
 0.000000e+00 0.000000e+00 0.000000e+00 1.000000e+00 0.000000e+00 0.000000e+00
 0.000000e+00 0.000000e+00 0.000000e+00 1.836448e-03 9.981636e-01 0.000000e+00
 0.000000e+00 0.000000e+00 0.000000e+00 0.000000e+00 9.290999e-01 7.090006e-02
 0.000000e+00 0.000000e+00 0.000000e+00 0.000000e+00 0.000000e+00 0.000000e+00
<ENDHMM>
~h "s"
<BEGINHMM>
<NUMSTATES> 6
<STATE> 2
<MEAN> 8
 -7.224255e+00 -1.191318e+01 -7.875113e+00 -1.157649e+01 -7.684221e+00 -1.192332e+01 -7.356804e+00 -1.183969e+01
<VARIANCE> 8
 5.299320e+01 4.358154e+01 4.953252e+01 4.339701e+01 4.746013e+01 4.193416e+01 4.702702e+01 4.565198e+01
<GCONST> 4.538860e+01
<STATE> 3
<MEAN> 8
 -1.302183e+01 -8.406904e+00 -3.090840e+00 -1.256325e+01 -3.226906e+00 -8.148729e+00 -1.478477e+01 -8.545269e+00
<VARIANCE> 8
 4.257740e+01 1.083412e+01 4.019597e+01 1.298083e+01 5.497897e+00 8.740125e+01 4.000530e+01 9.577299e+00
<GCONST> 3.921756e+01
<STATE> 4
<MEAN> 8
 -1.668159e+00 -1.073779e+01 -3.727730e+00 -8.647525e+00 -1.116799e+01 -8.277565e+00 4.993575e-01 -1.114837e+01
<VARIANCE> 8
 2.880604e+01 2.412307e+01 4.396748e+00 9.195394e+01 2.409260e+01 9.697244e+00 6.222292e+01 1.231059e+01
<GCONST> 3.934385e+01
<STATE> 5
<MEAN> 8
 -5.581911e+00 -7.930830e+00 -6.266007e+00 -8.281694e+00 -5.525448e+00 -8.374634e+00 -5.961165e+00 -8.190527e+00
<VARIANCE> 8
 2.793845e+01 3.685926e+01 3.384751e+01 3.174973e+01 3.848461e+01 3.478796e+01 3.018066e+01 3.678765e+01
<GCONST> 4.283177e+01
<TRANSP> 6
 0.000000e+00 1.000000e+00 0.000000e+00 0.000000e+00 0.000000e+00 0.000000e+00
 0.000000e+00 9.142207e-01 8.577932e-02 0.000000e+00 0.000000e+00 0.000000e+00
 0.000000e+00 0.000000e+00 0.000000e+00 1.000000e+00 0.000000e+00 0.000000e+00
 0.000000e+00 0.000000e+00 0.000000e+00 2.488181e-03 9.975119e-01 0.000000e+00
 0.000000e+00 0.000000e+00 0.000000e+00 0.000000e+00 8.749656e-01 1.250344e-01
 0.000000e+00 0.000000e+00 0.000000e+00 0.000000e+00 0.000000e+00 0.000000e+00
<ENDHMM>
~h "t"
<BEGINHMM>
<NUMSTATES> 6
<STATE> 2
<MEAN> 8
 -6.663168e+00 -1.125594e+01 -7.809745e+00 -1.083330e+01 -7.692089e+00 -1.111231e+01 -7.021582e+00 -1.147442e+01
<VARIANCE> 8
 5.312146e+01 5.045521e+01 4.723957e+01 4.744119e+01 4.634787e+01 4.644255e+01 4.914233e+01 5.298207e+01
<GCONST> 4.585047e+01
<STATE> 3
<MEAN> 8
 -1.208834e+01 -7.954943e+00 -5.740030e+00 -1.170478e+01 -2.849145e+00 -1.150900e+01 -1.547183e+01 -8.535469e+00
<VARIANCE> 8
 4.533549e+01 1.175238e+01 3.620897e+01 2.208020e+01 5.639874e+00 9.626760e+01 3.897293e+01 1.105788e+01
<GCONST> 4.002816e+01
<STATE> 4
<MEAN> 8
 -2.902233e+00 -1.214657e+01 -3.445084e+00 -9.492857e+00 -1.220061e+01 -8.598150e+00 4.074960e-01 -1.178180e+01
<VARIANCE> 8
 2.535109e+01 1.622848e+01 5.785930e+00 7.690900e+01 3.895821e+01 1.164598e+01 4.356901e+01 9.038973e+00
<GCONST> 3.891400e+01
<STATE> 5
<MEAN> 8
 -4.843728e+00 -6.986214e+00 -5.729931e+00 -7.484332e+00 -4.840497e+00 -7.500922e+00 -5.581214e+00 -7.124027e+00
<VARIANCE> 8
 3.357986e+01 3.591788e+01 4.377492e+01 3.408186e+01 4.623646e+01 3.641788e+01 3.446029e+01 3.672628e+01
<GCONST> 4.367813e+01
<TRANSP> 6
 0.000000e+00 1.000000e+00 0.000000e+00 0.000000e+00 0.000000e+00 0.000000e+00
 0.000000e+00 8.691440e-01 1.308560e-01 0.000000e+00 0.000000e+00 0.000000e+00
 0.000000e+00 0.000000e+00 0.000000e+00 1.000000e+00 0.000000e+00 0.000000e+00
 0.000000e+00 0.000000e+00 0.000000e+00 0.000000e+00 1.000000e+00 0.000000e+00
 0.000000e+00 0.000000e+00 0.000000e+00 0.000000e+00 8.519984e-01 1.480017e-01
 0.000000e+00 0.000000e+00 0.000000e+00 0.000000e+00 0.000000e+00 0.000000e+00
<ENDHMM>
~h "u"
<BEGINHMM>
<NUMSTATES> 6
<STATE> 2
<MEAN> 8
 -5.522719e+00 -5.867762e+00 -6.657226e+00 -5.851134e+00 -6.884978e+00 -5.820995e+00 -6.870238e+00 -5.758094e+00
<VARIANCE> 8
 7.472370e+01 9.310781e+01 8.456555e+01 9.811465e+01 9.190325e+01 9.688058e+01 9.106603e+01 9.478642e+01
<GCONST> 5.073166e+01
<STATE> 3
<MEAN> 8
 -5.895227e+00 -8.167582e+00 -5.581915e+00 -8.305056e+00 -5.075351e+00 -8.296035e+00 -6.599050e+00 -8.158442e+00
<VARIANCE> 8
 3.546090e+01 2.021999e+01 2.694781e+01 2.185677e+01 2.505225e+01 2.500007e+01 4.567508e+01 1.824258e+01
<GCONST> 4.082169e+01
<STATE> 4
<MEAN> 8
 -3.770023e+00 -1.184653e+01 -3.583101e+00 -8.400081e+00 -1.823902e+01 -9.504067e+00 -1.404545e+00 -1.118424e+01
<VARIANCE> 8
 3.691738e+01 1.192185e+01 3.407057e+00 1.002237e+02 5.498407e+01 1.048028e+01 4.217599e+01 1.569309e+01
<GCONST> 3.947494e+01
<STATE> 5
<MEAN> 8
 -6.344037e+00 -9.293770e+00 -8.262149e+00 -9.863490e+00 -5.462238e+00 -9.471424e+00 -6.198995e+00 -9.454029e+00
<VARIANCE> 8
 3.349949e+01 4.974687e+01 9.294942e+01 2.221953e+01 5.136535e+01 2.903853e+01 1.873595e+01 4.242050e+01
<GCONST> 4.374018e+01
<TRANSP> 6
 0.000000e+00 1.000000e+00 0.000000e+00 0.000000e+00 0.000000e+00 0.000000e+00
 0.000000e+00 8.692073e-01 1.307928e-01 0.000000e+00 0.000000e+00 0.000000e+00
 0.000000e+00 0.000000e+00 8.538300e-01 1.461700e-01 0.000000e+00 0.000000e+00
 0.000000e+00 0.000000e+00 0.000000e+00 6.813194e-04 9.993187e-01 0.000000e+00
 0.000000e+00 0.000000e+00 0.000000e+00 0.000000e+00 7.661751e-01 2.338249e-01
 0.000000e+00 0.000000e+00 0.000000e+00 0.000000e+00 0.000000e+00 0.000000e+00
<ENDHMM>
~h "v"
<BEGINHMM>
<NUMSTATES> 6
<STATE> 2
<MEAN> 8
 -8.864170e+00 -1.052124e+01 -7.643783e+00 -1.087964e+01 -7.550754e+00 -9.416708e+00 -7.919238e+00 -1.003670e+01
<VARIANCE> 8
 7.631951e+01 4.919271e+01 9.879447e+01 4.516640e+01 5.963751e+01 5.243485e+01 5.226552e+01 4.572593e+01
<GCONST> 4.716395e+01
<STATE> 3
<MEAN> 8
 -5.294239e+00 -5.138523e+00 -7.749887e+00 -5.049105e+00 -7.767764e+00 -5.170519e+00 -7.771099e+00 -5.018218e+00
<VARIANCE> 8
 4.456484e+01 3.370271e+01 2.120321e+01 3.436574e+01 2.115827e+01 3.437983e+01 2.113288e+01 3.365416e+01
<GCONST> 4.176522e+01
<STATE> 4
<MEAN> 8
 -3.987388e+00 -4.045075e+00 -4.503493e+00 -3.898052e+00 -4.545980e+00 -3.923218e+00 -4.735189e+00 -4.078870e+00
<VARIANCE> 8
 1.187759e+02 2.172074e+02 1.341304e+02 2.151821e+02 1.354083e+02 2.159777e+02 1.410441e+02 2.172793e+02
<GCONST> 5.574513e+01
<STATE> 5
<MEAN> 8
 -7.091994e+00 -1.016273e+01 -7.097440e+00 -1.013446e+01 -7.175566e+00 -1.014131e+01 -7.037973e+00 -1.014412e+01
<VARIANCE> 8
 6.463598e+01 2.245415e+01 6.403658e+01 2.295336e+01 6.534301e+01 2.286162e+01 6.697285e+01 2.242056e+01
<GCONST> 4.389956e+01
<TRANSP> 6
 0.000000e+00 1.000000e+00 0.000000e+00 0.000000e+00 0.000000e+00 0.000000e+00
 0.000000e+00 6.102923e-01 3.897077e-01 0.000000e+00 0.000000e+00 0.000000e+00
 0.000000e+00 0.000000e+00 9.554802e-01 4.451983e-02 0.000000e+00 0.000000e+00
 0.000000e+00 0.000000e+00 0.000000e+00 9.454839e-01 5.451607e-02 0.000000e+00
 0.000000e+00 0.000000e+00 0.000000e+00 0.000000e+00 9.655621e-01 3.443787e-02
 0.000000e+00 0.000000e+00 0.000000e+00 0.000000e+00 0.000000e+00 0.000000e+00
<ENDHMM>
~h "w"
<BEGINHMM>
<NUMSTATES> 6
<STATE> 2
<MEAN> 8
 -4.344796e+00 -4.820505e+00 -5.286651e+00 -4.851408e+00 -4.898941e+00 -5.203881e+00 -5.065394e+00 -4.969864e+00
<VARIANCE> 8
 4.620877e+01 5.556033e+01 4.584314e+01 5.699379e+01 5.401610e+01 5.851202e+01 5.350529e+01 5.516525e+01
<GCONST> 4.647046e+01
<STATE> 3
<MEAN> 8
 -8.722384e+00 -1.402408e+01 -8.511973e+00 -1.396735e+01 -9.971766e+00 -1.398024e+01 -8.483168e+00 -1.421935e+01
<VARIANCE> 8
 5.834904e+01 5.216888e+01 5.958260e+01 5.783128e+01 7.409690e+01 5.437268e+01 7.032482e+01 4.978420e+01
<GCONST> 4.733089e+01
<STATE> 4
<MEAN> 8
 -3.931873e+00 -7.117401e+00 -1.761858e+01 -1.047744e+01 2.273167e+00 -1.161563e+01 -5.245707e+00 -3.412387e+00
<VARIANCE> 8
 4.117830e+00 6.467413e+01 5.510682e+01 1.122218e+01 2.152412e+01 7.017160e+00 4.375349e+00 4.963642e+01
<GCONST> 3.711311e+01
<STATE> 5
<MEAN> 8
 -6.681121e+00 -1.047164e+01 -6.205698e+00 -1.039960e+01 -6.493132e+00 -1.030220e+01 -6.580739e+00 -1.049185e+01
<VARIANCE> 8
 4.907292e+01 2.282643e+01 4.828691e+01 2.328488e+01 4.225080e+01 2.435376e+01 4.473520e+01 2.261532e+01
<GCONST> 4.260490e+01
<TRANSP> 6
 0.000000e+00 1.000000e+00 0.000000e+00 0.000000e+00 0.000000e+00 0.000000e+00
 0.000000e+00 8.892962e-01 1.107038e-01 0.000000e+00 0.000000e+00 0.000000e+00
 0.000000e+00 0.000000e+00 8.830760e-01 1.169240e-01 0.000000e+00 0.000000e+00
 0.000000e+00 0.000000e+00 0.000000e+00 0.000000e+00 1.000000e+00 0.000000e+00
 0.000000e+00 0.000000e+00 0.000000e+00 0.000000e+00 9.633101e-01 3.668988e-02
 0.000000e+00 0.000000e+00 0.000000e+00 0.000000e+00 0.000000e+00 0.000000e+00
<ENDHMM>
~h "x"
<BEGINHMM>
<NUMSTATES> 6
<STATE> 2
<MEAN> 8
 -6.489787e+00 -1.056621e+01 -6.471271e+00 -1.042856e+01 -6.593721e+00 -1.047052e+01 -6.433898e+00 -1.049852e+01
<VARIANCE> 8
 4.956881e+01 1.905664e+01 4.701486e+01 2.036999e+01 4.673647e+01 1.911301e+01 5.015513e+01 1.915395e+01
<GCONST> 4.208084e+01
<STATE> 3
<MEAN> 8
 -4.213001e+00 -5.824402e+00 -4.536934e+00 -6.372693e+00 -4.241242e+00 -5.918278e+00 -4.207524e+00 -6.484814e+00
<VARIANCE> 8
 1.243958e+01 1.694240e+01 1.907657e+01 1.395582e+01 1.510454e+01 1.747125e+01 1.314591e+01 1.925098e+01
<GCONST> 3.674730e+01
<STATE> 4
<MEAN> 8
 -9.152872e+00 -1.046443e+01 -6.851893e+00 -1.189461e+01 -5.735403e+00 -1.229415e+01 -1.219194e+01 -1.100738e+01
<VARIANCE> 8
 3.688962e+01 3.189867e+01 3.388527e+01 3.955877e+01 3.736641e+01 6.499189e+01 6.612154e+01 2.070146e+01
<GCONST> 4.399101e+01
<STATE> 5
<MEAN> 8
 -4.908196e+00 -9.413622e+00 -5.927248e+00 -8.676455e+00 -6.124555e+00 -9.744279e+00 -4.852411e+00 -8.046409e+00
<VARIANCE> 8
 2.565382e+01 2.027962e+01 3.655197e+01 3.362215e+01 7.864201e+01 1.815805e+01 2.459487e+01 2.752697e+01
<GCONST> 4.185297e+01
<TRANSP> 6
 0.000000e+00 1.000000e+00 0.000000e+00 0.000000e+00 0.000000e+00 0.000000e+00
 0.000000e+00 9.694071e-01 3.059288e-02 0.000000e+00 0.000000e+00 0.000000e+00
 0.000000e+00 0.000000e+00 8.914608e-01 1.085392e-01 0.000000e+00 0.000000e+00
 0.000000e+00 0.000000e+00 0.000000e+00 2.345982e-01 7.654018e-01 0.000000e+00
 0.000000e+00 0.000000e+00 0.000000e+00 0.000000e+00 6.626427e-01 3.373573e-01
 0.000000e+00 0.000000e+00 0.000000e+00 0.000000e+00 0.000000e+00 0.000000e+00
<ENDHMM>
~h "y"
<BEGINHMM>
<NUMSTATES> 6
<STATE> 2
<MEAN> 8
 -4.163337e+00 -7.728878e+00 -4.257894e+00 -7.500644e+00 -4.494250e+00 -7.546373e+00 -4.226195e+00 -7.591335e+00
<VARIANCE> 8
 3.837933e+01 3.062562e+01 3.713362e+01 3.268179e+01 3.866120e+01 2.948679e+01 3.868410e+01 2.943758e+01
<GCONST> 4.295019e+01
<STATE> 3
<MEAN> 8
 -6.478025e+00 -7.952966e+00 -8.192989e+00 -8.566245e+00 -3.207943e+00 -1.157995e+01 -4.499361e+00 -8.202616e+00
<VARIANCE> 8
 3.822150e+01 6.645238e+01 3.353620e+01 2.214248e+01 5.615285e+01 3.702453e+01 2.827842e+01 9.903040e+01
<GCONST> 4.473021e+01
<STATE> 4
<MEAN> 8
 -1.077349e+01 -8.203101e+00 4.081322e+00 -1.067547e+01 -4.452778e+00 1.583873e+00 -1.490028e+01 -8.036360e+00
<VARIANCE> 8
 3.302673e+01 6.870871e+00 5.694286e+01 8.874573e+00 4.034433e+00 1.475442e+02 4.011306e+01 7.448534e+00
<GCONST> 3.844158e+01
<STATE> 5
<MEAN> 8
 -6.292845e+00 -9.947116e+00 -6.485315e+00 -1.004519e+01 -6.875173e+00 -9.881009e+00 -6.515487e+00 -9.915854e+00
<VARIANCE> 8
 6.086705e+01 2.443090e+01 5.761544e+01 3.224097e+01 6.019289e+01 2.260098e+01 6.049511e+01 2.281744e+01
<GCONST> 4.398022e+01
<TRANSP> 6
 0.000000e+00 1.000000e+00 0.000000e+00 0.000000e+00 0.000000e+00 0.000000e+00
 0.000000e+00 9.594104e-01 4.058959e-02 0.000000e+00 0.000000e+00 0.000000e+00
 0.000000e+00 0.000000e+00 7.212700e-01 2.787300e-01 0.000000e+00 0.000000e+00
 0.000000e+00 0.000000e+00 0.000000e+00 0.000000e+00 1.000000e+00 0.000000e+00
 0.000000e+00 0.000000e+00 0.000000e+00 0.000000e+00 9.504169e-01 4.958315e-02
 0.000000e+00 0.000000e+00 0.000000e+00 0.000000e+00 0.000000e+00 0.000000e+00
<ENDHMM>
~h "z"
<BEGINHMM>
<NUMSTATES> 6
<STATE> 2
<MEAN> 8
 -5.823256e+00 -9.942109e+00 -3.989713e+00 -1.042257e+01 -6.294839e+00 -9.083319e+00 -7.946966e+00 -8.008986e+00
<VARIANCE> 8
 6.219554e+01 1.374144e+01 3.173470e+01 8.501795e+01 2.386390e+01 5.544605e+01 2.029076e+01 1.693200e+01
<GCONST> 4.238114e+01
<STATE> 3
<MEAN> 8
 -6.781689e+00 -1.364590e+01 -7.117754e+00 -1.219200e+01 -7.930459e+00 -1.209605e+01 -6.261520e+00 -1.284207e+01
<VARIANCE> 8
 3.525039e+01 4.878486e+01 1.977025e+01 4.341059e+01 2.068235e+01 3.076879e+01 4.061295e+01 3.166937e+01
<GCONST> 4.252301e+01
<STATE> 4
<MEAN> 8
 -4.130761e+00 -6.665192e+00 -9.081014e+00 -8.352190e+00 -7.574212e+00 -6.084482e+00 -3.603867e+00 -1.347875e+01
<VARIANCE> 8
 1.028969e+01 9.997838e+01 2.340374e+01 8.444225e+00 2.138778e+01 2.210130e+01 1.267419e+01 6.056126e+01
<GCONST> 3.972717e+01
<STATE> 5
<MEAN> 8
 -5.438177e+00 -8.903814e+00 -5.363029e+00 -8.912124e+00 -5.330188e+00 -8.937488e+00 -5.452410e+00 -8.821823e+00
<VARIANCE> 8
 3.384704e+01 2.242957e+01 3.353437e+01 2.321480e+01 3.461248e+01 2.362019e+01 3.463367e+01 2.306000e+01
<GCONST> 4.138186e+01
<TRANSP> 6
 0.000000e+00 1.000000e+00 0.000000e+00 0.000000e+00 0.000000e+00 0.000000e+00
 0.000000e+00 7.085085e-01 2.914915e-01 0.000000e+00 0.000000e+00 0.000000e+00
 0.000000e+00 0.000000e+00 8.494459e-01 1.505542e-01 0.000000e+00 0.000000e+00
 0.000000e+00 0.000000e+00 0.000000e+00 3.012045e-01 6.987955e-01 0.000000e+00
 0.000000e+00 0.000000e+00 0.000000e+00 0.000000e+00 9.872290e-01 1.277105e-02
 0.000000e+00 0.000000e+00 0.000000e+00 0.000000e+00 0.000000e+00 0.000000e+00
<ENDHMM>
~h "sil"
<BEGINHMM>
<NUMSTATES> 6
<STATE> 2
<MEAN> 8
 -6.106162e+00 -9.728292e+00 -6.388461e+00 -9.944269e+00 -6.489855e+00 -9.423197e+00 -6.651465e+00 -9.806002e+00
<VARIANCE> 8
 9.324792e+01 1.899355e+02 9.971415e+01 1.879224e+02 9.783598e+01 1.885505e+02 9.805157e+01 1.846605e+02
<GCONST> 5.394997e+01
<STATE> 3
<MEAN> 8
 -4.250774e+00 -7.029448e+00 -6.193735e+00 -6.447167e+00 -6.382308e+00 -6.789772e+00 -6.090820e+00 -6.612824e+00
<VARIANCE> 8
 4.558460e+01 2.736651e+01 3.447813e+01 3.850388e+01 3.486882e+01 2.796156e+01 3.823468e+01 2.388826e+01
<GCONST> 4.272254e+01
<STATE> 4
<MEAN> 8
 -4.472952e+00 -1.004071e+01 -9.548519e+00 -8.390490e+00 -7.192654e+00 -9.727996e+00 -4.856290e+00 -1.324627e+01
<VARIANCE> 8
 1.370032e+01 1.788541e+02 3.535667e+01 3.478049e+01 6.435864e+01 3.194959e+01 1.354642e+01 1.504702e+02
<GCONST> 4.487006e+01
<STATE> 5
<MEAN> 8
 -6.928487e+00 -1.182801e+01 -6.613951e+00 -1.199928e+01 -6.621677e+00 -1.194037e+01 -6.734818e+00 -1.181071e+01
<VARIANCE> 8
 4.546163e+01 4.264676e+01 4.650240e+01 4.389351e+01 4.686796e+01 4.890877e+01 4.928707e+01 4.479197e+01
<GCONST> 4.533109e+01
<TRANSP> 6
 0.000000e+00 1.000000e+00 0.000000e+00 0.000000e+00 0.000000e+00 0.000000e+00
 0.000000e+00 9.207733e-01 7.922663e-02 0.000000e+00 0.000000e+00 0.000000e+00
 0.000000e+00 0.000000e+00 8.857315e-01 1.142686e-01 0.000000e+00 0.000000e+00
 0.000000e+00 0.000000e+00 0.000000e+00 2.565848e-05 9.999744e-01 0.000000e+00
 0.000000e+00 0.000000e+00 0.000000e+00 0.000000e+00 9.383709e-01 6.162908e-02
 0.000000e+00 0.000000e+00 0.000000e+00 0.000000e+00 0.000000e+00 0.000000e+00
<ENDHMM>
