~o
<STREAMINFO> 1 20
<VECSIZE> 20<NULLD><USER><DIAGC>
~h "b"
<BEGINHMM>
<NUMSTATES> 8
<STATE> 2
<MEAN> 20
 -6.422825e+00 -1.811963e+00 -1.259822e+01 -1.085172e+01 -8.207096e+00 -1.271749e+01 -1.374975e+01 -1.705622e+01 -4.384332e+00 -1.297712e+01 -1.041960e+01 -1.580262e+01 -6.170510e-01 -1.218061e+01 -6.643023e+00 -1.321675e+01 3.199645e+00 -1.056341e+01 -2.109084e+00 -1.233686e+01
<VARIANCE> 20
 3.015020e+01 1.559774e+00 1.729759e+02 1.607686e+01 7.459293e+01 6.222263e+00 1.708030e+02 5.491909e+01 3.164896e+01 7.102880e+00 1.169787e+02 8.220627e+01 1.370220e+01 7.986612e+00 6.639163e+01 7.576236e+01 2.477693e+01 8.668913e+00 5.236248e+01 5.671461e+01
<GCONST> 1.049962e+02
<STATE> 3
<MEAN> 20
 -7.644546e+00 -1.739687e+00 -1.421136e+01 -1.076936e+01 -9.901196e+00 -1.252567e+01 -1.490570e+01 -1.711231e+01 -5.015175e+00 -1.285496e+01 -1.096538e+01 -1.553281e+01 -1.066967e-01 -1.220798e+01 -6.439986e+00 -1.340473e+01 4.974759e+00 -1.075307e+01 -9.324391e-01 -1.269094e+01
<VARIANCE> 20
 8.080549e+00 1.117416e+00 7.534959e+01 1.184250e+01 2.417708e+01 4.481341e+00 4.958827e+01 4.912096e+01 1.269330e+01 4.707951e+00 3.975984e+01 6.873110e+01 7.380146e+00 4.472291e+00 2.765463e+01 6.166714e+01 9.543887e+00 4.241012e+00 2.757142e+01 4.123885e+01
<GCONST> 9.191371e+01
<STATE> 4
<MEAN> 20
 -6.824050e+00 -1.733941e+00 -1.116091e+01 -1.001748e+01 -8.199945e+00 -1.128824e+01 -1.158403e+01 -1.457718e+01 -3.542892e+00 -1.147190e+01 -7.632567e+00 -1.326963e+01 1.082576e+00 -1.086023e+01 -3.555548e+00 -1.143172e+01 5.871112e+00 -9.576047e+00 1.435182e+00 -1.133062e+01
<VARIANCE> 20
 4.122783e+00 7.391705e-01 4.504889e+01 9.586596e+00 1.049622e+01 4.138688e+00 2.196143e+01 3.536374e+01 5.704389e+00 4.097996e+00 1.598023e+01 4.659581e+01 4.466784e+00 3.551337e+00 1.062045e+01 3.952364e+01 6.785297e+00 3.012367e+00 1.368876e+01 2.865810e+01
<GCONST> 8.192409e+01
<STATE> 5
<MEAN> 20
 -7.231884e+00 -1.755716e+00 -1.188096e+01 -1.074104e+01 -9.119018e+00 -1.247005e+01 -1.310623e+01 -1.817497e+01 -4.356572e+00 -1.276493e+01 -9.232571e+00 -1.716384e+01 3.875417e-01 -1.206957e+01 -4.950592e+00 -1.481654e+01 5.315321e+00 -1.056528e+01 4.543881e-01 -1.360464e+01
<VARIANCE> 20
 9.993234e+00 8.554955e-01 7.563970e+01 1.102754e+01 2.489632e+01 5.160913e+00 5.110455e+01 4.671187e+01 1.151260e+01 5.688706e+00 3.794849e+01 6.914202e+01 6.376482e+00 5.407897e+00 2.241052e+01 6.650736e+01 1.027427e+01 4.850927e+00 2.244353e+01 4.274645e+01
<GCONST> 9.194019e+01
<STATE> 6
<MEAN> 20
 -8.139263e+00 -1.880958e+00 -1.447622e+01 -1.197005e+01 -1.043650e+01 -1.341918e+01 -1.484676e+01 -1.911102e+01 -5.232708e+00 -1.379386e+01 -1.061580e+01 -1.779545e+01 -5.285618e-02 -1.308712e+01 -5.844537e+00 -1.576946e+01 5.283505e+00 -1.150780e+01 1.458537e-01 -1.452342e+01
<VARIANCE> 20
 9.656411e+00 1.356832e+00 8.598051e+01 1.766387e+01 2.573117e+01 8.342732e+00 5.251371e+01 5.586985e+01 1.312294e+01 8.974051e+00 3.741208e+01 8.770013e+01 8.146535e+00 8.473605e+00 2.799487e+01 8.496994e+01 1.186485e+01 7.458407e+00 3.395691e+01 5.341774e+01
<GCONST> 9.686879e+01
<STATE> 7
<MEAN> 20
 -7.780966e+00 -1.903731e+00 -9.609990e+00 -1.063833e+01 -1.011836e+01 -1.323546e+01 -1.357926e+01 -2.161054e+01 -5.051710e+00 -1.362310e+01 -9.734893e+00 -2.235366e+01 -3.250765e-02 -1.287005e+01 -5.076136e+00 -1.983276e+01 5.282741e+00 -1.120815e+01 8.332335e-01 -1.720770e+01
<VARIANCE> 20
 4.606941e+00 7.584090e-01 5.136389e+01 6.866070e+00 1.321607e+01 3.129452e+00 2.700298e+01 3.376585e+01 7.259564e+00 3.360761e+00 2.050393e+01 5.352972e+01 4.790473e+00 3.171029e+00 1.487779e+01 5.684639e+01 6.169603e+00 2.868895e+00 1.484537e+01 3.413145e+01
<GCONST> 8.316949e+01
<TRANSP> 8
 0.000000e+00 1.000000e+00 0.000000e+00 0.000000e+00 0.000000e+00 0.000000e+00 0.000000e+00 0.000000e+00
 0.000000e+00 2.849057e-01 7.150943e-01 0.000000e+00 0.000000e+00 0.000000e+00 0.000000e+00 0.000000e+00
 0.000000e+00 0.000000e+00 2.794677e-01 7.205323e-01 0.000000e+00 0.000000e+00 0.000000e+00 0.000000e+00
 0.000000e+00 0.000000e+00 0.000000e+00 6.735573e-01 3.264427e-01 0.000000e+00 0.000000e+00 0.000000e+00
 0.000000e+00 0.000000e+00 0.000000e+00 0.000000e+00 0.000000e+00 1.000000e+00 0.000000e+00 0.000000e+00
 0.000000e+00 0.000000e+00 0.000000e+00 0.000000e+00 0.000000e+00 2.929105e-01 7.070895e-01 0.000000e+00
 0.000000e+00 0.000000e+00 0.000000e+00 0.000000e+00 0.000000e+00 0.000000e+00 6.258638e-01 3.741362e-01
 0.000000e+00 0.000000e+00 0.000000e+00 0.000000e+00 0.000000e+00 0.000000e+00 0.000000e+00 0.000000e+00
<ENDHMM>
