~o
<STREAMINFO> 1 20
<VECSIZE> 20<NULLD><USER><DIAGC>
~h "c"
<BEGINHMM>
<NUMSTATES> 8
<STATE> 2
<MEAN> 20
 -7.181908e+00 -1.727619e+00 -1.499880e+01 -9.942119e+00 -8.578704e+00 -1.144339e+01 -1.314727e+01 -1.324087e+01 -3.883170e+00 -1.161230e+01 -9.310843e+00 -1.160146e+01 8.409355e-01 -1.100185e+01 -5.140532e+00 -9.031724e+00 5.637254e+00 -9.723565e+00 -3.458232e-01 -1.012950e+01
<VARIANCE> 20
 4.584067e+00 9.177704e-01 6.034794e+01 1.290555e+01 1.232791e+01 5.388728e+00 3.332746e+01 2.971668e+01 8.362822e+00 5.384462e+00 3.119002e+01 3.625200e+01 7.386530e+00 4.949714e+00 2.161652e+01 2.300139e+01 9.762103e+00 4.569351e+00 2.122838e+01 3.069935e+01
<GCONST> 8.686973e+01
<STATE> 3
<MEAN> 20
 -8.560733e+00 -1.838144e+00 -2.080149e+01 -1.087307e+01 -1.085462e+01 -1.359244e+01 -1.727262e+01 -1.695807e+01 -5.688651e+00 -1.389736e+01 -1.345730e+01 -1.579429e+01 -4.547936e-01 -1.316883e+01 -8.252311e+00 -1.291218e+01 4.822337e+00 -1.157948e+01 -2.006287e+00 -1.357744e+01
<VARIANCE> 20
 1.035465e+01 1.307172e+00 1.207121e+02 1.698625e+01 2.770023e+01 8.853061e+00 6.183544e+01 5.036669e+01 1.696489e+01 9.702552e+00 5.918333e+01 6.647575e+01 1.311678e+01 9.721126e+00 3.946054e+01 5.768395e+01 1.737639e+01 9.367964e+00 4.379662e+01 5.855780e+01
<GCONST> 9.943613e+01
<STATE> 4
<MEAN> 20
 -5.710444e+00 -2.014044e+00 -1.506267e+01 -9.281205e+00 -7.310110e+00 -1.187631e+01 -1.448338e+01 -1.419901e+01 -4.101275e+00 -1.175404e+01 -1.254230e+01 -1.253849e+01 -1.006195e+00 -1.073113e+01 -7.907173e+00 -9.539930e+00 1.972278e+00 -9.020259e+00 -4.265886e+00 -9.826568e+00
<VARIANCE> 20
 3.095466e+01 2.114038e+00 2.458220e+02 1.773870e+01 7.175874e+01 8.604045e+00 2.146923e+02 4.440134e+01 3.915553e+01 1.071308e+01 2.019109e+02 5.597544e+01 2.925183e+01 1.373913e+01 1.060013e+02 4.937544e+01 4.452742e+01 1.701731e+01 8.997758e+01 5.743556e+01
<GCONST> 1.100184e+02
<STATE> 5
<MEAN> 20
 -7.387601e+00 -1.740755e+00 -1.810226e+01 -9.674664e+00 -9.200398e+00 -1.212956e+01 -1.561028e+01 -1.473023e+01 -4.791174e+00 -1.231230e+01 -1.232736e+01 -1.352285e+01 -3.593065e-01 -1.162508e+01 -8.071701e+00 -1.116130e+01 4.061582e+00 -1.019519e+01 -3.082730e+00 -1.182655e+01
<VARIANCE> 20
 1.090072e+01 1.354658e+00 1.118527e+02 1.560751e+01 2.900834e+01 6.763919e+00 7.136340e+01 3.800052e+01 1.740181e+01 7.282688e+00 7.130453e+01 4.748819e+01 1.352869e+01 7.614119e+00 4.848112e+01 3.914564e+01 1.920580e+01 8.079374e+00 4.937370e+01 4.250411e+01
<GCONST> 9.794577e+01
<STATE> 6
<MEAN> 20
 -7.313986e+00 -1.691421e+00 -1.841055e+01 -9.531576e+00 -9.264287e+00 -1.211062e+01 -1.581387e+01 -1.500598e+01 -4.895471e+00 -1.229421e+01 -1.258395e+01 -1.384494e+01 -4.892105e-01 -1.161744e+01 -8.356709e+00 -1.156905e+01 3.928248e+00 -1.019468e+01 -3.399492e+00 -1.202181e+01
<VARIANCE> 20
 1.141822e+01 1.237116e+00 1.139521e+02 1.409741e+01 3.024742e+01 6.357960e+00 7.467461e+01 3.611494e+01 1.780186e+01 6.996293e+00 7.372494e+01 4.565464e+01 1.347294e+01 7.441071e+00 5.019462e+01 3.936481e+01 1.916891e+01 7.926134e+00 4.971979e+01 4.148549e+01
<GCONST> 9.774409e+01
<STATE> 7
<MEAN> 20
 -8.087309e+00 -1.801218e+00 -2.201956e+01 -9.090693e+00 -1.016702e+01 -1.248592e+01 -1.915674e+01 -1.634160e+01 -6.026912e+00 -1.267876e+01 -1.653565e+01 -1.534198e+01 -1.865646e+00 -1.202550e+01 -1.274893e+01 -1.359299e+01 2.234448e+00 -1.058846e+01 -7.691413e+00 -1.369884e+01
<VARIANCE> 20
 5.662385e+00 1.091132e+00 7.231261e+01 1.165456e+01 1.931817e+01 3.944913e+00 4.572034e+01 2.561549e+01 1.313375e+01 4.196423e+00 5.215700e+01 3.202622e+01 1.013617e+01 4.610667e+00 4.931639e+01 3.240408e+01 1.378102e+01 5.373309e+00 5.260608e+01 3.149011e+01
<GCONST> 9.108300e+01
<TRANSP> 8
 0.000000e+00 1.000000e+00 0.000000e+00 0.000000e+00 0.000000e+00 0.000000e+00 0.000000e+00 0.000000e+00
 0.000000e+00 7.111454e-01 2.888546e-01 0.000000e+00 0.000000e+00 0.000000e+00 0.000000e+00 0.000000e+00
 0.000000e+00 0.000000e+00 4.074367e-01 5.925633e-01 0.000000e+00 0.000000e+00 0.000000e+00 0.000000e+00
 0.000000e+00 0.000000e+00 0.000000e+00 2.472362e-01 7.527638e-01 0.000000e+00 0.000000e+00 0.000000e+00
 0.000000e+00 0.000000e+00 0.000000e+00 0.000000e+00 5.312084e-03 9.946879e-01 0.000000e+00 0.000000e+00
 0.000000e+00 0.000000e+00 0.000000e+00 0.000000e+00 0.000000e+00 0.000000e+00 1.000000e+00 0.000000e+00
 0.000000e+00 0.000000e+00 0.000000e+00 0.000000e+00 0.000000e+00 0.000000e+00 5.957906e-01 4.042094e-01
 0.000000e+00 0.000000e+00 0.000000e+00 0.000000e+00 0.000000e+00 0.000000e+00 0.000000e+00 0.000000e+00
<ENDHMM>
