~o
<STREAMINFO> 1 20
<VECSIZE> 20<NULLD><USER><DIAGC>
~h "f"
<BEGINHMM>
<NUMSTATES> 8
<STATE> 2
<MEAN> 20
 -6.878931e+00 -2.005296e+00 -1.667665e+01 -1.036845e+01 -8.261150e+00 -1.224985e+01 -1.601158e+01 -1.373887e+01 -4.412663e+00 -1.260181e+01 -1.266256e+01 -1.467652e+01 -6.103786e-01 -1.192782e+01 -7.993840e+00 -1.299794e+01 3.107318e+00 -1.038266e+01 -1.935734e+00 -1.319762e+01
<VARIANCE> 20
 2.090126e+01 1.891583e+00 1.661095e+02 1.914474e+01 4.788422e+01 6.543587e+00 1.288397e+02 3.524096e+01 2.467065e+01 6.712765e+00 1.044268e+02 6.967896e+01 1.732407e+01 7.526167e+00 8.503808e+01 6.944536e+01 3.162417e+01 8.702528e+00 1.141278e+02 5.525666e+01
<GCONST> 1.045905e+02
<STATE> 3
<MEAN> 20
 -7.510312e+00 -1.903008e+00 -1.707943e+01 -1.056331e+01 -8.883757e+00 -1.221879e+01 -1.550149e+01 -1.414772e+01 -4.134612e+00 -1.279299e+01 -1.129700e+01 -1.666589e+01 6.985638e-01 -1.228305e+01 -5.519628e+00 -1.525432e+01 5.578290e+00 -1.081840e+01 2.056603e+00 -1.476101e+01
<VARIANCE> 20
 7.465515e+00 9.867952e-01 7.745184e+01 1.213855e+01 2.064456e+01 5.473135e+00 5.288169e+01 2.925540e+01 1.162087e+01 5.900623e+00 4.390194e+01 6.630176e+01 7.891535e+00 5.751427e+00 4.186338e+01 6.945645e+01 1.175563e+01 5.319165e+00 7.207885e+01 4.514863e+01
<GCONST> 9.388977e+01
<STATE> 4
<MEAN> 20
 -7.440191e+00 -1.878573e+00 -1.703593e+01 -1.048475e+01 -8.847027e+00 -1.216010e+01 -1.548231e+01 -1.408870e+01 -4.106628e+00 -1.277147e+01 -1.131580e+01 -1.713307e+01 7.462676e-01 -1.228274e+01 -5.385368e+00 -1.569511e+01 5.665143e+00 -1.081846e+01 2.367576e+00 -1.504708e+01
<VARIANCE> 20
 7.337726e+00 1.047657e+00 7.291817e+01 1.196471e+01 1.944466e+01 5.731854e+00 5.315022e+01 2.861438e+01 1.060486e+01 5.947971e+00 4.269701e+01 6.487839e+01 7.143933e+00 5.612781e+00 3.953304e+01 6.745350e+01 1.087327e+01 4.932115e+00 6.750506e+01 4.331759e+01
<GCONST> 9.322280e+01
<STATE> 5
<MEAN> 20
 -8.141304e+00 -2.124256e+00 -1.840049e+01 -1.217824e+01 -9.668365e+00 -1.343220e+01 -1.665274e+01 -1.573101e+01 -4.303123e+00 -1.410073e+01 -1.163193e+01 -1.893087e+01 1.147249e+00 -1.348750e+01 -4.966357e+00 -1.667003e+01 6.628607e+00 -1.178000e+01 3.397009e+00 -1.563836e+01
<VARIANCE> 20
 5.859275e+00 1.340139e+00 5.987567e+01 1.720260e+01 1.794988e+01 8.965308e+00 4.402275e+01 4.717645e+01 1.111150e+01 9.938799e+00 3.688807e+01 1.033713e+02 8.829714e+00 9.550154e+00 3.639792e+01 1.060017e+02 1.186860e+01 8.178641e+00 6.967139e+01 6.373574e+01
<GCONST> 9.709247e+01
<STATE> 6
<MEAN> 20
 -6.882368e+00 -1.743494e+00 -1.422656e+01 -9.717575e+00 -8.202090e+00 -1.115672e+01 -1.340944e+01 -1.265964e+01 -3.567558e+00 -1.165374e+01 -9.149369e+00 -1.474383e+01 1.163355e+00 -1.121729e+01 -3.868679e+00 -1.357399e+01 6.003807e+00 -9.930672e+00 3.224329e+00 -1.342634e+01
<VARIANCE> 20
 3.336854e+00 8.523206e-01 4.006633e+01 1.022845e+01 9.790680e+00 5.060617e+00 2.514264e+01 2.119166e+01 6.320964e+00 4.769099e+00 2.106373e+01 4.684503e+01 5.161823e+00 4.164927e+00 1.948912e+01 4.941861e+01 6.580371e+00 3.453572e+00 3.993468e+01 3.252537e+01
<GCONST> 8.453094e+01
<STATE> 7
<MEAN> 20
 -7.740518e+00 -2.040281e+00 -1.846844e+01 -1.061942e+01 -9.435984e+00 -1.234286e+01 -1.762126e+01 -1.395171e+01 -4.853678e+00 -1.313723e+01 -1.388261e+01 -1.987999e+01 4.156901e-02 -1.276826e+01 -7.211241e+00 -1.919750e+01 5.162800e+00 -1.133699e+01 1.608509e+00 -1.779471e+01
<VARIANCE> 20
 3.023956e+00 6.369219e-01 3.356706e+01 6.260306e+00 1.162067e+01 3.218728e+00 2.533316e+01 2.047345e+01 7.118466e+00 3.378629e+00 2.421258e+01 4.369653e+01 4.941767e+00 3.318444e+00 2.429851e+01 5.061480e+01 6.390931e+00 3.157950e+00 4.888789e+01 2.973575e+01
<GCONST> 8.297665e+01
<TRANSP> 8
 0.000000e+00 1.000000e+00 0.000000e+00 0.000000e+00 0.000000e+00 0.000000e+00 0.000000e+00 0.000000e+00
 0.000000e+00 3.191153e-01 6.808847e-01 0.000000e+00 0.000000e+00 0.000000e+00 0.000000e+00 0.000000e+00
 0.000000e+00 0.000000e+00 0.000000e+00 1.000000e+00 0.000000e+00 0.000000e+00 0.000000e+00 0.000000e+00
 0.000000e+00 0.000000e+00 0.000000e+00 0.000000e+00 1.000000e+00 0.000000e+00 0.000000e+00 0.000000e+00
 0.000000e+00 0.000000e+00 0.000000e+00 0.000000e+00 3.903819e-01 6.096181e-01 0.000000e+00 0.000000e+00
 0.000000e+00 0.000000e+00 0.000000e+00 0.000000e+00 0.000000e+00 6.344360e-01 3.655640e-01 0.000000e+00
 0.000000e+00 0.000000e+00 0.000000e+00 0.000000e+00 0.000000e+00 0.000000e+00 6.562998e-01 3.437001e-01
 0.000000e+00 0.000000e+00 0.000000e+00 0.000000e+00 0.000000e+00 0.000000e+00 0.000000e+00 0.000000e+00
<ENDHMM>
