~o
<STREAMINFO> 1 20
<VECSIZE> 20<NULLD><USER><DIAGC>
~h "g"
<BEGINHMM>
<NUMSTATES> 8
<STATE> 2
<MEAN> 20
 -7.723439e+00 -2.589274e+00 -1.951989e+01 -1.225898e+01 -1.032899e+01 -1.281703e+01 -2.128614e+01 -1.410123e+01 -6.111882e+00 -1.253749e+01 -1.602560e+01 -1.133218e+01 -2.024824e+00 -1.134221e+01 -1.049511e+01 -7.109148e+00 1.873726e+00 -9.521159e+00 -6.011000e+00 -9.406590e+00
<VARIANCE> 20
 1.143799e+01 2.882942e+00 8.730237e+01 2.196992e+01 4.044809e+01 9.025844e+00 1.019184e+02 4.183113e+01 2.891758e+01 1.321081e+01 7.432422e+01 5.405352e+01 2.851580e+01 2.019238e+01 4.437506e+01 2.590345e+01 4.654968e+01 2.770525e+01 6.585263e+01 7.419338e+01
<GCONST> 1.053732e+02
<STATE> 3
<MEAN> 20
 -7.329204e+00 -2.268306e+00 -1.423978e+01 -1.156404e+01 -7.979072e+00 -1.216423e+01 -1.519659e+01 -1.387488e+01 -3.242838e+00 -1.220272e+01 -1.099993e+01 -1.166770e+01 1.449139e+00 -1.137741e+01 -6.398199e+00 -7.076985e+00 6.041265e+00 -9.863302e+00 -2.041241e+00 -8.799292e+00
<VARIANCE> 20
 3.502692e+00 1.261826e+00 5.023954e+01 8.754313e+00 1.615356e+01 4.506678e+00 4.126461e+01 3.052932e+01 1.303694e+01 4.999591e+00 2.598856e+01 3.801371e+01 1.226858e+01 5.883582e+00 1.549394e+01 1.107692e+01 1.588386e+01 7.110568e+00 2.081208e+01 2.862244e+01
<GCONST> 8.737024e+01
<STATE> 4
<MEAN> 20
 -6.869268e+00 -2.793269e+00 -1.705393e+01 -1.199285e+01 -7.288188e+00 -1.254996e+01 -1.852087e+01 -1.415742e+01 -3.233136e+00 -1.206145e+01 -1.287656e+01 -1.032557e+01 4.355321e-01 -1.061651e+01 -8.301517e+00 -6.221389e+00 3.726587e+00 -8.553101e+00 -4.950712e+00 -6.903958e+00
<VARIANCE> 20
 1.021721e+01 2.410635e+00 8.446933e+01 1.498027e+01 3.746909e+01 7.236557e+00 1.134993e+02 3.043120e+01 3.041222e+01 1.010636e+01 6.192112e+01 3.896115e+01 3.159784e+01 1.462515e+01 3.777311e+01 1.571861e+01 4.596690e+01 1.930238e+01 4.600080e+01 3.680121e+01
<GCONST> 1.011156e+02
<STATE> 5
<MEAN> 20
 -6.731737e+00 -2.981202e+00 -1.752806e+01 -1.218433e+01 -7.032757e+00 -1.259828e+01 -1.941625e+01 -1.447120e+01 -3.211129e+00 -1.192625e+01 -1.304904e+01 -1.014561e+01 1.132154e-01 -1.030570e+01 -8.548106e+00 -6.149433e+00 3.010970e+00 -8.120721e+00 -5.554264e+00 -6.514751e+00
<VARIANCE> 20
 1.022037e+01 2.764858e+00 9.022334e+01 1.672394e+01 3.869745e+01 7.316137e+00 1.242727e+02 2.884602e+01 3.159542e+01 1.031058e+01 6.664293e+01 3.925258e+01 3.322890e+01 1.536865e+01 3.996769e+01 1.621092e+01 4.998785e+01 2.080476e+01 5.068598e+01 3.466213e+01
<GCONST> 1.020317e+02
<STATE> 6
<MEAN> 20
 -5.548071e+00 -3.488914e+00 -1.860292e+01 -1.219669e+01 -7.741538e+00 -1.212035e+01 -2.277350e+01 -1.355433e+01 -5.240888e+00 -1.072635e+01 -1.495341e+01 -8.801728e+00 -3.160120e+00 -8.477351e+00 -1.073942e+01 -5.037654e+00 -1.428622e+00 -5.845281e+00 -8.643368e+00 -4.572030e+00
<VARIANCE> 20
 1.905838e+01 3.868401e+00 1.741478e+02 2.839589e+01 6.653672e+01 9.880229e+00 2.901808e+02 3.512571e+01 5.998253e+01 1.581619e+01 1.606791e+02 4.209731e+01 6.809572e+01 2.544281e+01 8.656743e+01 2.113694e+01 9.456995e+01 3.511669e+01 9.212211e+01 3.926155e+01
<GCONST> 1.122269e+02
<STATE> 7
<MEAN> 20
 -4.910884e+00 -3.824034e+00 -1.767091e+01 -1.329801e+01 -4.514062e+00 -1.205165e+01 -2.134288e+01 -1.429195e+01 -2.321241e+00 -1.034323e+01 -1.264880e+01 -8.684741e+00 -1.096258e+00 -7.904741e+00 -9.734320e+00 -5.339735e+00 -4.893778e-01 -5.223479e+00 -8.048456e+00 -4.440654e+00
<VARIANCE> 20
 1.054449e+01 2.984790e+00 6.520628e+01 1.986249e+01 3.162999e+01 6.660983e+00 9.242188e+01 2.187871e+01 2.457274e+01 1.008791e+01 4.396767e+01 2.533790e+01 2.896791e+01 1.579503e+01 2.855795e+01 1.187810e+01 5.191092e+01 2.129655e+01 4.301161e+01 2.393158e+01
<GCONST> 9.876131e+01
<TRANSP> 8
 0.000000e+00 1.000000e+00 0.000000e+00 0.000000e+00 0.000000e+00 0.000000e+00 0.000000e+00 0.000000e+00
 0.000000e+00 4.325726e-01 5.674274e-01 0.000000e+00 0.000000e+00 0.000000e+00 0.000000e+00 0.000000e+00
 0.000000e+00 0.000000e+00 7.377756e-01 2.622243e-01 0.000000e+00 0.000000e+00 0.000000e+00 0.000000e+00
 0.000000e+00 0.000000e+00 0.000000e+00 1.824817e-03 9.981752e-01 0.000000e+00 0.000000e+00 0.000000e+00
 0.000000e+00 0.000000e+00 0.000000e+00 0.000000e+00 0.000000e+00 1.000000e+00 0.000000e+00 0.000000e+00
 0.000000e+00 0.000000e+00 0.000000e+00 0.000000e+00 0.000000e+00 2.996159e-01 7.003841e-01 0.000000e+00
 0.000000e+00 0.000000e+00 0.000000e+00 0.000000e+00 0.000000e+00 0.000000e+00 4.621436e-01 5.378565e-01
 0.000000e+00 0.000000e+00 0.000000e+00 0.000000e+00 0.000000e+00 0.000000e+00 0.000000e+00 0.000000e+00
<ENDHMM>
