~o
<STREAMINFO> 1 20
<VECSIZE> 20<NULLD><USER><DIAGC>
~h "i"
<BEGINHMM>
<NUMSTATES> 8
<STATE> 2
<MEAN> 20
 -6.279408e+00 -2.340553e+00 -1.611728e+01 -1.030525e+01 -8.432696e+00 -1.172644e+01 -1.687800e+01 -1.369919e+01 -4.847030e+00 -1.143861e+01 -1.362413e+01 -1.064615e+01 -1.416272e+00 -1.026746e+01 -8.208836e+00 -7.213475e+00 1.871572e+00 -8.486623e+00 -4.185320e+00 -8.634416e+00
<VARIANCE> 20
 1.976182e+01 2.685389e+00 1.509674e+02 2.081176e+01 5.534380e+01 9.552641e+00 1.753723e+02 4.788926e+01 3.746260e+01 1.226262e+01 1.684424e+02 5.863481e+01 3.650929e+01 1.681280e+01 7.352361e+01 3.734607e+01 5.626136e+01 2.195276e+01 8.314963e+01 6.605344e+01
<GCONST> 1.094832e+02
<STATE> 3
<MEAN> 20
 -7.726443e+00 -2.047234e+00 -1.565893e+01 -1.122493e+01 -9.319197e+00 -1.267062e+01 -1.563545e+01 -1.710858e+01 -4.269117e+00 -1.293497e+01 -1.148997e+01 -1.533471e+01 7.515548e-01 -1.215172e+01 -6.751297e+00 -1.098114e+01 5.691730e+00 -1.054311e+01 -1.287393e+00 -1.159978e+01
<VARIANCE> 20
 4.603114e+00 1.226303e+00 6.396291e+01 1.144800e+01 1.797102e+01 5.316724e+00 4.505569e+01 4.872640e+01 1.278710e+01 5.649486e+00 4.128387e+01 7.461402e+01 1.102798e+01 5.873072e+00 2.632253e+01 4.936766e+01 1.422260e+01 6.418764e+00 3.782246e+01 4.767407e+01
<GCONST> 9.300282e+01
<STATE> 4
<MEAN> 20
 -7.485795e+00 -2.009225e+00 -1.639711e+01 -1.099617e+01 -9.191393e+00 -1.210673e+01 -1.553264e+01 -1.415848e+01 -4.469002e+00 -1.229793e+01 -1.141054e+01 -1.145917e+01 2.514772e-01 -1.160205e+01 -6.848014e+00 -8.649092e+00 4.930870e+00 -1.020206e+01 -1.354657e+00 -1.138646e+01
<VARIANCE> 20
 7.740475e+00 1.444635e+00 8.072233e+01 1.420453e+01 2.607037e+01 6.490845e+00 6.449475e+01 4.170963e+01 1.769673e+01 7.056317e+00 5.627452e+01 4.957887e+01 1.489996e+01 7.808230e+00 3.359416e+01 3.089222e+01 1.980782e+01 9.079329e+00 4.165664e+01 5.514783e+01
<GCONST> 9.663899e+01
<STATE> 5
<MEAN> 20
 -7.517309e+00 -1.997295e+00 -1.638070e+01 -1.111342e+01 -9.237289e+00 -1.206717e+01 -1.541326e+01 -1.380433e+01 -4.491090e+00 -1.226411e+01 -1.129922e+01 -1.116892e+01 2.700229e-01 -1.160120e+01 -6.745612e+00 -8.577331e+00 5.006453e+00 -1.024921e+01 -1.102919e+00 -1.170206e+01
<VARIANCE> 20
 7.397059e+00 1.395320e+00 7.791073e+01 1.314944e+01 2.537635e+01 6.298944e+00 6.224233e+01 4.013375e+01 1.733962e+01 6.831771e+00 5.557698e+01 4.596962e+01 1.432686e+01 7.598575e+00 3.275415e+01 2.887220e+01 1.854811e+01 8.917711e+00 4.206452e+01 5.625140e+01
<GCONST> 9.596091e+01
<STATE> 6
<MEAN> 20
 -8.375546e+00 -2.034940e+00 -1.978710e+01 -1.206897e+01 -1.138393e+01 -1.290353e+01 -1.895329e+01 -1.391579e+01 -6.478352e+00 -1.319587e+01 -1.427424e+01 -1.119038e+01 -1.494524e+00 -1.259547e+01 -8.973833e+00 -8.634161e+00 3.471742e+00 -1.127697e+01 -3.224276e+00 -1.298571e+01
<VARIANCE> 20
 7.622634e+00 1.923190e+00 7.587936e+01 1.715942e+01 2.816250e+01 7.781477e+00 6.867467e+01 3.980165e+01 1.982997e+01 8.916282e+00 6.332035e+01 4.378991e+01 1.759643e+01 1.093997e+01 3.682029e+01 2.666965e+01 2.546958e+01 1.387269e+01 5.273017e+01 7.487437e+01
<GCONST> 9.931815e+01
<STATE> 7
<MEAN> 20
 -7.220116e+00 -1.941908e+00 -1.476933e+01 -1.100385e+01 -8.444531e+00 -1.141358e+01 -1.351125e+01 -1.239310e+01 -3.681818e+00 -1.157074e+01 -9.198215e+00 -9.563744e+00 1.129418e+00 -1.102939e+01 -5.205313e+00 -7.643107e+00 5.998528e+00 -9.895204e+00 2.433487e-01 -1.179344e+01
<VARIANCE> 20
 3.017665e+00 8.904439e-01 4.274725e+01 9.882386e+00 1.179635e+01 4.199818e+00 2.606402e+01 2.451246e+01 9.347143e+00 4.130129e+00 2.258383e+01 2.273256e+01 8.505088e+00 4.069139e+00 1.521509e+01 1.303424e+01 1.009543e+01 4.419146e+00 2.057201e+01 4.183916e+01
<GCONST> 8.343878e+01
<TRANSP> 8
 0.000000e+00 1.000000e+00 0.000000e+00 0.000000e+00 0.000000e+00 0.000000e+00 0.000000e+00 0.000000e+00
 0.000000e+00 2.890593e-01 7.109407e-01 0.000000e+00 0.000000e+00 0.000000e+00 0.000000e+00 0.000000e+00
 0.000000e+00 0.000000e+00 4.649043e-01 5.350957e-01 0.000000e+00 0.000000e+00 0.000000e+00 0.000000e+00
 0.000000e+00 0.000000e+00 0.000000e+00 0.000000e+00 1.000000e+00 0.000000e+00 0.000000e+00 0.000000e+00
 0.000000e+00 0.000000e+00 0.000000e+00 0.000000e+00 0.000000e+00 1.000000e+00 0.000000e+00 0.000000e+00
 0.000000e+00 0.000000e+00 0.000000e+00 0.000000e+00 0.000000e+00 4.467483e-01 5.532516e-01 0.000000e+00
 0.000000e+00 0.000000e+00 0.000000e+00 0.000000e+00 0.000000e+00 0.000000e+00 7.401505e-01 2.598495e-01
 0.000000e+00 0.000000e+00 0.000000e+00 0.000000e+00 0.000000e+00 0.000000e+00 0.000000e+00 0.000000e+00
<ENDHMM>
