~o
<STREAMINFO> 1 20
<VECSIZE> 20<NULLD><USER><DIAGC>
~h "j"
<BEGINHMM>
<NUMSTATES> 8
<STATE> 2
<MEAN> 20
 -7.872114e+00 -1.261220e+00 -1.703779e+01 -9.266321e+00 -1.256570e+01 -1.167115e+01 -1.726389e+01 -1.476457e+01 -7.679598e+00 -1.223077e+01 -1.313254e+01 -1.472936e+01 -2.503881e+00 -1.182512e+01 -8.651260e+00 -1.177889e+01 2.946383e+00 -1.061541e+01 -2.737407e+00 -1.519124e+01
<VARIANCE> 20
 5.196671e+00 1.435395e+00 5.334721e+01 1.094926e+01 1.453474e+01 3.401989e+00 2.405654e+01 6.918177e+01 1.384497e+01 3.808275e+00 2.543309e+01 9.366634e+01 1.824354e+01 4.904245e+00 3.417440e+01 6.760552e+01 2.734185e+01 7.301029e+00 8.881694e+01 5.826246e+01
<GCONST> 9.428308e+01
<STATE> 3
<MEAN> 20
 -6.936638e+00 -2.216892e+00 -2.058233e+01 -9.901781e+00 -1.118903e+01 -1.176012e+01 -1.955356e+01 -1.099740e+01 -7.468697e+00 -1.155877e+01 -1.574202e+01 -9.305694e+00 -3.840710e+00 -1.046027e+01 -1.253875e+01 -7.279297e+00 -3.392565e-01 -8.733307e+00 -9.909283e+00 -1.168130e+01
<VARIANCE> 20
 1.178717e+01 4.229569e+00 5.449234e+01 2.212228e+01 2.813988e+01 6.344722e+00 5.588614e+01 3.762028e+01 1.905482e+01 6.868876e+00 6.220549e+01 4.675159e+01 2.714285e+01 1.232384e+01 7.545317e+01 2.853148e+01 5.591261e+01 2.162103e+01 2.232746e+02 8.777657e+01
<GCONST> 1.039144e+02
<STATE> 4
<MEAN> 20
 -7.018639e+00 -1.483245e+00 -1.688229e+01 -8.733741e+00 -8.784723e+00 -1.096485e+01 -1.361333e+01 -9.782890e+00 -3.967650e+00 -1.112064e+01 -9.919548e+00 -7.732847e+00 8.237289e-01 -1.046576e+01 -6.057805e+00 -6.441908e+00 5.484452e+00 -9.167589e+00 -3.020468e-01 -1.066583e+01
<VARIANCE> 20
 2.225103e+00 7.594109e-01 2.660929e+01 1.342533e+01 1.313813e+01 3.248787e+00 1.560938e+01 2.324729e+01 1.001399e+01 3.519132e+00 1.432798e+01 2.661917e+01 7.781780e+00 4.306989e+00 1.687084e+01 1.581496e+01 7.724250e+00 5.802071e+00 3.369764e+01 4.978818e+01
<GCONST> 8.264079e+01
<STATE> 5
<MEAN> 20
 -6.389897e+00 -2.564651e+00 -1.978890e+01 -1.029127e+01 -9.638415e+00 -1.175349e+01 -1.784608e+01 -1.037333e+01 -6.572647e+00 -1.101634e+01 -1.522615e+01 -8.941428e+00 -3.757372e+00 -9.507454e+00 -1.272490e+01 -6.486802e+00 -1.139021e+00 -7.525270e+00 -1.296847e+01 -9.603497e+00
<VARIANCE> 20
 1.128631e+01 5.004333e+00 5.428099e+01 2.608657e+01 2.608256e+01 1.021100e+01 4.498077e+01 3.569226e+01 2.555139e+01 1.059766e+01 3.576303e+01 4.206016e+01 4.660252e+01 1.574167e+01 5.239739e+01 2.381498e+01 8.735056e+01 2.198013e+01 2.806793e+02 5.616555e+01
<GCONST> 1.048830e+02
<STATE> 6
<MEAN> 20
 -7.325652e+00 -2.174621e+00 -1.414507e+01 -1.031928e+01 -7.708915e+00 -1.241951e+01 -1.423089e+01 -1.353594e+01 -3.007886e+00 -1.236211e+01 -1.091802e+01 -1.247630e+01 1.400873e+00 -1.125041e+01 -7.225821e+00 -8.439124e+00 5.521091e+00 -9.371304e+00 -2.490816e+00 -9.950198e+00
<VARIANCE> 20
 2.881230e+00 1.671840e+00 4.624715e+01 1.103505e+01 1.968814e+01 3.149685e+00 2.849986e+01 3.839344e+01 1.631282e+01 2.838621e+00 3.138200e+01 5.410917e+01 1.483048e+01 3.220757e+00 3.970144e+01 1.779647e+01 1.952966e+01 4.523215e+00 8.750025e+01 2.908384e+01
<GCONST> 8.971204e+01
<STATE> 7
<MEAN> 20
 -8.422099e+00 -1.691393e+00 -1.910521e+01 -1.077393e+01 -1.063285e+01 -1.287546e+01 -1.825440e+01 -1.432578e+01 -5.645316e+00 -1.298832e+01 -1.540323e+01 -1.289363e+01 -9.474790e-01 -1.203271e+01 -1.076726e+01 -8.597381e+00 3.477429e+00 -1.028233e+01 -6.227864e+00 -1.120802e+01
<VARIANCE> 20
 4.587380e+00 2.467469e+00 4.574051e+01 1.089563e+01 2.536074e+01 6.025584e+00 3.313132e+01 6.486423e+01 1.956811e+01 6.070485e+00 4.123818e+01 6.235152e+01 1.331371e+01 7.284359e+00 3.600015e+01 2.297529e+01 1.371648e+01 9.976748e+00 5.890097e+01 5.758897e+01
<GCONST> 9.506740e+01
<TRANSP> 8
 0.000000e+00 1.000000e+00 0.000000e+00 0.000000e+00 0.000000e+00 0.000000e+00 0.000000e+00 0.000000e+00
 0.000000e+00 4.637681e-01 5.362319e-01 0.000000e+00 0.000000e+00 0.000000e+00 0.000000e+00 0.000000e+00
 0.000000e+00 0.000000e+00 2.745098e-01 7.254902e-01 0.000000e+00 0.000000e+00 0.000000e+00 0.000000e+00
 0.000000e+00 0.000000e+00 0.000000e+00 5.888889e-01 4.111111e-01 0.000000e+00 0.000000e+00 0.000000e+00
 0.000000e+00 0.000000e+00 0.000000e+00 0.000000e+00 2.884615e-01 7.115384e-01 0.000000e+00 0.000000e+00
 0.000000e+00 0.000000e+00 0.000000e+00 0.000000e+00 0.000000e+00 4.558823e-01 5.441176e-01 0.000000e+00
 0.000000e+00 0.000000e+00 0.000000e+00 0.000000e+00 0.000000e+00 0.000000e+00 4.032258e-01 5.967742e-01
 0.000000e+00 0.000000e+00 0.000000e+00 0.000000e+00 0.000000e+00 0.000000e+00 0.000000e+00 0.000000e+00
<ENDHMM>
