~o
<STREAMINFO> 1 20
<VECSIZE> 20<NULLD><USER><DIAGC>
~h "k"
<BEGINHMM>
<NUMSTATES> 8
<STATE> 2
<MEAN> 20
 -7.223286e+00 -1.836066e+00 -1.637164e+01 -1.044369e+01 -9.268025e+00 -1.191138e+01 -1.502320e+01 -1.538276e+01 -4.600648e+00 -1.206474e+01 -1.286698e+01 -1.305754e+01 -1.931720e-02 -1.125822e+01 -7.288342e+00 -8.074133e+00 4.411296e+00 -9.687530e+00 -2.889501e+00 -7.797111e+00
<VARIANCE> 20
 1.013608e+01 1.401572e+00 7.309323e+01 2.040704e+01 2.352883e+01 8.424428e+00 5.982283e+01 6.620105e+01 1.419757e+01 9.504663e+00 6.587836e+01 6.535981e+01 1.346779e+01 1.070211e+01 3.469857e+01 4.119284e+01 2.378950e+01 1.172291e+01 3.557130e+01 3.823423e+01
<GCONST> 9.864664e+01
<STATE> 3
<MEAN> 20
 -6.119355e+00 -1.948400e+00 -1.296158e+01 -1.197693e+01 -7.788496e+00 -1.293996e+01 -1.236691e+01 -1.825160e+01 -3.791580e+00 -1.322143e+01 -1.043948e+01 -1.542173e+01 1.835592e-01 -1.248091e+01 -6.036065e+00 -8.704654e+00 4.077071e+00 -1.088228e+01 -2.360454e+00 -8.616098e+00
<VARIANCE> 20
 3.220694e+01 1.131889e+00 1.644950e+02 1.588427e+01 5.616173e+01 6.118647e+00 1.471582e+02 5.562421e+01 1.890735e+01 7.276339e+00 1.165603e+02 6.353146e+01 1.008734e+01 7.655933e+00 5.067504e+01 2.816157e+01 3.062091e+01 7.334221e+00 3.666951e+01 2.888923e+01
<GCONST> 1.008955e+02
<STATE> 4
<MEAN> 20
 -8.431869e+00 -1.992457e+00 -1.959138e+01 -1.122014e+01 -1.047447e+01 -1.317489e+01 -1.870364e+01 -1.726713e+01 -5.712403e+00 -1.349399e+01 -1.649572e+01 -1.542538e+01 -9.707639e-01 -1.280742e+01 -1.089913e+01 -1.113734e+01 3.619781e+00 -1.123866e+01 -6.124965e+00 -1.079304e+01
<VARIANCE> 20
 6.706409e+00 8.953224e-01 7.335932e+01 1.306444e+01 1.843818e+01 4.108568e+00 5.254048e+01 3.445848e+01 1.092508e+01 4.463868e+00 6.418291e+01 3.797135e+01 8.532782e+00 4.658919e+00 4.815003e+01 4.075801e+01 1.485661e+01 4.888818e+00 5.008940e+01 3.852237e+01
<GCONST> 9.204489e+01
<STATE> 5
<MEAN> 20
 -6.908886e+00 -1.731077e+00 -1.289774e+01 -1.062733e+01 -8.160626e+00 -1.135021e+01 -1.264891e+01 -1.481779e+01 -3.461651e+00 -1.152962e+01 -9.883051e+00 -1.230528e+01 1.213801e+00 -1.087798e+01 -5.232693e+00 -7.507757e+00 5.833144e+00 -9.526590e+00 -9.313362e-01 -7.626911e+00
<VARIANCE> 20
 4.167422e+00 7.493816e-01 4.349281e+01 9.055697e+00 9.790128e+00 4.804794e+00 2.947506e+01 3.554902e+01 5.833803e+00 4.814567e+00 3.525214e+01 3.302701e+01 5.207470e+00 4.089402e+00 1.806787e+01 1.691379e+01 8.257230e+00 3.294451e+00 1.828884e+01 1.848237e+01
<GCONST> 8.298013e+01
<STATE> 6
<MEAN> 20
 -8.029545e+00 -1.933005e+00 -1.630769e+01 -1.214011e+01 -9.962702e+00 -1.303222e+01 -1.629575e+01 -1.911273e+01 -4.776182e+00 -1.334729e+01 -1.454089e+01 -1.552533e+01 3.456913e-01 -1.251824e+01 -8.322312e+00 -7.611495e+00 5.187498e+00 -1.078435e+01 -3.585545e+00 -7.283082e+00
<VARIANCE> 20
 9.687394e+00 1.296270e+00 6.950469e+01 1.931962e+01 2.255385e+01 7.699681e+00 6.265137e+01 5.842478e+01 1.189610e+01 8.861629e+00 7.296893e+01 7.480450e+01 8.802559e+00 9.139668e+00 3.527269e+01 2.735976e+01 1.512073e+01 8.813915e+00 3.258382e+01 2.773363e+01
<GCONST> 9.607435e+01
<STATE> 7
<MEAN> 20
 -7.977396e+00 -2.539322e+00 -1.482146e+01 -1.342101e+01 -8.175294e+00 -1.360439e+01 -1.420438e+01 -2.009700e+01 -2.955089e+00 -1.367868e+01 -1.484920e+01 -1.504173e+01 1.967105e+00 -1.260337e+01 -7.085762e+00 -7.121589e+00 6.469630e+00 -1.066292e+01 -2.266990e+00 -7.197341e+00
<VARIANCE> 20
 4.871271e+00 1.300302e+00 3.891525e+01 1.136441e+01 1.387188e+01 4.117633e+00 3.667632e+01 4.561640e+01 9.121312e+00 4.112122e+00 6.096192e+01 4.233332e+01 7.965330e+00 3.977901e+00 1.887226e+01 2.051243e+01 1.240748e+01 4.082009e+00 2.319543e+01 2.467773e+01
<GCONST> 8.733260e+01
<TRANSP> 8
 0.000000e+00 1.000000e+00 0.000000e+00 0.000000e+00 0.000000e+00 0.000000e+00 0.000000e+00 0.000000e+00
 0.000000e+00 1.299639e-01 8.700361e-01 0.000000e+00 0.000000e+00 0.000000e+00 0.000000e+00 0.000000e+00
 0.000000e+00 0.000000e+00 1.392857e-01 8.607143e-01 0.000000e+00 0.000000e+00 0.000000e+00 0.000000e+00
 0.000000e+00 0.000000e+00 0.000000e+00 5.409524e-01 4.590476e-01 0.000000e+00 0.000000e+00 0.000000e+00
 0.000000e+00 0.000000e+00 0.000000e+00 0.000000e+00 6.370482e-01 3.629518e-01 0.000000e+00 0.000000e+00
 0.000000e+00 0.000000e+00 0.000000e+00 0.000000e+00 0.000000e+00 1.631945e-01 8.368056e-01 0.000000e+00
 0.000000e+00 0.000000e+00 0.000000e+00 0.000000e+00 0.000000e+00 0.000000e+00 5.771930e-01 4.228070e-01
 0.000000e+00 0.000000e+00 0.000000e+00 0.000000e+00 0.000000e+00 0.000000e+00 0.000000e+00 0.000000e+00
<ENDHMM>
