~o
<STREAMINFO> 1 20
<VECSIZE> 20<NULLD><USER><DIAGC>
~h "l"
<BEGINHMM>
<NUMSTATES> 8
<STATE> 2
<MEAN> 20
 -7.931202e+00 -2.010300e+00 -1.801731e+01 -1.097168e+01 -9.458205e+00 -1.270637e+01 -1.659554e+01 -1.729209e+01 -4.566996e+00 -1.295008e+01 -1.310027e+01 -1.390683e+01 1.809406e-01 -1.215794e+01 -8.401344e+00 -1.110962e+01 4.799133e+00 -1.054067e+01 -3.504606e+00 -1.108049e+01
<VARIANCE> 20
 5.735563e+00 1.218683e+00 7.313451e+01 1.234109e+01 1.862132e+01 5.190420e+00 4.947088e+01 4.440170e+01 1.182233e+01 5.482759e+00 5.234206e+01 5.920785e+01 9.585602e+00 5.592728e+00 4.392424e+01 4.857515e+01 1.506833e+01 5.794611e+00 5.433795e+01 4.181484e+01
<GCONST> 9.382877e+01
<STATE> 3
<MEAN> 20
 -7.542354e+00 -1.875430e+00 -1.935807e+01 -9.732810e+00 -1.000849e+01 -1.182853e+01 -1.766659e+01 -1.519629e+01 -5.257371e+00 -1.187767e+01 -1.345122e+01 -9.947040e+00 -6.378091e-01 -1.085916e+01 -7.685820e+00 -7.092285e+00 3.814573e+00 -9.105565e+00 -3.159321e+00 -7.621315e+00
<VARIANCE> 20
 1.008966e+01 2.258891e+00 9.749560e+01 2.977156e+01 3.224139e+01 1.324422e+01 1.018424e+02 7.230821e+01 2.272382e+01 1.490085e+01 1.005319e+02 8.374639e+01 2.232487e+01 1.704051e+01 5.591417e+01 5.052881e+01 3.485800e+01 1.907453e+01 6.559535e+01 5.842112e+01
<GCONST> 1.063200e+02
<STATE> 4
<MEAN> 20
 -8.345072e+00 -1.756433e+00 -2.111679e+01 -1.148572e+01 -1.047155e+01 -1.318768e+01 -1.598032e+01 -1.784139e+01 -4.811139e+00 -1.355300e+01 -1.064828e+01 -1.022013e+01 7.532868e-01 -1.275916e+01 -5.472783e+00 -8.023157e+00 6.237068e+00 -1.115078e+01 -5.189224e-01 -9.266937e+00
<VARIANCE> 20
 8.577036e+00 1.383105e+00 1.066507e+02 2.107908e+01 2.423489e+01 9.295193e+00 5.512069e+01 6.884530e+01 1.337559e+01 1.040263e+01 3.945128e+01 4.752353e+01 9.445196e+00 1.042894e+01 2.420534e+01 2.971389e+01 1.360669e+01 1.015380e+01 2.818196e+01 4.020932e+01
<GCONST> 9.620873e+01
<STATE> 5
<MEAN> 20
 -7.448702e+00 -1.781996e+00 -1.825186e+01 -1.051134e+01 -8.989882e+00 -1.221415e+01 -1.422156e+01 -1.661652e+01 -3.902770e+00 -1.243737e+01 -9.857866e+00 -1.063260e+01 1.070368e+00 -1.163066e+01 -5.245600e+00 -8.101245e+00 5.963127e+00 -1.006835e+01 -6.743037e-01 -8.914744e+00
<VARIANCE> 20
 9.373095e+00 1.205426e+00 1.018201e+02 1.772281e+01 2.565982e+01 7.239751e+00 6.359018e+01 5.501881e+01 1.442791e+01 7.833817e+00 4.806502e+01 5.193192e+01 1.069683e+01 7.893250e+00 2.892058e+01 3.142975e+01 1.560676e+01 7.926138e+00 3.102086e+01 3.722028e+01
<GCONST> 9.573267e+01
<STATE> 6
<MEAN> 20
 -6.128568e+00 -1.767112e+00 -1.505583e+01 -1.016448e+01 -7.168221e+00 -1.198682e+01 -1.147547e+01 -1.624142e+01 -2.964676e+00 -1.216974e+01 -7.881594e+00 -1.011211e+01 1.104062e+00 -1.132195e+01 -4.183915e+00 -7.599933e+00 5.079706e+00 -9.736085e+00 -3.615961e-01 -8.416613e+00
<VARIANCE> 20
 2.670046e+01 1.272197e+00 2.273590e+02 2.084734e+01 6.148965e+01 8.597188e+00 1.442035e+02 6.237181e+01 2.591868e+01 9.634401e+00 8.734834e+01 5.542018e+01 1.344429e+01 1.020038e+01 4.221892e+01 3.313191e+01 2.528949e+01 1.062564e+01 3.392993e+01 4.064924e+01
<GCONST> 1.031138e+02
<STATE> 7
<MEAN> 20
 -7.336912e+00 -1.768208e+00 -1.830670e+01 -1.031894e+01 -8.406022e+00 -1.185717e+01 -1.234077e+01 -1.694552e+01 -3.066013e+00 -1.198525e+01 -7.725196e+00 -9.291319e+00 2.119375e+00 -1.117389e+01 -3.411088e+00 -7.111073e+00 7.243572e+00 -9.682335e+00 1.137818e+00 -8.135428e+00
<VARIANCE> 20
 3.565112e+00 7.993456e-01 6.607867e+01 1.453042e+01 1.012742e+01 4.894397e+00 2.460436e+01 4.857585e+01 6.897303e+00 4.842432e+00 1.749356e+01 2.722759e+01 6.384893e+00 4.224932e+00 1.177006e+01 1.491703e+01 8.429062e+00 3.728459e+00 1.454699e+01 2.302744e+01
<GCONST> 8.306062e+01
<TRANSP> 8
 0.000000e+00 1.000000e+00 0.000000e+00 0.000000e+00 0.000000e+00 0.000000e+00 0.000000e+00 0.000000e+00
 0.000000e+00 5.062739e-01 4.937261e-01 0.000000e+00 0.000000e+00 0.000000e+00 0.000000e+00 0.000000e+00
 0.000000e+00 0.000000e+00 2.258340e-01 7.741659e-01 0.000000e+00 0.000000e+00 0.000000e+00 0.000000e+00
 0.000000e+00 0.000000e+00 0.000000e+00 3.091603e-01 6.908397e-01 0.000000e+00 0.000000e+00 0.000000e+00
 0.000000e+00 0.000000e+00 0.000000e+00 0.000000e+00 0.000000e+00 1.000000e+00 0.000000e+00 0.000000e+00
 0.000000e+00 0.000000e+00 0.000000e+00 0.000000e+00 0.000000e+00 1.187926e-01 8.812074e-01 0.000000e+00
 0.000000e+00 0.000000e+00 0.000000e+00 0.000000e+00 0.000000e+00 0.000000e+00 7.467823e-01 2.532177e-01
 0.000000e+00 0.000000e+00 0.000000e+00 0.000000e+00 0.000000e+00 0.000000e+00 0.000000e+00 0.000000e+00
<ENDHMM>
