~o
<STREAMINFO> 1 20
<VECSIZE> 20<NULLD><USER><DIAGC>
~h "n"
<BEGINHMM>
<NUMSTATES> 8
<STATE> 2
<MEAN> 20
 -8.144519e+00 -2.076975e+00 -1.718894e+01 -1.223462e+01 -1.031875e+01 -1.299062e+01 -1.831695e+01 -1.535327e+01 -5.414023e+00 -1.329240e+01 -1.406509e+01 -1.378311e+01 -5.213001e-01 -1.261060e+01 -8.883774e+00 -9.554876e+00 4.264827e+00 -1.112566e+01 -3.651423e+00 -1.095974e+01
<VARIANCE> 20
 8.427392e+00 1.937274e+00 7.730582e+01 1.895929e+01 3.257873e+01 8.602062e+00 6.923640e+01 4.383624e+01 2.105666e+01 9.477507e+00 6.175720e+01 5.846823e+01 1.595864e+01 1.072351e+01 4.147637e+01 3.824511e+01 2.250390e+01 1.220038e+01 5.025561e+01 5.473038e+01
<GCONST> 1.000281e+02
<STATE> 3
<MEAN> 20
 -7.274192e+00 -2.033396e+00 -1.365854e+01 -1.169222e+01 -8.568775e+00 -1.218814e+01 -1.488780e+01 -1.400534e+01 -3.823197e+00 -1.239081e+01 -1.093271e+01 -1.241199e+01 9.229863e-01 -1.169969e+01 -6.337400e+00 -8.181444e+00 5.617886e+00 -1.027927e+01 -1.561852e+00 -9.378843e+00
<VARIANCE> 20
 8.753837e+00 1.267314e+00 6.873214e+01 1.293007e+01 2.638379e+01 6.040315e+00 6.362131e+01 3.059055e+01 1.575419e+01 6.600427e+00 4.910902e+01 3.879338e+01 1.146812e+01 7.082694e+00 2.801383e+01 2.064161e+01 1.547813e+01 7.701812e+00 2.842429e+01 3.506232e+01
<GCONST> 9.323756e+01
<STATE> 4
<MEAN> 20
 -7.300280e+00 -2.049816e+00 -1.355152e+01 -1.172716e+01 -8.605537e+00 -1.216916e+01 -1.481334e+01 -1.391630e+01 -3.862201e+00 -1.236905e+01 -1.090837e+01 -1.229757e+01 9.015275e-01 -1.169091e+01 -6.323456e+00 -8.073932e+00 5.626492e+00 -1.028465e+01 -1.466937e+00 -9.315216e+00
<VARIANCE> 20
 8.778893e+00 1.283568e+00 6.955702e+01 1.343361e+01 2.639716e+01 6.479877e+00 6.349378e+01 3.090151e+01 1.580131e+01 6.952601e+00 5.009708e+01 3.770206e+01 1.142218e+01 7.331101e+00 2.781654e+01 2.019703e+01 1.509040e+01 7.785562e+00 2.757001e+01 3.447660e+01
<GCONST> 9.336823e+01
<STATE> 5
<MEAN> 20
 -7.048555e+00 -1.993064e+00 -1.137086e+01 -1.115643e+01 -7.874729e+00 -1.142126e+01 -1.311432e+01 -1.246361e+01 -3.124653e+00 -1.157411e+01 -9.246660e+00 -1.118984e+01 1.696133e+00 -1.096812e+01 -4.925927e+00 -7.381505e+00 6.573068e+00 -9.705537e+00 -5.735573e-02 -8.765644e+00
<VARIANCE> 20
 3.010758e+00 8.304210e-01 3.691138e+01 8.303291e+00 9.925576e+00 4.028140e+00 2.402332e+01 1.638897e+01 6.940193e+00 3.975245e+00 1.960152e+01 1.942435e+01 6.171901e+00 3.731461e+00 1.128659e+01 1.068351e+01 7.748136e+00 3.526362e+00 1.202399e+01 2.297905e+01
<GCONST> 7.918102e+01
<STATE> 6
<MEAN> 20
 -6.112369e+00 -2.240666e+00 -1.258672e+01 -1.161645e+01 -7.263291e+00 -1.216940e+01 -1.474120e+01 -1.398817e+01 -3.548774e+00 -1.213345e+01 -1.117254e+01 -1.210576e+01 7.541876e-02 -1.119694e+01 -6.866079e+00 -7.450818e+00 3.568902e+00 -9.564689e+00 -2.992962e+00 -8.018332e+00
<VARIANCE> 20
 2.451090e+01 2.055461e+00 1.386739e+02 1.930044e+01 6.008473e+01 8.954880e+00 1.710913e+02 3.583609e+01 3.205478e+01 1.114810e+01 1.233604e+02 4.291994e+01 2.424757e+01 1.414847e+01 5.779581e+01 2.597749e+01 4.067007e+01 1.695364e+01 5.258193e+01 3.733775e+01
<GCONST> 1.053021e+02
<STATE> 7
<MEAN> 20
 -7.786801e+00 -2.306729e+00 -1.377045e+01 -1.254436e+01 -8.676000e+00 -1.301239e+01 -1.608343e+01 -1.588027e+01 -3.699680e+00 -1.320371e+01 -1.233221e+01 -1.418224e+01 1.265816e+00 -1.242927e+01 -7.380173e+00 -8.692074e+00 6.098526e+00 -1.085101e+01 -2.583125e+00 -9.100146e+00
<VARIANCE> 20
 5.810016e+00 1.300791e+00 5.411559e+01 1.069252e+01 2.156531e+01 5.034545e+00 4.712373e+01 3.218833e+01 1.418487e+01 5.472421e+00 3.948219e+01 4.041975e+01 1.134236e+01 5.882009e+00 2.519453e+01 2.164711e+01 1.516166e+01 6.367774e+00 2.933991e+01 2.572588e+01
<GCONST> 9.057803e+01
<TRANSP> 8
 0.000000e+00 1.000000e+00 0.000000e+00 0.000000e+00 0.000000e+00 0.000000e+00 0.000000e+00 0.000000e+00
 0.000000e+00 4.483388e-01 5.516612e-01 0.000000e+00 0.000000e+00 0.000000e+00 0.000000e+00 0.000000e+00
 0.000000e+00 0.000000e+00 0.000000e+00 1.000000e+00 0.000000e+00 0.000000e+00 0.000000e+00 0.000000e+00
 0.000000e+00 0.000000e+00 0.000000e+00 0.000000e+00 1.000000e+00 0.000000e+00 0.000000e+00 0.000000e+00
 0.000000e+00 0.000000e+00 0.000000e+00 0.000000e+00 7.353302e-01 2.646698e-01 0.000000e+00 0.000000e+00
 0.000000e+00 0.000000e+00 0.000000e+00 0.000000e+00 0.000000e+00 2.549310e-01 7.450690e-01 0.000000e+00
 0.000000e+00 0.000000e+00 0.000000e+00 0.000000e+00 0.000000e+00 0.000000e+00 4.816467e-01 5.183533e-01
 0.000000e+00 0.000000e+00 0.000000e+00 0.000000e+00 0.000000e+00 0.000000e+00 0.000000e+00 0.000000e+00
<ENDHMM>
