~o
<STREAMINFO> 1 20
<VECSIZE> 20<NULLD><USER><DIAGC>
~h "p"
<BEGINHMM>
<NUMSTATES> 8
<STATE> 2
<MEAN> 20
 -7.490044e+00 -1.807447e+00 -1.542184e+01 -9.772544e+00 -9.557385e+00 -1.170354e+01 -1.550435e+01 -1.434598e+01 -4.589038e+00 -1.187315e+01 -1.158735e+01 -1.092537e+01 3.357551e-01 -1.103760e+01 -6.296826e+00 -7.680035e+00 5.212116e+00 -9.443810e+00 -1.847913e+00 -7.431485e+00
<VARIANCE> 20
 3.676411e+00 1.042031e+00 5.588022e+01 1.328857e+01 1.511044e+01 5.616391e+00 4.974974e+01 4.133701e+01 1.245146e+01 6.119351e+00 4.491169e+01 5.978971e+01 1.200317e+01 6.730878e+00 2.459134e+01 2.691331e+01 1.474278e+01 7.628008e+00 2.740157e+01 2.615515e+01
<GCONST> 9.119355e+01
<STATE> 3
<MEAN> 20
 -8.330379e+00 -1.975648e+00 -2.014454e+01 -1.008361e+01 -1.146198e+01 -1.256495e+01 -2.074567e+01 -1.511864e+01 -6.569723e+00 -1.269225e+01 -1.737986e+01 -1.115279e+01 -1.834656e+00 -1.164830e+01 -1.079090e+01 -7.653443e+00 2.660105e+00 -9.784926e+00 -6.156265e+00 -7.669122e+00
<VARIANCE> 20
 8.153618e+00 2.301336e+00 7.691048e+01 2.640283e+01 3.646295e+01 1.174639e+01 9.448944e+01 5.886913e+01 2.750948e+01 1.300936e+01 8.990375e+01 9.122547e+01 2.207856e+01 1.534535e+01 5.281189e+01 4.989197e+01 2.533271e+01 1.809695e+01 5.695860e+01 5.578290e+01
<GCONST> 1.047752e+02
<STATE> 4
<MEAN> 20
 -6.060085e+00 -1.859602e+00 -1.511188e+01 -8.301303e+00 -8.410006e+00 -1.099697e+01 -1.548303e+01 -1.241900e+01 -4.548216e+00 -1.094151e+01 -1.269524e+01 -7.188448e+00 -8.437178e-01 -9.735161e+00 -6.978631e+00 -4.710893e+00 2.644408e+00 -7.815276e+00 -3.423270e+00 -4.720493e+00
<VARIANCE> 20
 2.782456e+01 1.847730e+00 2.012390e+02 2.616694e+01 7.653748e+01 1.174401e+01 2.217518e+02 6.076543e+01 4.334310e+01 1.388044e+01 1.723318e+02 8.469359e+01 2.925768e+01 1.696484e+01 7.471492e+01 3.766144e+01 3.628933e+01 2.012166e+01 5.930903e+01 4.391072e+01
<GCONST> 1.101721e+02
<STATE> 5
<MEAN> 20
 -7.438124e+00 -1.788522e+00 -1.876910e+01 -7.984519e+00 -1.079515e+01 -1.101255e+01 -1.924206e+01 -1.266092e+01 -6.060877e+00 -1.099515e+01 -1.565302e+01 -6.786060e+00 -1.483046e+00 -9.772552e+00 -8.773820e+00 -4.462816e+00 2.812013e+00 -7.810319e+00 -4.408245e+00 -4.610430e+00
<VARIANCE> 20
 9.526946e+00 1.570171e+00 9.528828e+01 2.592748e+01 3.750071e+01 1.047149e+01 1.304239e+02 5.744829e+01 3.013462e+01 1.212835e+01 1.168990e+02 8.207043e+01 2.801048e+01 1.485625e+01 5.798681e+01 3.660035e+01 3.422349e+01 1.796447e+01 5.840569e+01 4.524313e+01
<GCONST> 1.052319e+02
<STATE> 6
<MEAN> 20
 -7.649956e+00 -1.750769e+00 -2.256937e+01 -5.065979e+00 -1.373202e+01 -9.131380e+00 -2.622409e+01 -9.140704e+00 -9.414573e+00 -8.694099e+00 -2.096580e+01 -2.189257e+00 -5.061369e+00 -7.041021e+00 -1.183649e+01 -1.238357e+00 -9.803689e-01 -4.762390e+00 -7.755211e+00 -1.093206e+00
<VARIANCE> 20
 9.277432e+00 2.695449e+00 1.042730e+02 4.491889e+01 4.981807e+01 1.925217e+01 1.913122e+02 8.178754e+01 4.677642e+01 2.219192e+01 1.614988e+02 1.118907e+02 4.640421e+01 2.669740e+01 7.810433e+01 5.070736e+01 5.394549e+01 3.124027e+01 8.072256e+01 5.795858e+01
<GCONST> 1.129862e+02
<STATE> 7
<MEAN> 20
 -6.908354e+00 -1.460465e+00 -1.730134e+01 -6.917542e+00 -9.790490e+00 -1.035113e+01 -1.730283e+01 -1.205886e+01 -4.917126e+00 -1.046319e+01 -1.366360e+01 -6.687755e+00 -2.642565e-01 -9.313942e+00 -7.518279e+00 -4.051181e+00 3.997684e+00 -7.394960e+00 -3.059555e+00 -4.014358e+00
<VARIANCE> 20
 6.564904e+00 1.414034e+00 7.217879e+01 2.234849e+01 2.812544e+01 9.280999e+00 1.013500e+02 4.465490e+01 2.283480e+01 1.022998e+01 8.651315e+01 7.961474e+01 2.049436e+01 1.205205e+01 4.614312e+01 3.095833e+01 2.363090e+01 1.395066e+01 4.482268e+01 3.393415e+01
<GCONST> 1.005439e+02
<TRANSP> 8
 0.000000e+00 1.000000e+00 0.000000e+00 0.000000e+00 0.000000e+00 0.000000e+00 0.000000e+00 0.000000e+00
 0.000000e+00 7.289973e-01 2.710027e-01 0.000000e+00 0.000000e+00 0.000000e+00 0.000000e+00 0.000000e+00
 0.000000e+00 0.000000e+00 4.082840e-01 5.917160e-01 0.000000e+00 0.000000e+00 0.000000e+00 0.000000e+00
 0.000000e+00 0.000000e+00 0.000000e+00 9.909909e-02 9.009009e-01 0.000000e+00 0.000000e+00 0.000000e+00
 0.000000e+00 0.000000e+00 0.000000e+00 0.000000e+00 0.000000e+00 1.000000e+00 0.000000e+00 0.000000e+00
 0.000000e+00 0.000000e+00 0.000000e+00 0.000000e+00 0.000000e+00 3.968637e-01 6.031363e-01 0.000000e+00
 0.000000e+00 0.000000e+00 0.000000e+00 0.000000e+00 0.000000e+00 0.000000e+00 4.444444e-01 5.555556e-01
 0.000000e+00 0.000000e+00 0.000000e+00 0.000000e+00 0.000000e+00 0.000000e+00 0.000000e+00 0.000000e+00
<ENDHMM>
