~o
<STREAMINFO> 1 20
<VECSIZE> 20<NULLD><USER><DIAGC>
~h "sil0"
<BEGINHMM>
<NUMSTATES> 5
<STATE> 2
<MEAN> 20
 -6.376428e+00 -1.965141e+00 -2.064527e+01 -4.947539e+00 -1.092461e+01 -9.925939e+00 -2.360101e+01 -7.341558e+00 -7.064518e+00 -9.152985e+00 -1.840271e+01 -2.910874e+00 -3.482189e+00 -7.128050e+00 -1.176760e+01 -8.571058e-01 -4.435984e-01 -4.502447e+00 -7.708390e+00 -1.617228e-01
<VARIANCE> 20
 2.847153e+01 3.491311e+00 2.192573e+02 3.948260e+01 9.406492e+01 1.568621e+01 2.851577e+02 8.533147e+01 6.195160e+01 1.806031e+01 2.257432e+02 9.078214e+01 5.179285e+01 2.158104e+01 1.236092e+02 6.616822e+01 6.493849e+01 2.477688e+01 1.013132e+02 5.743725e+01
<GCONST> 1.168477e+02
<STATE> 3
<MEAN> 20
 -6.813287e+00 -1.635883e+00 -1.686491e+01 -8.270959e+00 -7.544196e+00 -1.159412e+01 -1.541594e+01 -1.268273e+01 -2.101482e+00 -1.156768e+01 -9.745558e+00 -7.305284e+00 3.005116e+00 -1.036087e+01 -4.887890e+00 -5.258947e+00 7.670281e+00 -8.369718e+00 1.473969e-01 -4.960083e+00
<VARIANCE> 20
 1.290201e+00 5.621323e-01 2.541273e+01 8.505602e+00 5.554316e+00 3.741787e+00 2.099676e+01 2.230779e+01 4.756638e+00 3.390147e+00 1.127211e+01 2.127067e+01 4.691488e+00 2.799238e+00 7.976768e+00 1.653052e+01 5.179856e+00 2.846262e+00 7.661683e+00 1.301692e+01
<GCONST> 7.400592e+01
<STATE> 4
<MEAN> 20
 -8.397044e+00 -1.889072e+00 -1.918320e+01 -1.112168e+01 -1.100095e+01 -1.318150e+01 -1.887962e+01 -1.649909e+01 -5.520250e+00 -1.350104e+01 -1.327110e+01 -1.406246e+01 -1.026451e-01 -1.263500e+01 -8.034455e+00 -1.123393e+01 5.207572e+00 -1.086541e+01 -2.076890e+00 -1.097297e+01
<VARIANCE> 20
 5.619881e+00 1.495953e+00 7.533482e+01 1.958081e+01 2.259699e+01 7.183975e+00 5.721072e+01 5.229170e+01 1.720107e+01 7.865448e+00 5.614490e+01 8.410501e+01 1.556941e+01 8.836380e+00 4.235256e+01 6.607062e+01 1.947366e+01 1.033084e+01 5.445512e+01 5.752474e+01
<GCONST> 9.885854e+01
<TRANSP> 5
 0.000000e+00 1.000000e+00 0.000000e+00 0.000000e+00 0.000000e+00
 0.000000e+00 6.171819e-01 2.005751e-01 1.822430e-01 0.000000e+00
 0.000000e+00 0.000000e+00 8.571429e-01 1.428571e-01 0.000000e+00
 0.000000e+00 1.232349e-02 0.000000e+00 7.265725e-01 2.611040e-01
 0.000000e+00 0.000000e+00 0.000000e+00 0.000000e+00 0.000000e+00
<ENDHMM>
