~o
<STREAMINFO> 1 20
<VECSIZE> 20<NULLD><USER><DIAGC>
~h "u"
<BEGINHMM>
<NUMSTATES> 8
<STATE> 2
<MEAN> 20
 -5.713908e+00 -1.869678e+00 -1.334069e+01 -8.636783e+00 -8.131625e+00 -1.126875e+01 -1.466376e+01 -1.373651e+01 -4.549750e+00 -1.120246e+01 -1.095559e+01 -1.202613e+01 -1.033401e+00 -1.007966e+01 -6.686286e+00 -6.960837e+00 2.355884e+00 -8.222538e+00 -3.205203e+00 -6.745568e+00
<VARIANCE> 20
 2.471682e+01 2.518216e+00 1.826120e+02 3.339451e+01 6.535339e+01 1.142308e+01 2.047968e+02 8.089887e+01 3.353252e+01 1.270254e+01 1.557071e+02 1.045048e+02 2.475824e+01 1.533140e+01 7.277708e+01 5.062162e+01 4.182247e+01 1.793526e+01 6.220741e+01 5.289338e+01
<GCONST> 1.105563e+02
<STATE> 3
<MEAN> 20
 -8.261448e+00 -2.013023e+00 -1.777540e+01 -1.123403e+01 -1.020665e+01 -1.317933e+01 -1.760439e+01 -1.806705e+01 -5.193951e+00 -1.352378e+01 -1.422901e+01 -1.706421e+01 -2.728901e-01 -1.274929e+01 -9.424385e+00 -1.085691e+01 4.443228e+00 -1.106309e+01 -4.281737e+00 -1.097247e+01
<VARIANCE> 20
 6.430393e+00 1.789432e+00 7.480006e+01 1.423784e+01 2.738618e+01 6.181513e+00 5.254562e+01 5.351485e+01 1.568979e+01 6.511620e+00 5.194844e+01 7.580560e+01 1.041598e+01 6.634110e+00 4.481486e+01 4.118480e+01 1.600350e+01 6.834008e+00 5.733015e+01 4.307932e+01
<GCONST> 9.641222e+01
<STATE> 4
<MEAN> 20
 -7.128715e+00 -1.802878e+00 -1.410379e+01 -9.951450e+00 -8.933766e+00 -1.202655e+01 -1.471561e+01 -1.652241e+01 -4.172452e+00 -1.219753e+01 -1.108468e+01 -1.530062e+01 5.043619e-01 -1.130672e+01 -6.670722e+00 -8.765462e+00 5.034865e+00 -9.596025e+00 -2.090718e+00 -8.479344e+00
<VARIANCE> 20
 9.356355e+00 1.701783e+00 8.370463e+01 1.752625e+01 2.756447e+01 6.849486e+00 7.205564e+01 5.405698e+01 1.562395e+01 7.396519e+00 6.244769e+01 7.616910e+01 1.219486e+01 8.065514e+00 3.836127e+01 3.732715e+01 1.891065e+01 8.768313e+00 3.954483e+01 3.704409e+01
<GCONST> 9.779736e+01
<STATE> 5
<MEAN> 20
 -7.069009e+00 -1.805439e+00 -1.378376e+01 -1.008985e+01 -8.907593e+00 -1.209396e+01 -1.446255e+01 -1.683360e+01 -4.138316e+00 -1.228268e+01 -1.091798e+01 -1.594700e+01 5.822846e-01 -1.141434e+01 -6.598643e+00 -8.886430e+00 5.173227e+00 -9.715137e+00 -2.079981e+00 -8.566566e+00
<VARIANCE> 20
 9.790698e+00 1.465747e+00 8.363868e+01 1.640860e+01 2.821811e+01 6.841663e+00 7.140823e+01 5.279141e+01 1.604393e+01 7.697226e+00 6.219538e+01 7.569517e+01 1.238348e+01 8.385292e+00 3.594294e+01 3.437281e+01 1.864913e+01 8.870096e+00 3.668130e+01 3.546031e+01
<GCONST> 9.745779e+01
<STATE> 6
<MEAN> 20
 -7.103484e+00 -1.780757e+00 -1.365287e+01 -1.017776e+01 -9.020277e+00 -1.220849e+01 -1.437957e+01 -1.727279e+01 -4.207304e+00 -1.241519e+01 -1.082344e+01 -1.637348e+01 5.778717e-01 -1.154145e+01 -6.514396e+00 -8.869470e+00 5.240763e+00 -9.823686e+00 -1.973238e+00 -8.478999e+00
<VARIANCE> 20
 9.954600e+00 1.499206e+00 8.401613e+01 1.514051e+01 2.811913e+01 6.357742e+00 7.496283e+01 5.129074e+01 1.571813e+01 6.965793e+00 6.341039e+01 7.493472e+01 1.213352e+01 7.355105e+00 3.680051e+01 3.086678e+01 1.838086e+01 7.619606e+00 3.630888e+01 3.056503e+01
<GCONST> 9.669210e+01
<STATE> 7
<MEAN> 20
 -7.036111e+00 -1.802999e+00 -1.157672e+01 -1.020476e+01 -8.497318e+00 -1.198618e+01 -1.259537e+01 -1.762845e+01 -3.512949e+00 -1.214672e+01 -8.801652e+00 -1.696151e+01 1.466678e+00 -1.129365e+01 -4.999803e+00 -8.861697e+00 6.394562e+00 -9.634500e+00 -5.521681e-01 -8.353648e+00
<VARIANCE> 20
 3.264180e+00 9.559081e-01 3.936456e+01 9.930160e+00 1.110434e+01 4.522113e+00 2.997564e+01 4.209711e+01 7.339251e+00 4.501529e+00 2.509550e+01 6.479150e+01 6.524264e+00 3.986918e+00 1.574629e+01 1.810700e+01 8.745505e+00 3.491576e+00 1.668933e+01 1.768389e+01
<GCONST> 8.382987e+01
<TRANSP> 8
 0.000000e+00 1.000000e+00 0.000000e+00 0.000000e+00 0.000000e+00 0.000000e+00 0.000000e+00 0.000000e+00
 0.000000e+00 3.277153e-01 6.722847e-01 0.000000e+00 0.000000e+00 0.000000e+00 0.000000e+00 0.000000e+00
 0.000000e+00 0.000000e+00 5.690276e-01 4.309724e-01 0.000000e+00 0.000000e+00 0.000000e+00 0.000000e+00
 0.000000e+00 0.000000e+00 0.000000e+00 2.312925e-02 9.768708e-01 0.000000e+00 0.000000e+00 0.000000e+00
 0.000000e+00 0.000000e+00 0.000000e+00 0.000000e+00 0.000000e+00 1.000000e+00 0.000000e+00 0.000000e+00
 0.000000e+00 0.000000e+00 0.000000e+00 0.000000e+00 0.000000e+00 0.000000e+00 1.000000e+00 0.000000e+00
 0.000000e+00 0.000000e+00 0.000000e+00 0.000000e+00 0.000000e+00 0.000000e+00 7.468265e-01 2.531735e-01
 0.000000e+00 0.000000e+00 0.000000e+00 0.000000e+00 0.000000e+00 0.000000e+00 0.000000e+00 0.000000e+00
<ENDHMM>
