~o
<STREAMINFO> 1 20
<VECSIZE> 20<NULLD><USER><DIAGC>
~h "v"
<BEGINHMM>
<NUMSTATES> 8
<STATE> 2
<MEAN> 20
 -5.820621e+00 -1.911449e+00 -1.073625e+01 -1.068523e+01 -7.059432e+00 -1.259754e+01 -1.235192e+01 -1.604552e+01 -3.210029e+00 -1.282480e+01 -8.553087e+00 -1.569045e+01 5.443285e-01 -1.191434e+01 -5.018307e+00 -8.457488e+00 4.241596e+00 -1.014866e+01 -1.047438e+00 -8.634478e+00
<VARIANCE> 20
 3.071436e+01 1.411839e+00 1.470621e+02 1.321902e+01 7.452628e+01 6.514899e+00 1.966008e+02 5.399680e+01 2.943544e+01 7.791881e+00 1.129128e+02 7.474539e+01 1.730533e+01 8.654744e+00 5.029158e+01 2.421258e+01 3.557195e+01 9.241770e+00 4.341464e+01 3.306222e+01
<GCONST> 1.032093e+02
<STATE> 3
<MEAN> 20
 -7.375086e+00 -1.871347e+00 -1.245742e+01 -1.100130e+01 -8.979892e+00 -1.278144e+01 -1.450770e+01 -1.636508e+01 -3.807615e+00 -1.304991e+01 -8.522662e+00 -1.592131e+01 1.277573e+00 -1.220151e+01 -5.073885e+00 -8.806059e+00 6.261724e+00 -1.049877e+01 -1.795792e-01 -9.345672e+00
<VARIANCE> 20
 1.025786e+01 9.040661e-01 7.036543e+01 1.197864e+01 3.172193e+01 5.775978e+00 7.513216e+01 4.879165e+01 1.523441e+01 6.394418e+00 4.154821e+01 7.328217e+01 9.032624e+00 6.289473e+00 2.063944e+01 2.191507e+01 1.234508e+01 6.070689e+00 2.077091e+01 3.062682e+01
<GCONST> 9.266550e+01
<STATE> 4
<MEAN> 20
 -7.346897e+00 -1.819817e+00 -1.235768e+01 -1.095970e+01 -9.042625e+00 -1.277253e+01 -1.446569e+01 -1.650430e+01 -3.843997e+00 -1.305428e+01 -8.299685e+00 -1.599824e+01 1.254345e+00 -1.222465e+01 -5.005172e+00 -8.987800e+00 6.250687e+00 -1.053974e+01 -1.466287e-01 -9.482965e+00
<VARIANCE> 20
 1.080200e+01 1.006127e+00 7.560365e+01 1.068767e+01 3.252845e+01 5.569389e+00 7.673014e+01 4.502256e+01 1.624366e+01 6.262573e+00 4.392440e+01 6.707372e+01 9.527864e+00 6.272155e+00 2.130291e+01 2.264753e+01 1.195560e+01 6.157050e+00 2.142060e+01 3.238094e+01
<GCONST> 9.290534e+01
<STATE> 5
<MEAN> 20
 -6.662138e+00 -1.528638e+00 -1.118114e+01 -9.465103e+00 -8.349320e+00 -1.136161e+01 -1.273180e+01 -1.505168e+01 -3.267148e+00 -1.157310e+01 -6.682489e+00 -1.455209e+01 1.645373e+00 -1.077289e+01 -3.745851e+00 -7.861622e+00 6.391317e+00 -9.195157e+00 7.727453e-01 -8.010728e+00
<VARIANCE> 20
 6.063748e+00 7.688916e-01 4.888538e+01 1.010965e+01 1.784755e+01 5.523786e+00 4.351562e+01 3.577558e+01 9.684071e+00 5.816298e+00 2.737444e+01 5.366486e+01 6.651315e+00 5.444350e+00 1.353658e+01 1.681987e+01 8.014074e+00 4.990547e+00 1.441318e+01 2.361251e+01
<GCONST> 8.630087e+01
<STATE> 6
<MEAN> 20
 -8.540539e+00 -1.682044e+00 -1.573124e+01 -1.179155e+01 -1.192308e+01 -1.364828e+01 -1.845997e+01 -1.808578e+01 -6.071138e+00 -1.418128e+01 -1.172154e+01 -1.795555e+01 -2.616860e-01 -1.343771e+01 -7.622596e+00 -9.957047e+00 5.389410e+00 -1.171698e+01 -2.183438e+00 -1.063034e+01
<VARIANCE> 20
 8.689437e+00 1.345831e+00 7.329417e+01 1.219417e+01 3.325441e+01 7.116634e+00 7.159521e+01 5.145765e+01 1.843820e+01 7.566452e+00 4.690377e+01 7.880510e+01 1.123165e+01 7.376417e+00 2.800672e+01 3.382393e+01 1.208799e+01 7.113707e+00 3.022036e+01 4.600546e+01
<GCONST> 9.580588e+01
<STATE> 7
<MEAN> 20
 -7.631927e+00 -2.196247e+00 -1.076166e+01 -1.116998e+01 -8.593134e+00 -1.306350e+01 -1.457364e+01 -1.755313e+01 -3.225691e+00 -1.319901e+01 -7.761623e+00 -1.778349e+01 2.024701e+00 -1.226125e+01 -4.938952e+00 -9.663033e+00 7.192841e+00 -1.050009e+01 5.612484e-02 -1.012380e+01
<VARIANCE> 20
 3.899745e+00 6.552367e-01 3.864338e+01 5.831975e+00 1.256900e+01 2.787678e+00 3.002483e+01 3.523830e+01 7.356704e+00 2.819369e+00 2.345705e+01 5.473882e+01 5.440928e+00 2.535046e+00 1.135425e+01 1.248751e+01 6.258942e+00 2.480274e+00 1.187800e+01 2.213292e+01
<GCONST> 7.971651e+01
<TRANSP> 8
 0.000000e+00 1.000000e+00 0.000000e+00 0.000000e+00 0.000000e+00 0.000000e+00 0.000000e+00 0.000000e+00
 0.000000e+00 1.939954e-01 8.060046e-01 0.000000e+00 0.000000e+00 0.000000e+00 0.000000e+00 0.000000e+00
 0.000000e+00 0.000000e+00 1.690141e-02 9.830986e-01 0.000000e+00 0.000000e+00 0.000000e+00 0.000000e+00
 0.000000e+00 0.000000e+00 0.000000e+00 0.000000e+00 1.000000e+00 0.000000e+00 0.000000e+00 0.000000e+00
 0.000000e+00 0.000000e+00 0.000000e+00 0.000000e+00 5.192838e-01 4.807163e-01 0.000000e+00 0.000000e+00
 0.000000e+00 0.000000e+00 0.000000e+00 0.000000e+00 0.000000e+00 5.035562e-01 4.964438e-01 0.000000e+00
 0.000000e+00 0.000000e+00 0.000000e+00 0.000000e+00 0.000000e+00 0.000000e+00 7.132292e-01 2.867708e-01
 0.000000e+00 0.000000e+00 0.000000e+00 0.000000e+00 0.000000e+00 0.000000e+00 0.000000e+00 0.000000e+00
<ENDHMM>
