~o
<STREAMINFO> 1 20
<VECSIZE> 20<NULLD><USER><DIAGC>
~h "w"
<BEGINHMM>
<NUMSTATES> 8
<STATE> 2
<MEAN> 20
 -5.610449e+00 -2.024861e+00 -1.276356e+01 -9.931005e+00 -7.360972e+00 -1.190761e+01 -1.551862e+01 -1.571754e+01 -3.842024e+00 -1.189427e+01 -1.121474e+01 -1.464828e+01 -6.120993e-01 -1.072931e+01 -7.405182e+00 -1.054501e+01 2.310159e+00 -8.732371e+00 -4.894081e+00 -7.401980e+00
<VARIANCE> 20
 2.709908e+01 2.030871e+00 1.488734e+02 1.684641e+01 6.803783e+01 6.953769e+00 2.173698e+02 5.029346e+01 3.213722e+01 9.929432e+00 1.460602e+02 8.384145e+01 2.191932e+01 1.342433e+01 7.718974e+01 6.653847e+01 4.020374e+01 1.622360e+01 6.152401e+01 3.350681e+01
<GCONST> 1.075701e+02
<STATE> 3
<MEAN> 20
 -6.889421e+00 -1.852031e+00 -1.255471e+01 -1.034897e+01 -8.556373e+00 -1.222507e+01 -1.555794e+01 -1.671408e+01 -3.779090e+00 -1.245803e+01 -1.001118e+01 -1.608267e+01 7.953851e-01 -1.152545e+01 -5.645104e+00 -1.213926e+01 5.147789e+00 -9.690936e+00 -2.734864e+00 -8.895177e+00
<VARIANCE> 20
 1.030000e+01 1.158193e+00 7.347633e+01 1.122522e+01 2.818873e+01 4.969694e+00 7.908583e+01 4.040076e+01 1.393812e+01 5.949836e+00 5.738857e+01 6.678809e+01 9.629203e+00 6.715569e+00 4.135708e+01 4.899271e+01 1.671630e+01 7.417178e+00 3.653701e+01 2.246622e+01
<GCONST> 9.494636e+01
<STATE> 4
<MEAN> 20
 -6.942375e+00 -1.864239e+00 -1.247239e+01 -1.047896e+01 -8.668741e+00 -1.231813e+01 -1.564353e+01 -1.701278e+01 -3.873338e+00 -1.257560e+01 -9.994202e+00 -1.645640e+01 7.243406e-01 -1.166109e+01 -5.679539e+00 -1.245154e+01 5.106794e+00 -9.822814e+00 -2.897986e+00 -9.016618e+00
<VARIANCE> 20
 1.059085e+01 1.030264e+00 7.339374e+01 1.077873e+01 2.820125e+01 5.379076e+00 8.238201e+01 4.074280e+01 1.406336e+01 6.506124e+00 5.718466e+01 6.763741e+01 9.833522e+00 7.204786e+00 4.266241e+01 5.095414e+01 1.668576e+01 7.667068e+00 3.559472e+01 2.170453e+01
<GCONST> 9.518405e+01
<STATE> 5
<MEAN> 20
 -6.463118e+00 -1.510344e+00 -1.118805e+01 -9.276975e+00 -8.362143e+00 -1.095119e+01 -1.361936e+01 -1.471996e+01 -3.635168e+00 -1.122585e+01 -7.995090e+00 -1.439359e+01 9.417898e-01 -1.047758e+01 -3.830322e+00 -1.125070e+01 5.397599e+00 -8.927089e+00 -1.055763e+00 -8.284376e+00
<VARIANCE> 20
 5.450878e+00 7.701495e-01 5.040224e+01 1.068220e+01 1.438821e+01 5.055819e+00 4.392141e+01 3.307553e+01 7.465530e+00 5.390151e+00 3.171687e+01 5.113704e+01 5.543231e+00 5.223206e+00 2.243487e+01 3.738394e+01 8.871958e+00 5.103621e+00 1.993142e+01 1.700142e+01
<GCONST> 8.687112e+01
<STATE> 6
<MEAN> 20
 -7.914938e+00 -1.881370e+00 -1.535941e+01 -1.161421e+01 -1.079072e+01 -1.319201e+01 -1.928530e+01 -1.800069e+01 -5.609454e+00 -1.360847e+01 -1.271785e+01 -1.747797e+01 -5.879880e-01 -1.278544e+01 -7.935460e+00 -1.329574e+01 4.211212e+00 -1.098672e+01 -4.576259e+00 -1.003153e+01
<VARIANCE> 20
 9.936682e+00 1.439435e+00 8.368943e+01 1.425660e+01 3.123217e+01 6.899071e+00 7.837637e+01 4.312157e+01 1.814420e+01 8.389805e+00 5.754573e+01 7.429046e+01 1.365617e+01 9.863438e+00 4.913279e+01 5.787350e+01 2.060291e+01 1.126748e+01 4.368474e+01 3.161514e+01
<GCONST> 9.892046e+01
<STATE> 7
<MEAN> 20
 -7.297222e+00 -2.039663e+00 -1.083237e+01 -1.106804e+01 -8.763943e+00 -1.292662e+01 -1.595902e+01 -1.895377e+01 -3.439076e+00 -1.325815e+01 -8.984460e+00 -1.965516e+01 1.626716e+00 -1.228455e+01 -4.297196e+00 -1.572158e+01 6.458330e+00 -1.029009e+01 -2.305359e+00 -1.038346e+01
<VARIANCE> 20
 3.784732e+00 6.621528e-01 4.060315e+01 6.863434e+00 1.111060e+01 2.709013e+00 3.300169e+01 3.259999e+01 6.699636e+00 3.008770e+00 2.440401e+01 5.907511e+01 5.538529e+00 2.966105e+00 2.164513e+01 4.851991e+01 7.902947e+00 2.998064e+00 1.794406e+01 1.472128e+01
<GCONST> 8.246631e+01
<TRANSP> 8
 0.000000e+00 1.000000e+00 0.000000e+00 0.000000e+00 0.000000e+00 0.000000e+00 0.000000e+00 0.000000e+00
 0.000000e+00 3.151326e-01 6.848674e-01 0.000000e+00 0.000000e+00 0.000000e+00 0.000000e+00 0.000000e+00
 0.000000e+00 0.000000e+00 0.000000e+00 1.000000e+00 0.000000e+00 0.000000e+00 0.000000e+00 0.000000e+00
 0.000000e+00 0.000000e+00 0.000000e+00 0.000000e+00 1.000000e+00 0.000000e+00 0.000000e+00 0.000000e+00
 0.000000e+00 0.000000e+00 0.000000e+00 0.000000e+00 5.587940e-01 4.412060e-01 0.000000e+00 0.000000e+00
 0.000000e+00 0.000000e+00 0.000000e+00 0.000000e+00 0.000000e+00 4.027211e-01 5.972789e-01 0.000000e+00
 0.000000e+00 0.000000e+00 0.000000e+00 0.000000e+00 0.000000e+00 0.000000e+00 7.109941e-01 2.890059e-01
 0.000000e+00 0.000000e+00 0.000000e+00 0.000000e+00 0.000000e+00 0.000000e+00 0.000000e+00 0.000000e+00
<ENDHMM>
