~o
<STREAMINFO> 1 20
<VECSIZE> 20<NULLD><USER><DIAGC>
~h "x"
<BEGINHMM>
<NUMSTATES> 8
<STATE> 2
<MEAN> 20
 -7.392423e+00 -1.894639e+00 -1.084803e+01 -9.832559e+00 -8.497793e+00 -1.174375e+01 -1.268311e+01 -1.253727e+01 -4.018925e+00 -1.178572e+01 -8.832326e+00 -1.051124e+01 3.561450e-01 -1.117579e+01 -4.942371e+00 -9.444980e+00 4.984526e+00 -9.983490e+00 -1.009505e+00 -1.024568e+01
<VARIANCE> 20
 3.188816e+00 6.683094e-01 3.144018e+01 6.547330e+00 8.598167e+00 3.599203e+00 1.885772e+01 1.329851e+01 5.755700e+00 3.493829e+00 1.523983e+01 1.651172e+01 3.987865e+00 3.366328e+00 1.168703e+01 1.579246e+01 4.694769e+00 3.520616e+00 1.301719e+01 1.986079e+01
<GCONST> 7.650253e+01
<STATE> 3
<MEAN> 20
 -7.610219e+00 -2.217416e+00 -1.286956e+01 -1.034465e+01 -6.908023e+00 -1.308753e+01 -1.321006e+01 -1.537242e+01 -2.163846e+00 -1.286905e+01 -9.767867e+00 -1.002391e+01 1.807252e+00 -1.167317e+01 -5.811736e+00 -8.534588e+00 5.428399e+00 -9.800729e+00 -2.321722e+00 -8.326806e+00
<VARIANCE> 20
 7.742893e+00 1.181550e+00 4.999191e+01 1.180185e+01 2.835291e+01 5.287958e+00 4.521678e+01 2.084168e+01 1.955191e+01 5.215250e+00 3.412008e+01 2.651124e+01 1.291807e+01 5.492521e+00 2.286871e+01 2.554049e+01 1.290954e+01 6.381925e+00 2.740055e+01 2.609717e+01
<GCONST> 9.025783e+01
<STATE> 4
<MEAN> 20
 -8.961846e+00 -2.694912e+00 -1.728532e+01 -1.235480e+01 -8.341013e+00 -1.457990e+01 -1.677873e+01 -1.712801e+01 -3.449935e+00 -1.437598e+01 -1.248530e+01 -1.080961e+01 5.594848e-01 -1.308479e+01 -8.042361e+00 -8.764119e+00 4.073434e+00 -1.105502e+01 -4.547334e+00 -8.326894e+00
<VARIANCE> 20
 7.452638e+00 2.134239e+00 4.711939e+01 1.208972e+01 2.477895e+01 6.838942e+00 3.530773e+01 2.314579e+01 1.374829e+01 6.871970e+00 2.681443e+01 1.886967e+01 6.437063e+00 7.574932e+00 2.283527e+01 1.744583e+01 1.142440e+01 8.916816e+00 3.713646e+01 2.029440e+01
<GCONST> 8.960562e+01
<STATE> 5
<MEAN> 20
 -8.374122e+00 -2.091204e+00 -1.660154e+01 -1.062154e+01 -9.677948e+00 -1.350902e+01 -1.731218e+01 -1.637949e+01 -4.719275e+00 -1.366219e+01 -1.263462e+01 -1.360422e+01 -2.148864e-01 -1.269132e+01 -7.677524e+00 -1.135130e+01 4.077863e+00 -1.092987e+01 -2.633624e+00 -1.115474e+01
<VARIANCE> 20
 7.977890e+00 1.984264e+00 7.489297e+01 9.737856e+00 3.461664e+01 5.528697e+00 6.642931e+01 2.602928e+01 2.117835e+01 6.366098e+00 4.585028e+01 6.268242e+01 1.125988e+01 7.899536e+00 2.808712e+01 6.590754e+01 1.108119e+01 9.915128e+00 3.568181e+01 6.605529e+01
<GCONST> 9.616469e+01
<STATE> 6
<MEAN> 20
 -6.642639e+00 -2.393821e+00 -1.200023e+01 -1.007880e+01 -6.183973e+00 -1.287765e+01 -1.254667e+01 -1.504766e+01 -2.462091e+00 -1.251009e+01 -9.387980e+00 -9.580264e+00 5.801319e-01 -1.115322e+01 -5.877416e+00 -7.648981e+00 3.253188e+00 -9.177996e+00 -3.268203e+00 -7.280558e+00
<VARIANCE> 20
 2.721698e+01 1.853940e+00 1.542347e+02 1.278668e+01 5.268659e+01 7.131097e+00 1.571422e+02 2.518693e+01 2.460458e+01 7.985544e+00 1.166544e+02 3.547755e+01 1.229164e+01 9.680464e+00 6.449918e+01 3.166947e+01 1.798620e+01 1.234629e+01 4.803778e+01 3.740335e+01
<GCONST> 1.013843e+02
<STATE> 7
<MEAN> 20
 -7.719800e+00 -2.287574e+00 -1.742517e+01 -8.828670e+00 -8.251038e+00 -1.264202e+01 -1.745850e+01 -1.465977e+01 -3.751642e+00 -1.218597e+01 -1.381219e+01 -7.951619e+00 -1.387742e-01 -1.057815e+01 -8.966034e+00 -6.166712e+00 2.823700e+00 -8.346753e+00 -5.818326e+00 -6.239693e+00
<VARIANCE> 20
 6.936130e+00 1.927134e+00 6.927932e+01 1.484291e+01 2.589236e+01 5.187130e+00 6.447572e+01 2.259946e+01 1.735879e+01 5.475344e+00 5.620614e+01 3.762308e+01 1.241615e+01 8.127148e+00 3.367753e+01 2.555658e+01 1.719712e+01 1.248884e+01 4.356999e+01 3.686169e+01
<GCONST> 9.480437e+01
<TRANSP> 8
 0.000000e+00 1.000000e+00 0.000000e+00 0.000000e+00 0.000000e+00 0.000000e+00 0.000000e+00 0.000000e+00
 0.000000e+00 7.412140e-01 2.587859e-01 0.000000e+00 0.000000e+00 0.000000e+00 0.000000e+00 0.000000e+00
 0.000000e+00 0.000000e+00 1.734694e-01 8.265306e-01 0.000000e+00 0.000000e+00 0.000000e+00 0.000000e+00
 0.000000e+00 0.000000e+00 0.000000e+00 4.968944e-01 5.031056e-01 0.000000e+00 0.000000e+00 0.000000e+00
 0.000000e+00 0.000000e+00 0.000000e+00 0.000000e+00 2.636364e-01 7.363636e-01 0.000000e+00 0.000000e+00
 0.000000e+00 0.000000e+00 0.000000e+00 0.000000e+00 0.000000e+00 7.954545e-02 9.204546e-01 0.000000e+00
 0.000000e+00 0.000000e+00 0.000000e+00 0.000000e+00 0.000000e+00 0.000000e+00 3.816794e-01 6.183206e-01
 0.000000e+00 0.000000e+00 0.000000e+00 0.000000e+00 0.000000e+00 0.000000e+00 0.000000e+00 0.000000e+00
<ENDHMM>
