~o
<STREAMINFO> 1 20
<VECSIZE> 20<NULLD><USER><DIAGC>
~h "y"
<BEGINHMM>
<NUMSTATES> 8
<STATE> 2
<MEAN> 20
 -7.589722e+00 -2.283984e+00 -1.798094e+01 -1.132613e+01 -9.404403e+00 -1.248886e+01 -1.671419e+01 -1.470628e+01 -4.827138e+00 -1.244705e+01 -1.325618e+01 -1.253726e+01 -3.766947e-01 -1.143989e+01 -7.958224e+00 -9.083716e+00 3.912609e+00 -9.702237e+00 -2.363401e+00 -1.020081e+01
<VARIANCE> 20
 9.842741e+00 2.130923e+00 8.750599e+01 2.165200e+01 2.959684e+01 1.009256e+01 8.538995e+01 5.684500e+01 2.282057e+01 1.198919e+01 9.480803e+01 7.699139e+01 2.578679e+01 1.426987e+01 5.940959e+01 4.487924e+01 4.202331e+01 1.627149e+01 9.837201e+01 5.935156e+01
<GCONST> 1.050382e+02
<STATE> 3
<MEAN> 20
 -6.239432e+00 -2.032776e+00 -1.335078e+01 -1.105501e+01 -6.735486e+00 -1.209118e+01 -1.069921e+01 -1.338013e+01 -2.518604e+00 -1.222630e+01 -7.472186e+00 -1.120239e+01 1.575278e+00 -1.144223e+01 -3.900894e+00 -8.534390e+00 5.547611e+00 -9.935246e+00 1.361774e+00 -1.126255e+01
<VARIANCE> 20
 2.563829e+01 1.444457e+00 1.974874e+02 1.696238e+01 5.543424e+01 8.418472e+00 1.129988e+02 4.752861e+01 2.503598e+01 9.260804e+00 7.801502e+01 5.939515e+01 1.615589e+01 1.007781e+01 3.767245e+01 3.048562e+01 3.016193e+01 1.082326e+01 6.862346e+01 5.869345e+01
<GCONST> 1.033356e+02
<STATE> 4
<MEAN> 20
 -6.927441e+00 -1.722299e+00 -1.404855e+01 -9.753965e+00 -7.984700e+00 -1.120977e+01 -1.141098e+01 -1.385859e+01 -3.083646e+00 -1.138709e+01 -7.945083e+00 -1.244203e+01 1.756160e+00 -1.068088e+01 -3.697147e+00 -8.677791e+00 6.513142e+00 -9.261415e+00 2.334466e+00 -1.003231e+01
<VARIANCE> 20
 4.268853e+00 8.900298e-01 6.349026e+01 1.214717e+01 1.243696e+01 6.416337e+00 2.873240e+01 4.433894e+01 7.932732e+00 6.689257e+00 2.332088e+01 6.246440e+01 6.942089e+00 6.231781e+00 1.486667e+01 2.477524e+01 9.735527e+00 5.560706e+00 3.760452e+01 3.457813e+01
<GCONST> 8.836330e+01
<STATE> 5
<MEAN> 20
 -7.496980e+00 -2.032586e+00 -1.695968e+01 -1.138949e+01 -8.366741e+00 -1.230962e+01 -1.268379e+01 -1.359072e+01 -3.297671e+00 -1.245693e+01 -8.894762e+00 -1.160538e+01 1.697550e+00 -1.169293e+01 -4.654889e+00 -8.843533e+00 6.581788e+00 -1.019907e+01 2.372722e+00 -1.222971e+01
<VARIANCE> 20
 8.740959e+00 1.247645e+00 9.760698e+01 1.560438e+01 2.499413e+01 7.055134e+00 5.163156e+01 4.640659e+01 1.526902e+01 7.290361e+00 3.955523e+01 5.783424e+01 1.280563e+01 7.373390e+00 2.462058e+01 2.769520e+01 1.848959e+01 7.567512e+00 6.082523e+01 5.328479e+01
<GCONST> 9.597426e+01
<STATE> 6
<MEAN> 20
 -8.483083e+00 -2.096605e+00 -2.061733e+01 -1.209680e+01 -1.053778e+01 -1.323814e+01 -1.580006e+01 -1.330353e+01 -5.125288e+00 -1.349723e+01 -1.126601e+01 -1.115786e+01 2.858442e-01 -1.277489e+01 -6.618234e+00 -8.952111e+00 5.576842e+00 -1.127219e+01 1.167274e+00 -1.367750e+01
<VARIANCE> 20
 9.154831e+00 1.260388e+00 9.731477e+01 1.794804e+01 2.748937e+01 8.997365e+00 5.813380e+01 4.740958e+01 1.841260e+01 9.841770e+00 4.655264e+01 5.377733e+01 1.680357e+01 1.022731e+01 3.351594e+01 2.727886e+01 2.332684e+01 1.065178e+01 8.297502e+01 7.138170e+01
<GCONST> 9.929280e+01
<STATE> 7
<MEAN> 20
 -7.936797e+00 -2.379818e+00 -1.888625e+01 -1.286862e+01 -7.653441e+00 -1.267374e+01 -1.164906e+01 -1.138293e+01 -2.142226e+00 -1.263480e+01 -7.447741e+00 -8.862646e+00 3.222631e+00 -1.183844e+01 -3.392122e+00 -8.058187e+00 8.449349e+00 -1.039457e+01 5.488673e+00 -1.449183e+01
<VARIANCE> 20
 3.642825e+00 7.379819e-01 5.639405e+01 9.792979e+00 1.190226e+01 3.361506e+00 2.402264e+01 3.086274e+01 9.115158e+00 3.421135e+00 1.995459e+01 2.313860e+01 8.869128e+00 3.402960e+00 1.322569e+01 1.384840e+01 1.120849e+01 3.656661e+00 4.567979e+01 4.306884e+01
<GCONST> 8.384826e+01
<TRANSP> 8
 0.000000e+00 1.000000e+00 0.000000e+00 0.000000e+00 0.000000e+00 0.000000e+00 0.000000e+00 0.000000e+00
 0.000000e+00 3.043478e-01 6.956522e-01 0.000000e+00 0.000000e+00 0.000000e+00 0.000000e+00 0.000000e+00
 0.000000e+00 0.000000e+00 9.792284e-02 9.020771e-01 0.000000e+00 0.000000e+00 0.000000e+00 0.000000e+00
 0.000000e+00 0.000000e+00 0.000000e+00 5.981494e-01 4.018506e-01 0.000000e+00 0.000000e+00 0.000000e+00
 0.000000e+00 0.000000e+00 0.000000e+00 0.000000e+00 0.000000e+00 1.000000e+00 0.000000e+00 0.000000e+00
 0.000000e+00 0.000000e+00 0.000000e+00 0.000000e+00 0.000000e+00 3.926074e-01 6.073926e-01 0.000000e+00
 0.000000e+00 0.000000e+00 0.000000e+00 0.000000e+00 0.000000e+00 0.000000e+00 6.783069e-01 3.216931e-01
 0.000000e+00 0.000000e+00 0.000000e+00 0.000000e+00 0.000000e+00 0.000000e+00 0.000000e+00 0.000000e+00
<ENDHMM>
