~o
<STREAMINFO> 1 20
<VECSIZE> 20<NULLD><USER><DIAGC>
~h "a"
<BEGINHMM>
<NUMSTATES> 8
<STATE> 2
<MEAN> 20
 -6.159967e+00 -2.234864e+00 -1.506351e+01 -1.070851e+01 -8.031673e+00 -1.213164e+01 -1.534090e+01 -1.373695e+01 -4.433061e+00 -1.201051e+01 -1.209410e+01 -1.137370e+01 -9.638835e-01 -1.091926e+01 -7.102210e+00 -8.265874e+00 2.388471e+00 -9.137223e+00 -3.559305e+00 -7.766196e+00
<VARIANCE> 20
 2.804777e+01 2.288842e+00 1.930862e+02 2.308990e+01 6.504069e+01 9.213372e+00 1.876962e+02 4.970750e+01 3.518165e+01 1.097102e+01 1.489880e+02 6.529179e+01 2.822749e+01 1.386349e+01 6.896284e+01 4.447868e+01 4.812203e+01 1.696832e+01 6.542606e+01 4.256447e+01
<GCONST> 1.086324e+02
<STATE> 3
<MEAN> 20
 -7.388417e+00 -2.049611e+00 -1.549309e+01 -1.141399e+01 -8.788908e+00 -1.232079e+01 -1.417510e+01 -1.370292e+01 -3.963144e+00 -1.245129e+01 -1.000716e+01 -1.165791e+01 8.027996e-01 -1.164229e+01 -5.296637e+00 -8.849399e+00 5.555552e+00 -1.009663e+01 -8.251511e-01 -8.649060e+00
<VARIANCE> 20
 1.020448e+01 1.274418e+00 9.198579e+01 1.608516e+01 2.630638e+01 6.360966e+00 6.503130e+01 3.826626e+01 1.496871e+01 6.749053e+00 5.200046e+01 4.868401e+01 1.200017e+01 6.993643e+00 2.877244e+01 3.231356e+01 1.888432e+01 7.363623e+00 2.986649e+01 2.801904e+01
<GCONST> 9.494313e+01
<STATE> 4
<MEAN> 20
 -7.405068e+00 -2.039099e+00 -1.552789e+01 -1.152698e+01 -8.752055e+00 -1.233269e+01 -1.401045e+01 -1.363634e+01 -3.883396e+00 -1.248195e+01 -9.826004e+00 -1.156914e+01 9.322585e-01 -1.169665e+01 -5.120425e+00 -8.747223e+00 5.743606e+00 -1.017331e+01 -6.580234e-01 -8.581174e+00
<VARIANCE> 20
 9.898690e+00 1.298669e+00 8.964494e+01 1.608027e+01 2.589003e+01 6.347814e+00 6.265063e+01 3.784547e+01 1.487284e+01 6.654296e+00 4.969209e+01 4.659101e+01 1.166770e+01 6.741328e+00 2.687745e+01 3.044528e+01 1.755606e+01 6.939228e+00 2.711515e+01 2.635704e+01
<GCONST> 9.424656e+01
<STATE> 5
<MEAN> 20
 -7.831142e+00 -2.061578e+00 -1.572589e+01 -1.167926e+01 -9.323689e+00 -1.281288e+01 -1.514480e+01 -1.611908e+01 -4.176671e+00 -1.307942e+01 -1.060624e+01 -1.483855e+01 9.726738e-01 -1.231436e+01 -5.754756e+00 -1.093296e+01 6.140182e+00 -1.071923e+01 -8.941855e-01 -1.032610e+01
<VARIANCE> 20
 5.437905e+00 1.000027e+00 7.050807e+01 1.194589e+01 1.633275e+01 4.256505e+00 4.014785e+01 4.155191e+01 1.003845e+01 4.396844e+00 3.288991e+01 6.164978e+01 7.883150e+00 4.311653e+00 2.132434e+01 4.144980e+01 1.057483e+01 4.404692e+00 2.406325e+01 3.155136e+01
<GCONST> 8.903398e+01
<STATE> 6
<MEAN> 20
 -8.263605e+00 -2.197910e+00 -1.864287e+01 -1.236920e+01 -1.027319e+01 -1.308203e+01 -1.681812e+01 -1.407538e+01 -5.139612e+00 -1.325865e+01 -1.238484e+01 -1.145281e+01 -6.052831e-02 -1.242287e+01 -6.962647e+00 -8.248476e+00 4.946867e+00 -1.081527e+01 -2.294364e+00 -8.432620e+00
<VARIANCE> 20
 9.894978e+00 1.667685e+00 9.051340e+01 2.375849e+01 3.005812e+01 1.011825e+01 7.240113e+01 4.449842e+01 1.922523e+01 1.112312e+01 6.538731e+01 5.210212e+01 1.606226e+01 1.203812e+01 3.811647e+01 2.924616e+01 2.348422e+01 1.292087e+01 4.082276e+01 3.223784e+01
<GCONST> 9.970687e+01
<STATE> 7
<MEAN> 20
 -7.437738e+00 -2.052763e+00 -1.513836e+01 -1.179983e+01 -8.280058e+00 -1.168992e+01 -1.209747e+01 -1.167751e+01 -3.252100e+00 -1.177417e+01 -7.728000e+00 -9.595103e+00 1.763131e+00 -1.107186e+01 -3.409077e+00 -7.291853e+00 6.848249e+00 -9.711025e+00 8.905019e-01 -7.388017e+00
<VARIANCE> 20
 4.018480e+00 1.003322e+00 4.977762e+01 1.299067e+01 1.172953e+01 5.118979e+00 2.484965e+01 2.418958e+01 8.087493e+00 4.906718e+00 1.928360e+01 2.434385e+01 7.220155e+00 4.391447e+00 1.095792e+01 1.215085e+01 9.420042e+00 3.933867e+00 1.184627e+01 1.206691e+01
<GCONST> 8.187278e+01
<TRANSP> 8
 0.000000e+00 1.000000e+00 0.000000e+00 0.000000e+00 0.000000e+00 0.000000e+00 0.000000e+00 0.000000e+00
 0.000000e+00 3.266117e-01 6.733882e-01 0.000000e+00 0.000000e+00 0.000000e+00 0.000000e+00 0.000000e+00
 0.000000e+00 0.000000e+00 0.000000e+00 1.000000e+00 0.000000e+00 0.000000e+00 0.000000e+00 0.000000e+00
 0.000000e+00 0.000000e+00 0.000000e+00 0.000000e+00 1.000000e+00 0.000000e+00 0.000000e+00 0.000000e+00
 0.000000e+00 0.000000e+00 0.000000e+00 0.000000e+00 5.395520e-01 4.604480e-01 0.000000e+00 0.000000e+00
 0.000000e+00 0.000000e+00 0.000000e+00 0.000000e+00 0.000000e+00 3.227939e-01 6.772061e-01 0.000000e+00
 0.000000e+00 0.000000e+00 0.000000e+00 0.000000e+00 0.000000e+00 0.000000e+00 7.314130e-01 2.685870e-01
 0.000000e+00 0.000000e+00 0.000000e+00 0.000000e+00 0.000000e+00 0.000000e+00 0.000000e+00 0.000000e+00
<ENDHMM>
