~o
<STREAMINFO> 1 20
<VECSIZE> 20<NULLD><USER><DIAGC>
~h "b"
<BEGINHMM>
<NUMSTATES> 8
<STATE> 2
<MEAN> 20
 -6.627512e+00 -1.770807e+00 -1.332284e+01 -1.078529e+01 -8.596854e+00 -1.267138e+01 -1.444195e+01 -1.718617e+01 -4.684157e+00 -1.295747e+01 -1.113475e+01 -1.585595e+01 -7.911403e-01 -1.219569e+01 -7.205771e+00 -1.334475e+01 3.191915e+00 -1.061334e+01 -2.607163e+00 -1.237448e+01
<VARIANCE> 20
 2.763854e+01 1.624187e+00 1.628638e+02 1.655987e+01 7.013296e+01 5.973179e+00 1.595802e+02 5.324551e+01 3.060162e+01 6.694645e+00 1.112946e+02 7.975063e+01 1.348562e+01 7.475136e+00 6.434180e+01 7.468929e+01 2.293805e+01 8.181223e+00 4.998796e+01 5.487280e+01
<GCONST> 1.042024e+02
<STATE> 3
<MEAN> 20
 -7.201718e+00 -1.787880e+00 -1.202718e+01 -1.073281e+01 -9.051049e+00 -1.239666e+01 -1.336967e+01 -1.732645e+01 -4.278018e+00 -1.268853e+01 -9.356030e+00 -1.617205e+01 4.695955e-01 -1.201086e+01 -5.022767e+00 -1.395045e+01 5.383900e+00 -1.053099e+01 3.134655e-01 -1.307580e+01
<VARIANCE> 20
 9.824706e+00 9.994156e-01 7.153854e+01 1.121892e+01 2.631655e+01 5.101620e+00 5.480914e+01 4.793874e+01 1.249024e+01 5.493953e+00 3.946690e+01 7.053733e+01 6.869225e+00 5.221459e+00 2.328154e+01 6.509212e+01 1.046429e+01 4.730862e+00 2.241990e+01 4.260146e+01
<GCONST> 9.233064e+01
<STATE> 4
<MEAN> 20
 -6.832749e+00 -1.723169e+00 -1.102918e+01 -9.934806e+00 -8.267350e+00 -1.129543e+01 -1.169674e+01 -1.464567e+01 -3.626209e+00 -1.148742e+01 -7.705682e+00 -1.343651e+01 9.904360e-01 -1.088037e+01 -3.623333e+00 -1.159971e+01 5.779401e+00 -9.597627e+00 1.364269e+00 -1.143473e+01
<VARIANCE> 20
 4.089975e+00 7.205926e-01 4.406800e+01 9.096864e+00 1.057125e+01 4.080101e+00 2.265278e+01 3.504858e+01 5.727662e+00 4.068833e+00 1.619933e+01 4.724684e+01 4.347440e+00 3.550808e+00 1.073135e+01 4.012710e+01 6.460529e+00 3.026145e+00 1.382312e+01 2.857519e+01
<GCONST> 8.181623e+01
<STATE> 5
<MEAN> 20
 -7.240995e+00 -1.752254e+00 -1.187631e+01 -1.069973e+01 -9.164749e+00 -1.249564e+01 -1.315315e+01 -1.817944e+01 -4.396712e+00 -1.279073e+01 -9.274497e+00 -1.722709e+01 3.550976e-01 -1.208951e+01 -4.981273e+00 -1.491353e+01 5.287060e+00 -1.057295e+01 4.780690e-01 -1.367924e+01
<VARIANCE> 20
 1.005446e+01 8.495085e-01 7.619890e+01 1.099307e+01 2.488122e+01 5.183614e+00 5.128323e+01 4.710590e+01 1.151100e+01 5.709217e+00 3.808858e+01 7.024677e+01 6.371819e+00 5.426060e+00 2.242336e+01 6.762203e+01 1.026509e+01 4.848819e+00 2.275670e+01 4.334303e+01
<GCONST> 9.202840e+01
<STATE> 6
<MEAN> 20
 -8.167635e+00 -1.926708e+00 -1.536623e+01 -1.201945e+01 -1.024381e+01 -1.336065e+01 -1.466694e+01 -1.807044e+01 -5.020535e+00 -1.369021e+01 -1.049380e+01 -1.612280e+01 1.473299e-01 -1.297295e+01 -5.792253e+00 -1.417750e+01 5.414482e+00 -1.141347e+01 -3.499086e-05 -1.338834e+01
<VARIANCE> 20
 9.234875e+00 1.352499e+00 8.964413e+01 1.744369e+01 2.431541e+01 7.752385e+00 4.906338e+01 5.594144e+01 1.241609e+01 8.193692e+00 3.566008e+01 8.033867e+01 7.896199e+00 7.674067e+00 2.772259e+01 7.541822e+01 1.188764e+01 6.820112e+00 3.407645e+01 4.930275e+01
<GCONST> 9.594797e+01
<STATE> 7
<MEAN> 20
 -7.859426e+00 -1.883737e+00 -9.942491e+00 -1.074199e+01 -1.031947e+01 -1.328006e+01 -1.386863e+01 -2.178223e+01 -5.210128e+00 -1.368457e+01 -1.002542e+01 -2.251981e+01 -1.334209e-01 -1.293901e+01 -5.317580e+00 -1.996325e+01 5.244524e+00 -1.127566e+01 7.437644e-01 -1.735689e+01
<VARIANCE> 20
 4.578050e+00 7.731012e-01 5.241431e+01 7.014946e+00 1.376697e+01 3.187129e+00 2.776311e+01 3.505652e+01 7.680706e+00 3.492961e+00 2.136650e+01 5.572749e+01 5.066642e+00 3.325853e+00 1.593674e+01 5.924904e+01 6.327407e+00 3.011144e+00 1.590246e+01 3.556102e+01
<GCONST> 8.392222e+01
<TRANSP> 8
 0.000000e+00 1.000000e+00 0.000000e+00 0.000000e+00 0.000000e+00 0.000000e+00 0.000000e+00 0.000000e+00
 0.000000e+00 3.563427e-01 6.436573e-01 0.000000e+00 0.000000e+00 0.000000e+00 0.000000e+00 0.000000e+00
 0.000000e+00 0.000000e+00 1.072818e-03 9.989272e-01 0.000000e+00 0.000000e+00 0.000000e+00 0.000000e+00
 0.000000e+00 0.000000e+00 0.000000e+00 6.785953e-01 3.214047e-01 0.000000e+00 0.000000e+00 0.000000e+00
 0.000000e+00 0.000000e+00 0.000000e+00 0.000000e+00 0.000000e+00 1.000000e+00 0.000000e+00 0.000000e+00
 0.000000e+00 0.000000e+00 0.000000e+00 0.000000e+00 0.000000e+00 3.368599e-01 6.631401e-01 0.000000e+00
 0.000000e+00 0.000000e+00 0.000000e+00 0.000000e+00 0.000000e+00 0.000000e+00 6.380301e-01 3.619699e-01
 0.000000e+00 0.000000e+00 0.000000e+00 0.000000e+00 0.000000e+00 0.000000e+00 0.000000e+00 0.000000e+00
<ENDHMM>
