~o
<STREAMINFO> 1 20
<VECSIZE> 20<NULLD><USER><DIAGC>
~h "c"
<BEGINHMM>
<NUMSTATES> 8
<STATE> 2
<MEAN> 20
 -7.179393e+00 -1.724600e+00 -1.502521e+01 -9.937231e+00 -8.582665e+00 -1.143725e+01 -1.315822e+01 -1.321702e+01 -3.886699e+00 -1.160575e+01 -9.321667e+00 -1.156756e+01 8.369253e-01 -1.099459e+01 -5.149732e+00 -9.013140e+00 5.631236e+00 -9.715839e+00 -3.571357e-01 -1.009751e+01
<VARIANCE> 20
 4.605319e+00 9.209805e-01 6.048301e+01 1.300877e+01 1.239835e+01 5.400699e+00 3.347826e+01 2.955845e+01 8.399445e+00 5.398705e+00 3.138461e+01 3.589685e+01 7.413298e+00 4.965332e+00 2.176251e+01 2.297804e+01 9.816021e+00 4.589694e+00 2.128210e+01 3.065576e+01
<GCONST> 8.692207e+01
<STATE> 3
<MEAN> 20
 -8.558071e+00 -1.844226e+00 -2.073819e+01 -1.086153e+01 -1.085399e+01 -1.357911e+01 -1.726121e+01 -1.693429e+01 -5.703281e+00 -1.388694e+01 -1.345915e+01 -1.579898e+01 -4.814877e-01 -1.316615e+01 -8.275052e+00 -1.292057e+01 4.786577e+00 -1.158658e+01 -2.043747e+00 -1.362898e+01
<VARIANCE> 20
 1.028265e+01 1.294116e+00 1.207976e+02 1.678184e+01 2.769586e+01 8.810281e+00 6.177785e+01 5.037189e+01 1.705900e+01 9.651203e+00 5.911535e+01 6.656091e+01 1.320782e+01 9.676732e+00 3.947970e+01 5.719839e+01 1.738626e+01 9.349435e+00 4.402148e+01 5.829932e+01
<GCONST> 9.939590e+01
<STATE> 4
<MEAN> 20
 -5.717808e+00 -1.998048e+00 -1.508481e+01 -9.261877e+00 -7.330928e+00 -1.187348e+01 -1.447655e+01 -1.420122e+01 -4.110929e+00 -1.175553e+01 -1.251355e+01 -1.255133e+01 -1.002481e+00 -1.073567e+01 -7.906826e+00 -9.566679e+00 1.992169e+00 -9.027337e+00 -4.247782e+00 -9.859444e+00
<VARIANCE> 20
 3.094859e+01 2.108287e+00 2.463046e+02 1.777705e+01 7.164144e+01 8.632048e+00 2.143883e+02 4.459426e+01 3.909717e+01 1.074434e+01 2.012906e+02 5.628482e+01 2.925191e+01 1.374678e+01 1.060828e+02 4.968714e+01 4.449107e+01 1.698066e+01 8.972132e+01 5.752940e+01
<GCONST> 1.100315e+02
<STATE> 5
<MEAN> 20
 -7.391145e+00 -1.741416e+00 -1.814193e+01 -9.667658e+00 -9.209614e+00 -1.212755e+01 -1.562520e+01 -1.473681e+01 -4.802486e+00 -1.231004e+01 -1.235219e+01 -1.350841e+01 -3.751338e-01 -1.162333e+01 -8.112840e+00 -1.116247e+01 4.040953e+00 -1.019365e+01 -3.130705e+00 -1.182108e+01
<VARIANCE> 20
 1.093943e+01 1.358228e+00 1.121506e+02 1.567329e+01 2.904271e+01 6.752517e+00 7.157576e+01 3.781276e+01 1.740267e+01 7.261275e+00 7.152666e+01 4.684185e+01 1.351350e+01 7.589405e+00 4.873620e+01 3.884880e+01 1.920981e+01 8.065162e+00 4.971996e+01 4.241032e+01
<GCONST> 9.793933e+01
<STATE> 6
<MEAN> 20
 -7.321825e+00 -1.692032e+00 -1.842386e+01 -9.528814e+00 -9.268307e+00 -1.210720e+01 -1.583099e+01 -1.502298e+01 -4.904276e+00 -1.229058e+01 -1.259334e+01 -1.384990e+01 -5.017632e-01 -1.161422e+01 -8.371092e+00 -1.158641e+01 3.912088e+00 -1.019233e+01 -3.413327e+00 -1.205314e+01
<VARIANCE> 20
 1.141949e+01 1.243877e+00 1.142850e+02 1.401082e+01 3.020998e+01 6.339426e+00 7.496753e+01 3.614783e+01 1.781956e+01 6.963889e+00 7.420383e+01 4.576730e+01 1.351862e+01 7.400137e+00 5.094095e+01 3.938617e+01 1.924933e+01 7.895742e+00 5.054257e+01 4.153612e+01
<GCONST> 9.778349e+01
<STATE> 7
<MEAN> 20
 -8.077679e+00 -1.808520e+00 -2.195670e+01 -9.117457e+00 -1.013392e+01 -1.249606e+01 -1.911184e+01 -1.635872e+01 -5.987324e+00 -1.268493e+01 -1.648940e+01 -1.535822e+01 -1.821172e+00 -1.202620e+01 -1.267098e+01 -1.356697e+01 2.282887e+00 -1.058320e+01 -7.613337e+00 -1.365963e+01
<VARIANCE> 20
 5.645954e+00 1.094351e+00 7.215995e+01 1.165767e+01 1.926848e+01 3.939831e+00 4.565404e+01 2.560135e+01 1.306858e+01 4.194051e+00 5.221628e+01 3.212561e+01 1.012797e+01 4.603578e+00 4.928260e+01 3.257100e+01 1.390687e+01 5.345860e+00 5.273006e+01 3.148348e+01
<GCONST> 9.108223e+01
<TRANSP> 8
 0.000000e+00 1.000000e+00 0.000000e+00 0.000000e+00 0.000000e+00 0.000000e+00 0.000000e+00 0.000000e+00
 0.000000e+00 7.097881e-01 2.902118e-01 0.000000e+00 0.000000e+00 0.000000e+00 0.000000e+00 0.000000e+00
 0.000000e+00 0.000000e+00 4.112135e-01 5.887865e-01 0.000000e+00 0.000000e+00 0.000000e+00 0.000000e+00
 0.000000e+00 0.000000e+00 0.000000e+00 2.482295e-01 7.517705e-01 0.000000e+00 0.000000e+00 0.000000e+00
 0.000000e+00 0.000000e+00 0.000000e+00 0.000000e+00 4.982810e-03 9.950172e-01 0.000000e+00 0.000000e+00
 0.000000e+00 0.000000e+00 0.000000e+00 0.000000e+00 0.000000e+00 0.000000e+00 1.000000e+00 0.000000e+00
 0.000000e+00 0.000000e+00 0.000000e+00 0.000000e+00 0.000000e+00 0.000000e+00 5.964330e-01 4.035671e-01
 0.000000e+00 0.000000e+00 0.000000e+00 0.000000e+00 0.000000e+00 0.000000e+00 0.000000e+00 0.000000e+00
<ENDHMM>
