~o
<STREAMINFO> 1 20
<VECSIZE> 20<NULLD><USER><DIAGC>
~h "e"
<BEGINHMM>
<NUMSTATES> 8
<STATE> 2
<MEAN> 20
 -5.911120e+00 -2.224153e+00 -1.349785e+01 -9.845477e+00 -7.723505e+00 -1.207428e+01 -1.605296e+01 -1.470905e+01 -4.256274e+00 -1.180835e+01 -1.300493e+01 -1.218054e+01 -1.059829e+00 -1.053569e+01 -7.509398e+00 -8.408720e+00 1.989903e+00 -8.576369e+00 -4.085382e+00 -7.530266e+00
<VARIANCE> 20
 2.412130e+01 2.833825e+00 1.491532e+02 2.031578e+01 6.090897e+01 9.334100e+00 1.893067e+02 4.492766e+01 3.405882e+01 1.110015e+01 1.728667e+02 6.315718e+01 2.865103e+01 1.450753e+01 7.555211e+01 4.382705e+01 4.917511e+01 1.829219e+01 7.253397e+01 4.198232e+01
<GCONST> 1.085814e+02
<STATE> 3
<MEAN> 20
 -7.227316e+00 -2.056461e+00 -1.363322e+01 -1.034189e+01 -8.180570e+00 -1.242606e+01 -1.537422e+01 -1.545250e+01 -3.505466e+00 -1.241020e+01 -1.146934e+01 -1.295481e+01 8.993672e-01 -1.137352e+01 -6.364284e+00 -9.179839e+00 5.158573e+00 -9.583974e+00 -1.963026e+00 -8.466118e+00
<VARIANCE> 20
 8.059179e+00 1.779010e+00 6.723225e+01 1.367860e+01 2.728552e+01 6.098350e+00 6.343815e+01 3.426211e+01 1.711840e+01 6.517986e+00 6.174268e+01 4.970453e+01 1.359009e+01 7.452575e+00 3.233440e+01 3.381171e+01 2.044831e+01 8.758329e+00 3.629165e+01 3.030195e+01
<GCONST> 9.559222e+01
<STATE> 4
<MEAN> 20
 -7.239703e+00 -1.891049e+00 -1.303192e+01 -1.015371e+01 -8.749036e+00 -1.236568e+01 -1.501692e+01 -1.553983e+01 -4.075272e+00 -1.245683e+01 -1.103635e+01 -1.373650e+01 4.634303e-01 -1.156344e+01 -6.199759e+00 -1.010946e+01 5.000991e+00 -9.903706e+00 -1.619093e+00 -9.334134e+00
<VARIANCE> 20
 9.604525e+00 1.558357e+00 7.491605e+01 1.267439e+01 2.848353e+01 6.402225e+00 7.017286e+01 3.482085e+01 1.684439e+01 7.147222e+00 6.330344e+01 4.978040e+01 1.324571e+01 8.056198e+00 3.402622e+01 3.417492e+01 2.034809e+01 9.078212e+00 3.522414e+01 3.087337e+01
<GCONST> 9.611204e+01
<STATE> 5
<MEAN> 20
 -7.250469e+00 -1.870582e+00 -1.278605e+01 -1.012269e+01 -8.748492e+00 -1.235269e+01 -1.480475e+01 -1.545018e+01 -4.067827e+00 -1.245773e+01 -1.084716e+01 -1.378605e+01 5.006531e-01 -1.159416e+01 -6.119812e+00 -1.024264e+01 5.094507e+00 -9.963856e+00 -1.489277e+00 -9.484913e+00
<VARIANCE> 20
 9.727569e+00 1.495450e+00 7.387708e+01 1.236884e+01 2.848652e+01 6.428621e+00 6.695399e+01 3.494331e+01 1.694466e+01 7.134868e+00 5.958512e+01 4.791427e+01 1.309389e+01 7.935043e+00 3.342345e+01 3.273006e+01 1.924334e+01 8.821477e+00 3.346297e+01 2.994566e+01
<GCONST> 9.565736e+01
<STATE> 6
<MEAN> 20
 -8.473105e+00 -1.795328e+00 -1.602087e+01 -1.106913e+01 -1.100005e+01 -1.347829e+01 -1.773491e+01 -1.723229e+01 -5.780473e+00 -1.382077e+01 -1.333536e+01 -1.597173e+01 -5.735258e-01 -1.307028e+01 -7.997823e+00 -1.226376e+01 4.723140e+00 -1.143534e+01 -2.457873e+00 -1.154546e+01
<VARIANCE> 20
 7.002261e+00 1.520719e+00 7.381057e+01 1.285409e+01 2.517496e+01 6.564549e+00 5.367156e+01 3.839521e+01 1.620648e+01 7.285542e+00 5.076517e+01 5.556176e+01 1.225929e+01 7.811579e+00 3.436715e+01 4.035062e+01 1.580980e+01 8.352485e+00 3.868584e+01 3.844967e+01
<GCONST> 9.541710e+01
<STATE> 7
<MEAN> 20
 -7.331920e+00 -1.890537e+00 -1.041493e+01 -9.819165e+00 -8.456707e+00 -1.200773e+01 -1.303273e+01 -1.446192e+01 -3.668078e+00 -1.211154e+01 -8.775423e+00 -1.310930e+01 1.065699e+00 -1.139179e+01 -4.495444e+00 -1.032424e+01 5.993115e+00 -9.972968e+00 -1.010739e-03 -9.704331e+00
<VARIANCE> 20
 3.390200e+00 9.249663e-01 3.561919e+01 7.405629e+00 1.018112e+01 4.087965e+00 2.389563e+01 2.246916e+01 7.150806e+00 4.012784e+00 2.078080e+01 2.992356e+01 6.506220e+00 3.774826e+00 1.267156e+01 1.740689e+01 8.445229e+00 3.716129e+00 1.340135e+01 1.555102e+01
<GCONST> 8.066246e+01
<TRANSP> 8
 0.000000e+00 1.000000e+00 0.000000e+00 0.000000e+00 0.000000e+00 0.000000e+00 0.000000e+00 0.000000e+00
 0.000000e+00 3.243412e-01 6.756588e-01 0.000000e+00 0.000000e+00 0.000000e+00 0.000000e+00 0.000000e+00
 0.000000e+00 0.000000e+00 2.114871e-01 7.885130e-01 0.000000e+00 0.000000e+00 0.000000e+00 0.000000e+00
 0.000000e+00 0.000000e+00 0.000000e+00 0.000000e+00 1.000000e+00 0.000000e+00 0.000000e+00 0.000000e+00
 0.000000e+00 0.000000e+00 0.000000e+00 0.000000e+00 0.000000e+00 1.000000e+00 0.000000e+00 0.000000e+00
 0.000000e+00 0.000000e+00 0.000000e+00 0.000000e+00 0.000000e+00 5.210273e-01 4.789727e-01 0.000000e+00
 0.000000e+00 0.000000e+00 0.000000e+00 0.000000e+00 0.000000e+00 0.000000e+00 7.537726e-01 2.462274e-01
 0.000000e+00 0.000000e+00 0.000000e+00 0.000000e+00 0.000000e+00 0.000000e+00 0.000000e+00 0.000000e+00
<ENDHMM>
