~o
<STREAMINFO> 1 20
<VECSIZE> 20<NULLD><USER><DIAGC>
~h "h"
<BEGINHMM>
<NUMSTATES> 8
<STATE> 2
<MEAN> 20
 -6.838351e+00 -2.265818e+00 -1.469577e+01 -1.074146e+01 -7.348880e+00 -1.179599e+01 -1.546594e+01 -1.350940e+01 -2.823008e+00 -1.165621e+01 -1.116151e+01 -9.009171e+00 1.434819e+00 -1.063370e+01 -6.084941e+00 -6.212594e+00 5.495049e+00 -8.973822e+00 -1.904212e+00 -6.834569e+00
<VARIANCE> 20
 4.002080e+00 1.540725e+00 4.402869e+01 1.010158e+01 1.581928e+01 5.058102e+00 5.199841e+01 2.272696e+01 1.434069e+01 5.586140e+00 6.661139e+01 2.406528e+01 1.736407e+01 6.637493e+00 2.899459e+01 1.326702e+01 2.720903e+01 8.164313e+00 3.772325e+01 2.019987e+01
<GCONST> 9.063297e+01
<STATE> 3
<MEAN> 20
 -7.555717e+00 -2.460837e+00 -1.822060e+01 -1.092965e+01 -9.367745e+00 -1.300322e+01 -1.968682e+01 -1.546440e+01 -5.084785e+00 -1.283081e+01 -1.594938e+01 -1.314960e+01 -9.987799e-01 -1.162988e+01 -9.536976e+00 -9.387111e+00 2.900976e+00 -9.700528e+00 -4.943912e+00 -9.323705e+00
<VARIANCE> 20
 8.900978e+00 2.483454e+00 7.621278e+01 1.604539e+01 2.974021e+01 6.539828e+00 8.605929e+01 3.404225e+01 2.425464e+01 9.078236e+00 1.086331e+02 6.028672e+01 2.696701e+01 1.299651e+01 5.068550e+01 4.753093e+01 4.221283e+01 1.701682e+01 6.699712e+01 4.990254e+01
<GCONST> 1.027349e+02
<STATE> 4
<MEAN> 20
 -5.388877e+00 -2.829001e+00 -1.485037e+01 -9.568066e+00 -6.234792e+00 -1.164084e+01 -1.712180e+01 -1.330278e+01 -3.318799e+00 -1.080512e+01 -1.506972e+01 -9.589890e+00 -8.961394e-01 -9.049930e+00 -8.369442e+00 -5.405972e+00 1.143109e+00 -6.796679e+00 -5.731121e+00 -4.921273e+00
<VARIANCE> 20
 2.211636e+01 2.887233e+00 1.708548e+02 2.056113e+01 6.067754e+01 1.111974e+01 2.371532e+02 3.934930e+01 4.312432e+01 1.427110e+01 2.455471e+02 5.020994e+01 4.233046e+01 1.889182e+01 9.277827e+01 2.772674e+01 6.150042e+01 2.331838e+01 8.936249e+01 3.393548e+01
<GCONST> 1.103981e+02
<STATE> 5
<MEAN> 20
 -6.280391e+00 -3.020562e+00 -1.764321e+01 -1.033547e+01 -7.498195e+00 -1.223736e+01 -2.052594e+01 -1.443658e+01 -4.298604e+00 -1.134892e+01 -1.854554e+01 -1.084905e+01 -1.676817e+00 -9.544248e+00 -1.046942e+01 -6.056077e+00 5.074978e-01 -7.228532e+00 -7.524991e+00 -5.489610e+00
<VARIANCE> 20
 1.142407e+01 2.867000e+00 8.452245e+01 1.250112e+01 3.105310e+01 6.726796e+00 1.251970e+02 2.474826e+01 2.693111e+01 8.783404e+00 1.699205e+02 3.402578e+01 3.500728e+01 1.291034e+01 6.519077e+01 1.892005e+01 6.000623e+01 1.761729e+01 7.573225e+01 2.533702e+01
<GCONST> 1.024723e+02
<STATE> 6
<MEAN> 20
 -4.706181e+00 -3.988023e+00 -2.024477e+01 -1.001650e+01 -8.066919e+00 -1.209344e+01 -2.630480e+01 -1.489074e+01 -6.617015e+00 -1.025461e+01 -2.704468e+01 -1.174304e+01 -5.802598e+00 -7.648576e+00 -1.457175e+01 -5.283027e+00 -5.405974e+00 -4.747623e+00 -1.282186e+01 -3.777292e+00
<VARIANCE> 20
 1.065162e+01 2.944942e+00 7.013755e+01 9.832513e+00 2.890986e+01 5.533813e+00 1.394405e+02 2.109178e+01 3.480405e+01 8.057125e+00 2.079499e+02 2.758559e+01 5.141512e+01 1.287350e+01 6.576344e+01 1.249198e+01 7.990100e+01 1.787835e+01 7.810960e+01 1.704785e+01
<GCONST> 1.017567e+02
<STATE> 7
<MEAN> 20
 -6.795490e+00 -2.838236e+00 -1.706320e+01 -1.058457e+01 -7.468873e+00 -1.258904e+01 -1.925311e+01 -1.454199e+01 -3.848197e+00 -1.191872e+01 -1.704406e+01 -1.172942e+01 -7.074450e-01 -1.032568e+01 -1.010560e+01 -7.521428e+00 2.067559e+00 -8.137504e+00 -6.464970e+00 -6.896810e+00
<VARIANCE> 20
 9.149600e+00 2.847311e+00 7.032308e+01 1.362541e+01 2.966333e+01 6.488361e+00 9.463712e+01 2.542771e+01 2.694979e+01 7.879463e+00 1.299179e+02 3.311436e+01 3.289994e+01 1.119335e+01 5.239924e+01 2.309422e+01 5.241474e+01 1.512399e+01 6.476064e+01 2.724829e+01
<GCONST> 1.008120e+02
<TRANSP> 8
 0.000000e+00 1.000000e+00 0.000000e+00 0.000000e+00 0.000000e+00 0.000000e+00 0.000000e+00 0.000000e+00
 0.000000e+00 7.086992e-01 2.913009e-01 0.000000e+00 0.000000e+00 0.000000e+00 0.000000e+00 0.000000e+00
 0.000000e+00 0.000000e+00 4.139907e-01 5.860093e-01 0.000000e+00 0.000000e+00 0.000000e+00 0.000000e+00
 0.000000e+00 0.000000e+00 0.000000e+00 1.489163e-01 8.510837e-01 0.000000e+00 0.000000e+00 0.000000e+00
 0.000000e+00 0.000000e+00 0.000000e+00 0.000000e+00 0.000000e+00 1.000000e+00 0.000000e+00 0.000000e+00
 0.000000e+00 0.000000e+00 0.000000e+00 0.000000e+00 0.000000e+00 4.966227e-01 5.033773e-01 0.000000e+00
 0.000000e+00 0.000000e+00 0.000000e+00 0.000000e+00 0.000000e+00 0.000000e+00 3.517640e-01 6.482360e-01
 0.000000e+00 0.000000e+00 0.000000e+00 0.000000e+00 0.000000e+00 0.000000e+00 0.000000e+00 0.000000e+00
<ENDHMM>
