~o
<STREAMINFO> 1 20
<VECSIZE> 20<NULLD><USER><DIAGC>
~h "i"
<BEGINHMM>
<NUMSTATES> 8
<STATE> 2
<MEAN> 20
 -6.303174e+00 -2.344656e+00 -1.615871e+01 -1.030928e+01 -8.430784e+00 -1.174061e+01 -1.688342e+01 -1.373928e+01 -4.838558e+00 -1.145637e+01 -1.366196e+01 -1.066680e+01 -1.407257e+00 -1.028629e+01 -8.242631e+00 -7.223727e+00 1.875676e+00 -8.504945e+00 -4.218678e+00 -8.650700e+00
<VARIANCE> 20
 1.966718e+01 2.691900e+00 1.500775e+02 2.067608e+01 5.520414e+01 9.488406e+00 1.741408e+02 4.823313e+01 3.739804e+01 1.216320e+01 1.673918e+02 5.881717e+01 3.634959e+01 1.668160e+01 7.327084e+01 3.740683e+01 5.591471e+01 2.180493e+01 8.331642e+01 6.601138e+01
<GCONST> 1.094206e+02
<STATE> 3
<MEAN> 20
 -7.745158e+00 -2.052686e+00 -1.574000e+01 -1.127595e+01 -9.330388e+00 -1.268829e+01 -1.567936e+01 -1.706118e+01 -4.269743e+00 -1.295175e+01 -1.152881e+01 -1.515765e+01 7.669945e-01 -1.217262e+01 -6.784891e+00 -1.088031e+01 5.726555e+00 -1.056987e+01 -1.283980e+00 -1.158684e+01
<VARIANCE> 20
 4.513437e+00 1.236448e+00 6.308563e+01 1.151552e+01 1.774245e+01 5.228680e+00 4.413623e+01 4.821082e+01 1.269331e+01 5.533942e+00 4.056700e+01 7.319283e+01 1.098427e+01 5.743989e+00 2.606115e+01 4.817756e+01 1.410280e+01 6.287969e+00 3.703839e+01 4.766580e+01
<GCONST> 9.274717e+01
<STATE> 4
<MEAN> 20
 -7.490465e+00 -2.001990e+00 -1.638280e+01 -1.099913e+01 -9.206439e+00 -1.210093e+01 -1.553237e+01 -1.413091e+01 -4.477093e+00 -1.229302e+01 -1.138780e+01 -1.143554e+01 2.499715e-01 -1.159916e+01 -6.828655e+00 -8.642964e+00 4.936999e+00 -1.020209e+01 -1.334221e+00 -1.139914e+01
<VARIANCE> 20
 7.688146e+00 1.423138e+00 8.040991e+01 1.412752e+01 2.593766e+01 6.474459e+00 6.414708e+01 4.146373e+01 1.765160e+01 7.064712e+00 5.598721e+01 4.936443e+01 1.490715e+01 7.832198e+00 3.336554e+01 3.067837e+01 1.980758e+01 9.110724e+00 4.129559e+01 5.514721e+01
<GCONST> 9.656264e+01
<STATE> 5
<MEAN> 20
 -7.525128e+00 -1.996384e+00 -1.638583e+01 -1.111593e+01 -9.247608e+00 -1.207012e+01 -1.542587e+01 -1.378239e+01 -4.501684e+00 -1.226850e+01 -1.128908e+01 -1.115969e+01 2.590765e-01 -1.160807e+01 -6.746277e+00 -8.579143e+00 4.995795e+00 -1.025917e+01 -1.121751e+00 -1.171590e+01
<VARIANCE> 20
 7.379843e+00 1.391356e+00 7.812721e+01 1.314768e+01 2.542277e+01 6.295870e+00 6.242598e+01 3.978141e+01 1.738191e+01 6.827219e+00 5.537246e+01 4.590248e+01 1.435036e+01 7.596083e+00 3.265794e+01 2.885030e+01 1.852526e+01 8.923769e+00 4.194924e+01 5.626808e+01
<GCONST> 9.594509e+01
<STATE> 6
<MEAN> 20
 -8.349412e+00 -2.038494e+00 -1.973592e+01 -1.205574e+01 -1.134787e+01 -1.288876e+01 -1.890592e+01 -1.389909e+01 -6.449040e+00 -1.317385e+01 -1.421647e+01 -1.119707e+01 -1.472903e+00 -1.256670e+01 -8.922693e+00 -8.619724e+00 3.484851e+00 -1.124316e+01 -3.182498e+00 -1.297714e+01
<VARIANCE> 20
 7.753779e+00 1.924330e+00 7.683543e+01 1.736129e+01 2.847099e+01 7.871658e+00 6.977788e+01 3.980183e+01 2.007462e+01 9.040730e+00 6.416431e+01 4.440575e+01 1.783148e+01 1.111722e+01 3.708031e+01 2.693116e+01 2.574018e+01 1.410485e+01 5.300470e+01 7.525037e+01
<GCONST> 9.953521e+01
<STATE> 7
<MEAN> 20
 -7.212804e+00 -1.935735e+00 -1.475401e+01 -1.098673e+01 -8.454992e+00 -1.139491e+01 -1.349679e+01 -1.234987e+01 -3.699048e+00 -1.155440e+01 -9.182511e+00 -9.561939e+00 1.107555e+00 -1.101813e+01 -5.194943e+00 -7.650116e+00 5.974750e+00 -9.890635e+00 2.496742e-01 -1.181182e+01
<VARIANCE> 20
 3.044251e+00 8.824387e-01 4.292329e+01 9.822164e+00 1.184248e+01 4.203967e+00 2.624562e+01 2.431326e+01 9.351784e+00 4.146958e+00 2.271775e+01 2.281109e+01 8.498059e+00 4.093499e+00 1.528435e+01 1.313608e+01 1.010251e+01 4.442254e+00 2.066034e+01 4.175832e+01
<GCONST> 8.347985e+01
<TRANSP> 8
 0.000000e+00 1.000000e+00 0.000000e+00 0.000000e+00 0.000000e+00 0.000000e+00 0.000000e+00 0.000000e+00
 0.000000e+00 2.947806e-01 7.052194e-01 0.000000e+00 0.000000e+00 0.000000e+00 0.000000e+00 0.000000e+00
 0.000000e+00 0.000000e+00 4.826718e-01 5.173282e-01 0.000000e+00 0.000000e+00 0.000000e+00 0.000000e+00
 0.000000e+00 0.000000e+00 0.000000e+00 0.000000e+00 1.000000e+00 0.000000e+00 0.000000e+00 0.000000e+00
 0.000000e+00 0.000000e+00 0.000000e+00 0.000000e+00 0.000000e+00 1.000000e+00 0.000000e+00 0.000000e+00
 0.000000e+00 0.000000e+00 0.000000e+00 0.000000e+00 0.000000e+00 4.387452e-01 5.612548e-01 0.000000e+00
 0.000000e+00 0.000000e+00 0.000000e+00 0.000000e+00 0.000000e+00 0.000000e+00 7.367423e-01 2.632577e-01
 0.000000e+00 0.000000e+00 0.000000e+00 0.000000e+00 0.000000e+00 0.000000e+00 0.000000e+00 0.000000e+00
<ENDHMM>
