~o
<STREAMINFO> 1 20
<VECSIZE> 20<NULLD><USER><DIAGC>
~h "k"
<BEGINHMM>
<NUMSTATES> 8
<STATE> 2
<MEAN> 20
 -7.480930e+00 -1.797417e+00 -1.677696e+01 -1.069621e+01 -9.799864e+00 -1.224276e+01 -1.555842e+01 -1.630073e+01 -4.929583e+00 -1.249229e+01 -1.319782e+01 -1.383989e+01 -1.172499e-01 -1.172669e+01 -7.365455e+00 -8.086987e+00 4.553599e+00 -1.014991e+01 -2.841651e+00 -7.815262e+00
<VARIANCE> 20
 1.056347e+01 1.421298e+00 7.290749e+01 2.114578e+01 2.773840e+01 9.198350e+00 6.125875e+01 7.792908e+01 1.556125e+01 1.106742e+01 6.664074e+01 7.973696e+01 1.306364e+01 1.252379e+01 3.400916e+01 3.771006e+01 2.323478e+01 1.322070e+01 3.432849e+01 3.482091e+01
<GCONST> 9.961438e+01
<STATE> 3
<MEAN> 20
 -5.898555e+00 -1.997245e+00 -1.256835e+01 -1.191149e+01 -7.274165e+00 -1.274047e+01 -1.175400e+01 -1.762740e+01 -3.467486e+00 -1.295056e+01 -9.931251e+00 -1.457251e+01 2.820711e-01 -1.217642e+01 -5.852182e+00 -8.749669e+00 3.945923e+00 -1.058042e+01 -2.337521e+00 -8.658471e+00
<VARIANCE> 20
 3.207070e+01 1.078749e+00 1.661245e+02 1.485757e+01 5.136251e+01 5.586896e+00 1.424382e+02 4.980318e+01 1.716351e+01 6.077565e+00 1.131932e+02 5.184616e+01 1.031066e+01 6.082782e+00 5.080251e+01 2.915681e+01 3.099373e+01 5.831663e+00 3.732946e+01 2.994574e+01
<GCONST> 9.961915e+01
<STATE> 4
<MEAN> 20
 -8.417651e+00 -2.006634e+00 -1.953415e+01 -1.118971e+01 -1.042247e+01 -1.315979e+01 -1.864957e+01 -1.725926e+01 -5.679499e+00 -1.346542e+01 -1.647667e+01 -1.543069e+01 -9.616753e-01 -1.277156e+01 -1.093657e+01 -1.115085e+01 3.601908e+00 -1.120236e+01 -6.143862e+00 -1.084800e+01
<VARIANCE> 20
 6.761663e+00 9.023063e-01 7.384554e+01 1.353253e+01 1.828074e+01 4.232727e+00 5.364851e+01 3.387245e+01 1.084374e+01 4.593687e+00 6.488499e+01 3.748729e+01 8.533702e+00 4.794469e+00 4.867418e+01 4.074670e+01 1.494510e+01 5.054759e+00 5.090418e+01 3.907393e+01
<GCONST> 9.225584e+01
<STATE> 5
<MEAN> 20
 -6.880951e+00 -1.717261e+00 -1.287359e+01 -1.057206e+01 -8.174114e+00 -1.128831e+01 -1.261382e+01 -1.478274e+01 -3.489259e+00 -1.146849e+01 -9.859126e+00 -1.227790e+01 1.174026e+00 -1.082294e+01 -5.218531e+00 -7.503194e+00 5.785955e+00 -9.480670e+00 -9.243005e-01 -7.614799e+00
<VARIANCE> 20
 4.241918e+00 7.518388e-01 4.433018e+01 9.058263e+00 9.827359e+00 4.765773e+00 3.004749e+01 3.512817e+01 5.783858e+00 4.772260e+00 3.613324e+01 3.288826e+01 5.151444e+00 4.051054e+00 1.862278e+01 1.715504e+01 8.301334e+00 3.258033e+00 1.874445e+01 1.861045e+01
<GCONST> 8.307639e+01
<STATE> 6
<MEAN> 20
 -7.984125e+00 -1.924990e+00 -1.620221e+01 -1.213099e+01 -9.934631e+00 -1.298668e+01 -1.629264e+01 -1.889180e+01 -4.767056e+00 -1.329183e+01 -1.457804e+01 -1.550093e+01 3.363450e-01 -1.246272e+01 -8.251392e+00 -7.551134e+00 5.162038e+00 -1.073230e+01 -3.550155e+00 -7.225755e+00
<VARIANCE> 20
 9.461095e+00 1.276905e+00 6.763095e+01 1.923542e+01 2.240417e+01 7.549541e+00 6.321862e+01 5.809635e+01 1.200015e+01 8.732252e+00 7.462217e+01 7.384622e+01 8.989376e+00 9.117081e+00 3.536984e+01 2.770547e+01 1.529241e+01 8.907862e+00 3.257137e+01 2.794971e+01
<GCONST> 9.604762e+01
<STATE> 7
<MEAN> 20
 -7.971935e+00 -2.516795e+00 -1.484287e+01 -1.334218e+01 -8.178641e+00 -1.357917e+01 -1.424646e+01 -1.994096e+01 -2.960627e+00 -1.366150e+01 -1.475927e+01 -1.503510e+01 1.975114e+00 -1.259937e+01 -7.100408e+00 -7.182644e+00 6.499927e+00 -1.067160e+01 -2.287316e+00 -7.232349e+00
<VARIANCE> 20
 4.751438e+00 1.285175e+00 3.885674e+01 1.113623e+01 1.368172e+01 4.056953e+00 3.604222e+01 4.522673e+01 9.012686e+00 4.040230e+00 5.885263e+01 4.200192e+01 7.815139e+00 3.904889e+00 1.828481e+01 2.112559e+01 1.203729e+01 4.002352e+00 2.248205e+01 2.459946e+01
<GCONST> 8.702271e+01
<TRANSP> 8
 0.000000e+00 1.000000e+00 0.000000e+00 0.000000e+00 0.000000e+00 0.000000e+00 0.000000e+00 0.000000e+00
 0.000000e+00 1.742584e-01 8.257416e-01 0.000000e+00 0.000000e+00 0.000000e+00 0.000000e+00 0.000000e+00
 0.000000e+00 0.000000e+00 1.105117e-01 8.894883e-01 0.000000e+00 0.000000e+00 0.000000e+00 0.000000e+00
 0.000000e+00 0.000000e+00 0.000000e+00 5.340261e-01 4.659739e-01 0.000000e+00 0.000000e+00 0.000000e+00
 0.000000e+00 0.000000e+00 0.000000e+00 0.000000e+00 6.242705e-01 3.757295e-01 0.000000e+00 0.000000e+00
 0.000000e+00 0.000000e+00 0.000000e+00 0.000000e+00 0.000000e+00 1.735740e-01 8.264260e-01 0.000000e+00
 0.000000e+00 0.000000e+00 0.000000e+00 0.000000e+00 0.000000e+00 0.000000e+00 5.921937e-01 4.078064e-01
 0.000000e+00 0.000000e+00 0.000000e+00 0.000000e+00 0.000000e+00 0.000000e+00 0.000000e+00 0.000000e+00
<ENDHMM>
