~o
<STREAMINFO> 1 20
<VECSIZE> 20<NULLD><USER><DIAGC>
~h "l"
<BEGINHMM>
<NUMSTATES> 8
<STATE> 2
<MEAN> 20
 -7.914011e+00 -1.997286e+00 -1.800457e+01 -1.093041e+01 -9.453586e+00 -1.267690e+01 -1.650488e+01 -1.726489e+01 -4.556425e+00 -1.291766e+01 -1.298140e+01 -1.379162e+01 2.005291e-01 -1.212578e+01 -8.322092e+00 -1.104544e+01 4.835146e+00 -1.051178e+01 -3.440176e+00 -1.102113e+01
<VARIANCE> 20
 5.705412e+00 1.216034e+00 7.354873e+01 1.228473e+01 1.845156e+01 5.107882e+00 4.871059e+01 4.472240e+01 1.162915e+01 5.369258e+00 5.151624e+01 5.834220e+01 9.421427e+00 5.466281e+00 4.340675e+01 4.733172e+01 1.495604e+01 5.669181e+00 5.307938e+01 4.082299e+01
<GCONST> 9.356616e+01
<STATE> 3
<MEAN> 20
 -7.582448e+00 -1.884795e+00 -1.943955e+01 -9.817071e+00 -1.004311e+01 -1.189311e+01 -1.775388e+01 -1.525664e+01 -5.278049e+00 -1.195150e+01 -1.350089e+01 -1.009389e+01 -6.434408e-01 -1.093965e+01 -7.712342e+00 -7.249423e+00 3.825829e+00 -9.187238e+00 -3.150006e+00 -7.781944e+00
<VARIANCE> 20
 1.004842e+01 2.226357e+00 9.647942e+01 2.955787e+01 3.207296e+01 1.322292e+01 1.013614e+02 7.170295e+01 2.266648e+01 1.495561e+01 1.001789e+02 8.496143e+01 2.227260e+01 1.712469e+01 5.618591e+01 5.278834e+01 3.472079e+01 1.914197e+01 6.695557e+01 5.982565e+01
<GCONST> 1.063708e+02
<STATE> 4
<MEAN> 20
 -8.339600e+00 -1.765518e+00 -2.105785e+01 -1.150031e+01 -1.043107e+01 -1.317747e+01 -1.598375e+01 -1.786531e+01 -4.784890e+00 -1.353884e+01 -1.069977e+01 -1.034734e+01 7.658496e-01 -1.274745e+01 -5.530594e+00 -8.036346e+00 6.233386e+00 -1.114362e+01 -5.717952e-01 -9.299922e+00
<VARIANCE> 20
 8.427789e+00 1.385336e+00 1.056721e+02 2.085092e+01 2.397227e+01 9.183082e+00 5.445060e+01 6.795316e+01 1.327675e+01 1.026117e+01 3.954874e+01 4.790525e+01 9.392766e+00 1.027376e+01 2.417851e+01 2.910575e+01 1.347423e+01 1.000665e+01 2.804210e+01 4.015353e+01
<GCONST> 9.604065e+01
<STATE> 5
<MEAN> 20
 -7.449088e+00 -1.781415e+00 -1.826683e+01 -1.049647e+01 -8.993587e+00 -1.221641e+01 -1.421538e+01 -1.661830e+01 -3.897772e+00 -1.243931e+01 -9.849872e+00 -1.057157e+01 1.081886e+00 -1.163189e+01 -5.236217e+00 -8.049788e+00 5.977913e+00 -1.006921e+01 -6.729950e-01 -8.882475e+00
<VARIANCE> 20
 9.369064e+00 1.200835e+00 1.020253e+02 1.778498e+01 2.568940e+01 7.262192e+00 6.334952e+01 5.525361e+01 1.445691e+01 7.866061e+00 4.798447e+01 5.145482e+01 1.073633e+01 7.923393e+00 2.893651e+01 3.126071e+01 1.564541e+01 7.950415e+00 3.107041e+01 3.711851e+01
<GCONST> 9.574091e+01
<STATE> 6
<MEAN> 20
 -6.132017e+00 -1.761239e+00 -1.508444e+01 -1.014317e+01 -7.185157e+00 -1.197747e+01 -1.150609e+01 -1.619694e+01 -2.977542e+00 -1.216076e+01 -7.903186e+00 -1.003968e+01 1.095761e+00 -1.131213e+01 -4.183449e+00 -7.569856e+00 5.075158e+00 -9.725429e+00 -3.605331e-01 -8.385962e+00
<VARIANCE> 20
 2.661856e+01 1.286362e+00 2.270457e+02 2.110150e+01 6.139417e+01 8.692060e+00 1.440412e+02 6.275609e+01 2.591059e+01 9.713172e+00 8.737624e+01 5.523446e+01 1.348995e+01 1.026233e+01 4.214983e+01 3.345350e+01 2.533962e+01 1.066947e+01 3.401202e+01 4.086494e+01
<GCONST> 1.031830e+02
<STATE> 7
<MEAN> 20
 -7.326899e+00 -1.769832e+00 -1.827691e+01 -1.031085e+01 -8.386950e+00 -1.184731e+01 -1.230373e+01 -1.694426e+01 -3.051079e+00 -1.197386e+01 -7.701987e+00 -9.278837e+00 2.127892e+00 -1.116034e+01 -3.390375e+00 -7.100286e+00 7.243853e+00 -9.667295e+00 1.152314e+00 -8.109838e+00
<VARIANCE> 20
 3.588790e+00 7.998785e-01 6.605405e+01 1.455011e+01 1.014187e+01 4.909556e+00 2.474206e+01 4.855700e+01 6.900749e+00 4.857334e+00 1.760412e+01 2.733219e+01 6.389522e+00 4.238764e+00 1.180535e+01 1.497979e+01 8.455104e+00 3.741145e+00 1.459876e+01 2.297340e+01
<GCONST> 8.311118e+01
<TRANSP> 8
 0.000000e+00 1.000000e+00 0.000000e+00 0.000000e+00 0.000000e+00 0.000000e+00 0.000000e+00 0.000000e+00
 0.000000e+00 5.066763e-01 4.933237e-01 0.000000e+00 0.000000e+00 0.000000e+00 0.000000e+00 0.000000e+00
 0.000000e+00 0.000000e+00 2.347486e-01 7.652515e-01 0.000000e+00 0.000000e+00 0.000000e+00 0.000000e+00
 0.000000e+00 0.000000e+00 0.000000e+00 3.217036e-01 6.782964e-01 0.000000e+00 0.000000e+00 0.000000e+00
 0.000000e+00 0.000000e+00 0.000000e+00 0.000000e+00 0.000000e+00 1.000000e+00 0.000000e+00 0.000000e+00
 0.000000e+00 0.000000e+00 0.000000e+00 0.000000e+00 0.000000e+00 1.225176e-01 8.774824e-01 0.000000e+00
 0.000000e+00 0.000000e+00 0.000000e+00 0.000000e+00 0.000000e+00 0.000000e+00 7.436479e-01 2.563521e-01
 0.000000e+00 0.000000e+00 0.000000e+00 0.000000e+00 0.000000e+00 0.000000e+00 0.000000e+00 0.000000e+00
<ENDHMM>
