~o
<STREAMINFO> 1 20
<VECSIZE> 20<NULLD><USER><DIAGC>
~h "m"
<BEGINHMM>
<NUMSTATES> 8
<STATE> 2
<MEAN> 20
 -6.808574e+00 -2.263343e+00 -1.309126e+01 -1.119399e+01 -7.973828e+00 -1.217299e+01 -1.568083e+01 -1.419009e+01 -3.888973e+00 -1.220672e+01 -1.275326e+01 -1.295662e+01 8.553455e-02 -1.133537e+01 -8.081954e+00 -1.011286e+01 3.989759e+00 -9.710455e+00 -3.876003e+00 -8.807285e+00
<VARIANCE> 20
 1.213175e+01 1.895588e+00 8.574036e+01 1.292234e+01 3.107907e+01 5.875655e+00 8.998882e+01 2.764555e+01 1.941689e+01 5.993209e+00 9.167119e+01 3.628665e+01 1.835407e+01 7.122591e+00 5.600988e+01 2.688497e+01 3.225814e+01 8.855718e+00 6.163536e+01 2.671527e+01
<GCONST> 9.804764e+01
<STATE> 3
<MEAN> 20
 -8.265655e+00 -2.058094e+00 -1.495663e+01 -1.228480e+01 -1.035168e+01 -1.311949e+01 -1.803893e+01 -1.503645e+01 -5.418069e+00 -1.354500e+01 -1.437151e+01 -1.438203e+01 -4.154572e-01 -1.295994e+01 -9.532159e+00 -1.160927e+01 4.569223e+00 -1.146728e+01 -4.258451e+00 -1.053930e+01
<VARIANCE> 20
 8.256884e+00 1.434190e+00 7.262710e+01 1.685505e+01 2.603919e+01 8.731858e+00 6.427731e+01 4.141526e+01 1.723109e+01 9.024824e+00 6.020901e+01 5.433171e+01 1.286585e+01 8.735512e+00 4.942107e+01 4.044987e+01 1.546553e+01 8.271320e+00 5.317761e+01 3.961191e+01
<GCONST> 9.761884e+01
<STATE> 4
<MEAN> 20
 -7.208557e+00 -1.973587e+00 -1.207792e+01 -1.125447e+01 -8.479630e+00 -1.206436e+01 -1.468517e+01 -1.371682e+01 -3.947680e+00 -1.236331e+01 -1.118316e+01 -1.289444e+01 6.159490e-01 -1.176466e+01 -6.992660e+00 -1.073451e+01 5.232030e+00 -1.035089e+01 -2.411836e+00 -9.576346e+00
<VARIANCE> 20
 1.075167e+01 1.099539e+00 7.477066e+01 1.231548e+01 2.818986e+01 6.073269e+00 7.001031e+01 2.748940e+01 1.619923e+01 6.076982e+00 5.748713e+01 3.479758e+01 1.113943e+01 5.765817e+00 4.203379e+01 2.522195e+01 1.482139e+01 5.518194e+00 3.957933e+01 2.504959e+01
<GCONST> 9.338057e+01
<STATE> 5
<MEAN> 20
 -7.464803e+00 -2.266080e+00 -1.013618e+01 -1.179513e+01 -8.089860e+00 -1.224481e+01 -1.459646e+01 -1.401339e+01 -3.292462e+00 -1.246428e+01 -1.088544e+01 -1.330423e+01 1.622568e+00 -1.183297e+01 -6.599728e+00 -1.136646e+01 6.696821e+00 -1.039025e+01 -1.559347e+00 -9.542274e+00
<VARIANCE> 20
 3.437272e+00 6.742042e-01 4.702423e+01 5.947753e+00 1.083308e+01 2.623171e+00 2.525901e+01 2.016560e+01 7.364158e+00 2.451081e+00 2.250104e+01 2.600640e+01 6.036564e+00 2.172549e+00 1.814137e+01 1.881172e+01 7.332603e+00 2.077954e+00 1.814352e+01 1.735221e+01
<GCONST> 7.895904e+01
<STATE> 6
<MEAN> 20
 -6.566959e+00 -1.618104e+00 -1.016263e+01 -9.885664e+00 -8.133907e+00 -1.062069e+01 -1.261314e+01 -1.204721e+01 -3.772300e+00 -1.091475e+01 -9.114594e+00 -1.142458e+01 6.276604e-01 -1.043896e+01 -5.135820e+00 -9.925131e+00 5.176713e+00 -9.257148e+00 -7.417707e-01 -8.654032e+00
<VARIANCE> 20
 6.055610e+00 8.891968e-01 5.817962e+01 1.044222e+01 1.582826e+01 5.601329e+00 4.239106e+01 1.931491e+01 9.116232e+00 5.589634e+00 3.531794e+01 2.399326e+01 6.408672e+00 5.108613e+00 2.524958e+01 1.831862e+01 8.610977e+00 4.447397e+00 2.373676e+01 1.817336e+01
<GCONST> 8.605387e+01
<STATE> 7
<MEAN> 20
 -6.358447e+00 -2.001961e+00 -1.176221e+01 -1.107661e+01 -8.005486e+00 -1.215352e+01 -1.456741e+01 -1.272876e+01 -4.288930e+00 -1.238489e+01 -1.177872e+01 -1.168994e+01 -5.739842e-01 -1.168332e+01 -7.725965e+00 -9.827922e+00 3.137788e+00 -1.018201e+01 -3.569233e+00 -9.078941e+00
<VARIANCE> 20
 3.010168e+01 1.804056e+00 1.774404e+02 2.468526e+01 7.010811e+01 9.827930e+00 1.821622e+02 4.137433e+01 3.875584e+01 1.051189e+01 1.450923e+02 5.036710e+01 2.818613e+01 1.157899e+01 9.245815e+01 3.883153e+01 4.175329e+01 1.271163e+01 9.324864e+01 4.401737e+01
<GCONST> 1.080745e+02
<TRANSP> 8
 0.000000e+00 1.000000e+00 0.000000e+00 0.000000e+00 0.000000e+00 0.000000e+00 0.000000e+00 0.000000e+00
 0.000000e+00 1.199441e-01 8.800559e-01 0.000000e+00 0.000000e+00 0.000000e+00 0.000000e+00 0.000000e+00
 0.000000e+00 0.000000e+00 4.514939e-01 5.485061e-01 0.000000e+00 0.000000e+00 0.000000e+00 0.000000e+00
 0.000000e+00 0.000000e+00 0.000000e+00 0.000000e+00 1.000000e+00 0.000000e+00 0.000000e+00 0.000000e+00
 0.000000e+00 0.000000e+00 0.000000e+00 0.000000e+00 7.138420e-01 2.861580e-01 0.000000e+00 0.000000e+00
 0.000000e+00 0.000000e+00 0.000000e+00 0.000000e+00 0.000000e+00 4.949804e-01 5.050196e-01 0.000000e+00
 0.000000e+00 0.000000e+00 0.000000e+00 0.000000e+00 0.000000e+00 0.000000e+00 3.347502e-01 6.652498e-01
 0.000000e+00 0.000000e+00 0.000000e+00 0.000000e+00 0.000000e+00 0.000000e+00 0.000000e+00 0.000000e+00
<ENDHMM>
