~o
<STREAMINFO> 1 20
<VECSIZE> 20<NULLD><USER><DIAGC>
~h "n"
<BEGINHMM>
<NUMSTATES> 8
<STATE> 2
<MEAN> 20
 -7.924682e+00 -2.176038e+00 -1.663199e+01 -1.208142e+01 -9.610703e+00 -1.288054e+01 -1.776629e+01 -1.532206e+01 -4.866033e+00 -1.308788e+01 -1.375204e+01 -1.365423e+01 -2.081068e-01 -1.231980e+01 -8.783687e+00 -9.246541e+00 4.282075e+00 -1.076879e+01 -3.870235e+00 -1.040686e+01
<VARIANCE> 20
 8.894336e+00 2.023108e+00 7.801194e+01 1.891179e+01 3.395360e+01 8.681927e+00 7.256689e+01 4.490403e+01 2.195645e+01 9.600492e+00 6.465865e+01 5.959091e+01 1.676554e+01 1.094751e+01 4.357727e+01 3.645858e+01 2.422691e+01 1.252139e+01 5.217408e+01 5.172750e+01
<GCONST> 1.005256e+02
<STATE> 3
<MEAN> 20
 -7.269388e+00 -2.025534e+00 -1.360003e+01 -1.168171e+01 -8.539316e+00 -1.217147e+01 -1.482130e+01 -1.402208e+01 -3.786697e+00 -1.237614e+01 -1.083042e+01 -1.239240e+01 9.656904e-01 -1.168530e+01 -6.258361e+00 -8.180205e+00 5.671381e+00 -1.026262e+01 -1.529110e+00 -9.307457e+00
<VARIANCE> 20
 8.745075e+00 1.279426e+00 6.828711e+01 1.284206e+01 2.602306e+01 6.072262e+00 6.264090e+01 3.091843e+01 1.559659e+01 6.571970e+00 4.793388e+01 3.885381e+01 1.140298e+01 6.973198e+00 2.728726e+01 2.061922e+01 1.531692e+01 7.526511e+00 2.765060e+01 3.347951e+01
<GCONST> 9.302643e+01
<STATE> 4
<MEAN> 20
 -7.292398e+00 -2.036305e+00 -1.354255e+01 -1.172620e+01 -8.611082e+00 -1.215894e+01 -1.479010e+01 -1.392935e+01 -3.858035e+00 -1.236064e+01 -1.084164e+01 -1.232307e+01 9.164864e-01 -1.168230e+01 -6.288656e+00 -8.059370e+00 5.652985e+00 -1.027475e+01 -1.486739e+00 -9.260534e+00
<VARIANCE> 20
 8.726423e+00 1.311345e+00 6.944547e+01 1.326215e+01 2.618755e+01 6.472087e+00 6.316874e+01 3.121257e+01 1.578612e+01 6.939684e+00 4.924082e+01 3.815148e+01 1.165148e+01 7.279498e+00 2.744010e+01 1.955023e+01 1.547556e+01 7.683706e+00 2.721331e+01 3.281267e+01
<GCONST> 9.327287e+01
<STATE> 5
<MEAN> 20
 -7.108053e+00 -2.044386e+00 -1.139994e+01 -1.131221e+01 -7.828784e+00 -1.159819e+01 -1.318859e+01 -1.292975e+01 -3.024861e+00 -1.174066e+01 -9.328767e+00 -1.158068e+01 1.840961e+00 -1.110245e+01 -4.994370e+00 -7.414998e+00 6.742584e+00 -9.792997e+00 -1.340579e-01 -8.689234e+00
<VARIANCE> 20
 2.886743e+00 8.366843e-01 3.647384e+01 8.049482e+00 9.775073e+00 4.068163e+00 2.309234e+01 1.981942e+01 6.980756e+00 3.971960e+00 1.894150e+01 2.274441e+01 6.297042e+00 3.634460e+00 1.087778e+01 1.012201e+01 7.741430e+00 3.349378e+00 1.156091e+01 2.156999e+01
<GCONST> 7.912512e+01
<STATE> 6
<MEAN> 20
 -5.848458e+00 -2.216720e+00 -1.181865e+01 -1.142056e+01 -6.882753e+00 -1.191106e+01 -1.392425e+01 -1.368253e+01 -3.230308e+00 -1.184079e+01 -1.032656e+01 -1.171289e+01 3.314010e-01 -1.088790e+01 -6.187823e+00 -7.098547e+00 3.780511e+00 -9.260945e+00 -2.450876e+00 -7.597106e+00
<VARIANCE> 20
 2.403324e+01 2.030534e+00 1.341555e+02 1.897851e+01 5.804700e+01 8.627820e+00 1.676191e+02 3.463628e+01 3.074686e+01 1.051519e+01 1.185370e+02 4.057139e+01 2.401880e+01 1.329599e+01 5.306787e+01 2.301188e+01 4.117854e+01 1.603089e+01 4.749429e+01 3.423323e+01
<GCONST> 1.043875e+02
<STATE> 7
<MEAN> 20
 -8.112249e+00 -2.157185e+00 -1.529730e+01 -1.260008e+01 -9.850539e+00 -1.308943e+01 -1.751059e+01 -1.543336e+01 -4.827685e+00 -1.341276e+01 -1.357428e+01 -1.400356e+01 2.548084e-01 -1.277444e+01 -8.249138e+00 -9.331174e+00 5.264225e+00 -1.131836e+01 -3.010976e+00 -1.025965e+01
<VARIANCE> 20
 6.573097e+00 1.396277e+00 6.364671e+01 1.311913e+01 2.508154e+01 6.072752e+00 5.508911e+01 3.152374e+01 1.612091e+01 6.740027e+00 4.654201e+01 4.032673e+01 1.203364e+01 7.315224e+00 3.068858e+01 2.893517e+01 1.552993e+01 7.876721e+00 3.678959e+01 3.787084e+01
<GCONST> 9.372563e+01
<TRANSP> 8
 0.000000e+00 1.000000e+00 0.000000e+00 0.000000e+00 0.000000e+00 0.000000e+00 0.000000e+00 0.000000e+00
 0.000000e+00 3.894713e-01 6.105287e-01 0.000000e+00 0.000000e+00 0.000000e+00 0.000000e+00 0.000000e+00
 0.000000e+00 0.000000e+00 0.000000e+00 1.000000e+00 0.000000e+00 0.000000e+00 0.000000e+00 0.000000e+00
 0.000000e+00 0.000000e+00 0.000000e+00 0.000000e+00 1.000000e+00 0.000000e+00 0.000000e+00 0.000000e+00
 0.000000e+00 0.000000e+00 0.000000e+00 0.000000e+00 7.502077e-01 2.497923e-01 0.000000e+00 0.000000e+00
 0.000000e+00 0.000000e+00 0.000000e+00 0.000000e+00 0.000000e+00 2.280187e-01 7.719814e-01 0.000000e+00
 0.000000e+00 0.000000e+00 0.000000e+00 0.000000e+00 0.000000e+00 0.000000e+00 4.807146e-01 5.192854e-01
 0.000000e+00 0.000000e+00 0.000000e+00 0.000000e+00 0.000000e+00 0.000000e+00 0.000000e+00 0.000000e+00
<ENDHMM>
