~o
<STREAMINFO> 1 20
<VECSIZE> 20<NULLD><USER><DIAGC>
~h "o"
<BEGINHMM>
<NUMSTATES> 8
<STATE> 2
<MEAN> 20
 -7.797798e+00 -2.242543e+00 -1.839994e+01 -1.135682e+01 -9.876057e+00 -1.280454e+01 -1.882819e+01 -1.578931e+01 -5.341783e+00 -1.282382e+01 -1.472381e+01 -1.368130e+01 -9.243124e-01 -1.186907e+01 -9.839324e+00 -1.054957e+01 3.356347e+00 -1.013585e+01 -5.230323e+00 -1.041370e+01
<VARIANCE> 20
 9.460125e+00 2.049065e+00 9.092634e+01 2.076694e+01 2.924234e+01 9.049978e+00 8.194450e+01 4.319283e+01 2.032912e+01 1.082913e+01 8.401190e+01 6.624117e+01 1.954024e+01 1.324932e+01 5.965134e+01 5.060705e+01 3.163119e+01 1.560382e+01 7.313125e+01 5.077458e+01
<GCONST> 1.030244e+02
<STATE> 3
<MEAN> 20
 -6.554651e+00 -1.543940e+00 -1.317814e+01 -9.319643e+00 -8.094806e+00 -1.073379e+01 -1.323392e+01 -1.340107e+01 -3.652167e+00 -1.091422e+01 -9.357345e+00 -1.158617e+01 7.302477e-01 -1.031627e+01 -5.380283e+00 -9.159431e+00 5.123442e+00 -9.048380e+00 -1.111342e+00 -9.204863e+00
<VARIANCE> 20
 4.321497e+00 9.361569e-01 5.037167e+01 1.088434e+01 1.218227e+01 5.185358e+00 3.639603e+01 2.390467e+01 7.452640e+00 5.115035e+00 3.340117e+01 3.279820e+01 6.153417e+00 4.702624e+00 2.661275e+01 2.295603e+01 9.186950e+00 4.442023e+00 3.075284e+01 2.258520e+01
<GCONST> 8.604826e+01
<STATE> 4
<MEAN> 20
 -7.234054e+00 -1.978110e+00 -1.525342e+01 -1.081672e+01 -8.530076e+00 -1.220129e+01 -1.550024e+01 -1.521241e+01 -4.012330e+00 -1.236082e+01 -1.177149e+01 -1.360672e+01 4.373233e-01 -1.161579e+01 -7.657927e+00 -1.050122e+01 4.812046e+00 -1.009570e+01 -3.157166e+00 -1.041647e+01
<VARIANCE> 20
 8.205511e+00 1.212165e+00 7.833307e+01 1.302252e+01 2.273734e+01 5.813136e+00 6.394419e+01 3.148956e+01 1.349584e+01 6.080035e+00 5.802106e+01 4.421404e+01 1.064703e+01 6.199925e+00 4.436469e+01 3.112646e+01 1.645623e+01 6.459879e+00 4.751301e+01 3.040189e+01
<GCONST> 9.409357e+01
<STATE> 5
<MEAN> 20
 -7.489083e+00 -2.237343e+00 -1.456751e+01 -1.158166e+01 -8.191509e+00 -1.259610e+01 -1.524112e+01 -1.580695e+01 -3.471111e+00 -1.273985e+01 -1.142128e+01 -1.444740e+01 1.247207e+00 -1.200130e+01 -7.368918e+00 -1.120990e+01 5.943074e+00 -1.046662e+01 -2.628323e+00 -1.116480e+01
<VARIANCE> 20
 3.174616e+00 8.223317e-01 4.480349e+01 7.797158e+00 1.169785e+01 2.843399e+00 2.905876e+01 2.673537e+01 7.951002e+00 2.884529e+00 2.919494e+01 4.083077e+01 7.024930e+00 2.790248e+00 2.572945e+01 2.666304e+01 9.872976e+00 2.931812e+00 3.334029e+01 2.457755e+01
<GCONST> 8.352950e+01
<STATE> 6
<MEAN> 20
 -6.430738e+00 -2.240295e+00 -1.523132e+01 -1.094344e+01 -8.170765e+00 -1.248125e+01 -1.627278e+01 -1.564515e+01 -4.541809e+00 -1.246304e+01 -1.309975e+01 -1.368751e+01 -1.006926e+00 -1.147235e+01 -8.803249e+00 -1.002758e+01 2.396433e+00 -9.706247e+00 -5.008204e+00 -9.429345e+00
<VARIANCE> 20
 2.424361e+01 2.099012e+00 1.577938e+02 2.088426e+01 5.551336e+01 9.991030e+00 1.751606e+02 4.757043e+01 2.959073e+01 1.137179e+01 1.393434e+02 6.885672e+01 2.340752e+01 1.323674e+01 8.244139e+01 4.695578e+01 3.996998e+01 1.513253e+01 7.492913e+01 4.438390e+01
<GCONST> 1.076330e+02
<STATE> 7
<MEAN> 20
 -7.926129e+00 -2.307135e+00 -1.773775e+01 -1.116335e+01 -8.379000e+00 -1.283840e+01 -1.812988e+01 -1.583660e+01 -4.202374e+00 -1.297287e+01 -1.535390e+01 -1.465054e+01 -2.644421e-01 -1.219571e+01 -1.174339e+01 -1.159341e+01 3.358262e+00 -1.059595e+01 -7.525317e+00 -1.114391e+01
<VARIANCE> 20
 6.467843e+00 1.671042e+00 6.213743e+01 1.165176e+01 2.509259e+01 5.439339e+00 5.494139e+01 2.590113e+01 1.571657e+01 5.574862e+00 5.671137e+01 3.691301e+01 1.067375e+01 5.797213e+00 5.768358e+01 2.571419e+01 1.656431e+01 6.211630e+00 6.571474e+01 2.553612e+01
<GCONST> 9.350522e+01
<TRANSP> 8
 0.000000e+00 1.000000e+00 0.000000e+00 0.000000e+00 0.000000e+00 0.000000e+00 0.000000e+00 0.000000e+00
 0.000000e+00 3.354018e-01 6.645982e-01 0.000000e+00 0.000000e+00 0.000000e+00 0.000000e+00 0.000000e+00
 0.000000e+00 0.000000e+00 5.594978e-01 4.405023e-01 0.000000e+00 0.000000e+00 0.000000e+00 0.000000e+00
 0.000000e+00 0.000000e+00 0.000000e+00 1.808360e-03 9.981917e-01 0.000000e+00 0.000000e+00 0.000000e+00
 0.000000e+00 0.000000e+00 0.000000e+00 0.000000e+00 6.675637e-01 3.324363e-01 0.000000e+00 0.000000e+00
 0.000000e+00 0.000000e+00 0.000000e+00 0.000000e+00 0.000000e+00 2.648633e-01 7.351367e-01 0.000000e+00
 0.000000e+00 0.000000e+00 0.000000e+00 0.000000e+00 0.000000e+00 0.000000e+00 4.023905e-01 5.976095e-01
 0.000000e+00 0.000000e+00 0.000000e+00 0.000000e+00 0.000000e+00 0.000000e+00 0.000000e+00 0.000000e+00
<ENDHMM>
