~o
<STREAMINFO> 1 20
<VECSIZE> 20<NULLD><USER><DIAGC>
~h "p"
<BEGINHMM>
<NUMSTATES> 8
<STATE> 2
<MEAN> 20
 -7.356537e+00 -1.760950e+00 -1.532542e+01 -9.432186e+00 -9.383530e+00 -1.150010e+01 -1.528294e+01 -1.403456e+01 -4.436929e+00 -1.165614e+01 -1.147515e+01 -1.037687e+01 4.343926e-01 -1.079791e+01 -6.132057e+00 -7.240428e+00 5.221751e+00 -9.190199e+00 -1.683817e+00 -7.024016e+00
<VARIANCE> 20
 3.699694e+00 1.031153e+00 5.320494e+01 1.393857e+01 1.474762e+01 5.759318e+00 4.967677e+01 4.030539e+01 1.218021e+01 6.224607e+00 4.475730e+01 5.931298e+01 1.172039e+01 6.820091e+00 2.415686e+01 2.680075e+01 1.437826e+01 7.740484e+00 2.700711e+01 2.599628e+01
<GCONST> 9.108205e+01
<STATE> 3
<MEAN> 20
 -8.326840e+00 -1.943180e+00 -1.995249e+01 -1.008550e+01 -1.143880e+01 -1.255661e+01 -2.051345e+01 -1.523945e+01 -6.525310e+00 -1.271520e+01 -1.704869e+01 -1.138269e+01 -1.754744e+00 -1.170498e+01 -1.056204e+01 -7.866362e+00 2.793547e+00 -9.868712e+00 -5.972811e+00 -7.831931e+00
<VARIANCE> 20
 7.773948e+00 2.257124e+00 7.452513e+01 2.610010e+01 3.543209e+01 1.150101e+01 8.989742e+01 5.794936e+01 2.654669e+01 1.269614e+01 8.488275e+01 9.239232e+01 2.110438e+01 1.495988e+01 5.070557e+01 5.049275e+01 2.418219e+01 1.760207e+01 5.369450e+01 5.549421e+01
<GCONST> 1.042072e+02
<STATE> 4
<MEAN> 20
 -6.044031e+00 -1.844707e+00 -1.500957e+01 -8.297214e+00 -8.417703e+00 -1.097620e+01 -1.548914e+01 -1.237326e+01 -4.551414e+00 -1.092024e+01 -1.265900e+01 -7.232876e+00 -8.415768e-01 -9.717241e+00 -6.991498e+00 -4.751607e+00 2.651312e+00 -7.803344e+00 -3.505997e+00 -4.714462e+00
<VARIANCE> 20
 2.752090e+01 1.897359e+00 2.006376e+02 2.639561e+01 7.653519e+01 1.181462e+01 2.238235e+02 6.073041e+01 4.377199e+01 1.388994e+01 1.747348e+02 8.538609e+01 2.989692e+01 1.699647e+01 7.562587e+01 3.788823e+01 3.688144e+01 2.018172e+01 6.146960e+01 4.340781e+01
<GCONST> 1.103255e+02
<STATE> 5
<MEAN> 20
 -7.422171e+00 -1.778709e+00 -1.865444e+01 -7.991889e+00 -1.083557e+01 -1.099682e+01 -1.929645e+01 -1.264656e+01 -6.096771e+00 -1.097643e+01 -1.563865e+01 -6.915422e+00 -1.512362e+00 -9.755589e+00 -8.759086e+00 -4.545671e+00 2.797454e+00 -7.797282e+00 -4.474784e+00 -4.608632e+00
<VARIANCE> 20
 9.470665e+00 1.612238e+00 9.613923e+01 2.580838e+01 3.738589e+01 1.050820e+01 1.312750e+02 5.800816e+01 3.004347e+01 1.216210e+01 1.188558e+02 8.262467e+01 2.800187e+01 1.493290e+01 5.839517e+01 3.683104e+01 3.434878e+01 1.808694e+01 5.855298e+01 4.507872e+01
<GCONST> 1.053239e+02
<STATE> 6
<MEAN> 20
 -7.662778e+00 -1.753487e+00 -2.252578e+01 -5.102046e+00 -1.372261e+01 -9.147764e+00 -2.622611e+01 -9.154540e+00 -9.415132e+00 -8.714757e+00 -2.098614e+01 -2.257768e+00 -5.070529e+00 -7.069155e+00 -1.191043e+01 -1.304070e+00 -9.927611e-01 -4.795513e+00 -7.836714e+00 -1.111888e+00
<VARIANCE> 20
 9.247086e+00 2.684935e+00 1.047812e+02 4.470483e+01 4.937634e+01 1.925039e+01 1.896341e+02 8.133340e+01 4.624974e+01 2.217064e+01 1.614092e+02 1.116620e+02 4.588234e+01 2.667963e+01 7.846198e+01 5.098091e+01 5.353368e+01 3.121574e+01 7.956422e+01 5.715622e+01
<GCONST> 1.129020e+02
<STATE> 7
<MEAN> 20
 -7.138884e+00 -1.563326e+00 -1.814617e+01 -7.245894e+00 -1.021674e+01 -1.063463e+01 -1.822756e+01 -1.234151e+01 -5.315032e+00 -1.073791e+01 -1.451357e+01 -6.917282e+00 -6.010348e-01 -9.550433e+00 -8.191731e+00 -4.161286e+00 3.726463e+00 -7.576431e+00 -3.564976e+00 -4.270097e+00
<VARIANCE> 20
 7.685517e+00 1.550677e+00 8.173339e+01 2.548634e+01 3.167937e+01 1.046520e+01 1.107836e+02 4.989710e+01 2.559912e+01 1.168772e+01 9.412318e+01 8.735957e+01 2.295105e+01 1.397347e+01 4.985840e+01 3.377252e+01 2.659995e+01 1.624183e+01 4.944130e+01 3.969321e+01
<GCONST> 1.028640e+02
<TRANSP> 8
 0.000000e+00 1.000000e+00 0.000000e+00 0.000000e+00 0.000000e+00 0.000000e+00 0.000000e+00 0.000000e+00
 0.000000e+00 7.444355e-01 2.555645e-01 0.000000e+00 0.000000e+00 0.000000e+00 0.000000e+00 0.000000e+00
 0.000000e+00 0.000000e+00 4.227845e-01 5.772155e-01 0.000000e+00 0.000000e+00 0.000000e+00 0.000000e+00
 0.000000e+00 0.000000e+00 0.000000e+00 1.037820e-01 8.962179e-01 0.000000e+00 0.000000e+00 0.000000e+00
 0.000000e+00 0.000000e+00 0.000000e+00 0.000000e+00 0.000000e+00 1.000000e+00 0.000000e+00 0.000000e+00
 0.000000e+00 0.000000e+00 0.000000e+00 0.000000e+00 0.000000e+00 3.993817e-01 6.006183e-01 0.000000e+00
 0.000000e+00 0.000000e+00 0.000000e+00 0.000000e+00 0.000000e+00 0.000000e+00 3.429199e-01 6.570801e-01
 0.000000e+00 0.000000e+00 0.000000e+00 0.000000e+00 0.000000e+00 0.000000e+00 0.000000e+00 0.000000e+00
<ENDHMM>
