~o
<STREAMINFO> 1 20
<VECSIZE> 20<NULLD><USER><DIAGC>
~h "r"
<BEGINHMM>
<NUMSTATES> 8
<STATE> 2
<MEAN> 20
 -7.190287e+00 -2.125974e+00 -1.613975e+01 -9.969198e+00 -9.139250e+00 -1.206945e+01 -1.724035e+01 -1.548435e+01 -4.796994e+00 -1.198800e+01 -1.396629e+01 -1.405000e+01 -6.641244e-01 -1.082839e+01 -8.633474e+00 -8.447004e+00 3.228214e+00 -8.892344e+00 -4.423975e+00 -7.710473e+00
<VARIANCE> 20
 9.723204e+00 2.266935e+00 7.682033e+01 1.754496e+01 3.358230e+01 8.216342e+00 9.652969e+01 4.689210e+01 2.441146e+01 9.389110e+00 9.748807e+01 7.915871e+01 2.393497e+01 1.160292e+01 5.662203e+01 3.774632e+01 3.726957e+01 1.392474e+01 6.674067e+01 3.767815e+01
<GCONST> 1.028559e+02
<STATE> 3
<MEAN> 20
 -8.353401e+00 -1.878757e+00 -1.661361e+01 -1.178093e+01 -1.087305e+01 -1.346738e+01 -1.711553e+01 -1.833129e+01 -5.422443e+00 -1.391496e+01 -1.307485e+01 -1.833817e+01 7.502888e-02 -1.312682e+01 -7.563950e+00 -1.111123e+01 5.501634e+00 -1.135639e+01 -2.051179e+00 -1.044878e+01
<VARIANCE> 20
 6.399620e+00 1.496147e+00 6.215710e+01 1.441686e+01 2.545761e+01 7.111759e+00 5.176712e+01 4.814925e+01 1.535106e+01 7.701909e+00 4.436458e+01 7.984607e+01 9.959785e+00 7.813918e+00 2.814515e+01 3.867000e+01 1.183621e+01 7.736818e+00 3.458998e+01 3.775658e+01
<GCONST> 9.481853e+01
<STATE> 4
<MEAN> 20
 -7.341231e+00 -1.903526e+00 -1.404799e+01 -1.061317e+01 -8.910938e+00 -1.240114e+01 -1.421402e+01 -1.655035e+01 -4.032490e+00 -1.262199e+01 -1.063720e+01 -1.610336e+01 7.913306e-01 -1.175303e+01 -6.002893e+00 -9.734581e+00 5.517356e+00 -1.002536e+01 -1.255513e+00 -9.144090e+00
<VARIANCE> 20
 8.922620e+00 1.365790e+00 7.068306e+01 1.334244e+01 2.752941e+01 6.281951e+00 6.595412e+01 4.168746e+01 1.631932e+01 6.871346e+00 5.525176e+01 6.765826e+01 1.179634e+01 7.271619e+00 3.158802e+01 3.083825e+01 1.608790e+01 7.602849e+00 3.549356e+01 3.118573e+01
<GCONST> 9.527441e+01
<STATE> 5
<MEAN> 20
 -7.361164e+00 -1.905184e+00 -1.397303e+01 -1.066113e+01 -8.997891e+00 -1.242820e+01 -1.414906e+01 -1.663226e+01 -4.096281e+00 -1.266670e+01 -1.057577e+01 -1.618721e+01 7.667179e-01 -1.180720e+01 -5.958484e+00 -9.720378e+00 5.537152e+00 -1.008585e+01 -1.163074e+00 -9.207722e+00
<VARIANCE> 20
 9.082326e+00 1.279195e+00 7.216349e+01 1.313314e+01 2.767416e+01 6.421711e+00 6.736230e+01 4.310591e+01 1.663524e+01 6.966942e+00 5.675148e+01 6.970250e+01 1.216343e+01 7.265439e+00 3.213108e+01 3.042109e+01 1.602275e+01 7.546821e+00 3.510068e+01 3.196402e+01
<GCONST> 9.543822e+01
<STATE> 6
<MEAN> 20
 -6.032610e+00 -1.971943e+00 -1.199833e+01 -1.047924e+01 -7.310674e+00 -1.224056e+01 -1.219264e+01 -1.582673e+01 -3.299328e+00 -1.236142e+01 -9.225802e+00 -1.507520e+01 6.328877e-01 -1.139317e+01 -5.161514e+00 -9.051823e+00 4.441172e+00 -9.598150e+00 -1.105541e+00 -8.553909e+00
<VARIANCE> 20
 2.636037e+01 1.689879e+00 1.408355e+02 1.693287e+01 6.162820e+01 7.825662e+00 1.526240e+02 4.926906e+01 3.119969e+01 9.262303e+00 1.075623e+02 7.997397e+01 2.131743e+01 1.086719e+01 5.497183e+01 3.460055e+01 3.367317e+01 1.228711e+01 5.010960e+01 3.733514e+01
<GCONST> 1.047162e+02
<STATE> 7
<MEAN> 20
 -7.256330e+00 -1.863034e+00 -1.187919e+01 -1.029009e+01 -8.545873e+00 -1.199774e+01 -1.207548e+01 -1.675179e+01 -3.577554e+00 -1.221938e+01 -8.712266e+00 -1.675966e+01 1.425015e+00 -1.140213e+01 -4.517997e+00 -9.473029e+00 6.448694e+00 -9.757276e+00 1.956514e-01 -8.826123e+00
<VARIANCE> 20
 3.263940e+00 8.748011e-01 3.418851e+01 8.994727e+00 9.793550e+00 4.385389e+00 2.551722e+01 3.713823e+01 6.734713e+00 4.368471e+00 2.064450e+01 5.992071e+01 5.989159e+00 3.953938e+00 1.257708e+01 1.680546e+01 7.738186e+00 3.563202e+00 1.453862e+01 1.765625e+01
<GCONST> 8.203437e+01
<TRANSP> 8
 0.000000e+00 1.000000e+00 0.000000e+00 0.000000e+00 0.000000e+00 0.000000e+00 0.000000e+00 0.000000e+00
 0.000000e+00 2.663572e-01 7.336428e-01 0.000000e+00 0.000000e+00 0.000000e+00 0.000000e+00 0.000000e+00
 0.000000e+00 0.000000e+00 5.279791e-01 4.720209e-01 0.000000e+00 0.000000e+00 0.000000e+00 0.000000e+00
 0.000000e+00 0.000000e+00 0.000000e+00 0.000000e+00 1.000000e+00 0.000000e+00 0.000000e+00 0.000000e+00
 0.000000e+00 0.000000e+00 0.000000e+00 0.000000e+00 0.000000e+00 1.000000e+00 0.000000e+00 0.000000e+00
 0.000000e+00 0.000000e+00 0.000000e+00 0.000000e+00 0.000000e+00 1.860304e-01 8.139696e-01 0.000000e+00
 0.000000e+00 0.000000e+00 0.000000e+00 0.000000e+00 0.000000e+00 0.000000e+00 7.597878e-01 2.402123e-01
 0.000000e+00 0.000000e+00 0.000000e+00 0.000000e+00 0.000000e+00 0.000000e+00 0.000000e+00 0.000000e+00
<ENDHMM>
