~o
<STREAMINFO> 1 20
<VECSIZE> 20<NULLD><USER><DIAGC>
~h "v"
<BEGINHMM>
<NUMSTATES> 8
<STATE> 2
<MEAN> 20
 -5.842729e+00 -1.915303e+00 -1.079262e+01 -1.071006e+01 -7.087905e+00 -1.261186e+01 -1.240275e+01 -1.603917e+01 -3.222660e+00 -1.283954e+01 -8.558773e+00 -1.567099e+01 5.484201e-01 -1.192905e+01 -5.018186e+00 -8.460829e+00 4.261851e+00 -1.016348e+01 -1.039169e+00 -8.673413e+00
<VARIANCE> 20
 3.059750e+01 1.405543e+00 1.469029e+02 1.321694e+01 7.441608e+01 6.490722e+00 1.960241e+02 5.373681e+01 2.953330e+01 7.762960e+00 1.122059e+02 7.458139e+01 1.738979e+01 8.632248e+00 4.997913e+01 2.415826e+01 3.547023e+01 9.247231e+00 4.309047e+01 3.361874e+01
<GCONST> 1.031787e+02
<STATE> 3
<MEAN> 20
 -7.369368e+00 -1.860411e+00 -1.243237e+01 -1.097525e+01 -8.991983e+00 -1.276464e+01 -1.448573e+01 -1.635348e+01 -3.818920e+00 -1.303904e+01 -8.529666e+00 -1.591875e+01 1.264248e+00 -1.219406e+01 -5.076816e+00 -8.787374e+00 6.242141e+00 -1.049403e+01 -1.852316e-01 -9.343388e+00
<VARIANCE> 20
 1.028282e+01 8.864998e-01 7.035303e+01 1.178223e+01 3.177321e+01 5.746978e+00 7.498114e+01 4.906291e+01 1.522032e+01 6.381541e+00 4.180315e+01 7.348028e+01 8.999463e+00 6.282885e+00 2.061120e+01 2.197688e+01 1.231307e+01 6.064798e+00 2.074365e+01 3.077892e+01
<GCONST> 9.263437e+01
<STATE> 4
<MEAN> 20
 -7.341185e+00 -1.814173e+00 -1.237157e+01 -1.094036e+01 -9.050804e+00 -1.276328e+01 -1.446956e+01 -1.651377e+01 -3.853243e+00 -1.304607e+01 -8.309089e+00 -1.600986e+01 1.247426e+00 -1.221683e+01 -5.011674e+00 -8.986485e+00 6.247482e+00 -1.053153e+01 -1.485010e-01 -9.472061e+00
<VARIANCE> 20
 1.078531e+01 9.915861e-01 7.577789e+01 1.062384e+01 3.252227e+01 5.544999e+00 7.682269e+01 4.505361e+01 1.620921e+01 6.238470e+00 4.399895e+01 6.713724e+01 9.481855e+00 6.248545e+00 2.132092e+01 2.257854e+01 1.192196e+01 6.133681e+00 2.144169e+01 3.234866e+01
<GCONST> 9.286210e+01
<STATE> 5
<MEAN> 20
 -6.691275e+00 -1.542379e+00 -1.128229e+01 -9.506508e+00 -8.381862e+00 -1.137223e+01 -1.278250e+01 -1.498570e+01 -3.307225e+00 -1.158372e+01 -6.786245e+00 -1.446148e+01 1.605656e+00 -1.079157e+01 -3.783794e+00 -7.894296e+00 6.364346e+00 -9.226337e+00 7.329195e-01 -8.087992e+00
<VARIANCE> 20
 5.964859e+00 7.698151e-01 4.904152e+01 1.005384e+01 1.751904e+01 5.437385e+00 4.282881e+01 3.547603e+01 9.479698e+00 5.712305e+00 2.690051e+01 5.314883e+01 6.487084e+00 5.343289e+00 1.344452e+01 1.685949e+01 7.824446e+00 4.906715e+00 1.436137e+01 2.350235e+01
<GCONST> 8.606076e+01
<STATE> 6
<MEAN> 20
 -8.538250e+00 -1.670820e+00 -1.567447e+01 -1.179085e+01 -1.192314e+01 -1.366012e+01 -1.846177e+01 -1.806817e+01 -6.062801e+00 -1.419079e+01 -1.170660e+01 -1.800570e+01 -2.441135e-01 -1.344277e+01 -7.611335e+00 -9.959363e+00 5.416640e+00 -1.171593e+01 -2.160574e+00 -1.061022e+01
<VARIANCE> 20
 8.738474e+00 1.344476e+00 7.306573e+01 1.222312e+01 3.317542e+01 7.159358e+00 7.179421e+01 5.149537e+01 1.840528e+01 7.618321e+00 4.724078e+01 7.854306e+01 1.127280e+01 7.434233e+00 2.813423e+01 3.362398e+01 1.220872e+01 7.161394e+00 3.028527e+01 4.591681e+01
<GCONST> 9.585265e+01
<STATE> 7
<MEAN> 20
 -7.633337e+00 -2.206421e+00 -1.072998e+01 -1.117910e+01 -8.577890e+00 -1.308224e+01 -1.457767e+01 -1.765092e+01 -3.206531e+00 -1.321724e+01 -7.730817e+00 -1.786934e+01 2.043014e+00 -1.227460e+01 -4.948675e+00 -9.677483e+00 7.204365e+00 -1.050588e+01 4.886471e-02 -1.011511e+01
<VARIANCE> 20
 3.946059e+00 6.624245e-01 3.882287e+01 5.919863e+00 1.279245e+01 2.779533e+00 3.035328e+01 3.511654e+01 7.495045e+00 2.813669e+00 2.379026e+01 5.469966e+01 5.527452e+00 2.545376e+00 1.150095e+01 1.261166e+01 6.338881e+00 2.512317e+00 1.206918e+01 2.224409e+01
<GCONST> 7.990000e+01
<TRANSP> 8
 0.000000e+00 1.000000e+00 0.000000e+00 0.000000e+00 0.000000e+00 0.000000e+00 0.000000e+00 0.000000e+00
 0.000000e+00 1.992023e-01 8.007977e-01 0.000000e+00 0.000000e+00 0.000000e+00 0.000000e+00 0.000000e+00
 0.000000e+00 0.000000e+00 1.398271e-02 9.860173e-01 0.000000e+00 0.000000e+00 0.000000e+00 0.000000e+00
 0.000000e+00 0.000000e+00 0.000000e+00 0.000000e+00 1.000000e+00 0.000000e+00 0.000000e+00 0.000000e+00
 0.000000e+00 0.000000e+00 0.000000e+00 0.000000e+00 5.313767e-01 4.686233e-01 0.000000e+00 0.000000e+00
 0.000000e+00 0.000000e+00 0.000000e+00 0.000000e+00 0.000000e+00 5.000899e-01 4.999101e-01 0.000000e+00
 0.000000e+00 0.000000e+00 0.000000e+00 0.000000e+00 0.000000e+00 0.000000e+00 7.094995e-01 2.905005e-01
 0.000000e+00 0.000000e+00 0.000000e+00 0.000000e+00 0.000000e+00 0.000000e+00 0.000000e+00 0.000000e+00
<ENDHMM>
