~o
<STREAMINFO> 1 20
<VECSIZE> 20<NULLD><USER><DIAGC>
~h "w"
<BEGINHMM>
<NUMSTATES> 8
<STATE> 2
<MEAN> 20
 -5.643051e+00 -2.024248e+00 -1.286103e+01 -9.958091e+00 -7.405515e+00 -1.190862e+01 -1.555783e+01 -1.571961e+01 -3.873774e+00 -1.190434e+01 -1.126355e+01 -1.466430e+01 -6.221896e-01 -1.075073e+01 -7.414207e+00 -1.059232e+01 2.328493e+00 -8.765443e+00 -4.863829e+00 -7.510063e+00
<VARIANCE> 20
 2.696153e+01 2.024938e+00 1.484800e+02 1.703011e+01 6.745193e+01 6.988405e+00 2.153132e+02 5.024716e+01 3.187318e+01 9.928497e+00 1.452390e+02 8.356562e+01 2.175289e+01 1.340791e+01 7.663847e+01 6.654031e+01 3.989708e+01 1.622381e+01 6.125068e+01 3.451096e+01
<GCONST> 1.075404e+02
<STATE> 3
<MEAN> 20
 -6.895212e+00 -1.851702e+00 -1.257158e+01 -1.035414e+01 -8.564192e+00 -1.222866e+01 -1.554426e+01 -1.671259e+01 -3.782928e+00 -1.246060e+01 -1.001939e+01 -1.606221e+01 7.951775e-01 -1.152724e+01 -5.656385e+00 -1.211588e+01 5.152800e+00 -9.691185e+00 -2.748653e+00 -8.866503e+00
<VARIANCE> 20
 1.029556e+01 1.154380e+00 7.386741e+01 1.118034e+01 2.822447e+01 4.955358e+00 7.893636e+01 4.066557e+01 1.396149e+01 5.942654e+00 5.731878e+01 6.689391e+01 9.614706e+00 6.716732e+00 4.150594e+01 4.885117e+01 1.670044e+01 7.430958e+00 3.685007e+01 2.223528e+01
<GCONST> 9.494626e+01
<STATE> 4
<MEAN> 20
 -6.949905e+00 -1.866756e+00 -1.250923e+01 -1.047269e+01 -8.680387e+00 -1.232191e+01 -1.564639e+01 -1.700660e+01 -3.877507e+00 -1.257697e+01 -9.996985e+00 -1.642193e+01 7.247530e-01 -1.166045e+01 -5.683198e+00 -1.242871e+01 5.109708e+00 -9.820243e+00 -2.901436e+00 -8.977774e+00
<VARIANCE> 20
 1.054311e+01 1.026011e+00 7.354121e+01 1.074240e+01 2.832744e+01 5.330528e+00 8.234084e+01 4.081170e+01 1.411611e+01 6.462385e+00 5.686596e+01 6.775476e+01 9.820677e+00 7.163907e+00 4.239803e+01 5.087832e+01 1.666964e+01 7.633457e+00 3.548497e+01 2.119921e+01
<GCONST> 9.511704e+01
<STATE> 5
<MEAN> 20
 -6.628388e+00 -1.617353e+00 -1.159403e+01 -9.681780e+00 -8.279140e+00 -1.118959e+01 -1.352923e+01 -1.443698e+01 -3.474180e+00 -1.142811e+01 -8.056103e+00 -1.383878e+01 1.192874e+00 -1.066345e+01 -3.899942e+00 -1.073592e+01 5.743165e+00 -9.108272e+00 -8.295683e-01 -8.305139e+00
<VARIANCE> 20
 5.050375e+00 7.971096e-01 4.916208e+01 1.129191e+01 1.320203e+01 4.849989e+00 3.972826e+01 3.224411e+01 7.234536e+00 5.047759e+00 2.842267e+01 4.931721e+01 5.793602e+00 4.848836e+00 2.026356e+01 3.557570e+01 9.034041e+00 4.751810e+00 1.883362e+01 1.704005e+01
<GCONST> 8.607417e+01
<STATE> 6
<MEAN> 20
 -7.868634e+00 -1.860232e+00 -1.553624e+01 -1.161096e+01 -1.076116e+01 -1.312040e+01 -1.922100e+01 -1.791591e+01 -5.594113e+00 -1.352710e+01 -1.272769e+01 -1.728388e+01 -5.797753e-01 -1.270197e+01 -8.002212e+00 -1.312164e+01 4.208239e+00 -1.090360e+01 -4.636717e+00 -9.899498e+00
<VARIANCE> 20
 1.001897e+01 1.431365e+00 8.490846e+01 1.457626e+01 3.169959e+01 6.869325e+00 7.941670e+01 4.358566e+01 1.837478e+01 8.397635e+00 5.808039e+01 7.464561e+01 1.380867e+01 9.883444e+00 4.916764e+01 5.733133e+01 2.091059e+01 1.127499e+01 4.352346e+01 3.133629e+01
<GCONST> 9.902909e+01
<STATE> 7
<MEAN> 20
 -7.266024e+00 -2.016224e+00 -1.032765e+01 -1.092023e+01 -8.885518e+00 -1.297851e+01 -1.632478e+01 -1.968680e+01 -3.556506e+00 -1.335025e+01 -9.022696e+00 -2.078647e+01 1.486029e+00 -1.236538e+01 -4.255874e+00 -1.670795e+01 6.278493e+00 -1.032520e+01 -2.604058e+00 -1.063897e+01
<VARIANCE> 20
 4.109270e+00 6.879528e-01 3.813750e+01 6.466709e+00 1.163606e+01 2.999333e+00 3.445668e+01 2.829539e+01 6.812697e+00 3.297384e+00 2.613876e+01 5.140925e+01 5.487314e+00 3.287137e+00 2.333535e+01 4.399554e+01 7.968026e+00 3.346238e+00 1.792598e+01 1.406824e+01
<GCONST> 8.269464e+01
<TRANSP> 8
 0.000000e+00 1.000000e+00 0.000000e+00 0.000000e+00 0.000000e+00 0.000000e+00 0.000000e+00 0.000000e+00
 0.000000e+00 3.226094e-01 6.773906e-01 0.000000e+00 0.000000e+00 0.000000e+00 0.000000e+00 0.000000e+00
 0.000000e+00 0.000000e+00 0.000000e+00 1.000000e+00 0.000000e+00 0.000000e+00 0.000000e+00 0.000000e+00
 0.000000e+00 0.000000e+00 0.000000e+00 0.000000e+00 1.000000e+00 0.000000e+00 0.000000e+00 0.000000e+00
 0.000000e+00 0.000000e+00 0.000000e+00 0.000000e+00 6.146954e-01 3.853047e-01 0.000000e+00 0.000000e+00
 0.000000e+00 0.000000e+00 0.000000e+00 0.000000e+00 0.000000e+00 3.941695e-01 6.058305e-01 0.000000e+00
 0.000000e+00 0.000000e+00 0.000000e+00 0.000000e+00 0.000000e+00 0.000000e+00 6.814091e-01 3.185909e-01
 0.000000e+00 0.000000e+00 0.000000e+00 0.000000e+00 0.000000e+00 0.000000e+00 0.000000e+00 0.000000e+00
<ENDHMM>
