~o
<STREAMINFO> 1 20
<VECSIZE> 20<NULLD><USER><DIAGC>
~h "x"
<BEGINHMM>
<NUMSTATES> 8
<STATE> 2
<MEAN> 20
 -7.406234e+00 -1.894682e+00 -1.087290e+01 -9.846510e+00 -8.541230e+00 -1.173586e+01 -1.273117e+01 -1.250559e+01 -4.074404e+00 -1.178551e+01 -8.887766e+00 -1.053000e+01 2.970632e-01 -1.118307e+01 -5.006548e+00 -9.465958e+00 4.925468e+00 -9.999121e+00 -1.078233e+00 -1.027804e+01
<VARIANCE> 20
 3.223448e+00 6.765546e-01 3.140568e+01 6.568350e+00 8.589161e+00 3.630758e+00 1.877186e+01 1.339045e+01 5.641475e+00 3.528203e+00 1.517129e+01 1.658693e+01 3.844804e+00 3.396934e+00 1.148541e+01 1.585576e+01 4.600682e+00 3.541012e+00 1.285680e+01 1.988830e+01
<GCONST> 7.646113e+01
<STATE> 3
<MEAN> 20
 -7.577996e+00 -2.213480e+00 -1.276419e+01 -1.027308e+01 -6.822767e+00 -1.306648e+01 -1.307980e+01 -1.539789e+01 -2.074823e+00 -1.282665e+01 -9.621699e+00 -9.986143e+00 1.890762e+00 -1.162492e+01 -5.662942e+00 -8.500156e+00 5.509204e+00 -9.749530e+00 -2.156253e+00 -8.284200e+00
<VARIANCE> 20
 7.392775e+00 1.135289e+00 4.931420e+01 1.144927e+01 2.712881e+01 5.073411e+00 4.399979e+01 2.007537e+01 1.874790e+01 5.028067e+00 3.360060e+01 2.544961e+01 1.249265e+01 5.303185e+00 2.338311e+01 2.462762e+01 1.286673e+01 6.168644e+00 2.807615e+01 2.530717e+01
<GCONST> 8.971617e+01
<STATE> 4
<MEAN> 20
 -8.949517e+00 -2.696925e+00 -1.722107e+01 -1.230967e+01 -8.301902e+00 -1.457218e+01 -1.677840e+01 -1.714870e+01 -3.419738e+00 -1.436426e+01 -1.249669e+01 -1.080470e+01 5.738997e-01 -1.306655e+01 -8.059621e+00 -8.753848e+00 4.064904e+00 -1.102974e+01 -4.579414e+00 -8.314919e+00
<VARIANCE> 20
 7.533477e+00 2.125277e+00 4.721640e+01 1.221759e+01 2.482419e+01 6.900751e+00 3.575635e+01 2.290946e+01 1.381864e+01 6.925768e+00 2.708930e+01 1.920528e+01 6.570925e+00 7.608315e+00 2.299066e+01 1.761363e+01 1.151537e+01 8.923155e+00 3.732617e+01 2.045130e+01
<GCONST> 8.974146e+01
<STATE> 5
<MEAN> 20
 -8.391244e+00 -1.961855e+00 -1.702175e+01 -1.030593e+01 -1.015644e+01 -1.333998e+01 -1.742887e+01 -1.590345e+01 -5.164310e+00 -1.355140e+01 -1.263718e+01 -1.306703e+01 -5.744617e-01 -1.265329e+01 -7.683028e+00 -1.093074e+01 3.829585e+00 -1.097839e+01 -2.733333e+00 -1.132949e+01
<VARIANCE> 20
 7.457629e+00 2.098279e+00 7.255589e+01 1.118730e+01 3.505614e+01 5.623829e+00 6.261137e+01 2.834987e+01 2.205734e+01 6.205148e+00 4.323263e+01 6.351575e+01 1.192928e+01 7.533735e+00 2.645015e+01 6.456084e+01 1.120180e+01 9.464787e+00 3.382362e+01 6.429195e+01
<GCONST> 9.609900e+01
<STATE> 6
<MEAN> 20
 -6.579461e+00 -2.389251e+00 -1.185500e+01 -1.010094e+01 -6.138855e+00 -1.287424e+01 -1.228326e+01 -1.492550e+01 -2.415687e+00 -1.252462e+01 -9.157457e+00 -9.512053e+00 6.437893e-01 -1.119333e+01 -5.684580e+00 -7.616476e+00 3.336085e+00 -9.240357e+00 -3.099484e+00 -7.281277e+00
<VARIANCE> 20
 2.688857e+01 1.856411e+00 1.509903e+02 1.300710e+01 5.252516e+01 7.179671e+00 1.539386e+02 2.699841e+01 2.467690e+01 8.012486e+00 1.154704e+02 3.536499e+01 1.244778e+01 9.695053e+00 6.414111e+01 3.132075e+01 1.815379e+01 1.235143e+01 4.827496e+01 3.693601e+01
<GCONST> 1.014144e+02
<STATE> 7
<MEAN> 20
 -7.725011e+00 -2.424156e+00 -1.727367e+01 -9.091817e+00 -7.813743e+00 -1.277068e+01 -1.755888e+01 -1.504732e+01 -3.345255e+00 -1.221831e+01 -1.402224e+01 -8.158494e+00 1.634401e-01 -1.049369e+01 -9.122845e+00 -6.274225e+00 2.983204e+00 -8.144238e+00 -5.961367e+00 -5.780855e+00
<VARIANCE> 20
 7.441046e+00 1.753872e+00 7.291292e+01 1.481040e+01 2.288250e+01 5.296353e+00 6.796913e+01 2.009210e+01 1.470829e+01 5.821505e+00 5.849709e+01 3.857861e+01 1.121905e+01 8.504068e+00 3.491274e+01 2.664182e+01 1.773386e+01 1.258339e+01 4.515986e+01 3.343210e+01
<GCONST> 9.462045e+01
<TRANSP> 8
 0.000000e+00 1.000000e+00 0.000000e+00 0.000000e+00 0.000000e+00 0.000000e+00 0.000000e+00 0.000000e+00
 0.000000e+00 7.376124e-01 2.623876e-01 0.000000e+00 0.000000e+00 0.000000e+00 0.000000e+00 0.000000e+00
 0.000000e+00 0.000000e+00 2.181357e-01 7.818643e-01 0.000000e+00 0.000000e+00 0.000000e+00 0.000000e+00
 0.000000e+00 0.000000e+00 0.000000e+00 4.915667e-01 5.084333e-01 0.000000e+00 0.000000e+00 0.000000e+00
 0.000000e+00 0.000000e+00 0.000000e+00 0.000000e+00 3.153618e-01 6.846383e-01 0.000000e+00 0.000000e+00
 0.000000e+00 0.000000e+00 0.000000e+00 0.000000e+00 0.000000e+00 8.140874e-02 9.185913e-01 0.000000e+00
 0.000000e+00 0.000000e+00 0.000000e+00 0.000000e+00 0.000000e+00 0.000000e+00 3.409069e-01 6.590931e-01
 0.000000e+00 0.000000e+00 0.000000e+00 0.000000e+00 0.000000e+00 0.000000e+00 0.000000e+00 0.000000e+00
<ENDHMM>
