~o
<STREAMINFO> 1 20
<VECSIZE> 20<NULLD><USER><DIAGC>
~h "y"
<BEGINHMM>
<NUMSTATES> 8
<STATE> 2
<MEAN> 20
 -7.574284e+00 -2.277323e+00 -1.795481e+01 -1.129812e+01 -9.394355e+00 -1.247680e+01 -1.664317e+01 -1.472235e+01 -4.810872e+00 -1.243613e+01 -1.315386e+01 -1.252946e+01 -3.539265e-01 -1.143148e+01 -7.866940e+00 -9.072656e+00 3.941008e+00 -9.697639e+00 -2.322093e+00 -1.018127e+01
<VARIANCE> 20
 9.822312e+00 2.136121e+00 8.735058e+01 2.171782e+01 2.945101e+01 1.004399e+01 8.523605e+01 5.703318e+01 2.279011e+01 1.192058e+01 9.463317e+01 7.664722e+01 2.589111e+01 1.417481e+01 5.868311e+01 4.402675e+01 4.214972e+01 1.617414e+01 9.789341e+01 5.841874e+01
<GCONST> 1.049603e+02
<STATE> 3
<MEAN> 20
 -6.247252e+00 -2.036731e+00 -1.339810e+01 -1.107023e+01 -6.747564e+00 -1.210597e+01 -1.073945e+01 -1.340529e+01 -2.526365e+00 -1.223998e+01 -7.512311e+00 -1.121795e+01 1.571642e+00 -1.145553e+01 -3.927330e+00 -8.540100e+00 5.548546e+00 -9.948214e+00 1.330674e+00 -1.128528e+01
<VARIANCE> 20
 2.555792e+01 1.443897e+00 1.978573e+02 1.699076e+01 5.545607e+01 8.476116e+00 1.133080e+02 4.737735e+01 2.504953e+01 9.333596e+00 7.835604e+01 5.918503e+01 1.612770e+01 1.015902e+01 3.798302e+01 3.055337e+01 3.011646e+01 1.090662e+01 6.798880e+01 5.890817e+01
<GCONST> 1.033688e+02
<STATE> 4
<MEAN> 20
 -6.921130e+00 -1.727424e+00 -1.410431e+01 -9.784603e+00 -7.954628e+00 -1.116831e+01 -1.134417e+01 -1.363995e+01 -3.064949e+00 -1.133717e+01 -7.864640e+00 -1.213051e+01 1.764763e+00 -1.063725e+01 -3.643639e+00 -8.518990e+00 6.518191e+00 -9.235009e+00 2.399042e+00 -9.981092e+00
<VARIANCE> 20
 4.251992e+00 8.892756e-01 6.380368e+01 1.225708e+01 1.231942e+01 6.295680e+00 2.836770e+01 4.283024e+01 7.872470e+00 6.526726e+00 2.307769e+01 5.941365e+01 6.909764e+00 6.097626e+00 1.488424e+01 2.297389e+01 9.721419e+00 5.491530e+00 3.770078e+01 3.423318e+01
<GCONST> 8.808161e+01
<STATE> 5
<MEAN> 20
 -7.484239e+00 -2.028424e+00 -1.689137e+01 -1.136980e+01 -8.361599e+00 -1.231288e+01 -1.269394e+01 -1.361232e+01 -3.294626e+00 -1.246072e+01 -8.918428e+00 -1.162845e+01 1.698395e+00 -1.169351e+01 -4.658101e+00 -8.824577e+00 6.577199e+00 -1.019295e+01 2.330087e+00 -1.218390e+01
<VARIANCE> 20
 8.710958e+00 1.247048e+00 9.747102e+01 1.561038e+01 2.487062e+01 7.030310e+00 5.158504e+01 4.665328e+01 1.517529e+01 7.284937e+00 3.984780e+01 5.848709e+01 1.273791e+01 7.366057e+00 2.495332e+01 2.791964e+01 1.843439e+01 7.552704e+00 6.068069e+01 5.350746e+01
<GCONST> 9.598901e+01
<STATE> 6
<MEAN> 20
 -8.485616e+00 -2.091013e+00 -2.041784e+01 -1.206300e+01 -1.054512e+01 -1.324393e+01 -1.582766e+01 -1.349255e+01 -5.130919e+00 -1.350833e+01 -1.131924e+01 -1.145024e+01 2.802984e-01 -1.278004e+01 -6.648324e+00 -9.113379e+00 5.572596e+00 -1.126274e+01 1.052270e+00 -1.361336e+01
<VARIANCE> 20
 8.960292e+00 1.229605e+00 9.690827e+01 1.748075e+01 2.693510e+01 8.826140e+00 5.704820e+01 4.913874e+01 1.802166e+01 9.666513e+00 4.578740e+01 5.782743e+01 1.642591e+01 1.004804e+01 3.309510e+01 2.968327e+01 2.282549e+01 1.046534e+01 8.109628e+01 7.080296e+01
<GCONST> 9.917100e+01
<STATE> 7
<MEAN> 20
 -7.940890e+00 -2.385044e+00 -1.893974e+01 -1.288217e+01 -7.637086e+00 -1.269246e+01 -1.164892e+01 -1.140976e+01 -2.120482e+00 -1.265288e+01 -7.460759e+00 -8.918427e+00 3.247600e+00 -1.185349e+01 -3.408631e+00 -8.095560e+00 8.472672e+00 -1.040489e+01 5.559433e+00 -1.458646e+01
<VARIANCE> 20
 3.688703e+00 7.494415e-01 5.640832e+01 9.900605e+00 1.202724e+01 3.387487e+00 2.431273e+01 3.107113e+01 9.200895e+00 3.450932e+00 2.024560e+01 2.389046e+01 8.939745e+00 3.437657e+00 1.344805e+01 1.409061e+01 1.131772e+01 3.693101e+00 4.628664e+01 4.301645e+01
<GCONST> 8.407241e+01
<TRANSP> 8
 0.000000e+00 1.000000e+00 0.000000e+00 0.000000e+00 0.000000e+00 0.000000e+00 0.000000e+00 0.000000e+00
 0.000000e+00 3.023804e-01 6.976196e-01 0.000000e+00 0.000000e+00 0.000000e+00 0.000000e+00 0.000000e+00
 0.000000e+00 0.000000e+00 1.016761e-01 8.983239e-01 0.000000e+00 0.000000e+00 0.000000e+00 0.000000e+00
 0.000000e+00 0.000000e+00 0.000000e+00 5.971149e-01 4.028851e-01 0.000000e+00 0.000000e+00 0.000000e+00
 0.000000e+00 0.000000e+00 0.000000e+00 0.000000e+00 0.000000e+00 1.000000e+00 0.000000e+00 0.000000e+00
 0.000000e+00 0.000000e+00 0.000000e+00 0.000000e+00 0.000000e+00 4.090280e-01 5.909720e-01 0.000000e+00
 0.000000e+00 0.000000e+00 0.000000e+00 0.000000e+00 0.000000e+00 0.000000e+00 6.741205e-01 3.258795e-01
 0.000000e+00 0.000000e+00 0.000000e+00 0.000000e+00 0.000000e+00 0.000000e+00 0.000000e+00 0.000000e+00
<ENDHMM>
