~o
<STREAMINFO> 1 20
<VECSIZE> 20<NULLD><USER><DIAGC>
~h "z"
<BEGINHMM>
<NUMSTATES> 8
<STATE> 2
<MEAN> 20
 -8.310672e+00 -1.875318e+00 -1.593754e+01 -1.223990e+01 -1.115539e+01 -1.278526e+01 -1.493944e+01 -1.331397e+01 -5.643880e+00 -1.314776e+01 -8.595160e+00 -8.932680e+00 -1.043739e-01 -1.268974e+01 -4.070578e+00 -8.102891e+00 5.624598e+00 -1.160218e+01 -2.663501e-02 -1.069502e+01
<VARIANCE> 20
 2.945326e+00 1.472940e+00 2.951494e+01 1.297188e+01 1.190488e+01 8.065136e+00 3.216681e+01 2.159573e+01 1.081073e+01 7.484402e+00 9.070668e+00 2.713941e+01 9.505936e+00 6.684253e+00 6.219836e+00 2.724305e+01 8.066996e+00 6.493433e+00 1.247399e+01 3.996094e+01
<GCONST> 8.463436e+01
<STATE> 3
<MEAN> 20
 -8.104648e+00 -1.753417e+00 -1.366508e+01 -1.130639e+01 -1.112299e+01 -1.271402e+01 -1.455707e+01 -1.611109e+01 -5.634717e+00 -1.321523e+01 -9.409607e+00 -1.226288e+01 -1.868911e-01 -1.278431e+01 -4.910215e+00 -1.165244e+01 5.436032e+00 -1.158880e+01 -1.612144e-01 -1.367864e+01
<VARIANCE> 20
 1.821994e+00 9.029193e-01 3.938938e+01 6.300437e+00 1.237212e+01 3.787601e+00 3.523127e+01 4.272819e+01 9.946623e+00 3.967592e+00 1.107321e+01 6.053532e+01 8.434049e+00 3.814280e+00 8.935595e+00 6.164071e+01 7.330298e+00 3.796227e+00 1.071374e+01 5.677932e+01
<GCONST> 8.363570e+01
<STATE> 4
<MEAN> 20
 -7.897356e+00 -1.660442e+00 -1.508393e+01 -1.140238e+01 -1.073428e+01 -1.195085e+01 -1.441518e+01 -1.365393e+01 -5.187862e+00 -1.245518e+01 -8.260043e+00 -7.261462e+00 3.253645e-01 -1.210181e+01 -3.987362e+00 -6.578558e+00 5.969930e+00 -1.109403e+01 7.446592e-02 -1.071166e+01
<VARIANCE> 20
 3.162905e+00 8.416899e-01 4.251859e+01 6.964324e+00 1.670927e+01 4.067008e+00 6.017245e+01 2.795259e+01 1.540446e+01 4.293870e+00 1.194689e+01 8.751078e+00 1.368357e+01 4.358718e+00 9.312832e+00 1.024320e+01 1.223577e+01 4.975605e+00 1.489512e+01 6.065145e+01
<GCONST> 8.347698e+01
<STATE> 5
<MEAN> 20
 -8.319602e+00 -1.228556e+00 -1.843523e+01 -1.063399e+01 -1.316087e+01 -1.134424e+01 -1.983546e+01 -1.397760e+01 -7.874644e+00 -1.221184e+01 -9.975035e+00 -6.618232e+00 -2.360430e+00 -1.227534e+01 -5.720290e+00 -6.250098e+00 3.471752e+00 -1.166380e+01 -3.061369e+00 -1.115318e+01
<VARIANCE> 20
 2.007343e+00 7.144545e-01 3.834230e+01 6.062314e+00 1.826459e+01 3.281077e+00 1.002869e+02 2.470663e+01 1.846367e+01 2.721959e+00 1.104823e+01 7.081335e+00 1.739458e+01 2.526530e+00 1.048766e+01 7.148064e+00 1.505459e+01 3.292087e+00 2.518513e+01 5.667554e+01
<GCONST> 8.201875e+01
<STATE> 6
<MEAN> 20
 -7.972659e+00 -1.926763e+00 -1.555594e+01 -1.207191e+01 -1.022312e+01 -1.271105e+01 -1.605651e+01 -1.685169e+01 -4.278824e+00 -1.316414e+01 -8.299767e+00 -6.837118e+00 1.606633e+00 -1.253999e+01 -3.654686e+00 -5.765031e+00 7.541840e+00 -1.109866e+01 7.220174e-01 -6.941016e+00
<VARIANCE> 20
 1.629412e+00 8.587365e-01 1.847390e+01 8.205285e+00 6.159614e+00 2.399919e+00 2.450110e+01 2.445930e+01 4.953315e+00 2.545231e+00 4.377995e+00 5.105096e+00 4.448354e+00 2.424538e+00 3.047457e+00 5.693034e+00 4.298470e+00 2.390241e+00 3.981994e+00 1.970072e+01
<GCONST> 6.876870e+01
<STATE> 7
<MEAN> 20
 -6.783429e+00 -1.550448e+00 -1.107688e+01 -9.759532e+00 -8.587769e+00 -1.176989e+01 -1.194671e+01 -1.662570e+01 -2.654230e+00 -1.217536e+01 -6.101766e+00 -6.310884e+00 2.876688e+00 -1.139392e+01 -1.932705e+00 -5.305684e+00 8.211280e+00 -9.822606e+00 2.455413e+00 -6.584879e+00
<VARIANCE> 20
 1.805001e+00 3.205631e-01 1.731076e+01 4.891757e+00 7.079985e+00 4.875288e+00 1.961708e+01 2.238230e+01 4.825551e+00 5.683727e+00 5.430547e+00 3.987037e+00 4.427826e+00 4.809920e+00 3.612512e+00 4.617895e+00 5.198041e+00 3.757949e+00 4.288127e+00 1.638284e+01
<GCONST> 6.975922e+01
<TRANSP> 8
 0.000000e+00 1.000000e+00 0.000000e+00 0.000000e+00 0.000000e+00 0.000000e+00 0.000000e+00 0.000000e+00
 0.000000e+00 1.753540e-01 8.246460e-01 0.000000e+00 0.000000e+00 0.000000e+00 0.000000e+00 0.000000e+00
 0.000000e+00 0.000000e+00 3.431297e-01 6.568703e-01 0.000000e+00 0.000000e+00 0.000000e+00 0.000000e+00
 0.000000e+00 0.000000e+00 0.000000e+00 0.000000e+00 1.000000e+00 0.000000e+00 0.000000e+00 0.000000e+00
 0.000000e+00 0.000000e+00 0.000000e+00 0.000000e+00 4.577392e-01 5.422608e-01 0.000000e+00 0.000000e+00
 0.000000e+00 0.000000e+00 0.000000e+00 0.000000e+00 0.000000e+00 5.483514e-01 4.516486e-01 0.000000e+00
 0.000000e+00 0.000000e+00 0.000000e+00 0.000000e+00 0.000000e+00 0.000000e+00 6.775732e-01 3.224268e-01
 0.000000e+00 0.000000e+00 0.000000e+00 0.000000e+00 0.000000e+00 0.000000e+00 0.000000e+00 0.000000e+00
<ENDHMM>
