~o
<STREAMINFO> 1 20
<VECSIZE> 20<NULLD><USER><DIAGC>
~h "a"
<BEGINHMM>
<NUMSTATES> 5
<STATE> 2
<NUMMIXES> 4
<MIXTURE> 1 3.625526e-01
<MEAN> 20
 -7.109855e+00 -1.640253e+00 -1.281561e+01 -9.535748e+00 -8.781970e+00 -1.105046e+01 -1.281994e+01 -1.420154e+01 -3.949485e+00 -1.129442e+01 -8.823484e+00 -1.303643e+01 9.602875e-01 -1.070889e+01 -4.367754e+00 -9.589280e+00 6.031416e+00 -9.425284e+00 3.071121e-01 -8.953037e+00
<VARIANCE> 20
 7.879821e-01 5.103884e-01 3.937024e+01 6.079187e+00 3.037462e+00 1.314350e+00 7.103842e+00 2.316169e+01 2.239779e+00 1.121793e+00 6.591331e+00 3.273875e+01 2.216845e+00 8.922227e-01 5.452750e+00 1.827376e+01 2.569059e+00 9.441782e-01 7.393828e+00 1.558262e+01
<GCONST> 6.502421e+01
<MIXTURE> 2 2.476858e-01
<MEAN> 20
 -7.662301e+00 -2.921267e+00 -1.472734e+01 -1.429939e+01 -5.677031e+00 -1.365111e+01 -1.126159e+01 -1.246068e+01 -4.720769e-02 -1.338554e+01 -6.550669e+00 -8.582386e+00 5.226681e+00 -1.217822e+01 -2.234443e+00 -6.680935e+00 1.021469e+01 -1.024316e+01 2.670659e+00 -7.601203e+00
<VARIANCE> 20
 1.198243e+00 5.861620e-01 3.625166e+01 6.956449e+00 6.099860e+00 1.808863e+00 7.900290e+00 2.262414e+01 4.569512e+00 1.705295e+00 5.359877e+00 7.575916e+00 2.939481e+00 1.592590e+00 4.755907e+00 3.946612e+00 2.028532e+00 1.675315e+00 9.056322e+00 1.404722e+01
<GCONST> 6.582337e+01
<MIXTURE> 3 1.178121e-01
<MEAN> 20
 -4.721052e+00 -3.252566e+00 -2.043522e+01 -8.197280e+00 -8.996863e+00 -1.066510e+01 -2.588570e+01 -1.147677e+01 -7.415021e+00 -9.207595e+00 -2.351292e+01 -6.937936e+00 -6.334103e+00 -6.791111e+00 -1.380012e+01 -2.787239e+00 -5.702085e+00 -4.017507e+00 -1.219673e+01 -1.502944e+00
<VARIANCE> 20
 2.367561e+01 4.353368e+00 1.595123e+02 3.477646e+01 7.469818e+01 1.164543e+01 2.160317e+02 5.932778e+01 4.863148e+01 1.084237e+01 2.016065e+02 6.706234e+01 3.752079e+01 1.281852e+01 6.730518e+01 2.420189e+01 4.500026e+01 1.606268e+01 6.048954e+01 2.247750e+01
<GCONST> 1.093901e+02
<MIXTURE> 4 2.719495e-01
<MEAN> 20
 -9.290820e+00 -2.119306e+00 -2.195613e+01 -1.209793e+01 -1.171816e+01 -1.396252e+01 -2.099007e+01 -1.756889e+01 -6.591079e+00 -1.438864e+01 -1.740488e+01 -1.659608e+01 -1.461758e+00 -1.368995e+01 -1.202890e+01 -1.344438e+01 3.555448e+00 -1.205209e+01 -6.256962e+00 -1.282131e+01
<VARIANCE> 20
 2.372238e+00 1.651588e+00 5.281960e+01 1.342198e+01 2.060350e+01 3.642093e+00 2.649520e+01 3.866363e+01 1.491663e+01 3.200860e+00 3.201990e+01 5.385593e+01 9.973970e+00 3.098924e+00 3.662725e+01 4.822286e+01 1.066031e+01 3.756188e+00 4.997174e+01 4.099549e+01
<GCONST> 8.947784e+01
<STATE> 3
<NUMMIXES> 4
<MIXTURE> 1 5.673198e-02
<MEAN> 20
 8.088899e+00 -1.765939e+00 1.750605e+01 -1.201905e+01 1.069862e+01 -1.238969e+01 1.569865e+01 -1.449406e+01 5.238976e+00 -1.280430e+01 1.013202e+01 -1.241163e+01 -2.336443e-01 -1.215126e+01 5.030521e+00 -9.042910e+00 -5.704676e+00 -1.070082e+01 7.188070e-01 -8.086683e+00
<VARIANCE> 20
 3.850653e+00 1.231256e+00 7.620224e+01 1.730919e+01 1.790172e+01 6.082159e+00 3.203387e+01 4.444114e+01 1.469475e+01 6.416016e+00 2.050636e+01 5.048396e+01 1.286340e+01 6.648513e+00 1.596764e+01 3.322595e+01 1.336015e+01 7.171473e+00 1.658775e+01 2.760615e+01
<GCONST> 9.035010e+01
<MIXTURE> 2 3.512958e-01
<MEAN> 20
 -8.207272e+00 -2.329248e+00 -1.743403e+01 -1.369804e+01 -9.007225e+00 -1.205972e+01 -1.103239e+01 -8.963573e+00 -3.613041e+00 -1.207502e+01 -6.403403e+00 -7.804646e+00 1.883283e+00 -1.141614e+01 -2.146961e+00 -6.682509e+00 7.610589e+00 -1.014186e+01 2.045993e+00 -6.948335e+00
<VARIANCE> 20
 8.044379e-01 4.364377e-01 2.129080e+01 3.944638e+00 3.202641e+00 1.219380e+00 1.794896e+00 2.312867e+00 2.549825e+00 1.167416e+00 1.260003e+00 2.042049e+00 2.331210e+00 9.732922e-01 1.264723e+00 1.889088e+00 2.248267e+00 8.307643e-01 1.674170e+00 1.208326e+00
<GCONST> 4.798265e+01
<MIXTURE> 3 3.761062e-01
<MEAN> 20
 -8.673708e+00 -1.942396e+00 -1.706126e+01 -1.208043e+01 -1.133255e+01 -1.319066e+01 -1.691391e+01 -1.624453e+01 -5.809953e+00 -1.365763e+01 -1.140269e+01 -1.519256e+01 -1.439602e-01 -1.309679e+01 -5.932699e+00 -1.168410e+01 5.750603e+00 -1.168752e+01 -7.810845e-01 -1.136220e+01
<VARIANCE> 20
 1.063892e+00 8.029453e-01 5.815643e+01 8.252381e+00 5.685117e+00 1.470079e+00 1.525796e+01 3.894967e+01 3.536866e+00 1.235377e+00 1.055431e+01 6.246520e+01 2.636268e+00 9.248195e-01 7.691145e+00 4.232749e+01 2.748416e+00 9.896446e-01 9.460958e+00 3.072896e+01
<GCONST> 7.259966e+01
<MIXTURE> 4 2.158660e-01
<MEAN> 20
 -6.887068e+00 -1.667036e+00 -1.665385e+01 -8.712026e+00 -8.344757e+00 -1.063878e+01 -1.493483e+01 -1.208310e+01 -3.629663e+00 -1.068424e+01 -1.087099e+01 -9.083910e+00 8.079520e-01 -9.763728e+00 -6.282101e+00 -6.196105e+00 4.916549e+00 -8.160981e+00 -1.390805e+00 -6.443209e+00
<VARIANCE> 20
 4.072852e+00 1.849952e+00 6.005601e+01 1.987912e+01 2.206820e+01 8.371610e+00 5.394030e+01 4.194703e+01 1.742520e+01 7.627699e+00 5.666564e+01 4.411920e+01 1.599196e+01 7.287979e+00 3.731804e+01 2.591044e+01 1.962530e+01 7.926988e+00 5.146657e+01 2.966022e+01
<GCONST> 9.552931e+01
<STATE> 4
<NUMMIXES> 4
<MIXTURE> 1 3.480672e-01
<MEAN> 20
 -6.129827e+00 -1.152872e+00 -1.315767e+01 -8.497610e+00 -7.915085e+00 -9.004209e+00 -9.723203e+00 -9.979850e+00 -3.579981e+00 -9.214604e+00 -5.914510e+00 -8.214967e+00 7.650465e-01 -8.842868e+00 -2.234912e+00 -6.333510e+00 5.250461e+00 -7.982022e+00 1.341075e+00 -6.348329e+00
<VARIANCE> 20
 9.044185e-01 3.206862e-01 2.675717e+01 5.652284e+00 2.919436e+00 1.219295e+00 3.941639e+00 1.378963e+01 1.739705e+00 1.114336e+00 2.292144e+00 1.317430e+01 1.453150e+00 9.487961e-01 1.508677e+00 7.225552e+00 1.898926e+00 8.522624e-01 2.176937e+00 5.178100e+00
<GCONST> 5.548737e+01
<MIXTURE> 2 3.650190e-01
<MEAN> 20
 -7.846854e+00 -2.478630e+00 -1.319581e+01 -1.280517e+01 -7.875620e+00 -1.313051e+01 -1.328007e+01 -1.603792e+01 -2.412462e+00 -1.319689e+01 -8.491695e+00 -1.382153e+01 2.994859e+00 -1.226234e+01 -4.216031e+00 -9.188773e+00 8.357141e+00 -1.049630e+01 1.572376e-01 -8.107041e+00
<VARIANCE> 20
 6.712927e-01 5.599569e-01 4.342539e+01 5.913008e+00 3.622353e+00 1.291715e+00 9.802514e+00 3.731819e+01 3.209608e+00 1.164054e+00 1.068361e+01 5.371373e+01 3.112922e+00 8.836387e-01 6.915285e+00 2.199866e+01 3.028271e+00 8.902177e-01 6.630673e+00 1.068024e+01
<GCONST> 6.773132e+01
<MIXTURE> 3 6.859949e-02
<MEAN> 20
 -4.362714e+00 -2.109969e+00 -1.293951e+01 -8.295806e+00 -5.763686e+00 -1.062657e+01 -1.330281e+01 -1.150743e+01 -3.422293e+00 -1.030561e+01 -1.146041e+01 -8.377399e+00 -1.340809e+00 -8.885772e+00 -6.985760e+00 -5.981008e+00 4.122267e-01 -6.806831e+00 -4.168248e+00 -5.131333e+00
<VARIANCE> 20
 5.074868e+01 3.088370e+00 3.931788e+02 3.721151e+01 1.702336e+02 1.913257e+01 4.451665e+02 8.395106e+01 1.074768e+02 2.464424e+01 3.192055e+02 1.258158e+02 7.352070e+01 3.029162e+01 1.610686e+02 9.561577e+01 7.232407e+01 3.399505e+01 1.360346e+02 7.745790e+01
<GCONST> 1.229233e+02
<MIXTURE> 4 2.183143e-01
<MEAN> 20
 -1.052061e+01 -2.438608e+00 -2.363619e+01 -1.651518e+01 -1.357697e+01 -1.617089e+01 -1.974941e+01 -1.532848e+01 -6.908860e+00 -1.666874e+01 -1.341257e+01 -1.221491e+01 -1.675490e-01 -1.595578e+01 -6.749706e+00 -8.858484e+00 6.585587e+00 -1.431057e+01 -1.217996e+00 -1.034154e+01
<VARIANCE> 20
 2.028313e+00 1.482558e+00 4.937529e+01 1.361985e+01 1.029799e+01 5.023513e+00 2.058486e+01 5.048903e+01 8.510528e+00 4.571807e+00 1.940034e+01 5.019267e+01 7.885725e+00 3.741580e+00 1.156489e+01 2.055611e+01 8.707354e+00 3.256984e+00 1.435710e+01 2.987820e+01
<GCONST> 8.406630e+01
<TRANSP> 5
 0.000000e+00 1.000000e+00 0.000000e+00 0.000000e+00 0.000000e+00
 0.000000e+00 7.446003e-01 2.553997e-01 0.000000e+00 0.000000e+00
 0.000000e+00 0.000000e+00 7.122313e-01 2.877686e-01 0.000000e+00
 0.000000e+00 0.000000e+00 0.000000e+00 7.115019e-01 2.884981e-01
 0.000000e+00 0.000000e+00 0.000000e+00 0.000000e+00 0.000000e+00
<ENDHMM>
