~o
<STREAMINFO> 1 20
<VECSIZE> 20<NULLD><USER><DIAGC>
~h "b"
<BEGINHMM>
<NUMSTATES> 5
<STATE> 2
<NUMMIXES> 4
<MIXTURE> 1 3.657612e-01
<MEAN> 20
 -6.016814e+00 -1.197093e+00 -1.059714e+01 -8.037744e+00 -7.995641e+00 -9.751352e+00 -1.049540e+01 -1.402136e+01 -3.687562e+00 -1.003253e+01 -6.813189e+00 -1.310103e+01 6.143427e-01 -9.630196e+00 -2.748263e+00 -1.161643e+01 5.083428e+00 -8.633591e+00 1.654977e+00 -1.113788e+01
<VARIANCE> 20
 4.906275e-01 3.145800e-01 2.263885e+01 3.794517e+00 2.008700e+00 8.215787e-01 4.318511e+00 1.941487e+01 1.176425e+00 7.362048e-01 3.551877e+00 2.701680e+01 1.189441e+00 5.997379e-01 3.056149e+00 2.586478e+01 1.789022e+00 5.721468e-01 5.038269e+00 1.784775e+01
<GCONST> 5.724676e+01
<MIXTURE> 2 6.380291e-02
<MEAN> 20
 -5.152496e+00 -1.760477e+00 -7.199330e+00 -1.292824e+01 -6.037986e+00 -1.555309e+01 -7.193882e+00 -2.787338e+01 -2.492034e+00 -1.618384e+01 -4.546294e+00 -2.955793e+01 9.227955e-01 -1.531089e+01 -1.229255e+00 -2.745227e+01 4.585400e+00 -1.321351e+01 3.259624e+00 -2.325036e+01
<VARIANCE> 20
 6.256689e+01 1.783733e+00 2.384933e+02 1.150671e+01 1.575623e+02 4.631983e+00 2.833879e+02 2.601759e+01 5.474047e+01 4.777324e+00 1.718102e+02 4.022240e+01 1.095082e+01 4.694160e+00 7.255601e+01 5.367299e+01 3.121552e+01 4.324098e+00 4.094991e+01 4.019331e+01
<GCONST> 1.038136e+02
<MIXTURE> 3 3.840809e-01
<MEAN> 20
 -7.751344e+00 -1.960938e+00 -1.058736e+01 -1.049898e+01 -9.699980e+00 -1.245925e+01 -1.396132e+01 -1.613112e+01 -4.699755e+00 -1.268803e+01 -9.735806e+00 -1.537212e+01 3.592021e-01 -1.206031e+01 -5.359934e+00 -1.241220e+01 5.736954e+00 -1.070045e+01 -4.113943e-01 -1.185145e+01
<VARIANCE> 20
 6.545247e-01 5.198318e-01 2.938839e+01 4.509899e+00 3.048124e+00 1.109531e+00 4.867311e+00 3.057581e+01 2.265853e+00 9.942364e-01 4.916106e+00 4.276004e+01 2.371314e+00 7.801731e-01 4.393275e+00 2.609531e+01 2.675850e+00 8.809057e-01 5.938364e+00 1.980762e+01
<GCONST> 6.392983e+01
<MIXTURE> 4 1.863550e-01
<MEAN> 20
 -8.336173e+00 -1.970670e+00 -2.141717e+01 -1.041701e+01 -1.055141e+01 -1.236799e+01 -2.126218e+01 -1.313877e+01 -6.063974e+00 -1.238306e+01 -1.759706e+01 -9.393991e+00 -1.815675e+00 -1.136417e+01 -1.307891e+01 -7.675884e+00 2.127280e+00 -9.592207e+00 -7.525267e+00 -8.280018e+00
<VARIANCE> 20
 7.302567e+00 2.334946e+00 6.004499e+01 2.087497e+01 4.127269e+01 5.912263e+00 6.802635e+01 3.662441e+01 2.938997e+01 6.312611e+00 6.581911e+01 3.320567e+01 2.053815e+01 8.250409e+00 5.602032e+01 2.739231e+01 2.290698e+01 1.097559e+01 7.519700e+01 3.587149e+01
<GCONST> 9.885377e+01
<STATE> 3
<NUMMIXES> 4
<MIXTURE> 1 2.335187e-01
<MEAN> 20
 -5.396243e+00 -1.359569e+00 -9.235244e+00 -8.085958e+00 -6.040596e+00 -9.580559e+00 -9.071475e+00 -1.286656e+01 -2.497009e+00 -9.696362e+00 -6.023556e+00 -1.176259e+01 9.212687e-01 -9.109529e+00 -3.035591e+00 -1.028445e+01 4.388969e+00 -7.946809e+00 8.957561e-01 -1.004955e+01
<VARIANCE> 20
 8.848965e+00 5.697014e-01 5.820747e+01 6.986069e+00 1.991612e+01 3.847220e+00 4.936140e+01 2.860930e+01 8.096288e+00 3.768364e+00 3.083261e+01 3.749549e+01 4.647875e+00 3.226959e+00 2.056748e+01 3.206395e+01 1.010421e+01 2.847650e+00 2.401898e+01 2.330938e+01
<GCONST> 8.533229e+01
<MIXTURE> 2 2.883241e-01
<MEAN> 20
 -7.505263e+00 -2.096376e+00 -5.745177e+00 -1.009530e+01 -9.346017e+00 -1.360617e+01 -1.168716e+01 -2.445750e+01 -4.154094e+00 -1.393446e+01 -7.649920e+00 -2.618224e+01 8.002979e-01 -1.301792e+01 -2.705273e+00 -2.463150e+01 6.019229e+00 -1.110477e+01 3.227057e+00 -2.044934e+01
<VARIANCE> 20
 3.004690e-01 3.439330e-01 1.623060e+01 2.262555e+00 1.839357e+00 1.122239e+00 4.026584e+00 3.757686e+00 1.451203e+00 1.056859e+00 4.230606e+00 4.779681e+00 1.489767e+00 9.649744e-01 3.962082e+00 3.933074e+00 1.818108e+00 9.342624e-01 5.069308e+00 2.885560e+00
<GCONST> 5.128898e+01
<MIXTURE> 3 2.065131e-01
<MEAN> 20
 -9.455048e+00 -2.605651e+00 -1.945378e+01 -1.484028e+01 -1.089131e+01 -1.444922e+01 -1.559924e+01 -1.224378e+01 -5.051793e+00 -1.461799e+01 -9.704674e+00 -9.468050e+00 8.271209e-01 -1.396291e+01 -4.602295e+00 -8.460375e+00 6.821309e+00 -1.259020e+01 9.857584e-01 -1.002206e+01
<VARIANCE> 20
 1.030924e+00 1.102746e+00 4.011201e+01 1.161378e+01 9.789954e+00 2.038041e+00 1.185682e+01 1.345686e+01 8.027657e+00 1.891296e+00 5.818344e+00 7.046824e+00 7.422276e+00 1.654947e+00 4.909359e+00 7.824600e+00 8.229646e+00 1.724761e+00 1.878189e+01 1.815031e+01
<GCONST> 7.217025e+01
<MIXTURE> 4 2.716442e-01
<MEAN> 20
 -9.316518e+00 -1.497311e+00 -1.345025e+01 -1.223847e+01 -1.348983e+01 -1.469610e+01 -1.794862e+01 -2.626683e+01 -7.615491e+00 -1.543989e+01 -1.355683e+01 -2.806285e+01 -1.587707e+00 -1.475304e+01 -7.904044e+00 -2.509155e+01 4.958083e+00 -1.292553e+01 1.103708e-01 -2.112518e+01
<VARIANCE> 20
 1.196400e+00 9.711717e-01 4.873336e+01 6.016083e+00 5.421809e+00 2.380296e+00 1.386719e+01 1.843581e+01 4.601238e+00 2.150794e+00 1.527080e+01 2.589635e+01 4.565258e+00 1.933631e+00 1.464436e+01 4.434350e+01 5.345190e+00 1.998116e+00 1.997831e+01 3.161830e+01
<GCONST> 7.643278e+01
<STATE> 4
<NUMMIXES> 4
<MIXTURE> 1 6.523407e-02
<MEAN> 20
 6.731601e+00 -1.524631e+00 1.179491e+01 -1.044556e+01 9.389344e+00 -1.204273e+01 1.253040e+01 -2.005751e+01 4.514805e+00 -1.239295e+01 8.693841e+00 -1.916919e+01 -3.502084e-01 -1.166959e+01 3.543763e+00 -1.445623e+01 -5.207998e+00 -1.010468e+01 -8.886604e-01 -1.206598e+01
<VARIANCE> 20
 1.398651e+01 1.257646e+00 9.727592e+01 1.106555e+01 3.542453e+01 5.040158e+00 8.722495e+01 4.883982e+01 1.422841e+01 5.888391e+00 5.944811e+01 6.516831e+01 6.083644e+00 6.003595e+00 2.442458e+01 6.791855e+01 1.100528e+01 5.446136e+00 1.905780e+01 5.527260e+01
<GCONST> 9.490334e+01
<MIXTURE> 2 2.409824e-01
<MEAN> 20
 -7.723233e+00 -1.625400e+00 -7.700898e+00 -9.325298e+00 -1.151889e+01 -1.284844e+01 -1.578050e+01 -2.347451e+01 -6.488874e+00 -1.346494e+01 -1.212109e+01 -2.537860e+01 -1.442037e+00 -1.284151e+01 -6.901704e+00 -2.410382e+01 4.066491e+00 -1.125168e+01 -6.465895e-02 -2.031277e+01
<VARIANCE> 20
 3.322987e-01 3.775470e-01 2.107252e+01 2.937087e+00 1.450424e+00 8.921531e-01 4.350756e+00 1.953155e+00 1.077212e+00 8.599582e-01 5.305496e+00 2.568314e+00 9.301614e-01 8.577980e-01 5.275105e+00 2.434114e+00 1.043178e+00 8.940121e-01 5.237401e+00 2.334070e+00
<GCONST> 4.850065e+01
<MIXTURE> 3 4.481965e-01
<MEAN> 20
 -7.133197e+00 -2.185093e+00 -1.185534e+01 -1.142983e+01 -7.275985e+00 -1.214678e+01 -1.043564e+01 -1.550337e+01 -2.140865e+00 -1.212046e+01 -6.471273e+00 -1.332148e+01 2.876184e+00 -1.122817e+01 -2.460366e+00 -1.049153e+01 7.945489e+00 -9.629601e+00 3.016364e+00 -1.071401e+01
<VARIANCE> 20
 9.764347e-01 7.309952e-01 4.238603e+01 8.093181e+00 3.250147e+00 2.357415e+00 5.212114e+00 4.019379e+01 3.065544e+00 2.098775e+00 5.654800e+00 4.797189e+01 3.508758e+00 1.623968e+00 5.412087e+00 3.258574e+01 4.008118e+00 1.392371e+00 1.154412e+01 2.697773e+01
<GCONST> 7.147701e+01
<MIXTURE> 4 2.455871e-01
<MEAN> 20
 -9.947530e+00 -1.811802e+00 -2.091062e+01 -1.349023e+01 -1.389537e+01 -1.446798e+01 -2.064190e+01 -2.004285e+01 -7.972123e+00 -1.509239e+01 -1.604363e+01 -1.734858e+01 -1.884032e+00 -1.451213e+01 -1.024299e+01 -1.408304e+01 4.330709e+00 -1.297755e+01 -3.310880e+00 -1.383284e+01
<VARIANCE> 20
 3.115919e+00 1.741383e+00 5.854065e+01 1.763615e+01 1.400135e+01 6.818370e+00 3.287950e+01 5.443758e+01 9.564042e+00 7.078025e+00 2.517127e+01 8.222969e+01 7.919429e+00 6.589595e+00 2.321839e+01 7.534190e+01 9.505244e+00 5.990355e+00 3.059678e+01 5.596426e+01
<GCONST> 9.219672e+01
<TRANSP> 5
 0.000000e+00 1.000000e+00 0.000000e+00 0.000000e+00 0.000000e+00
 0.000000e+00 7.605812e-01 2.394188e-01 0.000000e+00 0.000000e+00
 0.000000e+00 0.000000e+00 6.989675e-01 3.010326e-01 0.000000e+00
 0.000000e+00 0.000000e+00 0.000000e+00 7.091328e-01 2.908672e-01
 0.000000e+00 0.000000e+00 0.000000e+00 0.000000e+00 0.000000e+00
<ENDHMM>
