~o
<STREAMINFO> 1 20
<VECSIZE> 20<NULLD><USER><DIAGC>
~h "d"
<BEGINHMM>
<NUMSTATES> 8
<STATE> 2
<MEAN> 20
 -7.149335e+00 -1.881626e+00 -1.424244e+01 -1.015887e+01 -8.558642e+00 -1.218091e+01 -1.418307e+01 -1.601406e+01 -3.910722e+00 -1.224281e+01 -1.098359e+01 -1.236850e+01 6.167392e-01 -1.137385e+01 -6.666028e+00 -9.457945e+00 5.087649e+00 -9.752285e+00 -1.989602e+00 -9.469595e+00
<VARIANCE> 20
 8.033010e+00 1.383773e+00 6.832566e+01 1.294644e+01 2.352902e+01 5.992234e+00 5.716766e+01 4.738906e+01 1.416908e+01 6.207959e+00 5.215174e+01 4.201897e+01 1.118611e+01 6.374671e+00 3.932826e+01 2.808215e+01 1.701721e+01 6.724312e+00 4.076072e+01 2.929631e+01
<GCONST> 9.407250e+01
<STATE> 3
<NUMMIXES> 4
<MIXTURE> 1 2.787544e-01
<MEAN> 20
 -5.618495e+00 -8.864737e-01 -1.066218e+01 -7.027495e+00 -8.069725e+00 -9.125568e+00 -1.014597e+01 -1.319605e+01 -3.756298e+00 -9.345565e+00 -6.423783e+00 -1.045257e+01 5.355048e-01 -8.979447e+00 -2.565332e+00 -8.586890e+00 4.933823e+00 -8.085828e+00 1.594394e+00 -8.646617e+00
<VARIANCE> 20
 6.089268e-01 2.499516e-01 1.693572e+01 4.220851e+00 1.218673e+00 7.944534e-01 2.795875e+00 1.734834e+01 7.345154e-01 6.932363e-01 2.936368e+00 1.284940e+01 6.380551e-01 5.980187e-01 2.846927e+00 8.949192e+00 8.764701e-01 6.089414e-01 3.423473e+00 9.556870e+00
<GCONST> 5.108368e+01
<MIXTURE> 2 3.716725e-01
<MEAN> 20
 -7.827590e+00 -2.181755e+00 -1.129143e+01 -1.084893e+01 -8.775281e+00 -1.219772e+01 -1.251867e+01 -1.326856e+01 -3.902770e+00 -1.228738e+01 -8.484468e+00 -1.164042e+01 1.045883e+00 -1.166727e+01 -4.459980e+00 -9.654560e+00 6.304670e+00 -1.040625e+01 5.744219e-02 -1.050920e+01
<VARIANCE> 20
 5.083407e-01 4.386098e-01 3.448043e+01 5.860816e+00 2.793311e+00 8.002111e-01 3.264233e+00 2.400265e+01 2.547972e+00 6.055984e-01 2.291038e+00 1.831510e+01 2.948242e+00 4.604762e-01 2.422200e+00 9.986696e+00 3.266919e+00 6.082748e-01 3.944543e+00 1.502857e+01
<GCONST> 5.816216e+01
<MIXTURE> 3 9.844299e-02
<MEAN> 20
 -4.668670e+00 -1.981699e+00 -1.280863e+01 -8.018430e+00 -5.640463e+00 -1.100677e+01 -1.346567e+01 -1.391327e+01 -2.669236e+00 -1.056086e+01 -1.200578e+01 -8.648529e+00 -2.047519e-01 -9.013080e+00 -7.442046e+00 -5.131536e+00 1.785837e+00 -6.778863e+00 -4.571682e+00 -4.583125e+00
<VARIANCE> 20
 2.770316e+01 2.621491e+00 1.547353e+02 1.900710e+01 7.218771e+01 8.471349e+00 1.901974e+02 6.378107e+01 4.610432e+01 7.631258e+00 1.604298e+02 5.792161e+01 4.128832e+01 7.965857e+00 1.005928e+02 3.409577e+01 5.771322e+01 9.113234e+00 8.454899e+01 2.840115e+01
<GCONST> 1.078339e+02
<MIXTURE> 4 2.511301e-01
<MEAN> 20
 -9.199789e+00 -2.138395e+00 -1.987064e+01 -1.291001e+01 -1.171347e+01 -1.478732e+01 -1.964181e+01 -2.070426e+01 -6.139246e+00 -1.513815e+01 -1.631423e+01 -1.624351e+01 -5.785785e-01 -1.433010e+01 -1.091633e+01 -1.241430e+01 4.924287e+00 -1.252819e+01 -4.961621e+00 -1.266383e+01
<VARIANCE> 20
 1.669829e+00 1.364263e+00 3.151274e+01 9.931235e+00 1.691550e+01 2.682423e+00 2.698406e+01 5.297395e+01 1.150112e+01 2.699963e+00 2.607312e+01 4.965104e+01 8.386857e+00 2.684252e+00 2.654180e+01 3.067752e+01 1.118899e+01 3.060305e+00 4.074266e+01 3.697480e+01
<GCONST> 8.567584e+01
<STATE> 4
<NUMMIXES> 4
<MIXTURE> 1 3.337416e-01
<MEAN> 20
 -6.291151e+00 -1.549390e+00 -1.094470e+01 -9.281363e+00 -7.230752e+00 -1.066808e+01 -1.060712e+01 -1.440301e+01 -2.521393e+00 -1.066493e+01 -7.245983e+00 -1.055174e+01 2.114148e+00 -9.914002e+00 -3.497036e+00 -7.863974e+00 6.760282e+00 -8.518699e+00 1.131500e+00 -8.069105e+00
<VARIANCE> 20
 7.808307e-01 4.912245e-01 1.817673e+01 7.231056e+00 3.871197e+00 1.669880e+00 7.295614e+00 3.191443e+01 3.353224e+00 1.296687e+00 5.031136e+00 1.859128e+01 3.712945e+00 9.145117e-01 4.818803e+00 1.044187e+01 4.259162e+00 9.978905e-01 7.567844e+00 1.324683e+01
<GCONST> 6.519798e+01
<MIXTURE> 2 3.239437e-01
<MEAN> 20
 -7.768485e+00 -2.583182e+00 -1.340954e+01 -1.261341e+01 -6.902460e+00 -1.396977e+01 -1.249319e+01 -1.772485e+01 -1.365359e+00 -1.382025e+01 -9.124588e+00 -1.320426e+01 3.922150e+00 -1.262972e+01 -5.070690e+00 -8.705845e+00 8.942116e+00 -1.060001e+01 5.931522e-02 -8.940854e+00
<VARIANCE> 20
 6.156812e-01 5.245821e-01 4.422985e+01 5.057091e+00 3.915920e+00 8.405939e-01 1.048407e+01 4.885691e+01 3.057705e+00 7.182693e-01 1.074699e+01 3.722725e+01 2.711230e+00 6.434321e-01 8.267044e+00 1.240209e+01 2.776658e+00 9.607257e-01 1.201684e+01 1.731467e+01
<GCONST> 6.675179e+01
<MIXTURE> 3 5.572566e-02
<MEAN> 20
 3.432177e-02 -2.088901e+00 -6.615905e-01 -5.136671e+00 8.653615e-01 -9.134167e+00 -4.814440e-01 -7.559573e+00 7.179917e-01 -8.111899e+00 -4.369698e-01 -4.041445e+00 3.907800e-01 -6.200990e+00 5.024736e-01 -1.466342e+00 5.921568e-02 -3.807514e+00 4.261844e-01 -1.252366e+00
<VARIANCE> 20
 6.129478e+01 5.934975e+00 5.294618e+02 5.811053e+01 2.265009e+02 2.943034e+01 6.956044e+02 1.111980e+02 1.644826e+02 3.331224e+01 5.442469e+02 1.047936e+02 1.211429e+02 3.789398e+01 2.906290e+02 7.777903e+01 1.049255e+02 4.102506e+01 1.881015e+02 9.020004e+01
<GCONST> 1.291734e+02
<MIXTURE> 4 2.865891e-01
<MEAN> 20
 -8.532889e+00 -1.522914e+00 -1.979446e+01 -1.044387e+01 -1.180354e+01 -1.282770e+01 -1.982114e+01 -1.900123e+01 -6.774599e+00 -1.324643e+01 -1.681378e+01 -1.442018e+01 -1.647124e+00 -1.262875e+01 -1.160539e+01 -1.103595e+01 3.507401e+00 -1.111755e+01 -6.198448e+00 -1.115998e+01
<VARIANCE> 20
 1.279809e+00 1.172442e+00 3.108173e+01 7.112418e+00 1.026012e+01 2.115091e+00 1.999345e+01 4.317698e+01 6.792809e+00 1.707647e+00 2.060367e+01 4.025392e+01 4.728527e+00 1.550008e+00 2.061602e+01 2.856498e+01 6.889132e+00 2.101117e+00 2.616235e+01 3.401727e+01
<GCONST> 7.940527e+01
<STATE> 5
<NUMMIXES> 4
<MIXTURE> 1 2.831541e-01
<MEAN> 20
 -5.386252e+00 -1.209262e+00 -1.125631e+01 -7.187330e+00 -6.578368e+00 -9.647558e+00 -1.037119e+01 -1.391895e+01 -2.381374e+00 -9.630328e+00 -7.539083e+00 -8.700199e+00 1.592227e+00 -8.807293e+00 -4.022086e+00 -6.733276e+00 5.389702e+00 -7.375462e+00 3.109157e-02 -6.593678e+00
<VARIANCE> 20
 5.340714e+00 6.590304e-01 4.213998e+01 9.912560e+00 1.447773e+01 3.237426e+00 3.463117e+01 2.939909e+01 7.067164e+00 2.893667e+00 2.700966e+01 1.924941e+01 5.616204e+00 2.450468e+00 1.906150e+01 1.528239e+01 9.711749e+00 2.491500e+00 1.796294e+01 1.457040e+01
<GCONST> 8.114532e+01
<MIXTURE> 2 3.697730e-01
<MEAN> 20
 -8.398396e+00 -2.108221e+00 -1.530675e+01 -1.181364e+01 -1.021715e+01 -1.375547e+01 -1.529440e+01 -1.876486e+01 -4.636156e+00 -1.394281e+01 -1.109234e+01 -1.527410e+01 9.928189e-01 -1.313146e+01 -6.433949e+00 -1.117943e+01 6.720378e+00 -1.146133e+01 -9.838184e-01 -1.163553e+01
<VARIANCE> 20
 1.094423e+00 7.912528e-01 3.999269e+01 7.531794e+00 6.241361e+00 1.759210e+00 1.250267e+01 5.215873e+01 4.577710e+00 1.532478e+00 8.671651e+00 4.842777e+01 4.135901e+00 1.247162e+00 6.612020e+00 2.122384e+01 4.329882e+00 1.395165e+00 1.038171e+01 2.533065e+01
<GCONST> 7.314120e+01
<MIXTURE> 3 2.389486e-01
<MEAN> 20
 -7.338491e+00 -2.580725e+00 -1.750309e+01 -1.128244e+01 -6.388792e+00 -1.302342e+01 -1.395154e+01 -2.169653e+01 -2.518722e+00 -1.278733e+01 -1.634871e+01 -1.400006e+01 9.847009e-01 -1.176365e+01 -1.361798e+01 -1.271735e+01 4.137589e+00 -9.958457e+00 -9.292739e+00 -1.231841e+01
<VARIANCE> 20
 5.225813e-01 5.421361e-01 7.782816e+00 2.448234e+00 6.601346e+00 7.746662e-01 1.331004e+01 1.588024e+01 5.544561e+00 6.434624e-01 5.486672e+00 4.231304e+00 3.975883e+00 5.984541e-01 6.706118e+00 4.998455e+00 4.098834e+00 8.971438e-01 1.015435e+01 6.084944e+00
<GCONST> 5.965078e+01
<MIXTURE> 4 1.081243e-01
<MEAN> 20
 -7.825297e+00 -2.510131e+00 -2.419691e+01 -9.099810e+00 -1.197647e+01 -1.241163e+01 -2.678713e+01 -1.494958e+01 -8.750397e+00 -1.173089e+01 -2.499609e+01 -9.057929e+00 -6.025279e+00 -9.904729e+00 -1.710883e+01 -5.499007e+00 -3.745120e+00 -7.398975e+00 -1.363283e+01 -4.895656e+00
<VARIANCE> 20
 2.317679e+01 4.227530e+00 1.088389e+02 2.743171e+01 7.179121e+01 1.283204e+01 1.478891e+02 9.498774e+01 4.855828e+01 1.495931e+01 1.246123e+02 7.647388e+01 3.416445e+01 2.033394e+01 8.371964e+01 5.024331e+01 4.037700e+01 2.599235e+01 7.344319e+01 5.851509e+01
<GCONST> 1.116797e+02
<STATE> 6
<NUMMIXES> 4
<MIXTURE> 1 9.968454e-02
<MEAN> 20
 -1.224359e+00 -2.007208e+00 -1.263017e+00 -1.091177e+01 6.434460e-01 -1.239703e+01 -3.806232e-01 -1.692848e+01 1.932876e+00 -1.233296e+01 7.989859e-01 -1.205597e+01 2.871714e+00 -1.124728e+01 1.149360e+00 -8.322927e+00 3.481593e+00 -9.365803e+00 1.928012e+00 -7.777587e+00
<VARIANCE> 20
 4.942018e+01 1.259007e+00 1.822591e+02 1.382922e+01 6.965802e+01 8.123249e+00 1.765060e+02 5.495703e+01 1.867110e+01 8.841906e+00 1.227122e+02 4.885800e+01 1.739483e+01 8.728168e+00 5.252247e+01 2.659689e+01 6.055959e+01 8.062710e+00 2.210763e+01 2.190234e+01
<GCONST> 1.026821e+02
<MIXTURE> 2 4.700316e-01
<MEAN> 20
 -6.590826e+00 -1.336573e+00 -1.233988e+01 -8.558392e+00 -8.818773e+00 -1.093947e+01 -1.260155e+01 -1.662193e+01 -4.118328e+00 -1.107910e+01 -9.181234e+00 -1.237214e+01 5.532520e-01 -1.046903e+01 -5.061034e+00 -1.024547e+01 5.332511e+00 -9.187392e+00 -4.265599e-01 -1.022465e+01
<VARIANCE> 20
 8.299094e-01 5.092986e-01 1.784230e+01 5.587119e+00 2.868145e+00 1.725461e+00 6.214653e+00 2.906105e+01 1.822167e+00 1.399538e+00 7.743330e+00 2.068607e+01 1.738357e+00 1.018184e+00 9.896695e+00 1.073379e+01 2.389206e+00 1.004844e+00 1.248672e+01 1.201715e+01
<GCONST> 6.442970e+01
<MIXTURE> 3 2.157729e-01
<MEAN> 20
 -9.273197e+00 -1.720678e+00 -2.150311e+01 -1.112607e+01 -1.340114e+01 -1.382828e+01 -2.147817e+01 -1.847717e+01 -7.521746e+00 -1.422471e+01 -1.705688e+01 -1.400807e+01 -1.598147e+00 -1.331734e+01 -1.112619e+01 -1.002859e+01 4.214297e+00 -1.141769e+01 -4.899000e+00 -1.055478e+01
<VARIANCE> 20
 2.801430e+00 2.484297e+00 4.336781e+01 3.165708e+01 1.630168e+01 1.156845e+01 4.075328e+01 9.316743e+01 1.397619e+01 1.224763e+01 4.091724e+01 1.053724e+02 1.389929e+01 1.337261e+01 3.526596e+01 6.383833e+01 1.877865e+01 1.473797e+01 4.248692e+01 7.283257e+01
<GCONST> 9.952039e+01
<MIXTURE> 4 2.145110e-01
<MEAN> 20
 -9.352443e+00 -3.430194e+00 -2.231058e+01 -1.170156e+01 -5.644034e+00 -1.442959e+01 -1.599968e+01 -2.360329e+01 -2.319063e+00 -1.402991e+01 -2.123525e+01 -1.465485e+01 -3.569601e-01 -1.266122e+01 -1.982741e+01 -1.306239e+01 3.659192e-01 -1.048233e+01 -1.662363e+01 -1.289834e+01
<VARIANCE> 20
 1.568021e+00 5.836636e-01 9.014153e+00 2.228646e+00 5.683483e+00 8.642102e-01 2.149406e+01 1.432402e+01 4.892151e+00 8.127261e-01 9.244717e+00 4.427486e+00 3.504551e+00 9.608727e-01 1.032005e+01 3.474155e+00 5.938937e+00 1.521417e+00 1.398685e+01 3.897423e+00
<GCONST> 6.307581e+01
<STATE> 7
<MEAN> 20
 -7.137185e+00 -1.861510e+00 -1.474941e+01 -9.924535e+00 -8.272371e+00 -1.221733e+01 -1.397182e+01 -1.775636e+01 -3.728189e+00 -1.224795e+01 -1.190922e+01 -1.253347e+01 5.638904e-01 -1.134406e+01 -7.995769e+00 -9.723837e+00 4.665741e+00 -9.678094e+00 -3.594382e+00 -9.772862e+00
<VARIANCE> 20
 8.359953e+00 1.417230e+00 7.350219e+01 1.455141e+01 2.616603e+01 6.856495e+00 6.169260e+01 5.498740e+01 1.580470e+01 6.923347e+00 6.021087e+01 4.512983e+01 1.139536e+01 6.724371e+00 5.086848e+01 2.704944e+01 1.679692e+01 6.727201e+00 5.268395e+01 3.016221e+01
<GCONST> 9.579034e+01
<TRANSP> 8
 0.000000e+00 1.000000e+00 0.000000e+00 0.000000e+00 0.000000e+00 0.000000e+00 0.000000e+00 0.000000e+00
 0.000000e+00 3.296703e-02 9.670330e-01 0.000000e+00 0.000000e+00 0.000000e+00 0.000000e+00 0.000000e+00
 0.000000e+00 0.000000e+00 6.022099e-01 3.977900e-01 0.000000e+00 0.000000e+00 0.000000e+00 0.000000e+00
 0.000000e+00 0.000000e+00 0.000000e+00 5.150031e-01 4.849969e-01 0.000000e+00 0.000000e+00 0.000000e+00
 0.000000e+00 0.000000e+00 0.000000e+00 0.000000e+00 5.268817e-01 4.731183e-01 0.000000e+00 0.000000e+00
 0.000000e+00 0.000000e+00 0.000000e+00 0.000000e+00 0.000000e+00 5.003154e-01 4.996845e-01 0.000000e+00
 0.000000e+00 0.000000e+00 0.000000e+00 0.000000e+00 0.000000e+00 0.000000e+00 1.858736e-02 9.814126e-01
 0.000000e+00 0.000000e+00 0.000000e+00 0.000000e+00 0.000000e+00 0.000000e+00 0.000000e+00 0.000000e+00
<ENDHMM>
