~o
<STREAMINFO> 1 20
<VECSIZE> 20<NULLD><USER><DIAGC>
~h "e"
<BEGINHMM>
<NUMSTATES> 8
<STATE> 2
<MEAN> 20
 -7.225811e+00 -1.916354e+00 -1.339725e+01 -1.029367e+01 -8.884485e+00 -1.233819e+01 -1.539192e+01 -1.543090e+01 -4.198008e+00 -1.241982e+01 -1.124076e+01 -1.344570e+01 3.540367e-01 -1.150234e+01 -6.193355e+00 -9.887594e+00 4.893339e+00 -9.816909e+00 -1.635739e+00 -9.165706e+00
<VARIANCE> 20
 9.758075e+00 1.655446e+00 7.831019e+01 1.365764e+01 2.862809e+01 6.590226e+00 7.519647e+01 3.611639e+01 1.770888e+01 7.557980e+00 7.094464e+01 5.401423e+01 1.503823e+01 8.789993e+00 3.671012e+01 3.752443e+01 2.318186e+01 1.012356e+01 3.879875e+01 3.362864e+01
<GCONST> 9.755359e+01
<STATE> 3
<NUMMIXES> 4
<MIXTURE> 1 2.937572e-01
<MEAN> 20
 -5.606362e+00 -1.002276e+00 -9.223876e+00 -7.552565e+00 -7.319591e+00 -9.003936e+00 -9.528732e+00 -1.159238e+01 -3.224582e+00 -9.207878e+00 -5.937494e+00 -1.023888e+01 8.093987e-01 -8.814504e+00 -2.370038e+00 -8.189756e+00 5.008528e+00 -7.890840e+00 1.282327e+00 -7.810736e+00
<VARIANCE> 20
 5.257676e-01 2.795500e-01 1.596199e+01 4.063988e+00 2.558385e+00 1.142650e+00 3.822828e+00 9.716242e+00 1.560774e+00 1.029764e+00 2.698723e+00 1.339502e+01 1.426241e+00 9.057870e-01 2.391983e+00 1.003988e+01 1.961401e+00 9.084994e-01 3.368895e+00 8.179964e+00
<GCONST> 5.509089e+01
<MIXTURE> 2 1.654247e-01
<MEAN> 20
 -7.233302e+00 -3.706213e+00 -1.798815e+01 -1.183163e+01 -3.813246e+00 -1.373395e+01 -1.910558e+01 -1.782860e+01 -4.595879e-01 -1.267137e+01 -1.929723e+01 -1.265095e+01 1.563235e+00 -1.050297e+01 -1.269213e+01 -6.952400e+00 2.442803e+00 -7.720498e+00 -9.891397e+00 -5.841774e+00
<VARIANCE> 20
 3.013348e+00 9.500155e-01 1.464616e+01 4.962699e+00 7.815574e+00 1.642786e+00 2.425883e+01 1.720345e+01 7.340704e+00 1.945792e+00 3.897683e+01 1.732151e+01 1.035699e+01 3.142329e+00 1.973873e+01 1.107630e+01 1.911066e+01 4.546662e+00 2.097967e+01 1.214946e+01
<GCONST> 7.873137e+01
<MIXTURE> 3 3.990727e-01
<MEAN> 20
 -8.118857e+00 -1.863508e+00 -1.359416e+01 -1.096977e+01 -9.909684e+00 -1.298187e+01 -1.570833e+01 -1.663422e+01 -4.467084e+00 -1.331409e+01 -1.052023e+01 -1.526161e+01 9.932731e-01 -1.259340e+01 -5.499762e+00 -1.152732e+01 6.566942e+00 -1.100833e+01 -2.069513e-01 -1.087773e+01
<VARIANCE> 20
 1.336095e+00 8.763851e-01 4.449062e+01 8.562917e+00 7.207293e+00 2.607066e+00 1.623924e+01 3.168688e+01 5.613316e+00 2.432516e+00 1.461522e+01 5.176722e+01 5.073664e+00 2.125501e+00 1.141819e+01 3.510960e+01 5.088945e+00 2.111869e+00 1.545777e+01 2.846351e+01
<GCONST> 7.811073e+01
<MIXTURE> 4 1.417453e-01
<MEAN> 20
 -5.486074e+00 -3.164617e+00 -2.107848e+01 -9.945434e+00 -1.014225e+01 -1.258957e+01 -2.628272e+01 -1.493770e+01 -8.053415e+00 -1.138769e+01 -2.446692e+01 -1.155751e+01 -6.457271e+00 -9.137712e+00 -1.522796e+01 -6.622030e+00 -5.210581e+00 -6.349477e+00 -1.252463e+01 -5.088768e+00
<VARIANCE> 20
 3.195780e+01 5.232584e+00 1.792419e+02 2.742178e+01 7.874419e+01 1.254159e+01 2.571189e+02 4.981828e+01 4.590947e+01 1.720806e+01 2.579436e+02 6.953948e+01 3.854265e+01 2.557514e+01 1.070151e+02 5.170378e+01 6.093456e+01 3.400543e+01 9.759252e+01 5.590171e+01
<GCONST> 1.149494e+02
<STATE> 4
<NUMMIXES> 4
<MIXTURE> 1 3.138009e-01
<MEAN> 20
 -6.413626e+00 -1.587326e+00 -1.040118e+01 -8.868873e+00 -7.162704e+00 -1.085230e+01 -1.145098e+01 -1.357169e+01 -2.349487e+00 -1.087866e+01 -7.293331e+00 -1.123046e+01 2.331794e+00 -1.008653e+01 -3.436892e+00 -8.280735e+00 7.003140e+00 -8.609782e+00 1.137968e+00 -7.690048e+00
<VARIANCE> 20
 6.013123e-01 5.887568e-01 2.408707e+01 6.735765e+00 4.895766e+00 1.442761e+00 8.716758e+00 1.570152e+01 4.594432e+00 1.084246e+00 8.179025e+00 2.001284e+01 4.796858e+00 7.898846e-01 7.690083e+00 1.188469e+01 4.937316e+00 9.815941e-01 8.650666e+00 1.019588e+01
<GCONST> 6.629102e+01
<MIXTURE> 2 2.679727e-01
<MEAN> 20
 -9.302124e+00 -1.179126e+00 -2.027419e+01 -1.030068e+01 -1.412781e+01 -1.313328e+01 -2.210307e+01 -1.718840e+01 -8.775124e+00 -1.384668e+01 -1.781225e+01 -1.645509e+01 -3.154133e+00 -1.343587e+01 -1.194653e+01 -1.289350e+01 2.703205e+00 -1.207055e+01 -5.745584e+00 -1.222267e+01
<VARIANCE> 20
 1.498416e+00 1.073218e+00 4.202800e+01 9.436508e+00 8.681081e+00 2.734267e+00 1.466478e+01 3.109787e+01 6.222126e+00 2.511181e+00 1.957298e+01 4.627987e+01 5.550305e+00 2.375437e+00 2.160901e+01 3.509423e+01 7.387647e+00 2.753821e+00 2.788346e+01 3.699727e+01
<GCONST> 8.122472e+01
<MIXTURE> 3 3.262200e-01
<MEAN> 20
 -8.196040e+00 -2.359218e+00 -9.880125e+00 -1.137600e+01 -8.831258e+00 -1.377481e+01 -1.379123e+01 -1.818437e+01 -3.453843e+00 -1.391817e+01 -8.907354e+00 -1.774314e+01 1.871864e+00 -1.300647e+01 -4.502920e+00 -1.231174e+01 7.359416e+00 -1.123820e+01 3.374325e-01 -1.103488e+01
<VARIANCE> 20
 5.854043e-01 5.105613e-01 2.022415e+01 4.229393e+00 2.928959e+00 1.010777e+00 9.133985e+00 2.647351e+01 2.219722e+00 8.151337e-01 7.760364e+00 4.426677e+01 2.151441e+00 6.454332e-01 5.450764e+00 2.143574e+01 2.304742e+00 7.650741e-01 6.480056e+00 1.355822e+01
<GCONST> 6.313656e+01
<MIXTURE> 4 9.200630e-02
<MEAN> 20
 -2.023113e+00 -2.181954e+00 -6.481840e+00 -8.848866e+00 -1.560394e+00 -1.183396e+01 -7.807141e+00 -1.361534e+01 -5.645265e-01 -1.146737e+01 -6.584389e+00 -1.047791e+01 -1.739347e-02 -9.946774e+00 -3.469205e+00 -7.023313e+00 1.587687e-01 -7.720787e+00 -2.444132e+00 -6.347683e+00
<VARIANCE> 20
 6.654678e+01 4.261675e+00 4.161422e+02 5.047514e+01 1.821800e+02 2.769018e+01 5.203870e+02 1.021839e+02 9.480244e+01 3.345900e+01 3.892070e+02 1.323911e+02 5.370619e+01 3.908023e+01 1.648461e+02 9.670481e+01 6.183649e+01 4.235537e+01 1.187148e+02 9.228584e+01
<GCONST> 1.251750e+02
<STATE> 5
<NUMMIXES> 4
<MIXTURE> 1 2.622766e-01
<MEAN> 20
 -8.045449e+00 -2.076007e+00 -7.886525e+00 -9.167201e+00 -9.465433e+00 -1.239136e+01 -1.330300e+01 -1.250022e+01 -4.914549e+00 -1.246258e+01 -9.063093e+00 -1.232683e+01 -3.345944e-01 -1.193738e+01 -5.007572e+00 -1.200020e+01 4.802528e+00 -1.083183e+01 -9.273851e-01 -1.148513e+01
<VARIANCE> 20
 6.159070e-01 5.206045e-01 4.931092e+00 1.008704e+00 1.611599e+00 1.193841e+00 1.675443e+00 1.523669e+00 1.157954e+00 9.115851e-01 1.567559e+00 1.460442e+00 1.096398e+00 7.333264e-01 1.957558e+00 1.433242e+00 1.323005e+00 6.795390e-01 2.661192e+00 1.727641e+00
<GCONST> 4.193089e+01
<MIXTURE> 2 3.679471e-01
<MEAN> 20
 -7.322923e+00 -2.388288e+00 -1.021771e+01 -1.147582e+01 -6.961197e+00 -1.269702e+01 -1.233522e+01 -1.606154e+01 -1.695710e+00 -1.267486e+01 -7.661316e+00 -1.338317e+01 3.460057e+00 -1.170433e+01 -3.672532e+00 -8.964656e+00 8.622784e+00 -9.949845e+00 1.132380e+00 -8.352705e+00
<VARIANCE> 20
 4.717659e-01 4.613288e-01 3.355465e+01 5.043222e+00 2.997620e+00 1.082156e+00 8.518517e+00 2.687958e+01 2.464211e+00 9.138880e-01 8.248124e+00 4.035328e+01 2.250856e+00 6.644395e-01 5.851442e+00 1.486145e+01 2.141758e+00 6.530316e-01 6.138937e+00 1.100179e+01
<GCONST> 6.300988e+01
<MIXTURE> 3 2.241452e-01
<MEAN> 20
 -1.038710e+01 -1.622340e+00 -1.971805e+01 -1.334764e+01 -1.467778e+01 -1.572378e+01 -2.153799e+01 -1.989101e+01 -8.267572e+00 -1.643199e+01 -1.563290e+01 -1.919369e+01 -1.681639e+00 -1.582499e+01 -9.078639e+00 -1.491056e+01 5.211622e+00 -1.414181e+01 -1.647389e+00 -1.435197e+01
<VARIANCE> 20
 1.877112e+00 1.337887e+00 5.623313e+01 1.115571e+01 9.280099e+00 3.941731e+00 2.399031e+01 3.829726e+01 6.697046e+00 3.640544e+00 2.058237e+01 6.098518e+01 5.968169e+00 3.264797e+00 1.662033e+01 4.721186e+01 6.835515e+00 3.204800e+00 2.310342e+01 4.492216e+01
<GCONST> 8.453782e+01
<MIXTURE> 4 1.456311e-01
<MEAN> 20
 -3.055839e+00 -1.768515e+00 -8.169504e+00 -8.328480e+00 -3.340775e+00 -1.066192e+01 -8.384677e+00 -1.310432e+01 -1.565252e+00 -1.052065e+01 -7.253072e+00 -1.069795e+01 -1.090464e-01 -9.453022e+00 -4.441154e+00 -7.737510e+00 1.094231e+00 -7.742552e+00 -2.647838e+00 -6.785039e+00
<VARIANCE> 20
 3.710770e+01 2.385286e+00 1.942197e+02 1.542231e+01 7.821734e+01 6.399934e+00 2.310656e+02 3.109554e+01 3.498477e+01 5.999561e+00 1.685275e+02 3.853898e+01 2.235443e+01 6.708149e+00 7.568361e+01 2.809681e+01 4.013783e+01 8.492749e+00 5.755499e+01 2.580155e+01
<GCONST> 1.042737e+02
<STATE> 6
<NUMMIXES> 4
<MIXTURE> 1 3.677999e-01
<MEAN> 20
 -6.730361e+00 -1.449622e+00 -1.016540e+01 -8.991693e+00 -8.396199e+00 -1.072860e+01 -1.164046e+01 -1.335758e+01 -3.704633e+00 -1.092166e+01 -7.471188e+00 -1.210752e+01 9.738156e-01 -1.038032e+01 -3.186882e+00 -9.738428e+00 5.882952e+00 -9.197410e+00 1.170955e+00 -9.186937e+00
<VARIANCE> 20
 6.574098e-01 5.265033e-01 2.086881e+01 4.703005e+00 2.943815e+00 1.235680e+00 4.646501e+00 1.529484e+01 2.250295e+00 9.870232e-01 3.669766e+00 1.951146e+01 2.306408e+00 7.378240e-01 3.177422e+00 1.145267e+01 2.852942e+00 7.497231e-01 3.649622e+00 1.059213e+01
<GCONST> 5.944810e+01
<MIXTURE> 2 2.344548e-01
<MEAN> 20
 -9.214427e+00 -2.440045e+00 -1.683967e+01 -1.311367e+01 -9.858265e+00 -1.522954e+01 -1.769257e+01 -1.957428e+01 -4.078612e+00 -1.541100e+01 -1.314096e+01 -1.719948e+01 1.388372e+00 -1.432538e+01 -7.611664e+00 -1.274452e+01 6.638695e+00 -1.225963e+01 -1.780799e+00 -1.179416e+01
<VARIANCE> 20
 2.322350e+00 1.877411e+00 6.367188e+01 1.037558e+01 2.286924e+01 2.976032e+00 3.920156e+01 3.606107e+01 1.747829e+01 2.908124e+00 4.912593e+01 5.538727e+01 1.403458e+01 3.322427e+00 4.191182e+01 4.300436e+01 1.666941e+01 4.286253e+00 5.609717e+01 3.674018e+01
<GCONST> 9.127377e+01
<MIXTURE> 3 2.742646e-01
<MEAN> 20
 -8.438473e+00 -1.769739e+00 -1.215832e+01 -9.994598e+00 -1.096534e+01 -1.278418e+01 -1.619443e+01 -1.486632e+01 -5.973468e+00 -1.309326e+01 -1.170625e+01 -1.442554e+01 -8.409645e-01 -1.257322e+01 -6.973649e+00 -1.245674e+01 4.733181e+00 -1.131857e+01 -1.955484e+00 -1.209931e+01
<VARIANCE> 20
 6.834044e-01 7.040433e-01 2.747933e+01 4.080970e+00 3.223312e+00 1.024105e+00 5.921041e+00 1.566755e+01 2.225347e+00 8.430218e-01 5.530358e+00 2.018062e+01 2.208397e+00 7.534944e-01 5.626414e+00 1.293704e+01 2.887094e+00 9.480389e-01 7.778319e+00 1.357325e+01
<GCONST> 6.227731e+01
<MIXTURE> 4 1.234807e-01
<MEAN> 20
 -4.391749e+00 -2.011037e+00 -1.569338e+01 -5.636383e+00 -7.726171e+00 -9.404961e+00 -1.833929e+01 -9.174150e+00 -5.448942e+00 -8.700809e+00 -1.603841e+01 -5.369652e+00 -3.554612e+00 -6.994832e+00 -9.636037e+00 -2.834117e+00 -2.080001e+00 -4.814591e+00 -7.532577e+00 -2.134299e+00
<VARIANCE> 20
 2.488167e+01 3.915349e+00 1.691760e+02 2.551319e+01 8.743472e+01 8.843177e+00 2.451849e+02 4.855639e+01 5.588159e+01 9.048355e+00 2.067045e+02 5.215834e+01 4.217423e+01 1.252939e+01 8.338795e+01 3.115881e+01 4.964468e+01 1.754349e+01 7.629618e+01 3.160155e+01
<GCONST> 1.099433e+02
<STATE> 7
<MEAN> 20
 -7.408948e+00 -1.829679e+00 -1.246447e+01 -9.868576e+00 -9.050943e+00 -1.240562e+01 -1.474154e+01 -1.494243e+01 -4.338075e+00 -1.252462e+01 -1.059281e+01 -1.351274e+01 2.673243e-01 -1.169993e+01 -5.802904e+00 -1.056016e+01 4.958099e+00 -1.012154e+01 -1.159850e+00 -9.830690e+00
<VARIANCE> 20
 8.983205e+00 1.466155e+00 7.164743e+01 1.207009e+01 2.595586e+01 6.160184e+00 6.433806e+01 3.116965e+01 1.556262e+01 6.753097e+00 5.517126e+01 4.236280e+01 1.218938e+01 7.460414e+00 3.065307e+01 2.985569e+01 1.794684e+01 8.313302e+00 3.283988e+01 2.779100e+01
<GCONST> 9.433863e+01
<TRANSP> 8
 0.000000e+00 1.000000e+00 0.000000e+00 0.000000e+00 0.000000e+00 0.000000e+00 0.000000e+00 0.000000e+00
 0.000000e+00 3.431543e-02 9.656846e-01 0.000000e+00 0.000000e+00 0.000000e+00 0.000000e+00 0.000000e+00
 0.000000e+00 0.000000e+00 5.386654e-01 4.613346e-01 0.000000e+00 0.000000e+00 0.000000e+00 0.000000e+00
 0.000000e+00 0.000000e+00 0.000000e+00 5.126815e-01 4.873185e-01 0.000000e+00 0.000000e+00 0.000000e+00
 0.000000e+00 0.000000e+00 0.000000e+00 0.000000e+00 6.079921e-01 3.920079e-01 0.000000e+00 0.000000e+00
 0.000000e+00 0.000000e+00 0.000000e+00 0.000000e+00 0.000000e+00 5.092478e-01 4.907522e-01 0.000000e+00
 0.000000e+00 0.000000e+00 0.000000e+00 0.000000e+00 0.000000e+00 0.000000e+00 5.076661e-02 9.492334e-01
 0.000000e+00 0.000000e+00 0.000000e+00 0.000000e+00 0.000000e+00 0.000000e+00 0.000000e+00 0.000000e+00
<ENDHMM>
