~o
<STREAMINFO> 1 20
<VECSIZE> 20<NULLD><USER><DIAGC>
~h "e"
<BEGINHMM>
<NUMSTATES> 5
<STATE> 2
<NUMMIXES> 4
<MIXTURE> 1 3.241189e-01
<MEAN> 20
 -5.800621e+00 -1.065585e+00 -9.356388e+00 -7.852832e+00 -7.572948e+00 -9.315242e+00 -9.913249e+00 -1.184127e+01 -3.352835e+00 -9.525800e+00 -6.141499e+00 -1.052542e+01 8.095829e-01 -9.119439e+00 -2.432214e+00 -8.484029e+00 5.151381e+00 -8.164353e+00 1.346166e+00 -8.109059e+00
<VARIANCE> 20
 6.156605e-01 3.105400e-01 1.594187e+01 4.388727e+00 2.583574e+00 1.267381e+00 4.257164e+00 1.026508e+01 1.591284e+00 1.163345e+00 2.832406e+00 1.433791e+01 1.483693e+00 1.021639e+00 2.507858e+00 1.066415e+01 2.063790e+00 1.000968e+00 3.369983e+00 8.745537e+00
<GCONST> 5.644561e+01
<MIXTURE> 2 2.262753e-01
<MEAN> 20
 -9.052416e+00 -1.791715e+00 -2.043040e+01 -1.069467e+01 -1.193892e+01 -1.334633e+01 -2.183355e+01 -1.747105e+01 -7.131248e+00 -1.372802e+01 -1.912453e+01 -1.557575e+01 -2.399569e+00 -1.299831e+01 -1.334084e+01 -1.181547e+01 2.197429e+00 -1.135220e+01 -8.037639e+00 -1.098236e+01
<VARIANCE> 20
 1.854716e+00 2.091248e+00 3.499573e+01 1.033819e+01 2.242754e+01 3.550479e+00 2.338689e+01 3.063619e+01 1.553368e+01 3.047297e+00 2.477508e+01 4.002362e+01 9.172363e+00 3.190519e+00 2.428602e+01 3.376027e+01 9.452467e+00 4.234564e+00 3.274413e+01 3.378006e+01
<GCONST> 8.649613e+01
<MIXTURE> 3 3.651563e-01
<MEAN> 20
 -8.077694e+00 -2.409906e+00 -1.150281e+01 -1.194520e+01 -8.239388e+00 -1.381998e+01 -1.377601e+01 -1.815825e+01 -2.704982e+00 -1.392753e+01 -8.746971e+00 -1.660823e+01 2.677827e+00 -1.293575e+01 -4.326686e+00 -1.143114e+01 8.038965e+00 -1.106047e+01 6.382257e-01 -1.046415e+01
<VARIANCE> 20
 8.103629e-01 6.607013e-01 3.397851e+01 6.431608e+00 4.902184e+00 1.540446e+00 1.315220e+01 3.249809e+01 3.924425e+00 1.254238e+00 1.249117e+01 5.566096e+01 3.501161e+00 9.899823e-01 9.787168e+00 2.931474e+01 3.471246e+00 1.082185e+00 1.550610e+01 2.047639e+01
<GCONST> 7.172353e+01
<MIXTURE> 4 8.444951e-02
<MEAN> 20
 -5.643709e+00 -1.707910e+00 -1.821594e+01 -4.690686e+00 -1.006429e+01 -9.109742e+00 -2.101099e+01 -7.714198e+00 -7.023928e+00 -8.566366e+00 -1.769842e+01 -3.337147e+00 -4.248834e+00 -6.883149e+00 -1.097563e+01 -1.394753e+00 -1.894507e+00 -4.638577e+00 -7.881795e+00 -9.736308e-01
<VARIANCE> 20
 2.590526e+01 4.558622e+00 1.770424e+02 3.853374e+01 9.547720e+01 1.510518e+01 2.456705e+02 6.829384e+01 6.691161e+01 1.561533e+01 2.120063e+02 7.196550e+01 5.401228e+01 1.876573e+01 1.029318e+02 4.319634e+01 5.975063e+01 2.315286e+01 8.776260e+01 4.392393e+01
<GCONST> 1.147535e+02
<STATE> 3
<NUMMIXES> 4
<MIXTURE> 1 3.827899e-01
<MEAN> 20
 -7.252614e+00 -2.303632e+00 -9.732213e+00 -1.119116e+01 -7.169626e+00 -1.237434e+01 -1.218050e+01 -1.510537e+01 -2.034915e+00 -1.235999e+01 -7.540411e+00 -1.269251e+01 3.050682e+00 -1.147283e+01 -3.471901e+00 -8.925149e+00 8.246947e+00 -9.847765e+00 1.313758e+00 -8.486573e+00
<VARIANCE> 20
 4.268067e-01 3.987156e-01 2.795862e+01 4.311295e+00 2.721504e+00 7.182793e-01 6.106344e+00 2.244407e+01 2.226188e+00 6.372775e-01 5.767570e+00 3.166401e+01 2.101865e+00 5.065655e-01 4.315819e+00 1.226095e+01 1.948270e+00 5.832575e-01 3.937339e+00 1.013759e+01
<GCONST> 5.877239e+01
<MIXTURE> 2 2.308926e-01
<MEAN> 20
 -6.457050e+00 -1.876939e+00 -1.247142e+01 -8.795138e+00 -5.964190e+00 -1.126248e+01 -1.278491e+01 -1.406798e+01 -1.250400e+00 -1.106746e+01 -9.368769e+00 -1.063494e+01 2.971191e+00 -9.894967e+00 -5.222280e+00 -7.354285e+00 6.757096e+00 -8.017657e+00 -8.294601e-01 -6.507257e+00
<VARIANCE> 20
 1.145670e+00 1.474108e+00 3.270282e+01 9.749573e+00 1.481610e+01 3.600697e+00 2.166814e+01 1.889745e+01 1.226107e+01 2.575734e+00 2.491190e+01 2.307369e+01 9.526122e+00 2.019038e+00 1.920744e+01 1.494973e+01 9.033417e+00 2.462117e+00 2.358007e+01 1.300606e+01
<GCONST> 8.028901e+01
<MIXTURE> 3 2.420096e-01
<MEAN> 20
 -1.044534e+01 -1.722171e+00 -2.017946e+01 -1.370607e+01 -1.448974e+01 -1.604288e+01 -2.173149e+01 -2.048099e+01 -7.850386e+00 -1.675317e+01 -1.542921e+01 -1.917317e+01 -1.106705e+00 -1.606289e+01 -8.738895e+00 -1.478528e+01 5.821146e+00 -1.424601e+01 -1.249882e+00 -1.402727e+01
<VARIANCE> 20
 2.076156e+00 1.580312e+00 6.525826e+01 1.306917e+01 1.317721e+01 4.441929e+00 3.146801e+01 4.164685e+01 1.085875e+01 4.045211e+00 2.987477e+01 6.965733e+01 1.024132e+01 3.693898e+00 2.614302e+01 5.643098e+01 1.098311e+01 3.804005e+00 3.463976e+01 5.096184e+01
<GCONST> 8.950337e+01
<MIXTURE> 4 1.443079e-01
<MEAN> 20
 -4.520656e+00 -4.228355e+00 -1.991494e+01 -1.067495e+01 -5.986695e+00 -1.260690e+01 -2.556841e+01 -1.533421e+01 -4.906834e+00 -1.056182e+01 -2.538104e+01 -1.120801e+01 -4.945396e+00 -7.595140e+00 -1.519409e+01 -4.849150e+00 -5.766028e+00 -4.337142e+00 -1.415162e+01 -3.050269e+00
<VARIANCE> 20
 1.869648e+01 2.407681e+00 1.106951e+02 1.600149e+01 4.362759e+01 7.144931e+00 1.756644e+02 2.492442e+01 3.585564e+01 8.060735e+00 1.846262e+02 2.921739e+01 3.534002e+01 9.857555e+00 6.716377e+01 1.204796e+01 3.981298e+01 1.177018e+01 5.276425e+01 1.309399e+01
<GCONST> 1.016672e+02
<STATE> 4
<NUMMIXES> 4
<MIXTURE> 1 2.599733e-01
<MEAN> 20
 -8.274446e+00 -2.233778e+00 -7.694697e+00 -9.340075e+00 -9.526423e+00 -1.271800e+01 -1.353817e+01 -1.273621e+01 -4.975409e+00 -1.276939e+01 -9.312784e+00 -1.256058e+01 -3.774397e-01 -1.222099e+01 -5.278684e+00 -1.224834e+01 4.804125e+00 -1.108865e+01 -1.206957e+00 -1.174911e+01
<VARIANCE> 20
 4.178143e-01 3.978896e-01 4.551866e+00 8.488823e-01 1.838017e+00 8.295665e-01 1.841594e+00 1.453402e+00 1.460688e+00 6.026638e-01 1.757828e+00 1.379554e+00 1.406866e+00 4.808007e-01 2.085356e+00 1.271004e+00 1.596731e+00 4.840589e-01 2.805088e+00 1.477585e+00
<GCONST> 4.022773e+01
<MIXTURE> 2 3.385188e-01
<MEAN> 20
 -7.036919e+00 -1.430483e+00 -1.149020e+01 -8.923986e+00 -9.105327e+00 -1.111184e+01 -1.330885e+01 -1.441628e+01 -4.255784e+00 -1.137934e+01 -9.024412e+00 -1.342095e+01 6.217978e-01 -1.079882e+01 -4.547605e+00 -1.035266e+01 5.678673e+00 -9.495402e+00 1.200904e-01 -9.601851e+00
<VARIANCE> 20
 6.507939e-01 5.909643e-01 2.556191e+01 5.582601e+00 3.708804e+00 1.344943e+00 8.978651e+00 2.091369e+01 2.724175e+00 1.152111e+00 7.940865e+00 2.926682e+01 2.612656e+00 8.705020e-01 7.396099e+00 1.734912e+01 3.085376e+00 8.583999e-01 8.181318e+00 1.526180e+01
<GCONST> 6.567467e+01
<MIXTURE> 3 2.869822e-01
<MEAN> 20
 -9.183819e+00 -1.532275e+00 -1.575670e+01 -1.122151e+01 -1.264765e+01 -1.381986e+01 -1.848043e+01 -1.735726e+01 -7.007443e+00 -1.437592e+01 -1.337736e+01 -1.696230e+01 -1.212895e+00 -1.384265e+01 -7.649582e+00 -1.366984e+01 4.954437e+00 -1.240941e+01 -1.570523e+00 -1.317092e+01
<VARIANCE> 20
 1.229124e+00 9.429126e-01 4.634159e+01 7.364641e+00 5.452087e+00 1.973930e+00 1.013144e+01 2.865790e+01 4.023165e+00 1.665671e+00 1.136621e+01 4.196712e+01 3.726130e+00 1.366600e+00 9.436258e+00 2.945470e+01 4.264023e+00 1.418681e+00 1.276770e+01 2.743580e+01
<GCONST> 7.376854e+01
<MIXTURE> 4 1.145257e-01
<MEAN> 20
 -2.627167e-01 -1.989922e+00 -1.939744e+00 -9.503288e+00 1.209172e+00 -1.202362e+01 -1.786995e+00 -1.433843e+01 1.187451e+00 -1.191291e+01 -1.724498e+00 -1.191285e+01 8.017964e-01 -1.070684e+01 -9.756973e-01 -8.856303e+00 1.361113e-01 -8.753495e+00 -8.645164e-01 -7.869782e+00
<VARIANCE> 20
 6.340907e+01 2.813305e+00 3.420766e+02 2.587774e+01 1.366160e+02 1.396305e+01 4.054054e+02 5.772378e+01 6.199445e+01 1.678510e+01 2.783263e+02 7.382805e+01 3.468259e+01 2.005415e+01 1.216265e+02 5.664884e+01 5.297899e+01 2.267958e+01 8.230348e+01 5.379953e+01
<GCONST> 1.163917e+02
<TRANSP> 5
 0.000000e+00 1.000000e+00 0.000000e+00 0.000000e+00 0.000000e+00
 0.000000e+00 7.353472e-01 2.646528e-01 0.000000e+00 0.000000e+00
 0.000000e+00 0.000000e+00 7.021914e-01 2.978087e-01 0.000000e+00
 0.000000e+00 0.000000e+00 0.000000e+00 7.341096e-01 2.658904e-01
 0.000000e+00 0.000000e+00 0.000000e+00 0.000000e+00 0.000000e+00
<ENDHMM>
