~o
<STREAMINFO> 1 20
<VECSIZE> 20<NULLD><USER><DIAGC>
~h "f"
<BEGINHMM>
<NUMSTATES> 5
<STATE> 2
<NUMMIXES> 4
<MIXTURE> 1 3.166333e-01
<MEAN> 20
 -5.671704e+00 -1.150735e+00 -1.232666e+01 -7.411166e+00 -7.427542e+00 -9.376299e+00 -1.125834e+01 -1.144732e+01 -3.047961e+00 -1.007182e+01 -6.883120e+00 -1.477073e+01 1.386428e+00 -9.817893e+00 -8.337330e-01 -1.482489e+01 5.854223e+00 -8.674919e+00 7.316417e+00 -1.351174e+01
<VARIANCE> 20
 4.589961e-01 3.392967e-01 1.181078e+01 3.494341e+00 2.407988e+00 1.420054e+00 5.102029e+00 7.221436e+00 1.843303e+00 1.178103e+00 3.814461e+00 1.773534e+01 1.907496e+00 9.601925e-01 7.983156e+00 2.568180e+01 2.263704e+00 7.412468e-01 2.512958e+01 1.322123e+01
<GCONST> 6.069585e+01
<MIXTURE> 2 3.460254e-01
<MEAN> 20
 -8.071493e+00 -1.715861e+00 -1.828460e+01 -1.077179e+01 -1.071387e+01 -1.193993e+01 -1.678578e+01 -1.394545e+01 -5.871207e+00 -1.255416e+01 -1.307881e+01 -1.525637e+01 -6.835353e-01 -1.224434e+01 -7.993215e+00 -1.327755e+01 4.813274e+00 -1.110885e+01 -9.994932e-01 -1.512502e+01
<VARIANCE> 20
 8.660364e-01 6.504709e-01 3.209030e+01 6.649561e+00 5.781789e+00 1.833063e+00 1.355098e+01 3.400034e+01 4.263158e+00 1.592544e+00 1.423779e+01 5.279525e+01 3.731073e+00 1.244227e+00 1.392154e+01 3.656485e+01 4.112074e+00 1.337695e+00 2.635978e+01 2.922406e+01
<GCONST> 7.469740e+01
<MIXTURE> 3 1.903808e-01
<MEAN> 20
 -8.714535e+00 -2.374737e+00 -2.127413e+01 -1.305999e+01 -1.010102e+01 -1.480588e+01 -1.913738e+01 -1.666678e+01 -4.061255e+00 -1.605252e+01 -1.059331e+01 -2.935311e+01 2.137667e+00 -1.555489e+01 -2.001343e-02 -2.897333e+01 8.401186e+00 -1.349292e+01 1.296188e+01 -2.440840e+01
<VARIANCE> 20
 8.457155e-01 7.847278e-01 2.111935e+01 5.935866e+00 6.725517e+00 2.344790e+00 1.447265e+01 1.282513e+01 6.825295e+00 2.163743e+00 2.540360e+01 1.014744e+01 6.292024e+00 2.051911e+00 2.849641e+01 1.070474e+01 5.066079e+00 2.012226e+00 2.996887e+01 6.059938e+00
<GCONST> 7.320730e+01
<MIXTURE> 4 1.469606e-01
<MEAN> 20
 -7.444487e+00 -2.279536e+00 -1.967508e+01 -1.020695e+01 -8.637803e+00 -1.220464e+01 -1.955684e+01 -1.255815e+01 -4.861533e+00 -1.206641e+01 -1.679892e+01 -9.754640e+00 -1.495167e+00 -1.090869e+01 -1.243849e+01 -7.069458e+00 1.364295e+00 -9.023954e+00 -7.640865e+00 -7.990045e+00
<VARIANCE> 20
 2.019342e+01 4.070128e+00 1.526271e+02 5.001267e+01 5.615903e+01 1.740924e+01 1.521869e+02 7.203590e+01 3.994522e+01 1.689682e+01 1.356062e+02 8.011969e+01 4.035642e+01 1.798557e+01 1.095579e+02 6.227884e+01 6.292396e+01 2.029725e+01 1.295724e+02 6.668288e+01
<GCONST> 1.137342e+02
<STATE> 3
<NUMMIXES> 4
<MIXTURE> 1 1.460808e-01
<MEAN> 20
 -5.602338e+00 -1.077045e+00 -1.247680e+01 -7.007335e+00 -7.143978e+00 -9.238699e+00 -1.116359e+01 -1.181338e+01 -3.126054e+00 -9.483110e+00 -8.153128e+00 -1.020938e+01 7.516593e-01 -8.870025e+00 -4.147818e+00 -7.995157e+00 4.495049e+00 -7.577282e+00 4.275723e-01 -7.907982e+00
<VARIANCE> 20
 8.530689e+00 8.277951e-01 8.585157e+01 1.082404e+01 2.198117e+01 3.343049e+00 4.741643e+01 3.692533e+01 9.071421e+00 2.856066e+00 3.044671e+01 3.770887e+01 5.750027e+00 2.393569e+00 2.252245e+01 2.872495e+01 1.171206e+01 2.531111e+00 3.897331e+01 2.496780e+01
<GCONST> 8.697601e+01
<MIXTURE> 2 2.612827e-01
<MEAN> 20
 -6.916927e+00 -1.788008e+00 -1.815661e+01 -8.853171e+00 -8.425731e+00 -1.104343e+01 -1.708186e+01 -1.239965e+01 -4.004863e+00 -1.201013e+01 -1.263718e+01 -2.064254e+01 7.670555e-01 -1.171953e+01 -4.564044e+00 -2.157487e+01 5.750146e+00 -1.028841e+01 5.944322e+00 -1.862562e+01
<VARIANCE> 20
 2.729517e-01 3.132733e-01 9.729774e+00 2.322772e+00 1.539093e+00 5.193213e-01 8.763561e+00 6.548808e+00 1.201039e+00 3.797639e-01 1.367163e+01 3.535297e+00 1.286926e+00 3.766605e-01 1.428148e+01 2.304782e+00 1.750069e+00 5.977697e-01 2.209739e+01 1.299033e+00
<GCONST> 5.050728e+01
<MIXTURE> 3 3.218527e-01
<MEAN> 20
 -7.763182e+00 -2.628198e+00 -1.307445e+01 -1.266591e+01 -6.961167e+00 -1.337181e+01 -1.239372e+01 -1.514948e+01 -1.678633e+00 -1.333250e+01 -8.352206e+00 -1.355788e+01 3.541897e+00 -1.236984e+01 -4.233925e+00 -9.536419e+00 8.742678e+00 -1.059178e+01 1.507266e+00 -1.030823e+01
<VARIANCE> 20
 7.449036e-01 6.243457e-01 3.585979e+01 7.418089e+00 5.156549e+00 1.241002e+00 7.430344e+00 3.255006e+01 4.458761e+00 1.118518e+00 7.704196e+00 4.505257e+01 3.885065e+00 9.312446e-01 7.574527e+00 1.748343e+01 3.463902e+00 9.901223e-01 1.722236e+01 2.232837e+01
<GCONST> 6.973302e+01
<MIXTURE> 4 2.707838e-01
<MEAN> 20
 -9.870409e+00 -2.019153e+00 -2.396554e+01 -1.355534e+01 -1.373196e+01 -1.497863e+01 -2.216247e+01 -1.740952e+01 -7.848505e+00 -1.606839e+01 -1.728936e+01 -2.226424e+01 -1.571825e+00 -1.570951e+01 -9.836379e+00 -1.958778e+01 4.962182e+00 -1.410431e+01 1.707328e-01 -1.876894e+01
<VARIANCE> 20
 1.578128e+00 1.192975e+00 3.612079e+01 1.107261e+01 8.587961e+00 4.439704e+00 1.946741e+01 5.073283e+01 6.756314e+00 4.441076e+00 2.490562e+01 1.003278e+02 6.920375e+00 4.086272e+00 3.494851e+01 1.108028e+02 9.687735e+00 3.504128e+00 8.112244e+01 6.253356e+01
<GCONST> 8.880295e+01
<STATE> 4
<NUMMIXES> 4
<MIXTURE> 1 1.251719e-01
<MEAN> 20
 -2.698793e+00 -2.103617e+00 -4.645400e+00 -1.233239e+01 -2.525125e+00 -1.389460e+01 -4.746704e+00 -1.643822e+01 -6.521535e-01 -1.449749e+01 -2.948703e+00 -1.819545e+01 1.087888e+00 -1.379797e+01 -6.918403e-01 -1.496780e+01 2.831013e+00 -1.201992e+01 2.632846e+00 -1.372139e+01
<VARIANCE> 20
 6.880205e+01 1.907373e+00 4.152809e+02 2.028864e+01 1.293461e+02 7.079269e+00 3.422717e+02 4.743345e+01 4.245768e+01 7.667605e+00 1.897543e+02 1.069570e+02 1.537122e+01 7.819758e+00 7.391829e+01 1.135821e+02 5.056690e+01 7.699903e+00 6.949617e+01 7.996622e+01
<GCONST> 1.113038e+02
<MIXTURE> 2 2.971114e-01
<MEAN> 20
 -7.714435e+00 -2.084451e+00 -1.926743e+01 -1.041427e+01 -9.371760e+00 -1.248292e+01 -1.799711e+01 -1.336400e+01 -4.573188e+00 -1.359446e+01 -1.339748e+01 -2.385766e+01 6.233519e-01 -1.331447e+01 -4.858589e+00 -2.445560e+01 6.102835e+00 -1.177129e+01 6.085186e+00 -2.123455e+01
<VARIANCE> 20
 2.387636e-01 2.978458e-01 7.505851e+00 1.715999e+00 3.309257e+00 4.911914e-01 7.611491e+00 5.514692e+00 2.097022e+00 5.008180e-01 8.047671e+00 4.199261e+00 1.667632e+00 5.592379e-01 1.067455e+01 2.848488e+00 1.648712e+00 7.393267e-01 1.672633e+01 1.602070e+00
<GCONST> 5.129308e+01
<MIXTURE> 3 3.218707e-01
<MEAN> 20
 -7.103508e+00 -1.699979e+00 -1.335263e+01 -9.756478e+00 -8.973956e+00 -1.065723e+01 -1.287334e+01 -1.138961e+01 -4.543650e+00 -1.103708e+01 -8.886219e+00 -1.172614e+01 3.908397e-02 -1.076765e+01 -4.711001e+00 -1.145588e+01 4.936305e+00 -9.875578e+00 9.766926e-01 -1.320430e+01
<VARIANCE> 20
 9.909233e-01 4.337507e-01 2.149889e+01 4.466392e+00 2.120032e+00 2.200081e+00 5.425097e+00 1.173945e+01 1.293737e+00 1.843567e+00 5.432480e+00 2.251894e+01 1.346680e+00 1.503819e+00 6.623695e+00 2.131782e+01 2.081949e+00 1.329066e+00 1.881977e+01 1.854742e+01
<GCONST> 6.437649e+01
<MIXTURE> 4 2.558459e-01
<MEAN> 20
 -8.348307e+00 -2.491308e+00 -2.151870e+01 -1.070857e+01 -8.475274e+00 -1.273432e+01 -2.051706e+01 -1.516116e+01 -4.641195e+00 -1.296832e+01 -1.873363e+01 -1.596076e+01 -8.687014e-01 -1.229074e+01 -1.440672e+01 -1.478961e+01 2.661999e+00 -1.074234e+01 -8.715582e+00 -1.427909e+01
<VARIANCE> 20
 1.051535e+00 1.036199e+00 1.325185e+01 5.158334e+00 1.768431e+01 2.044123e+00 1.020686e+01 1.861978e+01 1.262316e+01 1.348683e+00 1.095702e+01 2.142316e+01 6.321507e+00 1.156890e+00 1.515821e+01 2.320373e+01 6.501239e+00 1.705607e+00 3.755983e+01 1.982572e+01
<GCONST> 7.506753e+01
<TRANSP> 5
 0.000000e+00 1.000000e+00 0.000000e+00 0.000000e+00 0.000000e+00
 0.000000e+00 7.120908e-01 2.879092e-01 0.000000e+00 0.000000e+00
 0.000000e+00 0.000000e+00 7.440618e-01 2.559382e-01 0.000000e+00
 0.000000e+00 0.000000e+00 0.000000e+00 7.035763e-01 2.964237e-01
 0.000000e+00 0.000000e+00 0.000000e+00 0.000000e+00 0.000000e+00
<ENDHMM>
