~o
<STREAMINFO> 1 20
<VECSIZE> 20<NULLD><USER><DIAGC>
~h "g"
<BEGINHMM>
<NUMSTATES> 5
<STATE> 2
<NUMMIXES> 4
<MIXTURE> 1 3.679002e-01
<MEAN> 20
 -6.693073e+00 -1.487647e+00 -1.304807e+01 -9.562443e+00 -8.429132e+00 -1.022403e+01 -1.220233e+01 -1.208144e+01 -3.876864e+00 -1.046499e+01 -8.448530e+00 -1.060050e+01 7.811937e-01 -1.003698e+01 -4.604616e+00 -6.783672e+00 5.566900e+00 -9.043487e+00 9.736706e-02 -9.583920e+00
<VARIANCE> 20
 8.673449e-01 4.075125e-01 2.282451e+01 4.529701e+00 4.259106e+00 1.830246e+00 6.743958e+00 2.128050e+01 3.034535e+00 1.699960e+00 5.879277e+00 2.842638e+01 2.573393e+00 1.442464e+00 4.090603e+00 8.336933e+00 2.677510e+00 1.323077e+00 6.033658e+00 2.371779e+01
<GCONST> 6.520478e+01
<MIXTURE> 2 1.953528e-01
<MEAN> 20
 -4.238786e+00 -2.914335e+00 -1.296138e+01 -9.520812e+00 -1.633878e+00 -1.000939e+01 -1.368112e+01 -1.073385e+01 7.144021e-01 -8.799758e+00 -9.238316e+00 -5.980331e+00 2.010549e+00 -6.862884e+00 -6.511649e+00 -3.520010e+00 2.554903e+00 -4.672788e+00 -5.068858e+00 -2.731894e+00
<VARIANCE> 20
 7.585516e+00 1.752676e+00 6.562791e+01 1.046716e+01 1.727442e+01 4.134333e+00 5.573581e+01 1.199536e+01 1.179174e+01 4.175167e+00 3.237459e+01 1.017007e+01 1.455451e+01 5.302853e+00 1.754924e+01 4.626764e+00 2.706197e+01 6.708694e+00 2.258773e+01 5.061464e+00
<GCONST> 8.502786e+01
<MIXTURE> 3 1.166093e-01
<MEAN> 20
 -3.861789e+00 -5.681083e+00 -2.835951e+01 -1.516155e+01 -1.195513e+01 -1.175012e+01 -4.119867e+01 -1.348426e+01 -1.232042e+01 -7.851917e+00 -2.525823e+01 -7.450844e+00 -1.302580e+01 -3.531202e+00 -2.018985e+01 -3.209422e+00 -1.391659e+01 5.927137e-01 -1.965442e+01 -9.734788e-02
<VARIANCE> 20
 6.199299e+00 1.584754e+00 3.040847e+01 3.491146e+01 1.977231e+01 6.923340e+00 6.428902e+01 2.027342e+01 2.340795e+01 9.151285e+00 7.877204e+01 1.191870e+01 2.747928e+01 1.051958e+01 1.610321e+01 6.691423e+00 3.131466e+01 1.078038e+01 1.928336e+01 6.349135e+00
<GCONST> 9.128936e+01
<MIXTURE> 4 3.201377e-01
<MEAN> 20
 -8.899240e+00 -1.652047e+00 -1.967880e+01 -1.169551e+01 -1.279635e+01 -1.264808e+01 -2.020673e+01 -1.355287e+01 -7.566933e+00 -1.328675e+01 -1.545004e+01 -1.194848e+01 -2.026664e+00 -1.301092e+01 -9.362929e+00 -8.748794e+00 3.651200e+00 -1.195355e+01 -4.155890e+00 -1.261273e+01
<VARIANCE> 20
 1.631965e+00 1.093905e+00 4.592865e+01 1.057983e+01 1.280418e+01 3.514263e+00 2.359896e+01 3.529556e+01 1.082149e+01 3.025757e+00 2.785547e+01 4.187504e+01 9.496968e+00 2.770397e+00 1.863791e+01 2.473269e+01 9.904774e+00 3.467031e+00 2.596861e+01 5.756361e+01
<GCONST> 8.485448e+01
<STATE> 3
<NUMMIXES> 4
<MIXTURE> 1 4.864578e-01
<MEAN> 20
 -7.216362e+00 -2.640162e+00 -1.243083e+01 -1.238741e+01 -5.771773e+00 -1.286562e+01 -1.355356e+01 -1.395426e+01 -6.769603e-01 -1.281010e+01 -9.783940e+00 -1.112477e+01 4.219986e+00 -1.180321e+01 -5.121758e+00 -6.344019e+00 8.809108e+00 -1.002671e+01 -6.972231e-01 -7.179095e+00
<VARIANCE> 20
 8.001027e-01 4.728843e-01 3.621637e+01 4.770807e+00 6.400334e+00 1.957983e+00 1.147047e+01 2.268286e+01 5.820154e+00 1.706570e+00 1.285381e+01 2.223488e+01 4.457170e+00 1.386136e+00 6.754951e+00 3.922439e+00 3.237908e+00 1.372012e+00 9.029955e+00 9.448424e+00
<GCONST> 6.801403e+01
<MIXTURE> 2 2.129581e-01
<MEAN> 20
 -1.049115e+01 -2.442675e+00 -2.249085e+01 -1.539220e+01 -1.385591e+01 -1.604583e+01 -2.386772e+01 -1.757007e+01 -7.548252e+00 -1.669928e+01 -1.802955e+01 -1.528643e+01 -1.143942e+00 -1.606502e+01 -1.048960e+01 -9.305907e+00 5.027430e+00 -1.438722e+01 -4.329206e+00 -1.254747e+01
<VARIANCE> 20
 2.889582e+00 2.141536e+00 5.944425e+01 1.972083e+01 2.558017e+01 6.544503e+00 3.659318e+01 4.991362e+01 1.733091e+01 6.502616e+00 4.112392e+01 6.969719e+01 1.222140e+01 6.706501e+00 2.666405e+01 2.532608e+01 1.502851e+01 7.792497e+00 4.718134e+01 6.878220e+01
<GCONST> 9.473239e+01
<MIXTURE> 3 1.949017e-01
<MEAN> 20
 -6.090984e+00 -4.739013e+00 -1.881819e+01 -1.452738e+01 -6.376411e-01 -1.400784e+01 -2.039508e+01 -1.592286e+01 2.219225e+00 -1.212848e+01 -1.216230e+01 -8.090889e+00 3.218784e+00 -9.200978e+00 -8.846391e+00 -5.350963e+00 3.001284e+00 -5.991927e+00 -7.974809e+00 -3.870385e+00
<VARIANCE> 20
 3.791370e+00 7.964667e-01 2.096083e+01 7.526723e+00 7.682304e+00 2.114535e+00 2.494805e+01 9.031498e+00 8.012009e+00 2.769654e+00 1.244611e+01 3.647560e+00 1.205351e+01 3.721442e+00 5.435362e+00 1.997974e+00 1.985244e+01 4.414599e+00 8.969987e+00 2.155948e+00
<GCONST> 7.166811e+01
<MIXTURE> 4 1.056824e-01
<MEAN> 20
 -4.726714e+00 -3.429982e+00 -2.130904e+01 -7.060468e+00 -1.004820e+01 -8.740677e+00 -2.757683e+01 -7.158486e+00 -8.814467e+00 -6.388983e+00 -2.086180e+01 -2.613094e+00 -7.901096e+00 -3.355716e+00 -1.570858e+01 6.918851e-02 -7.317756e+00 -2.402098e-01 -1.373842e+01 1.701570e+00
<VARIANCE> 20
 2.765598e+01 3.662576e+00 2.781329e+02 4.515348e+01 1.319885e+02 9.568567e+00 3.802986e+02 4.307143e+01 1.099054e+02 1.180800e+01 2.375218e+02 3.657526e+01 9.142708e+01 1.603255e+01 1.357186e+02 2.386030e+01 7.980043e+01 2.049286e+01 1.086152e+02 2.318559e+01
<GCONST> 1.145007e+02
<STATE> 4
<NUMMIXES> 4
<MIXTURE> 1 1.745392e-01
<MEAN> 20
 -2.697745e+00 -2.892360e+00 -5.633460e+00 -1.111640e+01 8.180502e-01 -1.189764e+01 -5.000600e+00 -1.385039e+01 2.587871e+00 -1.106394e+01 -2.734185e+00 -9.191466e+00 3.615290e+00 -9.285192e+00 -1.824530e+00 -6.169878e+00 4.146039e+00 -7.024383e+00 -9.365458e-01 -5.953588e+00
<VARIANCE> 20
 3.226685e+01 2.887214e+00 2.435975e+02 1.358255e+01 4.652015e+01 7.594994e+00 2.787879e+02 2.435433e+01 1.893780e+01 7.033697e+00 1.638912e+02 2.274298e+01 1.729004e+01 7.978377e+00 6.517747e+01 1.144741e+01 3.823270e+01 1.046635e+01 5.614471e+01 2.000554e+01
<GCONST> 1.017596e+02
<MIXTURE> 2 4.112903e-01
<MEAN> 20
 -8.203963e+00 -2.465184e+00 -1.485513e+01 -1.249113e+01 -8.850235e+00 -1.352329e+01 -1.670170e+01 -1.744272e+01 -3.647445e+00 -1.375283e+01 -1.266727e+01 -1.580417e+01 1.667822e+00 -1.299975e+01 -7.446665e+00 -8.952868e+00 6.955063e+00 -1.140199e+01 -2.776383e+00 -1.052147e+01
<VARIANCE> 20
 6.010614e-01 7.761871e-01 4.066875e+01 5.331435e+00 5.630838e+00 1.789084e+00 1.483827e+01 3.318664e+01 4.836672e+00 1.588283e+00 1.312172e+01 5.431486e+01 4.271901e+00 1.259897e+00 1.012336e+01 1.153760e+01 4.352744e+00 1.295327e+00 1.426023e+01 2.348554e+01
<GCONST> 7.247845e+01
<MIXTURE> 3 2.217742e-01
<MEAN> 20
 -2.144089e+00 -5.251271e+00 -1.956086e+01 -1.672640e+01 -3.275048e+00 -1.178573e+01 -2.756085e+01 -1.525722e+01 -3.716957e+00 -8.498157e+00 -1.284458e+01 -7.566763e+00 -5.406503e+00 -4.831890e+00 -1.249595e+01 -4.520967e+00 -7.766545e+00 -1.346144e+00 -1.254674e+01 -1.917468e+00
<VARIANCE> 20
 1.883899e+00 3.103256e-01 1.751897e+01 8.177028e+00 6.362793e+00 3.274910e+00 2.156884e+01 7.445570e+00 6.261209e+00 4.472705e+00 5.213234e+00 1.607173e+00 6.317333e+00 4.684568e+00 3.128869e+00 1.505404e+00 6.579944e+00 4.315842e+00 3.155971e+00 1.631125e+00
<GCONST> 6.468123e+01
<MIXTURE> 4 1.923963e-01
<MEAN> 20
 -8.083571e+00 -3.477141e+00 -2.751872e+01 -1.178430e+01 -1.186050e+01 -1.330364e+01 -3.182359e+01 -1.428250e+01 -8.508197e+00 -1.203029e+01 -2.319940e+01 -8.078935e+00 -5.912488e+00 -9.562431e+00 -1.704903e+01 -4.435901e+00 -4.021189e+00 -6.542284e+00 -1.488394e+01 -3.797719e+00
<VARIANCE> 20
 1.175841e+01 4.039352e+00 3.320687e+01 2.610849e+01 2.462032e+01 1.153003e+01 6.744480e+01 3.429130e+01 2.301397e+01 1.589843e+01 4.652982e+01 3.667758e+01 2.906196e+01 2.366903e+01 2.832357e+01 2.119658e+01 4.757109e+01 3.202268e+01 4.392127e+01 3.877701e+01
<GCONST> 1.018226e+02
<TRANSP> 5
 0.000000e+00 1.000000e+00 0.000000e+00 0.000000e+00 0.000000e+00
 0.000000e+00 7.646300e-01 2.353701e-01 0.000000e+00 0.000000e+00
 0.000000e+00 0.000000e+00 7.095061e-01 2.904939e-01 0.000000e+00
 0.000000e+00 0.000000e+00 0.000000e+00 6.849079e-01 3.150922e-01
 0.000000e+00 0.000000e+00 0.000000e+00 0.000000e+00 0.000000e+00
<ENDHMM>
