~o
<STREAMINFO> 1 20
<VECSIZE> 20<NULLD><USER><DIAGC>
~h "g"
<BEGINHMM>
<NUMSTATES> 8
<STATE> 2
<MEAN> 20
 -6.832211e+00 -2.602440e+00 -1.649423e+01 -1.184034e+01 -8.450544e+00 -1.217142e+01 -1.812436e+01 -1.377815e+01 -4.487986e+00 -1.176494e+01 -1.285432e+01 -1.092914e+01 -6.648792e-01 -1.053231e+01 -8.215037e+00 -6.923211e+00 3.023137e+00 -8.737269e+00 -4.139742e+00 -8.489597e+00
<VARIANCE> 20
 1.047424e+01 2.685469e+00 9.101672e+01 1.626015e+01 3.409829e+01 6.959448e+00 1.127581e+02 3.474528e+01 2.690577e+01 9.759205e+00 6.783098e+01 4.414523e+01 3.034965e+01 1.507574e+01 3.781857e+01 2.186853e+01 4.940548e+01 2.093461e+01 5.221843e+01 5.201601e+01
<GCONST> 1.024040e+02
<STATE> 3
<NUMMIXES> 4
<MIXTURE> 1 4.082633e-01
<MEAN> 20
 -7.551401e+00 -2.663406e+00 -1.219273e+01 -1.280086e+01 -7.014727e+00 -1.279450e+01 -1.388463e+01 -1.339450e+01 -1.994902e+00 -1.283739e+01 -1.029088e+01 -1.144411e+01 3.084102e+00 -1.205351e+01 -5.793185e+00 -6.914649e+00 8.097606e+00 -1.054137e+01 -8.749921e-01 -9.031786e+00
<VARIANCE> 20
 4.762620e-01 2.587660e-01 3.544476e+01 2.796306e+00 3.043276e+00 1.053271e+00 6.760285e+00 2.357478e+01 2.604380e+00 9.948395e-01 8.592242e+00 2.224459e+01 2.316364e+00 7.737995e-01 4.978899e+00 5.075199e+00 2.109550e+00 6.845874e-01 7.296948e+00 2.071413e+01
<GCONST> 6.090020e+01
<MIXTURE> 2 1.428571e-01
<MEAN> 20
 -3.537620e+00 -2.656215e+00 -9.272532e+00 -1.074747e+01 -1.804089e+00 -1.092231e+01 -9.643721e+00 -1.262192e+01 2.678728e-01 -1.026806e+01 -6.293814e+00 -8.581973e+00 1.730377e+00 -8.810954e+00 -4.338347e+00 -5.497885e+00 2.753237e+00 -6.944183e+00 -2.622479e+00 -6.036904e+00
<VARIANCE> 20
 2.221993e+01 2.850372e+00 1.441945e+02 1.566777e+01 3.685460e+01 9.419998e+00 1.402499e+02 2.381924e+01 1.419753e+01 8.417397e+00 6.581717e+01 2.059039e+01 1.338696e+01 8.726834e+00 3.172405e+01 9.817099e+00 3.486757e+01 1.012569e+01 3.969420e+01 2.109004e+01
<GCONST> 9.768610e+01
<MIXTURE> 3 3.291317e-01
<MEAN> 20
 -8.741411e+00 -1.362074e+00 -1.951242e+01 -1.100338e+01 -1.336823e+01 -1.211598e+01 -1.953906e+01 -1.281272e+01 -8.119489e+00 -1.285685e+01 -1.471132e+01 -1.174823e+01 -2.487988e+00 -1.272531e+01 -8.772768e+00 -8.733934e+00 3.370777e+00 -1.184273e+01 -3.512076e+00 -1.348178e+01
<VARIANCE> 20
 1.490195e+00 7.368026e-01 4.226894e+01 9.847722e+00 8.872703e+00 3.072757e+00 2.247092e+01 3.488020e+01 6.569472e+00 2.997983e+00 2.230409e+01 4.471294e+01 5.532122e+00 2.910215e+00 1.313473e+01 2.344306e+01 5.825674e+00 3.442244e+00 1.793031e+01 5.923448e+01
<GCONST> 8.121243e+01
<MIXTURE> 4 1.197479e-01
<MEAN> 20
 -6.592530e+00 -4.267946e+00 -2.711734e+01 -1.247012e+01 -1.123139e+01 -1.276233e+01 -3.445741e+01 -1.411395e+01 -9.389208e+00 -1.066967e+01 -2.435103e+01 -8.470361e+00 -8.334821e+00 -7.610513e+00 -1.858180e+01 -4.107887e+00 -7.902540e+00 -4.229522e+00 -1.702156e+01 -2.073648e+00
<VARIANCE> 20
 1.502446e+01 3.350411e+00 3.642586e+01 2.891445e+01 3.155070e+01 8.078917e+00 6.081404e+01 2.934037e+01 2.469607e+01 1.327764e+01 5.882331e+01 2.990574e+01 2.625106e+01 2.085394e+01 2.439347e+01 1.531653e+01 3.889860e+01 2.797128e+01 2.316152e+01 1.673992e+01
<GCONST> 9.910980e+01
<STATE> 4
<NUMMIXES> 4
<MIXTURE> 1 3.639960e-01
<MEAN> 20
 -6.638883e+00 -2.308783e+00 -1.273446e+01 -1.110920e+01 -5.765359e+00 -1.223298e+01 -1.243506e+01 -1.406077e+01 -1.114694e+00 -1.211921e+01 -8.900287e+00 -1.143985e+01 3.278246e+00 -1.106316e+01 -4.771564e+00 -6.820487e+00 7.384757e+00 -9.280953e+00 -7.639729e-01 -7.654277e+00
<VARIANCE> 20
 6.990568e+00 1.036094e+00 6.606075e+01 7.464367e+00 1.931953e+01 4.293731e+00 5.975745e+01 2.847394e+01 1.174778e+01 3.991879e+00 3.842535e+01 3.538551e+01 8.489801e+00 3.896523e+00 1.880934e+01 9.887050e+00 1.035112e+01 4.424885e+00 1.869639e+01 1.788111e+01
<GCONST> 8.621972e+01
<MIXTURE> 2 2.077151e-01
<MEAN> 20
 -3.817554e+00 -3.902121e+00 -1.468249e+01 -1.144038e+01 -1.393664e-01 -1.057048e+01 -1.776170e+01 -1.169731e+01 1.253812e+00 -8.483048e+00 -1.054757e+01 -5.746261e+00 1.087368e+00 -5.814444e+00 -8.452135e+00 -3.520754e+00 -2.504375e-02 -3.167602e+00 -7.907259e+00 -2.075047e+00
<VARIANCE> 20
 4.374630e+00 1.163698e+00 3.366499e+01 1.201000e+01 6.990301e+00 3.874549e+00 1.973148e+01 9.373302e+00 7.788115e+00 3.181400e+00 9.342114e+00 3.134561e+00 1.095253e+01 3.016296e+00 5.285007e+00 1.816955e+00 1.657784e+01 3.247907e+00 7.181761e+00 1.645325e+00
<GCONST> 7.170834e+01
<MIXTURE> 3 2.888229e-01
<MEAN> 20
 -1.068440e+01 -2.466060e+00 -2.322179e+01 -1.521892e+01 -1.442115e+01 -1.588817e+01 -2.522101e+01 -1.669594e+01 -8.363460e+00 -1.652685e+01 -1.993181e+01 -1.441827e+01 -2.212525e+00 -1.590419e+01 -1.226952e+01 -8.787938e+00 3.677958e+00 -1.424464e+01 -6.492677e+00 -1.233984e+01
<VARIANCE> 20
 2.705572e+00 2.135098e+00 5.301208e+01 1.888238e+01 2.287959e+01 6.938929e+00 3.702819e+01 5.196146e+01 1.589909e+01 6.730475e+00 4.442064e+01 6.603749e+01 1.252824e+01 6.796102e+00 3.241780e+01 2.097570e+01 1.810190e+01 7.953208e+00 6.244895e+01 7.207275e+01
<GCONST> 9.505456e+01
<MIXTURE> 4 1.394659e-01
<MEAN> 20
 -3.827612e+00 -5.488399e+00 -2.842543e+01 -1.478990e+01 -1.257998e+01 -1.057988e+01 -4.192154e+01 -1.178718e+01 -1.310640e+01 -6.418110e+00 -2.482528e+01 -6.213853e+00 -1.381457e+01 -2.012968e+00 -2.023313e+01 -2.232017e+00 -1.457778e+01 2.072936e+00 -1.965705e+01 9.302999e-01
<VARIANCE> 20
 5.208988e+00 1.485682e+00 3.491511e+01 3.935256e+01 2.769871e+01 4.930117e+00 6.419519e+01 1.882305e+01 2.773519e+01 4.865791e+00 8.840532e+01 1.092789e+01 2.671629e+01 5.283501e+00 1.957262e+01 6.918228e+00 2.624780e+01 5.823918e+00 2.344097e+01 5.596755e+00
<GCONST> 8.958560e+01
<STATE> 5
<NUMMIXES> 4
<MIXTURE> 1 3.818798e-01
<MEAN> 20
 -6.319514e+00 -1.391376e+00 -1.280585e+01 -8.914250e+00 -7.772573e+00 -9.710029e+00 -1.176741e+01 -1.148628e+01 -3.421042e+00 -9.920219e+00 -8.064717e+00 -9.673177e+00 9.922360e-01 -9.474523e+00 -4.426752e+00 -6.179234e+00 5.478994e+00 -8.477132e+00 -7.175821e-02 -8.332880e+00
<VARIANCE> 20
 6.956900e-01 2.898495e-01 2.318643e+01 4.066325e+00 4.506269e+00 1.358909e+00 7.874010e+00 1.686983e+01 3.463440e+00 1.246940e+00 5.899242e+00 2.241986e+01 2.913376e+00 1.102497e+00 4.091331e+00 8.008740e+00 2.750184e+00 1.174442e+00 6.285217e+00 2.122139e+01
<GCONST> 6.347354e+01
<MIXTURE> 2 3.717189e-01
<MEAN> 20
 -8.109157e+00 -3.318723e+00 -1.659736e+01 -1.365208e+01 -5.822335e+00 -1.444314e+01 -1.848306e+01 -1.631467e+01 -8.775669e-01 -1.418651e+01 -1.380410e+01 -1.204876e+01 3.489276e+00 -1.281370e+01 -8.300965e+00 -7.179837e+00 7.245902e+00 -1.064273e+01 -4.779000e+00 -7.756308e+00
<VARIANCE> 20
 1.126824e+00 1.353504e+00 4.517630e+01 5.787149e+00 1.658238e+01 1.818171e+00 2.286806e+01 1.855560e+01 1.286307e+01 1.549042e+00 1.852940e+01 2.606023e+01 8.657523e+00 2.378648e+00 1.240208e+01 7.601312e+00 1.033731e+01 4.176910e+00 1.885828e+01 1.683999e+01
<GCONST> 7.847149e+01
<MIXTURE> 3 1.541067e-01
<MEAN> 20
 -3.945179e+00 -4.431423e+00 -2.173862e+01 -1.247076e+01 -6.151690e+00 -1.114457e+01 -2.790813e+01 -1.308249e+01 -5.194795e+00 -8.483871e+00 -1.784196e+01 -5.949162e+00 -5.387841e+00 -5.165021e+00 -1.363788e+01 -3.074751e+00 -6.311592e+00 -1.840991e+00 -1.294574e+01 -9.013189e-01
<VARIANCE> 20
 8.737431e+00 1.346099e+00 3.903992e+01 1.713693e+01 1.713621e+01 7.215965e+00 4.868340e+01 1.743789e+01 1.488027e+01 9.579418e+00 4.587579e+01 5.257360e+00 1.657829e+01 1.038137e+01 1.307781e+01 4.063936e+00 2.140894e+01 1.001008e+01 1.235020e+01 3.859940e+00
<GCONST> 8.608780e+01
<MIXTURE> 4 9.229466e-02
<MEAN> 20
 -3.868952e+00 -2.868045e+00 -1.079331e+01 -1.090682e+01 -6.242514e+00 -1.212125e+01 -1.305910e+01 -1.271471e+01 -4.532027e+00 -1.115061e+01 -8.881618e+00 -9.308725e+00 -2.823711e+00 -9.216766e+00 -6.891874e+00 -5.748385e+00 -1.245893e+00 -6.769972e+00 -5.331921e+00 -5.920834e+00
<VARIANCE> 20
 5.767081e+01 4.954648e+00 5.631899e+02 4.592950e+01 1.990643e+02 1.895604e+01 7.908885e+02 7.110736e+01 1.311577e+02 2.837061e+01 5.013811e+02 8.961325e+01 9.686064e+01 4.257162e+01 2.389585e+02 5.684030e+01 1.000708e+02 5.677335e+01 1.899340e+02 8.750352e+01
<GCONST> 1.268854e+02
<STATE> 6
<NUMMIXES> 4
<MIXTURE> 1 2.811716e-01
<MEAN> 20
 -6.238013e+00 -3.170107e+00 -1.506814e+01 -1.182039e+01 -1.997442e+00 -1.246642e+01 -1.387237e+01 -1.392322e+01 2.221248e+00 -1.165001e+01 -8.918921e+00 -7.878963e+00 5.327189e+00 -9.803956e+00 -5.055394e+00 -5.086289e+00 7.593097e+00 -7.412323e+00 -2.574787e+00 -4.762772e+00
<VARIANCE> 20
 1.060469e+00 1.678521e+00 2.956440e+01 1.006181e+01 1.214820e+01 3.798197e+00 2.051692e+01 1.616539e+01 9.202486e+00 2.992376e+00 1.137492e+01 7.706786e+00 7.555677e+00 2.941434e+00 9.193093e+00 2.329224e+00 1.240066e+01 3.662652e+00 2.273786e+01 4.421824e+00
<GCONST> 7.504607e+01
<MIXTURE> 2 3.456067e-01
<MEAN> 20
 -8.231208e+00 -1.966937e+00 -1.491458e+01 -1.164697e+01 -1.031834e+01 -1.283326e+01 -1.625452e+01 -1.782757e+01 -5.061596e+00 -1.322455e+01 -1.208223e+01 -1.695016e+01 4.186783e-01 -1.262573e+01 -6.688082e+00 -9.119028e+00 6.027039e+00 -1.121593e+01 -1.905577e+00 -1.046263e+01
<VARIANCE> 20
 1.036447e+00 7.308248e-01 3.999608e+01 5.340416e+00 4.223872e+00 2.138372e+00 1.578979e+01 3.898760e+01 3.410139e+00 2.055195e+00 1.312165e+01 6.281154e+01 3.243430e+00 1.628059e+00 8.476994e+00 1.340335e+01 3.709134e+00 1.500950e+00 1.011555e+01 2.298112e+01
<GCONST> 7.269130e+01
<MIXTURE> 3 2.217573e-01
<MEAN> 20
 -2.453792e+00 -5.336809e+00 -1.967854e+01 -1.724143e+01 -3.080051e+00 -1.242473e+01 -2.756787e+01 -1.589736e+01 -3.287297e+00 -9.235651e+00 -1.277301e+01 -7.942684e+00 -4.826094e+00 -5.572183e+00 -1.225150e+01 -4.913370e+00 -7.107329e+00 -2.032467e+00 -1.227496e+01 -2.316247e+00
<VARIANCE> 20
 2.272405e+00 3.140167e-01 1.767828e+01 6.399145e+00 5.952853e+00 2.991730e+00 2.030595e+01 6.142912e+00 6.067604e+00 4.346330e+00 5.083391e+00 1.384655e+00 7.115002e+00 4.810976e+00 3.553944e+00 1.386841e+00 8.750960e+00 4.634159e+00 4.427430e+00 1.515341e+00
<GCONST> 6.481250e+01
<MIXTURE> 4 1.514644e-01
<MEAN> 20
 -6.509822e+00 -3.479068e+00 -2.464809e+01 -1.007988e+01 -1.198563e+01 -1.165547e+01 -3.048181e+01 -1.115588e+01 -9.518921e+00 -9.955890e+00 -2.152906e+01 -5.634211e+00 -7.342635e+00 -7.243495e+00 -1.638988e+01 -2.361649e+00 -5.573395e+00 -4.139280e+00 -1.395955e+01 -1.609489e+00
<VARIANCE> 20
 2.608490e+01 5.277405e+00 1.938230e+02 5.986316e+01 8.312837e+01 1.996824e+01 2.987298e+02 6.112660e+01 6.851660e+01 2.788043e+01 1.755209e+02 5.748894e+01 6.835378e+01 3.862671e+01 9.675756e+01 3.239367e+01 8.440629e+01 4.804213e+01 9.148807e+01 5.270169e+01
<GCONST> 1.177601e+02
<STATE> 7
<MEAN> 20
 -6.250860e+00 -3.146164e+00 -1.803125e+01 -1.226213e+01 -6.672370e+00 -1.236970e+01 -2.019278e+01 -1.450352e+01 -3.284478e+00 -1.141026e+01 -1.333448e+01 -9.948460e+00 -4.999001e-01 -9.557404e+00 -9.306926e+00 -6.101959e+00 1.834816e+00 -7.227807e+00 -6.479922e+00 -6.018314e+00
<VARIANCE> 20
 1.126781e+01 3.332257e+00 9.047766e+01 2.023791e+01 3.848277e+01 7.734251e+00 1.211552e+02 2.923645e+01 3.103808e+01 1.110301e+01 6.595089e+01 3.891835e+01 3.423413e+01 1.724061e+01 4.164005e+01 1.840085e+01 5.522083e+01 2.378103e+01 5.702884e+01 3.489800e+01
<GCONST> 1.032551e+02
<TRANSP> 8
 0.000000e+00 1.000000e+00 0.000000e+00 0.000000e+00 0.000000e+00 0.000000e+00 0.000000e+00 0.000000e+00
 0.000000e+00 3.642988e-03 9.963570e-01 0.000000e+00 0.000000e+00 0.000000e+00 0.000000e+00 0.000000e+00
 0.000000e+00 0.000000e+00 6.169468e-01 3.830532e-01 0.000000e+00 0.000000e+00 0.000000e+00 0.000000e+00
 0.000000e+00 0.000000e+00 0.000000e+00 4.589515e-01 5.410485e-01 0.000000e+00 0.000000e+00 0.000000e+00
 0.000000e+00 0.000000e+00 0.000000e+00 0.000000e+00 5.368332e-01 4.631668e-01 0.000000e+00 0.000000e+00
 0.000000e+00 0.000000e+00 0.000000e+00 0.000000e+00 0.000000e+00 5.422594e-01 4.577406e-01 0.000000e+00
 0.000000e+00 0.000000e+00 0.000000e+00 0.000000e+00 0.000000e+00 0.000000e+00 5.526771e-02 9.447323e-01
 0.000000e+00 0.000000e+00 0.000000e+00 0.000000e+00 0.000000e+00 0.000000e+00 0.000000e+00 0.000000e+00
<ENDHMM>
