~o
<STREAMINFO> 1 20
<VECSIZE> 20<NULLD><USER><DIAGC>
~h "i"
<BEGINHMM>
<NUMSTATES> 5
<STATE> 2
<NUMMIXES> 4
<MIXTURE> 1 2.870474e-01
<MEAN> 20
 -6.738827e+00 -1.386143e+00 -1.356019e+01 -9.327854e+00 -8.785699e+00 -1.004043e+01 -1.213046e+01 -1.164383e+01 -4.180827e+00 -1.032766e+01 -7.828039e+00 -9.448125e+00 5.130916e-01 -1.000262e+01 -3.880935e+00 -8.000836e+00 5.385609e+00 -9.141711e+00 1.493142e+00 -1.099996e+01
<VARIANCE> 20
 6.267361e-01 3.718103e-01 2.192126e+01 4.625766e+00 2.577229e+00 7.342787e-01 3.853628e+00 1.735965e+01 2.115216e+00 5.514481e-01 4.172199e+00 1.765343e+01 2.152117e+00 4.446763e-01 4.101172e+00 1.297962e+01 2.532368e+00 6.033109e-01 9.725482e+00 2.578130e+01
<GCONST> 5.909330e+01
<MIXTURE> 2 3.508357e-01
<MEAN> 20
 -7.721853e+00 -2.242796e+00 -1.320028e+01 -1.161446e+01 -8.665710e+00 -1.279700e+01 -1.484262e+01 -1.750001e+01 -3.534524e+00 -1.304905e+01 -1.059691e+01 -1.643513e+01 1.654474e+00 -1.227590e+01 -5.978702e+00 -1.119902e+01 6.848985e+00 -1.066092e+01 -5.068661e-01 -1.113849e+01
<VARIANCE> 20
 5.550971e-01 5.829611e-01 3.402729e+01 5.642566e+00 4.515549e+00 1.119511e+00 1.257236e+01 3.095090e+01 3.759799e+00 8.433571e-01 1.186437e+01 5.188935e+01 3.441912e+00 6.236675e-01 7.908153e+00 3.478008e+01 3.410350e+00 8.247225e-01 1.486544e+01 2.948147e+01
<GCONST> 6.954551e+01
<MIXTURE> 3 2.190808e-01
<MEAN> 20
 -9.510854e+00 -1.713342e+00 -2.315850e+01 -1.168646e+01 -1.351884e+01 -1.352130e+01 -2.332389e+01 -1.706127e+01 -8.305237e+00 -1.419660e+01 -1.921179e+01 -1.551130e+01 -2.926865e+00 -1.377279e+01 -1.320832e+01 -1.167929e+01 2.432460e+00 -1.241452e+01 -6.806110e+00 -1.384376e+01
<VARIANCE> 20
 1.756637e+00 1.440224e+00 4.555622e+01 1.281460e+01 1.615612e+01 4.384263e+00 2.354189e+01 4.310539e+01 1.168325e+01 3.950259e+00 2.925922e+01 6.110115e+01 8.683137e+00 3.889246e+00 2.817736e+01 4.809995e+01 1.096925e+01 4.973310e+00 4.427162e+01 6.497980e+01
<GCONST> 8.925369e+01
<MIXTURE> 4 1.430362e-01
<MEAN> 20
 -4.904613e+00 -3.431934e+00 -2.136652e+01 -8.138156e+00 -9.364559e+00 -1.041084e+01 -2.699092e+01 -1.149328e+01 -7.947870e+00 -8.673912e+00 -2.474224e+01 -7.193524e+00 -7.066514e+00 -6.104485e+00 -1.502431e+01 -2.604198e+00 -6.618139e+00 -3.255176e+00 -1.349024e+01 -1.456841e+00
<VARIANCE> 20
 1.549918e+01 4.712401e+00 1.126899e+02 3.127869e+01 6.385011e+01 1.078747e+01 1.909141e+02 4.892807e+01 5.353006e+01 9.964911e+00 2.083357e+02 5.593064e+01 4.955565e+01 1.250103e+01 7.237543e+01 1.824481e+01 5.507146e+01 1.712838e+01 7.460858e+01 2.111431e+01
<GCONST> 1.083620e+02
<STATE> 3
<NUMMIXES> 4
<MIXTURE> 1 3.544325e-01
<MEAN> 20
 -7.351193e+00 -2.669575e+00 -1.325576e+01 -1.315522e+01 -6.091362e+00 -1.307625e+01 -1.220035e+01 -1.511081e+01 -6.009362e-01 -1.296155e+01 -7.518077e+00 -8.915660e+00 4.606855e+00 -1.190795e+01 -3.235873e+00 -6.160308e+00 9.575909e+00 -1.012296e+01 1.660790e+00 -7.512882e+00
<VARIANCE> 20
 6.463286e-01 3.415800e-01 4.132207e+01 4.249574e+00 3.840906e+00 1.272164e+00 7.738778e+00 3.112909e+01 3.233895e+00 1.244495e+00 6.414949e+00 1.175107e+01 2.581039e+00 1.048181e+00 4.946208e+00 2.612145e+00 2.150906e+00 1.036876e+00 7.080090e+00 1.480765e+01
<GCONST> 6.220951e+01
<MIXTURE> 2 2.468947e-01
<MEAN> 20
 -9.416224e+00 -1.451139e+00 -2.285530e+01 -1.264508e+01 -1.440496e+01 -1.265737e+01 -1.818228e+01 -9.887801e+00 -8.927524e+00 -1.343046e+01 -1.239122e+01 -7.893802e+00 -3.000107e+00 -1.355147e+01 -8.200503e+00 -8.105289e+00 3.188497e+00 -1.304354e+01 -1.455215e+00 -1.902810e+01
<VARIANCE> 20
 1.193879e+00 8.326535e-01 2.248413e+01 7.682532e+00 4.823501e+00 3.239277e+00 9.648963e+00 9.888845e+00 4.017034e+00 2.849182e+00 8.610757e+00 6.933913e+00 4.018323e+00 2.322653e+00 9.907197e+00 6.878586e+00 5.079512e+00 2.205571e+00 1.668792e+01 5.929377e+01
<GCONST> 7.150613e+01
<MIXTURE> 3 2.499575e-01
<MEAN> 20
 -6.592810e+00 -1.561963e+00 -1.484227e+01 -8.205732e+00 -7.691384e+00 -1.040273e+01 -1.389944e+01 -1.315996e+01 -3.141994e+00 -1.050818e+01 -1.033128e+01 -1.042484e+01 1.261862e+00 -9.716183e+00 -6.019291e+00 -7.723499e+00 5.457839e+00 -8.253735e+00 -5.257175e-01 -8.851344e+00
<VARIANCE> 20
 9.829459e-01 9.237743e-01 3.059449e+01 7.371449e+00 9.410637e+00 2.433794e+00 1.938529e+01 2.816333e+01 7.079388e+00 1.852553e+00 2.132834e+01 3.740156e+01 5.569944e+00 1.531802e+00 1.640757e+01 2.470144e+01 5.995636e+00 2.069383e+00 3.213877e+01 3.000494e+01
<GCONST> 7.830695e+01
<MIXTURE> 4 1.487153e-01
<MEAN> 20
 -9.142175e+00 -2.795295e+00 -2.257864e+01 -1.419690e+01 -1.137055e+01 -1.560509e+01 -2.183750e+01 -1.880340e+01 -6.244386e+00 -1.567982e+01 -1.685806e+01 -1.450935e+01 -1.433744e+00 -1.448328e+01 -1.083321e+01 -1.003359e+01 2.977653e+00 -1.238868e+01 -5.537833e+00 -1.240938e+01
<VARIANCE> 20
 1.946881e+01 3.007614e+00 1.452270e+02 2.404078e+01 6.556769e+01 1.120358e+01 1.390628e+02 6.659182e+01 4.054864e+01 1.538007e+01 1.191164e+02 8.735028e+01 3.090039e+01 2.101015e+01 7.350899e+01 5.340357e+01 4.513646e+01 2.686071e+01 9.395581e+01 1.039607e+02
<GCONST> 1.114422e+02
<STATE> 4
<NUMMIXES> 4
<MIXTURE> 1 2.288067e-01
<MEAN> 20
 -5.489551e+00 -1.064175e+00 -1.098778e+01 -7.484420e+00 -7.211649e+00 -8.378336e+00 -9.809041e+00 -1.069675e+01 -3.273524e+00 -8.648421e+00 -6.247131e+00 -8.434956e+00 6.871207e-01 -8.381679e+00 -2.979724e+00 -6.758978e+00 4.737798e+00 -7.655484e+00 1.761630e+00 -8.803946e+00
<VARIANCE> 20
 5.961822e-01 2.448679e-01 1.824612e+01 5.081235e+00 2.803764e+00 1.289001e+00 5.537365e+00 1.596890e+01 1.621015e+00 1.201983e+00 4.439525e+00 1.575560e+01 1.278909e+00 1.007963e+00 3.934071e+00 9.618351e+00 1.593739e+00 9.092057e-01 7.977633e+00 1.711227e+01
<GCONST> 5.921918e+01
<MIXTURE> 2 3.313418e-01
<MEAN> 20
 -7.935472e+00 -2.092863e+00 -1.713451e+01 -1.229279e+01 -9.523539e+00 -1.165473e+01 -1.343668e+01 -9.548652e+00 -4.645758e+00 -1.184342e+01 -9.025520e+00 -7.840324e+00 5.073982e-01 -1.157885e+01 -5.627920e+00 -7.502358e+00 5.922180e+00 -1.085531e+01 3.365263e-01 -1.688761e+01
<VARIANCE> 20
 4.344048e-01 3.461497e-01 1.347121e+01 2.430113e+00 2.516512e+00 5.997913e-01 3.639761e+00 4.430519e+00 2.051107e+00 4.835186e-01 4.169570e+00 2.603006e+00 1.883851e+00 4.448721e-01 5.283414e+00 2.456836e+00 1.894956e+00 6.001796e-01 7.614335e+00 2.559534e+01
<GCONST> 5.170762e+01
<MIXTURE> 3 3.492653e-01
<MEAN> 20
 -8.742999e+00 -2.306502e+00 -1.777674e+01 -1.297355e+01 -1.044259e+01 -1.409970e+01 -1.763733e+01 -1.765902e+01 -4.868906e+00 -1.445697e+01 -1.311935e+01 -1.574855e+01 7.581555e-01 -1.374116e+01 -7.912769e+00 -1.187647e+01 6.355179e+00 -1.213857e+01 -1.106484e+00 -1.380423e+01
<VARIANCE> 20
 1.496033e+00 1.325775e+00 4.963320e+01 1.196675e+01 1.190983e+01 3.339005e+00 2.056393e+01 4.108658e+01 9.389282e+00 3.031840e+00 2.231991e+01 6.404505e+01 7.690694e+00 2.765188e+00 1.946474e+01 4.350121e+01 7.917580e+00 2.984964e+00 4.500884e+01 4.842108e+01
<GCONST> 8.551319e+01
<MIXTURE> 4 9.058615e-02
<MEAN> 20
 -5.477217e-02 -2.328848e+00 -2.118426e+00 -9.026778e+00 9.268064e-01 -1.076309e+01 -3.447752e+00 -1.159278e+01 5.737736e-01 -1.020172e+01 -2.791045e+00 -7.722939e+00 -1.451791e-01 -8.720750e+00 -2.190361e+00 -4.469198e+00 -1.100492e+00 -6.733344e+00 -2.343040e+00 -6.030311e+00
<VARIANCE> 20
 5.405931e+01 3.757005e+00 4.690493e+02 2.967746e+01 1.501563e+02 1.267328e+01 5.055500e+02 6.112449e+01 8.587106e+01 1.667374e+01 3.365332e+02 5.581985e+01 5.747852e+01 2.323104e+01 1.580972e+02 3.178817e+01 6.300294e+01 3.063094e+01 1.160666e+02 7.920439e+01
<GCONST> 1.190202e+02
<TRANSP> 5
 0.000000e+00 1.000000e+00 0.000000e+00 0.000000e+00 0.000000e+00
 0.000000e+00 7.547354e-01 2.452646e-01 0.000000e+00 0.000000e+00
 0.000000e+00 0.000000e+00 7.003573e-01 2.996427e-01 0.000000e+00
 0.000000e+00 0.000000e+00 0.000000e+00 7.156467e-01 2.843533e-01
 0.000000e+00 0.000000e+00 0.000000e+00 0.000000e+00 0.000000e+00
<ENDHMM>
