~o
<STREAMINFO> 1 20
<VECSIZE> 20<NULLD><USER><DIAGC>
~h "i"
<BEGINHMM>
<NUMSTATES> 8
<STATE> 2
<MEAN> 20
 -7.372973e+00 -2.030437e+00 -1.646142e+01 -1.089473e+01 -9.168870e+00 -1.209221e+01 -1.580460e+01 -1.445799e+01 -4.466459e+00 -1.219726e+01 -1.166014e+01 -1.157946e+01 1.663308e-01 -1.139322e+01 -6.837690e+00 -8.451578e+00 4.704928e+00 -9.889659e+00 -1.664279e+00 -1.051961e+01
<VARIANCE> 20
 8.064277e+00 1.607884e+00 8.148038e+01 1.399870e+01 2.749343e+01 6.589910e+00 7.266797e+01 4.267652e+01 1.998639e+01 7.588565e+00 7.071317e+01 5.287255e+01 1.899000e+01 9.104618e+00 3.630923e+01 3.287394e+01 2.699666e+01 1.114080e+01 4.888821e+01 5.556228e+01
<GCONST> 9.869730e+01
<STATE> 3
<NUMMIXES> 4
<MIXTURE> 1 2.556818e-01
<MEAN> 20
 -5.593858e+00 -1.049875e+00 -1.123741e+01 -7.529947e+00 -7.506847e+00 -8.574083e+00 -9.907095e+00 -1.088660e+01 -3.423054e+00 -8.847756e+00 -6.190565e+00 -8.613702e+00 6.651239e-01 -8.556168e+00 -2.760727e+00 -7.019147e+00 4.839032e+00 -7.784105e+00 1.726052e+00 -8.490207e+00
<VARIANCE> 20
 6.754520e-01 2.605190e-01 1.807757e+01 5.746590e+00 2.652298e+00 1.309249e+00 4.967525e+00 1.640069e+01 1.551756e+00 1.209562e+00 3.821944e+00 1.679672e+01 1.316775e+00 1.027024e+00 3.663869e+00 1.177138e+01 1.686938e+00 9.592742e-01 7.697014e+00 1.706317e+01
<GCONST> 5.952522e+01
<MIXTURE> 2 4.026680e-01
<MEAN> 20
 -7.570188e+00 -2.161383e+00 -1.292686e+01 -1.132817e+01 -8.508430e+00 -1.250466e+01 -1.390781e+01 -1.680525e+01 -3.367413e+00 -1.273857e+01 -9.594783e+00 -1.559340e+01 1.816944e+00 -1.197649e+01 -5.177398e+00 -1.081514e+01 7.027063e+00 -1.040437e+01 1.897402e-01 -1.101652e+01
<VARIANCE> 20
 5.373398e-01 4.980290e-01 3.390139e+01 5.882205e+00 4.079566e+00 1.265057e+00 1.063288e+01 3.499611e+01 3.651464e+00 1.057268e+00 8.438107e+00 5.787675e+01 3.562082e+00 7.418021e-01 6.378516e+00 3.535563e+01 3.541653e+00 8.088068e-01 1.334106e+01 3.049412e+01
<GCONST> 6.928773e+01
<MIXTURE> 3 2.378953e-01
<MEAN> 20
 -9.320045e+00 -2.062934e+00 -2.238596e+01 -1.186393e+01 -1.207234e+01 -1.362025e+01 -2.224214e+01 -1.660924e+01 -7.099185e+00 -1.403899e+01 -1.854839e+01 -1.444524e+01 -2.190147e+00 -1.337189e+01 -1.283388e+01 -1.057650e+01 2.502261e+00 -1.182653e+01 -7.141394e+00 -1.292781e+01
<VARIANCE> 20
 1.873129e+00 2.007926e+00 3.732120e+01 1.351322e+01 2.094920e+01 5.114701e+00 2.823015e+01 4.218358e+01 1.435077e+01 4.453287e+00 3.899688e+01 5.435098e+01 9.425408e+00 4.772012e+00 3.314892e+01 3.932627e+01 1.314362e+01 6.644529e+00 5.324926e+01 6.310112e+01
<GCONST> 9.144703e+01
<MIXTURE> 4 1.037549e-01
<MEAN> 20
 -4.702628e+00 -3.102829e+00 -2.068258e+01 -6.372198e+00 -1.012442e+01 -9.536138e+00 -2.597417e+01 -9.284853e+00 -8.708524e+00 -7.891233e+00 -2.438429e+01 -5.025538e+00 -7.615145e+00 -5.386128e+00 -1.458240e+01 -1.295236e+00 -6.846684e+00 -2.587907e+00 -1.293420e+01 -3.898042e-01
<VARIANCE> 20
 2.383088e+01 5.613226e+00 1.988068e+02 3.245729e+01 9.866238e+01 1.218748e+01 3.178727e+02 5.989380e+01 7.958256e+01 1.186897e+01 3.238324e+02 6.996355e+01 7.080817e+01 1.533665e+01 1.160248e+02 2.619386e+01 7.397054e+01 2.087752e+01 1.092418e+02 2.856255e+01
<GCONST> 1.146487e+02
<STATE> 4
<NUMMIXES> 4
<MIXTURE> 1 3.425660e-01
<MEAN> 20
 -7.393275e+00 -2.649332e+00 -1.344689e+01 -1.317870e+01 -6.271045e+00 -1.302016e+01 -1.213655e+01 -1.505430e+01 -7.516814e-01 -1.292419e+01 -7.457709e+00 -8.548117e+00 4.506866e+00 -1.189970e+01 -3.083794e+00 -6.085664e+00 9.566085e+00 -1.014429e+01 1.681535e+00 -7.204543e+00
<VARIANCE> 20
 5.432931e-01 3.337487e-01 4.230206e+01 4.124402e+00 3.173226e+00 1.337541e+00 7.116838e+00 3.208677e+01 2.725845e+00 1.276000e+00 5.983994e+00 6.645087e+00 2.379381e+00 9.780633e-01 4.361650e+00 2.322607e+00 2.132115e+00 8.449905e-01 5.268999e+00 1.254808e+01
<GCONST> 5.995807e+01
<MIXTURE> 2 3.203554e-01
<MEAN> 20
 -8.622781e+00 -1.549599e+00 -1.972505e+01 -1.127350e+01 -1.250692e+01 -1.235126e+01 -1.816514e+01 -1.381754e+01 -7.267341e+00 -1.299196e+01 -1.327468e+01 -1.225953e+01 -1.683613e+00 -1.280850e+01 -8.548055e+00 -1.024634e+01 4.140669e+00 -1.188147e+01 -2.113667e+00 -1.540152e+01
<VARIANCE> 20
 7.962245e-01 8.110899e-01 3.556834e+01 7.365401e+00 5.089157e+00 1.599759e+00 1.157548e+01 3.635757e+01 3.749135e+00 1.331107e+00 1.361051e+01 4.527258e+01 3.458030e+00 1.056882e+00 1.243570e+01 2.633226e+01 4.157298e+00 1.340981e+00 1.812753e+01 4.770970e+01
<GCONST> 7.362711e+01
<MIXTURE> 3 2.134831e-01
<MEAN> 20
 -6.420796e+00 -1.293826e+00 -1.437175e+01 -7.916758e+00 -8.322960e+00 -9.788870e+00 -1.347651e+01 -1.249404e+01 -3.917250e+00 -1.002608e+01 -9.846686e+00 -1.003616e+01 4.900558e-01 -9.476927e+00 -5.742046e+00 -7.759024e+00 4.855916e+00 -8.307170e+00 -4.791853e-01 -9.417495e+00
<VARIANCE> 20
 8.935245e-01 5.917226e-01 2.588367e+01 6.245097e+00 5.152657e+00 2.072194e+00 1.407197e+01 2.656501e+01 3.553414e+00 1.700668e+00 1.658816e+01 3.197172e+01 3.042545e+00 1.401734e+00 1.347291e+01 2.234975e+01 3.799968e+00 1.725359e+00 2.137565e+01 2.832629e+01
<GCONST> 7.301439e+01
<MIXTURE> 4 1.235955e-01
<MEAN> 20
 -7.658099e+00 -2.934300e+00 -1.957915e+01 -1.291832e+01 -8.902316e+00 -1.450943e+01 -1.994934e+01 -1.745395e+01 -4.762756e+00 -1.427591e+01 -1.580046e+01 -1.415202e+01 -1.065167e+00 -1.281264e+01 -1.063931e+01 -9.465825e+00 2.155638e+00 -1.051899e+01 -6.502137e+00 -1.026211e+01
<VARIANCE> 20
 2.780242e+01 3.233970e+00 1.956463e+02 2.950920e+01 8.088138e+01 1.431963e+01 2.026010e+02 7.875001e+01 5.231859e+01 1.795280e+01 1.839257e+02 1.027555e+02 4.381880e+01 2.257559e+01 1.037265e+02 6.350514e+01 6.039320e+01 2.728333e+01 1.206526e+02 8.325776e+01
<GCONST> 1.156533e+02
<STATE> 5
<NUMMIXES> 4
<MIXTURE> 1 3.520977e-01
<MEAN> 20
 -6.842090e+00 -1.419255e+00 -1.388348e+01 -9.510124e+00 -8.903421e+00 -1.004634e+01 -1.234283e+01 -1.124103e+01 -4.340609e+00 -1.034036e+01 -8.112995e+00 -9.045008e+00 3.499428e-01 -1.006267e+01 -4.217669e+00 -7.814879e+00 5.242512e+00 -9.273074e+00 1.327696e+00 -1.170392e+01
<VARIANCE> 20
 5.910404e-01 3.025601e-01 2.035405e+01 3.946444e+00 2.595297e+00 7.727466e-01 4.132630e+00 1.537832e+01 2.038487e+00 6.163346e-01 4.195954e+00 1.457780e+01 1.978500e+00 5.252897e-01 4.367959e+00 1.116030e+01 2.315254e+00 6.579674e-01 1.054573e+01 2.691879e+01
<GCONST> 5.860658e+01
<MIXTURE> 2 3.112055e-01
<MEAN> 20
 -7.992033e+00 -2.712832e+00 -1.536838e+01 -1.309450e+01 -7.795605e+00 -1.336966e+01 -1.512499e+01 -1.580273e+01 -2.659490e+00 -1.342718e+01 -1.117445e+01 -1.290594e+01 2.452729e+00 -1.260258e+01 -6.775275e+00 -9.494916e+00 7.452602e+00 -1.102274e+01 -1.384460e-01 -1.258904e+01
<VARIANCE> 20
 6.741159e-01 7.057016e-01 3.176045e+01 5.026679e+00 5.283422e+00 1.269043e+00 1.248404e+01 3.097958e+01 4.403115e+00 9.895638e-01 1.793048e+01 4.014351e+01 3.799913e+00 7.807882e-01 1.459383e+01 2.374600e+01 4.151221e+00 1.077229e+00 3.133517e+01 4.072564e+01
<GCONST> 7.258394e+01
<MIXTURE> 3 2.419012e-01
<MEAN> 20
 -1.046427e+01 -1.598005e+00 -2.558969e+01 -1.379198e+01 -1.612054e+01 -1.452401e+01 -2.245426e+01 -1.467073e+01 -1.007698e+01 -1.543008e+01 -1.625584e+01 -1.231258e+01 -3.612883e+00 -1.536733e+01 -1.059900e+01 -1.023629e+01 3.027077e+00 -1.444496e+01 -3.064913e+00 -1.835446e+01
<VARIANCE> 20
 1.854816e+00 1.074583e+00 4.486239e+01 1.471569e+01 6.069088e+00 6.254942e+00 2.451837e+01 5.370404e+01 5.471572e+00 5.871404e+00 2.682737e+01 6.384049e+01 6.803776e+00 4.714035e+00 2.520415e+01 3.297297e+01 9.882464e+00 4.255389e+00 3.629274e+01 9.054741e+01
<GCONST> 8.770190e+01
<MIXTURE> 4 9.479554e-02
<MEAN> 20
 -1.442947e-01 -2.334821e+00 -1.326523e+00 -8.302163e+00 1.213255e+00 -1.028774e+01 -2.496870e+00 -1.162509e+01 9.296694e-01 -9.677667e+00 -2.791982e+00 -7.938619e+00 2.732785e-01 -8.170906e+00 -1.707425e+00 -4.420123e+00 -6.158382e-01 -6.184266e+00 -1.707351e+00 -5.383072e+00
<VARIANCE> 20
 4.648557e+01 3.773145e+00 3.948923e+02 2.617320e+01 1.148254e+02 1.345254e+01 4.373277e+02 5.319687e+01 6.571896e+01 1.466728e+01 3.299033e+02 4.698573e+01 4.907078e+01 1.766524e+01 1.423296e+02 2.390772e+01 6.056327e+01 2.220182e+01 1.106421e+02 5.237660e+01
<GCONST> 1.158507e+02
<STATE> 6
<NUMMIXES> 4
<MIXTURE> 1 2.560571e-01
<MEAN> 20
 -6.414706e+00 -1.906987e+00 -1.199637e+01 -9.965592e+00 -6.391255e+00 -1.092450e+01 -1.150899e+01 -1.335738e+01 -1.683030e+00 -1.094986e+01 -7.478555e+00 -1.041198e+01 2.861367e+00 -1.016333e+01 -3.693645e+00 -7.366717e+00 7.249081e+00 -8.736390e+00 1.830920e+00 -9.112113e+00
<VARIANCE> 20
 7.438303e-01 6.894988e-01 2.793563e+01 7.482790e+00 6.654471e+00 3.001837e+00 9.149997e+00 2.487181e+01 6.059373e+00 2.454241e+00 8.708996e+00 2.922941e+01 5.615075e+00 1.714462e+00 6.997402e+00 1.284513e+01 5.417423e+00 1.408608e+00 1.792989e+01 2.127059e+01
<GCONST> 7.283234e+01
<MIXTURE> 2 3.228768e-01
<MEAN> 20
 -8.013572e+00 -2.063301e+00 -1.757653e+01 -1.229865e+01 -9.774529e+00 -1.165920e+01 -1.349328e+01 -9.284191e+00 -4.898912e+00 -1.187457e+01 -9.116114e+00 -7.731339e+00 2.720115e-01 -1.165888e+01 -5.830465e+00 -7.526750e+00 5.707312e+00 -1.100300e+01 1.052331e-01 -1.785966e+01
<VARIANCE> 20
 4.069718e-01 3.058804e-01 1.150251e+01 1.951739e+00 2.383423e+00 5.345580e-01 3.204557e+00 3.105886e+00 1.885276e+00 4.446821e-01 3.647849e+00 2.053690e+00 1.709220e+00 4.080930e-01 4.627864e+00 1.956606e+00 1.695221e+00 5.147829e-01 7.251370e+00 1.950369e+01
<GCONST> 4.882149e+01
<MIXTURE> 3 2.940576e-01
<MEAN> 20
 -9.270692e+00 -2.210212e+00 -1.881054e+01 -1.373176e+01 -1.191880e+01 -1.453231e+01 -1.887643e+01 -1.738184e+01 -6.146624e+00 -1.506963e+01 -1.379867e+01 -1.608497e+01 -2.149229e-01 -1.449776e+01 -8.165854e+00 -1.232068e+01 5.782433e+00 -1.300628e+01 -1.572113e+00 -1.476192e+01
<VARIANCE> 20
 1.611778e+00 1.356644e+00 5.592258e+01 1.106945e+01 1.065203e+01 3.710864e+00 2.125131e+01 4.609591e+01 8.639890e+00 3.197911e+00 2.066138e+01 7.298214e+01 7.689540e+00 2.650542e+00 1.718947e+01 5.099904e+01 8.711408e+00 2.725528e+00 3.628197e+01 5.614664e+01
<GCONST> 8.574690e+01
<MIXTURE> 4 1.270084e-01
<MEAN> 20
 -4.236431e+00 -3.439770e+00 -1.885595e+01 -9.840110e+00 -6.978485e+00 -1.118587e+01 -2.390547e+01 -1.307670e+01 -5.924175e+00 -9.617772e+00 -2.087681e+01 -8.884478e+00 -5.539709e+00 -7.235015e+00 -1.314403e+01 -4.057005e+00 -5.624459e+00 -4.554369e+00 -1.215545e+01 -3.364704e+00
<VARIANCE> 20
 2.083623e+01 4.199445e+00 1.603576e+02 2.405981e+01 6.771571e+01 8.482343e+00 2.268137e+02 3.922443e+01 4.685706e+01 8.787827e+00 1.922182e+02 3.952723e+01 3.575506e+01 1.274528e+01 6.728941e+01 1.369474e+01 3.820952e+01 1.889935e+01 5.639230e+01 3.102324e+01
<GCONST> 1.068871e+02
<STATE> 7
<MEAN> 20
 -7.470273e+00 -1.967816e+00 -1.656871e+01 -1.109900e+01 -9.369293e+00 -1.195295e+01 -1.566417e+01 -1.343042e+01 -4.686832e+00 -1.212625e+01 -1.143697e+01 -1.079866e+01 2.038481e-02 -1.148327e+01 -6.965026e+00 -8.413149e+00 4.717380e+00 -1.018376e+01 -1.471926e+00 -1.217271e+01
<VARIANCE> 20
 7.437304e+00 1.439026e+00 7.645174e+01 1.379527e+01 2.659216e+01 6.102289e+00 6.691710e+01 3.695916e+01 1.865038e+01 6.852338e+00 5.577681e+01 4.312489e+01 1.594141e+01 8.022686e+00 3.343556e+01 2.657191e+01 2.108669e+01 9.773001e+00 4.291586e+01 5.568861e+01
<GCONST> 9.637541e+01
<TRANSP> 8
 0.000000e+00 1.000000e+00 0.000000e+00 0.000000e+00 0.000000e+00 0.000000e+00 0.000000e+00 0.000000e+00
 0.000000e+00 3.559694e-02 9.644031e-01 0.000000e+00 0.000000e+00 0.000000e+00 0.000000e+00 0.000000e+00
 0.000000e+00 0.000000e+00 5.649704e-01 4.350297e-01 0.000000e+00 0.000000e+00 0.000000e+00 0.000000e+00
 0.000000e+00 0.000000e+00 0.000000e+00 5.398484e-01 4.601516e-01 0.000000e+00 0.000000e+00 0.000000e+00
 0.000000e+00 0.000000e+00 0.000000e+00 0.000000e+00 5.323951e-01 4.676049e-01 0.000000e+00 0.000000e+00
 0.000000e+00 0.000000e+00 0.000000e+00 0.000000e+00 0.000000e+00 5.508799e-01 4.491201e-01 0.000000e+00
 0.000000e+00 0.000000e+00 0.000000e+00 0.000000e+00 0.000000e+00 0.000000e+00 5.424275e-02 9.457573e-01
 0.000000e+00 0.000000e+00 0.000000e+00 0.000000e+00 0.000000e+00 0.000000e+00 0.000000e+00 0.000000e+00
<ENDHMM>
