~o
<STREAMINFO> 1 20
<VECSIZE> 20<NULLD><USER><DIAGC>
~h "j"
<BEGINHMM>
<NUMSTATES> 8
<STATE> 2
<MEAN> 20
 -7.633746e+00 -1.647604e+00 -1.816022e+01 -9.516557e+00 -1.124677e+01 -1.163811e+01 -1.694047e+01 -1.178643e+01 -6.608491e+00 -1.192325e+01 -1.263811e+01 -1.048656e+01 -1.841955e+00 -1.127580e+01 -8.964577e+00 -8.312540e+00 2.907573e+00 -9.915724e+00 -3.715828e+00 -1.257385e+01
<VARIANCE> 20
 8.650084e+00 1.954514e+00 4.045055e+01 2.043640e+01 1.561721e+01 5.614612e+00 3.507286e+01 4.651466e+01 1.510097e+01 6.399719e+00 3.275214e+01 6.117747e+01 2.354218e+01 8.417397e+00 4.031285e+01 3.761377e+01 3.834794e+01 1.193767e+01 1.216238e+02 6.536258e+01
<GCONST> 9.806777e+01
<STATE> 3
<NUMMIXES> 4
<MIXTURE> 1 5.569620e-01
<MEAN> 20
 -6.768500e+00 -1.339816e+00 -1.212951e+01 -7.303856e+00 -8.476178e+00 -1.094579e+01 -1.077121e+01 -1.439982e+01 -3.295494e+00 -1.115917e+01 -7.581616e+00 -1.303366e+01 1.826088e+00 -1.031016e+01 -3.489490e+00 -7.316755e+00 6.785038e+00 -8.691029e+00 2.520495e+00 -8.208989e+00
<VARIANCE> 20
 1.070877e+00 4.180552e-01 2.381876e+01 7.814194e+00 2.362441e+00 2.766218e+00 9.574426e+00 4.705696e+01 1.313604e+00 2.921257e+00 7.363053e+00 7.732807e+01 1.196498e+00 2.266293e+00 7.043333e+00 1.804578e+01 1.866025e+00 1.681192e+00 1.628220e+01 2.308720e+01
<GCONST> 6.977245e+01
<MIXTURE> 2 1.265823e-01
<MEAN> 20
 -6.815256e+00 -2.721398e+00 -2.802313e+01 -4.559355e+00 -1.327068e+01 -9.339726e+00 -2.967057e+01 -4.484767e+00 -1.011357e+01 -7.580033e+00 -2.581103e+01 -1.790924e+00 -7.666192e+00 -4.713045e+00 -2.328373e+01 7.551272e-01 -5.826950e+00 -1.313572e+00 -2.537274e+01 2.964324e+00
<VARIANCE> 20
 1.143486e+01 4.988880e+00 8.926904e+00 1.424854e+01 2.253989e+01 2.718364e+00 2.200865e+01 1.503743e+01 9.879061e+00 8.109745e-01 2.405061e+01 1.464775e+01 5.010231e+00 3.386105e+00 1.941063e+01 6.688487e+00 1.511521e+01 7.244231e+00 4.896794e+01 8.081785e+00
<GCONST> 8.188383e+01
<MIXTURE> 3 7.594936e-02
<MEAN> 20
 1.443690e-01 -5.914561e+00 -1.995530e+01 -1.544178e+01 -6.141869e+00 -1.397858e+01 -2.099713e+01 -1.662506e+01 -9.255963e+00 -1.127911e+01 -2.364964e+01 -1.393346e+01 -1.249350e+01 -7.847484e+00 -2.340553e+01 -8.574855e+00 -1.536437e+01 -4.220068e+00 -3.474583e+01 -8.978822e+00
<VARIANCE> 20
 4.365353e+00 7.529313e-01 2.429746e+01 7.299473e+00 4.017762e+00 1.191714e+01 1.734627e+01 5.829897e+00 4.612616e+00 1.021090e+01 1.931500e+01 1.280008e+01 9.424272e+00 6.930082e+00 1.231121e+01 2.873813e+00 1.218346e+01 3.597019e+00 1.313235e+02 6.150533e+00
<GCONST> 7.919299e+01
<MIXTURE> 4 2.405063e-01
<MEAN> 20
 -8.581700e+00 -8.769757e-01 -2.132713e+01 -1.057946e+01 -1.499227e+01 -1.165235e+01 -1.841297e+01 -1.279412e+01 -9.727418e+00 -1.268456e+01 -1.296633e+01 -1.229609e+01 -3.970865e+00 -1.294655e+01 -8.455623e+00 -1.126181e+01 2.170245e+00 -1.245816e+01 -3.355220e+00 -1.955928e+01
<VARIANCE> 20
 1.038024e+00 1.081760e+00 6.575283e+01 6.784282e+00 2.503151e+01 1.597093e+00 1.085181e+01 4.942088e+01 2.134896e+01 1.507663e+00 6.665424e+00 6.788899e+01 1.730076e+01 1.827913e+00 1.370666e+01 4.465164e+01 1.501130e+01 3.662404e+00 3.217700e+01 4.981087e+01
<GCONST> 8.379046e+01
<STATE> 4
<NUMMIXES> 4
<MIXTURE> 1 3.454545e-01
<MEAN> 20
 -6.991849e+00 -1.860151e+00 -1.253185e+01 -9.166190e+00 -8.261835e+00 -1.156701e+01 -1.250616e+01 -1.387985e+01 -3.307661e+00 -1.176661e+01 -8.101174e+00 -1.270467e+01 1.667014e+00 -1.104393e+01 -3.048482e+00 -9.433564e+00 6.712450e+00 -9.543517e+00 2.319117e+00 -8.740791e+00
<VARIANCE> 20
 1.133221e+00 3.226392e+00 2.367889e+01 2.283087e+01 6.938377e+00 3.889669e+00 1.028943e+01 3.147513e+01 4.429979e+00 3.674034e+00 7.915193e+00 4.936972e+01 2.395444e+00 3.687649e+00 3.044824e+00 2.083940e+01 1.892899e+00 3.708174e+00 1.146781e+01 1.428164e+01
<GCONST> 7.555619e+01
<MIXTURE> 2 1.454545e-01
<MEAN> 20
 -5.821239e+00 -2.349243e-01 -2.213003e+01 -6.392539e-01 -6.894706e+00 -6.930716e+00 -2.080998e+01 -3.047357e+00 -4.680572e+00 -7.360084e+00 -2.011081e+01 -2.320002e+00 -3.554878e+00 -6.775898e+00 -1.826956e+01 -1.813659e+00 -3.285258e+00 -5.519340e+00 -1.599694e+01 -1.932892e+00
<VARIANCE> 20
 1.115138e+01 2.463725e+00 1.457444e+01 9.311679e+00 2.340983e+01 2.866698e+00 9.435907e+00 2.074171e+01 4.293635e+00 5.723175e+00 5.884910e+00 1.911765e+01 6.133553e+00 1.456333e+01 1.509018e+01 2.617652e+01 2.278163e+01 2.578139e+01 2.671064e+01 3.252380e+01
<GCONST> 8.600280e+01
<MIXTURE> 3 9.090909e-02
<MEAN> 20
 -2.877453e+00 -6.471770e+00 -2.443686e+01 -1.568255e+01 -8.720408e+00 -1.405992e+01 -2.300227e+01 -1.308702e+01 -1.047602e+01 -1.029766e+01 -2.370361e+01 -9.748473e+00 -1.253067e+01 -6.157279e+00 -2.420995e+01 -6.634901e+00 -1.448279e+01 -2.341122e+00 -3.959300e+01 -5.237707e+00
<VARIANCE> 20
 7.886515e+00 1.610214e+00 2.474774e+00 5.485170e+00 2.431743e+01 3.438741e+00 1.315960e+01 4.198026e+00 6.896188e+01 4.101222e+00 7.163019e+00 3.499339e+00 1.045374e+02 4.390643e+00 4.183074e+00 2.003255e+00 1.181963e+02 3.545856e+00 1.708156e+02 3.285764e+00
<GCONST> 7.983482e+01
<MIXTURE> 4 4.181818e-01
<MEAN> 20
 -8.711308e+00 -1.638324e+00 -2.173397e+01 -1.147480e+01 -1.265896e+01 -1.222711e+01 -1.793116e+01 -1.087920e+01 -7.633180e+00 -1.284450e+01 -1.348165e+01 -1.017808e+01 -2.184186e+00 -1.283106e+01 -9.759417e+00 -1.057834e+01 3.564453e+00 -1.216524e+01 -2.315097e+00 -1.978967e+01
<VARIANCE> 20
 6.451003e-01 6.061977e-01 3.888318e+01 5.464307e+00 6.108763e+00 3.211696e+00 1.569088e+01 3.202273e+01 5.715585e+00 2.933123e+00 1.444936e+01 3.907485e+01 5.392754e+00 2.242330e+00 1.372835e+01 3.209885e+01 5.055440e+00 1.785395e+00 3.362870e+01 2.995491e+01
<GCONST> 7.722492e+01
<STATE> 5
<NUMMIXES> 4
<MIXTURE> 1 5.432099e-01
<MEAN> 20
 -7.373590e+00 -2.023638e+00 -1.626032e+01 -1.028097e+01 -7.343963e+00 -1.199545e+01 -1.386113e+01 -1.059518e+01 -2.566908e+00 -1.191347e+01 -1.058420e+01 -8.592443e+00 2.007980e+00 -1.100124e+01 -6.955894e+00 -7.283736e+00 6.304577e+00 -9.414540e+00 -1.821171e+00 -1.101839e+01
<VARIANCE> 20
 8.646400e-01 7.003722e-01 1.701027e+01 7.012481e+00 7.368865e+00 2.341583e+00 6.807866e+00 2.242218e+01 5.622177e+00 1.817379e+00 1.029274e+01 2.264124e+01 3.390312e+00 1.481357e+00 1.560171e+01 1.271418e+01 2.463113e+00 2.139025e+00 2.863763e+01 3.346119e+01
<GCONST> 7.211987e+01
<MIXTURE> 2 6.172840e-02
<MEAN> 20
 -7.857122e+00 -1.337166e+00 -2.293808e+01 -7.760143e+00 -1.458874e+01 -9.290401e+00 -1.990523e+01 -5.651210e+00 -1.059614e+01 -9.338075e+00 -1.542907e+01 -5.015875e+00 -6.469642e+00 -9.069374e+00 -1.335186e+01 -5.026860e+00 -2.205806e+00 -8.489644e+00 -1.113539e+01 -1.274583e+01
<VARIANCE> 20
 3.987146e+00 2.202392e+00 3.243415e+01 8.711142e+00 1.191973e+01 1.820642e+00 2.030451e+01 6.562666e-01 6.184224e+00 6.626235e+00 6.511939e+00 2.897029e+00 2.867988e+00 1.820430e+01 1.149846e+01 5.487110e+00 1.031831e+01 3.259481e+01 6.471037e+01 7.308326e+01
<GCONST> 7.927086e+01
<MIXTURE> 3 8.641975e-02
<MEAN> 20
 -1.878515e+00 -5.228579e+00 -2.050204e+01 -1.555472e+01 -5.088139e+00 -1.343859e+01 -1.501768e+01 -1.180342e+01 -7.123640e+00 -1.016017e+01 -1.691437e+01 -8.812074e+00 -9.823847e+00 -6.674653e+00 -1.819760e+01 -6.192088e+00 -1.267528e+01 -3.477451e+00 -3.457753e+01 -8.725376e+00
<VARIANCE> 20
 1.631105e+01 4.690146e-01 6.730733e+01 2.361353e+00 2.117717e+01 6.208453e+00 3.568790e+01 6.835967e-01 1.327444e+01 7.287421e+00 1.852479e+01 7.391494e-01 1.818774e+01 6.477076e+00 1.013647e+01 1.146559e+00 2.625289e+01 4.612488e+00 5.871480e+01 3.803327e+00
<GCONST> 7.654991e+01
<MIXTURE> 4 3.086420e-01
<MEAN> 20
 -9.333333e+00 -1.519117e+00 -2.231333e+01 -1.248512e+01 -1.265716e+01 -1.446150e+01 -2.112906e+01 -1.932360e+01 -6.810472e+00 -1.489056e+01 -1.716116e+01 -1.807107e+01 -8.670259e-01 -1.406090e+01 -1.135753e+01 -1.404260e+01 5.215253e+00 -1.217422e+01 -6.153204e-01 -1.746045e+01
<VARIANCE> 20
 1.508909e+00 1.031396e+00 4.324376e+01 5.455568e+00 6.082413e+00 1.590425e+00 1.042550e+01 4.826864e+01 5.721300e+00 8.079290e-01 1.393920e+01 6.913681e+01 4.088816e+00 4.202659e-01 1.656971e+01 5.763889e+01 3.607662e+00 1.051951e+00 4.818683e+01 5.668294e+01
<GCONST> 7.620490e+01
<STATE> 6
<NUMMIXES> 4
<MIXTURE> 1 3.333333e-01
<MEAN> 20
 -6.196227e+00 -2.095392e+00 -1.245016e+01 -9.205016e+00 -4.477292e+00 -1.139256e+01 -1.043783e+01 -1.085316e+01 2.049724e-01 -1.101800e+01 -6.584244e+00 -8.455847e+00 4.430672e+00 -9.772199e+00 -3.257627e+00 -6.250684e+00 8.214605e+00 -7.956351e+00 4.077085e+00 -8.460930e+00
<VARIANCE> 20
 7.788529e-01 8.751742e-01 1.594940e+01 6.684731e+00 4.571393e+00 5.002958e+00 5.958452e+00 1.771112e+01 6.432499e+00 3.805605e+00 5.131482e+00 1.531209e+01 6.482889e+00 2.593529e+00 5.471747e+00 9.023572e+00 4.260160e+00 2.470715e+00 4.354409e+01 1.408122e+01
<GCONST> 7.188831e+01
<MIXTURE> 2 3.010753e-01
<MEAN> 20
 -8.801065e+00 -5.598638e-01 -2.057492e+01 -9.047609e+00 -1.578181e+01 -1.087649e+01 -1.722298e+01 -6.468792e+00 -1.063413e+01 -1.188734e+01 -1.292866e+01 -6.403263e+00 -4.983932e+00 -1.218003e+01 -9.299875e+00 -6.445632e+00 8.565740e-01 -1.178643e+01 -6.890698e+00 -1.595393e+01
<VARIANCE> 20
 3.677799e-01 6.706349e-01 2.073926e+01 3.566684e+00 6.105888e+00 6.260376e-01 1.819595e+00 3.375053e+00 4.505348e+00 4.894452e-01 2.130842e+00 6.484523e+00 3.407441e+00 5.492472e-01 3.469402e+00 5.394645e+00 2.607404e+00 1.200814e+00 1.049817e+01 4.987757e+01
<GCONST> 5.719233e+01
<MIXTURE> 3 1.720430e-01
<MEAN> 20
 -6.711225e+00 -3.240898e+00 -2.171768e+01 -1.247585e+01 -5.921470e+00 -1.276615e+01 -2.164274e+01 -9.972062e+00 -3.440562e+00 -1.172827e+01 -1.958973e+01 -8.072761e+00 -2.107289e+00 -9.741149e+00 -1.784018e+01 -6.261233e+00 -1.644748e+00 -7.212424e+00 -1.780241e+01 -7.653588e+00
<VARIANCE> 20
 1.008948e+01 2.772999e+00 2.339937e+01 1.543660e+01 2.109274e+01 9.688394e+00 7.569720e+01 7.408255e+00 2.155344e+01 8.202684e+00 4.145435e+01 7.405171e+00 2.900948e+01 8.153159e+00 4.644322e+01 4.833080e+00 4.366387e+01 8.853415e+00 9.129778e+01 1.290643e+01
<GCONST> 9.243829e+01
<MIXTURE> 4 1.935484e-01
<MEAN> 20
 -8.161757e+00 -1.071008e+00 -1.198916e+01 -9.703348e+00 -1.340226e+01 -1.264226e+01 -1.884612e+01 -2.246850e+01 -7.819645e+00 -1.359012e+01 -1.435585e+01 -2.503750e+01 -1.991121e+00 -1.308928e+01 -6.777336e+00 -1.498711e+01 4.075415e+00 -1.144071e+01 -1.147170e+00 -1.318019e+01
<VARIANCE> 20
 8.249562e-01 3.649990e-01 6.016219e+01 3.427658e+00 4.089514e+00 1.215149e+00 1.868191e+01 9.825430e+00 3.579587e+00 8.909128e-01 1.152798e+01 8.935151e+00 3.088486e+00 8.500069e-01 7.735229e+00 4.452146e+01 2.755689e+00 1.033248e+00 9.763314e+00 4.195254e+01
<GCONST> 6.736497e+01
<STATE> 7
<MEAN> 20
 -7.982574e+00 -1.972208e+00 -1.724936e+01 -1.019485e+01 -9.560168e+00 -1.263546e+01 -1.708382e+01 -1.300854e+01 -4.730181e+00 -1.253479e+01 -1.448888e+01 -1.118836e+01 -3.200320e-01 -1.134061e+01 -1.037398e+01 -7.728244e+00 3.700904e+00 -9.395568e+00 -6.661699e+00 -9.806903e+00
<VARIANCE> 20
 5.528672e+00 2.360302e+00 4.619302e+01 1.249378e+01 2.842352e+01 6.044633e+00 3.895826e+01 6.679284e+01 2.137451e+01 6.926509e+00 5.080816e+01 5.856025e+01 1.545429e+01 8.902013e+00 4.525628e+01 2.851402e+01 1.723441e+01 1.210045e+01 6.631004e+01 4.561189e+01
<GCONST> 9.713204e+01
<TRANSP> 8
 0.000000e+00 1.000000e+00 0.000000e+00 0.000000e+00 0.000000e+00 0.000000e+00 0.000000e+00 0.000000e+00
 0.000000e+00 1.190476e-01 8.809524e-01 0.000000e+00 0.000000e+00 0.000000e+00 0.000000e+00 0.000000e+00
 0.000000e+00 0.000000e+00 5.316456e-01 4.683544e-01 0.000000e+00 0.000000e+00 0.000000e+00 0.000000e+00
 0.000000e+00 0.000000e+00 0.000000e+00 3.272727e-01 6.727273e-01 0.000000e+00 0.000000e+00 0.000000e+00
 0.000000e+00 0.000000e+00 0.000000e+00 0.000000e+00 5.432099e-01 4.567901e-01 0.000000e+00 0.000000e+00
 0.000000e+00 0.000000e+00 0.000000e+00 0.000000e+00 0.000000e+00 6.021506e-01 3.978495e-01 0.000000e+00
 0.000000e+00 0.000000e+00 0.000000e+00 0.000000e+00 0.000000e+00 0.000000e+00 1.190476e-01 8.809524e-01
 0.000000e+00 0.000000e+00 0.000000e+00 0.000000e+00 0.000000e+00 0.000000e+00 0.000000e+00 0.000000e+00
<ENDHMM>
