~o
<STREAMINFO> 1 20
<VECSIZE> 20<NULLD><USER><DIAGC>
~h "j"
<BEGINHMM>
<NUMSTATES> 5
<STATE> 2
<NUMMIXES> 4
<MIXTURE> 1 4.701492e-01
<MEAN> 20
 -7.185350e+00 -1.216887e+00 -1.277055e+01 -7.513802e+00 -9.489277e+00 -1.142279e+01 -1.285139e+01 -1.588663e+01 -4.154319e+00 -1.176890e+01 -8.989905e+00 -1.614711e+01 1.210040e+00 -1.095996e+01 -4.247670e+00 -9.709102e+00 6.521611e+00 -9.267357e+00 1.863826e+00 -1.022557e+01
<VARIANCE> 20
 8.857619e-01 7.213285e-01 2.982557e+01 7.946442e+00 3.988898e+00 2.136416e+00 1.023882e+01 4.993894e+01 2.505480e+00 2.080761e+00 8.437053e+00 6.908527e+01 1.827799e+00 1.770520e+00 7.374773e+00 3.159141e+01 2.214267e+00 1.778499e+00 1.278811e+01 3.003296e+01
<GCONST> 7.212332e+01
<MIXTURE> 2 3.208955e-01
<MEAN> 20
 -9.052690e+00 -9.083451e-01 -2.312619e+01 -1.021557e+01 -1.554208e+01 -1.101812e+01 -1.730410e+01 -6.994482e+00 -1.044610e+01 -1.203558e+01 -1.251452e+01 -6.656292e+00 -4.748140e+00 -1.253921e+01 -9.158240e+00 -7.279002e+00 1.269907e+00 -1.245109e+01 -5.220105e+00 -1.972593e+01
<VARIANCE> 20
 5.607572e-01 7.202805e-01 2.688005e+01 4.332671e+00 1.186090e+01 1.712964e+00 2.882704e+00 1.462142e+00 9.852790e+00 1.442387e+00 2.118608e+00 1.538154e+00 8.346498e+00 1.357135e+00 3.456143e+00 2.417112e+00 6.973477e+00 1.617445e+00 3.103475e+01 3.625629e+01
<GCONST> 6.289265e+01
<MIXTURE> 3 1.343284e-01
<MEAN> 20
 -5.688064e+00 -2.011791e+00 -2.239810e+01 -6.839799e+00 -9.813991e+00 -1.065676e+01 -2.358524e+01 -8.524671e+00 -7.583195e+00 -1.045221e+01 -2.005005e+01 -6.973839e+00 -5.765860e+00 -9.254047e+00 -1.724210e+01 -5.334279e+00 -4.282630e+00 -7.469844e+00 -1.645929e+01 -6.971138e+00
<VARIANCE> 20
 2.254886e+01 5.821754e+00 4.707809e+01 4.253593e+01 5.471132e+01 6.921768e+00 1.413288e+01 6.146968e+01 2.958984e+01 6.923575e+00 1.536697e+01 5.827723e+01 3.143903e+01 1.337675e+01 1.702250e+01 4.178513e+01 5.914160e+01 2.370623e+01 5.100888e+01 9.798642e+01
<GCONST> 1.024317e+02
<MIXTURE> 4 7.462686e-02
<MEAN> 20
 -4.621727e+00 -3.130295e+00 -2.641046e+01 -6.492559e+00 -1.128441e+01 -9.329258e+00 -2.901716e+01 -7.196801e+00 -9.811970e+00 -7.400595e+00 -2.701049e+01 -4.463581e+00 -8.874372e+00 -4.505141e+00 -2.557527e+01 -1.382265e+00 -8.362061e+00 -1.176880e+00 -2.913532e+01 8.497753e-01
<VARIANCE> 20
 1.496839e+01 5.983334e+00 1.737364e+01 2.524331e+01 1.861246e+01 2.933790e+00 4.294722e+01 1.317046e+01 9.264605e+00 3.907270e-01 3.392635e+01 1.747417e+01 1.185551e+01 3.032712e+00 1.930719e+01 1.153296e+01 2.693659e+01 6.657495e+00 7.570070e+01 1.375524e+01
<GCONST> 8.647080e+01
<STATE> 3
<NUMMIXES> 4
<MIXTURE> 1 6.185567e-01
<MEAN> 20
 -7.648867e+00 -2.132762e+00 -1.627543e+01 -1.116220e+01 -8.435387e+00 -1.235215e+01 -1.439765e+01 -1.210969e+01 -3.559921e+00 -1.242672e+01 -1.064027e+01 -1.031879e+01 1.319611e+00 -1.170287e+01 -6.617593e+00 -9.047229e+00 6.109206e+00 -1.027934e+01 -3.292203e-01 -1.280786e+01
<VARIANCE> 20
 1.011483e+00 9.437115e-01 2.302336e+01 9.187580e+00 5.882116e+00 2.399911e+00 1.069138e+01 2.490458e+01 3.736002e+00 2.283567e+00 1.238636e+01 3.409979e+01 2.232858e+00 1.971296e+00 1.534307e+01 2.255161e+01 2.482189e+00 2.150440e+00 3.533813e+01 3.952993e+01
<GCONST> 7.473214e+01
<MIXTURE> 2 1.340206e-01
<MEAN> 20
 -9.616220e+00 -1.314378e+00 -2.352193e+01 -8.414223e+00 -1.493799e+01 -1.149844e+01 -2.319085e+01 -9.022797e+00 -9.316510e+00 -1.172922e+01 -1.851019e+01 -6.780190e+00 -3.863831e+00 -1.099035e+01 -1.410760e+01 -5.847809e+00 1.230824e+00 -9.511839e+00 -8.612154e+00 -9.095910e+00
<VARIANCE> 20
 1.153082e+00 1.076835e+00 1.615993e+01 3.285457e+01 5.898905e+00 9.920410e+00 1.048463e+01 3.871582e+01 4.513868e+00 1.749623e+01 1.123958e+01 4.372150e+01 3.014043e+00 2.605652e+01 9.785542e+00 5.271610e+01 2.075769e+00 3.409558e+01 1.706022e+01 9.932641e+01
<GCONST> 8.619460e+01
<MIXTURE> 3 9.278350e-02
<MEAN> 20
 6.609251e-03 -6.495809e+00 -2.195958e+01 -1.734256e+01 -8.457070e+00 -1.434850e+01 -1.840393e+01 -1.368500e+01 -1.258503e+01 -1.058940e+01 -2.097669e+01 -1.008933e+01 -1.638430e+01 -6.511248e+00 -2.331704e+01 -6.792552e+00 -1.935093e+01 -2.714292e+00 -4.531596e+01 -7.217790e+00
<VARIANCE> 20
 2.261865e+00 1.099344e+00 3.007140e+01 1.790906e+00 1.492620e+01 9.011669e+00 2.806654e+01 3.398277e+00 1.758235e+01 9.601317e+00 1.902814e+01 2.490450e+00 1.852529e+01 7.824369e+00 1.310683e+01 1.992418e+00 1.777102e+01 4.790965e+00 5.043904e+01 7.943795e+00
<GCONST> 7.877773e+01
<MIXTURE> 4 1.546392e-01
<MEAN> 20
 -8.394443e+00 -3.371657e+00 -2.482258e+01 -1.388074e+01 -6.175957e+00 -1.513735e+01 -2.001424e+01 -1.654317e+01 -2.250672e+00 -1.409567e+01 -2.119644e+01 -1.205392e+01 -3.146911e-03 -1.179752e+01 -1.786614e+01 -7.539577e+00 9.449760e-01 -8.689391e+00 -1.865110e+01 -7.744897e+00
<VARIANCE> 20
 3.375494e+00 3.962814e+00 1.666759e+01 8.575167e+00 1.072472e+01 1.051552e+01 2.020793e+01 5.466994e+01 9.601844e+00 6.709215e+00 1.748852e+01 1.567216e+01 1.650938e+01 5.679154e+00 1.418253e+01 3.669200e+00 3.103254e+01 6.290241e+00 4.905470e+01 8.818761e+00
<GCONST> 8.566160e+01
<STATE> 4
<NUMMIXES> 4
<MIXTURE> 1 4.099379e-01
<MEAN> 20
 -6.204740e+00 -2.049412e+00 -1.245286e+01 -8.821103e+00 -5.019586e+00 -1.101095e+01 -1.046394e+01 -1.055819e+01 -3.858817e-01 -1.070108e+01 -7.001842e+00 -7.625880e+00 3.840869e+00 -9.540807e+00 -3.615843e+00 -5.867202e+00 7.674591e+00 -7.809433e+00 2.553468e+00 -7.280207e+00
<VARIANCE> 20
 8.332804e-01 1.253841e+00 1.755012e+01 9.550702e+00 4.707338e+00 4.643754e+00 8.299406e+00 1.732794e+01 5.485838e+00 3.708034e+00 7.131310e+00 1.515666e+01 5.092556e+00 3.073109e+00 8.465612e+00 1.011717e+01 3.858590e+00 3.395028e+00 3.449030e+01 1.506939e+01
<GCONST> 7.369849e+01
<MIXTURE> 2 2.484472e-01
<MEAN> 20
 -8.696915e+00 -1.646854e+00 -2.106232e+01 -9.840042e+00 -1.201826e+01 -1.177221e+01 -1.726843e+01 -6.473354e+00 -7.341417e+00 -1.202288e+01 -1.390925e+01 -5.667138e+00 -2.682076e+00 -1.143168e+01 -1.100554e+01 -5.561850e+00 1.708810e+00 -1.021939e+01 -6.847153e+00 -1.414948e+01
<VARIANCE> 20
 2.066688e+00 1.975713e+00 1.999255e+01 1.359886e+01 2.187373e+01 6.159049e+00 6.792799e+00 7.067323e+00 1.593007e+01 5.102481e+00 7.824458e+00 7.959775e+00 8.194340e+00 5.204848e+00 1.010216e+01 7.248115e+00 3.626877e+00 7.421486e+00 2.684541e+01 6.025137e+01
<GCONST> 7.980180e+01
<MIXTURE> 3 2.795031e-01
<MEAN> 20
 -8.645287e+00 -9.188669e-01 -1.592497e+01 -1.084727e+01 -1.374720e+01 -1.350539e+01 -2.007162e+01 -2.211318e+01 -7.987489e+00 -1.434887e+01 -1.572284e+01 -2.289790e+01 -2.011668e+00 -1.381052e+01 -8.781708e+00 -1.581289e+01 4.387007e+00 -1.215352e+01 -9.673362e-01 -1.520878e+01
<VARIANCE> 20
 1.315301e+00 5.486097e-01 5.966479e+01 5.396819e+00 4.313281e+00 1.781324e+00 2.230190e+01 2.568520e+01 4.822204e+00 1.230620e+00 1.365932e+01 4.284240e+01 3.674474e+00 1.103134e+00 1.320479e+01 5.396437e+01 2.839219e+00 1.597126e+00 2.103346e+01 5.059681e+01
<GCONST> 7.519834e+01
<MIXTURE> 4 6.211180e-02
<MEAN> 20
 -3.443859e+00 -3.986814e+00 -2.205910e+01 -1.272310e+01 -5.759336e+00 -1.152111e+01 -2.569205e+01 -1.150469e+01 -5.838913e+00 -9.420198e+00 -2.436342e+01 -8.668536e+00 -7.003969e+00 -6.643734e+00 -2.423739e+01 -5.908951e+00 -8.821483e+00 -3.725628e+00 -2.884295e+01 -6.663090e+00
<VARIANCE> 20
 1.915474e+01 1.399198e+00 5.292178e+01 1.413131e+01 2.282633e+01 8.678029e+00 1.288398e+02 1.574895e+01 9.480288e+00 9.595126e+00 7.343227e+01 7.591113e+00 9.838176e+00 1.107944e+01 3.921783e+01 9.862436e+00 1.846959e+01 1.227763e+01 1.137093e+01 1.362678e+01
<GCONST> 9.151729e+01
<TRANSP> 5
 0.000000e+00 1.000000e+00 0.000000e+00 0.000000e+00 0.000000e+00
 0.000000e+00 7.238806e-01 2.761194e-01 0.000000e+00 0.000000e+00
 0.000000e+00 0.000000e+00 6.185567e-01 3.814433e-01 0.000000e+00
 0.000000e+00 0.000000e+00 0.000000e+00 7.701864e-01 2.298137e-01
 0.000000e+00 0.000000e+00 0.000000e+00 0.000000e+00 0.000000e+00
<ENDHMM>
