~o
<STREAMINFO> 1 20
<VECSIZE> 20<NULLD><USER><DIAGC>
~h "k"
<BEGINHMM>
<NUMSTATES> 5
<STATE> 2
<NUMMIXES> 4
<MIXTURE> 1 1.978610e-01
<MEAN> 20
 -5.698325e+00 -1.653886e+00 -1.073321e+01 -9.494931e+00 -6.643430e+00 -1.054275e+01 -1.014533e+01 -1.357259e+01 -2.387755e+00 -1.054103e+01 -8.022094e+00 -1.053159e+01 1.641812e+00 -9.733235e+00 -3.574082e+00 -6.423606e+00 5.516785e+00 -8.303594e+00 3.654330e-01 -6.441315e+00
<VARIANCE> 20
 1.063165e+01 1.065905e+00 6.696299e+01 1.262726e+01 2.108703e+01 4.205962e+00 5.668873e+01 3.768959e+01 1.154000e+01 3.886594e+00 5.803861e+01 2.958024e+01 1.199453e+01 3.819512e+00 2.113323e+01 1.506438e+01 2.204738e+01 4.390132e+00 2.031491e+01 1.743994e+01
<GCONST> 8.935932e+01
<MIXTURE> 2 3.368984e-01
<MEAN> 20
 -8.696500e+00 -2.429712e+00 -1.448979e+01 -1.333302e+01 -9.727969e+00 -1.381706e+01 -1.345443e+01 -1.718567e+01 -4.194549e+00 -1.397797e+01 -9.702339e+00 -1.619252e+01 1.396047e+00 -1.316258e+01 -5.042069e+00 -1.093020e+01 7.144747e+00 -1.153842e+01 4.234402e-01 -1.097137e+01
<VARIANCE> 20
 7.549785e-01 6.666645e-01 3.553259e+01 1.015102e+01 3.908376e+00 1.473124e+00 9.354603e+00 4.684446e+01 3.373663e+00 1.382747e+00 8.346757e+00 6.613245e+01 3.643962e+00 1.031806e+00 6.328505e+00 2.622406e+01 4.268065e+00 9.460239e-01 1.366339e+01 2.552251e+01
<GCONST> 7.133192e+01
<MIXTURE> 3 2.553476e-01
<MEAN> 20
 -7.774566e+00 -1.835937e+00 -2.125827e+01 -9.621071e+00 -9.877257e+00 -1.241049e+01 -1.999417e+01 -1.634969e+01 -5.740590e+00 -1.266461e+01 -1.770136e+01 -1.641069e+01 -1.363222e+00 -1.208690e+01 -1.350160e+01 -1.398124e+01 3.027826e+00 -1.068352e+01 -8.114239e+00 -1.378699e+01
<VARIANCE> 20
 6.968707e-01 9.774092e-01 2.517862e+01 9.657135e+00 6.254326e+00 1.333498e+00 7.039866e+00 9.395268e+00 4.373098e+00 9.299235e-01 9.080903e+00 1.285269e+01 3.040260e+00 8.810031e-01 1.241415e+01 1.738543e+01 4.279826e+00 1.239917e+00 1.899862e+01 1.967816e+01
<GCONST> 6.829520e+01
<MIXTURE> 4 2.098930e-01
<MEAN> 20
 -1.092152e+01 -1.631192e+00 -2.518921e+01 -1.372747e+01 -1.597087e+01 -1.588405e+01 -2.413392e+01 -2.499278e+01 -9.198369e+00 -1.690819e+01 -2.052732e+01 -2.384905e+01 -2.107273e+00 -1.641915e+01 -1.306367e+01 -1.358660e+01 5.000835e+00 -1.466566e+01 -6.016003e+00 -1.222846e+01
<VARIANCE> 20
 2.343686e+00 1.100024e+00 5.310732e+01 2.258880e+01 7.803605e+00 2.948895e+00 3.124021e+01 3.588491e+01 5.897488e+00 2.653754e+00 2.640728e+01 7.496535e+01 6.481760e+00 2.481483e+00 2.315854e+01 6.694924e+01 9.545248e+00 2.785437e+00 2.062250e+01 6.330358e+01
<GCONST> 8.587251e+01
<STATE> 3
<NUMMIXES> 4
<MIXTURE> 1 3.526066e-01
<MEAN> 20
 -6.028047e+00 -1.264877e+00 -1.036549e+01 -9.089848e+00 -7.807507e+00 -9.436789e+00 -9.771492e+00 -1.304928e+01 -3.441513e+00 -9.631025e+00 -6.498501e+00 -1.072934e+01 9.190859e-01 -9.237495e+00 -2.680816e+00 -6.636132e+00 5.388664e+00 -8.326140e+00 1.004107e+00 -6.683422e+00
<VARIANCE> 20
 5.649182e-01 3.371627e-01 1.573028e+01 4.905623e+00 2.309928e+00 1.360806e+00 3.351717e+00 2.015118e+01 1.760036e+00 1.194201e+00 3.244566e+00 1.250646e+01 1.760730e+00 9.644265e-01 1.881626e+00 9.847976e+00 2.186643e+00 7.967719e-01 2.695371e+00 7.714445e+00
<GCONST> 5.628803e+01
<MIXTURE> 2 3.668247e-01
<MEAN> 20
 -7.760048e+00 -2.562780e+00 -1.443799e+01 -1.361010e+01 -7.131702e+00 -1.378149e+01 -1.256862e+01 -1.977434e+01 -1.583527e+00 -1.384221e+01 -1.265987e+01 -1.440538e+01 3.638373e+00 -1.270616e+01 -5.843031e+00 -6.009639e+00 8.310480e+00 -1.065905e+01 -1.174485e+00 -5.642123e+00
<VARIANCE> 20
 4.595748e-01 8.246520e-01 1.854783e+01 6.203366e+00 4.589289e+00 8.523163e-01 1.303927e+01 4.299746e+01 3.533563e+00 6.289383e-01 2.567062e+01 4.347644e+01 2.353986e+00 6.464733e-01 6.606881e+00 6.764827e+00 2.581942e+00 9.221038e-01 7.094030e+00 3.292779e+00
<GCONST> 6.428009e+01
<MIXTURE> 3 1.156398e-01
<MEAN> 20
 -6.410001e+00 -1.502790e+00 -1.719185e+01 -7.260477e+00 -1.054461e+01 -1.029574e+01 -1.908747e+01 -1.216628e+01 -6.331160e+00 -1.035793e+01 -1.632716e+01 -9.639164e+00 -2.352277e+00 -9.253789e+00 -8.604056e+00 -3.304991e+00 1.125946e+00 -7.385874e+00 -5.246037e+00 -2.679635e+00
<VARIANCE> 20
 2.007249e+01 2.836295e+00 1.082025e+02 3.180578e+01 4.491337e+01 1.420373e+01 1.081395e+02 1.005539e+02 2.161817e+01 1.598459e+01 1.012667e+02 9.457547e+01 1.665161e+01 1.914144e+01 2.969552e+01 3.757505e+01 3.173857e+01 2.239907e+01 3.110092e+01 3.392429e+01
<GCONST> 1.060173e+02
<MIXTURE> 4 1.649289e-01
<MEAN> 20
 -9.488139e+00 -2.155766e+00 -2.472038e+01 -1.071479e+01 -1.105304e+01 -1.378428e+01 -2.435370e+01 -1.796766e+01 -7.015267e+00 -1.412156e+01 -2.402160e+01 -1.616710e+01 -3.215745e+00 -1.342889e+01 -1.857082e+01 -1.159846e+01 3.810680e-02 -1.174517e+01 -1.420470e+01 -1.112350e+01
<VARIANCE> 20
 1.536550e+00 7.580149e-01 2.723620e+01 7.712513e+00 1.272768e+01 8.867187e-01 1.499434e+01 1.711915e+01 8.546545e+00 6.731782e-01 2.007709e+01 1.597039e+01 4.859575e+00 8.800099e-01 3.143047e+01 2.864197e+01 8.836239e+00 1.706775e+00 4.369323e+01 2.621719e+01
<GCONST> 7.576180e+01
<STATE> 4
<NUMMIXES> 4
<MIXTURE> 1 8.739076e-02
<MEAN> 20
 4.473224e+00 -2.463659e+00 7.938485e+00 -1.391782e+01 4.443368e+00 -1.296303e+01 6.914313e+00 -1.850571e+01 1.518328e+00 -1.298443e+01 6.194682e+00 -1.418873e+01 -1.428663e+00 -1.207408e+01 3.037761e+00 -7.363815e+00 -4.236282e+00 -1.044014e+01 -7.683833e-01 -9.182898e+00
<VARIANCE> 20
 4.606393e+01 1.733329e+00 1.999866e+02 3.164685e+01 7.313864e+01 1.239174e+01 2.139953e+02 8.746488e+01 2.185037e+01 1.373630e+01 1.289371e+02 7.349139e+01 1.342735e+01 1.453412e+01 4.811524e+01 3.021804e+01 4.418074e+01 1.449207e+01 5.323233e+01 5.448371e+01
<GCONST> 1.083881e+02
<MIXTURE> 2 4.719101e-01
<MEAN> 20
 -7.049497e+00 -2.013425e+00 -1.287616e+01 -1.112144e+01 -7.267002e+00 -1.178406e+01 -1.256003e+01 -1.540675e+01 -2.440006e+00 -1.186918e+01 -1.034268e+01 -1.275781e+01 2.336098e+00 -1.109674e+01 -5.863150e+00 -8.057032e+00 6.964795e+00 -9.581659e+00 -1.194783e+00 -8.172507e+00
<VARIANCE> 20
 9.137182e-01 8.201049e-01 3.048306e+01 5.035748e+00 5.696917e+00 1.688031e+00 9.757548e+00 2.992626e+01 4.432666e+00 1.472680e+00 1.247936e+01 2.555546e+01 3.897627e+00 1.040466e+00 9.937314e+00 1.664543e+01 4.308753e+00 9.254537e-01 1.499262e+01 2.248558e+01
<GCONST> 7.079608e+01
<MIXTURE> 3 1.672909e-01
<MEAN> 20
 -9.197368e+00 -3.212875e+00 -1.947982e+01 -1.396081e+01 -8.767852e+00 -1.424364e+01 -1.835940e+01 -2.398759e+01 -4.065474e+00 -1.392330e+01 -2.664729e+01 -1.340284e+01 -3.606767e-01 -1.212906e+01 -1.103859e+01 -3.886430e+00 2.265790e+00 -9.510219e+00 -7.513088e+00 -3.501271e+00
<VARIANCE> 20
 1.198913e+00 6.100025e-01 8.225830e+00 2.895296e+00 4.859984e+00 9.720551e-01 1.304704e+01 6.081523e+00 4.149496e+00 9.999152e-01 1.895843e+01 1.129480e+01 5.514529e+00 1.550258e+00 7.785763e+00 9.965538e-01 1.040475e+01 2.412059e+00 1.106873e+01 8.564168e-01
<GCONST> 6.199756e+01
<MIXTURE> 4 2.734082e-01
<MEAN> 20
 -9.548286e+00 -1.849692e+00 -1.890238e+01 -1.431185e+01 -1.315742e+01 -1.465048e+01 -1.983138e+01 -2.008285e+01 -6.829051e+00 -1.528350e+01 -1.639495e+01 -1.627540e+01 -3.586689e-01 -1.470805e+01 -8.627999e+00 -8.910378e+00 6.090780e+00 -1.308840e+01 -2.656679e+00 -9.581410e+00
<VARIANCE> 20
 1.183466e+00 1.022792e+00 2.853217e+01 1.048877e+01 6.972872e+00 2.255287e+00 1.765528e+01 6.259580e+01 5.629595e+00 1.992892e+00 3.435365e+01 5.866255e+01 5.928214e+00 1.632725e+00 1.675085e+01 2.958030e+01 8.539702e+00 1.417774e+00 2.382198e+01 3.179859e+01
<GCONST> 8.003841e+01
<TRANSP> 5
 0.000000e+00 1.000000e+00 0.000000e+00 0.000000e+00 0.000000e+00
 0.000000e+00 6.778075e-01 3.221925e-01 0.000000e+00 0.000000e+00
 0.000000e+00 0.000000e+00 7.715640e-01 2.284360e-01 0.000000e+00
 0.000000e+00 0.000000e+00 0.000000e+00 6.991261e-01 3.008739e-01
 0.000000e+00 0.000000e+00 0.000000e+00 0.000000e+00 0.000000e+00
<ENDHMM>
