~o
<STREAMINFO> 1 20
<VECSIZE> 20<NULLD><USER><DIAGC>
~h "m"
<BEGINHMM>
<NUMSTATES> 8
<STATE> 2
<MEAN> 20
 -7.092883e+00 -2.080891e+00 -1.289917e+01 -1.110754e+01 -8.259102e+00 -1.211363e+01 -1.504265e+01 -1.415978e+01 -3.852864e+00 -1.230392e+01 -1.172508e+01 -1.315144e+01 5.054868e-01 -1.157978e+01 -7.481027e+00 -1.050714e+01 4.825552e+00 -1.006509e+01 -2.997792e+00 -9.304432e+00
<VARIANCE> 20
 1.077423e+01 1.392587e+00 8.112624e+01 1.356527e+01 2.819086e+01 5.922277e+00 7.400634e+01 2.845962e+01 1.677845e+01 5.996109e+00 6.675164e+01 3.802232e+01 1.284963e+01 6.249173e+00 5.011790e+01 2.782647e+01 1.975582e+01 6.814749e+00 5.241442e+01 2.662593e+01
<GCONST> 9.545983e+01
<STATE> 3
<NUMMIXES> 4
<MIXTURE> 1 2.678571e-01
<MEAN> 20
 -5.420968e+00 -1.177722e+00 -8.820918e+00 -7.534950e+00 -6.933940e+00 -8.598288e+00 -9.093199e+00 -1.052831e+01 -3.048711e+00 -8.857473e+00 -5.745464e+00 -9.706259e+00 8.335660e-01 -8.507755e+00 -2.452533e+00 -8.242617e+00 4.876625e+00 -7.605385e+00 9.892848e-01 -7.293104e+00
<VARIANCE> 20
 5.023687e-01 3.338341e-01 2.456923e+01 4.281085e+00 2.355973e+00 1.214851e+00 4.338151e+00 1.105767e+01 1.189930e+00 1.141455e+00 4.303746e+00 1.331483e+01 1.017300e+00 9.743522e-01 4.486305e+00 1.030138e+01 1.599044e+00 8.623940e-01 4.926856e+00 8.839421e+00
<GCONST> 5.682419e+01
<MIXTURE> 2 4.428571e-01
<MEAN> 20
 -7.929194e+00 -2.563003e+00 -1.151043e+01 -1.268298e+01 -7.910521e+00 -1.325302e+01 -1.514238e+01 -1.556887e+01 -2.754304e+00 -1.339505e+01 -1.143465e+01 -1.437531e+01 2.447502e+00 -1.258024e+01 -6.996609e+00 -1.126847e+01 7.647666e+00 -1.088215e+01 -2.171832e+00 -9.308128e+00
<VARIANCE> 20
 8.385465e-01 7.560938e-01 4.266345e+01 6.238329e+00 5.991581e+00 2.027851e+00 1.116679e+01 2.671770e+01 4.837184e+00 1.710270e+00 1.294428e+01 3.532070e+01 4.407187e+00 1.332417e+00 1.321869e+01 1.876671e+01 4.733708e+00 1.314724e+00 1.572621e+01 1.257575e+01
<GCONST> 7.271901e+01
<MIXTURE> 3 7.642857e-02
<MEAN> 20
 3.406347e+00 -2.042449e+00 4.188858e+00 -1.024943e+01 5.141498e+00 -1.171893e+01 5.156701e+00 -1.324053e+01 2.801808e+00 -1.170052e+01 2.772574e+00 -1.118437e+01 6.690911e-02 -1.070602e+01 1.316340e+00 -8.890406e+00 -2.875111e+00 -9.040194e+00 -1.349146e+00 -7.932778e+00
<VARIANCE> 20
 4.982236e+01 3.404036e+00 3.413902e+02 3.380867e+01 1.026345e+02 1.279476e+01 4.028366e+02 5.520115e+01 5.174856e+01 1.327936e+01 3.129049e+02 6.623976e+01 3.253378e+01 1.575563e+01 1.771319e+02 5.099142e+01 4.293256e+01 1.923993e+01 1.240916e+02 5.222904e+01
<GCONST> 1.157475e+02
<MIXTURE> 4 2.128571e-01
<MEAN> 20
 -1.036646e+01 -2.243142e+00 -2.058603e+01 -1.484833e+01 -1.401439e+01 -1.555046e+01 -2.329948e+01 -1.769472e+01 -8.179526e+00 -1.625706e+01 -1.939584e+01 -1.760624e+01 -2.168790e+00 -1.571821e+01 -1.316229e+01 -1.437476e+01 3.805983e+00 -1.404911e+01 -6.124485e+00 -1.340813e+01
<VARIANCE> 20
 2.198353e+00 1.595741e+00 4.777665e+01 1.636675e+01 1.239095e+01 6.248469e+00 2.108053e+01 4.968672e+01 1.143471e+01 5.884696e+00 3.232006e+01 6.890694e+01 1.240430e+01 5.377778e+00 4.677416e+01 5.890374e+01 1.798591e+01 5.308875e+00 8.319822e+01 6.151111e+01
<GCONST> 9.311619e+01
<STATE> 4
<NUMMIXES> 4
<MIXTURE> 1 3.065844e-01
<MEAN> 20
 -6.064683e+00 -1.403223e+00 -8.281619e+00 -8.979565e+00 -8.006890e+00 -9.599231e+00 -1.133380e+01 -1.163111e+01 -3.824824e+00 -9.935694e+00 -7.615311e+00 -1.152707e+01 4.017576e-01 -9.589182e+00 -3.817127e+00 -1.085144e+01 4.925752e+00 -8.584493e+00 2.460987e-01 -8.656803e+00
<VARIANCE> 20
 4.743313e-01 3.353509e-01 2.041323e+01 2.271460e+00 1.778709e+00 8.001860e-01 4.434697e+00 6.288836e+00 1.249184e+00 6.926662e-01 4.703846e+00 7.007793e+00 1.316210e+00 5.765322e-01 5.330924e+00 5.968357e+00 1.896988e+00 5.778655e-01 5.240633e+00 6.074859e+00
<GCONST> 5.252410e+01
<MIXTURE> 2 3.271605e-01
<MEAN> 20
 -7.896550e+00 -2.364377e+00 -1.157858e+01 -1.211993e+01 -8.440925e+00 -1.227478e+01 -1.300817e+01 -1.205720e+01 -3.391095e+00 -1.237240e+01 -8.687858e+00 -1.088404e+01 1.764477e+00 -1.178117e+01 -4.512321e+00 -9.727328e+00 7.184609e+00 -1.052347e+01 6.844517e-01 -1.120942e+01
<VARIANCE> 20
 6.253144e-01 4.656555e-01 4.358638e+01 4.799435e+00 3.849624e+00 7.869553e-01 4.948219e+00 1.476165e+01 3.219063e+00 6.116542e-01 5.963164e+00 1.580515e+01 2.951124e+00 4.742580e-01 6.281229e+00 1.137963e+01 2.757652e+00 7.131118e-01 8.077302e+00 2.520368e+01
<GCONST> 6.208775e+01
<MIXTURE> 3 2.798354e-01
<MEAN> 20
 -9.079825e+00 -2.285629e+00 -1.622752e+01 -1.367574e+01 -1.131294e+01 -1.414863e+01 -2.124473e+01 -1.649618e+01 -6.223177e+00 -1.465017e+01 -1.796807e+01 -1.618333e+01 -9.771195e-01 -1.410098e+01 -1.285993e+01 -1.353513e+01 4.243161e+00 -1.254479e+01 -7.914254e+00 -1.109759e+01
<VARIANCE> 20
 1.321826e+00 1.247055e+00 3.858692e+01 7.922971e+00 1.164191e+01 3.414636e+00 1.344708e+01 2.115083e+01 8.945069e+00 2.850280e+00 1.632755e+01 2.665140e+01 7.138206e+00 2.388991e+00 1.851058e+01 2.340231e+01 7.587038e+00 2.328113e+00 2.557369e+01 2.097130e+01
<GCONST> 7.969107e+01
<MIXTURE> 4 8.641975e-02
<MEAN> 20
 -3.871317e+00 -1.847718e+00 -1.295107e+01 -6.352686e+00 -5.978978e+00 -9.584585e+00 -1.517115e+01 -8.380642e+00 -4.327161e+00 -9.086533e+00 -1.400724e+01 -6.031228e+00 -3.096453e+00 -7.662000e+00 -9.330102e+00 -3.445977e+00 -2.251742e+00 -5.702105e+00 -7.848182e+00 -3.535954e+00
<VARIANCE> 20
 4.335412e+01 5.208926e+00 3.141717e+02 6.141105e+01 1.371604e+02 2.502423e+01 4.077196e+02 9.866103e+01 1.014767e+02 2.601533e+01 3.879102e+02 1.099260e+02 8.925640e+01 2.868855e+01 2.258901e+02 8.366021e+01 1.003249e+02 3.178513e+01 2.211636e+02 8.067307e+01
<GCONST> 1.248788e+02
<STATE> 5
<NUMMIXES> 4
<MIXTURE> 1 1.301775e-01
<MEAN> 20
 -1.746562e+00 -1.641621e+00 -3.027798e+00 -9.467273e+00 -1.039565e+00 -1.001256e+01 -2.290717e+00 -1.057716e+01 4.044056e-01 -1.014687e+01 -1.336458e+00 -9.418849e+00 1.580551e+00 -9.578531e+00 -1.551748e-01 -8.380113e+00 2.684126e+00 -8.417873e+00 1.217906e+00 -7.881341e+00
<VARIANCE> 20
 3.668042e+01 8.416997e-01 1.154890e+02 7.922340e+00 6.513960e+01 3.793589e+00 1.206878e+02 1.143750e+01 2.075660e+01 3.564189e+00 6.369546e+01 8.607021e+00 9.339045e+00 3.440877e+00 2.767726e+01 8.146226e+00 3.280323e+01 3.740670e+00 2.525922e+01 1.667843e+01
<GCONST> 9.009796e+01
<MIXTURE> 2 3.425378e-01
<MEAN> 20
 -7.031769e+00 -2.542027e+00 -7.382914e+00 -1.178272e+01 -6.178449e+00 -1.245169e+01 -1.284088e+01 -1.493061e+01 -1.180145e+00 -1.245130e+01 -9.162116e+00 -1.370083e+01 3.836987e+00 -1.151688e+01 -5.017310e+00 -1.028447e+01 8.832917e+00 -9.728601e+00 -7.802002e-02 -7.182376e+00
<VARIANCE> 20
 2.934636e-01 2.951072e-01 2.171969e+01 2.657501e+00 2.855496e+00 8.163734e-01 6.398243e+00 1.980959e+01 2.503709e+00 6.992886e-01 5.567453e+00 2.846033e+01 1.975649e+00 5.535349e-01 4.955750e+00 1.635814e+01 1.703514e+00 5.548898e-01 4.811279e+00 4.329493e+00
<GCONST> 5.714566e+01
<MIXTURE> 3 3.399079e-01
<MEAN> 20
 -7.739755e+00 -1.803106e+00 -1.270217e+01 -1.104422e+01 -1.019584e+01 -1.161511e+01 -1.690827e+01 -1.441566e+01 -5.490666e+00 -1.210605e+01 -1.323027e+01 -1.441519e+01 -5.368112e-01 -1.173913e+01 -8.455829e+00 -1.287741e+01 4.725749e+00 -1.056927e+01 -3.058921e+00 -1.145121e+01
<VARIANCE> 20
 7.332577e-01 5.725369e-01 3.376380e+01 4.348865e+00 3.364516e+00 1.301358e+00 9.505370e+00 1.609247e+01 2.170308e+00 1.132955e+00 1.213823e+01 2.296436e+01 1.866722e+00 9.689782e-01 1.349018e+01 1.908366e+01 2.472492e+00 1.046118e+00 1.811388e+01 1.890436e+01
<GCONST> 6.684566e+01
<MIXTURE> 4 1.873767e-01
<MEAN> 20
 -9.129107e+00 -2.240030e+00 -2.195570e+01 -1.150090e+01 -1.219019e+01 -1.365559e+01 -2.519777e+01 -1.418417e+01 -7.667212e+00 -1.374689e+01 -2.157482e+01 -1.267520e+01 -3.420150e+00 -1.265518e+01 -1.569369e+01 -9.006981e+00 4.481636e-01 -1.065500e+01 -1.106769e+01 -7.811706e+00
<VARIANCE> 20
 8.465989e+00 2.697359e+00 6.116122e+01 2.805381e+01 3.023869e+01 1.067775e+01 4.424411e+01 5.086280e+01 2.269511e+01 1.104905e+01 5.201150e+01 6.460284e+01 2.144784e+01 1.332262e+01 4.385909e+01 4.450878e+01 3.296469e+01 1.630247e+01 5.884529e+01 4.643306e+01
<GCONST> 1.019053e+02
<STATE> 6
<NUMMIXES> 4
<MIXTURE> 1 2.695130e-01
<MEAN> 20
 -6.519975e+00 -1.654889e+00 -1.036957e+01 -9.919565e+00 -7.693479e+00 -1.025027e+01 -1.111574e+01 -1.083385e+01 -3.119097e+00 -1.041139e+01 -7.308536e+00 -9.857556e+00 1.489145e+00 -9.924757e+00 -3.562176e+00 -8.834698e+00 6.296717e+00 -8.817040e+00 1.074391e+00 -8.776277e+00
<VARIANCE> 20
 7.631446e-01 5.386591e-01 3.356204e+01 5.228287e+00 3.300854e+00 1.504645e+00 4.678204e+00 9.208689e+00 2.661523e+00 1.210530e+00 4.919570e+00 1.103400e+01 2.599503e+00 9.548135e-01 5.584252e+00 9.115634e+00 3.022445e+00 9.042588e-01 7.505108e+00 1.578345e+01
<GCONST> 6.218499e+01
<MIXTURE> 2 3.729153e-01
<MEAN> 20
 -7.636026e+00 -2.534841e+00 -6.977294e+00 -1.217430e+01 -7.949478e+00 -1.230834e+01 -1.597041e+01 -1.428498e+01 -3.196218e+00 -1.257524e+01 -1.248461e+01 -1.429451e+01 1.820429e+00 -1.201063e+01 -8.136480e+00 -1.305217e+01 7.138817e+00 -1.057843e+01 -2.462360e+00 -8.953996e+00
<VARIANCE> 20
 3.317812e-01 2.663286e-01 1.655861e+01 1.926569e+00 2.299565e+00 7.004613e-01 3.353497e+00 1.379489e+01 1.603131e+00 5.572197e-01 4.497174e+00 1.585008e+01 1.315295e+00 4.064557e-01 5.333525e+00 1.233042e+01 1.325046e+00 3.879216e-01 4.615794e+00 7.846969e+00
<GCONST> 5.274264e+01
<MIXTURE> 3 2.588392e-01
<MEAN> 20
 -9.162321e+00 -1.333547e+00 -1.771545e+01 -1.209925e+01 -1.402105e+01 -1.283806e+01 -2.187094e+01 -1.392142e+01 -8.712501e+00 -1.367890e+01 -1.751641e+01 -1.317838e+01 -3.077439e+00 -1.350446e+01 -1.168932e+01 -1.066897e+01 2.740928e+00 -1.239495e+01 -5.837130e+00 -1.104188e+01
<VARIANCE> 20
 1.294384e+00 8.486191e-01 4.837601e+01 7.550333e+00 4.847418e+00 3.000690e+00 1.781842e+01 3.303577e+01 4.588596e+00 2.472438e+00 2.403409e+01 4.293359e+01 5.765739e+00 1.996933e+00 2.361170e+01 2.633713e+01 8.371314e+00 1.933329e+00 3.110990e+01 3.983495e+01
<GCONST> 7.995763e+01
<MIXTURE> 4 9.873249e-02
<MEAN> 20
 -5.704076e+00 -2.809332e+00 -1.284930e+01 -1.269131e+01 -4.398810e+00 -1.354879e+01 -1.124959e+01 -1.344053e+01 -8.067083e-01 -1.340247e+01 -8.272785e+00 -1.216517e+01 2.323426e+00 -1.215098e+01 -4.325799e+00 -1.008327e+01 4.987400e+00 -1.003911e+01 1.030958e+00 -1.064728e+01
<VARIANCE> 20
 4.357302e+01 3.489614e+00 2.352246e+02 4.262331e+01 9.787119e+01 1.575849e+01 2.667360e+02 6.844521e+01 6.238076e+01 1.584261e+01 2.207762e+02 9.126953e+01 5.651886e+01 1.622828e+01 1.641721e+02 7.267358e+01 8.141122e+01 1.639959e+01 2.099962e+02 7.082890e+01
<GCONST> 1.179673e+02
<STATE> 7
<MEAN> 20
 -7.312457e+00 -1.990674e+00 -1.145612e+01 -1.121353e+01 -8.664566e+00 -1.208835e+01 -1.491254e+01 -1.319515e+01 -4.077743e+00 -1.234556e+01 -1.151580e+01 -1.236545e+01 5.585328e-01 -1.170883e+01 -7.083714e+00 -1.052958e+01 5.263880e+00 -1.027069e+01 -2.090838e+00 -9.400213e+00
<VARIANCE> 20
 1.066208e+01 1.273018e+00 9.154482e+01 1.516569e+01 2.784780e+01 6.928195e+00 7.042257e+01 2.947719e+01 1.697529e+01 6.968997e+00 6.131080e+01 3.597958e+01 1.343600e+01 7.045638e+00 4.134736e+01 2.863597e+01 1.905961e+01 7.287505e+00 4.599709e+01 3.141243e+01
<GCONST> 9.581065e+01
<TRANSP> 8
 0.000000e+00 1.000000e+00 0.000000e+00 0.000000e+00 0.000000e+00 0.000000e+00 0.000000e+00 0.000000e+00
 0.000000e+00 6.555092e-02 9.344491e-01 0.000000e+00 0.000000e+00 0.000000e+00 0.000000e+00 0.000000e+00
 0.000000e+00 0.000000e+00 5.214286e-01 4.785714e-01 0.000000e+00 0.000000e+00 0.000000e+00 0.000000e+00
 0.000000e+00 0.000000e+00 0.000000e+00 5.404664e-01 4.595336e-01 0.000000e+00 0.000000e+00 0.000000e+00
 0.000000e+00 0.000000e+00 0.000000e+00 0.000000e+00 5.595003e-01 4.404997e-01 0.000000e+00 0.000000e+00
 0.000000e+00 0.000000e+00 0.000000e+00 0.000000e+00 0.000000e+00 5.530354e-01 4.469647e-01 0.000000e+00
 0.000000e+00 0.000000e+00 0.000000e+00 0.000000e+00 0.000000e+00 0.000000e+00 8.594816e-02 9.140518e-01
 0.000000e+00 0.000000e+00 0.000000e+00 0.000000e+00 0.000000e+00 0.000000e+00 0.000000e+00 0.000000e+00
<ENDHMM>
