~o
<STREAMINFO> 1 20
<VECSIZE> 20<NULLD><USER><DIAGC>
~h "n"
<BEGINHMM>
<NUMSTATES> 8
<STATE> 2
<MEAN> 20
 -7.264563e+00 -2.016675e+00 -1.391553e+01 -1.150565e+01 -8.613175e+00 -1.217299e+01 -1.507851e+01 -1.415567e+01 -3.888524e+00 -1.235801e+01 -1.110262e+01 -1.243961e+01 8.091930e-01 -1.162677e+01 -6.425117e+00 -8.338022e+00 5.439110e+00 -1.015458e+01 -1.753158e+00 -9.297538e+00
<VARIANCE> 20
 9.096254e+00 1.429894e+00 7.284724e+01 1.434350e+01 2.699587e+01 6.717748e+00 6.748157e+01 3.369609e+01 1.656823e+01 7.318609e+00 5.377586e+01 4.344370e+01 1.298808e+01 7.931284e+00 3.191875e+01 2.589174e+01 1.861423e+01 8.700940e+00 3.246006e+01 3.670994e+01
<GCONST> 9.528093e+01
<STATE> 3
<NUMMIXES> 4
<MIXTURE> 1 1.048593e-01
<MEAN> 20
 1.552842e+00 -2.006991e+00 1.730076e+00 -9.999208e+00 2.864093e+00 -1.118691e+01 2.242343e+00 -1.304965e+01 1.974524e+00 -1.102863e+01 2.442995e+00 -1.087566e+01 8.029246e-01 -9.866894e+00 9.928228e-01 -6.267400e+00 -5.283917e-01 -8.069334e+00 9.584990e-02 -6.050144e+00
<VARIANCE> 20
 5.392337e+01 2.818194e+00 3.012668e+02 3.276588e+01 1.272787e+02 1.252269e+01 4.183318e+02 5.367690e+01 6.090999e+01 1.486635e+01 2.618204e+02 7.025614e+01 3.761539e+01 1.821125e+01 9.915343e+01 3.004299e+01 5.493295e+01 2.185408e+01 6.474525e+01 3.435156e+01
<GCONST> 1.143264e+02
<MIXTURE> 2 4.063299e-01
<MEAN> 20
 -7.167903e+00 -1.939923e+00 -1.285497e+01 -1.115790e+01 -8.125656e+00 -1.103847e+01 -1.225032e+01 -1.082091e+01 -3.336412e+00 -1.115284e+01 -8.142380e+00 -9.500155e+00 1.583070e+00 -1.064359e+01 -4.219260e+00 -7.173525e+00 6.677219e+00 -9.572272e+00 1.048885e+00 -1.046186e+01
<VARIANCE> 20
 6.800458e-01 4.220650e-01 2.716691e+01 4.990807e+00 2.970716e+00 1.206131e+00 5.119027e+00 9.839454e+00 2.450669e+00 9.904245e-01 5.078337e+00 1.138230e+01 2.445030e+00 8.170411e-01 4.691908e+00 6.372856e+00 2.666926e+00 8.469614e-01 6.043480e+00 2.843230e+01
<GCONST> 6.060953e+01
<MIXTURE> 3 1.918159e-01
<MEAN> 20
 -8.962203e+00 -2.890669e+00 -2.099465e+01 -1.263759e+01 -8.278461e+00 -1.398510e+01 -2.157745e+01 -1.719569e+01 -4.379494e+00 -1.398912e+01 -2.013224e+01 -1.506684e+01 -1.085076e+00 -1.303786e+01 -1.590894e+01 -1.119615e+01 1.499818e+00 -1.127296e+01 -1.178282e+01 -1.185514e+01
<VARIANCE> 20
 2.650598e+00 2.231503e+00 2.369801e+01 8.701949e+00 3.798122e+01 3.521188e+00 2.795398e+01 2.508984e+01 2.572611e+01 3.559619e+00 2.272636e+01 2.646984e+01 1.298009e+01 4.835960e+00 2.176100e+01 2.101628e+01 1.242719e+01 7.205059e+00 3.692676e+01 3.521637e+01
<GCONST> 8.815957e+01
<MIXTURE> 4 2.969949e-01
<MEAN> 20
 -8.667873e+00 -2.328785e+00 -1.502752e+01 -1.341101e+01 -9.997181e+00 -1.414157e+01 -1.583259e+01 -1.800633e+01 -4.075920e+00 -1.446844e+01 -1.100557e+01 -1.637522e+01 1.868623e+00 -1.366164e+01 -5.513356e+00 -1.021423e+01 7.772125e+00 -1.193841e+01 1.584496e-01 -1.054577e+01
<VARIANCE> 20
 1.084830e+00 9.465815e-01 4.857564e+01 8.807279e+00 7.453773e+00 1.896907e+00 1.356859e+01 4.435165e+01 5.826871e+00 1.597703e+00 1.257460e+01 6.458624e+01 5.272431e+00 1.288444e+00 7.321194e+00 3.334104e+01 5.357162e+00 1.366647e+00 1.856213e+01 3.283873e+01
<GCONST> 7.663938e+01
<STATE> 4
<NUMMIXES> 4
<MIXTURE> 1 2.760268e-01
<MEAN> 20
 -6.556347e+00 -1.199167e+00 -1.084899e+01 -9.124621e+00 -9.073701e+00 -9.557700e+00 -1.165028e+01 -1.154150e+01 -4.539933e+00 -9.877414e+00 -7.874143e+00 -1.082450e+01 7.090825e-02 -9.557586e+00 -3.656040e+00 -7.177595e+00 4.892579e+00 -8.696722e+00 5.788930e-01 -8.230628e+00
<VARIANCE> 20
 5.729707e-01 2.924689e-01 1.793643e+01 3.236526e+00 2.101254e+00 6.527498e-01 4.771627e+00 1.068904e+01 1.134223e+00 5.445533e-01 4.386201e+00 1.283219e+01 9.980877e-01 4.971604e-01 3.184824e+00 8.407536e+00 1.498225e+00 5.666028e-01 4.343198e+00 1.406292e+01
<GCONST> 5.336413e+01
<MIXTURE> 2 3.237822e-01
<MEAN> 20
 -7.506608e+00 -2.728492e+00 -1.245852e+01 -1.274463e+01 -6.388380e+00 -1.312043e+01 -1.393214e+01 -1.546867e+01 -1.486216e+00 -1.305900e+01 -1.041825e+01 -1.371613e+01 3.312634e+00 -1.212033e+01 -6.599182e+00 -9.159628e+00 7.890913e+00 -1.041388e+01 -1.677967e+00 -9.766709e+00
<VARIANCE> 20
 7.046947e-01 5.483289e-01 2.956125e+01 5.330678e+00 6.094939e+00 1.137469e+00 1.196497e+01 2.472421e+01 4.771473e+00 9.556851e-01 1.806792e+01 2.962322e+01 4.027648e+00 8.193822e-01 1.762512e+01 1.423084e+01 5.213499e+00 1.085913e+00 2.676262e+01 2.063226e+01
<GCONST> 7.105891e+01
<MIXTURE> 3 9.996817e-02
<MEAN> 20
 -3.072846e+00 -3.373870e+00 -1.406997e+01 -1.093560e+01 -3.280674e+00 -1.106632e+01 -1.732643e+01 -1.328262e+01 -2.270892e+00 -9.598856e+00 -1.313774e+01 -8.919030e+00 -2.101633e+00 -7.352755e+00 -9.309660e+00 -4.385224e+00 -2.518256e+00 -4.806865e+00 -8.245481e+00 -3.340110e+00
<VARIANCE> 20
 2.429062e+01 4.022258e+00 1.780154e+02 3.016864e+01 5.925279e+01 1.091080e+01 2.619649e+02 3.655089e+01 3.929753e+01 1.061360e+01 1.934491e+02 3.833521e+01 3.770292e+01 1.284744e+01 7.934726e+01 1.574605e+01 5.468518e+01 1.611126e+01 7.488603e+01 1.817661e+01
<GCONST> 1.078218e+02
<MIXTURE> 4 3.002229e-01
<MEAN> 20
 -9.271029e+00 -1.399357e+00 -2.009826e+01 -1.239851e+01 -1.432324e+01 -1.304221e+01 -2.180873e+01 -1.498175e+01 -8.762858e+00 -1.390156e+01 -1.677280e+01 -1.397879e+01 -2.816828e+00 -1.374275e+01 -1.028866e+01 -9.947123e+00 3.317122e+00 -1.269247e+01 -4.198862e+00 -1.263546e+01
<VARIANCE> 20
 1.388434e+00 9.359102e-01 4.271351e+01 1.171404e+01 5.890185e+00 4.161688e+00 2.031100e+01 3.706435e+01 4.852509e+00 3.685981e+00 2.396530e+01 5.107121e+01 5.301926e+00 3.045553e+00 1.801534e+01 3.278075e+01 6.998573e+00 2.977060e+00 2.222704e+01 5.570427e+01
<GCONST> 8.237251e+01
<STATE> 5
<NUMMIXES> 4
<MIXTURE> 1 2.325986e-01
<MEAN> 20
 -5.545182e+00 -1.133314e+00 -8.787648e+00 -8.219824e+00 -7.223014e+00 -8.435737e+00 -9.193209e+00 -1.045011e+01 -3.214738e+00 -8.659422e+00 -5.924159e+00 -9.998365e+00 8.111179e-01 -8.312580e+00 -2.663844e+00 -6.259133e+00 4.953961e+00 -7.493366e+00 1.163187e+00 -6.896632e+00
<VARIANCE> 20
 5.581909e-01 2.424904e-01 1.673849e+01 3.435322e+00 2.120091e+00 1.077800e+00 3.668983e+00 7.379135e+00 9.905183e-01 9.991953e-01 2.932719e+00 9.831847e+00 7.921783e-01 8.776567e-01 2.385969e+00 7.233860e+00 1.323866e+00 7.901343e-01 4.236440e+00 1.014410e+01
<GCONST> 5.257622e+01
<MIXTURE> 2 4.872390e-01
<MEAN> 20
 -7.755149e+00 -2.148995e+00 -1.240253e+01 -1.171962e+01 -8.943081e+00 -1.227428e+01 -1.497383e+01 -1.446726e+01 -3.988583e+00 -1.249787e+01 -1.085772e+01 -1.355848e+01 1.141251e+00 -1.192390e+01 -6.149060e+00 -9.184419e+00 6.433664e+00 -1.063158e+01 -1.035572e+00 -1.047142e+01
<VARIANCE> 20
 5.915800e-01 5.565295e-01 2.658614e+01 5.148879e+00 4.677084e+00 1.055408e+00 8.367669e+00 2.059554e+01 3.816170e+00 8.523928e-01 9.420893e+00 2.774371e+01 3.658068e+00 6.703137e-01 7.825095e+00 1.420528e+01 3.707951e+00 8.061598e-01 1.047931e+01 2.370546e+01
<GCONST> 6.627524e+01
<MIXTURE> 3 1.102088e-01
<MEAN> 20
 -5.279990e+00 -1.766374e+00 -1.402546e+01 -8.333981e+00 -6.639953e+00 -1.044496e+01 -1.496646e+01 -1.129991e+01 -3.292674e+00 -1.034055e+01 -1.177726e+01 -8.043439e+00 -3.147483e-01 -9.194436e+00 -7.528303e+00 -4.619462e+00 2.218806e+00 -7.372928e+00 -4.173652e+00 -4.962742e+00
<VARIANCE> 20
 2.480105e+01 3.530800e+00 1.480141e+02 3.282489e+01 7.489161e+01 1.116770e+01 1.920165e+02 4.966611e+01 4.520949e+01 1.030659e+01 1.372144e+02 5.493859e+01 3.550428e+01 1.177871e+01 6.977448e+01 3.073564e+01 4.813742e+01 1.481525e+01 7.323233e+01 3.852605e+01
<GCONST> 1.089036e+02
<MIXTURE> 4 1.699536e-01
<MEAN> 20
 -1.074094e+01 -2.251881e+00 -2.187634e+01 -1.688465e+01 -1.521706e+01 -1.657014e+01 -2.463605e+01 -1.836731e+01 -8.606913e+00 -1.741160e+01 -1.917274e+01 -1.703263e+01 -1.681340e+00 -1.699356e+01 -1.153025e+01 -1.045548e+01 5.156587e+00 -1.548655e+01 -4.232332e+00 -1.341687e+01
<VARIANCE> 20
 1.733349e+00 1.306000e+00 6.098729e+01 1.102522e+01 1.269576e+01 3.711195e+00 2.677652e+01 4.618984e+01 1.026107e+01 3.537038e+00 3.070068e+01 6.303324e+01 9.201519e+00 3.197723e+00 2.015830e+01 3.763631e+01 1.012370e+01 3.353204e+00 2.914938e+01 7.413411e+01
<GCONST> 8.743442e+01
<STATE> 6
<NUMMIXES> 4
<MIXTURE> 1 2.709585e-01
<MEAN> 20
 -6.415691e+00 -1.686670e+00 -1.061871e+01 -9.975025e+00 -7.143590e+00 -1.041322e+01 -1.126888e+01 -1.210374e+01 -2.467397e+00 -1.049579e+01 -7.418123e+00 -1.042260e+01 2.196479e+00 -9.843931e+00 -3.560474e+00 -6.791622e+00 6.892453e+00 -8.575323e+00 1.076775e+00 -7.505906e+00
<VARIANCE> 20
 6.800083e-01 3.948022e-01 2.423444e+01 4.400362e+00 3.906023e+00 1.284905e+00 6.606956e+00 1.148401e+01 3.319307e+00 1.033139e+00 6.014812e+00 1.344705e+01 3.230766e+00 8.004237e-01 5.421728e+00 8.310012e+00 3.294626e+00 8.429366e-01 6.755628e+00 1.386426e+01
<GCONST> 6.199870e+01
<MIXTURE> 2 3.965665e-01
<MEAN> 20
 -7.448168e+00 -2.789177e+00 -8.770575e+00 -1.309458e+01 -6.147950e+00 -1.305490e+01 -1.382821e+01 -1.367971e+01 -9.107132e-01 -1.308246e+01 -1.018108e+01 -1.216938e+01 4.356935e+00 -1.219081e+01 -5.373567e+00 -6.192750e+00 9.424679e+00 -1.050011e+01 -1.736030e-01 -6.446694e+00
<VARIANCE> 20
 3.757435e-01 2.710767e-01 2.084854e+01 2.247731e+00 3.156666e+00 9.748105e-01 5.978384e+00 1.626025e+01 2.728945e+00 9.100618e-01 7.306666e+00 1.730681e+01 2.168762e+00 7.205450e-01 4.312869e+00 1.336031e+00 1.702102e+00 6.385926e-01 3.864669e+00 1.075223e+00
<GCONST> 5.347648e+01
<MIXTURE> 3 7.238913e-02
<MEAN> 20
 -5.107805e+00 -2.814245e+00 -1.699464e+01 -1.044335e+01 -8.779482e+00 -1.158988e+01 -2.097257e+01 -1.227199e+01 -6.718409e+00 -1.069355e+01 -1.641599e+01 -8.887423e+00 -4.878110e+00 -8.876862e+00 -1.117270e+01 -4.768076e+00 -3.287473e+00 -6.539726e+00 -8.581137e+00 -4.558105e+00
<VARIANCE> 20
 4.419720e+01 4.640331e+00 2.604072e+02 5.295348e+01 1.268347e+02 2.440961e+01 4.016190e+02 7.922357e+01 8.430515e+01 3.206265e+01 2.844036e+02 7.973586e+01 6.785101e+01 4.227007e+01 1.400873e+02 5.165264e+01 8.149240e+01 5.157779e+01 1.125807e+02 7.276239e+01
<GCONST> 1.221522e+02
<MIXTURE> 4 2.600859e-01
<MEAN> 20
 -8.749114e+00 -2.107734e+00 -1.688682e+01 -1.352017e+01 -1.097113e+01 -1.376790e+01 -1.942214e+01 -1.612967e+01 -5.591815e+00 -1.426240e+01 -1.514705e+01 -1.476331e+01 -3.448046e-02 -1.375768e+01 -9.093087e+00 -1.035795e+01 5.526895e+00 -1.236851e+01 -3.442187e+00 -1.138925e+01
<VARIANCE> 20
 1.050924e+00 1.360180e+00 3.252607e+01 8.857572e+00 1.047022e+01 2.517613e+00 1.797234e+01 2.443671e+01 7.276217e+00 2.239318e+00 2.051880e+01 3.448287e+01 5.627288e+00 2.011452e+00 1.691294e+01 2.827840e+01 6.870139e+00 2.091085e+00 2.703727e+01 3.399450e+01
<GCONST> 7.957244e+01
<STATE> 7
<MEAN> 20
 -7.223516e+00 -2.160124e+00 -1.303282e+01 -1.182158e+01 -8.206793e+00 -1.225569e+01 -1.520970e+01 -1.396875e+01 -3.536897e+00 -1.237223e+01 -1.135224e+01 -1.218893e+01 1.100519e+00 -1.159060e+01 -6.578218e+00 -7.715698e+00 5.645149e+00 -1.008157e+01 -1.868611e+00 -8.492654e+00
<VARIANCE> 20
 8.812662e+00 1.541801e+00 7.012733e+01 1.370689e+01 2.784012e+01 6.517411e+00 6.676900e+01 2.699141e+01 1.807701e+01 7.060303e+00 5.188700e+01 3.170334e+01 1.478655e+01 7.794692e+00 2.948329e+01 2.062277e+01 2.043820e+01 8.665104e+00 3.174383e+01 3.001851e+01
<GCONST> 9.438082e+01
<TRANSP> 8
 0.000000e+00 1.000000e+00 0.000000e+00 0.000000e+00 0.000000e+00 0.000000e+00 0.000000e+00 0.000000e+00
 0.000000e+00 4.002541e-02 9.599746e-01 0.000000e+00 0.000000e+00 0.000000e+00 0.000000e+00 0.000000e+00
 0.000000e+00 0.000000e+00 5.169438e-01 4.830563e-01 0.000000e+00 0.000000e+00 0.000000e+00 0.000000e+00
 0.000000e+00 0.000000e+00 0.000000e+00 5.189430e-01 4.810570e-01 0.000000e+00 0.000000e+00 0.000000e+00
 0.000000e+00 0.000000e+00 0.000000e+00 0.000000e+00 5.617750e-01 4.382251e-01 0.000000e+00 0.000000e+00
 0.000000e+00 0.000000e+00 0.000000e+00 0.000000e+00 0.000000e+00 5.676681e-01 4.323319e-01 0.000000e+00
 0.000000e+00 0.000000e+00 0.000000e+00 0.000000e+00 0.000000e+00 0.000000e+00 7.129686e-02 9.287031e-01
 0.000000e+00 0.000000e+00 0.000000e+00 0.000000e+00 0.000000e+00 0.000000e+00 0.000000e+00 0.000000e+00
<ENDHMM>
