~o
<STREAMINFO> 1 20
<VECSIZE> 20<NULLD><USER><DIAGC>
~h "o"
<BEGINHMM>
<NUMSTATES> 5
<STATE> 2
<NUMMIXES> 4
<MIXTURE> 1 3.875535e-01
<MEAN> 20
 -6.999470e+00 -2.170505e+00 -1.276367e+01 -1.138758e+01 -6.801250e+00 -1.196405e+01 -1.188470e+01 -1.397771e+01 -1.628866e+00 -1.192360e+01 -7.335790e+00 -1.026710e+01 3.367229e+00 -1.105952e+01 -3.420110e+00 -7.638746e+00 8.258422e+00 -9.506612e+00 2.007077e+00 -9.177445e+00
<VARIANCE> 20
 7.925181e-01 5.911069e-01 3.697715e+01 7.730797e+00 4.789315e+00 1.622395e+00 7.886593e+00 2.388682e+01 4.528069e+00 1.328824e+00 6.086339e+00 2.326212e+01 4.439994e+00 1.018880e+00 5.828844e+00 1.124854e+01 4.207731e+00 1.145030e+00 1.556041e+01 2.517408e+01
<GCONST> 6.892631e+01
<MIXTURE> 2 2.606190e-01
<MEAN> 20
 -8.829485e+00 -2.151962e+00 -1.752349e+01 -1.310002e+01 -1.106505e+01 -1.439252e+01 -1.773749e+01 -1.887422e+01 -5.198653e+00 -1.485147e+01 -1.211942e+01 -1.735129e+01 7.030060e-01 -1.409253e+01 -6.627189e+00 -1.278689e+01 6.590121e+00 -1.236133e+01 -9.057528e-01 -1.257153e+01
<VARIANCE> 20
 1.192267e+00 1.051989e+00 5.726188e+01 1.047035e+01 7.854299e+00 2.056812e+00 1.906077e+01 4.332816e+01 6.082319e+00 1.604449e+00 1.835076e+01 7.693118e+01 4.994930e+00 1.303838e+00 1.313482e+01 5.246446e+01 4.940376e+00 1.544014e+00 2.151407e+01 4.014132e+01
<GCONST> 7.961175e+01
<MIXTURE> 3 1.233125e-01
<MEAN> 20
 -6.091740e+00 -1.391323e+00 -1.695939e+01 -6.883125e+00 -8.960122e+00 -1.002403e+01 -1.742629e+01 -1.116161e+01 -5.195185e+00 -1.000534e+01 -1.377492e+01 -8.008721e+00 -1.692281e+00 -8.894673e+00 -8.862205e+00 -4.960669e+00 1.445302e+00 -7.069314e+00 -5.298679e+00 -4.380546e+00
<VARIANCE> 20
 2.003766e+01 3.198394e+00 1.438794e+02 3.180029e+01 5.834679e+01 1.184292e+01 1.589786e+02 5.192935e+01 3.283377e+01 1.146136e+01 1.325364e+02 6.994006e+01 2.337332e+01 1.275051e+01 7.417450e+01 4.349134e+01 3.303140e+01 1.519745e+01 6.756459e+01 4.131767e+01
<GCONST> 1.078971e+02
<MIXTURE> 4 2.285150e-01
<MEAN> 20
 -8.542917e+00 -1.835695e+00 -2.171721e+01 -1.036623e+01 -1.122768e+01 -1.253696e+01 -2.192084e+01 -1.542044e+01 -7.058747e+00 -1.291917e+01 -1.922043e+01 -1.492065e+01 -2.721435e+00 -1.249597e+01 -1.529551e+01 -1.326204e+01 1.648674e+00 -1.123073e+01 -1.061650e+01 -1.300441e+01
<VARIANCE> 20
 9.137498e-01 8.356664e-01 2.542903e+01 7.694744e+00 9.321125e+00 1.528890e+00 1.108644e+01 1.109404e+01 6.544386e+00 1.210256e+00 1.345927e+01 1.454469e+01 4.329423e+00 1.177927e+00 1.966464e+01 1.467269e+01 5.614838e+00 1.662472e+00 2.457922e+01 1.654565e+01
<GCONST> 7.211529e+01
<STATE> 3
<NUMMIXES> 4
<MIXTURE> 1 3.271093e-01
<MEAN> 20
 -5.561777e+00 -1.025947e+00 -9.994227e+00 -7.727249e+00 -7.455340e+00 -8.952492e+00 -1.004895e+01 -1.168127e+01 -3.352118e+00 -9.185178e+00 -6.337858e+00 -1.039322e+01 7.223535e-01 -8.836914e+00 -2.713503e+00 -8.517462e+00 4.947893e+00 -7.954127e+00 1.061256e+00 -8.374763e+00
<VARIANCE> 20
 5.219852e-01 2.688230e-01 1.219829e+01 4.303184e+00 2.658253e+00 1.235656e+00 4.727574e+00 1.053825e+01 1.438100e+00 1.196775e+00 3.380993e+00 1.579530e+01 1.181979e+00 1.077107e+00 3.265072e+00 1.164958e+01 1.694821e+00 1.042775e+00 6.724033e+00 9.866446e+00
<GCONST> 5.701722e+01
<MIXTURE> 2 3.860304e-01
<MEAN> 20
 -7.754970e+00 -2.343749e+00 -1.342622e+01 -1.200945e+01 -8.507483e+00 -1.294022e+01 -1.498088e+01 -1.678596e+01 -3.541276e+00 -1.313708e+01 -1.089180e+01 -1.625307e+01 1.520056e+00 -1.240220e+01 -6.554310e+00 -1.199901e+01 6.656062e+00 -1.084117e+01 -1.671824e+00 -1.158630e+01
<VARIANCE> 20
 5.665089e-01 5.427844e-01 2.981602e+01 5.041354e+00 4.792982e+00 8.599904e-01 9.204517e+00 2.493345e+01 3.685626e+00 6.888543e-01 9.683535e+00 4.119312e+01 3.197092e+00 5.239815e-01 9.156723e+00 2.680249e+01 3.116230e+00 7.281840e-01 1.396313e+01 2.313421e+01
<GCONST> 6.697968e+01
<MIXTURE> 3 1.096819e-01
<MEAN> 20
 -5.517743e+00 -3.367325e+00 -1.875886e+01 -1.066002e+01 -5.295410e+00 -1.243255e+01 -2.072155e+01 -1.545301e+01 -3.187116e+00 -1.125358e+01 -1.899312e+01 -1.138018e+01 -2.064266e+00 -9.089899e+00 -1.402483e+01 -6.742287e+00 -1.747944e+00 -6.401227e+00 -1.206016e+01 -5.331895e+00
<VARIANCE> 20
 1.773774e+01 2.836633e+00 1.070043e+02 1.637869e+01 3.776421e+01 5.174249e+00 1.340318e+02 2.711131e+01 2.752075e+01 5.070127e+00 1.427663e+02 3.656296e+01 2.825494e+01 7.113646e+00 7.538268e+01 2.031055e+01 4.199422e+01 1.001471e+01 6.527312e+01 2.139796e+01
<GCONST> 1.010368e+02
<MIXTURE> 4 1.771784e-01
<MEAN> 20
 -1.054717e+01 -2.344736e+00 -2.462518e+01 -1.514860e+01 -1.403095e+01 -1.605832e+01 -2.428393e+01 -2.050854e+01 -8.019176e+00 -1.668714e+01 -1.926118e+01 -1.853193e+01 -1.897069e+00 -1.602803e+01 -1.378409e+01 -1.419617e+01 4.125967e+00 -1.426822e+01 -7.673375e+00 -1.401098e+01
<VARIANCE> 20
 1.962568e+00 1.872417e+00 5.400935e+01 1.485372e+01 1.751367e+01 5.067523e+00 2.615901e+01 4.473401e+01 1.376057e+01 4.301406e+00 3.231847e+01 7.213610e+01 1.263867e+01 3.560545e+00 4.500698e+01 5.757840e+01 1.756943e+01 3.526934e+00 6.329080e+01 5.208435e+01
<GCONST> 9.202598e+01
<STATE> 4
<NUMMIXES> 4
<MIXTURE> 1 1.385913e-01
<MEAN> 20
 -1.554883e+00 -2.111017e+00 -1.675346e+00 -1.182816e+01 -6.785966e-01 -1.305124e+01 -1.317161e+00 -1.784685e+01 6.564150e-01 -1.327143e+01 -1.484874e-02 -1.656305e+01 1.813477e+00 -1.231867e+01 7.124231e-01 -1.095168e+01 2.866043e+00 -1.046229e+01 2.022318e+00 -9.726249e+00
<VARIANCE> 20
 5.924141e+01 1.414236e+00 2.719754e+02 1.423020e+01 9.708313e+01 7.709602e+00 2.634372e+02 5.380703e+01 2.807076e+01 8.011100e+00 1.385456e+02 8.222223e+01 1.506994e+01 7.368232e+00 6.360713e+01 4.587309e+01 5.405825e+01 6.504858e+00 3.813874e+01 3.177356e+01
<GCONST> 1.060312e+02
<MIXTURE> 2 4.812928e-01
<MEAN> 20
 -6.895600e+00 -1.650344e+00 -1.367651e+01 -9.657750e+00 -8.668776e+00 -1.091346e+01 -1.458506e+01 -1.367449e+01 -4.285255e+00 -1.115360e+01 -1.109136e+01 -1.317312e+01 2.169161e-01 -1.067239e+01 -7.078884e+00 -1.081345e+01 4.860094e+00 -9.489611e+00 -2.679751e+00 -1.068059e+01
<VARIANCE> 20
 5.718033e-01 5.008730e-01 1.898630e+01 3.907598e+00 4.125129e+00 1.025272e+00 7.897975e+00 1.396412e+01 2.527140e+00 9.119176e-01 1.069757e+01 2.090267e+01 2.093813e+00 8.159153e-01 1.381253e+01 1.583610e+01 2.860541e+00 9.733006e-01 2.013637e+01 1.570527e+01
<GCONST> 6.490763e+01
<MIXTURE> 3 1.062709e-01
<MEAN> 20
 -8.418643e+00 -2.675295e+00 -2.710391e+01 -8.599325e+00 -1.444084e+01 -1.159879e+01 -3.207900e+01 -1.270558e+01 -1.110234e+01 -1.070233e+01 -2.777856e+01 -8.486107e+00 -7.887623e+00 -8.726992e+00 -1.995946e+01 -5.276212e+00 -4.993605e+00 -6.128177e+00 -1.581585e+01 -3.986689e+00
<VARIANCE> 20
 1.195896e+01 4.672668e+00 4.381275e+01 4.447593e+01 3.333403e+01 1.848339e+01 7.360342e+01 7.274016e+01 2.945342e+01 2.521310e+01 1.023354e+02 1.093494e+02 3.459098e+01 3.511053e+01 5.964159e+01 7.325634e+01 5.441417e+01 4.353380e+01 6.598851e+01 6.966524e+01
<GCONST> 1.109854e+02
<MIXTURE> 4 2.738451e-01
<MEAN> 20
 -8.272008e+00 -3.178158e+00 -1.929439e+01 -1.191112e+01 -5.376249e+00 -1.370495e+01 -1.883227e+01 -1.572763e+01 -1.898005e+00 -1.354734e+01 -1.787639e+01 -1.474212e+01 9.702132e-01 -1.264082e+01 -1.575806e+01 -1.354622e+01 3.055645e+00 -1.090541e+01 -1.249761e+01 -1.300234e+01
<VARIANCE> 20
 1.136787e+00 7.087597e-01 1.050578e+01 2.864139e+00 1.118468e+01 9.512069e-01 6.789682e+00 6.623167e+00 8.000341e+00 7.304657e-01 8.373988e+00 3.647094e+00 4.292383e+00 6.818937e-01 1.299892e+01 4.509375e+00 6.781711e+00 1.083197e+00 1.899105e+01 5.389770e+00
<GCONST> 6.306828e+01
<TRANSP> 5
 0.000000e+00 1.000000e+00 0.000000e+00 0.000000e+00 0.000000e+00
 0.000000e+00 7.108989e-01 2.891011e-01 0.000000e+00 0.000000e+00
 0.000000e+00 0.000000e+00 7.571231e-01 2.428769e-01 0.000000e+00
 0.000000e+00 0.000000e+00 0.000000e+00 6.915510e-01 3.084490e-01
 0.000000e+00 0.000000e+00 0.000000e+00 0.000000e+00 0.000000e+00
<ENDHMM>
