~o
<STREAMINFO> 1 20
<VECSIZE> 20<NULLD><USER><DIAGC>
~h "o"
<BEGINHMM>
<NUMSTATES> 8
<STATE> 2
<MEAN> 20
 -7.235469e+00 -2.038256e+00 -1.559784e+01 -1.079621e+01 -8.613407e+00 -1.221746e+01 -1.578593e+01 -1.506533e+01 -4.082973e+00 -1.231972e+01 -1.182391e+01 -1.312848e+01 3.483906e-01 -1.151311e+01 -7.526668e+00 -1.025959e+01 4.683953e+00 -9.946666e+00 -2.954762e+00 -1.027908e+01
<VARIANCE> 20
 8.531677e+00 1.446371e+00 8.449896e+01 1.518285e+01 2.387420e+01 6.658711e+00 6.860332e+01 3.449148e+01 1.507953e+01 7.085048e+00 6.252223e+01 5.009539e+01 1.309687e+01 7.580184e+00 4.578714e+01 3.647157e+01 2.042577e+01 8.272759e+00 5.312580e+01 3.624169e+01
<GCONST> 9.669693e+01
<STATE> 3
<NUMMIXES> 4
<MIXTURE> 1 3.743943e-01
<MEAN> 20
 -6.445827e+00 -1.470037e+00 -1.171164e+01 -9.395322e+00 -8.104875e+00 -1.040009e+01 -1.206229e+01 -1.290109e+01 -3.474407e+00 -1.056832e+01 -7.820069e+00 -1.096511e+01 1.142714e+00 -1.003575e+01 -3.737177e+00 -8.586711e+00 5.888834e+00 -8.883051e+00 6.282870e-01 -8.820868e+00
<VARIANCE> 20
 5.486273e-01 4.441530e-01 2.022848e+01 4.777836e+00 3.748186e+00 9.868185e-01 5.594696e+00 1.509402e+01 3.085377e+00 8.041294e-01 5.227434e+00 1.929347e+01 3.039172e+00 6.170728e-01 4.893453e+00 1.263661e+01 3.271417e+00 7.233649e-01 8.609313e+00 1.424474e+01
<GCONST> 6.160712e+01
<MIXTURE> 2 3.751594e-01
<MEAN> 20
 -8.107650e+00 -2.264520e+00 -1.496955e+01 -1.218135e+01 -9.526904e+00 -1.338134e+01 -1.658052e+01 -1.758293e+01 -4.340536e+00 -1.370634e+01 -1.192076e+01 -1.724068e+01 9.303330e-01 -1.299915e+01 -7.065071e+00 -1.331336e+01 6.266060e+00 -1.139936e+01 -1.998310e+00 -1.251603e+01
<VARIANCE> 20
 7.192346e-01 6.957739e-01 3.608897e+01 6.781643e+00 5.537215e+00 1.374439e+00 1.160426e+01 2.898899e+01 4.094236e+00 1.174125e+00 1.321006e+01 4.940545e+01 3.593244e+00 9.076658e-01 1.238807e+01 3.836901e+01 3.865960e+00 1.015278e+00 1.927535e+01 2.730288e+01
<GCONST> 7.244376e+01
<MIXTURE> 3 1.025249e-01
<MEAN> 20
 -5.659762e+00 -2.075580e+00 -1.596463e+01 -9.705531e+00 -7.611592e+00 -1.195846e+01 -1.593688e+01 -1.311356e+01 -4.490856e+00 -1.179196e+01 -1.229173e+01 -1.015281e+01 -1.673659e+00 -1.050412e+01 -7.982488e+00 -7.216277e+00 8.256829e-01 -8.479809e+00 -4.745019e+00 -7.208839e+00
<VARIANCE> 20
 3.954875e+01 3.947492e+00 2.663488e+02 5.177921e+01 1.019828e+02 2.388297e+01 2.938847e+02 8.779259e+01 5.297645e+01 2.598107e+01 2.062136e+02 1.101509e+02 3.482096e+01 2.906225e+01 1.005049e+02 8.469566e+01 5.194323e+01 3.192468e+01 9.692356e+01 8.816050e+01
<GCONST> 1.189896e+02
<MIXTURE> 4 1.479214e-01
<MEAN> 20
 -9.563525e+00 -2.473820e+00 -2.547078e+01 -1.083852e+01 -1.025593e+01 -1.379014e+01 -2.411001e+01 -1.766406e+01 -6.580781e+00 -1.394287e+01 -2.326937e+01 -1.624158e+01 -3.263223e+00 -1.320120e+01 -2.040800e+01 -1.453584e+01 -4.739273e-01 -1.155197e+01 -1.620666e+01 -1.366977e+01
<VARIANCE> 20
 1.987011e+00 1.573698e+00 1.783522e+01 1.260474e+01 2.153913e+01 2.563665e+00 1.804827e+01 1.539045e+01 1.523684e+01 2.240417e+00 1.218725e+01 1.250265e+01 7.494333e+00 2.462838e+00 1.604056e+01 1.292528e+01 7.694028e+00 3.359149e+00 2.275755e+01 1.301693e+01
<GCONST> 7.870071e+01
<STATE> 4
<NUMMIXES> 4
<MIXTURE> 1 2.197832e-01
<MEAN> 20
 -5.607768e+00 -1.151966e+00 -1.205669e+01 -7.686956e+00 -7.429464e+00 -9.766805e+00 -1.185107e+01 -1.226394e+01 -3.465832e+00 -1.001481e+01 -8.356150e+00 -1.064534e+01 4.259327e-01 -9.449472e+00 -4.782871e+00 -8.197518e+00 4.271096e+00 -8.207337e+00 -9.445732e-01 -7.927561e+00
<VARIANCE> 20
 1.023222e+01 6.715509e-01 7.679968e+01 8.488131e+00 2.511918e+01 2.153526e+00 6.682911e+01 1.727725e+01 9.846331e+00 2.013174e+00 4.528114e+01 2.875282e+01 4.630304e+00 1.873410e+00 2.875350e+01 2.064516e+01 9.723734e+00 2.205416e+00 2.798332e+01 2.103898e+01
<GCONST> 8.435559e+01
<MIXTURE> 2 4.151762e-01
<MEAN> 20
 -7.449334e+00 -2.592325e+00 -1.278857e+01 -1.276223e+01 -6.663815e+00 -1.301152e+01 -1.264232e+01 -1.543460e+01 -1.396808e+00 -1.296676e+01 -8.050785e+00 -1.255460e+01 3.729260e+00 -1.203061e+01 -4.192578e+00 -9.191149e+00 8.743979e+00 -1.033441e+01 1.334158e+00 -1.035463e+01
<VARIANCE> 20
 5.932317e-01 4.215775e-01 3.645812e+01 4.272450e+00 3.882268e+00 9.670928e-01 9.185194e+00 2.916165e+01 3.220778e+00 8.752559e-01 8.594064e+00 4.130297e+01 2.848408e+00 6.844967e-01 8.584514e+00 2.072082e+01 2.649302e+00 7.958201e-01 1.871270e+01 2.769273e+01
<GCONST> 6.708685e+01
<MIXTURE> 3 9.295393e-02
<MEAN> 20
 -5.276185e+00 -4.182758e+00 -2.271360e+01 -1.101145e+01 -7.082958e+00 -1.237107e+01 -2.758936e+01 -1.537500e+01 -5.790312e+00 -1.027866e+01 -2.558416e+01 -1.097998e+01 -5.605000e+00 -7.315407e+00 -1.784306e+01 -4.833311e+00 -6.253236e+00 -4.067109e+00 -1.636840e+01 -2.861670e+00
<VARIANCE> 20
 1.022768e+01 2.300751e+00 2.637348e+01 2.323288e+01 2.175437e+01 6.165361e+00 4.406783e+01 2.861150e+01 2.249122e+01 6.836187e+00 8.259662e+01 3.742762e+01 2.509177e+01 8.101850e+00 3.552110e+01 9.588342e+00 3.008364e+01 8.962420e+00 2.904584e+01 8.216161e+00
<GCONST> 9.366115e+01
<MIXTURE> 4 2.720867e-01
<MEAN> 20
 -9.203887e+00 -1.872081e+00 -2.167090e+01 -1.195997e+01 -1.246244e+01 -1.360199e+01 -2.138361e+01 -1.673736e+01 -7.281850e+00 -1.416581e+01 -1.708502e+01 -1.546253e+01 -1.925942e+00 -1.368917e+01 -1.202367e+01 -1.218588e+01 3.457293e+00 -1.229344e+01 -6.479335e+00 -1.268821e+01
<VARIANCE> 20
 1.742062e+00 1.283353e+00 4.497521e+01 1.203668e+01 1.370962e+01 3.912818e+00 1.883893e+01 3.523455e+01 9.446642e+00 3.429201e+00 2.049994e+01 5.130790e+01 7.031129e+00 2.832365e+00 2.573992e+01 3.569341e+01 9.074755e+00 2.829523e+00 3.715116e+01 3.753436e+01
<GCONST> 8.507304e+01
<STATE> 5
<NUMMIXES> 4
<MIXTURE> 1 2.758865e-01
<MEAN> 20
 -5.371878e+00 -9.754602e-01 -9.689575e+00 -7.458343e+00 -7.177155e+00 -8.633547e+00 -9.630632e+00 -1.132800e+01 -3.229767e+00 -8.865816e+00 -6.106812e+00 -1.008907e+01 6.925396e-01 -8.555734e+00 -2.635468e+00 -8.442611e+00 4.766532e+00 -7.737018e+00 1.087229e+00 -8.363273e+00
<VARIANCE> 20
 3.901806e-01 2.296234e-01 1.039151e+01 3.902575e+00 2.056978e+00 1.054027e+00 3.695926e+00 8.782625e+00 1.046685e+00 1.021247e+00 2.991764e+00 1.329305e+01 8.989348e-01 9.427294e-01 3.220284e+00 1.084027e+01 1.439408e+00 9.377422e-01 6.648019e+00 8.747318e+00
<GCONST> 5.380156e+01
<MIXTURE> 2 3.765957e-01
<MEAN> 20
 -7.587313e+00 -1.895799e+00 -1.372114e+01 -1.095114e+01 -9.347968e+00 -1.217927e+01 -1.478996e+01 -1.564801e+01 -4.355421e+00 -1.248092e+01 -1.065397e+01 -1.486790e+01 7.643667e-01 -1.186773e+01 -6.153883e+00 -1.090039e+01 6.024628e+00 -1.046350e+01 -1.117104e+00 -1.116655e+01
<VARIANCE> 20
 7.123713e-01 5.963820e-01 2.885907e+01 6.129519e+00 4.800224e+00 1.186583e+00 9.507163e+00 2.649049e+01 3.469712e+00 1.055898e+00 9.232003e+00 4.295950e+01 2.917213e+00 8.637491e-01 7.914766e+00 2.406038e+01 2.846548e+00 1.042986e+00 1.269573e+01 2.469427e+01
<GCONST> 6.863651e+01
<MIXTURE> 3 1.316785e-01
<MEAN> 20
 -3.495149e+00 -2.397211e+00 -9.805264e+00 -1.220812e+01 -4.518268e+00 -1.373854e+01 -9.990730e+00 -1.756438e+01 -2.758540e+00 -1.372021e+01 -8.393895e+00 -1.474471e+01 -1.182460e+00 -1.251094e+01 -5.881858e+00 -1.011074e+01 2.115908e-01 -1.043039e+01 -3.911955e+00 -9.330970e+00
<VARIANCE> 20
 6.777715e+01 2.408400e+00 4.039913e+02 2.393330e+01 1.339011e+02 1.136067e+01 4.115938e+02 6.485667e+01 5.724994e+01 1.348116e+01 2.847532e+02 9.109799e+01 3.139038e+01 1.618560e+01 1.494157e+02 5.561561e+01 5.654387e+01 1.861761e+01 9.578545e+01 5.374815e+01
<GCONST> 1.161225e+02
<MIXTURE> 4 2.158392e-01
<MEAN> 20
 -8.381589e+00 -3.024915e+00 -2.048229e+01 -1.157678e+01 -6.113517e+00 -1.353659e+01 -1.993351e+01 -1.548550e+01 -2.676073e+00 -1.344237e+01 -1.889128e+01 -1.479799e+01 2.077459e-01 -1.260476e+01 -1.678510e+01 -1.371790e+01 2.353661e+00 -1.094008e+01 -1.340682e+01 -1.315319e+01
<VARIANCE> 20
 7.644992e-01 8.159245e-01 7.358596e+00 3.274144e+00 1.524295e+01 1.085861e+00 5.912263e+00 4.014771e+00 1.163286e+01 7.688065e-01 5.464185e+00 3.186422e+00 5.972600e+00 7.550948e-01 7.406750e+00 3.963927e+00 4.855911e+00 1.306751e+00 1.118647e+01 5.368997e+00
<GCONST> 6.131801e+01
<STATE> 6
<NUMMIXES> 4
<MIXTURE> 1 2.565865e-01
<MEAN> 20
 -5.801003e+00 -1.646387e+00 -1.037777e+01 -9.503830e+00 -6.447136e+00 -1.095304e+01 -1.053480e+01 -1.411777e+01 -2.104796e+00 -1.106478e+01 -6.787036e+00 -1.199307e+01 2.068446e+00 -1.029651e+01 -3.250202e+00 -8.338159e+00 6.126702e+00 -8.824419e+00 7.213345e-01 -8.221222e+00
<VARIANCE> 20
 1.015255e+01 9.623414e-01 6.183445e+01 9.880517e+00 2.382515e+01 3.816268e+00 5.334895e+01 2.702145e+01 1.115187e+01 3.383334e+00 3.047965e+01 3.855492e+01 7.425294e+00 2.782444e+00 1.614244e+01 1.957328e+01 1.255356e+01 2.701699e+00 1.547534e+01 1.913893e+01
<GCONST> 8.593371e+01
<MIXTURE> 2 3.256014e-01
<MEAN> 20
 -7.169611e+00 -2.322688e+00 -1.600565e+01 -1.080072e+01 -7.316950e+00 -1.191352e+01 -1.655741e+01 -1.426451e+01 -3.469222e+00 -1.192969e+01 -1.420860e+01 -1.367199e+01 4.667971e-01 -1.133714e+01 -1.118822e+01 -1.272076e+01 4.404524e+00 -1.000316e+01 -7.423845e+00 -1.207685e+01
<VARIANCE> 20
 3.141520e-01 3.754553e-01 8.815062e+00 2.269478e+00 4.936200e+00 9.838181e-01 3.821548e+00 4.260760e+00 3.774639e+00 8.132185e-01 4.365896e+00 3.888011e+00 2.721672e+00 6.551710e-01 6.049668e+00 3.613428e+00 2.598453e+00 6.972952e-01 8.456846e+00 4.430912e+00
<GCONST> 5.382071e+01
<MIXTURE> 3 7.474227e-02
<MEAN> 20
 -7.531631e+00 -2.627326e+00 -2.732255e+01 -5.250847e+00 -1.509157e+01 -9.440121e+00 -3.377254e+01 -8.368544e+00 -1.230376e+01 -8.101602e+00 -3.006570e+01 -2.342801e+00 -9.616094e+00 -5.666174e+00 -2.016320e+01 5.715543e-02 -7.254109e+00 -2.778536e+00 -1.647473e+01 9.860826e-01
<VARIANCE> 20
 1.378131e+01 4.864894e+00 5.567425e+01 2.947908e+01 3.923059e+01 1.299599e+01 9.723462e+01 5.140440e+01 3.248483e+01 1.274678e+01 1.340212e+02 5.948151e+01 3.344891e+01 1.576588e+01 7.861762e+01 2.398668e+01 4.492953e+01 1.983858e+01 7.601785e+01 2.015630e+01
<GCONST> 1.060639e+02
<MIXTURE> 4 3.430699e-01
<MEAN> 20
 -9.750194e+00 -2.431366e+00 -2.128757e+01 -1.458661e+01 -1.204016e+01 -1.544921e+01 -2.183895e+01 -2.023604e+01 -6.311828e+00 -1.594284e+01 -1.710338e+01 -1.867533e+01 -5.641132e-01 -1.519583e+01 -1.179888e+01 -1.377674e+01 5.035047e+00 -1.339470e+01 -6.086787e+00 -1.308971e+01
<VARIANCE> 20
 2.070095e+00 1.803419e+00 5.646958e+01 1.400675e+01 2.082156e+01 4.471173e+00 3.009002e+01 3.970501e+01 1.462263e+01 4.249715e+00 3.311853e+01 6.833186e+01 1.082270e+01 4.021268e+00 4.251493e+01 5.240717e+01 1.391273e+01 4.181798e+00 5.696586e+01 4.365063e+01
<GCONST> 9.158561e+01
<STATE> 7
<MEAN> 20
 -7.227467e+00 -2.088232e+00 -1.532855e+01 -1.086111e+01 -8.231601e+00 -1.225135e+01 -1.598954e+01 -1.547165e+01 -3.897361e+00 -1.237726e+01 -1.249646e+01 -1.402548e+01 3.098829e-01 -1.157854e+01 -8.540800e+00 -1.056410e+01 4.365046e+00 -9.991037e+00 -4.285844e+00 -1.008300e+01
<VARIANCE> 20
 8.429550e+00 1.552797e+00 7.195262e+01 1.310070e+01 2.497947e+01 6.365789e+00 6.784235e+01 3.179267e+01 1.485554e+01 6.811110e+00 6.164541e+01 4.756978e+01 1.154887e+01 7.207524e+00 5.171881e+01 3.114902e+01 1.854672e+01 7.681134e+00 5.645757e+01 2.891056e+01
<GCONST> 9.568703e+01
<TRANSP> 8
 0.000000e+00 1.000000e+00 0.000000e+00 0.000000e+00 0.000000e+00 0.000000e+00 0.000000e+00 0.000000e+00
 0.000000e+00 3.569467e-02 9.643053e-01 0.000000e+00 0.000000e+00 0.000000e+00 0.000000e+00 0.000000e+00
 0.000000e+00 0.000000e+00 5.521551e-01 4.478450e-01 0.000000e+00 0.000000e+00 0.000000e+00 0.000000e+00
 0.000000e+00 0.000000e+00 0.000000e+00 5.241193e-01 4.758808e-01 0.000000e+00 0.000000e+00 0.000000e+00
 0.000000e+00 0.000000e+00 0.000000e+00 0.000000e+00 5.848700e-01 4.151300e-01 0.000000e+00 0.000000e+00
 0.000000e+00 0.000000e+00 0.000000e+00 0.000000e+00 0.000000e+00 4.971363e-01 5.028637e-01 0.000000e+00
 0.000000e+00 0.000000e+00 0.000000e+00 0.000000e+00 0.000000e+00 0.000000e+00 4.720564e-02 9.527944e-01
 0.000000e+00 0.000000e+00 0.000000e+00 0.000000e+00 0.000000e+00 0.000000e+00 0.000000e+00 0.000000e+00
<ENDHMM>
