~o
<STREAMINFO> 1 20
<VECSIZE> 20<NULLD><USER><DIAGC>
~h "u"
<BEGINHMM>
<NUMSTATES> 8
<STATE> 2
<MEAN> 20
 -7.052738e+00 -1.840376e+00 -1.425328e+01 -1.008284e+01 -8.958522e+00 -1.195551e+01 -1.475353e+01 -1.576326e+01 -4.305379e+00 -1.213183e+01 -1.101760e+01 -1.448762e+01 2.981607e-01 -1.129703e+01 -6.680111e+00 -8.947584e+00 4.798529e+00 -9.662716e+00 -2.117521e+00 -9.009334e+00
<VARIANCE> 20
 9.505778e+00 1.570341e+00 8.602808e+01 1.764492e+01 2.854327e+01 7.088341e+00 7.964005e+01 5.485504e+01 1.631414e+01 7.396610e+00 6.382616e+01 7.538271e+01 1.312987e+01 7.816664e+00 4.293574e+01 3.526116e+01 2.119904e+01 8.341984e+00 4.689759e+01 3.872606e+01
<GCONST> 9.838311e+01
<STATE> 3
<NUMMIXES> 4
<MIXTURE> 1 5.750799e-02
<MEAN> 20
 -3.650435e+00 -2.445886e+00 -7.032369e+00 -1.165674e+01 -1.326512e+00 -1.352553e+01 -3.432981e+00 -1.661876e+01 1.891308e+00 -1.336151e+01 -1.143843e+00 -1.290456e+01 4.580770e+00 -1.192885e+01 3.595054e-01 -7.229590e+00 6.863195e+00 -9.648603e+00 3.078957e+00 -7.568139e+00
<VARIANCE> 20
 4.492190e+01 2.302997e+00 2.551978e+02 2.475331e+01 6.038290e+01 5.360513e+00 1.835457e+02 6.913322e+01 1.470962e+01 5.548047e+00 1.003549e+02 8.247605e+01 1.725206e+01 6.501069e+00 4.122311e+01 2.242810e+01 5.873535e+01 7.548075e+00 3.868992e+01 3.620415e+01
<GCONST> 1.036874e+02
<MIXTURE> 2 2.805112e-01
<MEAN> 20
 -5.502769e+00 -1.044292e+00 -9.594058e+00 -7.632921e+00 -7.419112e+00 -8.759475e+00 -9.234674e+00 -1.265170e+01 -3.334695e+00 -8.978932e+00 -5.739921e+00 -1.205384e+01 7.167668e-01 -8.535635e+00 -2.588062e+00 -6.897893e+00 4.845533e+00 -7.554206e+00 7.997792e-01 -6.620688e+00
<VARIANCE> 20
 5.426934e-01 3.285584e-01 1.325823e+01 4.841297e+00 3.021156e+00 1.352078e+00 4.680799e+00 1.615808e+01 1.657123e+00 1.292374e+00 3.571272e+00 2.448862e+01 1.198773e+00 1.140900e+00 1.794998e+00 9.269623e+00 1.471886e+00 1.087181e+00 2.307500e+00 9.807407e+00
<GCONST> 5.687525e+01
<MIXTURE> 3 4.581470e-01
<MEAN> 20
 -7.576098e+00 -2.272461e+00 -1.277108e+01 -1.165094e+01 -8.324701e+00 -1.265030e+01 -1.393938e+01 -1.643652e+01 -3.420220e+00 -1.282489e+01 -1.014835e+01 -1.641605e+01 1.586048e+00 -1.211246e+01 -5.752208e+00 -1.228585e+01 6.706705e+00 -1.059229e+01 -2.684155e-01 -1.234032e+01
<VARIANCE> 20
 6.106160e-01 5.884013e-01 3.019210e+01 5.621374e+00 4.731613e+00 1.195440e+00 9.274096e+00 2.923445e+01 3.098487e+00 1.125791e+00 9.016689e+00 4.592844e+01 2.743913e+00 9.287780e-01 1.039674e+01 3.274623e+01 3.355114e+00 9.376776e-01 2.330663e+01 2.910894e+01
<GCONST> 6.991068e+01
<MIXTURE> 4 2.038339e-01
<MEAN> 20
 -8.520679e+00 -2.273167e+00 -2.277117e+01 -1.052977e+01 -1.157948e+01 -1.287520e+01 -2.437275e+01 -1.629933e+01 -7.290591e+00 -1.289531e+01 -2.047904e+01 -1.477212e+01 -3.312136e+00 -1.176259e+01 -1.446963e+01 -8.665092e+00 1.885226e-01 -9.822824e+00 -9.992866e+00 -8.842628e+00
<VARIANCE> 20
 6.731386e+00 3.896886e+00 4.067289e+01 3.093161e+01 3.553087e+01 1.096020e+01 3.274496e+01 7.052599e+01 2.065432e+01 1.203480e+01 4.857420e+01 9.789302e+01 1.367752e+01 1.561611e+01 4.071208e+01 4.977534e+01 2.592064e+01 1.973654e+01 5.558693e+01 6.233670e+01
<GCONST> 1.022201e+02
<STATE> 4
<NUMMIXES> 4
<MIXTURE> 1 4.203783e-01
<MEAN> 20
 -6.658545e+00 -1.526199e+00 -1.053827e+01 -9.615896e+00 -8.724680e+00 -1.077027e+01 -1.159071e+01 -1.493415e+01 -3.939310e+00 -1.097762e+01 -7.577997e+00 -1.425519e+01 9.003246e-01 -1.036613e+01 -3.502402e+00 -8.320827e+00 5.903306e+00 -9.086378e+00 7.115328e-01 -7.819369e+00
<VARIANCE> 20
 4.765609e-01 5.202034e-01 1.900774e+01 5.327549e+00 2.393157e+00 9.750589e-01 3.898023e+00 2.418607e+01 1.818250e+00 7.908173e-01 3.733549e+00 3.525849e+01 1.865319e+00 5.894572e-01 3.313525e+00 8.558598e+00 2.129648e+00 6.187767e-01 3.364132e+00 8.836031e+00
<GCONST> 5.772522e+01
<MIXTURE> 2 1.696156e-01
<MEAN> 20
 -6.045352e+00 -2.396387e+00 -1.343125e+01 -1.082050e+01 -5.237445e+00 -1.295849e+01 -1.235311e+01 -1.713309e+01 -1.556303e+00 -1.284074e+01 -9.581617e+00 -1.524450e+01 1.741932e+00 -1.163506e+01 -7.065768e+00 -9.903685e+00 4.599079e+00 -9.607071e+00 -3.255488e+00 -9.725667e+00
<VARIANCE> 20
 2.451975e+01 1.766063e+00 1.655261e+02 1.537351e+01 4.150498e+01 7.906257e+00 1.222618e+02 5.261565e+01 1.715022e+01 8.275993e+00 9.698051e+01 7.212221e+01 1.495373e+01 8.233362e+00 6.661958e+01 3.498772e+01 3.437294e+01 8.177928e+00 7.167431e+01 3.762901e+01
<GCONST> 1.028442e+02
<MIXTURE> 3 3.544844e-01
<MEAN> 20
 -8.739133e+00 -1.387502e+00 -1.666701e+01 -1.141358e+01 -1.297822e+01 -1.345719e+01 -1.831967e+01 -2.082704e+01 -6.958290e+00 -1.415337e+01 -1.377841e+01 -2.075074e+01 -7.103271e-01 -1.355132e+01 -7.537885e+00 -1.034563e+01 5.575345e+00 -1.191197e+01 -1.830698e+00 -1.044064e+01
<VARIANCE> 20
 1.030002e+00 8.085187e-01 4.858266e+01 8.733440e+00 4.353578e+00 1.652314e+00 1.349863e+01 4.445502e+01 2.882155e+00 1.510852e+00 1.110656e+01 7.492383e+01 2.894616e+00 1.289967e+00 9.662226e+00 3.569031e+01 3.850443e+00 1.392708e+00 1.312896e+01 4.006270e+01
<GCONST> 7.429572e+01
<MIXTURE> 4 5.552166e-02
<MEAN> 20
 -6.519781e+00 -3.216591e+00 -2.777776e+01 -4.132058e+00 -1.563093e+01 -8.872551e+00 -3.521947e+01 -7.186273e+00 -1.334944e+01 -6.897739e+00 -3.177764e+01 -2.555564e+00 -1.121699e+01 -3.903235e+00 -1.985984e+01 1.485201e+00 -9.382092e+00 -6.179934e-01 -1.647438e+01 2.845498e+00
<VARIANCE> 20
 9.137311e+00 6.048521e+00 2.556771e+01 4.879096e+01 3.243053e+01 1.636521e+01 4.692978e+01 9.717995e+01 2.180913e+01 1.003361e+01 1.136346e+02 9.372611e+01 1.920015e+01 7.633363e+00 4.698774e+01 3.643645e+01 2.828265e+01 7.399005e+00 3.596655e+01 2.123574e+01
<GCONST> 1.016745e+02
<STATE> 5
<NUMMIXES> 4
<MIXTURE> 1 2.531328e-01
<MEAN> 20
 -5.766451e+00 -1.387675e+00 -9.891906e+00 -8.338071e+00 -6.901853e+00 -1.089323e+01 -9.528675e+00 -1.548943e+01 -2.340162e+00 -1.104224e+01 -5.711627e+00 -1.434305e+01 2.053159e+00 -1.017954e+01 -2.454599e+00 -7.712087e+00 6.310586e+00 -8.543744e+00 1.691928e+00 -7.161602e+00
<VARIANCE> 20
 1.081727e+01 9.378492e-01 8.013295e+01 1.140263e+01 2.609985e+01 3.185728e+00 5.860170e+01 3.355634e+01 1.044621e+01 2.996931e+00 3.684721e+01 5.026201e+01 6.452344e+00 2.597370e+00 1.500508e+01 1.846671e+01 1.257356e+01 2.612694e+00 1.467299e+01 1.729037e+01
<GCONST> 8.633593e+01
<MIXTURE> 2 2.926065e-01
<MEAN> 20
 -7.700313e+00 -2.083585e+00 -9.108483e+00 -1.137100e+01 -8.525172e+00 -1.386448e+01 -1.015320e+01 -2.545751e+01 -2.848386e+00 -1.395450e+01 -6.920422e+00 -2.714751e+01 2.780395e+00 -1.267494e+01 -5.105165e+00 -9.137549e+00 8.165314e+00 -1.037506e+01 -7.092666e-01 -8.269914e+00
<VARIANCE> 20
 2.749531e-01 4.349398e-01 5.722409e+00 3.004115e+00 3.210849e+00 6.368167e-01 9.384696e+00 2.388897e+00 2.436831e+00 5.740290e-01 8.712516e+00 3.478915e+00 2.015011e+00 5.391403e-01 4.239801e+00 6.040316e+00 1.813141e+00 6.426312e-01 5.651630e+00 6.956829e+00
<GCONST> 5.220085e+01
<MIXTURE> 3 7.205514e-02
<MEAN> 20
 -8.357859e+00 -9.003509e-01 -2.581540e+01 5.775539e-01 -1.633671e+01 -7.561748e+00 -3.037547e+01 -1.055739e+00 -1.159075e+01 -7.145902e+00 -2.157486e+01 1.504641e+00 -6.739498e+00 -5.389951e+00 -1.329171e+01 2.613449e+00 -2.378443e+00 -3.057961e+00 -8.695571e+00 2.832484e+00
<VARIANCE> 20
 6.337622e+00 3.447554e+00 3.221605e+01 3.199808e+01 3.022009e+01 1.139719e+01 4.313261e+01 5.787072e+01 2.339264e+01 1.050286e+01 6.657217e+01 4.947240e+01 1.941181e+01 1.161895e+01 3.614451e+01 1.931641e+01 2.258237e+01 1.345579e+01 3.223508e+01 1.510866e+01
<GCONST> 9.791989e+01
<MIXTURE> 4 3.822055e-01
<MEAN> 20
 -8.347117e+00 -2.413808e+00 -1.932587e+01 -1.126807e+01 -8.522813e+00 -1.321215e+01 -1.862615e+01 -1.783338e+01 -4.229134e+00 -1.338072e+01 -1.694266e+01 -1.646840e+01 -1.494739e-01 -1.262187e+01 -1.319341e+01 -1.256368e+01 3.549129e+00 -1.100594e+01 -8.606340e+00 -1.250065e+01
<VARIANCE> 20
 1.645552e+00 1.495583e+00 2.957199e+01 7.188085e+00 2.093233e+01 3.138257e+00 1.464509e+01 2.907934e+01 1.325754e+01 2.894497e+00 1.673809e+01 3.351394e+01 7.392150e+00 2.528486e+00 2.483996e+01 2.155956e+01 9.365359e+00 2.497031e+00 3.985976e+01 2.153537e+01
<GCONST> 8.235200e+01
<STATE> 6
<NUMMIXES> 4
<MIXTURE> 1 6.420765e-02
<MEAN> 20
 8.518844e+00 -2.048334e+00 1.941544e+01 -1.041795e+01 1.114316e+01 -1.316514e+01 1.847624e+01 -1.744601e+01 5.570516e+00 -1.337036e+01 1.513960e+01 -1.680731e+01 1.797602e-01 -1.207240e+01 8.355097e+00 -1.079043e+01 -4.643421e+00 -9.754864e+00 2.213155e+00 -8.387369e+00
<VARIANCE> 20
 4.364632e+00 2.383453e+00 9.366064e+01 2.476960e+01 3.063053e+01 1.136577e+01 7.640705e+01 5.839275e+01 2.288334e+01 1.648150e+01 9.194372e+01 1.039614e+02 1.584228e+01 2.301902e+01 3.246900e+01 8.718729e+01 1.715504e+01 2.800397e+01 4.963315e+01 7.553886e+01
<GCONST> 1.044539e+02
<MIXTURE> 2 4.699453e-01
<MEAN> 20
 -7.293628e+00 -2.088029e+00 -1.133040e+01 -1.129066e+01 -8.165195e+00 -1.266285e+01 -1.292595e+01 -1.759350e+01 -2.795112e+00 -1.277658e+01 -8.850784e+00 -1.581059e+01 2.565691e+00 -1.184681e+01 -4.617624e+00 -8.179260e+00 7.830430e+00 -1.007468e+01 1.401208e-02 -7.647954e+00
<VARIANCE> 20
 5.746138e-01 6.854609e-01 2.791787e+01 6.653025e+00 5.375886e+00 1.552266e+00 1.085414e+01 3.519549e+01 4.337416e+00 1.347245e+00 9.644818e+00 5.641852e+01 3.916327e+00 1.090258e+00 7.474858e+00 1.138624e+01 3.872382e+00 1.075194e+00 7.817967e+00 9.667192e+00
<GCONST> 6.882887e+01
<MIXTURE> 3 2.090164e-01
<MEAN> 20
 -6.412380e+00 -1.162802e+00 -1.672190e+01 -5.741375e+00 -9.408851e+00 -9.362899e+00 -1.645341e+01 -1.060637e+01 -4.969110e+00 -9.379852e+00 -1.265670e+01 -8.930029e+00 -6.938466e-01 -8.417841e+00 -7.553062e+00 -4.850730e+00 3.234263e+00 -6.770484e+00 -3.212922e+00 -4.690409e+00
<VARIANCE> 20
 3.932421e+00 1.752841e+00 4.951708e+01 1.464353e+01 2.081242e+01 4.085975e+00 7.002477e+01 3.691695e+01 1.675704e+01 3.848224e+00 7.271565e+01 5.189853e+01 1.630711e+01 4.821209e+00 4.183029e+01 2.986923e+01 2.122143e+01 6.599535e+00 4.900600e+01 2.882757e+01
<GCONST> 9.366761e+01
<MIXTURE> 4 2.568306e-01
<MEAN> 20
 -1.000351e+01 -1.988596e+00 -2.071309e+01 -1.347075e+01 -1.361060e+01 -1.557847e+01 -2.077267e+01 -2.273964e+01 -7.089604e+00 -1.634743e+01 -1.623073e+01 -2.086518e+01 -5.693306e-01 -1.560522e+01 -9.901216e+00 -1.126087e+01 5.767915e+00 -1.368391e+01 -3.482274e+00 -1.104464e+01
<VARIANCE> 20
 1.968983e+00 2.611295e+00 7.540993e+01 1.579963e+01 2.123665e+01 5.570962e+00 2.910333e+01 6.082763e+01 1.568303e+01 4.534928e+00 2.959890e+01 1.086860e+02 1.175397e+01 3.847068e+00 3.436260e+01 5.295752e+01 1.250069e+01 3.657306e+00 4.181564e+01 4.930208e+01
<GCONST> 9.284232e+01
<STATE> 7
<MEAN> 20
 -7.143248e+00 -1.776995e+00 -1.336749e+01 -1.014614e+01 -9.110089e+00 -1.229599e+01 -1.419925e+01 -1.793454e+01 -4.202442e+00 -1.248642e+01 -1.052633e+01 -1.690173e+01 6.653413e-01 -1.156852e+01 -6.251874e+00 -8.823356e+00 5.394117e+00 -9.796477e+00 -1.761677e+00 -8.313805e+00
<VARIANCE> 20
 9.434818e+00 1.501002e+00 8.150735e+01 1.510460e+01 2.735584e+01 6.741492e+00 7.600975e+01 5.144244e+01 1.613472e+01 7.355546e+00 6.099152e+01 7.939677e+01 1.318464e+01 7.659910e+00 3.608746e+01 3.136968e+01 1.957439e+01 7.781959e+00 3.527489e+01 2.960424e+01
<GCONST> 9.689789e+01
<TRANSP> 8
 0.000000e+00 1.000000e+00 0.000000e+00 0.000000e+00 0.000000e+00 0.000000e+00 0.000000e+00 0.000000e+00
 0.000000e+00 3.753351e-02 9.624665e-01 0.000000e+00 0.000000e+00 0.000000e+00 0.000000e+00 0.000000e+00
 0.000000e+00 0.000000e+00 5.412140e-01 4.587860e-01 0.000000e+00 0.000000e+00 0.000000e+00 0.000000e+00
 0.000000e+00 0.000000e+00 0.000000e+00 5.619280e-01 4.380720e-01 0.000000e+00 0.000000e+00 0.000000e+00
 0.000000e+00 0.000000e+00 0.000000e+00 0.000000e+00 5.501253e-01 4.498747e-01 0.000000e+00 0.000000e+00
 0.000000e+00 0.000000e+00 0.000000e+00 0.000000e+00 0.000000e+00 5.095628e-01 4.904372e-01 0.000000e+00
 0.000000e+00 0.000000e+00 0.000000e+00 0.000000e+00 0.000000e+00 0.000000e+00 1.778386e-02 9.822161e-01
 0.000000e+00 0.000000e+00 0.000000e+00 0.000000e+00 0.000000e+00 0.000000e+00 0.000000e+00 0.000000e+00
<ENDHMM>
