~o
<STREAMINFO> 1 20
<VECSIZE> 20<NULLD><USER><DIAGC>
~h "u"
<BEGINHMM>
<NUMSTATES> 5
<STATE> 2
<NUMMIXES> 4
<MIXTURE> 1 4.844084e-01
<MEAN> 20
 -7.215110e+00 -2.265898e+00 -1.118281e+01 -1.170635e+01 -7.458036e+00 -1.218151e+01 -1.211496e+01 -1.411454e+01 -2.418095e+00 -1.219501e+01 -8.046650e+00 -1.235105e+01 2.626903e+00 -1.140140e+01 -4.028955e+00 -8.798571e+00 7.737197e+00 -9.885295e+00 9.157191e-01 -9.275248e+00
<VARIANCE> 20
 5.843406e-01 4.396025e-01 3.064784e+01 5.254150e+00 3.579575e+00 1.404461e+00 7.538744e+00 2.428111e+01 3.457237e+00 1.205075e+00 7.599605e+00 2.963737e+01 3.563830e+00 9.136595e-01 6.804652e+00 1.069103e+01 3.455452e+00 9.333062e-01 1.019763e+01 2.036307e+01
<GCONST> 6.612312e+01
<MIXTURE> 2 1.789833e-01
<MEAN> 20
 -7.140765e+00 -1.497032e+00 -1.532471e+01 -9.645815e+00 -9.442856e+00 -1.231766e+01 -1.500793e+01 -1.605859e+01 -4.240927e+00 -1.272100e+01 -1.051001e+01 -1.331341e+01 7.580470e-01 -1.181007e+01 -5.641185e+00 -6.383326e+00 5.407785e+00 -9.984789e+00 -1.450090e+00 -6.725466e+00
<VARIANCE> 20
 1.655986e+01 2.651934e+00 1.273087e+02 3.492611e+01 5.431332e+01 1.309065e+01 1.254171e+02 8.692524e+01 3.080351e+01 1.294504e+01 7.930330e+01 1.174831e+02 2.009164e+01 1.249181e+01 3.941877e+01 3.578641e+01 2.457840e+01 1.204135e+01 3.480742e+01 4.247542e+01
<GCONST> 1.056971e+02
<MIXTURE> 3 2.746689e-01
<MEAN> 20
 -8.258329e+00 -3.053963e+00 -1.917520e+01 -1.206639e+01 -6.215667e+00 -1.355872e+01 -1.814288e+01 -1.696761e+01 -2.550534e+00 -1.343858e+01 -1.714458e+01 -1.582345e+01 6.719022e-01 -1.252439e+01 -1.459867e+01 -1.415688e+01 3.293645e+00 -1.080813e+01 -1.051155e+01 -1.366343e+01
<VARIANCE> 20
 1.478348e+00 9.491622e-01 2.002641e+01 4.700566e+00 1.335754e+01 1.347130e+00 1.288105e+01 1.359070e+01 9.555916e+00 1.089328e+00 1.584952e+01 1.202139e+01 6.215671e+00 1.045479e+00 2.519578e+01 1.126323e+01 1.068748e+01 1.415317e+00 4.590351e+01 1.017268e+01
<GCONST> 7.367120e+01
<MIXTURE> 4 6.193934e-02
<MEAN> 20
 -4.514678e+00 -4.719926e+00 -2.428745e+01 -1.079317e+01 -8.478465e+00 -1.212513e+01 -3.174541e+01 -1.464515e+01 -7.646171e+00 -9.518960e+00 -2.876056e+01 -9.729250e+00 -7.743322e+00 -6.101928e+00 -1.720084e+01 -3.640044e+00 -8.449912e+00 -2.531605e+00 -1.582645e+01 -1.458676e+00
<VARIANCE> 20
 5.601134e+00 8.325586e-01 3.054615e+01 1.935587e+01 2.496145e+01 4.773427e+00 6.181956e+01 1.830944e+01 2.621113e+01 5.539672e+00 1.411166e+02 2.770170e+01 2.736656e+01 6.329085e+00 3.943381e+01 6.003007e+00 2.827557e+01 6.938929e+00 2.891881e+01 5.622514e+00
<GCONST> 9.073251e+01
<STATE> 3
<NUMMIXES> 4
<MIXTURE> 1 3.163017e-01
<MEAN> 20
 -6.094131e+00 -1.167152e+00 -1.028162e+01 -8.583282e+00 -8.550621e+00 -9.830289e+00 -1.073238e+01 -1.445251e+01 -3.987212e+00 -1.008259e+01 -6.773224e+00 -1.390931e+01 5.902351e-01 -9.565722e+00 -2.902128e+00 -7.647842e+00 5.289006e+00 -8.440508e+00 9.367790e-01 -7.181962e+00
<VARIANCE> 20
 4.540311e-01 3.538850e-01 1.439051e+01 3.715586e+00 2.294118e+00 8.714184e-01 3.358953e+00 2.059489e+01 1.401855e+00 7.612068e-01 2.958788e+00 3.061914e+01 1.179865e+00 5.983658e-01 1.905597e+00 8.275171e+00 1.369987e+00 6.349333e-01 1.932049e+00 7.979956e+00
<GCONST> 5.341499e+01
<MIXTURE> 2 1.644074e-01
<MEAN> 20
 -4.845304e+00 -1.161128e+00 -1.028025e+01 -6.338221e+00 -5.728065e+00 -8.913490e+00 -8.943500e+00 -1.168799e+01 -1.962291e+00 -8.932529e+00 -5.656966e+00 -1.024996e+01 1.542386e+00 -8.091578e+00 -3.209440e+00 -5.450778e+00 4.774309e+00 -6.631399e+00 1.598529e-01 -5.217725e+00
<VARIANCE> 20
 9.847861e+00 9.187199e-01 7.562029e+01 1.169674e+01 2.095256e+01 5.064810e+00 6.138521e+01 3.296764e+01 8.462059e+00 4.491231e+00 4.159591e+01 4.803139e+01 7.124029e+00 3.694310e+00 2.351819e+01 1.837309e+01 1.516596e+01 3.413176e+00 2.366605e+01 1.859953e+01
<GCONST> 8.863271e+01
<MIXTURE> 3 4.525547e-01
<MEAN> 20
 -8.753091e+00 -1.731728e+00 -1.663124e+01 -1.205108e+01 -1.200770e+01 -1.384604e+01 -1.763073e+01 -2.091388e+01 -6.017437e+00 -1.444457e+01 -1.299444e+01 -2.022695e+01 9.912559e-02 -1.375247e+01 -7.164427e+00 -1.103125e+01 6.225991e+00 -1.203467e+01 -1.328462e+00 -1.093135e+01
<VARIANCE> 20
 1.303887e+00 1.146533e+00 5.280283e+01 8.893023e+00 1.123584e+01 2.204765e+00 1.780985e+01 4.881391e+01 7.661422e+00 2.125422e+00 1.464301e+01 8.317685e+01 6.085570e+00 1.861371e+00 1.359016e+01 4.259751e+01 6.468925e+00 1.879580e+00 2.038012e+01 4.004636e+01
<GCONST> 8.117510e+01
<MIXTURE> 4 6.673618e-02
<MEAN> 20
 -8.707955e+00 -9.614034e-01 -2.710097e+01 1.016507e+00 -1.766792e+01 -7.028019e+00 -3.135476e+01 -2.269061e-02 -1.294200e+01 -6.505972e+00 -2.321839e+01 2.830119e+00 -8.026639e+00 -4.656051e+00 -1.542142e+01 3.672190e+00 -3.556339e+00 -2.247492e+00 -1.055818e+01 3.723650e+00
<VARIANCE> 20
 5.271377e+00 3.779424e+00 2.718237e+01 3.049953e+01 2.747959e+01 1.232581e+01 4.196504e+01 5.998163e+01 2.641943e+01 1.168200e+01 7.483535e+01 4.731231e+01 2.662263e+01 1.293782e+01 5.970807e+01 2.430100e+01 3.040394e+01 1.487760e+01 5.307285e+01 2.165895e+01
<GCONST> 1.003133e+02
<STATE> 4
<NUMMIXES> 4
<MIXTURE> 1 7.094728e-02
<MEAN> 20
 6.741523e+00 -1.914437e+00 1.528442e+01 -9.962235e+00 8.877374e+00 -1.260072e+01 1.455951e+01 -1.707980e+01 4.394361e+00 -1.273323e+01 1.149841e+01 -1.633480e+01 5.319349e-02 -1.148911e+01 6.827706e+00 -9.782825e+00 -3.814861e+00 -9.298066e+00 1.949695e+00 -7.740857e+00
<VARIANCE> 20
 2.297085e+01 2.351758e+00 1.659764e+02 2.150743e+01 5.325713e+01 1.429809e+01 1.583528e+02 7.054319e+01 2.686562e+01 1.753542e+01 1.419726e+02 1.070998e+02 1.886163e+01 2.082072e+01 4.473701e+01 7.318620e+01 3.097460e+01 2.301374e+01 4.622484e+01 6.250986e+01
<GCONST> 1.092729e+02
<MIXTURE> 2 3.091558e-01
<MEAN> 20
 -7.649614e+00 -2.099554e+00 -8.950106e+00 -1.127304e+01 -8.498655e+00 -1.380083e+01 -1.018666e+01 -2.526121e+01 -2.870412e+00 -1.389324e+01 -6.979832e+00 -2.691233e+01 2.712752e+00 -1.262177e+01 -4.987105e+00 -9.558558e+00 8.061859e+00 -1.033652e+01 -5.516453e-01 -8.539204e+00
<VARIANCE> 20
 3.142121e-01 3.861331e-01 7.383602e+00 3.138183e+00 3.364610e+00 6.496891e-01 9.602592e+00 2.509403e+00 2.710066e+00 6.080425e-01 9.221351e+00 3.918887e+00 2.323758e+00 5.815266e-01 5.049868e+00 1.164216e+01 2.104652e+00 6.740426e-01 5.923528e+00 9.757549e+00
<GCONST> 5.462384e+01
<MIXTURE> 3 3.963535e-01
<MEAN> 20
 -7.084635e+00 -1.451458e+00 -1.324244e+01 -9.016103e+00 -9.405883e+00 -1.138569e+01 -1.424801e+01 -1.643384e+01 -4.430065e+00 -1.169584e+01 -1.037401e+01 -1.576799e+01 6.038298e-01 -1.102550e+01 -5.658342e+00 -9.469444e+00 5.634052e+00 -9.547123e+00 -8.164700e-01 -8.971865e+00
<VARIANCE> 20
 8.429203e-01 7.537948e-01 2.666410e+01 7.959867e+00 5.617783e+00 1.650890e+00 1.189893e+01 2.679530e+01 3.993132e+00 1.495894e+00 1.195851e+01 4.228843e+01 3.745467e+00 1.278380e+00 1.240997e+01 2.308655e+01 4.507463e+00 1.374677e+00 1.939602e+01 1.977337e+01
<GCONST> 7.266419e+01
<MIXTURE> 4 2.235434e-01
<MEAN> 20
 -9.479967e+00 -1.837829e+00 -2.347810e+01 -1.101140e+01 -1.351644e+01 -1.396717e+01 -2.372295e+01 -1.865160e+01 -7.992274e+00 -1.452595e+01 -2.025922e+01 -1.715745e+01 -2.455317e+00 -1.374554e+01 -1.374446e+01 -1.008939e+01 2.774507e+00 -1.190741e+01 -7.482164e+00 -1.023738e+01
<VARIANCE> 20
 4.321454e+00 2.882123e+00 6.342700e+01 2.620024e+01 2.579945e+01 1.101226e+01 3.471823e+01 6.676154e+01 1.939481e+01 1.115940e+01 4.038035e+01 9.228969e+01 1.716599e+01 1.215125e+01 4.075018e+01 5.764499e+01 2.379207e+01 1.340648e+01 5.949251e+01 6.379537e+01
<GCONST> 1.008024e+02
<TRANSP> 5
 0.000000e+00 1.000000e+00 0.000000e+00 0.000000e+00 0.000000e+00
 0.000000e+00 6.932935e-01 3.067065e-01 0.000000e+00 0.000000e+00
 0.000000e+00 0.000000e+00 7.504345e-01 2.495655e-01 0.000000e+00
 0.000000e+00 0.000000e+00 0.000000e+00 7.154182e-01 2.845818e-01
 0.000000e+00 0.000000e+00 0.000000e+00 0.000000e+00 0.000000e+00
<ENDHMM>
