~o
<STREAMINFO> 1 20
<VECSIZE> 20<NULLD><USER><DIAGC>
~h "v"
<BEGINHMM>
<NUMSTATES> 5
<STATE> 2
<NUMMIXES> 4
<MIXTURE> 1 3.343653e-01
<MEAN> 20
 -5.938268e+00 -1.188893e+00 -1.037907e+01 -8.390265e+00 -7.816511e+00 -9.598889e+00 -1.072010e+01 -1.226464e+01 -3.276081e+00 -9.785651e+00 -5.619140e+00 -1.177310e+01 1.156161e+00 -9.232713e+00 -2.493666e+00 -7.070560e+00 5.580087e+00 -8.078987e+00 1.794008e+00 -7.634467e+00
<VARIANCE> 20
 7.057989e-01 3.755021e-01 1.995501e+01 4.914997e+00 2.637387e+00 1.060069e+00 7.269120e+00 1.957698e+01 1.701097e+00 9.329931e-01 4.908009e+00 2.626167e+01 1.522209e+00 8.029507e-01 2.433531e+00 7.836547e+00 1.837220e+00 9.358758e-01 5.747783e+00 1.407602e+01
<GCONST> 5.940652e+01
<MIXTURE> 2 2.647059e-01
<MEAN> 20
 -6.685374e+00 -1.882242e+00 -8.445965e+00 -9.778872e+00 -7.175735e+00 -1.200702e+01 -1.290033e+01 -1.826041e+01 -1.516089e+00 -1.199803e+01 -4.862588e+00 -1.816660e+01 3.752046e+00 -1.079329e+01 -3.571777e+00 -6.703245e+00 8.520498e+00 -8.743202e+00 8.416845e-01 -5.884743e+00
<VARIANCE> 20
 2.808445e-01 3.653223e-01 1.258187e+01 4.356425e+00 2.965117e+00 5.678618e-01 9.309377e+00 2.156604e+01 2.518701e+00 5.034482e-01 9.945942e+00 3.539312e+01 2.572315e+00 4.156517e-01 2.963495e+00 4.807496e+00 2.306186e+00 5.346324e-01 2.232568e+00 3.709013e+00
<GCONST> 5.545564e+01
<MIXTURE> 3 3.181114e-01
<MEAN> 20
 -8.630578e+00 -2.039018e+00 -1.566521e+01 -1.224258e+01 -1.056557e+01 -1.376580e+01 -1.718039e+01 -1.628598e+01 -4.930891e+00 -1.409722e+01 -1.178765e+01 -1.501345e+01 6.845016e-01 -1.335620e+01 -7.287436e+00 -1.012696e+01 6.238505e+00 -1.171501e+01 -2.189062e+00 -1.092865e+01
<VARIANCE> 20
 8.812363e-01 7.807104e-01 4.405640e+01 5.566039e+00 9.582301e+00 1.414788e+00 2.314357e+01 3.752580e+01 6.124222e+00 1.334359e+00 1.795407e+01 5.002083e+01 4.619660e+00 1.151785e+00 1.566124e+01 1.884648e+01 5.258803e+00 1.291591e+00 2.226871e+01 2.853230e+01
<GCONST> 7.588947e+01
<MIXTURE> 4 8.281734e-02
<MEAN> 20
 -5.996693e+00 -2.252563e+00 -1.637621e+01 -9.935204e+00 -8.034951e+00 -1.262421e+01 -1.912871e+01 -1.412438e+01 -4.901507e+00 -1.256680e+01 -1.702176e+01 -1.344675e+01 -2.133379e+00 -1.126980e+01 -1.061271e+01 -7.067355e+00 2.258926e-01 -9.117291e+00 -6.135006e+00 -6.393923e+00
<VARIANCE> 20
 3.415701e+01 3.252565e+00 1.751199e+02 2.768902e+01 9.599632e+01 1.076740e+01 2.662536e+02 7.260139e+01 5.137970e+01 1.373383e+01 2.036708e+02 1.050957e+02 4.387294e+01 1.747407e+01 9.741061e+01 4.500629e+01 7.143383e+01 2.052749e+01 1.352287e+02 3.844957e+01
<GCONST> 1.141698e+02
<STATE> 3
<NUMMIXES> 4
<MIXTURE> 1 1.433121e-01
<MEAN> 20
 -5.319883e+00 -1.338542e+00 -1.006507e+01 -7.736081e+00 -6.036233e+00 -1.045746e+01 -9.689052e+00 -1.469448e+01 -1.505952e+00 -1.060962e+01 -5.067521e+00 -1.259307e+01 2.674089e+00 -9.620388e+00 -2.350542e+00 -5.770850e+00 6.462190e+00 -7.858500e+00 1.597912e+00 -5.508035e+00
<VARIANCE> 20
 1.406021e+01 8.309804e-01 9.882754e+01 1.297373e+01 3.629292e+01 5.859855e+00 9.367225e+01 3.330716e+01 1.409252e+01 5.813124e+00 4.247933e+01 5.696445e+01 8.582025e+00 5.673901e+00 2.043091e+01 1.449543e+01 1.702651e+01 5.503017e+00 2.141214e+01 1.792831e+01
<GCONST> 9.204142e+01
<MIXTURE> 2 2.953822e-01
<MEAN> 20
 -8.159197e+00 -2.075341e+00 -9.968554e+00 -1.128264e+01 -1.015199e+01 -1.365882e+01 -1.748938e+01 -2.373888e+01 -4.051815e+00 -1.404018e+01 -7.338617e+00 -2.595096e+01 1.863714e+00 -1.290726e+01 -5.474125e+00 -9.836000e+00 7.519907e+00 -1.072584e+01 -5.501894e-01 -8.368384e+00
<VARIANCE> 20
 5.978743e-01 4.955766e-01 1.303175e+01 2.503488e+00 3.317942e+00 1.487596e+00 2.145233e+01 7.177809e+00 2.171209e+00 1.294765e+00 1.002459e+01 1.193327e+01 1.865111e+00 1.018117e+00 3.774722e+00 7.949793e+00 1.930227e+00 9.022967e-01 4.410407e+00 5.941188e+00
<GCONST> 5.934098e+01
<MIXTURE> 3 3.335987e-01
<MEAN> 20
 -7.784033e+00 -2.231901e+00 -1.037466e+01 -1.072404e+01 -9.032568e+00 -1.208666e+01 -1.286118e+01 -1.168398e+01 -4.301196e+00 -1.217344e+01 -8.501374e+00 -1.100794e+01 5.101456e-01 -1.167465e+01 -4.641564e+00 -9.943703e+00 5.679866e+00 -1.061583e+01 -1.947705e-01 -1.303367e+01
<VARIANCE> 20
 4.915428e-01 3.007649e-01 2.601296e+01 3.896064e+00 2.444772e+00 6.797376e-01 2.609000e+00 4.746305e+00 1.819987e+00 4.955290e-01 3.039563e+00 6.980520e+00 1.704654e+00 4.031085e-01 4.459702e+00 6.332810e+00 1.861355e+00 5.770237e-01 5.902535e+00 2.239669e+01
<GCONST> 5.336161e+01
<MIXTURE> 4 2.277070e-01
<MEAN> 20
 -1.070775e+01 -1.667683e+00 -1.992615e+01 -1.457215e+01 -1.547290e+01 -1.647117e+01 -2.206972e+01 -2.051463e+01 -8.251080e+00 -1.725459e+01 -1.431763e+01 -2.027346e+01 -9.438918e-01 -1.650768e+01 -8.121208e+00 -1.262808e+01 6.378875e+00 -1.459087e+01 -6.641986e-01 -1.368387e+01
<VARIANCE> 20
 2.597803e+00 1.764171e+00 5.207189e+01 1.023075e+01 1.455534e+01 5.268922e+00 3.121745e+01 7.399564e+01 1.097156e+01 4.644666e+00 2.962148e+01 1.066899e+02 9.624738e+00 3.942586e+00 1.377966e+01 4.053993e+01 9.719107e+00 3.740043e+00 2.136708e+01 5.784940e+01
<GCONST> 8.930667e+01
<STATE> 4
<NUMMIXES> 4
<MIXTURE> 1 7.854251e-02
<MEAN> 20
 7.158492e+00 -1.605781e+00 1.300288e+01 -8.760601e+00 1.134246e+01 -1.183292e+01 1.642067e+01 -1.459114e+01 6.162603e+00 -1.215292e+01 9.499434e+00 -1.460588e+01 1.057149e+00 -1.119581e+01 6.365852e+00 -7.937319e+00 -3.722207e+00 -9.305779e+00 2.776193e+00 -6.432086e+00
<VARIANCE> 20
 9.918739e+00 1.730391e+00 1.081016e+02 2.221531e+01 4.863178e+01 1.407862e+01 1.284854e+02 5.788797e+01 3.500038e+01 1.763560e+01 1.021060e+02 6.780326e+01 2.952546e+01 1.977959e+01 5.141167e+01 3.664237e+01 2.901863e+01 2.026867e+01 4.519962e+01 3.746207e+01
<GCONST> 1.058177e+02
<MIXTURE> 2 2.890688e-01
<MEAN> 20
 -7.425640e+00 -2.580212e+00 -7.916323e+00 -1.118863e+01 -7.196553e+00 -1.365465e+01 -1.375728e+01 -2.089182e+01 -1.614101e+00 -1.357690e+01 -5.005898e+00 -2.170799e+01 3.700180e+00 -1.229367e+01 -4.131503e+00 -1.011493e+01 8.800857e+00 -1.014485e+01 8.025769e-01 -9.085239e+00
<VARIANCE> 20
 2.373969e-01 2.026829e-01 5.642550e+00 1.805503e+00 1.614572e+00 5.903169e-01 7.720922e+00 2.157863e+01 1.296791e+00 4.734495e-01 1.082692e+01 3.390676e+01 1.531237e+00 3.385506e-01 3.482471e+00 8.498026e+00 1.528743e+00 4.149771e-01 2.802583e+00 6.527043e+00
<GCONST> 5.171200e+01
<MIXTURE> 3 3.303644e-01
<MEAN> 20
 -7.458538e+00 -2.343084e+00 -1.400851e+01 -1.156952e+01 -7.253079e+00 -1.284324e+01 -1.263980e+01 -1.444179e+01 -2.034894e+00 -1.278149e+01 -8.226180e+00 -1.306340e+01 2.996758e+00 -1.180241e+01 -4.293176e+00 -9.305221e+00 7.846601e+00 -1.006551e+01 1.282943e+00 -1.031663e+01
<VARIANCE> 20
 1.421395e+00 1.258609e+00 3.675353e+01 1.305762e+01 6.443535e+00 4.249154e+00 9.834146e+00 2.662043e+01 5.111814e+00 3.541344e+00 1.318571e+01 3.064738e+01 5.033457e+00 2.822310e+00 1.378859e+01 1.834953e+01 6.349400e+00 2.433180e+00 2.634715e+01 2.382277e+01
<GCONST> 7.865454e+01
<MIXTURE> 4 3.020243e-01
<MEAN> 20
 -9.336579e+00 -1.072186e+00 -1.945942e+01 -1.137937e+01 -1.549011e+01 -1.325008e+01 -2.397868e+01 -1.820963e+01 -9.166209e+00 -1.424243e+01 -1.579913e+01 -1.916817e+01 -2.672494e+00 -1.380201e+01 -1.085731e+01 -9.338952e+00 3.676087e+00 -1.226399e+01 -5.018788e+00 -1.056768e+01
<VARIANCE> 20
 1.618822e+00 7.385371e-01 3.501796e+01 9.679650e+00 6.060412e+00 3.892639e+00 2.357737e+01 4.644640e+01 4.586186e+00 3.608837e+00 2.003470e+01 8.669893e+01 5.353430e+00 3.266550e+00 1.412300e+01 4.531065e+01 6.724110e+00 3.578013e+00 2.045547e+01 6.137320e+01
<GCONST> 8.282639e+01
<TRANSP> 5
 0.000000e+00 1.000000e+00 0.000000e+00 0.000000e+00 0.000000e+00
 0.000000e+00 7.298762e-01 2.701238e-01 0.000000e+00 0.000000e+00
 0.000000e+00 0.000000e+00 7.221338e-01 2.778662e-01 0.000000e+00
 0.000000e+00 0.000000e+00 0.000000e+00 7.174089e-01 2.825911e-01
 0.000000e+00 0.000000e+00 0.000000e+00 0.000000e+00 0.000000e+00
<ENDHMM>
