~o
<STREAMINFO> 1 20
<VECSIZE> 20<NULLD><USER><DIAGC>
~h "v"
<BEGINHMM>
<NUMSTATES> 8
<STATE> 2
<MEAN> 20
 -7.257278e+00 -1.912471e+00 -1.256471e+01 -1.102542e+01 -8.928978e+00 -1.271058e+01 -1.459258e+01 -1.644575e+01 -3.877659e+00 -1.295872e+01 -8.994230e+00 -1.600013e+01 1.067844e+00 -1.209492e+01 -5.361338e+00 -8.885472e+00 5.912327e+00 -1.037961e+01 -6.120391e-01 -9.174331e+00
<VARIANCE> 20
 1.091424e+01 1.077267e+00 7.988113e+01 1.060447e+01 3.274004e+01 5.389587e+00 8.322092e+01 4.892984e+01 1.663728e+01 6.180395e+00 5.477668e+01 7.011176e+01 1.193245e+01 6.357333e+00 2.640842e+01 2.176567e+01 1.809670e+01 6.327586e+00 2.562489e+01 2.826501e+01
<GCONST> 9.434391e+01
<STATE> 3
<NUMMIXES> 4
<MIXTURE> 1 1.061828e-01
<MEAN> 20
 -3.581477e+00 -1.705898e+00 -9.289941e+00 -7.612270e+00 -5.029938e+00 -1.007762e+01 -1.094937e+01 -1.270940e+01 -2.785295e+00 -9.937463e+00 -9.220579e+00 -1.158973e+01 -7.709209e-01 -8.886811e+00 -4.610594e+00 -5.334096e+00 1.141290e+00 -7.205812e+00 -2.082893e+00 -5.077251e+00
<VARIANCE> 20
 2.737462e+01 2.419165e+00 1.634961e+02 1.216602e+01 7.354661e+01 4.732180e+00 2.629189e+02 3.568703e+01 3.406974e+01 5.211126e+00 2.143190e+02 5.013178e+01 2.919841e+01 6.793863e+00 7.195934e+01 1.565343e+01 5.438097e+01 9.631761e+00 6.426917e+01 2.211675e+01
<GCONST> 1.038437e+02
<MIXTURE> 2 3.776882e-01
<MEAN> 20
 -7.452189e+00 -2.614423e+00 -1.225583e+01 -1.246231e+01 -6.544843e+00 -1.307909e+01 -1.178880e+01 -1.326320e+01 -1.289283e+00 -1.293417e+01 -7.347466e+00 -1.129415e+01 3.825863e+00 -1.191700e+01 -3.599587e+00 -7.778415e+00 8.827403e+00 -1.019435e+01 1.649358e+00 -9.439447e+00
<VARIANCE> 20
 6.692883e-01 3.076592e-01 4.016750e+01 4.849094e+00 3.549895e+00 1.803876e+00 4.459722e+00 2.427976e+01 3.775950e+00 1.585844e+00 6.638671e+00 2.499603e+01 4.197828e+00 1.125750e+00 5.279602e+00 6.996785e+00 4.041055e+00 9.624637e-01 1.013488e+01 2.187139e+01
<GCONST> 6.581380e+01
<MIXTURE> 3 2.298387e-01
<MEAN> 20
 -6.792602e+00 -1.737866e+00 -7.997290e+00 -9.386333e+00 -8.109041e+00 -1.201718e+01 -1.483857e+01 -2.141916e+01 -2.259726e+00 -1.212388e+01 -4.236381e+00 -2.252587e+01 3.191261e+00 -1.085980e+01 -3.997070e+00 -6.674147e+00 8.087441e+00 -8.691132e+00 4.851075e-01 -5.676257e+00
<VARIANCE> 20
 2.944084e-01 3.121406e-01 4.134857e+00 2.524948e+00 1.656567e+00 6.850587e-01 7.293316e+00 2.869771e+00 1.756870e+00 5.610025e-01 9.230145e+00 7.939916e+00 2.104400e+00 4.209870e-01 2.281500e+00 2.969573e+00 2.050905e+00 4.281340e-01 1.885106e+00 2.449104e+00
<GCONST> 4.735548e+01
<MIXTURE> 4 2.862903e-01
<MEAN> 20
 -9.201170e+00 -1.924966e+00 -1.775667e+01 -1.279886e+01 -1.199604e+01 -1.465482e+01 -2.003284e+01 -1.962895e+01 -5.931039e+00 -1.519969e+01 -1.344244e+01 -1.876549e+01 4.576705e-02 -1.437303e+01 -9.216391e+00 -1.121094e+01 5.794205e+00 -1.246044e+01 -3.516115e+00 -1.128257e+01
<VARIANCE> 20
 1.505115e+00 1.137330e+00 4.458263e+01 7.359548e+00 1.584144e+01 3.928540e+00 3.439284e+01 5.872446e+01 9.610301e+00 3.882131e+00 3.086467e+01 9.088961e+01 6.939760e+00 3.221902e+00 2.276676e+01 3.392909e+01 9.988948e+00 2.864148e+00 4.141895e+01 3.293118e+01
<GCONST> 8.671725e+01
<STATE> 4
<NUMMIXES> 4
<MIXTURE> 1 1.692308e-01
<MEAN> 20
 -5.140364e+00 -1.648440e+00 -1.058297e+01 -8.518262e+00 -5.130453e+00 -1.100292e+01 -9.024323e+00 -1.266789e+01 -9.789450e-01 -1.101661e+01 -5.982113e+00 -1.056264e+01 2.786315e+00 -9.970839e+00 -2.683557e+00 -5.918344e+00 6.146081e+00 -8.205394e+00 1.998889e+00 -6.541888e+00
<VARIANCE> 20
 2.095709e+01 1.364659e+00 1.123294e+02 2.152051e+01 4.550682e+01 7.670286e+00 1.227028e+02 4.364250e+01 1.524678e+01 7.646190e+00 5.506336e+01 5.731284e+01 9.460642e+00 7.650619e+00 2.761352e+01 2.021830e+01 2.329897e+01 7.649100e+00 4.887355e+01 2.667151e+01
<GCONST> 9.812062e+01
<MIXTURE> 2 3.006993e-01
<MEAN> 20
 -7.851594e+00 -1.885047e+00 -1.086776e+01 -1.088406e+01 -1.006999e+01 -1.327463e+01 -1.758730e+01 -2.299833e+01 -4.010976e+00 -1.362060e+01 -7.528722e+00 -2.480707e+01 1.878744e+00 -1.250083e+01 -5.598195e+00 -9.258435e+00 7.454060e+00 -1.035005e+01 -7.204578e-01 -7.805829e+00
<VARIANCE> 20
 7.538938e-01 5.315260e-01 1.847391e+01 3.281416e+00 5.028757e+00 1.407214e+00 2.214041e+01 7.843518e+00 3.486308e+00 1.361873e+00 1.126349e+01 1.579577e+01 2.751384e+00 1.181049e+00 5.263992e+00 7.997061e+00 2.324948e+00 1.061293e+00 4.498074e+00 5.917543e+00
<GCONST> 6.290379e+01
<MIXTURE> 3 3.216783e-01
<MEAN> 20
 -7.766037e+00 -2.108479e+00 -1.145593e+01 -1.082419e+01 -9.355181e+00 -1.180134e+01 -1.304065e+01 -1.101378e+01 -4.643647e+00 -1.193941e+01 -8.782721e+00 -1.027760e+01 1.771703e-01 -1.153860e+01 -5.061396e+00 -9.475547e+00 5.344318e+00 -1.060102e+01 -6.707655e-01 -1.345580e+01
<VARIANCE> 20
 6.385806e-01 2.875347e-01 2.627181e+01 3.874098e+00 2.900326e+00 6.029420e-01 2.602026e+00 3.680950e+00 1.934848e+00 4.877416e-01 3.441093e+00 5.310730e+00 1.594038e+00 4.606227e-01 5.144589e+00 5.913740e+00 1.661021e+00 6.732453e-01 7.837145e+00 2.570327e+01
<GCONST> 5.387496e+01
<MIXTURE> 4 2.083916e-01
<MEAN> 20
 -1.093104e+01 -1.350601e+00 -1.986156e+01 -1.451028e+01 -1.672234e+01 -1.625504e+01 -2.310259e+01 -1.966439e+01 -9.626967e+00 -1.718154e+01 -1.627342e+01 -1.976086e+01 -2.332673e+00 -1.666046e+01 -9.357788e+00 -1.270009e+01 5.141236e+00 -1.497062e+01 -1.884085e+00 -1.426949e+01
<VARIANCE> 20
 2.541768e+00 1.886098e+00 3.662048e+01 1.045324e+01 9.801791e+00 7.060270e+00 2.592365e+01 6.479131e+01 6.822278e+00 6.177869e+00 2.333245e+01 8.344605e+01 6.745025e+00 5.015197e+00 1.392696e+01 3.395338e+01 8.999730e+00 4.376256e+00 2.404399e+01 6.169708e+01
<GCONST> 8.790663e+01
<STATE> 5
<NUMMIXES> 4
<MIXTURE> 1 2.008798e-01
<MEAN> 20
 -5.015269e+00 -1.267533e+00 -8.776872e+00 -7.720296e+00 -5.676609e+00 -1.041657e+01 -8.767953e+00 -1.441646e+01 -1.430888e+00 -1.055374e+01 -3.795587e+00 -1.346632e+01 2.501752e+00 -9.628503e+00 -1.511422e+00 -6.894802e+00 6.144256e+00 -7.925050e+00 2.495524e+00 -6.351880e+00
<VARIANCE> 20
 1.711163e+01 6.520122e-01 8.999111e+01 1.067271e+01 4.097298e+01 4.354203e+00 8.475826e+01 3.038745e+01 1.481268e+01 4.216753e+00 3.042753e+01 4.312643e+01 8.996501e+00 3.675550e+00 1.398359e+01 1.513430e+01 1.898064e+01 3.307197e+00 1.645044e+01 1.724065e+01
<GCONST> 8.902946e+01
<MIXTURE> 2 2.463343e-01
<MEAN> 20
 -7.759559e+00 -2.511947e+00 -8.211420e+00 -1.175220e+01 -8.510831e+00 -1.401704e+01 -1.606802e+01 -2.494543e+01 -2.349386e+00 -1.413093e+01 -3.452287e+00 -2.718552e+01 3.431076e+00 -1.276460e+01 -4.862076e+00 -9.235224e+00 8.831792e+00 -1.041981e+01 2.032786e-01 -8.502327e+00
<VARIANCE> 20
 5.324469e-01 2.005828e-01 3.557207e+00 1.205241e+00 1.901416e+00 6.189098e-01 7.721188e+00 2.387621e+00 1.502864e+00 6.141509e-01 6.995661e+00 3.606110e+00 1.295394e+00 5.868353e-01 2.304785e+00 3.754296e+00 1.079926e+00 6.752443e-01 2.840269e+00 3.791701e+00
<GCONST> 4.614585e+01
<MIXTURE> 3 3.416422e-01
<MEAN> 20
 -8.267023e+00 -2.203775e+00 -1.447290e+01 -1.205049e+01 -9.377463e+00 -1.349826e+01 -1.540844e+01 -1.520788e+01 -3.953915e+00 -1.364958e+01 -1.047961e+01 -1.398892e+01 1.470613e+00 -1.288518e+01 -5.892476e+00 -1.041955e+01 6.959075e+00 -1.131446e+01 -6.171399e-01 -1.178480e+01
<VARIANCE> 20
 9.479427e-01 1.009434e+00 4.406295e+01 7.017331e+00 6.502566e+00 2.178011e+00 9.408917e+00 2.137552e+01 3.893653e+00 1.791855e+00 9.947206e+00 2.711098e+01 2.830714e+00 1.434852e+00 9.297000e+00 1.428251e+01 3.135845e+00 1.441123e+00 1.387782e+01 2.732160e+01
<GCONST> 7.167843e+01
<MIXTURE> 4 2.111437e-01
<MEAN> 20
 -9.448708e+00 -9.446272e-01 -1.912814e+01 -1.076805e+01 -1.656853e+01 -1.338281e+01 -2.701164e+01 -2.107215e+01 -9.773750e+00 -1.453140e+01 -1.687865e+01 -2.367791e+01 -2.973899e+00 -1.392992e+01 -1.225273e+01 -8.664939e+00 3.284831e+00 -1.203926e+01 -6.674757e+00 -7.944810e+00
<VARIANCE> 20
 2.775790e+00 1.006505e+00 3.124853e+01 1.204019e+01 8.794381e+00 5.660067e+00 2.968641e+01 4.467770e+01 6.384436e+00 5.350259e+00 3.002328e+01 7.346758e+01 8.203597e+00 5.341517e+00 2.250699e+01 5.419626e+01 1.200106e+01 5.933878e+00 2.707775e+01 5.561731e+01
<GCONST> 8.851212e+01
<STATE> 6
<NUMMIXES> 4
<MIXTURE> 1 7.451404e-02
<MEAN> 20
 4.686815e+00 -1.891842e+00 9.109212e+00 -9.890358e+00 8.702034e+00 -1.256614e+01 1.262386e+01 -1.485868e+01 5.343206e+00 -1.275902e+01 7.648967e+00 -1.437341e+01 1.934259e+00 -1.167128e+01 5.073417e+00 -7.999624e+00 -1.346959e+00 -9.658769e+00 3.272657e+00 -6.970031e+00
<VARIANCE> 20
 4.113420e+01 2.297708e+00 1.884173e+02 3.302212e+01 7.796066e+01 1.699285e+01 1.890990e+02 6.266223e+01 3.382478e+01 1.876539e+01 1.076749e+02 6.996994e+01 3.209170e+01 1.940433e+01 5.075335e+01 3.500699e+01 6.136331e+01 1.886925e+01 4.735813e+01 3.598983e+01
<GCONST> 1.104035e+02
<MIXTURE> 2 2.904968e-01
<MEAN> 20
 -7.765608e+00 -2.578128e+00 -7.826715e+00 -1.072458e+01 -7.690939e+00 -1.344783e+01 -1.282615e+01 -1.772867e+01 -2.582401e+00 -1.343457e+01 -7.183921e+00 -1.813050e+01 2.398254e+00 -1.242397e+01 -3.817549e+00 -1.195607e+01 7.512638e+00 -1.062815e+01 9.361023e-01 -1.095518e+01
<VARIANCE> 20
 4.155314e-01 2.806221e-01 1.069398e+01 2.080468e+00 2.536439e+00 9.563178e-01 9.273070e+00 2.256916e+01 2.136425e+00 8.267329e-01 6.022540e+00 3.345667e+01 2.204184e+00 6.479125e-01 3.793829e+00 7.813001e+00 2.175909e+00 7.068343e-01 4.610156e+00 9.167262e+00
<GCONST> 5.773520e+01
<MIXTURE> 3 3.671706e-01
<MEAN> 20
 -5.912214e+00 -1.271555e+00 -9.808051e+00 -8.371726e+00 -7.652279e+00 -9.901118e+00 -1.070935e+01 -1.317563e+01 -2.980751e+00 -1.005993e+01 -5.449252e+00 -1.275490e+01 1.543422e+00 -9.413867e+00 -2.471192e+00 -7.136285e+00 5.981521e+00 -8.122858e+00 1.574388e+00 -7.120859e+00
<VARIANCE> 20
 5.950972e-01 3.709517e-01 1.788880e+01 4.367308e+00 2.654814e+00 1.405853e+00 6.788235e+00 2.098204e+01 2.208019e+00 1.184074e+00 5.254553e+00 2.694997e+01 2.679092e+00 8.642410e-01 2.318271e+00 8.112356e+00 3.210905e+00 7.869858e-01 5.257945e+00 1.036735e+01
<GCONST> 6.049435e+01
<MIXTURE> 4 2.678186e-01
<MEAN> 20
 -9.262116e+00 -1.500106e+00 -1.894206e+01 -1.193183e+01 -1.369392e+01 -1.349213e+01 -2.063032e+01 -1.566230e+01 -7.741017e+00 -1.417560e+01 -1.418039e+01 -1.559975e+01 -1.633417e+00 -1.368747e+01 -9.045608e+00 -1.043898e+01 4.520815e+00 -1.227081e+01 -3.063563e+00 -1.250692e+01
<VARIANCE> 20
 1.832802e+00 8.853086e-01 4.143197e+01 8.780475e+00 9.092274e+00 3.884636e+00 1.912058e+01 3.858101e+01 5.998441e+00 3.682454e+00 1.654814e+01 6.891680e+01 5.005968e+00 3.137126e+00 1.201693e+01 3.800209e+01 5.791657e+00 3.041759e+00 1.766463e+01 5.176869e+01
<GCONST> 8.200549e+01
<STATE> 7
<MEAN> 20
 -7.427127e+00 -1.862061e+00 -1.230099e+01 -1.101928e+01 -9.085489e+00 -1.290380e+01 -1.470740e+01 -1.735440e+01 -3.818208e+00 -1.317230e+01 -8.466450e+00 -1.707750e+01 1.347800e+00 -1.229578e+01 -5.196839e+00 -9.328996e+00 6.349304e+00 -1.055001e+01 -1.839208e-01 -9.586884e+00
<VARIANCE> 20
 1.154859e+01 1.053952e+00 7.854713e+01 1.060663e+01 3.313576e+01 5.779826e+00 7.199721e+01 4.237691e+01 1.634181e+01 6.240682e+00 4.793993e+01 6.506805e+01 9.267285e+00 6.040650e+00 2.537793e+01 2.179261e+01 1.201010e+01 5.652010e+00 2.344171e+01 3.012720e+01
<GCONST> 9.304842e+01
<TRANSP> 8
 0.000000e+00 1.000000e+00 0.000000e+00 0.000000e+00 0.000000e+00 0.000000e+00 0.000000e+00 0.000000e+00
 0.000000e+00 1.412429e-02 9.858757e-01 0.000000e+00 0.000000e+00 0.000000e+00 0.000000e+00 0.000000e+00
 0.000000e+00 0.000000e+00 5.309139e-01 4.690860e-01 0.000000e+00 0.000000e+00 0.000000e+00 0.000000e+00
 0.000000e+00 0.000000e+00 0.000000e+00 5.118881e-01 4.881119e-01 0.000000e+00 0.000000e+00 0.000000e+00
 0.000000e+00 0.000000e+00 0.000000e+00 0.000000e+00 4.882698e-01 5.117302e-01 0.000000e+00 0.000000e+00
 0.000000e+00 0.000000e+00 0.000000e+00 0.000000e+00 0.000000e+00 6.231102e-01 3.768899e-01 0.000000e+00
 0.000000e+00 0.000000e+00 0.000000e+00 0.000000e+00 0.000000e+00 0.000000e+00 3.591160e-02 9.640884e-01
 0.000000e+00 0.000000e+00 0.000000e+00 0.000000e+00 0.000000e+00 0.000000e+00 0.000000e+00 0.000000e+00
<ENDHMM>
