~o
<STREAMINFO> 1 20
<VECSIZE> 20<NULLD><USER><DIAGC>
~h "w"
<BEGINHMM>
<NUMSTATES> 5
<STATE> 2
<NUMMIXES> 4
<MIXTURE> 1 4.356373e-01
<MEAN> 20
 -7.013573e+00 -2.000415e+00 -1.117562e+01 -1.087575e+01 -7.587950e+00 -1.163436e+01 -1.201650e+01 -1.293573e+01 -2.594961e+00 -1.169490e+01 -7.566466e+00 -1.079247e+01 2.360281e+00 -1.094366e+01 -3.355002e+00 -8.406636e+00 7.374953e+00 -9.490751e+00 1.198517e+00 -8.052847e+00
<VARIANCE> 20
 7.981040e-01 5.845556e-01 3.321672e+01 7.703251e+00 5.198563e+00 1.825251e+00 5.466110e+00 1.943945e+01 4.662821e+00 1.463046e+00 5.676875e+00 1.539650e+01 4.640399e+00 1.188759e+00 5.540712e+00 1.172536e+01 4.603092e+00 1.249105e+00 7.661490e+00 1.034496e+01
<GCONST> 6.684992e+01
<MIXTURE> 2 2.251110e-01
<MEAN> 20
 -7.882838e+00 -1.708697e+00 -1.061351e+01 -1.062186e+01 -1.069945e+01 -1.359091e+01 -1.852821e+01 -2.380580e+01 -4.784244e+00 -1.423265e+01 -1.018778e+01 -2.679099e+01 9.089617e-01 -1.314652e+01 -5.383445e+00 -1.844370e+01 6.286531e+00 -1.074436e+01 -4.194032e+00 -1.031408e+01
<VARIANCE> 20
 5.754745e-01 6.279966e-01 1.304554e+01 3.878132e+00 5.991528e+00 1.206923e+00 4.010292e+01 4.845459e+00 5.371599e+00 1.007451e+00 2.140190e+01 6.724576e+00 4.733716e+00 9.178135e-01 1.693247e+01 4.054541e+01 4.057643e+00 9.007077e-01 1.369136e+01 6.858809e+00
<GCONST> 6.740821e+01
<MIXTURE> 3 1.464807e-01
<MEAN> 20
 -4.474918e+00 -2.948096e+00 -1.935881e+01 -7.408022e+00 -7.299963e+00 -1.001595e+01 -2.373616e+01 -1.065837e+01 -5.406007e+00 -8.489849e+00 -1.970585e+01 -7.113504e+00 -4.251591e+00 -6.009172e+00 -1.317492e+01 -2.817077e+00 -3.786030e+00 -3.146818e+00 -1.130054e+01 -8.268000e-01
<VARIANCE> 20
 1.894793e+01 3.920928e+00 1.171870e+02 2.757106e+01 5.767200e+01 8.407244e+00 2.053506e+02 4.318682e+01 3.675133e+01 9.848050e+00 1.830912e+02 5.332938e+01 3.445479e+01 1.280652e+01 7.767502e+01 3.109202e+01 4.980039e+01 1.519533e+01 6.091949e+01 1.739268e+01
<GCONST> 1.069718e+02
<MIXTURE> 4 1.927711e-01
<MEAN> 20
 -9.385638e+00 -1.767257e+00 -2.163512e+01 -1.152709e+01 -1.256878e+01 -1.364938e+01 -2.498677e+01 -1.963479e+01 -7.369675e+00 -1.425568e+01 -1.968616e+01 -1.916981e+01 -2.394926e+00 -1.348060e+01 -1.541100e+01 -1.311230e+01 2.018567e+00 -1.158444e+01 -1.130313e+01 -9.862453e+00
<VARIANCE> 20
 1.877330e+00 2.191245e+00 2.743698e+01 9.144014e+00 2.736172e+01 3.429961e+00 3.893885e+01 4.097717e+01 1.698855e+01 3.309338e+00 2.121600e+01 7.458822e+01 8.807527e+00 3.909201e+00 3.734763e+01 5.531031e+01 1.021164e+01 5.191130e+00 4.437787e+01 3.078507e+01
<GCONST> 8.937200e+01
<STATE> 3
<NUMMIXES> 4
<MIXTURE> 1 3.362665e-01
<MEAN> 20
 -5.518209e+00 -9.905730e-01 -9.531253e+00 -7.294055e+00 -7.813831e+00 -9.091476e+00 -1.102008e+01 -1.339503e+01 -3.460544e+00 -9.424353e+00 -5.305850e+00 -1.343892e+01 7.235727e-01 -8.874445e+00 -1.813109e+00 -1.078985e+01 4.811230e+00 -7.646401e+00 1.413488e-01 -7.754279e+00
<VARIANCE> 20
 7.253172e-01 2.668918e-01 2.231580e+01 4.574677e+00 2.755448e+00 1.177612e+00 8.447810e+00 1.491130e+01 1.498709e+00 1.235718e+00 5.949618e+00 2.614308e+01 1.317873e+00 1.179769e+00 5.445946e+00 1.920259e+01 1.905650e+00 1.469179e+00 6.257444e+00 1.055245e+01
<GCONST> 6.172849e+01
<MIXTURE> 2 2.897549e-01
<MEAN> 20
 -6.686519e+00 -1.588841e+00 -8.328341e+00 -9.228071e+00 -8.960922e+00 -1.197645e+01 -1.639959e+01 -2.058077e+01 -3.551757e+00 -1.250931e+01 -8.056608e+00 -2.315222e+01 1.542160e+00 -1.149998e+01 -2.946656e+00 -1.853152e+01 6.295371e+00 -9.358318e+00 -1.898332e+00 -9.830712e+00
<VARIANCE> 20
 3.250986e-01 2.183652e-01 1.408029e+01 2.177034e+00 1.615192e+00 6.823168e-01 8.466714e+00 3.330004e+00 1.547350e+00 5.188439e-01 7.720599e+00 4.315450e+00 1.625583e+00 3.828037e-01 9.577329e+00 1.294905e+01 1.777628e+00 4.477575e-01 8.781816e+00 7.188561e+00
<GCONST> 5.252087e+01
<MIXTURE> 3 3.161534e-01
<MEAN> 20
 -7.807676e+00 -2.087309e+00 -1.597147e+01 -1.135437e+01 -9.035264e+00 -1.273788e+01 -1.760908e+01 -1.725723e+01 -4.129511e+00 -1.297128e+01 -1.387486e+01 -1.542815e+01 7.142138e-01 -1.217740e+01 -9.531331e+00 -1.195611e+01 5.383740e+00 -1.049346e+01 -5.250670e+00 -1.013402e+01
<VARIANCE> 20
 8.414366e-01 9.610621e-01 3.418200e+01 5.979722e+00 1.260629e+01 1.857712e+00 1.750828e+01 2.508539e+01 9.908073e+00 1.367809e+00 1.273460e+01 3.273589e+01 7.129066e+00 1.230241e+00 1.438548e+01 2.752937e+01 5.715528e+00 1.744983e+00 1.772419e+01 1.711681e+01
<GCONST> 7.591090e+01
<MIXTURE> 4 5.782527e-02
<MEAN> 20
 -5.388639e+00 -2.074219e+00 -1.439214e+01 -1.118839e+01 -7.111899e+00 -1.292804e+01 -1.569122e+01 -1.849548e+01 -3.727881e+00 -1.300750e+01 -1.077366e+01 -1.582378e+01 -7.665234e-01 -1.169129e+01 -7.576617e+00 -1.159457e+01 1.676574e+00 -9.435578e+00 -5.490766e+00 -7.222323e+00
<VARIANCE> 20
 4.645678e+01 2.570890e+00 2.700200e+02 2.919372e+01 1.078679e+02 1.740944e+01 3.347533e+02 9.980695e+01 4.620238e+01 2.307096e+01 1.970628e+02 1.107991e+02 3.191145e+01 2.755799e+01 1.104344e+02 9.343462e+01 6.222317e+01 3.038315e+01 8.277264e+01 5.019839e+01
<GCONST> 1.173278e+02
<STATE> 4
<NUMMIXES> 4
<MIXTURE> 1 9.437500e-02
<MEAN> 20
 4.793528e+00 -1.732323e+00 7.429472e+00 -9.932305e+00 7.616941e+00 -1.082098e+01 9.390761e+00 -1.345874e+01 4.396863e+00 -1.096639e+01 6.267733e+00 -1.340617e+01 9.081936e-01 -1.010249e+01 3.355489e+00 -1.018146e+01 -2.772651e+00 -8.466968e+00 4.387475e-01 -6.980224e+00
<VARIANCE> 20
 3.162014e+01 1.363461e+00 1.713090e+02 2.321751e+01 7.135986e+01 1.051448e+01 2.546302e+02 4.565191e+01 3.178172e+01 1.464970e+01 1.443503e+02 6.755560e+01 2.084681e+01 1.845730e+01 5.929251e+01 6.649384e+01 3.581487e+01 2.100936e+01 4.555438e+01 3.746598e+01
<GCONST> 1.084175e+02
<MIXTURE> 2 3.356250e-01
<MEAN> 20
 -7.190636e+00 -2.181433e+00 -7.527938e+00 -1.123569e+01 -8.770839e+00 -1.379284e+01 -1.711682e+01 -2.380363e+01 -2.797846e+00 -1.429892e+01 -6.491320e+00 -2.662667e+01 2.559684e+00 -1.308067e+01 -1.098096e+00 -2.261159e+01 7.397290e+00 -1.059362e+01 -2.273552e+00 -1.213964e+01
<VARIANCE> 20
 3.672815e-01 2.843512e-01 8.372806e+00 2.306034e+00 1.965832e+00 7.634191e-01 8.444615e+00 2.637668e+00 1.783021e+00 7.165095e-01 1.087770e+01 3.649936e+00 1.736697e+00 6.611173e-01 1.321079e+01 5.573496e+00 1.839417e+00 6.764504e-01 1.108789e+01 5.262671e+00
<GCONST> 5.361691e+01
<MIXTURE> 3 3.450000e-01
<MEAN> 20
 -7.922790e+00 -2.192375e+00 -1.297542e+01 -1.163952e+01 -8.657413e+00 -1.281264e+01 -1.345910e+01 -1.305292e+01 -3.371853e+00 -1.288981e+01 -8.476722e+00 -1.173685e+01 1.857798e+00 -1.210673e+01 -4.157549e+00 -9.709532e+00 7.187423e+00 -1.057806e+01 2.806180e-01 -9.528048e+00
<VARIANCE> 20
 1.758101e+00 9.909488e-01 3.613686e+01 1.335476e+01 4.768991e+00 3.785756e+00 8.151641e+00 1.629835e+01 4.624241e+00 3.340206e+00 5.793637e+00 2.380783e+01 5.140146e+00 2.877433e+00 5.829135e+00 1.852223e+01 5.781891e+00 2.751899e+00 7.830578e+00 1.821493e+01
<GCONST> 7.404177e+01
<MIXTURE> 4 2.250000e-01
<MEAN> 20
 -9.802432e+00 -1.577051e+00 -1.991714e+01 -1.326480e+01 -1.521285e+01 -1.461042e+01 -2.427955e+01 -1.867680e+01 -8.908606e+00 -1.545417e+01 -1.618934e+01 -1.783751e+01 -2.520257e+00 -1.495753e+01 -1.040933e+01 -1.390876e+01 3.782429e+00 -1.336578e+01 -5.189531e+00 -1.205204e+01
<VARIANCE> 20
 2.318806e+00 8.379700e-01 5.717374e+01 1.368580e+01 8.982646e+00 5.936989e+00 2.857169e+01 5.554482e+01 6.967329e+00 5.805510e+00 2.024532e+01 1.010622e+02 6.955732e+00 5.197585e+00 2.459347e+01 7.430984e+01 9.463717e+00 5.344934e+00 3.334022e+01 4.775521e+01
<GCONST> 8.914903e+01
<TRANSP> 5
 0.000000e+00 1.000000e+00 0.000000e+00 0.000000e+00 0.000000e+00
 0.000000e+00 7.216234e-01 2.783767e-01 0.000000e+00 0.000000e+00
 0.000000e+00 0.000000e+00 7.240729e-01 2.759271e-01 0.000000e+00
 0.000000e+00 0.000000e+00 0.000000e+00 7.256250e-01 2.743750e-01
 0.000000e+00 0.000000e+00 0.000000e+00 0.000000e+00 0.000000e+00
<ENDHMM>
