~o
<STREAMINFO> 1 20
<VECSIZE> 20<NULLD><USER><DIAGC>
~h "w"
<BEGINHMM>
<NUMSTATES> 8
<STATE> 2
<MEAN> 20
 -6.899556e+00 -1.849506e+00 -1.293650e+01 -1.020805e+01 -8.782609e+00 -1.215515e+01 -1.582008e+01 -1.647686e+01 -4.071898e+00 -1.238748e+01 -1.031203e+01 -1.568137e+01 4.622959e-01 -1.145762e+01 -5.951357e+00 -1.186570e+01 4.803313e+00 -9.636230e+00 -2.876714e+00 -8.665789e+00
<VARIANCE> 20
 1.050566e+01 1.440820e+00 7.907905e+01 1.400445e+01 3.028247e+01 6.153318e+00 9.664678e+01 4.555171e+01 1.711428e+01 7.275587e+00 6.633669e+01 7.402711e+01 1.399082e+01 8.272372e+00 4.311939e+01 5.483134e+01 2.262362e+01 9.047577e+00 3.889977e+01 2.422416e+01
<GCONST> 9.811496e+01
<STATE> 3
<NUMMIXES> 4
<MIXTURE> 1 3.643411e-01
<MEAN> 20
 -5.824294e+00 -1.212490e+00 -9.355227e+00 -8.280948e+00 -8.092868e+00 -9.526666e+00 -1.118537e+01 -1.322359e+01 -3.683644e+00 -9.876169e+00 -5.851261e+00 -1.312168e+01 6.152821e-01 -9.370910e+00 -2.179448e+00 -1.053814e+01 4.917203e+00 -8.198233e+00 2.634312e-01 -8.205266e+00
<VARIANCE> 20
 7.162063e-01 2.473546e-01 2.169045e+01 3.352237e+00 2.028881e+00 8.973087e-01 6.081478e+00 1.533865e+01 1.309606e+00 9.269701e-01 4.931722e+00 2.730550e+01 1.185199e+00 8.540515e-01 3.964875e+00 1.892656e+01 1.683099e+00 1.022273e+00 5.365772e+00 1.025636e+01
<GCONST> 5.842554e+01
<MIXTURE> 2 2.548450e-01
<MEAN> 20
 -7.857189e+00 -1.859519e+00 -9.511541e+00 -1.098674e+01 -1.038096e+01 -1.401194e+01 -1.847471e+01 -2.433525e+01 -4.281484e+00 -1.463744e+01 -8.635365e+00 -2.748166e+01 1.426539e+00 -1.349845e+01 -3.534021e+00 -2.076207e+01 6.743797e+00 -1.102611e+01 -3.782688e+00 -1.104073e+01
<VARIANCE> 20
 6.354702e-01 6.664495e-01 1.565647e+01 4.159100e+00 6.121567e+00 1.349429e+00 3.166899e+01 5.305422e+00 5.680447e+00 1.211298e+00 2.635550e+01 6.750547e+00 5.066045e+00 1.122938e+00 2.405743e+01 3.422631e+01 4.256299e+00 1.125311e+00 1.425941e+01 7.695936e+00
<GCONST> 6.913663e+01
<MIXTURE> 3 2.742248e-01
<MEAN> 20
 -7.710894e+00 -2.571869e+00 -1.587075e+01 -1.177463e+01 -6.979230e+00 -1.311929e+01 -1.532347e+01 -1.544292e+01 -2.135952e+00 -1.305747e+01 -1.268564e+01 -1.201171e+01 2.409212e+00 -1.204481e+01 -8.678086e+00 -9.458604e+00 6.589999e+00 -1.021515e+01 -3.988775e+00 -9.465289e+00
<VARIANCE> 20
 9.534155e-01 8.541066e-01 3.023517e+01 5.439185e+00 1.070724e+01 1.449932e+00 1.166710e+01 2.808422e+01 8.053021e+00 1.126608e+00 2.375910e+01 1.994943e+01 6.278733e+00 1.036716e+00 2.565865e+01 1.816933e+01 8.097186e+00 1.666772e+00 3.586230e+01 2.036981e+01
<GCONST> 7.576961e+01
<MIXTURE> 4 1.065891e-01
<MEAN> 20
 -5.369377e+00 -2.191518e+00 -1.564923e+01 -1.083312e+01 -7.781932e+00 -1.240979e+01 -1.807438e+01 -1.672592e+01 -4.819520e+00 -1.233613e+01 -1.349974e+01 -1.452188e+01 -2.204255e+00 -1.100607e+01 -1.010126e+01 -9.691954e+00 -3.669081e-02 -8.838257e+00 -7.489053e+00 -6.437528e+00
<VARIANCE> 20
 4.332738e+01 2.873870e+00 2.229054e+02 2.715984e+01 1.154681e+02 1.059505e+01 3.425141e+02 6.983737e+01 4.904198e+01 1.635329e+01 2.022024e+02 1.054251e+02 2.225614e+01 2.274589e+01 9.371765e+01 7.332320e+01 3.812428e+01 2.733838e+01 6.996914e+01 3.853127e+01
<GCONST> 1.140475e+02
<STATE> 4
<NUMMIXES> 4
<MIXTURE> 1 1.920455e-01
<MEAN> 20
 -4.386931e+00 -1.097385e+00 -7.861779e+00 -7.120771e+00 -5.202354e+00 -9.391916e+00 -8.372263e+00 -1.282866e+01 -1.430876e+00 -9.578412e+00 -3.561581e+00 -1.212381e+01 2.068502e+00 -8.800337e+00 -6.241233e-01 -9.319592e+00 5.289607e+00 -7.284935e+00 1.492005e+00 -6.538821e+00
<VARIANCE> 20
 1.589759e+01 7.488735e-01 7.313758e+01 1.391855e+01 3.625880e+01 4.500179e+00 8.332586e+01 2.267399e+01 1.239410e+01 4.355018e+00 3.538465e+01 3.195557e+01 5.820236e+00 4.130898e+00 1.416779e+01 2.602344e+01 1.582780e+01 4.239674e+00 1.379339e+01 1.690385e+01
<GCONST> 8.856582e+01
<MIXTURE> 2 3.579545e-01
<MEAN> 20
 -7.357388e+00 -1.906326e+00 -1.014077e+01 -1.036131e+01 -9.011104e+00 -1.243618e+01 -1.489319e+01 -1.844008e+01 -3.881883e+00 -1.274715e+01 -9.421528e+00 -1.925153e+01 1.184384e+00 -1.188992e+01 -5.021336e+00 -1.431124e+01 6.269735e+00 -1.008629e+01 -1.772826e+00 -1.020326e+01
<VARIANCE> 20
 4.752110e-01 3.665410e-01 1.697918e+01 3.283349e+00 3.025393e+00 1.220055e+00 1.479725e+01 2.379530e+01 3.152801e+00 1.026789e+00 1.034078e+01 3.911621e+01 3.570316e+00 6.520335e-01 1.052862e+01 3.063625e+01 3.678191e+00 5.963770e-01 8.748631e+00 8.399728e+00
<GCONST> 6.508189e+01
<MIXTURE> 3 3.204545e-01
<MEAN> 20
 -8.908913e+00 -1.929608e+00 -1.770728e+01 -1.254735e+01 -1.195892e+01 -1.362848e+01 -1.947561e+01 -1.652186e+01 -6.379640e+00 -1.416406e+01 -1.439788e+01 -1.533218e+01 -6.544653e-01 -1.365061e+01 -8.679089e+00 -1.167393e+01 5.112579e+00 -1.220886e+01 -3.832622e+00 -1.152681e+01
<VARIANCE> 20
 8.642763e-01 9.661846e-01 5.075159e+01 8.127547e+00 8.170592e+00 2.751392e+00 1.870540e+01 3.462048e+01 6.748246e+00 2.332980e+00 2.020846e+01 4.861069e+01 5.878242e+00 1.852299e+00 1.958240e+01 3.856996e+01 6.085012e+00 1.854218e+00 2.180085e+01 2.927357e+01
<GCONST> 7.972848e+01
<MIXTURE> 4 1.295455e-01
<MEAN> 20
 -7.297613e+00 -2.469866e+00 -2.386215e+01 -6.933199e+00 -1.145562e+01 -1.116154e+01 -2.855991e+01 -1.157016e+01 -7.741324e+00 -1.015804e+01 -2.410977e+01 -8.272839e+00 -4.661444e+00 -7.870928e+00 -1.687800e+01 -3.282234e+00 -2.394197e+00 -4.921324e+00 -1.335568e+01 -1.255014e+00
<VARIANCE> 20
 8.280608e+00 3.187782e+00 2.330134e+01 1.801891e+01 2.447193e+01 7.223963e+00 4.634111e+01 5.659799e+01 2.101584e+01 9.388277e+00 7.300195e+01 7.745135e+01 2.858341e+01 1.282823e+01 4.077520e+01 4.194635e+01 4.693515e+01 1.543327e+01 4.490356e+01 1.741420e+01
<GCONST> 9.963857e+01
<STATE> 5
<NUMMIXES> 4
<MIXTURE> 1 8.553971e-02
<MEAN> 20
 5.599440e+00 -1.500951e+00 9.663807e+00 -9.596266e+00 8.707761e+00 -1.035954e+01 1.230934e+01 -1.334904e+01 4.914793e+00 -1.062942e+01 8.688025e+00 -1.312321e+01 9.361472e-01 -9.928841e+00 4.623510e+00 -1.049998e+01 -3.138714e+00 -8.452822e+00 1.280877e+00 -7.157698e+00
<VARIANCE> 20
 2.130583e+01 7.360305e-01 1.072548e+02 2.063003e+01 5.293268e+01 9.737024e+00 1.402062e+02 4.292799e+01 2.350744e+01 1.482366e+01 5.911605e+01 6.489545e+01 1.375076e+01 1.867559e+01 2.932958e+01 6.912107e+01 2.421549e+01 2.068553e+01 3.109132e+01 3.739058e+01
<GCONST> 1.027029e+02
<MIXTURE> 2 3.054990e-01
<MEAN> 20
 -6.666043e+00 -1.622954e+00 -8.326787e+00 -9.371417e+00 -8.877683e+00 -1.208707e+01 -1.675401e+01 -2.071988e+01 -3.417632e+00 -1.260657e+01 -7.712787e+00 -2.327191e+01 1.651266e+00 -1.155826e+01 -2.790881e+00 -1.937215e+01 6.350988e+00 -9.362471e+00 -2.104654e+00 -1.007057e+01
<VARIANCE> 20
 4.370035e-01 2.691239e-01 1.322194e+01 2.721874e+00 1.939412e+00 9.729423e-01 7.953838e+00 4.150097e+00 1.673242e+00 7.895939e-01 8.844374e+00 5.057402e+00 1.670887e+00 6.146144e-01 1.068753e+01 4.682574e+00 1.934271e+00 5.787147e-01 9.633470e+00 5.359210e+00
<GCONST> 5.440761e+01
<MIXTURE> 3 3.890020e-01
<MEAN> 20
 -7.537742e+00 -2.350767e+00 -1.194406e+01 -1.224258e+01 -7.448895e+00 -1.234322e+01 -1.164913e+01 -1.199947e+01 -2.344174e+00 -1.229465e+01 -7.420574e+00 -1.027328e+01 2.765991e+00 -1.149941e+01 -3.322533e+00 -8.099588e+00 7.999409e+00 -1.002799e+01 1.318180e+00 -8.364713e+00
<VARIANCE> 20
 1.056835e+00 5.498087e-01 3.825187e+01 8.017700e+00 4.437088e+00 2.044402e+00 3.972845e+00 1.540066e+01 4.170789e+00 1.708557e+00 4.062077e+00 1.024234e+01 4.152240e+00 1.413443e+00 3.604767e+00 8.906474e+00 3.905323e+00 1.413379e+00 4.328675e+00 1.197815e+01
<GCONST> 6.484683e+01
<MIXTURE> 4 2.199593e-01
<MEAN> 20
 -8.454894e+00 -1.672401e+00 -1.777779e+01 -1.075229e+01 -1.161237e+01 -1.304642e+01 -2.292645e+01 -1.940642e+01 -6.359027e+00 -1.354975e+01 -1.649627e+01 -1.929657e+01 -1.384751e+00 -1.264548e+01 -1.168055e+01 -1.355611e+01 3.141709e+00 -1.064822e+01 -8.547578e+00 -9.267425e+00
<VARIANCE> 20
 3.573315e+00 2.056664e+00 5.498237e+01 1.292777e+01 2.226564e+01 5.515038e+00 4.548897e+01 3.928692e+01 1.500001e+01 6.191003e+00 4.353205e+01 7.143562e+01 1.238333e+01 7.276532e+00 5.085962e+01 6.144593e+01 1.996270e+01 8.650659e+00 4.982446e+01 2.828665e+01
<GCONST> 9.514147e+01
<STATE> 6
<NUMMIXES> 4
<MIXTURE> 1 3.615702e-01
<MEAN> 20
 -6.881144e+00 -1.516399e+00 -1.212458e+01 -9.276644e+00 -8.746681e+00 -1.133905e+01 -1.419198e+01 -1.529814e+01 -3.715377e+00 -1.158605e+01 -8.583013e+00 -1.458736e+01 1.214363e+00 -1.079959e+01 -4.285895e+00 -1.153048e+01 6.048930e+00 -9.186896e+00 -1.040188e+00 -8.494951e+00
<VARIANCE> 20
 1.303614e+00 7.144285e-01 3.149928e+01 9.908538e+00 3.823313e+00 2.502692e+00 1.394891e+01 2.341238e+01 3.199297e+00 2.213499e+00 1.208974e+01 3.967146e+01 3.455916e+00 1.951638e+00 1.268214e+01 2.707085e+01 4.298271e+00 2.145093e+00 1.211050e+01 1.218106e+01
<GCONST> 7.357018e+01
<MIXTURE> 2 3.388430e-01
<MEAN> 20
 -7.084204e+00 -2.198513e+00 -7.476223e+00 -1.116381e+01 -8.857695e+00 -1.359875e+01 -1.767020e+01 -2.353870e+01 -2.979279e+00 -1.413678e+01 -7.294799e+00 -2.638354e+01 2.306804e+00 -1.295453e+01 -1.676852e+00 -2.259164e+01 7.077692e+00 -1.052050e+01 -2.572771e+00 -1.222256e+01
<VARIANCE> 20
 2.808945e-01 1.915217e-01 7.533691e+00 1.534735e+00 1.871543e+00 3.870394e-01 7.582306e+00 1.386470e+00 1.714657e+00 3.614190e-01 8.643661e+00 2.112418e+00 1.565676e+00 3.392459e-01 1.235815e+01 2.689178e+00 1.534247e+00 3.598386e-01 9.126595e+00 3.809489e+00
<GCONST> 4.656449e+01
<MIXTURE> 3 8.367769e-02
<MEAN> 20
 -2.024660e+00 -3.224247e+00 -1.297839e+01 -1.031672e+01 -2.535444e+00 -1.051781e+01 -1.701673e+01 -1.323267e+01 -2.471054e+00 -9.014191e+00 -1.447775e+01 -1.080461e+01 -3.161941e+00 -6.832698e+00 -9.959179e+00 -6.187655e+00 -4.388676e+00 -4.333622e+00 -9.371966e+00 -3.960038e+00
<VARIANCE> 20
 3.225284e+01 3.987434e+00 2.029599e+02 2.570668e+01 7.045599e+01 1.439278e+01 3.315932e+02 3.732180e+01 4.188843e+01 2.258253e+01 2.400959e+02 5.226797e+01 3.558819e+01 3.248523e+01 1.010858e+02 5.282115e+01 4.927254e+01 3.985151e+01 6.784325e+01 5.268579e+01
<GCONST> 1.142086e+02
<MIXTURE> 4 2.159091e-01
<MEAN> 20
 -1.022860e+01 -1.567247e+00 -2.105861e+01 -1.382144e+01 -1.612889e+01 -1.524044e+01 -2.613293e+01 -2.099733e+01 -9.662646e+00 -1.620152e+01 -1.718129e+01 -2.060184e+01 -3.134209e+00 -1.569794e+01 -1.229632e+01 -1.541092e+01 3.197912e+00 -1.399960e+01 -7.299774e+00 -1.243795e+01
<VARIANCE> 20
 2.359468e+00 8.217161e-01 5.833955e+01 1.105443e+01 8.259415e+00 5.035566e+00 3.318812e+01 5.790322e+01 7.049088e+00 4.531066e+00 2.361213e+01 1.153594e+02 8.262380e+00 3.495000e+00 3.859776e+01 7.728857e+01 1.169674e+01 3.301103e+00 4.976211e+01 4.599503e+01
<GCONST> 8.930440e+01
<STATE> 7
<MEAN> 20
 -7.004252e+00 -1.847975e+00 -1.211772e+01 -1.078105e+01 -8.907293e+00 -1.250157e+01 -1.590284e+01 -1.740871e+01 -3.914135e+00 -1.280268e+01 -9.266270e+00 -1.747194e+01 8.419234e-01 -1.188011e+01 -4.784216e+00 -1.369383e+01 5.356142e+00 -1.000363e+01 -2.453146e+00 -9.382945e+00
<VARIANCE> 20
 1.055301e+01 1.090523e+00 7.353909e+01 1.271942e+01 2.613986e+01 6.291945e+00 7.341388e+01 3.946363e+01 1.338854e+01 7.039669e+00 4.852062e+01 6.838747e+01 9.957598e+00 7.437641e+00 3.545131e+01 5.408023e+01 1.695798e+01 7.763260e+00 2.922478e+01 2.347342e+01
<GCONST> 9.504346e+01
<TRANSP> 8
 0.000000e+00 1.000000e+00 0.000000e+00 0.000000e+00 0.000000e+00 0.000000e+00 0.000000e+00 0.000000e+00
 0.000000e+00 0.000000e+00 1.000000e+00 0.000000e+00 0.000000e+00 0.000000e+00 0.000000e+00 0.000000e+00
 0.000000e+00 0.000000e+00 5.746124e-01 4.253876e-01 0.000000e+00 0.000000e+00 0.000000e+00 0.000000e+00
 0.000000e+00 0.000000e+00 0.000000e+00 5.011364e-01 4.988636e-01 0.000000e+00 0.000000e+00 0.000000e+00
 0.000000e+00 0.000000e+00 0.000000e+00 0.000000e+00 5.529532e-01 4.470468e-01 0.000000e+00 0.000000e+00
 0.000000e+00 0.000000e+00 0.000000e+00 0.000000e+00 0.000000e+00 5.464876e-01 4.535124e-01 0.000000e+00
 0.000000e+00 0.000000e+00 0.000000e+00 0.000000e+00 0.000000e+00 0.000000e+00 5.995717e-02 9.400429e-01
 0.000000e+00 0.000000e+00 0.000000e+00 0.000000e+00 0.000000e+00 0.000000e+00 0.000000e+00 0.000000e+00
<ENDHMM>
