~o
<STREAMINFO> 1 20
<VECSIZE> 20<NULLD><USER><DIAGC>
~h "x"
<BEGINHMM>
<NUMSTATES> 5
<STATE> 2
<NUMMIXES> 4
<MIXTURE> 1 3.548387e-01
<MEAN> 20
 -6.541180e+00 -1.463865e+00 -1.009538e+01 -9.165221e+00 -8.368827e+00 -9.920737e+00 -1.026405e+01 -9.814337e+00 -3.992116e+00 -1.004729e+01 -6.530455e+00 -8.199196e+00 3.735857e-01 -9.712699e+00 -2.845194e+00 -7.421507e+00 5.036596e+00 -8.920602e+00 6.726925e-01 -9.289310e+00
<VARIANCE> 20
 1.078435e+00 4.108260e-01 2.689399e+01 6.363520e+00 2.530175e+00 1.295616e+00 3.918006e+00 4.472610e+00 1.767799e+00 1.211565e+00 2.722110e+00 5.204618e+00 1.429490e+00 1.116204e+00 2.219676e+00 5.443751e+00 1.738210e+00 1.058634e+00 3.642326e+00 1.567683e+01
<GCONST> 5.616312e+01
<MIXTURE> 2 1.478495e-01
<MEAN> 20
 -7.159887e+00 -2.964914e+00 -1.626056e+01 -9.288757e+00 -5.899311e+00 -1.285744e+01 -1.737525e+01 -1.593348e+01 -1.558272e+00 -1.185403e+01 -1.584630e+01 -6.154960e+00 1.247259e+00 -9.476892e+00 -1.196741e+01 -4.247479e+00 2.882555e+00 -6.544201e+00 -9.183182e+00 -3.633867e+00
<VARIANCE> 20
 1.148948e+01 3.142570e+00 5.899957e+01 3.558580e+01 2.719185e+01 7.985911e+00 7.294147e+01 4.808107e+01 1.347445e+01 6.828611e+00 7.207130e+01 3.465130e+01 8.297754e+00 7.673799e+00 4.677229e+01 2.900739e+01 1.729849e+01 8.891339e+00 6.197057e+01 2.445751e+01
<GCONST> 9.760748e+01
<MIXTURE> 3 4.005376e-01
<MEAN> 20
 -7.946376e+00 -1.999313e+00 -9.288877e+00 -9.860955e+00 -9.435280e+00 -1.206825e+01 -1.379598e+01 -1.296632e+01 -5.148811e+00 -1.225917e+01 -1.000533e+01 -1.249771e+01 -7.549877e-01 -1.184807e+01 -6.274343e+00 -1.157813e+01 4.141055e+00 -1.087061e+01 -2.047984e+00 -1.238877e+01
<VARIANCE> 20
 2.861274e-01 3.622611e-01 1.079001e+01 4.032596e+00 1.138805e+00 8.036711e-01 2.314332e+00 5.823287e+00 9.267479e-01 5.916945e-01 2.926600e+00 7.891281e+00 1.054092e+00 6.073237e-01 3.109340e+00 4.835194e+00 1.399706e+00 7.942721e-01 4.009818e+00 9.440828e+00
<GCONST> 4.931907e+01
<MIXTURE> 4 9.677419e-02
<MEAN> 20
 -9.445572e+00 -1.611367e+00 -1.862245e+01 -1.261576e+01 -1.312719e+01 -1.440430e+01 -1.936533e+01 -1.619708e+01 -7.092678e+00 -1.527449e+01 -1.361193e+01 -1.783689e+01 -9.046260e-01 -1.487123e+01 -6.599728e+00 -1.740342e+01 5.801048e+00 -1.340623e+01 1.442028e+00 -1.657341e+01
<VARIANCE> 20
 2.197453e+00 9.825328e-01 2.253716e+01 5.112906e+00 1.026017e+01 2.655077e+00 1.331485e+01 1.242923e+01 6.735374e+00 2.556124e+00 1.383166e+01 5.150328e+01 5.140811e+00 2.360453e+00 1.231297e+01 7.026985e+01 5.756864e+00 2.023309e+00 4.572116e+01 4.613224e+01
<GCONST> 7.947056e+01
<STATE> 3
<NUMMIXES> 4
<MIXTURE> 1 4.693878e-01
<MEAN> 20
 -6.740099e+00 -2.263614e+00 -1.011075e+01 -9.738474e+00 -4.946600e+00 -1.255182e+01 -1.022851e+01 -1.508302e+01 -3.162140e-01 -1.217176e+01 -7.158289e+00 -9.744897e+00 3.635503e+00 -1.097750e+01 -3.614183e+00 -8.177341e+00 7.294204e+00 -9.147629e+00 -2.702115e-01 -7.834604e+00
<VARIANCE> 20
 3.423953e+00 5.597060e-01 2.293511e+01 5.382789e+00 9.626832e+00 2.834051e+00 1.609164e+01 1.015359e+01 7.322268e+00 2.285227e+00 1.092435e+01 1.301846e+01 5.533038e+00 1.795800e+00 8.218140e+00 1.227279e+01 5.425718e+00 1.856395e+00 9.329732e+00 1.284376e+01
<GCONST> 7.240677e+01
<MIXTURE> 2 3.265306e-01
<MEAN> 20
 -9.080470e+00 -3.113595e+00 -1.873314e+01 -1.108769e+01 -6.176713e+00 -1.466232e+01 -1.778558e+01 -1.854030e+01 -2.136827e+00 -1.397515e+01 -1.390666e+01 -8.931074e+00 3.820873e-01 -1.212232e+01 -1.040645e+01 -6.520175e+00 1.769921e+00 -9.594857e+00 -8.230865e+00 -5.510889e+00
<VARIANCE> 20
 1.098460e+00 5.639490e-01 6.855134e+00 2.790887e+00 2.514534e+00 8.910090e-01 4.936108e+00 5.091231e+00 2.055531e+00 8.222112e-01 6.415199e+00 4.775006e+00 3.811758e+00 1.391554e+00 7.371799e+00 2.404104e+00 1.036516e+01 2.399427e+00 1.527522e+01 2.705658e+00
<GCONST> 5.868625e+01
<MIXTURE> 3 1.107872e-01
<MEAN> 20
 -1.032793e+01 -1.861879e+00 -2.238915e+01 -1.566738e+01 -1.438545e+01 -1.630550e+01 -1.892211e+01 -1.564295e+01 -7.605165e+00 -1.694203e+01 -1.100347e+01 -1.080471e+01 -1.123885e+00 -1.634663e+01 -4.718684e+00 -9.926815e+00 5.644570e+00 -1.482728e+01 3.190894e-01 -9.925910e+00
<VARIANCE> 20
 1.086231e+00 5.815144e-01 8.242207e+00 1.260708e+00 3.953027e+00 2.706242e+00 9.835391e+00 2.781821e+01 3.099091e+00 2.559391e+00 2.562916e+00 1.674452e+00 2.893044e+00 1.893781e+00 2.642992e+00 1.750712e+00 3.643007e+00 1.247953e+00 4.956151e+00 1.579791e+00
<GCONST> 5.695337e+01
<MIXTURE> 4 9.329446e-02
<MEAN> 20
 -1.071859e+01 -1.425210e+00 -2.377830e+01 -1.143720e+01 -1.646499e+01 -1.504842e+01 -2.534951e+01 -2.021035e+01 -9.815195e+00 -1.612157e+01 -1.743286e+01 -2.267921e+01 -2.992100e+00 -1.569553e+01 -1.000034e+01 -1.872082e+01 4.115699e+00 -1.410767e+01 -1.068903e+00 -1.695860e+01
<VARIANCE> 20
 1.393861e+00 2.444692e+00 5.780033e+01 1.006956e+01 6.933193e+00 2.724427e+00 2.453263e+01 2.637522e+01 2.893848e+00 2.648091e+00 2.720746e+01 4.630300e+01 2.775311e+00 3.351095e+00 1.576591e+01 8.131820e+01 4.176366e+00 4.885300e+00 1.268422e+01 8.221605e+01
<GCONST> 8.228783e+01
<STATE> 4
<NUMMIXES> 4
<MIXTURE> 1 1.129032e-01
<MEAN> 20
 3.782131e+00 -1.504752e+00 1.029173e+01 -5.860886e+00 6.051728e+00 -1.009387e+01 1.182326e+01 -1.225173e+01 4.519409e+00 -9.524702e+00 1.045082e+01 -5.340199e+00 2.819560e+00 -8.113902e+00 7.763111e+00 -4.657721e+00 1.063830e+00 -6.179209e+00 5.535937e+00 -3.551399e+00
<VARIANCE> 20
 3.637472e+01 1.373706e+00 1.494020e+02 1.702818e+01 6.170794e+01 8.864833e+00 1.353180e+02 6.153323e+01 1.860492e+01 1.362996e+01 9.401491e+01 7.725307e+01 7.765320e+00 2.000199e+01 3.475721e+01 6.814268e+01 2.294471e+01 2.568182e+01 9.688753e+00 6.637867e+01
<GCONST> 1.039291e+02
<MIXTURE> 2 2.956989e-01
<MEAN> 20
 -8.111359e+00 -3.271968e+00 -2.379845e+01 -8.964269e+00 -7.757489e+00 -1.325052e+01 -2.376272e+01 -1.514544e+01 -3.580958e+00 -1.196529e+01 -2.029064e+01 -5.535598e+00 -9.614962e-01 -9.165191e+00 -1.334960e+01 -3.374914e+00 4.207588e-01 -5.828979e+00 -1.067218e+01 -2.059702e+00
<VARIANCE> 20
 5.505661e+00 1.853309e+00 2.173240e+01 1.412001e+01 1.709701e+01 4.607068e+00 2.035016e+01 1.594016e+01 1.143259e+01 4.203922e+00 2.134145e+01 2.572000e+01 1.011965e+01 5.424986e+00 2.238455e+01 9.247946e+00 1.742575e+01 6.831973e+00 3.415747e+01 8.698243e+00
<GCONST> 8.494746e+01
<MIXTURE> 3 4.139785e-01
<MEAN> 20
 -8.196352e+00 -1.589559e+00 -1.578402e+01 -9.714738e+00 -1.021677e+01 -1.262661e+01 -1.521986e+01 -1.340382e+01 -5.198893e+00 -1.292097e+01 -1.085145e+01 -1.074171e+01 -4.004728e-01 -1.229549e+01 -6.353358e+00 -8.488848e+00 4.240140e+00 -1.093647e+01 -2.371358e+00 -1.065492e+01
<VARIANCE> 20
 1.561285e+00 1.726245e+00 4.017303e+01 9.020174e+00 2.251159e+01 3.322968e+00 1.682756e+01 1.849651e+01 1.807632e+01 3.120252e+00 1.247456e+01 2.984358e+01 1.222374e+01 3.055913e+00 7.143366e+00 1.724725e+01 8.320263e+00 3.819026e+00 9.314114e+00 4.577251e+01
<GCONST> 8.159753e+01
<MIXTURE> 4 1.774193e-01
<MEAN> 20
 -1.220492e+01 -3.299588e+00 -2.052452e+01 -1.554527e+01 -1.253872e+01 -1.728683e+01 -2.419544e+01 -2.058511e+01 -6.721776e+00 -1.734626e+01 -1.893233e+01 -1.574424e+01 -1.518306e+00 -1.630737e+01 -1.315894e+01 -1.236965e+01 3.415748e+00 -1.436366e+01 -9.238162e+00 -1.131216e+01
<VARIANCE> 20
 1.082536e+00 4.884238e+00 3.590402e+01 6.968117e+00 3.446200e+01 5.902850e+00 7.728004e+00 1.963988e+01 3.208812e+01 2.829915e+00 1.116365e+01 1.288351e+01 2.353946e+01 7.046930e-01 1.796455e+01 9.614946e+00 2.244343e+01 3.073568e-01 2.966231e+01 5.667046e+00
<GCONST> 7.877631e+01
<TRANSP> 5
 0.000000e+00 1.000000e+00 0.000000e+00 0.000000e+00 0.000000e+00
 0.000000e+00 7.822581e-01 2.177419e-01 0.000000e+00 0.000000e+00
 0.000000e+00 0.000000e+00 7.638484e-01 2.361516e-01 0.000000e+00
 0.000000e+00 0.000000e+00 0.000000e+00 5.645161e-01 4.354839e-01
 0.000000e+00 0.000000e+00 0.000000e+00 0.000000e+00 0.000000e+00
<ENDHMM>
