~o
<STREAMINFO> 1 20
<VECSIZE> 20<NULLD><USER><DIAGC>
~h "x"
<BEGINHMM>
<NUMSTATES> 8
<STATE> 2
<MEAN> 20
 -7.805336e+00 -1.878439e+00 -1.318199e+01 -1.000346e+01 -9.062912e+00 -1.237200e+01 -1.454932e+01 -1.361877e+01 -4.260810e+00 -1.242483e+01 -1.083400e+01 -1.083130e+01 1.947844e-01 -1.154607e+01 -6.447015e+00 -9.055380e+00 4.624601e+00 -9.988967e+00 -2.124489e+00 -9.454072e+00
<VARIANCE> 20
 8.565582e+00 1.181664e+00 5.960075e+01 1.399797e+01 2.332816e+01 6.837438e+00 4.858631e+01 2.982204e+01 1.305233e+01 7.358023e+00 3.770715e+01 4.213361e+01 6.962499e+00 8.330007e+00 2.528299e+01 3.866587e+01 9.181694e+00 9.786567e+00 2.912357e+01 4.060107e+01
<GCONST> 9.260397e+01
<STATE> 3
<NUMMIXES> 4
<MIXTURE> 1 3.292181e-01
<MEAN> 20
 -6.511282e+00 -1.538524e+00 -1.091906e+01 -9.747773e+00 -8.453258e+00 -9.908545e+00 -9.985943e+00 -9.111750e+00 -4.015762e+00 -1.000838e+01 -6.233637e+00 -7.461261e+00 4.483798e-01 -9.685058e+00 -2.714367e+00 -6.749535e+00 5.174387e+00 -8.908447e+00 7.410917e-01 -9.283847e+00
<VARIANCE> 20
 1.332202e+00 4.970251e-01 3.090999e+01 7.737963e+00 2.486528e+00 1.627930e+00 3.422208e+00 2.848332e+00 1.558912e+00 1.539322e+00 1.912186e+00 2.504923e+00 1.066294e+00 1.455744e+00 1.763932e+00 3.056312e+00 1.451441e+00 1.373033e+00 3.484874e+00 1.931857e+01
<GCONST> 5.496308e+01
<MIXTURE> 2 1.769547e-01
<MEAN> 20
 -7.350824e+00 -2.716207e+00 -1.441895e+01 -1.008944e+01 -5.670931e+00 -1.335482e+01 -1.434583e+01 -1.696165e+01 -1.450868e+00 -1.267041e+01 -1.184863e+01 -8.382956e+00 1.624572e+00 -1.080052e+01 -8.347780e+00 -6.482881e+00 3.951156e+00 -8.332647e+00 -5.615993e+00 -5.933977e+00
<VARIANCE> 20
 1.338817e+01 2.884006e+00 7.419664e+01 2.348754e+01 3.106393e+01 4.142639e+00 7.448042e+01 1.744136e+01 1.551297e+01 2.971215e+00 6.615855e+01 1.816581e+01 8.477651e+00 3.891531e+00 4.802499e+01 1.767424e+01 1.603435e+01 6.207787e+00 5.445423e+01 1.712834e+01
<GCONST> 9.250199e+01
<MIXTURE> 3 4.074074e-01
<MEAN> 20
 -7.956596e+00 -2.015194e+00 -9.119067e+00 -9.810157e+00 -9.432369e+00 -1.210406e+01 -1.389965e+01 -1.272922e+01 -5.198490e+00 -1.226841e+01 -9.996085e+00 -1.215041e+01 -8.608823e-01 -1.187315e+01 -6.365691e+00 -1.160524e+01 4.009820e+00 -1.093516e+01 -2.181849e+00 -1.241312e+01
<VARIANCE> 20
 2.654783e-01 3.211795e-01 8.827025e+00 3.684615e+00 9.632273e-01 7.507782e-01 2.353818e+00 4.860527e+00 7.202854e-01 5.720615e-01 2.584819e+00 5.186386e+00 8.275299e-01 5.443754e-01 2.908530e+00 3.674064e+00 1.138400e+00 6.150096e-01 3.240770e+00 7.983562e+00
<GCONST> 4.606793e+01
<MIXTURE> 4 8.641975e-02
<MEAN> 20
 -1.090341e+01 -2.127088e+00 -1.875306e+01 -1.427229e+01 -1.459673e+01 -1.549896e+01 -2.149901e+01 -1.773669e+01 -7.837065e+00 -1.644139e+01 -1.560271e+01 -1.983802e+01 -7.720407e-01 -1.608364e+01 -7.249789e+00 -1.715318e+01 6.661439e+00 -1.454638e+01 1.835313e+00 -1.601365e+01
<VARIANCE> 20
 2.518124e+00 1.626489e+00 2.596172e+01 8.262095e+00 6.501180e+00 1.314819e+00 9.865779e+00 1.626510e+01 6.019282e+00 4.874769e-01 1.503392e+01 3.832736e+01 6.601148e+00 3.152215e-01 1.590195e+01 6.904408e+01 7.656569e+00 4.955992e-01 5.760083e+01 5.737681e+01
<GCONST> 7.536318e+01
<STATE> 4
<NUMMIXES> 4
<MIXTURE> 1 2.687500e-01
<MEAN> 20
 -6.231400e+00 -1.852200e+00 -9.171150e+00 -8.978772e+00 -6.371926e+00 -1.142763e+01 -1.042410e+01 -1.292329e+01 -2.192310e+00 -1.133221e+01 -6.958145e+00 -9.445677e+00 1.710793e+00 -1.054660e+01 -3.420495e+00 -8.187535e+00 5.690970e+00 -9.192988e+00 -2.875271e-02 -8.544426e+00
<VARIANCE> 20
 1.055478e+01 7.246795e-01 4.942038e+01 7.116224e+00 2.126861e+01 2.782104e+00 5.073055e+01 1.376007e+01 1.086441e+01 2.535707e+00 3.264304e+01 2.263716e+01 6.094247e+00 2.742639e+00 1.537794e+01 1.755178e+01 7.743013e+00 3.644516e+00 9.153343e+00 2.162351e+01
<GCONST> 8.224703e+01
<MIXTURE> 2 4.312500e-01
<MEAN> 20
 -8.605074e+00 -2.953286e+00 -1.780838e+01 -1.096837e+01 -6.136516e+00 -1.433317e+01 -1.717121e+01 -1.809284e+01 -1.940590e+00 -1.372879e+01 -1.338569e+01 -8.703273e+00 9.043400e-01 -1.200941e+01 -9.618152e+00 -6.536149e+00 2.758093e+00 -9.605397e+00 -7.159910e+00 -5.694191e+00
<VARIANCE> 20
 9.712507e-01 5.857804e-01 4.760736e+00 3.251581e+00 3.285121e+00 6.445487e-01 5.622399e+00 5.638241e+00 2.483590e+00 6.785294e-01 9.390275e+00 3.772737e+00 3.071831e+00 1.672940e+00 8.834221e+00 2.493490e+00 8.184181e+00 3.303794e+00 1.496118e+01 3.820155e+00
<GCONST> 5.930119e+01
<MIXTURE> 3 1.812500e-01
<MEAN> 20
 -1.027073e+01 -1.792722e+00 -2.254962e+01 -1.566286e+01 -1.445692e+01 -1.624329e+01 -1.880406e+01 -1.524598e+01 -7.692388e+00 -1.690530e+01 -1.098457e+01 -1.066798e+01 -1.189327e+00 -1.636787e+01 -4.692284e+00 -9.796216e+00 5.604041e+00 -1.491535e+01 5.962482e-01 -1.054877e+01
<VARIANCE> 20
 1.299493e+00 5.934672e-01 8.404044e+00 1.360834e+00 3.875654e+00 2.761565e+00 9.463190e+00 2.623540e+01 3.339716e+00 2.664715e+00 2.836835e+00 2.460322e+00 3.016662e+00 1.972425e+00 2.226610e+00 2.255914e+00 3.557448e+00 1.409749e+00 4.389585e+00 1.187598e+01
<GCONST> 5.991221e+01
<MIXTURE> 4 1.187500e-01
<MEAN> 20
 -9.994497e+00 -1.370202e+00 -1.864735e+01 -1.168917e+01 -1.374866e+01 -1.369970e+01 -2.139890e+01 -1.617607e+01 -8.448135e+00 -1.444712e+01 -1.693349e+01 -1.860756e+01 -2.792496e+00 -1.407436e+01 -1.030924e+01 -1.710359e+01 3.475450e+00 -1.275488e+01 -3.358937e+00 -1.546353e+01
<VARIANCE> 20
 3.515317e+00 2.626635e+00 1.891335e+01 8.095971e+00 2.237783e+01 3.319182e+00 1.492979e+01 3.548453e+00 1.740044e+01 2.799736e+00 1.437976e+01 1.248558e+01 1.524554e+01 2.412918e+00 1.462678e+01 3.123579e+01 1.479812e+01 1.908521e+00 2.746017e+01 2.525156e+01
<GCONST> 8.097768e+01
<STATE> 5
<NUMMIXES> 4
<MIXTURE> 1 3.333333e-01
<MEAN> 20
 -6.338207e+00 -2.228549e+00 -1.059836e+01 -9.724842e+00 -3.429597e+00 -1.281588e+01 -9.353194e+00 -1.618300e+01 1.297121e+00 -1.231331e+01 -6.875132e+00 -7.813667e+00 4.869813e+00 -1.080344e+01 -3.519576e+00 -6.016602e+00 7.660861e+00 -8.627920e+00 -6.928475e-01 -5.528202e+00
<VARIANCE> 20
 6.657421e+00 7.327126e-01 3.482748e+01 7.801480e+00 1.100216e+01 3.222301e+00 2.844813e+01 9.950409e+00 5.073855e+00 2.673741e+00 2.002245e+01 5.299173e+00 4.139404e+00 1.960964e+00 1.315251e+01 3.155543e+00 8.769426e+00 1.531069e+00 1.348611e+01 3.298070e+00
<GCONST> 7.264486e+01
<MIXTURE> 2 2.307692e-01
<MEAN> 20
 -8.461537e+00 -3.215558e+00 -2.200797e+01 -9.560907e+00 -7.060409e+00 -1.344116e+01 -2.207802e+01 -1.588047e+01 -3.056222e+00 -1.223943e+01 -1.922987e+01 -6.725223e+00 -7.563274e-01 -9.642076e+00 -1.354106e+01 -4.245350e+00 3.293056e-01 -6.537739e+00 -1.188675e+01 -3.001554e+00
<VARIANCE> 20
 3.543641e+00 1.632906e+00 1.085617e+01 1.378678e+01 1.240830e+01 4.283343e+00 1.294367e+01 1.445860e+01 8.029633e+00 4.609452e+00 1.932107e+01 2.134289e+01 5.748049e+00 6.652432e+00 2.343077e+01 9.290279e+00 1.072218e+01 9.027279e+00 3.658205e+01 9.494602e+00
<GCONST> 8.180936e+01
<MIXTURE> 3 3.128205e-01
<MEAN> 20
 -7.238514e+00 -1.952269e+00 -8.409986e+00 -9.043209e+00 -7.816828e+00 -1.163708e+01 -1.175695e+01 -1.325835e+01 -3.519310e+00 -1.166638e+01 -7.881207e+00 -1.224089e+01 7.676488e-01 -1.107948e+01 -3.937294e+00 -1.152735e+01 5.537772e+00 -9.895115e+00 9.584247e-02 -1.149356e+01
<VARIANCE> 20
 4.111893e-01 5.091702e-01 6.318230e+00 1.304151e+00 2.322019e+00 1.984491e+00 1.577448e+00 4.498609e+00 2.101681e+00 1.574518e+00 1.150773e+00 5.713855e+00 2.212617e+00 1.280125e+00 1.734648e+00 6.216771e+00 2.478734e+00 1.085393e+00 2.669530e+00 6.498139e+00
<GCONST> 5.113255e+01
<MIXTURE> 4 1.230769e-01
<MEAN> 20
 -1.008791e+01 -1.567714e+00 -1.925881e+01 -1.287926e+01 -1.496617e+01 -1.497977e+01 -2.216813e+01 -1.779953e+01 -8.199964e+00 -1.588268e+01 -1.275893e+01 -1.814207e+01 -1.481840e+00 -1.539906e+01 -6.795702e+00 -1.202660e+01 5.168916e+00 -1.385797e+01 -6.302792e-01 -1.284972e+01
<VARIANCE> 20
 1.622036e+00 2.825053e+00 2.899275e+01 9.788068e+00 1.288231e+01 4.350079e+00 4.942763e+01 5.009784e+01 5.488225e+00 3.815362e+00 1.760599e+01 8.387776e+01 3.172357e+00 3.172988e+00 6.622149e+00 5.792609e+01 4.274138e+00 3.457687e+00 6.158609e+00 8.229534e+01
<GCONST> 8.328782e+01
<STATE> 6
<NUMMIXES> 4
<MIXTURE> 1 1.507937e-01
<MEAN> 20
 5.498505e-01 -1.829176e+00 1.787722e+00 -6.315083e+00 1.950663e+00 -1.020327e+01 2.015943e+00 -1.132546e+01 2.576323e+00 -9.407932e+00 2.042979e+00 -4.255187e+00 2.739996e+00 -7.649133e+00 3.064765e+00 -3.092479e+00 2.605753e+00 -5.390808e+00 2.906372e+00 -2.166124e+00
<VARIANCE> 20
 4.763021e+01 1.157763e+00 3.024805e+02 1.151511e+01 8.859864e+01 6.892612e+00 3.343558e+02 4.561022e+01 2.833678e+01 1.028142e+01 2.512478e+02 5.690234e+01 1.104462e+01 1.491352e+01 1.008316e+02 5.376649e+01 2.503536e+01 1.987716e+01 4.154875e+01 5.035173e+01
<GCONST> 1.077704e+02
<MIXTURE> 2 2.857143e-01
<MEAN> 20
 -1.042973e+01 -4.325153e+00 -2.325613e+01 -1.318796e+01 -6.390152e+00 -1.687267e+01 -2.112391e+01 -2.133524e+01 -2.377606e+00 -1.575666e+01 -1.694443e+01 -1.019130e+01 -4.059037e-01 -1.333474e+01 -1.393355e+01 -7.949000e+00 5.948507e-02 -1.023234e+01 -1.271505e+01 -6.786829e+00
<VARIANCE> 20
 4.046374e+00 1.273437e+00 5.616037e+00 7.483018e+00 2.754588e+00 5.235210e+00 7.628634e+00 9.784036e+00 3.043848e+00 5.843317e+00 4.952013e+00 5.696378e+00 5.973017e+00 6.893464e+00 5.751919e+00 6.047969e+00 1.175329e+01 7.542490e+00 1.037029e+01 7.508447e+00
<GCONST> 7.144146e+01
<MIXTURE> 3 4.523810e-01
<MEAN> 20
 -7.968827e+00 -1.994591e+00 -1.378125e+01 -1.014912e+01 -8.814738e+00 -1.274360e+01 -1.427877e+01 -1.440909e+01 -3.928628e+00 -1.282517e+01 -9.898516e+00 -1.054644e+01 5.882018e-01 -1.202170e+01 -5.857994e+00 -8.294018e+00 4.906202e+00 -1.054510e+01 -2.115528e+00 -9.640459e+00
<VARIANCE> 20
 1.816307e+00 1.242755e+00 3.361425e+01 1.085992e+01 1.928767e+01 4.558065e+00 1.447737e+01 2.091047e+01 1.472536e+01 4.085328e+00 8.625323e+00 2.142430e+01 9.821756e+00 3.538078e+00 4.979015e+00 1.112778e+01 8.161745e+00 3.727366e+00 7.849051e+00 2.414052e+01
<GCONST> 7.919942e+01
<MIXTURE> 4 1.111111e-01
<MEAN> 20
 -1.033939e+01 -1.464645e+00 -2.841293e+01 -1.072103e+01 -1.631348e+01 -1.477493e+01 -2.557977e+01 -2.024380e+01 -1.093018e+01 -1.584499e+01 -2.152921e+01 -2.290098e+01 -4.958393e+00 -1.572139e+01 -1.411732e+01 -2.388224e+01 1.838503e+00 -1.456215e+01 -4.082584e+00 -2.155779e+01
<VARIANCE> 20
 1.327033e+00 1.188286e+00 4.092191e+01 2.206664e+00 9.592326e+00 3.710217e-01 8.592232e+00 1.295790e+01 8.959591e+00 3.464902e-01 8.949128e+00 1.405392e+01 8.915695e+00 2.248059e-01 8.965663e+00 2.300409e+01 8.293520e+00 1.355714e-01 1.923951e+01 1.872986e+01
<GCONST> 6.569414e+01
<STATE> 7
<MEAN> 20
 -7.741227e+00 -2.288381e+00 -1.558091e+01 -9.675673e+00 -8.217057e+00 -1.291225e+01 -1.584789e+01 -1.464326e+01 -3.635209e+00 -1.263216e+01 -1.215672e+01 -9.316048e+00 2.567800e-01 -1.130855e+01 -7.469381e+00 -7.498420e+00 3.684352e+00 -9.317230e+00 -4.057242e+00 -7.287484e+00
<VARIANCE> 20
 9.709143e+00 1.948248e+00 8.843415e+01 1.496904e+01 3.016145e+01 6.258099e+00 8.182858e+01 2.194188e+01 1.970968e+01 6.624135e+00 6.678818e+01 4.010805e+01 1.360606e+01 8.320632e+00 3.321362e+01 2.744097e+01 1.626450e+01 1.114395e+01 3.381279e+01 3.497882e+01
<GCONST> 9.620387e+01
<TRANSP> 8
 0.000000e+00 1.000000e+00 0.000000e+00 0.000000e+00 0.000000e+00 0.000000e+00 0.000000e+00 0.000000e+00
 0.000000e+00 9.999999e-02 9.000000e-01 0.000000e+00 0.000000e+00 0.000000e+00 0.000000e+00 0.000000e+00
 0.000000e+00 0.000000e+00 6.666667e-01 3.333333e-01 0.000000e+00 0.000000e+00 0.000000e+00 0.000000e+00
 0.000000e+00 0.000000e+00 0.000000e+00 4.937500e-01 5.062500e-01 0.000000e+00 0.000000e+00 0.000000e+00
 0.000000e+00 0.000000e+00 0.000000e+00 0.000000e+00 5.846154e-01 4.153846e-01 0.000000e+00 0.000000e+00
 0.000000e+00 0.000000e+00 0.000000e+00 0.000000e+00 0.000000e+00 3.571429e-01 6.428571e-01 0.000000e+00
 0.000000e+00 0.000000e+00 0.000000e+00 0.000000e+00 0.000000e+00 0.000000e+00 6.896552e-02 9.310345e-01
 0.000000e+00 0.000000e+00 0.000000e+00 0.000000e+00 0.000000e+00 0.000000e+00 0.000000e+00 0.000000e+00
<ENDHMM>
