~o
<STREAMINFO> 1 20
<VECSIZE> 20<NULLD><USER><DIAGC>
~h "y"
<BEGINHMM>
<NUMSTATES> 5
<STATE> 2
<NUMMIXES> 4
<MIXTURE> 1 2.948936e-01
<MEAN> 20
 -5.694533e+00 -1.152474e+00 -1.163845e+01 -7.636284e+00 -6.848387e+00 -8.755214e+00 -8.596179e+00 -1.030960e+01 -2.660652e+00 -8.931541e+00 -5.273282e+00 -8.827294e+00 1.458973e+00 -8.514786e+00 -1.682556e+00 -7.090704e+00 5.615506e+00 -7.594051e+00 3.311003e+00 -8.275009e+00
<VARIANCE> 20
 6.862044e-01 2.810737e-01 2.791478e+01 5.258374e+00 2.786100e+00 1.363877e+00 4.409895e+00 1.401225e+01 1.922011e+00 1.306234e+00 3.398501e+00 1.765585e+01 1.803867e+00 1.208331e+00 2.665790e+00 1.027822e+01 2.150088e+00 1.184317e+00 1.425359e+01 1.356390e+01
<GCONST> 6.086327e+01
<MIXTURE> 2 4.008511e-01
<MEAN> 20
 -7.930661e+00 -2.409908e+00 -1.328157e+01 -1.232145e+01 -8.089110e+00 -1.331236e+01 -1.259846e+01 -1.913299e+01 -2.585749e+00 -1.344292e+01 -9.172377e+00 -1.612177e+01 2.880521e+00 -1.247574e+01 -4.861712e+00 -9.407034e+00 8.279803e+00 -1.062729e+01 1.482845e-01 -8.725422e+00
<VARIANCE> 20
 6.345577e-01 3.813483e-01 4.335136e+01 4.980692e+00 3.523283e+00 9.590020e-01 1.154620e+01 3.312958e+01 3.427856e+00 9.347562e-01 6.632536e+00 6.242154e+01 3.464674e+00 7.729446e-01 5.233600e+00 1.584006e+01 3.277398e+00 8.267511e-01 7.694272e+00 1.472118e+01
<GCONST> 6.619753e+01
<MIXTURE> 3 1.242553e-01
<MEAN> 20
 -6.993898e+00 -2.730636e+00 -1.787845e+01 -1.160713e+01 -8.586736e+00 -1.293530e+01 -2.038910e+01 -1.684885e+01 -5.014207e+00 -1.262565e+01 -1.786469e+01 -1.377392e+01 -1.853933e+00 -1.120339e+01 -1.200521e+01 -8.686109e+00 8.674492e-01 -9.033867e+00 -8.288443e+00 -7.612322e+00
<VARIANCE> 20
 1.988779e+01 4.341237e+00 1.339058e+02 3.307364e+01 6.861980e+01 1.399986e+01 1.290180e+02 5.824861e+01 4.501635e+01 1.510709e+01 1.272110e+02 7.918157e+01 3.447316e+01 1.809591e+01 7.796198e+01 5.126570e+01 4.614320e+01 2.123382e+01 9.394450e+01 5.134676e+01
<GCONST> 1.112415e+02
<MIXTURE> 4 1.800000e-01
<MEAN> 20
 -9.909848e+00 -2.712603e+00 -2.602992e+01 -1.503061e+01 -1.043178e+01 -1.531986e+01 -1.402003e+01 -1.035724e+01 -3.731045e+00 -1.545763e+01 -8.611562e+00 -8.366233e+00 2.872495e+00 -1.469038e+01 -3.671738e+00 -8.578526e+00 9.111562e+00 -1.317864e+01 9.774510e+00 -1.997578e+01
<VARIANCE> 20
 2.390647e+00 7.459587e-01 4.483226e+01 1.037814e+01 1.255637e+01 5.168970e+00 1.055402e+01 7.680622e+00 9.397121e+00 5.367861e+00 6.514824e+00 5.039472e+00 7.228450e+00 4.766574e+00 6.033491e+00 4.620974e+00 6.975406e+00 4.537720e+00 5.432267e+01 6.245479e+01
<GCONST> 7.791077e+01
<STATE> 3
<NUMMIXES> 4
<MIXTURE> 1 4.102061e-01
<MEAN> 20
 -8.132775e+00 -2.750999e+00 -1.966210e+01 -1.458848e+01 -6.777561e+00 -1.291635e+01 -9.951107e+00 -9.011437e+00 -1.083855e+00 -1.270880e+01 -5.880568e+00 -7.576033e+00 4.453120e+00 -1.188856e+01 -2.334606e+00 -7.473591e+00 9.848779e+00 -1.048437e+01 7.672829e+00 -1.665092e+01
<VARIANCE> 20
 3.777864e-01 2.589830e-01 1.052827e+01 2.448118e+00 1.974550e+00 5.800410e-01 2.024147e+00 3.148311e+00 1.719503e+00 5.456979e-01 2.070367e+00 2.619499e+00 1.636241e+00 5.209002e-01 2.338858e+00 2.942433e+00 1.608393e+00 6.879097e-01 1.715463e+01 2.897024e+01
<GCONST> 4.937603e+01
<MIXTURE> 2 8.341511e-02
<MEAN> 20
 3.023585e+00 -1.760576e+00 8.572340e+00 -8.032067e+00 6.131982e+00 -9.510777e+00 5.942899e+00 -8.226276e+00 4.278239e+00 -9.492003e+00 3.540782e+00 -5.928588e+00 1.982710e+00 -8.566422e+00 1.709352e+00 -5.403550e+00 -4.592317e-01 -7.079410e+00 -1.583701e+00 -9.004684e+00
<VARIANCE> 20
 4.085055e+01 2.357728e+00 3.406938e+02 2.109254e+01 8.122432e+01 1.133146e+01 2.079509e+02 2.875631e+01 4.460941e+01 1.552786e+01 1.653226e+02 5.811138e+01 4.454312e+01 2.083038e+01 8.102102e+01 5.043250e+01 7.466114e+01 2.533996e+01 1.361959e+02 9.747346e+01
<GCONST> 1.136241e+02
<MIXTURE> 3 2.271835e-01
<MEAN> 20
 -7.152968e+00 -1.339103e+00 -1.666613e+01 -8.835796e+00 -9.490817e+00 -1.067837e+01 -1.447310e+01 -1.342046e+01 -4.571155e+00 -1.105805e+01 -1.037349e+01 -1.132061e+01 3.955029e-01 -1.053826e+01 -5.894019e+00 -8.527689e+00 5.332880e+00 -9.289351e+00 -3.272402e-01 -9.405479e+00
<VARIANCE> 20
 1.268065e+00 6.764872e-01 4.186810e+01 8.757027e+00 9.648271e+00 1.608135e+00 2.362085e+01 2.958566e+01 7.256422e+00 1.425559e+00 2.347743e+01 3.945817e+01 5.861881e+00 1.444059e+00 2.020838e+01 2.286999e+01 5.563885e+00 2.058223e+00 3.610787e+01 2.667836e+01
<GCONST> 7.854792e+01
<MIXTURE> 4 2.791953e-01
<MEAN> 20
 -9.097445e+00 -2.244279e+00 -1.923485e+01 -1.316041e+01 -1.073162e+01 -1.461078e+01 -1.765551e+01 -2.006420e+01 -4.905553e+00 -1.499869e+01 -1.312965e+01 -1.842067e+01 8.546653e-01 -1.417260e+01 -8.143414e+00 -1.411370e+01 6.453876e+00 -1.233693e+01 -1.328480e+00 -1.434851e+01
<VARIANCE> 20
 1.640456e+00 9.644929e-01 5.881695e+01 7.471044e+00 1.009806e+01 2.968196e+00 2.063960e+01 4.927453e+01 7.561707e+00 2.681863e+00 2.644715e+01 7.780257e+01 7.081548e+00 2.305876e+00 3.285501e+01 5.523888e+01 9.531026e+00 2.500003e+00 7.674825e+01 4.866375e+01
<GCONST> 8.595871e+01
<STATE> 4
<NUMMIXES> 4
<MIXTURE> 1 2.656538e-01
<MEAN> 20
 -7.195836e+00 -2.370459e+00 -1.799757e+01 -1.167377e+01 -5.296676e+00 -1.177802e+01 -8.456503e+00 -8.562161e+00 2.000476e-01 -1.149793e+01 -4.713623e+00 -6.686249e+00 5.303584e+00 -1.049241e+01 -7.202302e-01 -6.886400e+00 1.000088e+01 -8.914577e+00 1.121370e+01 -1.412070e+01
<VARIANCE> 20
 1.576112e+00 5.356249e-01 3.413915e+01 1.237394e+01 3.974896e+00 4.116353e+00 5.507106e+00 1.229321e+01 2.992877e+00 3.761091e+00 4.598255e+00 8.197403e+00 2.938261e+00 2.924940e+00 6.122863e+00 7.554585e+00 3.226198e+00 2.531501e+00 3.081815e+01 2.417217e+01
<GCONST> 7.039340e+01
<MIXTURE> 2 2.444751e-01
<MEAN> 20
 -1.028976e+01 -1.769662e+00 -2.651587e+01 -1.315238e+01 -1.473077e+01 -1.447159e+01 -1.944876e+01 -1.276669e+01 -8.389987e+00 -1.517005e+01 -1.334833e+01 -1.015722e+01 -1.840928e+00 -1.479542e+01 -8.240680e+00 -8.960006e+00 4.651519e+00 -1.354588e+01 6.668190e-01 -1.681905e+01
<VARIANCE> 20
 2.263217e+00 9.377362e-01 5.561110e+01 1.514496e+01 7.029039e+00 5.014740e+00 1.869771e+01 4.723225e+01 5.869648e+00 4.425090e+00 1.494002e+01 4.751986e+01 6.042016e+00 3.290371e+00 1.414778e+01 2.035761e+01 7.396079e+00 2.649278e+00 4.849485e+01 7.701996e+01
<GCONST> 8.426778e+01
<MIXTURE> 3 3.779926e-01
<MEAN> 20
 -7.346519e+00 -1.675510e+00 -1.559774e+01 -1.019560e+01 -8.631831e+00 -1.138747e+01 -1.185480e+01 -1.361956e+01 -3.516934e+00 -1.161277e+01 -7.629508e+00 -1.202848e+01 1.607819e+00 -1.105784e+01 -3.419372e+00 -9.718925e+00 6.821264e+00 -9.835620e+00 2.677660e+00 -1.214388e+01
<VARIANCE> 20
 9.447153e-01 5.324687e-01 5.292344e+01 5.910753e+00 2.744659e+00 1.255325e+00 6.149503e+00 2.984300e+01 1.856287e+00 1.124598e+00 4.901305e+00 3.715874e+01 1.710675e+00 9.850014e-01 5.086315e+00 2.216200e+01 2.071732e+00 1.056029e+00 1.299988e+01 3.081570e+01
<GCONST> 6.622871e+01
<MIXTURE> 4 1.118785e-01
<MEAN> 20
 -5.344022e+00 -2.517512e+00 -2.014106e+01 -6.528171e+00 -1.055710e+01 -9.658916e+00 -2.437975e+01 -8.234973e+00 -8.768167e+00 -8.716696e+00 -2.300895e+01 -5.153402e+00 -7.125896e+00 -6.899049e+00 -1.488825e+01 -2.437904e+00 -5.636645e+00 -4.658788e+00 -1.251138e+01 -2.290464e+00
<VARIANCE> 20
 2.501374e+01 4.956386e+00 1.686966e+02 2.887393e+01 7.436687e+01 1.331265e+01 1.953984e+02 5.801761e+01 4.735274e+01 1.403358e+01 1.688478e+02 7.533164e+01 3.944000e+01 1.861272e+01 6.822231e+01 3.625663e+01 5.291212e+01 2.472923e+01 6.778251e+01 4.535145e+01
<GCONST> 1.118716e+02
<TRANSP> 5
 0.000000e+00 1.000000e+00 0.000000e+00 0.000000e+00 0.000000e+00
 0.000000e+00 7.412766e-01 2.587234e-01 0.000000e+00 0.000000e+00
 0.000000e+00 0.000000e+00 7.016683e-01 2.983317e-01 0.000000e+00
 0.000000e+00 0.000000e+00 0.000000e+00 7.200736e-01 2.799264e-01
 0.000000e+00 0.000000e+00 0.000000e+00 0.000000e+00 0.000000e+00
<ENDHMM>
