~o
<STREAMINFO> 1 20
<VECSIZE> 20<NULLD><USER><DIAGC>
~h "z"
<BEGINHMM>
<NUMSTATES> 8
<STATE> 2
<MEAN> 20
 -8.113965e+00 -1.753981e+00 -1.562548e+01 -1.175425e+01 -1.084502e+01 -1.248852e+01 -1.470844e+01 -1.331279e+01 -5.328051e+00 -1.285059e+01 -8.402435e+00 -8.616048e+00 1.910852e-01 -1.235505e+01 -3.921724e+00 -7.770427e+00 5.874969e+00 -1.119288e+01 3.753654e-01 -1.037491e+01
<VARIANCE> 20
 2.784464e+00 1.394014e+00 3.092463e+01 1.134803e+01 1.193711e+01 7.810105e+00 3.456262e+01 2.365481e+01 1.071327e+01 7.181588e+00 9.430116e+00 2.857303e+01 9.429397e+00 6.045197e+00 6.405577e+00 2.853188e+01 8.132139e+00 5.197365e+00 1.170260e+01 4.266009e+01
<GCONST> 8.436351e+01
<STATE> 3
<NUMMIXES> 4
<MIXTURE> 1 2.800000e-01
<MEAN> 20
 -5.355058e+00 -1.564921e+00 -6.543170e+00 -9.698687e+00 -5.945435e+00 -1.004554e+01 -7.105983e+00 -1.582301e+01 -9.118443e-01 -1.031755e+01 -3.812695e+00 -5.536852e+00 3.637882e+00 -9.570574e+00 -6.388986e-01 -4.621543e+00 7.996644e+00 -8.185492e+00 4.390954e+00 -6.695874e+00
<VARIANCE> 20
 1.196815e+00 1.049576e-01 9.809936e+00 1.583392e+00 4.763557e+00 6.648157e+00 1.059034e+01 1.585756e+01 1.358062e+00 8.674764e+00 1.359886e+00 8.382754e-01 2.957399e+00 7.105803e+00 6.018961e-01 5.669762e-01 7.581664e+00 4.600320e+00 3.377683e+00 8.330956e+00
<GCONST> 5.746150e+01
<MIXTURE> 2 2.400000e-01
<MEAN> 20
 -9.497485e+00 -7.097820e-01 -1.816825e+01 -1.018215e+01 -1.484388e+01 -1.139678e+01 -1.512992e+01 -9.140088e+00 -9.599464e+00 -1.227936e+01 -9.958897e+00 -8.437439e+00 -4.121085e+00 -1.274969e+01 -6.514324e+00 -8.716147e+00 1.705753e+00 -1.277467e+01 -4.951596e+00 -2.204152e+01
<VARIANCE> 20
 1.288688e-01 3.117362e-02 1.119253e+01 1.774425e-01 6.378379e-01 6.213211e-01 1.180941e+00 7.088610e+00 9.988237e-01 3.925098e-01 2.356149e+00 4.984810e+00 2.016891e+00 1.334380e-01 4.366632e+00 4.461336e+00 3.214703e+00 1.103787e-01 1.460864e+01 4.790982e+00
<GCONST> 3.952194e+01
<MIXTURE> 3 3.600000e-01
<MEAN> 20
 -8.414276e+00 -2.209396e+00 -1.800897e+01 -1.339734e+01 -9.826193e+00 -1.258554e+01 -1.343979e+01 -1.084962e+01 -4.065381e+00 -1.278313e+01 -7.383804e+00 -7.154622e+00 1.842085e+00 -1.219478e+01 -2.768671e+00 -6.330229e+00 7.924272e+00 -1.088472e+01 1.443074e+00 -6.924956e+00
<VARIANCE> 20
 4.618043e-01 6.635149e-01 7.891095e+00 5.610323e+00 7.827318e-01 3.476855e-01 1.698610e+01 1.906067e+01 8.271676e-01 6.272065e-01 1.403812e+00 1.589748e+00 1.056136e+00 5.358711e-01 8.466724e-01 2.028318e+00 1.158908e+00 4.415160e-01 2.676163e+00 8.347185e-01
<GCONST> 4.409538e+01
<MIXTURE> 4 1.200000e-01
<MEAN> 20
 -8.666222e+00 -2.147157e+00 -1.493991e+01 -1.121716e+01 -1.309786e+01 -1.407938e+01 -1.972081e+01 -2.157630e+01 -8.062113e+00 -1.478280e+01 -1.244798e+01 -2.046209e+01 -2.644241e+00 -1.432675e+01 -7.498969e+00 -1.964037e+01 3.328884e+00 -1.291312e+01 -1.978810e+00 -1.741690e+01
<VARIANCE> 20
 8.709837e-01 1.144412e+00 4.526451e+01 1.170327e+01 1.214356e+01 3.442845e+00 7.525758e+01 3.081851e+01 9.458225e+00 1.532582e+00 5.917965e-01 1.020811e+02 5.585257e+00 1.102362e+00 2.556461e-01 9.659777e+01 2.863882e+00 1.699312e+00 1.813811e+00 5.732846e+01
<GCONST> 7.253464e+01
<STATE> 4
<NUMMIXES> 4
<MIXTURE> 1 3.414634e-01
<MEAN> 20
 -5.788427e+00 -1.307877e+00 -1.184220e+01 -9.297857e+00 -7.525062e+00 -9.660045e+00 -8.893723e+00 -1.198667e+01 -2.530125e+00 -9.842080e+00 -5.070186e+00 -5.285826e+00 2.268378e+00 -9.333605e+00 -1.816291e+00 -3.807690e+00 7.032744e+00 -8.269407e+00 1.813362e+00 -5.174781e+00
<VARIANCE> 20
 8.523418e-01 4.555854e-02 1.278398e+01 1.579932e+00 2.121993e+00 8.859344e-01 2.859176e+00 7.591482e+00 8.952249e-01 9.145313e-01 1.081502e+00 3.944526e-01 2.042332e-01 9.224782e-01 5.193945e-01 3.796752e-01 3.369500e-01 8.175682e-01 1.634377e+00 1.707189e+00
<GCONST> 3.561562e+01
<MIXTURE> 2 1.707317e-01
<MEAN> 20
 -9.038556e+00 -1.153466e+00 -1.412705e+01 -1.107050e+01 -1.465822e+01 -1.292193e+01 -1.808247e+01 -1.358219e+01 -8.674570e+00 -1.382081e+01 -9.658462e+00 -1.106457e+01 -2.771295e+00 -1.391760e+01 -4.793520e+00 -1.111921e+01 3.307380e+00 -1.333456e+01 -1.186616e+00 -1.492254e+01
<VARIANCE> 20
 2.651920e-01 4.049445e-01 6.325037e+01 5.786163e+00 2.840772e-01 2.128843e+00 2.398256e+01 7.558502e+00 4.523433e-01 1.610406e+00 3.145954e-01 1.667104e+01 8.155972e-01 1.216033e+00 8.758273e-01 1.850569e+01 1.105102e+00 1.343047e+00 1.060307e+01 2.101858e+01
<GCONST> 5.504494e+01
<MIXTURE> 3 3.658537e-01
<MEAN> 20
 -7.756225e+00 -1.965962e+00 -1.418322e+01 -1.115326e+01 -9.116807e+00 -1.357372e+01 -1.595739e+01 -1.890929e+01 -2.511724e+00 -1.401636e+01 -8.791969e+00 -6.134566e+00 3.736597e+00 -1.293594e+01 -3.608539e+00 -4.688616e+00 9.581054e+00 -1.089229e+01 1.339625e+00 -5.353314e+00
<VARIANCE> 20
 2.744266e-01 2.175818e-01 1.172900e+01 2.900245e+00 9.677395e-01 4.362918e-01 1.389843e+01 2.063495e+01 9.517571e-01 6.119353e-01 4.612444e+00 7.744541e-01 9.645913e-01 3.613483e-01 2.360199e+00 1.088972e+00 8.344083e-01 2.199120e-01 1.414521e+00 4.202239e-01
<GCONST> 4.066954e+01
<MIXTURE> 4 1.219512e-01
<MEAN> 20
 -9.204610e+00 -1.396222e+00 -2.317201e+01 -1.077505e+01 -1.377867e+01 -1.140812e+01 -2.541898e+01 -1.645328e+01 -9.485028e+00 -1.246920e+01 -1.386139e+01 -1.037997e+01 -4.704412e+00 -1.288409e+01 -9.839504e+00 -1.017066e+01 8.265342e-01 -1.258734e+01 -8.366856e+00 -1.442166e+01
<VARIANCE> 20
 1.807677e-01 8.448515e-01 7.031366e+00 3.132380e+00 1.369024e+01 2.198272e+00 7.195897e+01 1.714940e+01 1.039758e+01 1.033385e+00 5.167333e-01 6.144737e+01 7.231144e+00 2.533220e-01 2.699138e+00 5.426170e+01 5.547297e+00 1.023218e-01 1.803775e+01 4.415497e+01
<GCONST> 6.603127e+01
<STATE> 5
<NUMMIXES> 4
<MIXTURE> 1 4.062500e-01
<MEAN> 20
 -6.772964e+00 -1.465847e+00 -1.261216e+01 -9.891516e+00 -9.196915e+00 -1.155787e+01 -1.301637e+01 -1.561550e+01 -3.278051e+00 -1.202537e+01 -6.301068e+00 -6.266907e+00 2.361787e+00 -1.138577e+01 -2.123680e+00 -5.065849e+00 7.961271e+00 -9.995547e+00 2.267418e+00 -6.214452e+00
<VARIANCE> 20
 1.370586e+00 3.153802e-01 2.172748e+01 3.269469e+00 5.862184e+00 3.890061e+00 2.475662e+01 1.527919e+01 3.108064e+00 4.782161e+00 3.232343e+00 1.320966e+00 1.831983e+00 4.192040e+00 1.204672e+00 1.521869e+00 2.188252e+00 3.220540e+00 1.868605e+00 6.213462e+00
<GCONST> 6.044430e+01
<MIXTURE> 2 1.250000e-01
<MEAN> 20
 -9.422366e+00 -2.372271e+00 -1.541762e+01 -1.358547e+01 -1.223854e+01 -1.356967e+01 -1.517151e+01 -1.146101e+01 -6.813489e+00 -1.387375e+01 -1.006315e+01 -1.030668e+01 -1.208967e+00 -1.356522e+01 -5.504588e+00 -9.675987e+00 4.770207e+00 -1.256648e+01 -2.859056e+00 -1.286395e+01
<VARIANCE> 20
 1.054046e+00 2.562117e+00 3.984731e+01 1.105829e+01 3.308182e+00 1.946783e+00 8.021286e-01 5.006702e+00 1.814930e+00 1.481984e+00 9.112727e-01 8.538412e+00 1.697864e+00 1.160002e+00 3.251496e+00 1.350605e+01 2.131838e+00 6.646449e-01 1.274517e+01 2.018286e+01
<GCONST> 6.049172e+01
<MIXTURE> 3 2.812500e-01
<MEAN> 20
 -8.471620e+00 -4.266091e-01 -2.302672e+01 -8.795090e+00 -1.777408e+01 -1.005201e+01 -3.367658e+01 -1.697572e+01 -1.240190e+01 -1.172715e+01 -1.246957e+01 -4.095689e+00 -6.444203e+00 -1.236809e+01 -7.058114e+00 -4.213805e+00 1.112114e-01 -1.217143e+01 -4.510318e+00 -5.728478e+00
<VARIANCE> 20
 6.728759e-02 1.634348e-01 9.384480e+00 4.149020e+00 7.358651e+00 9.069493e-01 2.897926e+01 4.736762e+00 6.041875e+00 4.248011e-01 4.995622e+00 3.731953e+00 4.497417e+00 1.206952e-01 4.561108e+00 2.848042e+00 3.081091e+00 6.478707e-02 9.323662e+00 2.865624e+00
<GCONST> 5.022476e+01
<MIXTURE> 4 1.875000e-01
<MEAN> 20
 -8.877932e+00 -3.422395e+00 -2.006358e+01 -1.589274e+01 -9.382710e+00 -1.490231e+01 -1.330360e+01 -2.198925e+01 -4.467994e+00 -1.477686e+01 -1.338560e+01 -1.303086e+01 4.580616e-01 -1.399149e+01 -9.140285e+00 -1.204943e+01 5.628964e+00 -1.270630e+01 -3.963716e+00 -1.885817e+01
<VARIANCE> 20
 2.222079e+00 4.585044e-02 2.185369e+00 1.558375e+00 1.247119e+01 1.582933e+00 1.316394e+01 3.553811e+01 9.230094e+00 2.085951e+00 2.070095e+00 6.946949e+00 6.638761e+00 2.988220e+00 2.637290e+00 8.542876e+00 4.837574e+00 5.099887e+00 3.808314e+00 5.776333e+01
<GCONST> 6.515504e+01
<STATE> 6
<NUMMIXES> 4
<MIXTURE> 1 1.136364e-01
<MEAN> 20
 -5.531844e+00 -1.098092e+00 -1.191987e+01 -7.770209e+00 -7.028934e+00 -9.120533e+00 -8.307074e+00 -1.223946e+01 -2.434227e+00 -9.246067e+00 -4.787776e+00 -6.756202e+00 1.932097e+00 -8.775145e+00 -1.087897e+00 -5.603184e+00 6.406582e+00 -7.780386e+00 2.834035e+00 -6.172913e+00
<VARIANCE> 20
 1.022192e+00 1.194696e-02 2.532073e+01 1.578247e+00 5.010926e+00 7.594491e-01 1.251506e+01 1.775347e+00 2.374619e+00 1.247411e+00 5.158892e+00 9.868890e-01 5.468785e-01 1.604171e+00 4.047070e+00 1.944598e+00 1.138887e-01 1.766582e+00 4.251982e+00 8.305255e-01
<GCONST> 4.478130e+01
<MIXTURE> 2 4.090909e-01
<MEAN> 20
 -8.075407e+00 -1.855658e+00 -1.639846e+01 -1.202281e+01 -1.089306e+01 -1.281827e+01 -1.890076e+01 -1.859085e+01 -4.980340e+00 -1.341607e+01 -8.799819e+00 -6.400492e+00 9.502525e-01 -1.287770e+01 -4.075593e+00 -5.549409e+00 7.038001e+00 -1.146294e+01 -2.825648e-01 -5.834682e+00
<VARIANCE> 20
 4.430837e-01 7.794974e-01 5.920196e+00 8.979337e+00 4.206203e+00 5.253001e-01 1.579762e+01 1.934194e+01 2.684726e+00 1.631301e-01 1.360536e+00 4.061146e+00 1.930252e+00 5.655240e-02 2.387073e+00 3.030691e+00 1.821500e+00 1.058012e-01 4.664072e+00 3.157318e+00
<GCONST> 4.787337e+01
<MIXTURE> 3 1.136364e-01
<MEAN> 20
 -9.816979e+00 -1.742898e+00 -1.226323e+01 -1.293832e+01 -1.563065e+01 -1.472771e+01 -1.812811e+01 -1.402767e+01 -9.705199e+00 -1.544731e+01 -1.163905e+01 -1.331838e+01 -3.834091e+00 -1.530979e+01 -6.316628e+00 -1.321775e+01 2.254597e+00 -1.454399e+01 -6.506359e-03 -2.127737e+01
<VARIANCE> 20
 1.450530e+00 8.651726e-01 8.106836e+01 1.252442e+01 1.000000e-02 1.690143e+00 9.890286e-01 1.224555e+00 2.818450e-01 7.121057e-01 7.123331e-01 5.234715e+00 5.917335e-01 5.376148e-01 2.166792e+00 1.029080e+01 1.005374e+00 1.065413e+00 3.615012e-01 5.064819e+01
<GCONST> 4.466430e+01
<MIXTURE> 4 3.636364e-01
<MEAN> 20
 -7.169990e+00 -1.797581e+00 -9.242205e+00 -1.017633e+01 -8.721859e+00 -1.319727e+01 -1.245494e+01 -1.930089e+01 -1.772136e+00 -1.379317e+01 -5.888206e+00 -6.041161e+00 4.515092e+00 -1.273809e+01 -1.184542e+00 -5.096782e+00 1.034339e+01 -1.066717e+01 3.451581e+00 -6.031398e+00
<VARIANCE> 20
 1.201966e-01 8.593716e-02 3.801910e+00 1.913600e+00 2.233994e+00 5.094085e-01 8.282527e+00 8.921854e+00 2.410857e+00 3.527066e-01 2.459608e+00 2.317626e+00 2.449733e+00 1.458266e-01 1.000052e+00 1.901669e+00 2.121452e+00 4.268696e-01 1.718830e+00 7.599790e+00
<GCONST> 4.226363e+01
<STATE> 7
<MEAN> 20
 -7.424292e+00 -1.520376e+00 -1.263679e+01 -1.047005e+01 -9.900382e+00 -1.224405e+01 -1.376069e+01 -1.778553e+01 -3.909853e+00 -1.272205e+01 -7.327645e+00 -7.014553e+00 1.823507e+00 -1.205966e+01 -2.931966e+00 -6.105076e+00 7.491899e+00 -1.059595e+01 1.400713e+00 -7.690133e+00
<VARIANCE> 20
 2.020133e+00 5.134479e-01 2.211083e+01 8.829122e+00 1.030992e+01 3.884541e+00 1.981621e+01 2.896111e+01 7.614750e+00 4.492025e+00 7.844641e+00 8.049170e+00 6.286592e+00 4.492363e+00 6.719611e+00 9.574135e+00 6.056584e+00 4.632435e+00 6.825259e+00 3.664262e+01
<GCONST> 7.614954e+01
<TRANSP> 8
 0.000000e+00 1.000000e+00 0.000000e+00 0.000000e+00 0.000000e+00 0.000000e+00 0.000000e+00 0.000000e+00
 0.000000e+00 9.523809e-02 9.047619e-01 0.000000e+00 0.000000e+00 0.000000e+00 0.000000e+00 0.000000e+00
 0.000000e+00 0.000000e+00 6.200000e-01 3.800000e-01 0.000000e+00 0.000000e+00 0.000000e+00 0.000000e+00
 0.000000e+00 0.000000e+00 0.000000e+00 5.365854e-01 4.634146e-01 0.000000e+00 0.000000e+00 0.000000e+00
 0.000000e+00 0.000000e+00 0.000000e+00 0.000000e+00 4.062500e-01 5.937500e-01 0.000000e+00 0.000000e+00
 0.000000e+00 0.000000e+00 0.000000e+00 0.000000e+00 0.000000e+00 5.681818e-01 4.318182e-01 0.000000e+00
 0.000000e+00 0.000000e+00 0.000000e+00 0.000000e+00 0.000000e+00 0.000000e+00 0.000000e+00 1.000000e+00
 0.000000e+00 0.000000e+00 0.000000e+00 0.000000e+00 0.000000e+00 0.000000e+00 0.000000e+00 0.000000e+00
<ENDHMM>
